{"learner":{"attributes":{"best_iteration":"103","best_score":"0.5907617652045173"},"feature_names":[],"feature_types":[],"gradient_booster":{"model":{"gbtree_model_param":{"num_parallel_tree":"1","num_trees":"154"},"iteration_indptr":[0,1,2,3,4,5,6,7,8,9,10,11,12,13,14,15,16,17,18,19,20,21,22,23,24,25,26,27,28,29,30,31,32,33,34,35,36,37,38,39,40,41,42,43,44,45,46,47,48,49,50,51,52,53,54,55,56,57,58,59,60,61,62,63,64,65,66,67,68,69,70,71,72,73,74,75,76,77,78,79,80,81,82,83,84,85,86,87,88,89,90,91,92,93,94,95,96,97,98,99,100,101,102,103,104,105,106,107,108,109,110,111,112,113,114,115,116,117,118,119,120,121,122,123,124,125,126,127,128,129,130,131,132,133,134,135,136,137,138,139,140,141,142,143,144,145,146,147,148,149,150,151,152,153,154],"tree_info":[0,0,0,0,0,0,0,0,0,0,0,0,0,0,0,0,0,0,0,0,0,0,0,0,0,0,0,0,0,0,0,0,0,0,0,0,0,0,0,0,0,0,0,0,0,0,0,0,0,0,0,0,0,0,0,0,0,0,0,0,0,0,0,0,0,0,0,0,0,0,0,0,0,0,0,0,0,0,0,0,0,0,0,0,0,0,0,0,0,0,0,0,0,0,0,0,0,0,0,0,0,0,0,0,0,0,0,0,0,0,0,0,0,0,0,0,0,0,0,0,0,0,0,0,0,0,0,0,0,0,0,0,0,0,0,0,0,0,0,0,0,0,0,0,0,0,0,0,0,0,0,0,0,0],"trees":[{"base_weights":[2.328338E-2,7.611724E-1,-2.7235475E-1,-5.839542E-2,9.2133695E-1,-9.7688526E-1,1.2547049E-1,-2.7051946E-2,4.6188664E-2,2.3547517E-2,5.757028E-2,-5.9396107E-2,-1.14336675E-2,1.457689E-2,-3.1795084E-2],"categories":[],"categories_nodes":[],"categories_segments":[],"categories_sizes":[],"default_left":[0,0,0,0,0,0,0,0,0,0,0,0,0,0,0],"id":0,"left_children":[1,3,5,7,9,11,13,-1,-1,-1,-1,-1,-1,-1,-1],"loss_changes":[1.3374916E2,2.3073982E1,1.2282649E2,1.4535877E1,1.4665123E1,2.4693405E1,3.5674797E1,0E0,0E0,0E0,0E0,0E0,0E0,0E0,0E0],"parents":[2147483647,0,0,1,1,2,2,3,3,4,4,5,5,6,6],"right_children":[2,4,6,8,10,12,14,-1,-1,-1,-1,-1,-1,-1,-1],"split_conditions":[-1E0,-6.306644E0,-4.409745E-1,1.0511118E-1,-2.7611174E-2,5.3333335E0,3E0,-2.7051946E-2,4.6188664E-2,2.3547517E-2,5.757028E-2,-5.9396107E-2,-1.14336675E-2,1.457689E-2,-3.1795084E-2],"split_indices":[9,10,10,1,1,5,9,0,0,0,0,0,0,0,0],"split_type":[0,0,0,0,0,0,0,0,0,0,0,0,0,0,0],"sum_hessian":[6.111614E2,1.743709E2,4.3679047E2,2.8609652E1,1.4576125E2,1.5710645E2,2.7968402E2,1.948416E1,9.125492E0,5.0313526E1,9.5447716E1,1.2208429E2,3.502216E1,2.301104E2,4.957362E1],"tree_param":{"num_deleted":"0","num_feature":"11","num_nodes":"15","size_leaf_vector":"1"}},{"base_weights":[1.5504257E-3,7.6318884E-1,-2.9860142E-1,1.0320884E0,1.18799806E-1,-9.081681E-1,7.7430606E-2,3.623944E-2,6.946354E-2,-3.246824E-2,2.8394593E-2,-6.971279E-2,-3.1378277E-2,-1.9638836E-2,1.9944383E-2],"categories":[],"categories_nodes":[],"categories_segments":[],"categories_sizes":[],"default_left":[0,0,0,0,0,0,0,0,0,0,0,0,0,0,0],"id":1,"left_children":[1,3,5,7,9,11,13,-1,-1,-1,-1,-1,-1,-1,-1],"loss_changes":[1.3655678E2,2.9136604E1,9.8286575E1,1.2056038E1,1.7909882E1,2.1433853E1,4.035224E1,0E0,0E0,0E0,0E0,0E0,0E0,0E0,0E0],"parents":[2147483647,0,0,1,1,2,2,3,3,4,4,5,5,6,6],"right_children":[2,4,6,8,10,12,14,-1,-1,-1,-1,-1,-1,-1,-1],"split_conditions":[-1E0,3.3333333E0,-2.171204E-1,7.881698E-1,-4.921176E-2,-6.572501E-2,-1E-1,3.623944E-2,6.946354E-2,-3.246824E-2,2.8394593E-2,-6.971279E-2,-3.1378277E-2,-1.9638836E-2,1.9944383E-2],"split_indices":[9,6,10,10,1,1,3,0,0,0,0,0,0,0,0],"split_type":[0,0,0,0,0,0,0,0,0,0,0,0,0,0,0],"sum_hessian":[5.953457E2,1.6785902E2,4.274867E2,1.1801177E2,4.984725E1,1.6255759E2,2.649291E2,6.506376E1,5.2948017E1,1.822601E1,3.162124E1,5.8042248E1,1.04515335E2,1.0748495E2,1.5744415E2],"tree_param":{"num_deleted":"0","num_feature":"11","num_nodes":"15","size_leaf_vector":"1"}},{"base_weights":[-5.045275E-4,5.5803025E-1,-3.896919E-1,4.0530812E-2,8.477276E-1,-8.184733E-1,-1.2457263E-1,-4.631768E-2,9.062548E-3,5.2152905E-3,4.755763E-2,-2.873074E-2,-5.352814E-2,-1.5243187E-2,1.6227666E-2],"categories":[],"categories_nodes":[],"categories_segments":[],"categories_sizes":[],"default_left":[0,0,0,0,0,0,0,0,0,0,0,0,0,0,0],"id":2,"left_children":[1,3,5,7,9,11,13,-1,-1,-1,-1,-1,-1,-1,-1],"loss_changes":[1.3139098E2,3.7178185E1,4.03931E1,1.2431583E1,1.2132561E1,7.7406387E0,1.801848E1,0E0,0E0,0E0,0E0,0E0,0E0,0E0,0E0],"parents":[2147483647,0,0,1,1,2,2,3,3,4,4,5,5,6,6],"right_children":[2,4,6,8,10,12,14,-1,-1,-1,-1,-1,-1,-1,-1],"split_conditions":[0E0,-2.7611174E-2,-1.2086051E-2,-5.555545E0,-4.4075236E-2,2E0,5E0,-4.631768E-2,9.062548E-3,5.2152905E-3,4.755763E-2,-2.873074E-2,-5.352814E-2,-1.5243187E-2,1.6227666E-2],"split_indices":[9,1,0,4,0,9,5,0,0,0,0,0,0,0,0],"split_type":[0,0,0,0,0,0,0,0,0,0,0,0,0,0,0],"sum_hessian":[6.024443E2,2.4721893E2,3.5522534E2,8.913428E1,1.5808466E2,1.3492383E2,2.2030151E2,1.061512E1,7.851916E1,1.9552095E1,1.3853256E2,7.024848E1,6.467535E1,1.5742725E2,6.2874275E1],"tree_param":{"num_deleted":"0","num_feature":"11","num_nodes":"15","size_leaf_vector":"1"}},{"base_weights":[8.397497E-3,6.8745404E-1,-2.5489026E-1,-1.12649664E-1,8.8592005E-1,-9.613629E-1,4.0391155E-2,6.7486763E-3,-4.3230984E-2,3.3792634E-2,6.3018955E-2,-5.896032E-2,-2.249891E-2,-2.1169476E-2,1.786874E-2],"categories":[],"categories_nodes":[],"categories_segments":[],"categories_sizes":[],"default_left":[0,0,0,0,0,0,0,0,0,0,0,0,0,0,0],"id":3,"left_children":[1,3,5,7,9,11,13,-1,-1,-1,-1,-1,-1,-1,-1],"loss_changes":[1.0740315E2,2.675151E1,9.034794E1,6.4933414E0,9.735527E0,1.3689552E1,4.5175594E1,0E0,0E0,0E0,0E0,0E0,0E0,0E0,0E0],"parents":[2147483647,0,0,1,1,2,2,3,3,4,4,5,5,6,6],"right_children":[2,4,6,8,10,12,14,-1,-1,-1,-1,-1,-1,-1,-1],"split_conditions":[-1E0,-1.7857143E-1,-1.681839E0,1E1,2.3533537E0,4.411765E-2,0E0,6.7486763E-3,-4.3230984E-2,3.3792634E-2,6.3018955E-2,-5.896032E-2,-2.249891E-2,-2.1169476E-2,1.786874E-2],"split_indices":[9,2,10,6,4,2,3,0,0,0,0,0,0,0,0],"split_type":[0,0,0,0,0,0,0,0,0,0,0,0,0,0,0],"sum_hessian":[5.987514E2,1.6683897E2,4.3191245E2,3.324523E1,1.3359375E2,1.2664749E2,3.0526495E2,2.5626837E1,7.618393E0,8.737963E1,4.6214115E1,8.78981E1,3.874939E1,1.2379868E2,1.8146628E2],"tree_param":{"num_deleted":"0","num_feature":"11","num_nodes":"15","size_leaf_vector":"1"}},{"base_weights":[1.4085954E-2,-4.8724416E-1,3.4305173E-1,-6.4014184E-1,3.84535E-1,5.1146597E-1,-4.149389E-1,-1.9254291E-2,-5.1727336E-2,5.201757E-2,-1.08627835E-2,-3.0333952E-3,3.573824E-2,-4.188891E-2,1.5020995E-2],"categories":[],"categories_nodes":[],"categories_segments":[],"categories_sizes":[],"default_left":[0,0,0,0,0,0,0,0,0,0,0,0,0,0,0],"id":4,"left_children":[1,3,5,7,9,11,13,-1,-1,-1,-1,-1,-1,-1,-1],"loss_changes":[9.890364E1,3.1918797E1,4.6433422E1,1.9975769E1,1.4465827E1,3.4553772E1,2.0328896E1,0E0,0E0,0E0,0E0,0E0,0E0,0E0,0E0],"parents":[2147483647,0,0,1,1,2,2,3,3,4,4,5,5,6,6],"right_children":[2,4,6,8,10,12,14,-1,-1,-1,-1,-1,-1,-1,-1],"split_conditions":[0E0,6.074146E0,2E0,1E0,1E0,-2.7612987E0,3.2063434E0,-1.9254291E-2,-5.1727336E-2,5.201757E-2,-1.08627835E-2,-3.0333952E-3,3.573824E-2,-4.188891E-2,1.5020995E-2],"split_indices":[3,10,9,9,9,10,10,0,0,0,0,0,0,0,0],"split_type":[0,0,0,0,0,0,0,0,0,0,0,0,0,0,0],"sum_hessian":[5.976916E2,2.3661661E2,3.6107498E2,2.015358E2,3.5080814E1,2.9570004E2,6.537492E1,1.2358895E2,7.7946846E1,1.643816E1,1.8642654E1,7.7709015E1,2.1799104E2,4.098066E1,2.4394268E1],"tree_param":{"num_deleted":"0","num_feature":"11","num_nodes":"15","size_leaf_vector":"1"}},{"base_weights":[-1.077025E-3,-2.903931E-1,4.635802E-1,-4.7985318E-1,4.414519E-1,-8.0767296E-2,6.4051E-1,-4.0152173E-2,-1.4419274E-2,3.7795402E-2,-1.8213976E-2,-2.2954697E-2,2.2216754E-2,1.7628007E-2,4.4920843E-2],"categories":[],"categories_nodes":[],"categories_segments":[],"categories_sizes":[],"default_left":[0,0,0,0,0,0,0,0,0,0,0,0,0,0,0],"id":5,"left_children":[1,3,5,7,9,11,13,-1,-1,-1,-1,-1,-1,-1,-1],"loss_changes":[7.985792E1,5.0972054E1,2.2005455E1,1.7793236E1,1.9481737E1,1.1488528E1,1.2467278E1,0E0,0E0,0E0,0E0,0E0,0E0,0E0,0E0],"parents":[2147483647,0,0,1,1,2,2,3,3,4,4,5,5,6,6],"right_children":[2,4,6,8,10,12,14,-1,-1,-1,-1,-1,-1,-1,-1],"split_conditions":[1E-1,4.6515255E0,-2.7612987E0,-1.7256692E-2,7.6666665E0,2.6666668E-1,4.3333335E0,-4.0152173E-2,-1.4419274E-2,3.7795402E-2,-1.8213976E-2,-2.2954697E-2,2.2216754E-2,1.7628007E-2,4.4920843E-2],"split_indices":[3,10,10,0,6,2,5,0,0,0,0,0,0,0,0],"split_type":[0,0,0,0,0,0,0,0,0,0,0,0,0,0,0],"sum_hessian":[5.9203455E2,3.6508902E2,2.269455E2,2.902845E2,7.4804535E1,5.5803204E1,1.7114229E2,1.0680593E2,1.8347856E2,5.3850082E1,2.0954454E1,3.2507706E1,2.3295498E1,8.197982E1,8.916247E1],"tree_param":{"num_deleted":"0","num_feature":"11","num_nodes":"15","size_leaf_vector":"1"}},{"base_weights":[2.865247E-2,-2.438237E-1,4.6939245E-1,-7.794032E-1,3.481931E-2,-1.7349865E-1,6.8998665E-1,-4.7697704E-2,-1.7506924E-2,-6.491722E-3,3.0055076E-2,-2.3406731E-2,2.4709662E-2,1.8277446E-2,4.8428666E-2],"categories":[],"categories_nodes":[],"categories_segments":[],"categories_sizes":[],"default_left":[0,0,0,0,0,0,0,0,0,0,0,0,0,0,0],"id":6,"left_children":[1,3,5,7,9,11,13,-1,-1,-1,-1,-1,-1,-1,-1],"loss_changes":[7.1126884E1,5.4658028E1,3.220597E1,9.056015E0,2.2619116E1,1.1759283E1,1.4889259E1,0E0,0E0,0E0,0E0,0E0,0E0,0E0,0E0],"parents":[2147483647,0,0,1,1,2,2,3,3,4,4,5,5,6,6],"right_children":[2,4,6,8,10,12,14,-1,-1,-1,-1,-1,-1,-1,-1],"split_conditions":[5E-2,-1.681839E0,-1.6160406E0,2.7320828E-2,6.327751E0,8.29684E-2,4.3333335E0,-4.7697704E-2,-1.7506924E-2,-6.491722E-3,3.0055076E-2,-2.3406731E-2,2.4709662E-2,1.8277446E-2,4.8428666E-2],"split_indices":[2,10,4,1,10,1,5,0,0,0,0,0,0,0,0],"split_type":[0,0,0,0,0,0,0,0,0,0,0,0,0,0,0],"sum_hessian":[5.9032117E2,3.6507172E2,2.2524944E2,1.2431973E2,2.4075198E2,5.7598915E1,1.6765051E2,8.751245E1,3.680728E1,1.8711627E2,5.3635708E1,4.017122E1,1.7427694E1,7.851975E1,8.913076E1],"tree_param":{"num_deleted":"0","num_feature":"11","num_nodes":"15","size_leaf_vector":"1"}},{"base_weights":[-2.6424835E-3,4.9567506E-1,-3.4526753E-1,2.75058E-1,1.0734358E0,-9.3241376E-1,-1.082337E-1,-2.8397819E-2,2.289252E-2,1.4196682E-2,5.983739E-2,-5.4819603E-2,-3.0079085E-2,-2.5653532E-2,1.0262089E-2],"categories":[],"categories_nodes":[],"categories_segments":[],"categories_sizes":[],"default_left":[0,0,0,0,0,0,0,0,0,0,0,0,0,0,0],"id":7,"left_children":[1,3,5,7,9,11,13,-1,-1,-1,-1,-1,-1,-1,-1],"loss_changes":[1.0252543E2,3.0890045E1,4.942097E1,2.7750446E1,6.20858E0,4.8849716E0,3.2418682E1,0E0,0E0,0E0,0E0,0E0,0E0,0E0,0E0],"parents":[2147483647,0,0,1,1,2,2,3,3,4,4,5,5,6,6],"right_children":[2,4,6,8,10,12,14,-1,-1,-1,-1,-1,-1,-1,-1],"split_conditions":[0E0,3.4212005E0,-1.681839E0,-2E-1,-4.4075236E-2,3.0349545E-2,0E0,-2.8397819E-2,2.289252E-2,1.4196682E-2,5.983739E-2,-5.4819603E-2,-3.0079085E-2,-2.5653532E-2,1.0262089E-2],"split_indices":[9,10,10,3,0,1,3,0,0,0,0,0,0,0,0],"split_type":[0,0,0,0,0,0,0,0,0,0,0,0,0,0,0],"sum_hessian":[5.9848834E2,2.4365997E2,3.5482837E2,1.7739719E2,6.626279E1,1.0120477E2,2.5362361E2,3.1235607E1,1.4616159E2,9.397579E0,5.6865204E1,6.6118706E1,3.5086067E1,1.1040486E2,1.4321873E2],"tree_param":{"num_deleted":"0","num_feature":"11","num_nodes":"15","size_leaf_vector":"1"}},{"base_weights":[1.1587232E-2,6.2502E-1,-2.2068673E-1,-6.231302E-2,7.9156095E-1,-7.123337E-1,9.7951435E-2,-4.2529643E-2,4.6739094E-3,4.756927E-2,1.3903121E-2,-4.130403E-2,1.1197167E-2,1.3485196E-2,-3.170654E-2],"categories":[],"categories_nodes":[],"categories_segments":[],"categories_sizes":[],"default_left":[0,0,0,0,0,0,0,0,0,0,0,0,0,0,0],"id":8,"left_children":[1,3,5,7,9,11,13,-1,-1,-1,-1,-1,-1,-1,-1],"loss_changes":[8.410355E1,1.8606094E1,6.7148155E1,4.0763345E0,1.04509735E1,1.8130135E1,3.2948605E1,0E0,0E0,0E0,0E0,0E0,0E0,0E0,0E0],"parents":[2147483647,0,0,1,1,2,2,3,3,4,4,5,5,6,6],"right_children":[2,4,6,8,10,12,14,-1,-1,-1,-1,-1,-1,-1,-1],"split_conditions":[-1E0,-1.9642857E-1,-8.83589E-2,-7.6513796E0,3.6666667E0,3.6363637E-1,3E0,-4.2529643E-2,4.6739094E-3,4.756927E-2,1.3903121E-2,-4.130403E-2,1.1197167E-2,1.3485196E-2,-3.170654E-2],"split_indices":[9,2,10,10,6,2,9,0,0,0,0,0,0,0,0],"split_type":[0,0,0,0,0,0,0,0,0,0,0,0,0,0,0],"sum_hessian":[5.8829663E2,1.611117E2,4.2718494E2,3.154554E1,1.2956616E2,1.675012E2,2.5968375E2,4.469702E0,2.7075838E1,9.816112E1,3.1405037E1,1.494611E2,1.804011E1,2.1084854E2,4.8835194E1],"tree_param":{"num_deleted":"0","num_feature":"11","num_nodes":"15","size_leaf_vector":"1"}},{"base_weights":[-8.57315E-3,5.756654E-1,-2.2586587E-1,7.9232985E-1,1.2706558E-1,-8.8584876E-1,-1.7381653E-2,2.158524E-2,5.3931177E-2,-1.5454716E-2,2.6711887E-2,-5.416122E-2,-2.8349457E-2,9.445809E-3,-2.4422497E-2],"categories":[],"categories_nodes":[],"categories_segments":[],"categories_sizes":[],"default_left":[0,0,0,0,0,0,0,0,0,0,0,0,0,0,0],"id":9,"left_children":[1,3,5,7,9,11,13,-1,-1,-1,-1,-1,-1,-1,-1],"loss_changes":[7.491654E1,1.5449127E1,5.9166557E1,1.0652725E1,9.629918E0,5.88282E0,3.1955841E1,0E0,0E0,0E0,0E0,0E0,0E0,0E0,0E0],"parents":[2147483647,0,0,1,1,2,2,3,3,4,4,5,5,6,6],"right_children":[2,4,6,8,10,12,14,-1,-1,-1,-1,-1,-1,-1,-1],"split_conditions":[-1E0,3.3333333E0,-2.7088258E0,-9.168147E-1,-1.728745E-1,6.849708E-1,2E0,2.158524E-2,5.3931177E-2,-1.5454716E-2,2.6711887E-2,-5.416122E-2,-2.8349457E-2,9.445809E-3,-2.4422497E-2],"split_indices":[9,6,10,10,4,4,9,0,0,0,0,0,0,0,0],"split_type":[0,0,0,0,0,0,0,0,0,0,0,0,0,0,0],"sum_hessian":[5.880985E2,1.5898463E2,4.2911386E2,1.0668955E2,5.229508E1,1.0223313E2,3.2688074E2,4.832531E1,5.8364246E1,2.536507E1,2.6930008E1,6.166501E1,4.0568123E1,2.2774287E2,9.913788E1],"tree_param":{"num_deleted":"0","num_feature":"11","num_nodes":"15","size_leaf_vector":"1"}},{"base_weights":[-3.100385E-3,-2.4762411E-1,4.1884047E-1,-4.123132E-1,3.908245E-1,9.8576255E-2,7.40686E-1,-6.2403914E-2,-1.7436065E-2,3.170568E-2,-1.9364994E-2,-1.6233487E-3,3.0406997E-2,6.3743438E-3,4.6425533E-2],"categories":[],"categories_nodes":[],"categories_segments":[],"categories_sizes":[],"default_left":[0,0,0,0,0,0,0,0,0,0,0,0,0,0,0],"id":10,"left_children":[1,3,5,7,9,11,13,-1,-1,-1,-1,-1,-1,-1,-1],"loss_changes":[6.06556E1,3.9295147E1,2.2160275E1,1.5315445E1,1.4790856E1,7.316138E0,1.2254791E1,0E0,0E0,0E0,0E0,0E0,0E0,0E0,0E0],"parents":[2147483647,0,0,1,1,2,2,3,3,4,4,5,5,6,6],"right_children":[2,4,6,8,10,12,14,-1,-1,-1,-1,-1,-1,-1,-1],"split_conditions":[7.1428575E-2,4.6515255E0,4.3333335E0,-1.5666667E1,7.6666665E0,4.598895E0,-1.2538441E-2,-6.2403914E-2,-1.7436065E-2,3.170568E-2,-1.9364994E-2,-1.6233487E-3,3.0406997E-2,6.3743438E-3,4.6425533E-2],"split_indices":[2,10,5,5,6,10,0,0,0,0,0,0,0,0,0],"split_type":[0,0,0,0,0,0,0,0,0,0,0,0,0,0,0],"sum_hessian":[5.858878E2,3.7118903E2,2.1469882E2,2.9535565E2,7.583338E1,1.0826854E2,1.0643029E2,1.9567028E1,2.757886E2,5.7911724E1,1.792166E1,8.686577E1,2.140277E1,2.5349485E1,8.10808E1],"tree_param":{"num_deleted":"0","num_feature":"11","num_nodes":"15","size_leaf_vector":"1"}},{"base_weights":[-6.2118126E-3,-3.6370373E-1,2.3215331E-1,-5.442821E-1,-1.2776728E-2,6.1890133E-2,5.8455104E-1,-6.3099496E-2,-2.4179684E-2,-1.6343677E-2,1.2181963E-2,-1.005254E-2,9.303614E-3,-9.8202545E-3,3.626501E-2],"categories":[],"categories_nodes":[],"categories_segments":[],"categories_sizes":[],"default_left":[0,0,0,0,0,0,0,0,0,0,0,0,0,0,0],"id":11,"left_children":[1,3,5,7,9,11,13,-1,-1,-1,-1,-1,-1,-1,-1],"loss_changes":[5.0785088E1,1.5100737E1,2.1418629E1,6.244774E0,6.685639E0,7.9462214E0,1.2933369E1,0E0,0E0,0E0,0E0,0E0,0E0,0E0,0E0],"parents":[2147483647,0,0,1,1,2,2,3,3,4,4,5,5,6,6],"right_children":[2,4,6,8,10,12,14,-1,-1,-1,-1,-1,-1,-1,-1],"split_conditions":[0E0,5.297302E-1,2.3333333E-1,-2.5992483E-1,-2E-1,-1.5678622E0,-2.7375827E0,-6.3099496E-2,-2.4179684E-2,-1.6343677E-2,1.2181963E-2,-1.005254E-2,9.303614E-3,-9.8202545E-3,3.626501E-2],"split_indices":[3,4,2,1,3,4,4,0,0,0,0,0,0,0,0],"split_type":[0,0,0,0,0,0,0,0,0,0,0,0,0,0,0],"sum_hessian":[5.939831E2,2.3740512E2,3.5657797E2,1.5638321E2,8.102192E1,2.41211E2,1.15366974E2,1.0649264E1,1.4573395E2,3.6291664E1,4.473026E1,7.7177605E1,1.640334E2,1.7556738E1,9.7810234E1],"tree_param":{"num_deleted":"0","num_feature":"11","num_nodes":"15","size_leaf_vector":"1"}},{"base_weights":[3.2575594E-3,1.7153981E-1,-5.7075375E-1,-6.237291E-2,5.01481E-1,-6.742159E-1,4.5258495E-1,1.2903434E-2,-1.0078642E-2,1.1666764E-2,3.8246494E-2,-2.6070863E-2,-4.9135365E-2,-4.2060755E-2,3.4583416E-2],"categories":[],"categories_nodes":[],"categories_segments":[],"categories_sizes":[],"default_left":[0,0,0,0,0,0,0,0,0,0,0,0,0,0,0],"id":12,"left_children":[1,3,5,7,9,11,13,-1,-1,-1,-1,-1,-1,-1,-1],"loss_changes":[5.763081E1,3.5636776E1,1.4625824E1,1.2133301E1,1.3349472E1,5.2967834E0,4.608538E0,0E0,0E0,0E0,0E0,0E0,0E0,0E0,0E0],"parents":[2147483647,0,0,1,1,2,2,3,3,4,4,5,5,6,6],"right_children":[2,4,6,8,10,12,14,-1,-1,-1,-1,-1,-1,-1,-1],"split_conditions":[2E0,3.6363635E-2,3.4615386E-1,-1E0,4.3333335E0,4E0,1E-1,1.2903434E-2,-1.0078642E-2,1.1666764E-2,3.8246494E-2,-2.6070863E-2,-4.9135365E-2,-4.2060755E-2,3.4583416E-2],"split_indices":[9,2,2,9,5,9,3,0,0,0,0,0,0,0,0],"split_type":[0,0,0,0,0,0,0,0,0,0,0,0,0,0,0],"sum_hessian":[5.9460394E2,4.6034598E2,1.3425797E2,2.6984766E2,1.904983E2,1.2224031E2,1.2017647E1,8.146329E1,1.8838438E2,9.534212E1,9.515619E1,8.354829E1,3.8692028E1,1.4815785E0,1.0536069E1],"tree_param":{"num_deleted":"0","num_feature":"11","num_nodes":"15","size_leaf_vector":"1"}},{"base_weights":[-1.734679E-2,5.4729414E-1,-2.2235224E-1,-3.3626008E-1,6.896052E-1,-7.8514534E-1,-3.8576007E-2,-3.149785E-2,1.3885401E-2,1.3149743E-3,4.036239E-2,-5.8327634E-2,-2.7849138E-2,-1.9088108E-2,1.0724498E-2],"categories":[],"categories_nodes":[],"categories_segments":[],"categories_sizes":[],"default_left":[0,0,0,0,0,0,0,0,0,0,0,0,0,0,0],"id":13,"left_children":[1,3,5,7,9,11,13,-1,-1,-1,-1,-1,-1,-1,-1],"loss_changes":[6.7210495E1,1.9679668E1,4.402086E1,4.165098E0,1.0399231E1,8.469467E0,2.8057615E1,0E0,0E0,0E0,0E0,0E0,0E0,0E0,0E0],"parents":[2147483647,0,0,1,1,2,2,3,3,4,4,5,5,6,6],"right_children":[2,4,6,8,10,12,14,-1,-1,-1,-1,-1,-1,-1,-1],"split_conditions":[-1E0,-2E-1,-2.7088258E0,-3.6692817E-2,-6.4024405E0,-6.572501E-2,0E0,-3.149785E-2,1.3885401E-2,1.3149743E-3,4.036239E-2,-5.8327634E-2,-2.7849138E-2,-1.9088108E-2,1.0724498E-2],"split_indices":[9,3,10,1,10,1,3,0,0,0,0,0,0,0,0],"split_type":[0,0,0,0,0,0,0,0,0,0,0,0,0,0,0],"sum_hessian":[5.785785E2,1.5366727E2,4.2491122E2,2.1128109E1,1.3253915E2,1.0379105E2,3.2112018E2,1.4273984E1,6.854125E0,2.0150122E1,1.1238904E2,3.7309666E1,6.6481384E1,1.3607648E2,1.850437E2],"tree_param":{"num_deleted":"0","num_feature":"11","num_nodes":"15","size_leaf_vector":"1"}},{"base_weights":[1.5005406E-2,-1.6170163E-1,4.1855785E-1,-6.377868E-2,-5.576089E-1,2.0876081E-1,7.732481E-1,-2.2425728E-2,1.1823307E-3,-3.4065958E-2,1.5885446E-2,-2.060157E-2,1.5097126E-2,1.2383829E-3,4.3485165E-2],"categories":[],"categories_nodes":[],"categories_segments":[],"categories_sizes":[],"default_left":[0,0,0,0,0,0,0,0,0,0,0,0,0,0,0],"id":14,"left_children":[1,3,5,7,9,11,13,-1,-1,-1,-1,-1,-1,-1,-1],"loss_changes":[4.1961414E1,1.5832242E1,1.3172295E1,1.1085677E1,8.991028E0,6.716556E0,4.7596436E0,0E0,0E0,0E0,0E0,0E0,0E0,0E0,0E0],"parents":[2147483647,0,0,1,1,2,2,3,3,4,4,5,5,6,6],"right_children":[2,4,6,8,10,12,14,-1,-1,-1,-1,-1,-1,-1,-1],"split_conditions":[4.3333335E0,7.6666665E0,2.3333333E-1,-4.5228332E-2,8.3333336E-2,-4.803914E-2,4E0,-2.2425728E-2,1.1823307E-3,-3.4065958E-2,1.5885446E-2,-2.060157E-2,1.5097126E-2,1.2383829E-3,4.3485165E-2],"split_indices":[5,6,2,0,2,0,8,0,0,0,0,0,0,0,0],"split_type":[0,0,0,0,0,0,0,0,0,0,0,0,0,0,0],"sum_hessian":[5.8648285E2,4.0829742E2,1.7818546E2,3.2826587E2,8.003156E1,1.1295931E2,6.522615E1,6.0016903E1,2.6824896E2,7.031539E1,9.716168E0,1.429589E1,9.866342E1,7.589483E0,5.7636665E1],"tree_param":{"num_deleted":"0","num_feature":"11","num_nodes":"15","size_leaf_vector":"1"}},{"base_weights":[-2.0596452E-2,2.2341242E-1,-4.663802E-1,3.2409787E-2,9.2404336E-1,-6.8203825E-1,-1.0372429E-1,-6.648488E-3,3.0714197E-2,4.8362043E-2,-4.8859967E-3,-2.2030972E-2,-5.4991484E-2,4.7989484E-2,-1.0565087E-2],"categories":[],"categories_nodes":[],"categories_segments":[],"categories_sizes":[],"default_left":[0,0,0,0,0,0,0,0,0,0,0,0,0,0,0],"id":15,"left_children":[1,3,5,7,9,11,13,-1,-1,-1,-1,-1,-1,-1,-1],"loss_changes":[6.2965652E1,5.00397E1,1.5942879E1,2.8473139E1,3.6304932E0,1.2447933E1,9.073394E0,0E0,0E0,0E0,0E0,0E0,0E0,0E0,0E0],"parents":[2147483647,0,0,1,1,2,2,3,3,4,4,5,5,6,6],"right_children":[2,4,6,8,10,12,14,-1,-1,-1,-1,-1,-1,-1,-1],"split_conditions":[1E0,3.557172E0,2.9485517E0,7E0,1.3333333E1,3E0,-9.333333E0,-6.648488E-3,3.0714197E-2,4.8362043E-2,-4.8859967E-3,-2.2030972E-2,-5.4991484E-2,4.7989484E-2,-1.0565087E-2],"split_indices":[9,10,10,5,6,9,6,0,0,0,0,0,0,0,0],"split_type":[0,0,0,0,0,0,0,0,0,0,0,0,0,0,0],"sum_hessian":[5.769025E2,3.7315002E2,2.0375249E2,2.9403726E2,7.911276E1,1.27219246E2,7.653325E1,2.2956273E2,6.447455E1,7.5954956E1,3.1578124E0,8.193066E1,4.528859E1,6.302701E0,7.0230545E1],"tree_param":{"num_deleted":"0","num_feature":"11","num_nodes":"15","size_leaf_vector":"1"}},{"base_weights":[-5.7924474E-3,4.5159572E-1,-1.792664E-1,6.6484416E-1,-1.04841135E-1,-4.7550407E-1,-7.184834E-4,5.138545E-2,2.2919754E-2,-1.9587465E-2,1.833017E-2,-4.5342125E-2,-1.9086374E-2,4.607543E-3,-2.7821561E-2],"categories":[],"categories_nodes":[],"categories_segments":[],"categories_sizes":[],"default_left":[0,0,0,0,0,0,0,0,0,0,0,0,0,0,0],"id":16,"left_children":[1,3,5,7,9,11,13,-1,-1,-1,-1,-1,-1,-1,-1],"loss_changes":[4.710326E1,1.9440292E1,2.2763897E1,8.3801155E0,6.3781404E0,6.2005577E0,1.3961698E1,0E0,0E0,0E0,0E0,0E0,0E0,0E0,0E0],"parents":[2147483647,0,0,1,1,2,2,3,3,4,4,5,5,6,6],"right_children":[2,4,6,8,10,12,14,-1,-1,-1,-1,-1,-1,-1,-1],"split_conditions":[-1E0,4.6666665E0,-3.4764387E-2,-3E0,1.0616102E0,-6.288639E-2,3E0,5.138545E-2,2.2919754E-2,-1.9587465E-2,1.833017E-2,-4.5342125E-2,-1.9086374E-2,4.607543E-3,-2.7821561E-2],"split_indices":[9,6,1,9,4,0,9,0,0,0,0,0,0,0,0],"split_type":[0,0,0,0,0,0,0,0,0,0,0,0,0,0,0],"sum_hessian":[5.916315E2,1.6224548E2,4.2938602E2,1.1715302E2,4.5092457E1,1.6084949E2,2.6853653E2,4.1040405E1,7.611262E1,2.8137682E1,1.6954773E1,2.7176628E1,1.3367285E2,2.3079997E2,3.7736546E1],"tree_param":{"num_deleted":"0","num_feature":"11","num_nodes":"15","size_leaf_vector":"1"}},{"base_weights":[4.08868E-3,-1.3046817E-1,5.670565E-1,-4.597378E-1,9.655741E-2,3.3935466E-1,8.937351E-1,-4.7735203E-2,-1.7726453E-2,-1.1697229E-2,1.2458432E-2,-8.962638E-3,2.1152347E-2,1.9215094E-3,5.1051505E-2],"categories":[],"categories_nodes":[],"categories_segments":[],"categories_sizes":[],"default_left":[0,0,0,0,0,0,0,0,0,0,0,0,0,0,0],"id":17,"left_children":[1,3,5,7,9,11,13,-1,-1,-1,-1,-1,-1,-1,-1],"loss_changes":[4.3964054E1,3.5061615E1,8.024628E0,9.625813E0,1.4084964E1,3.009234E0,4.9006844E0,0E0,0E0,0E0,0E0,0E0,0E0,0E0,0E0],"parents":[2147483647,0,0,1,1,2,2,3,3,4,4,5,5,6,6],"right_children":[2,4,6,8,10,12,14,-1,-1,-1,-1,-1,-1,-1,-1],"split_conditions":[4.85554E0,0E0,1.1631964E0,-6.306644E0,-2.7088258E0,-1.2333333E1,-9.333333E0,-4.7735203E-2,-1.7726453E-2,-1.1697229E-2,1.2458432E-2,-8.962638E-3,2.1152347E-2,1.9215094E-3,5.1051505E-2],"split_indices":[10,3,4,10,10,5,5,0,0,0,0,0,0,0,0],"split_type":[0,0,0,0,0,0,0,0,0,0,0,0,0,0,0],"sum_hessian":[5.783979E2,4.6744138E2,1.1095651E2,1.9034576E2,2.770956E2,6.6584526E1,4.437199E1,3.195159E1,1.5839417E2,8.7363716E1,1.8973189E2,9.093565E0,5.749096E1,5.9170113E0,3.845498E1],"tree_param":{"num_deleted":"0","num_feature":"11","num_nodes":"15","size_leaf_vector":"1"}},{"base_weights":[-1.3769551E-2,4.9418622E-1,-1.9429864E-1,7.088301E-1,-3.777465E-2,-4.8297584E-1,-9.020962E-3,5.0242897E-2,2.6644189E-2,-2.2903364E-2,2.1636209E-2,-1.556278E-2,-3.718448E-2,-2.2989495E-2,5.1962696E-3],"categories":[],"categories_nodes":[],"categories_segments":[],"categories_sizes":[],"default_left":[0,0,0,0,0,0,0,0,0,0,0,0,0,0,0],"id":18,"left_children":[1,3,5,7,9,11,13,-1,-1,-1,-1,-1,-1,-1,-1],"loss_changes":[5.309825E1,1.7364021E1,2.2842087E1,5.1020317E0,9.018128E0,7.243416E0,1.3345664E1,0E0,0E0,0E0,0E0,0E0,0E0,0E0,0E0],"parents":[2147483647,0,0,1,1,2,2,3,3,4,4,5,5,6,6],"right_children":[2,4,6,8,10,12,14,-1,-1,-1,-1,-1,-1,-1,-1],"split_conditions":[-1E0,4.6666665E0,-1.2086051E-2,-3E0,5.9624193E-3,2E0,-7E0,5.0242897E-2,2.6644189E-2,-2.2903364E-2,2.1636209E-2,-1.556278E-2,-3.718448E-2,-2.2989495E-2,5.1962696E-3],"split_indices":[9,6,0,9,0,9,5,0,0,0,0,0,0,0,0],"split_type":[0,0,0,0,0,0,0,0,0,0,0,0,0,0,0],"sum_hessian":[5.769911E2,1.5083849E2,4.261526E2,1.0723653E2,4.360196E1,1.6596277E2,2.6018982E2,3.822024E1,6.901628E1,2.3043669E1,2.0558292E1,1.01381355E2,6.458141E1,5.1516514E1,2.086733E2],"tree_param":{"num_deleted":"0","num_feature":"11","num_nodes":"15","size_leaf_vector":"1"}},{"base_weights":[1.4003172E-2,-3.7934124E-1,1.528669E-1,-5.0839645E-1,4.6744862E-1,2.752333E-1,-2.7242512E-1,-4.4159994E-2,-1.7357882E-2,-3.700892E-2,3.3163324E-2,6.896358E-3,3.257069E-2,-2.0911342E-2,2.7342856E-2],"categories":[],"categories_nodes":[],"categories_segments":[],"categories_sizes":[],"default_left":[0,0,0,0,0,0,0,0,0,0,0,0,0,0,0],"id":19,"left_children":[1,3,5,7,9,11,13,-1,-1,-1,-1,-1,-1,-1,-1],"loss_changes":[3.2146255E1,1.7020123E1,2.270775E1,7.7756195E0,5.4168253E0,1.738008E1,1.1896193E1,0E0,0E0,0E0,0E0,0E0,0E0,0E0,0E0],"parents":[2147483647,0,0,1,1,2,2,3,3,4,4,5,5,6,6],"right_children":[2,4,6,8,10,12,14,-1,-1,-1,-1,-1,-1,-1,-1],"split_conditions":[-2.7088258E0,1.5335432E-1,6.6666665E0,-2.1875E-1,-2.2096643E-2,4.85554E0,1.3333334E-1,-4.4159994E-2,-1.7357882E-2,-3.700892E-2,3.3163324E-2,6.896358E-3,3.257069E-2,-2.0911342E-2,2.7342856E-2],"split_indices":[10,1,6,2,0,10,2,0,0,0,0,0,0,0,0],"split_type":[0,0,0,0,0,0,0,0,0,0,0,0,0,0,0],"sum_hessian":[5.864683E2,1.5256944E2,4.338989E2,1.3273895E2,1.983049E1,3.372244E2,9.667447E1,3.8580376E1,9.4158585E1,2.3790061E0,1.7451483E1,2.4805193E2,8.9172485E1,8.248478E1,1.4189695E1],"tree_param":{"num_deleted":"0","num_feature":"11","num_nodes":"15","size_leaf_vector":"1"}},{"base_weights":[4.5131438E-4,-3.6712772E-1,1.8090433E-1,-5.236006E-1,3.000177E-1,6.719917E-2,7.135707E-1,-3.4991913E-2,-1.2765012E-2,3.2328137E-3,3.5514995E-2,2.1501366E-4,4.9585048E-2,-1.0350623E-2,4.0986944E-2],"categories":[],"categories_nodes":[],"categories_segments":[],"categories_sizes":[],"default_left":[0,0,0,0,0,0,0,0,0,0,0,0,0,0,0],"id":20,"left_children":[1,3,5,7,9,11,13,-1,-1,-1,-1,-1,-1,-1,-1],"loss_changes":[3.8813713E1,2.0270649E1,2.3723112E1,7.218342E0,3.550228E0,1.886769E1,6.9074364E0,0E0,0E0,0E0,0E0,0E0,0E0,0E0,0E0],"parents":[2147483647,0,0,1,1,2,2,3,3,4,4,5,5,6,6],"right_children":[2,4,6,8,10,12,14,-1,-1,-1,-1,-1,-1,-1,-1],"split_conditions":[-1.681839E0,2.3333333E-1,8E0,6.145634E-1,1.2164699E-1,1.1027059E1,-1.7857143E-1,-3.4991913E-2,-1.2765012E-2,3.2328137E-3,3.5514995E-2,2.1501366E-4,4.9585048E-2,-1.0350623E-2,4.0986944E-2],"split_indices":[10,2,5,4,1,10,2,0,0,0,0,0,0,0,0],"split_type":[0,0,0,0,0,0,0,0,0,0,0,0,0,0,0],"sum_hessian":[5.831529E2,1.9167679E2,3.9147607E2,1.5543588E2,3.6240902E1,3.235384E2,6.793769E1,9.284238E1,6.2593502E1,2.3765333E1,1.2475571E1,3.0386917E2,1.9669226E1,6.9266777E0,6.101101E1],"tree_param":{"num_deleted":"0","num_feature":"11","num_nodes":"15","size_leaf_vector":"1"}},{"base_weights":[-5.797306E-2,2.9164997E-1,-2.8614548E-1,9.985107E-2,8.110883E-1,-7.724973E-1,-1.3509099E-1,-2.1684738E-2,1.4646786E-2,-2.3782535E-3,4.771424E-2,-6.1108705E-2,-2.9864145E-2,-2.1317951E-2,4.283105E-3],"categories":[],"categories_nodes":[],"categories_segments":[],"categories_sizes":[],"default_left":[0,0,0,0,0,0,0,0,0,0,0,0,0,0,0],"id":21,"left_children":[1,3,5,7,9,11,13,-1,-1,-1,-1,-1,-1,-1,-1],"loss_changes":[4.5349293E1,2.2292583E1,2.5156927E1,1.7140928E1,7.474369E0,5.673668E0,1.6984062E1,0E0,0E0,0E0,0E0,0E0,0E0,0E0,0E0],"parents":[2147483647,0,0,1,1,2,2,3,3,4,4,5,5,6,6],"right_children":[2,4,6,8,10,12,14,-1,-1,-1,-1,-1,-1,-1,-1],"split_conditions":[0E0,3.2063434E0,-2.468665E0,-1.7857143E-1,-4.4075236E-2,-8.157558E0,0E0,-2.1684738E-2,1.4646786E-2,-2.3782535E-3,4.771424E-2,-6.1108705E-2,-2.9864145E-2,-2.1317951E-2,4.283105E-3],"split_indices":[9,10,10,2,0,10,3,0,0,0,0,0,0,0,0],"split_type":[0,0,0,0,0,0,0,0,0,0,0,0,0,0,0],"sum_hessian":[5.664236E2,2.235718E2,3.4285178E2,1.6415205E2,5.941974E1,8.027511E1,2.6257666E2,4.3288345E1,1.2086371E2,8.588441E0,5.08313E1,2.0833063E1,5.9442043E1,1.128059E2,1.4977077E2],"tree_param":{"num_deleted":"0","num_feature":"11","num_nodes":"15","size_leaf_vector":"1"}},{"base_weights":[-2.9033113E-2,4.090383E-1,-1.8388106E-1,-2.0353085E-1,5.515466E-1,-5.422588E-1,4.6043344E-2,-2.4421116E-2,2.4064062E-2,4.3294314E-2,1.7869903E-2,-3.2460496E-2,1.7385678E-2,6.7310655E-3,-3.5825007E-2],"categories":[],"categories_nodes":[],"categories_segments":[],"categories_sizes":[],"default_left":[0,0,0,0,0,0,0,0,0,0,0,0,0,0,0],"id":22,"left_children":[1,3,5,7,9,11,13,-1,-1,-1,-1,-1,-1,-1,-1],"loss_changes":[3.9219578E1,1.329533E1,3.5213116E1,5.938168E0,7.1838303E0,1.6119282E1,1.7729906E1,0E0,0E0,0E0,0E0,0E0,0E0,0E0,0E0],"parents":[2147483647,0,0,1,1,2,2,3,3,4,4,5,5,6,6],"right_children":[2,4,6,8,10,12,14,-1,-1,-1,-1,-1,-1,-1,-1],"split_conditions":[-1E0,-2E-1,-8.83589E-2,1.033392E0,-3E0,3.4615386E-1,4E0,-2.4421116E-2,2.4064062E-2,4.3294314E-2,1.7869903E-2,-3.2460496E-2,1.7385678E-2,6.7310655E-3,-3.5825007E-2],"split_indices":[9,2,10,10,9,2,9,0,0,0,0,0,0,0,0],"split_type":[0,0,0,0,0,0,0,0,0,0,0,0,0,0,0],"sum_hessian":[5.7605725E2,1.5001549E2,4.2604175E2,2.8232105E1,1.2178339E2,1.6597774E2,2.60064E2,2.0140255E1,8.09185E0,4.5177704E1,7.660568E1,1.4841295E2,1.7564785E1,2.3373636E2,2.6327639E1],"tree_param":{"num_deleted":"0","num_feature":"11","num_nodes":"15","size_leaf_vector":"1"}},{"base_weights":[-2.018217E-2,1.2074145E-1,-4.9649042E-1,2.2645195E-3,5.2792895E-1,-5.902934E-1,4.7405776E-1,3.204357E-2,-3.5232927E-3,1.889876E-2,4.5909386E-2,-2.1444662E-2,-4.6016127E-2,-5.004419E-2,3.6585107E-2],"categories":[],"categories_nodes":[],"categories_segments":[],"categories_sizes":[],"default_left":[0,0,0,0,0,0,0,0,0,0,0,0,0,0,0],"id":23,"left_children":[1,3,5,7,9,11,13,-1,-1,-1,-1,-1,-1,-1,-1],"loss_changes":[3.870986E1,2.1473656E1,1.2266319E1,1.6107182E1,5.5240326E0,6.02409E0,5.352563E0,0E0,0E0,0E0,0E0,0E0,0E0,0E0,0E0],"parents":[2147483647,0,0,1,1,2,2,3,3,4,4,5,5,6,6],"right_children":[2,4,6,8,10,12,14,-1,-1,-1,-1,-1,-1,-1,-1],"split_conditions":[2E0,6.6666665E0,3.4615386E-1,-3E0,4E-1,4E0,-8.281301E-2,3.204357E-2,-3.5232927E-3,1.889876E-2,4.5909386E-2,-2.1444662E-2,-4.6016127E-2,-5.004419E-2,3.6585107E-2],"split_indices":[9,5,2,9,2,9,1,0,0,0,0,0,0,0,0],"split_type":[0,0,0,0,0,0,0,0,0,0,0,0,0,0,0],"sum_hessian":[5.748067E2,4.4414545E2,1.3066122E2,3.4482062E2,9.932485E1,1.195031E2,1.1158125E1,3.4457348E1,3.1036325E2,7.317607E1,2.6148777E1,8.1798996E1,3.7704105E1,1.2302932E0,9.927832E0],"tree_param":{"num_deleted":"0","num_feature":"11","num_nodes":"15","size_leaf_vector":"1"}},{"base_weights":[1.4320122E-2,-4.971576E-1,1.3660826E-1,-9.4848055E-1,-2.4068552E-1,-1.4998947E-1,3.252396E-1,-5.1743444E-2,9.0362495E-3,-5.038535E-3,-5.573504E-2,-1.3302962E-2,1.6934676E-2,1.0508988E-2,3.515639E-2],"categories":[],"categories_nodes":[],"categories_segments":[],"categories_sizes":[],"default_left":[0,0,0,0,0,0,0,0,0,0,0,0,0,0,0],"id":24,"left_children":[1,3,5,7,9,11,13,-1,-1,-1,-1,-1,-1,-1,-1],"loss_changes":[3.522033E1,1.2349075E1,2.4611645E1,3.9946632E0,8.524298E0,1.035832E1,1.1779711E1,0E0,0E0,0E0,0E0,0E0,0E0,0E0,0E0],"parents":[2147483647,0,0,1,1,2,2,3,3,4,4,5,5,6,6],"right_children":[2,4,6,8,10,12,14,-1,-1,-1,-1,-1,-1,-1,-1],"split_conditions":[-4.3724737E0,-3E0,0E0,1.6911764E-1,1.0666667E1,6.074146E0,4.85554E0,-5.1743444E-2,9.0362495E-3,-5.038535E-3,-5.573504E-2,-1.3302962E-2,1.6934676E-2,1.0508988E-2,3.515639E-2],"split_indices":[10,5,3,2,6,10,10,0,0,0,0,0,0,0,0],"split_type":[0,0,0,0,0,0,0,0,0,0,0,0,0,0,0],"sum_hessian":[5.610101E2,1.0765806E2,4.53352E2,3.803259E1,6.9625465E1,1.8002904E2,2.7332294E2,3.540734E1,2.6252477E0,6.0979065E1,8.646403E0,1.4584431E2,3.4184727E1,2.1071915E2,6.26038E1],"tree_param":{"num_deleted":"0","num_feature":"11","num_nodes":"15","size_leaf_vector":"1"}},{"base_weights":[1.7193131E-2,4.8416576E-1,-1.5887627E-1,-2.608146E-1,6.0877585E-1,-5.637121E-1,1.6828256E-2,-4.8132047E-2,-3.3227943E-3,3.633031E-2,7.307095E-3,-5.3587347E-2,-2.1768004E-2,8.880138E-3,-1.7296756E-2],"categories":[],"categories_nodes":[],"categories_segments":[],"categories_sizes":[],"default_left":[0,0,0,0,0,0,0,0,0,0,0,0,0,0,0],"id":25,"left_children":[1,3,5,7,9,11,13,-1,-1,-1,-1,-1,-1,-1,-1],"loss_changes":[4.6182625E1,1.4435223E1,2.902936E1,3.0375571E0,7.092186E0,7.5868607E0,1.6710913E1,0E0,0E0,0E0,0E0,0E0,0E0,0E0,0E0],"parents":[2147483647,0,0,1,1,2,2,3,3,4,4,5,5,6,6],"right_children":[2,4,6,8,10,12,14,-1,-1,-1,-1,-1,-1,-1,-1],"split_conditions":[-1E0,-2.9166666E-1,-1.681839E0,-7E-1,5.6666665E0,-8.157558E0,2E0,-4.8132047E-2,-3.3227943E-3,3.633031E-2,7.307095E-3,-5.3587347E-2,-2.1768004E-2,8.880138E-3,-1.7296756E-2],"split_indices":[9,2,10,2,6,10,9,0,0,0,0,0,0,0,0],"split_type":[0,0,0,0,0,0,0,0,0,0,0,0,0,0,0],"sum_hessian":[5.5976294E2,1.5278787E2,4.0697504E2,2.1737484E1,1.310504E2,1.2250544E2,2.844696E2,3.8570013E0,1.7880482E1,1.0399329E2,2.7057098E1,2.3225542E1,9.927989E1,1.9746481E2,8.700479E1],"tree_param":{"num_deleted":"0","num_feature":"11","num_nodes":"15","size_leaf_vector":"1"}},{"base_weights":[2.1214703E-2,-2.325284E-1,2.0264836E-1,-4.6841303E-1,1.18649594E-1,-3.648485E-1,3.0982235E-1,-4.3242168E-2,-1.5704043E-2,-1.9229593E-2,1.3285688E-2,-3.431015E-2,8.450924E-3,1.9947808E-2,-1.8028704E-2],"categories":[],"categories_nodes":[],"categories_segments":[],"categories_sizes":[],"default_left":[0,0,0,0,0,0,0,0,0,0,0,0,0,0,0],"id":26,"left_children":[1,3,5,7,9,11,13,-1,-1,-1,-1,-1,-1,-1,-1],"loss_changes":[2.6214838E1,1.9724716E1,2.0302965E1,8.430828E0,7.222089E0,9.2416E0,1.6861212E1,0E0,0E0,0E0,0E0,0E0,0E0,0E0,0E0],"parents":[2147483647,0,0,1,1,2,2,3,3,4,4,5,5,6,6],"right_children":[2,4,6,8,10,12,14,-1,-1,-1,-1,-1,-1,-1,-1],"split_conditions":[-8.83589E-2,3.178377E-2,-4.4075236E-2,-6.4024405E0,-3.0303031E-2,4.6515255E0,1E1,-4.3242168E-2,-1.5704043E-2,-1.9229593E-2,1.3285688E-2,-3.431015E-2,8.450924E-3,1.9947808E-2,-1.8028704E-2],"split_indices":[10,1,0,10,2,10,6,0,0,0,0,0,0,0,0],"split_type":[0,0,0,0,0,0,0,0,0,0,0,0,0,0,0],"sum_hessian":[5.673995E2,2.3644246E2,3.30957E2,1.4123903E2,9.520343E1,5.2191833E1,2.7876517E2,3.8287308E1,1.0295172E2,2.116464E1,7.403879E1,3.240232E1,1.9789515E1,2.4640839E2,3.235679E1],"tree_param":{"num_deleted":"0","num_feature":"11","num_nodes":"15","size_leaf_vector":"1"}},{"base_weights":[-9.909633E-3,2.9388988E-1,-2.0524299E-1,1.3167836E-1,7.795823E-1,-1.2208939E0,-1.3812035E-1,-5.4145273E-2,1.068853E-2,2.950542E-2,5.9388507E-2,7.434156E-3,-6.514915E-2,-1.9819437E-2,2.5912502E-3],"categories":[],"categories_nodes":[],"categories_segments":[],"categories_sizes":[],"default_left":[0,0,0,0,0,0,0,0,0,0,0,0,0,0,0],"id":27,"left_children":[1,3,5,7,9,11,13,-1,-1,-1,-1,-1,-1,-1,-1],"loss_changes":[3.366745E1,1.739083E1,2.3370667E1,1.694785E1,3.5828285E0,2.5858765E0,1.59644985E1,0E0,0E0,0E0,0E0,0E0,0E0,0E0,0E0],"parents":[2147483647,0,0,1,1,2,2,3,3,4,4,5,5,6,6],"right_children":[2,4,6,8,10,12,14,-1,-1,-1,-1,-1,-1,-1,-1],"split_conditions":[0E0,3.4212005E0,-8.157558E0,-5E-1,9.389192E0,-7.079775E-2,0E0,-5.4145273E-2,1.068853E-2,2.950542E-2,5.9388507E-2,7.434156E-3,-6.514915E-2,-1.9819437E-2,2.5912502E-3],"split_indices":[9,10,10,3,10,0,3,0,0,0,0,0,0,0,0],"split_type":[0,0,0,0,0,0,0,0,0,0,0,0,0,0,0],"sum_hessian":[5.653278E2,2.21041E2,3.4428683E2,1.6665326E2,5.4387733E1,2.0277254E1,3.2400958E2,9.778947E0,1.5687431E2,3.881578E1,1.5571952E1,1.1007679E0,1.9176485E1,1.3684915E2,1.8716043E2],"tree_param":{"num_deleted":"0","num_feature":"11","num_nodes":"15","size_leaf_vector":"1"}},{"base_weights":[-4.2930697E-3,-1.4641485E-1,3.619789E-1,-2.8891848E-2,-6.5365905E-1,7.3916036E-1,1.362064E-1,3.6006406E-2,-4.1575856E-3,-4.270193E-2,-7.85298E-3,-1.4913264E-2,4.3213315E-2,1.1973212E-2,-1.8465333E-2],"categories":[],"categories_nodes":[],"categories_segments":[],"categories_sizes":[],"default_left":[0,0,0,0,0,0,0,0,0,0,0,0,0,0,0],"id":28,"left_children":[1,3,5,7,9,11,13,-1,-1,-1,-1,-1,-1,-1,-1],"loss_changes":[2.944827E1,2.427607E1,1.3366808E1,1.3550071E1,7.4897842E0,7.914219E0,5.316432E0,0E0,0E0,0E0,0E0,0E0,0E0,0E0,0E0],"parents":[2147483647,0,0,1,1,2,2,3,3,4,4,5,5,6,6],"right_children":[2,4,6,8,10,12,14,-1,-1,-1,-1,-1,-1,-1,-1],"split_conditions":[3.0269663E0,2E0,0E0,-4E0,1.4832234E0,-4.856431E0,4E0,3.6006406E-2,-4.1575856E-3,-4.270193E-2,-7.85298E-3,-1.4913264E-2,4.3213315E-2,1.1973212E-2,-1.8465333E-2],"split_indices":[10,9,9,9,4,4,9,0,0,0,0,0,0,0,0],"split_type":[0,0,0,0,0,0,0,0,0,0,0,0,0,0,0],"sum_hessian":[5.636941E2,4.065455E2,1.5714857E2,3.3092966E2,7.561586E1,5.799188E1,9.915669E1,2.1524664E1,3.09405E2,5.336367E1,2.225219E1,6.0918474E0,5.190003E1,8.277507E1,1.638162E1],"tree_param":{"num_deleted":"0","num_feature":"11","num_nodes":"15","size_leaf_vector":"1"}},{"base_weights":[1.2817167E-2,7.101814E-1,-5.828344E-2,3.3707234E-1,8.632687E-1,-3.5083705E-1,8.238698E-2,5.2577354E-2,-3.7579045E-3,1.9532599E-2,4.8352875E-2,-2.7216552E-2,-5.5504306E-3,7.998829E-3,-3.769407E-2],"categories":[],"categories_nodes":[],"categories_segments":[],"categories_sizes":[],"default_left":[0,0,0,0,0,0,0,0,0,0,0,0,0,0,0],"id":29,"left_children":[1,3,5,7,9,11,13,-1,-1,-1,-1,-1,-1,-1,-1],"loss_changes":[2.7765371E1,2.6682758E0,2.0948664E1,5.00165E0,1.3927994E0,7.6080093E0,2.2446758E1,0E0,0E0,0E0,0E0,0E0,0E0,0E0,0E0],"parents":[2147483647,0,0,1,1,2,2,3,3,4,4,5,5,6,6],"right_children":[2,4,6,8,10,12,14,-1,-1,-1,-1,-1,-1,-1,-1],"split_conditions":[-3E0,-5.0225096E0,-1.681839E0,-5E0,-1.0787306E-1,1.1845417E-2,4E0,5.2577354E-2,-3.7579045E-3,1.9532599E-2,4.8352875E-2,-2.7216552E-2,-5.5504306E-3,7.998829E-3,-3.769407E-2],"split_indices":[9,10,10,9,1,1,9,0,0,0,0,0,0,0,0],"split_type":[0,0,0,0,0,0,0,0,0,0,0,0,0,0,0],"sum_hessian":[5.581425E2,5.080934E1,5.073332E2,1.5713567E1,3.509577E1,1.64249E2,3.430842E2,5.1817408E0,1.0531826E1,7.1772194E0,2.7918554E1,9.0203224E1,7.404577E1,3.1469525E2,2.8388956E1],"tree_param":{"num_deleted":"0","num_feature":"11","num_nodes":"15","size_leaf_vector":"1"}},{"base_weights":[8.291591E-3,4.0540743E-1,-1.2696123E-1,-1.9256273E-1,5.18076E-1,-1.7845757E-1,6.3322943E-1,-4.5836356E-2,2.3685442E-4,3.3766672E-2,5.843204E-3,-3.0344974E-3,-2.242108E-2,5.329832E-3,5.557515E-2],"categories":[],"categories_nodes":[],"categories_segments":[],"categories_sizes":[],"default_left":[0,0,0,0,0,0,0,0,0,0,0,0,0,0,0],"id":30,"left_children":[1,3,5,7,9,11,13,-1,-1,-1,-1,-1,-1,-1,-1],"loss_changes":[2.962662E1,9.540791E0,1.6222113E1,3.2828531E0,7.3778267E0,1.2250473E1,6.512636E0,0E0,0E0,0E0,0E0,0E0,0E0,0E0,0E0],"parents":[2147483647,0,0,1,1,2,2,3,3,4,4,5,5,6,6],"right_children":[2,4,6,8,10,12,14,-1,-1,-1,-1,-1,-1,-1,-1],"split_conditions":[-1E0,-2E-1,6E-1,-5.555545E0,3.3333333E0,2E0,1.100079E0,-4.5836356E-2,2.3685442E-4,3.3766672E-2,5.843204E-3,-3.0344974E-3,-2.242108E-2,5.329832E-3,5.557515E-2],"split_indices":[9,3,3,4,6,9,4,0,0,0,0,0,0,0,0],"split_type":[0,0,0,0,0,0,0,0,0,0,0,0,0,0,0],"sum_hessian":[5.4963446E2,1.3913188E2,4.1050256E2,2.1946304E1,1.1718558E2,3.851755E2,2.5327066E1,3.918302E0,1.8028002E1,8.369685E1,3.3488728E1,2.6903705E2,1.1613844E2,1.2636141E1,1.2690926E1],"tree_param":{"num_deleted":"0","num_feature":"11","num_nodes":"15","size_leaf_vector":"1"}},{"base_weights":[-1.8979808E-2,-3.7878376E-1,9.421784E-2,3.793283E-2,-5.3995675E-1,-1.5494423E-1,2.3319301E-1,1.23568E-2,-2.6620695E-2,-5.4456275E-2,-2.21512E-2,-2.380165E-2,-6.6422863E-4,3.7896023E-3,2.280472E-2],"categories":[],"categories_nodes":[],"categories_segments":[],"categories_sizes":[],"default_left":[0,0,0,0,0,0,0,0,0,0,0,0,0,0,0],"id":31,"left_children":[1,3,5,7,9,11,13,-1,-1,-1,-1,-1,-1,-1,-1],"loss_changes":[2.2686172E1,8.972717E0,1.4712478E1,4.6786714E0,4.637457E0,6.923753E0,9.52531E0,0E0,0E0,0E0,0E0,0E0,0E0,0E0,0E0],"parents":[2147483647,0,0,1,1,2,2,3,3,4,4,5,5,6,6],"right_children":[2,4,6,8,10,12,14,-1,-1,-1,-1,-1,-1,-1,-1],"split_conditions":[-2.2222222E-1,5E0,-1.2848837E0,2.8417783E-2,-1.5666667E1,7E0,1.3333334E-1,1.23568E-2,-2.6620695E-2,-5.4456275E-2,-2.21512E-2,-2.380165E-2,-6.6422863E-4,3.7896023E-3,2.280472E-2],"split_indices":[2,8,4,0,5,8,2,0,0,0,0,0,0,0,0],"split_type":[0,0,0,0,0,0,0,0,0,0,0,0,0,0,0],"sum_hessian":[5.5512714E2,1.3229025E2,4.228369E2,3.7108917E1,9.5181335E1,1.5135849E2,2.7147842E2,2.756483E1,9.544087E0,1.2744122E1,8.243722E1,4.5612293E1,1.0574619E2,1.5990334E2,1.11575096E2],"tree_param":{"num_deleted":"0","num_feature":"11","num_nodes":"15","size_leaf_vector":"1"}},{"base_weights":[3.4740656E-3,3.8653928E-1,-1.3011691E-1,1.8167089E-1,8.7697434E-1,-5.716603E-1,9.902982E-3,-1.7983465E-2,1.6543249E-2,-6.157632E-3,4.9194973E-2,-4.2572524E-2,-2.0337878E-2,-4.475779E-3,2.0579899E-2],"categories":[],"categories_nodes":[],"categories_segments":[],"categories_sizes":[],"default_left":[0,0,0,0,0,0,0,0,0,0,0,0,0,0,0],"id":32,"left_children":[1,3,5,7,9,11,13,-1,-1,-1,-1,-1,-1,-1,-1],"loss_changes":[2.8383545E1,1.4249943E1,2.5431276E1,8.390723E0,4.6120033E0,4.2228203E0,1.25455885E1,0E0,0E0,0E0,0E0,0E0,0E0,0E0,0E0],"parents":[2147483647,0,0,1,1,2,2,3,3,4,4,5,5,6,6],"right_children":[2,4,6,8,10,12,14,-1,-1,-1,-1,-1,-1,-1,-1],"split_conditions":[-1E0,3.0527616E0,-2.7088258E0,-6.306644E0,-9.666667E0,-6.9296986E-2,6.074146E0,-1.7983465E-2,1.6543249E-2,-6.157632E-3,4.9194973E-2,-4.2572524E-2,-2.0337878E-2,-4.475779E-3,2.0579899E-2],"split_indices":[9,4,10,10,5,1,10,0,0,0,0,0,0,0,0],"split_type":[0,0,0,0,0,0,0,0,0,0,0,0,0,0,0],"sum_hessian":[5.5266425E2,1.4241194E2,4.1025232E2,1.01417465E2,4.099448E1,9.803207E1,3.1222028E2,2.1607054E1,7.981042E1,3.9448113E0,3.7049667E1,3.4808765E1,6.32233E1,2.509002E2,6.1320053E1],"tree_param":{"num_deleted":"0","num_feature":"11","num_nodes":"15","size_leaf_vector":"1"}},{"base_weights":[-4.546887E-3,-7.115085E-2,3.6621097E-1,-5.224774E-1,-2.1897918E-2,-3.839409E-1,4.4097486E-1,-5.788182E-2,-1.9166067E-2,-9.29889E-3,4.6627545E-3,2.2316318E-2,-4.349996E-2,2.606677E-3,2.9047955E-2],"categories":[],"categories_nodes":[],"categories_segments":[],"categories_sizes":[],"default_left":[0,0,0,0,0,0,0,0,0,0,0,0,0,0,0],"id":33,"left_children":[1,3,5,7,9,11,13,-1,-1,-1,-1,-1,-1,-1,-1],"loss_changes":[1.3718284E1,1.0455724E1,4.914133E0,3.6473465E0,8.058546E0,3.6983705E0,4.1826906E0,0E0,0E0,0E0,0E0,0E0,0E0,0E0,0E0],"parents":[2147483647,0,0,1,1,2,2,3,3,4,4,5,5,6,6],"right_children":[2,4,6,8,10,12,14,-1,-1,-1,-1,-1,-1,-1,-1],"split_conditions":[8.666667E0,-5E-1,-4.4075236E-2,0E0,-8.428526E-3,1.1E1,9.310766E-2,-5.788182E-2,-1.9166067E-2,-9.29889E-3,4.6627545E-3,2.2316318E-2,-4.349996E-2,2.606677E-3,2.9047955E-2],"split_indices":[5,3,0,7,0,5,1,0,0,0,0,0,0,0,0],"split_type":[0,0,0,0,0,0,0,0,0,0,0,0,0,0,0],"sum_hessian":[5.5347723E2,4.6987558E2,8.360165E1,4.5286568E1,4.24589E2,7.2022023E0,7.6399445E1,6.823344E0,3.8463223E1,1.7484285E2,2.4974615E2,2.689625E0,4.512577E0,2.0586813E1,5.5812634E1],"tree_param":{"num_deleted":"0","num_feature":"11","num_nodes":"15","size_leaf_vector":"1"}},{"base_weights":[1.0497044E-2,-2.2441158E-1,1.53828E-1,-9.643071E-2,-6.174428E-1,6.759771E-2,4.9007273E-1,-5.9658017E-2,-2.465946E-3,-2.4952842E-2,-5.71505E-2,5.516057E-3,-1.4724664E-2,-6.7075687E-3,3.2160368E-2],"categories":[],"categories_nodes":[],"categories_segments":[],"categories_sizes":[],"default_left":[0,0,0,0,0,0,0,0,0,0,0,0,0,0,0],"id":34,"left_children":[1,3,5,7,9,11,13,-1,-1,-1,-1,-1,-1,-1,-1],"loss_changes":[1.85577E1,1.0447204E1,9.8906555E0,8.1438875E0,2.610489E0,4.26449E0,6.7488136E0,0E0,0E0,0E0,0E0,0E0,0E0,0E0,0E0],"parents":[2147483647,0,0,1,1,2,2,3,3,4,4,5,5,6,6],"right_children":[2,4,6,8,10,12,14,-1,-1,-1,-1,-1,-1,-1,-1],"split_conditions":[-2.9566824E-2,7.3333335E0,2.9166666E-1,-1.0208395E-1,2.6570175E0,1.0666667E1,-1.4887198E0,-5.9658017E-2,-2.465946E-3,-2.4952842E-2,-5.71505E-2,5.516057E-3,-1.4724664E-2,-6.7075687E-3,3.2160368E-2],"split_indices":[1,6,2,0,4,6,4,0,0,0,0,0,0,0,0],"split_type":[0,0,0,0,0,0,0,0,0,0,0,0,0,0,0],"sum_hessian":[5.491442E2,2.078796E2,3.4126465E2,1.577557E2,5.012388E1,2.7256592E2,6.8698746E1,5.4956098E0,1.522601E2,4.2500126E1,7.6237516E0,2.444217E2,2.8144203E1,1.3557627E1,5.5141117E1],"tree_param":{"num_deleted":"0","num_feature":"11","num_nodes":"15","size_leaf_vector":"1"}},{"base_weights":[1.4780779E-2,2.8441358E-1,-1.603739E-1,-1.6121235E-1,4.3591556E-1,-5.9924394E-2,-5.063538E-1,-2.458684E-2,4.661001E-3,3.847984E-2,1.5791971E-2,-8.012953E-3,1.3724336E-2,-1.8628899E-2,-4.3869924E-2],"categories":[],"categories_nodes":[],"categories_segments":[],"categories_sizes":[],"default_left":[0,0,0,0,0,0,0,0,0,0,0,0,0,0,0],"id":35,"left_children":[1,3,5,7,9,11,13,-1,-1,-1,-1,-1,-1,-1,-1],"loss_changes":[2.6108095E1,1.4766279E1,1.161814E1,4.7517147E0,6.2765636E0,8.797713E0,3.4098663E0,0E0,0E0,0E0,0E0,0E0,0E0,0E0,0E0],"parents":[2147483647,0,0,1,1,2,2,3,3,4,4,5,5,6,6],"right_children":[2,4,6,8,10,12,14,-1,-1,-1,-1,-1,-1,-1,-1],"split_conditions":[0E0,-1.7857143E-1,3E0,-6.3333335E0,-3E0,5.3333335E0,7E0,-2.458684E-2,4.661001E-3,3.847984E-2,1.5791971E-2,-8.012953E-3,1.3724336E-2,-1.8628899E-2,-4.3869924E-2],"split_indices":[9,2,9,5,9,5,6,0,0,0,0,0,0,0,0],"split_type":[0,0,0,0,0,0,0,0,0,0,0,0,0,0,0],"sum_hessian":[5.508504E2,2.1667598E2,3.341744E2,5.495829E1,1.6171768E2,2.598922E2,7.428218E1,2.349894E1,3.1459352E1,4.136334E1,1.2035435E2,2.0031247E2,5.9579754E1,5.6070686E1,1.8211494E1],"tree_param":{"num_deleted":"0","num_feature":"11","num_nodes":"15","size_leaf_vector":"1"}},{"base_weights":[3.1485788E-3,2.5730276E-1,-1.6210014E-1,2.1572601E-2,5.6755775E-1,-5.7178706E-1,-3.9391078E-2,-4.5493506E-2,5.199623E-3,2.0046381E-2,4.6017133E-2,2.5470803E-2,-3.2080453E-2,1.3512144E-3,-2.7351782E-2],"categories":[],"categories_nodes":[],"categories_segments":[],"categories_sizes":[],"default_left":[0,0,0,0,0,0,0,0,0,0,0,0,0,0,0],"id":36,"left_children":[1,3,5,7,9,11,13,-1,-1,-1,-1,-1,-1,-1,-1],"loss_changes":[2.328398E1,1.5963199E1,1.686755E1,9.703369E0,5.1726036E0,6.1670628E0,8.76762E0,0E0,0E0,0E0,0E0,0E0,0E0,0E0,0E0],"parents":[2147483647,0,0,1,1,2,2,3,3,4,4,5,5,6,6],"right_children":[2,4,6,8,10,12,14,-1,-1,-1,-1,-1,-1,-1,-1],"split_conditions":[0E0,4.8326525E-1,-2.468665E0,-5E-1,2.3533537E0,-6.6264734E0,4E0,-4.5493506E-2,5.199623E-3,2.0046381E-2,4.6017133E-2,2.5470803E-2,-3.2080453E-2,1.3512144E-3,-2.7351782E-2],"split_indices":[9,10,10,2,4,4,9,0,0,0,0,0,0,0,0],"split_type":[0,0,0,0,0,0,0,0,0,0,0,0,0,0,0],"sum_hessian":[5.5240515E2,2.1743338E2,3.3497177E2,1.2416385E2,9.326953E1,7.636232E1,2.5860944E2,9.277506E0,1.14886345E2,6.479942E1,2.8470106E1,4.2502747E0,7.2112045E1,2.2952708E2,2.9082365E1],"tree_param":{"num_deleted":"0","num_feature":"11","num_nodes":"15","size_leaf_vector":"1"}},{"base_weights":[3.5387855E-2,3.8653472E-1,-8.578521E-2,5.761524E-1,-8.809133E-3,-1.7792256E-1,3.2069027E-1,1.4626992E-2,3.892667E-2,-9.550846E-3,4.0323935E-2,-2.347838E-2,-4.2362904E-4,2.8279254E-2,-9.689478E-3],"categories":[],"categories_nodes":[],"categories_segments":[],"categories_sizes":[],"default_left":[0,0,0,0,0,0,0,0,0,0,0,0,0,0,0],"id":37,"left_children":[1,3,5,7,9,11,13,-1,-1,-1,-1,-1,-1,-1,-1],"loss_changes":[2.3141565E1,1.0463455E1,1.5209305E1,5.1850567E0,7.018368E0,1.6327293E1,9.574047E0,0E0,0E0,0E0,0E0,0E0,0E0,0E0,0E0],"parents":[2147483647,0,0,1,1,2,2,3,3,4,4,5,5,6,6],"right_children":[2,4,6,8,10,12,14,-1,-1,-1,-1,-1,-1,-1,-1],"split_conditions":[-1E0,3.6666667E0,4.85554E0,-1.8619738E0,5.019482E0,-1.127246E-2,5E0,1.4626992E-2,3.892667E-2,-9.550846E-3,4.0323935E-2,-2.347838E-2,-4.2362904E-4,2.8279254E-2,-9.689478E-3],"split_indices":[9,6,10,10,10,0,6,0,0,0,0,0,0,0,0],"split_type":[0,0,0,0,0,0,0,0,0,0,0,0,0,0,0],"sum_hessian":[5.420941E2,1.3851172E2,4.035824E2,9.330348E1,4.5208237E1,3.2946384E2,7.4118546E1,3.9872486E1,5.3430996E1,3.75761E1,7.632136E0,1.2042534E2,2.090385E2,5.014836E1,2.3970188E1],"tree_param":{"num_deleted":"0","num_feature":"11","num_nodes":"15","size_leaf_vector":"1"}},{"base_weights":[8.872007E-3,-7.815687E-2,3.6304268E-1,-1.4647372E-1,4.4305053E-1,5.3817326E-1,-2.9182669E-2,-2.4704289E-2,-4.21134E-3,7.737335E-3,4.2793952E-2,3.8660371E-3,4.2721562E-2,3.4907756E-3,-4.433941E-2],"categories":[],"categories_nodes":[],"categories_segments":[],"categories_sizes":[],"default_left":[0,0,0,0,0,0,0,0,0,0,0,0,0,0,0],"id":38,"left_children":[1,3,5,7,9,11,13,-1,-1,-1,-1,-1,-1,-1,-1],"loss_changes":[1.678271E1,1.5631192E1,7.3929462E0,8.3377695E0,5.92679E0,1.0762745E1,2.9570513E0,0E0,0E0,0E0,0E0,0E0,0E0,0E0,0E0],"parents":[2147483647,0,0,1,1,2,2,3,3,4,4,5,5,6,6],"right_children":[2,4,6,8,10,12,14,-1,-1,-1,-1,-1,-1,-1,-1],"split_conditions":[4.6515255E0,3.6363637E-1,5E0,-6.2104316E0,-2.3333333E0,-5.1265955E-1,1.7E1,-2.4704289E-2,-4.21134E-3,7.737335E-3,4.2793952E-2,3.8660371E-3,4.2721562E-2,3.4907756E-3,-4.433941E-2],"split_indices":[10,2,6,10,6,4,6,0,0,0,0,0,0,0,0],"split_type":[0,0,0,0,0,0,0,0,0,0,0,0,0,0,0],"sum_hessian":[5.4256464E2,4.3616656E2,1.06398056E2,3.8625717E2,4.990938E1,7.329803E1,3.3100033E1,5.760879E1,3.286484E2,3.019628E1,1.97131E1,3.0336308E1,4.2961716E1,3.0498064E1,2.6019688E0],"tree_param":{"num_deleted":"0","num_feature":"11","num_nodes":"15","size_leaf_vector":"1"}},{"base_weights":[-1.3375559E-3,-2.4478199E-1,1.0394563E-1,-1.3586192E-1,-8.195093E-1,-1.5054417E-1,2.3880085E-1,-3.2349195E-2,-1.8837455E-3,-4.463692E-2,1.82387E-2,-5.1659886E-3,-4.9209554E-2,9.225546E-3,3.386545E-2],"categories":[],"categories_nodes":[],"categories_segments":[],"categories_sizes":[],"default_left":[0,0,0,0,0,0,0,0,0,0,0,0,0,0,0],"id":39,"left_children":[1,3,5,7,9,11,13,-1,-1,-1,-1,-1,-1,-1,-1],"loss_changes":[1.37543E1,1.0030523E1,1.2893011E1,6.8710637E0,2.5469437E0,5.0308633E0,5.7138033E0,0E0,0E0,0E0,0E0,0E0,0E0,0E0,0E0],"parents":[2147483647,0,0,1,1,2,2,3,3,4,4,5,5,6,6],"right_children":[2,4,6,8,10,12,14,-1,-1,-1,-1,-1,-1,-1,-1],"split_conditions":[-1.5277778E-1,1.1666667E1,-1.2086051E-2,-5.6666665E0,1.8E1,-1.4014133E-2,6E-1,-3.2349195E-2,-1.8837455E-3,-4.463692E-2,1.82387E-2,-5.1659886E-3,-4.9209554E-2,9.225546E-3,3.386545E-2],"split_indices":[2,6,0,6,8,0,3,0,0,0,0,0,0,0,0],"split_type":[0,0,0,0,0,0,0,0,0,0,0,0,0,0,0],"sum_hessian":[5.346431E2,1.610123E2,3.7363083E2,1.363989E2,2.461339E1,1.293721E2,2.4425874E2,2.1079294E1,1.1531961E2,2.3411913E1,1.2014761E0,1.23500015E2,5.8720875E0,2.186138E2,2.5644934E1],"tree_param":{"num_deleted":"0","num_feature":"11","num_nodes":"15","size_leaf_vector":"1"}},{"base_weights":[-4.691622E-2,5.539442E-1,-1.0806897E-1,-7.284301E-1,6.4570636E-1,-3.7228253E-2,-5.195676E-1,-5.8481693E-2,6.537873E-3,3.4538545E-2,-3.558519E-2,-7.687751E-3,1.1847619E-2,-2.1728463E-2,-5.1122095E-2],"categories":[],"categories_nodes":[],"categories_segments":[],"categories_sizes":[],"default_left":[0,0,0,0,0,0,0,0,0,0,0,0,0,0,0],"id":40,"left_children":[1,3,5,7,9,11,13,-1,-1,-1,-1,-1,-1,-1,-1],"loss_changes":[2.0205307E1,6.449135E0,1.4510982E1,1.6172268E0,3.4244976E0,1.3657173E1,2.681511E0,0E0,0E0,0E0,0E0,0E0,0E0,0E0,0E0],"parents":[2147483647,0,0,1,1,2,2,3,3,4,4,5,5,6,6],"right_children":[2,4,6,8,10,12,14,-1,-1,-1,-1,-1,-1,-1,-1],"split_conditions":[-3E0,-4.8214287E-1,3E0,-6.6666665E0,8E0,4.3333335E0,1.0666667E1,-5.8481693E-2,6.537873E-3,3.4538545E-2,-3.558519E-2,-7.687751E-3,1.1847619E-2,-2.1728463E-2,-5.1122095E-2],"split_indices":[9,2,9,5,7,5,6,0,0,0,0,0,0,0,0],"split_type":[0,0,0,0,0,0,0,0,0,0,0,0,0,0,0],"sum_hessian":[5.4726086E2,4.980825E1,4.974526E2,2.8627758E0,4.6945473E1,4.2532254E2,7.2130066E1,1.6527449E0,1.210031E0,4.5912346E1,1.0331279E0,2.9878018E2,1.2654235E2,6.329568E1,8.834388E0],"tree_param":{"num_deleted":"0","num_feature":"11","num_nodes":"15","size_leaf_vector":"1"}},{"base_weights":[-1.085594E-2,2.2622424E-1,-1.6021556E-1,-7.476654E-2,4.312314E-1,-5.690989E-1,-3.944228E-2,-7.4293367E-3,4.8944093E-2,1.108489E-2,3.4713686E-2,-5.3062845E-2,-2.1563685E-2,-3.0506268E-2,9.0766343E-4],"categories":[],"categories_nodes":[],"categories_segments":[],"categories_sizes":[],"default_left":[0,0,0,0,0,0,0,0,0,0,0,0,0,0,0],"id":41,"left_children":[1,3,5,7,9,11,13,-1,-1,-1,-1,-1,-1,-1,-1],"loss_changes":[1.9312319E1,1.3040485E1,1.6498482E1,6.855094E0,6.765848E0,4.7118187E0,8.535326E0,0E0,0E0,0E0,0E0,0E0,0E0,0E0,0E0],"parents":[2147483647,0,0,1,1,2,2,3,3,4,4,5,5,6,6],"right_children":[2,4,6,8,10,12,14,-1,-1,-1,-1,-1,-1,-1,-1],"split_conditions":[0E0,-8.428526E-3,-2.468665E0,8.866786E0,4.8326525E-1,-8.7121E0,-6.288639E-2,-7.4293367E-3,4.8944093E-2,1.108489E-2,3.4713686E-2,-5.3062845E-2,-2.1563685E-2,-3.0506268E-2,9.0766343E-4],"split_indices":[9,0,10,10,10,10,0,0,0,0,0,0,0,0,0],"split_type":[0,0,0,0,0,0,0,0,0,0,0,0,0,0,0],"sum_hessian":[5.43365E2,2.0981255E2,3.3355243E2,8.526382E1,1.2454873E2,7.521079E1,2.5834164E2,8.048397E1,4.7798495E0,7.035129E1,5.419744E1,1.498851E1,6.0222282E1,2.2803253E1,2.3553838E2],"tree_param":{"num_deleted":"0","num_feature":"11","num_nodes":"15","size_leaf_vector":"1"}},{"base_weights":[7.982444E-3,9.531556E-2,-2.4422151E-1,-2.5236744E-1,1.825513E-1,-2.7620834E-1,4.3559402E-2,-3.5138957E-2,-9.473057E-3,3.063714E-3,2.084385E-2,-1.5285717E-2,3.602316E-2],"categories":[],"categories_nodes":[],"categories_segments":[],"categories_sizes":[],"default_left":[0,0,0,0,0,0,0,0,0,0,0,0,0],"id":42,"left_children":[1,3,5,7,9,11,-1,-1,-1,-1,-1,-1,-1],"loss_changes":[1.1758271E1,1.2071018E1,5.1399746E0,2.1319218E0,8.997926E0,4.168275E0,0E0,0E0,0E0,0E0,0E0,0E0,0E0],"parents":[2147483647,0,0,1,1,2,2,3,3,4,4,5,5],"right_children":[2,4,6,8,10,12,-1,-1,-1,-1,-1,-1,-1],"split_conditions":[6E0,-3.9169587E-2,1.9E1,-1.0208395E-1,3.6666667E0,4.2857143E-1,4.3559402E-2,-3.5138957E-2,-9.473057E-3,3.063714E-3,2.084385E-2,-1.5285717E-2,3.602316E-2],"split_indices":[6,0,8,0,5,2,0,0,0,0,0,0,0],"split_type":[0,0,0,0,0,0,0,0,0,0,0,0,0],"sum_hessian":[5.3178503E2,3.9546545E2,1.363196E2,7.8942535E1,3.1652292E2,1.332507E2,3.0688865E0,8.427738E0,7.051479E1,2.094052E2,1.0711772E2,1.3009264E2,3.1580696E0],"tree_param":{"num_deleted":"0","num_feature":"11","num_nodes":"13","size_leaf_vector":"1"}},{"base_weights":[3.0120187E-2,6.582309E-1,-2.951358E-2,9.999102E-2,8.9467514E-1,-7.1068984E-1,3.1314544E-2,4.8268296E-2,-2.1661362E-2,1.692156E-2,4.982945E-2,1.3941866E-2,-3.8418096E-2,-3.1395552E-3,1.897865E-2],"categories":[],"categories_nodes":[],"categories_segments":[],"categories_sizes":[],"default_left":[0,0,0,0,0,0,0,0,0,0,0,0,0,0,0],"id":43,"left_children":[1,3,5,7,9,11,13,-1,-1,-1,-1,-1,-1,-1,-1],"loss_changes":[2.0099226E1,6.0516415E0,2.034826E1,7.325353E0,1.508358E0,2.5116386E0,1.4814278E1,0E0,0E0,0E0,0E0,0E0,0E0,0E0,0E0],"parents":[2147483647,0,0,1,1,2,2,3,3,4,4,5,5,6,6],"right_children":[2,4,6,8,10,12,14,-1,-1,-1,-1,-1,-1,-1,-1],"split_conditions":[-3E0,-5.0225096E0,-7.6513796E0,-5E0,4E0,-6.885521E0,4.85554E0,4.8268296E-2,-2.1661362E-2,1.692156E-2,4.982945E-2,1.3941866E-2,-3.8418096E-2,-3.1395552E-3,1.897865E-2],"split_indices":[9,10,10,9,8,4,10,0,0,0,0,0,0,0,0],"split_type":[0,0,0,0,0,0,0,0,0,0,0,0,0,0,0],"sum_hessian":[5.350816E2,4.552611E1,4.8955548E2,1.3968847E1,3.1557266E1,3.925702E1,4.5029846E2,5.0166817E0,8.952166E0,5.55561E0,2.6001656E1,1.9507929E0,3.730623E1,3.5515024E2,9.514823E1],"tree_param":{"num_deleted":"0","num_feature":"11","num_nodes":"15","size_leaf_vector":"1"}},{"base_weights":[-1.1536374E-2,6.260085E-1,-6.6501245E-2,-4.2515662E-1,7.043334E-1,-1.5159067E-2,-6.720594E-1,-4.9278244E-2,1.199758E-2,3.831954E-2,-2.6196805E-3,-4.0403763E-3,1.4508465E-2,-4.089502E-2,-8.722928E-3],"categories":[],"categories_nodes":[],"categories_segments":[],"categories_sizes":[],"default_left":[0,0,0,0,0,0,0,0,0,0,0,0,0,0,0],"id":44,"left_children":[1,3,5,7,9,11,13,-1,-1,-1,-1,-1,-1,-1,-1],"loss_changes":[1.9070095E1,3.8558006E0,1.5560488E1,1.5853903E0,1.9456272E0,9.297864E0,2.696251E0,0E0,0E0,0E0,0E0,0E0,0E0,0E0,0E0],"parents":[2147483647,0,0,1,1,2,2,3,3,4,4,5,5,6,6],"right_children":[2,4,6,8,10,12,14,-1,-1,-1,-1,-1,-1,-1,-1],"split_conditions":[-3E0,-4.8214287E-1,4E0,-3.0493717E0,5.3846157E-1,2.3076923E-1,6.51987E-2,-4.9278244E-2,1.199758E-2,3.831954E-2,-2.6196805E-3,-4.0403763E-3,1.4508465E-2,-4.089502E-2,-8.722928E-3],"split_indices":[9,2,9,4,2,2,1,0,0,0,0,0,0,0,0],"split_type":[0,0,0,0,0,0,0,0,0,0,0,0,0,0,0],"sum_hessian":[5.420099E2,4.2195015E1,4.9981488E2,2.6189594E0,3.9576057E1,4.6169516E2,3.8119736E1,1.1598659E0,1.4590936E0,3.65647E1,3.011354E0,3.805983E2,8.1096855E1,2.898182E1,9.137916E0],"tree_param":{"num_deleted":"0","num_feature":"11","num_nodes":"15","size_leaf_vector":"1"}},{"base_weights":[1.0971629E-2,2.3547432E-1,-1.3360739E-1,1.4329918E-1,6.2180597E-1,-3.6162058E-1,-1.0045052E-2,4.732655E-3,5.4165073E-2,-4.894838E-2,3.661882E-2,-1.249355E-2,-4.873958E-2,1.5735802E-3,-5.019296E-2],"categories":[],"categories_nodes":[],"categories_segments":[],"categories_sizes":[],"default_left":[0,0,0,0,0,0,0,0,0,0,0,0,0,0,0],"id":45,"left_children":[1,3,5,7,9,11,13,-1,-1,-1,-1,-1,-1,-1,-1],"loss_changes":[1.7578562E1,7.464899E0,9.278877E0,7.7885113E0,7.8966217E0,7.688875E0,8.89037E0,0E0,0E0,0E0,0E0,0E0,0E0,0E0,0E0],"parents":[2147483647,0,0,1,1,2,2,3,3,4,4,5,5,6,6],"right_children":[2,4,6,8,10,12,14,-1,-1,-1,-1,-1,-1,-1,-1],"split_conditions":[0E0,2.6190478E-1,-3.4764387E-2,8.199398E-2,-5.0523076E0,-6.666667E-1,5E0,4.732655E-3,5.4165073E-2,-4.894838E-2,3.661882E-2,-1.249355E-2,-4.873958E-2,1.5735802E-3,-5.019296E-2],"split_indices":[9,2,1,0,4,5,9,0,0,0,0,0,0,0,0],"split_type":[0,0,0,0,0,0,0,0,0,0,0,0,0,0,0],"sum_hessian":[5.3960315E2,2.111305E2,3.284727E2,1.715671E2,3.956339E1,1.1476565E2,2.1370703E2,1.6417174E2,7.395362E0,2.0487661E0,3.751462E1,9.826457E1,1.6501078E1,2.0606691E2,7.6401277E0],"tree_param":{"num_deleted":"0","num_feature":"11","num_nodes":"15","size_leaf_vector":"1"}},{"base_weights":[1.6356556E-2,1.02665536E-1,-2.7637237E-1,1.010785E0,7.725206E-2,-3.412525E-1,8.6931586E-1,5.9108198E-2,-5.053554E-3,-3.7741114E-3,9.576126E-3,-4.051262E-2,-1.3139357E-2,6.201888E-2,9.375743E-3],"categories":[],"categories_nodes":[],"categories_segments":[],"categories_sizes":[],"default_left":[0,0,0,0,0,0,0,0,0,0,0,0,0,0,0],"id":46,"left_children":[1,3,5,7,9,11,13,-1,-1,-1,-1,-1,-1,-1,-1],"loss_changes":[1.3703127E1,9.585646E0,9.477928E0,2.2758064E0,7.1425686E0,4.115326E0,1.5134807E0,0E0,0E0,0E0,0E0,0E0,0E0,0E0,0E0],"parents":[2147483647,0,0,1,1,2,2,3,3,4,4,5,5,6,6],"right_children":[2,4,6,8,10,12,14,-1,-1,-1,-1,-1,-1,-1,-1],"split_conditions":[2E0,-5E0,5.2380955E-1,5E-1,-5.153253E-3,-6.1398372E-2,-6E0,5.9108198E-2,-5.053554E-3,-3.7741114E-3,9.576126E-3,-4.051262E-2,-1.3139357E-2,6.201888E-2,9.375743E-3],"split_indices":[9,9,2,2,1,0,6,0,0,0,0,0,0,0,0],"split_type":[0,0,0,0,0,0,0,0,0,0,0,0,0,0,0],"sum_hessian":[5.4024994E2,4.1773355E2,1.22516396E2,1.031639E1,4.0741714E2,1.1661467E2,5.9017277E0,8.883823E0,1.4325665E0,1.7450826E2,2.3290889E2,1.53771E1,1.01237564E2,3.2912436E0,2.6104844E0],"tree_param":{"num_deleted":"0","num_feature":"11","num_nodes":"15","size_leaf_vector":"1"}},{"base_weights":[4.035202E-3,7.920675E-2,-3.176658E-1,6.295865E-1,2.5504483E-2,-4.1482162E-1,2.8226453E-1,3.70361E-2,-1.628075E-3,-1.4138273E-2,4.561585E-3,-1.620033E-2,-4.285493E-2,5.948318E-2,-4.1995463E-3],"categories":[],"categories_nodes":[],"categories_segments":[],"categories_sizes":[],"default_left":[0,0,0,0,0,0,0,0,0,0,0,0,0,0,0],"id":47,"left_children":[1,3,5,7,9,11,13,-1,-1,-1,-1,-1,-1,-1,-1],"loss_changes":[1.2812768E1,1.2676527E1,5.966608E0,2.8303204E0,7.974444E0,3.2076597E0,4.9462166E0,0E0,0E0,0E0,0E0,0E0,0E0,0E0,0E0],"parents":[2147483647,0,0,1,1,2,2,3,3,4,4,5,5,6,6],"right_children":[2,4,6,8,10,12,14,-1,-1,-1,-1,-1,-1,-1,-1],"split_conditions":[8E0,-3E0,1.21212125E-1,4.6666667E-1,-4.5228332E-2,3E0,1.6911764E-1,3.70361E-2,-1.628075E-3,-1.4138273E-2,4.561585E-3,-1.620033E-2,-4.285493E-2,5.948318E-2,-4.1995463E-3],"split_indices":[6,9,2,2,0,9,2,0,0,0,0,0,0,0,0],"split_type":[0,0,0,0,0,0,0,0,0,0,0,0,0,0,0],"sum_hessian":[5.2779016E2,4.2843256E2,9.935763E1,3.7133892E1,3.9129868E2,8.5775276E1,1.3582347E1,3.1695438E1,5.438453E0,6.81875E1,3.2311118E2,7.260043E1,1.3174843E1,3.2592828E0,1.0323064E1],"tree_param":{"num_deleted":"0","num_feature":"11","num_nodes":"15","size_leaf_vector":"1"}},{"base_weights":[-8.870601E-3,-1.1151158E-1,2.7544767E-1,-6.038058E-2,-7.055693E-1,4.1094986E-1,-2.7577098E-2,-6.6353413E-3,1.1548516E-2,-4.3141942E-2,8.127051E-3,1.4139809E-2,2.9683653E-2,-3.3429705E-2,8.145422E-3],"categories":[],"categories_nodes":[],"categories_segments":[],"categories_sizes":[],"default_left":[0,0,0,0,0,0,0,0,0,0,0,0,0,0,0],"id":48,"left_children":[1,3,5,7,9,11,13,-1,-1,-1,-1,-1,-1,-1,-1],"loss_changes":[1.5620527E1,1.1901529E1,5.8414536E0,7.6831927E0,4.3820696E0,2.1311073E0,5.5805063E0,0E0,0E0,0E0,0E0,0E0,0E0,0E0,0E0],"parents":[2147483647,0,0,1,1,2,2,3,3,4,4,5,5,6,6],"right_children":[2,4,6,8,10,12,14,-1,-1,-1,-1,-1,-1,-1,-1],"split_conditions":[3.2063434E0,1.2E1,5E0,9.310766E-2,1.6666668E-2,7.5613227E0,-9.333333E0,-6.6353413E-3,1.1548516E-2,-4.3141942E-2,8.127051E-3,1.4139809E-2,2.9683653E-2,-3.3429705E-2,8.145422E-3],"split_indices":[10,6,6,1,2,10,5,0,0,0,0,0,0,0,0],"split_type":[0,0,0,0,0,0,0,0,0,0,0,0,0,0,0],"sum_hessian":[5.3321405E2,3.9222556E2,1.409885E2,3.6215613E2,3.006941E1,9.71778E1,4.3810703E1,2.905686E2,7.1587524E1,2.54626E1,4.6068096E0,5.8615353E1,3.8562447E1,9.461422E0,3.434928E1],"tree_param":{"num_deleted":"0","num_feature":"11","num_nodes":"15","size_leaf_vector":"1"}},{"base_weights":[1.9690034E-3,-5.0003695E-1,6.475453E-2,-6.3118035E-1,1.7043331E-1,3.291926E-2,6.8589187E-1,-2.7071321E-2,-5.6993354E-2,2.1521918E-2,-2.83218E-2,-2.5713472E-2,3.4472775E-3,5.417862E-2,3.5852478E-3],"categories":[],"categories_nodes":[],"categories_segments":[],"categories_sizes":[],"default_left":[0,0,0,0,0,0,0,0,0,0,0,0,0,0,0],"id":49,"left_children":[1,3,5,7,9,11,13,-1,-1,-1,-1,-1,-1,-1,-1],"loss_changes":[1.6854464E1,5.334511E0,9.375477E0,1.6626263E0,2.2579367E0,8.968491E0,5.569648E0,0E0,0E0,0E0,0E0,0E0,0E0,0E0,0E0],"parents":[2147483647,0,0,1,1,2,2,3,3,4,4,5,5,6,6],"right_children":[2,4,6,8,10,12,14,-1,-1,-1,-1,-1,-1,-1,-1],"split_conditions":[-6.773155E0,1.2640284E-1,1.1027059E1,8.29684E-2,2.4004468E-1,-2.1512964E-1,1.3878135E1,-2.7071321E-2,-5.6993354E-2,2.1521918E-2,-2.83218E-2,-2.5713472E-2,3.4472775E-3,5.417862E-2,3.5852478E-3],"split_indices":[10,1,10,1,1,1,10,0,0,0,0,0,0,0,0],"split_type":[0,0,0,0,0,0,0,0,0,0,0,0,0,0,0],"sum_hessian":[5.327174E2,5.84458E1,4.7427158E2,4.8933125E1,9.512676E0,4.5215042E2,2.2121155E1,4.33489E1,5.584227E0,7.338969E0,2.173707E0,2.7110174E1,4.2504025E2,1.2963298E1,9.157857E0],"tree_param":{"num_deleted":"0","num_feature":"11","num_nodes":"15","size_leaf_vector":"1"}},{"base_weights":[-2.0227289E-2,-5.6292963E-1,4.349061E-2,-8.713571E-1,-2.2141613E-1,1.7750914E-1,-1.7533442E-1,1.4749192E-2,-5.8045793E-2,-1.9681511E-2,2.8547624E-2,4.9595986E-3,2.84791E-2,-1.0943392E-2,2.1944406E-2],"categories":[],"categories_nodes":[],"categories_segments":[],"categories_sizes":[],"default_left":[0,0,0,0,0,0,0,0,0,0,0,0,0,0,0],"id":50,"left_children":[1,3,5,7,9,11,13,-1,-1,-1,-1,-1,-1,-1,-1],"loss_changes":[1.8641073E1,5.7729664E0,1.4187849E1,1.0278442E1,4.0753565E0,9.151385E0,5.012174E0,0E0,0E0,0E0,0E0,0E0,0E0,0E0,0E0],"parents":[2147483647,0,0,1,1,2,2,3,3,4,4,5,5,6,6],"right_children":[2,4,6,8,10,12,14,-1,-1,-1,-1,-1,-1,-1,-1],"split_conditions":[-6.889575E0,1.4354257E-5,1E0,-2E0,-7.38762E0,5.019482E0,1.1027059E1,1.4749192E-2,-5.8045793E-2,-1.9681511E-2,2.8547624E-2,4.9595986E-3,2.84791E-2,-1.0943392E-2,2.1944406E-2],"split_indices":[10,1,9,9,10,10,10,0,0,0,0,0,0,0,0],"split_type":[0,0,0,0,0,0,0,0,0,0,0,0,0,0,0],"sum_hessian":[5.373652E2,5.563892E1,4.8172626E2,2.8420427E1,2.7218493E1,2.9887204E2,1.828542E2,5.6487117E0,2.2771717E1,2.2772352E1,4.4461403E0,2.5015599E2,4.871606E1,1.7135312E2,1.1501096E1],"tree_param":{"num_deleted":"0","num_feature":"11","num_nodes":"15","size_leaf_vector":"1"}},{"base_weights":[5.934412E-3,-4.581124E-1,4.7806337E-2,-6.9085246E-1,-1.3416912E-1,1.273827E-1,-1.5483916E-1,-1.9950388E-2,-4.9987923E-2,3.93583E-2,-1.815611E-2,3.9603942E-4,1.29547315E-2,-3.6694687E-2,-4.68664E-3],"categories":[],"categories_nodes":[],"categories_segments":[],"categories_sizes":[],"default_left":[0,0,0,0,0,0,0,0,0,0,0,0,0,0,0],"id":51,"left_children":[1,3,5,7,9,11,13,-1,-1,-1,-1,-1,-1,-1,-1],"loss_changes":[1.0512346E1,3.2833605E0,8.019994E0,1.9284945E0,4.4967003E0,5.6116953E0,4.896928E0,0E0,0E0,0E0,0E0,0E0,0E0,0E0,0E0],"parents":[2147483647,0,0,1,1,2,2,3,3,4,4,5,5,6,6],"right_children":[2,4,6,8,10,12,14,-1,-1,-1,-1,-1,-1,-1,-1],"split_conditions":[-5E-1,-7E0,5E0,1.1E1,-6E0,-2.3333333E0,-6.1398372E-2,-1.9950388E-2,-4.9987923E-2,3.93583E-2,-1.815611E-2,3.9603942E-4,1.29547315E-2,-3.6694687E-2,-4.68664E-3],"split_indices":[3,5,6,8,5,6,0,0,0,0,0,0,0,0,0],"split_type":[0,0,0,0,0,0,0,0,0,0,0,0,0,0,0],"sum_hessian":[5.388949E2,4.3778427E1,4.9511646E2,2.4816294E1,1.8962133E1,3.557782E2,1.3933826E2,1.3938918E1,1.0877376E1,3.2889376E0,1.5673197E1,1.8712086E2,1.6865733E2,1.2249523E1,1.2708874E2],"tree_param":{"num_deleted":"0","num_feature":"11","num_nodes":"15","size_leaf_vector":"1"}},{"base_weights":[8.912357E-3,-7.368465E-2,3.3998972E-1,-1.3521159E-1,4.1288915E-1,6.2540156E-1,5.584717E-2,2.4439437E-2,-9.443048E-3,-1.1237315E-2,2.9547697E-2,2.194616E-2,5.3813852E-2,-4.115257E-3,2.7019491E-2],"categories":[],"categories_nodes":[],"categories_segments":[],"categories_sizes":[],"default_left":[0,0,0,0,0,0,0,0,0,0,0,0,0,0,0],"id":52,"left_children":[1,3,5,7,9,11,13,-1,-1,-1,-1,-1,-1,-1,-1],"loss_changes":[1.4512023E1,1.27735615E1,8.557749E0,1.2742598E1,5.5752354E0,3.963684E0,3.6722255E0,0E0,0E0,0E0,0E0,0E0,0E0,0E0,0E0],"parents":[2147483647,0,0,1,1,2,2,3,3,4,4,5,5,6,6],"right_children":[2,4,6,8,10,12,14,-1,-1,-1,-1,-1,-1,-1,-1],"split_conditions":[4.598895E0,3.4615386E-1,1E0,-3E0,1.3333334E0,3.0527616E0,1.1027059E1,2.4439437E-2,-9.443048E-3,-1.1237315E-2,2.9547697E-2,2.194616E-2,5.3813852E-2,-4.115257E-3,2.7019491E-2],"split_indices":[10,2,9,9,5,4,10,0,0,0,0,0,0,0,0],"split_type":[0,0,0,0,0,0,0,0,0,0,0,0,0,0,0],"sum_hessian":[5.287657E2,4.2381097E2,1.049547E2,3.768772E2,4.693376E1,5.1761227E1,5.319347E1,2.919516E1,3.4768204E2,1.0188263E1,3.6745495E1,3.8012897E1,1.374833E1,4.2037827E1,1.11556425E1],"tree_param":{"num_deleted":"0","num_feature":"11","num_nodes":"15","size_leaf_vector":"1"}},{"base_weights":[2.0476468E-2,2.2600627E-1,-1.07101195E-1,1.653582E-1,9.9366707E-1,-9.356285E-1,-7.070926E-2,-9.473788E-3,1.247673E-2,8.952525E-3,5.506132E-2,-5.7363857E-2,-2.7783224E-2,-2.5145173E-2,-1.0933214E-3],"categories":[],"categories_nodes":[],"categories_segments":[],"categories_sizes":[],"default_left":[0,0,0,0,0,0,0,0,0,0,0,0,0,0,0],"id":53,"left_children":[1,3,5,7,9,11,13,-1,-1,-1,-1,-1,-1,-1,-1],"loss_changes":[1.4050754E1,9.389111E0,9.906149E0,5.7633333E0,1.1017666E0,4.7502995E-1,6.6998134E0,0E0,0E0,0E0,0E0,0E0,0E0,0E0,0E0],"parents":[2147483647,0,0,1,1,2,2,3,3,4,4,5,5,6,6],"right_children":[2,4,6,8,10,12,14,-1,-1,-1,-1,-1,-1,-1,-1],"split_conditions":[0E0,8.445523E0,-8.7121E0,-6.2104316E0,3E0,-8.865614E-4,-6.1398372E-2,-9.473788E-3,1.247673E-2,8.952525E-3,5.506132E-2,-5.7363857E-2,-2.7783224E-2,-2.5145173E-2,-1.0933214E-3],"split_indices":[9,10,10,10,8,0,0,0,0,0,0,0,0,0,0],"split_type":[0,0,0,0,0,0,0,0,0,0,0,0,0,0,0],"sum_hessian":[5.339354E2,2.0419777E2,3.297376E2,1.90373E2,1.3824773E1,1.283421E1,3.169034E2,3.626251E1,1.5411049E2,1.923271E0,1.1901502E1,6.9458027E0,5.8884077E0,3.1233353E1,2.8567007E2],"tree_param":{"num_deleted":"0","num_feature":"11","num_nodes":"15","size_leaf_vector":"1"}},{"base_weights":[1.2259314E-2,7.1816064E-2,-3.7743106E-1,-4.5822805E-1,1.050951E-1,-6.817974E-1,3.716911E-2,1.949925E-3,-3.5531115E-2,2.0904487E-3,1.7096618E-2,-4.3352608E-2,-2.7930976E-3,9.678316E-3,-3.8994376E-2],"categories":[],"categories_nodes":[],"categories_segments":[],"categories_sizes":[],"default_left":[0,0,0,0,0,0,0,0,0,0,0,0,0,0,0],"id":54,"left_children":[1,3,5,7,9,11,13,-1,-1,-1,-1,-1,-1,-1,-1],"loss_changes":[1.2245875E1,8.118503E0,8.852928E0,3.44313E0,6.450312E0,4.635296E0,4.0564356E0,0E0,0E0,0E0,0E0,0E0,0E0,0E0,0E0],"parents":[2147483647,0,0,1,1,2,2,3,3,4,4,5,5,6,6],"right_children":[2,4,6,8,10,12,14,-1,-1,-1,-1,-1,-1,-1,-1],"split_conditions":[3E0,-8.7121E0,3.0975802E0,-2E0,6.6666665E0,1.96617E0,4.2448287E0,1.949925E-3,-3.5531115E-2,2.0904487E-3,1.7096618E-2,-4.3352608E-2,-2.7930976E-3,9.678316E-3,-3.8994376E-2],"split_indices":[9,10,10,9,5,4,4,0,0,0,0,0,0,0,0],"split_type":[0,0,0,0,0,0,0,0,0,0,0,0,0,0,0],"sum_hessian":[5.254738E2,4.5651926E2,6.895456E1,2.6215096E1,4.3030417E2,3.939179E1,2.9562773E1,9.111188E0,1.7103909E1,3.4049564E2,8.9808525E1,3.009849E1,9.2933E0,2.5453648E1,4.1091266E0],"tree_param":{"num_deleted":"0","num_feature":"11","num_nodes":"15","size_leaf_vector":"1"}},{"base_weights":[6.03841E-3,-1.0357401E-1,3.1402862E-1,-1.5352936E-1,4.0267506E-1,2.3219854E-1,7.4018216E-1,-4.0038354E-3,-2.3675015E-2,2.5227498E-3,4.3251384E-2,-1.2709547E-3,1.5605574E-2,4.86E-2,3.6546811E-3],"categories":[],"categories_nodes":[],"categories_segments":[],"categories_sizes":[],"default_left":[0,0,0,0,0,0,0,0,0,0,0,0,0,0,0],"id":55,"left_children":[1,3,5,7,9,11,13,-1,-1,-1,-1,-1,-1,-1,-1],"loss_changes":[1.7611916E1,9.793251E0,4.603096E0,8.210581E0,5.629452E0,2.4027624E0,3.269288E0,0E0,0E0,0E0,0E0,0E0,0E0,0E0,0E0],"parents":[2147483647,0,0,1,1,2,2,3,3,4,4,5,5,6,6],"right_children":[2,4,6,8,10,12,14,-1,-1,-1,-1,-1,-1,-1,-1],"split_conditions":[3.2858448E0,4E0,1.1027059E1,8E0,1.6666668E-2,-2.2222222E-1,1.5160243E1,-4.0038354E-3,-2.3675015E-2,2.5227498E-3,4.3251384E-2,-1.2709547E-3,1.5605574E-2,4.86E-2,3.6546811E-3],"split_indices":[10,7,10,6,2,2,10,0,0,0,0,0,0,0,0],"split_type":[0,0,0,0,0,0,0,0,0,0,0,0,0,0,0],"sum_hessian":[5.197234E2,3.837958E2,1.359276E2,3.4995944E2,3.383636E1,1.153273E2,2.0600302E1,2.8563843E2,6.4321014E1,1.983511E1,1.4001253E1,2.746607E1,8.786123E1,1.4948514E1,5.651788E0],"tree_param":{"num_deleted":"0","num_feature":"11","num_nodes":"15","size_leaf_vector":"1"}},{"base_weights":[-5.65189E-3,-8.516009E-2,3.2394674E-1,-2.500004E-2,-5.780308E-1,5.713285E-1,9.452444E-2,5.830185E-4,-3.380319E-2,-3.4781333E-2,-9.6222935E-3,2.24034E-2,4.565695E-2,1.8082023E-2,-1.9892668E-2],"categories":[],"categories_nodes":[],"categories_segments":[],"categories_sizes":[],"default_left":[0,0,0,0,0,0,0,0,0,0,0,0,0,0,0],"id":56,"left_children":[1,3,5,7,9,11,13,-1,-1,-1,-1,-1,-1,-1,-1],"loss_changes":[1.3942959E1,1.2693937E1,5.8148193E0,9.14987E0,1.9781542E0,1.6787968E0,7.357725E0,0E0,0E0,0E0,0E0,0E0,0E0,0E0,0E0],"parents":[2147483647,0,0,1,1,2,2,3,3,4,4,5,5,6,6],"right_children":[2,4,6,8,10,12,14,-1,-1,-1,-1,-1,-1,-1,-1],"split_conditions":[4.6515255E0,3E0,1E0,1.4333333E1,1.96617E0,3.3378608E0,5E0,5.830185E-4,-3.380319E-2,-3.4781333E-2,-9.6222935E-3,2.24034E-2,4.565695E-2,1.8082023E-2,-1.9892668E-2],"split_indices":[10,9,9,6,4,4,6,0,0,0,0,0,0,0,0],"split_type":[0,0,0,0,0,0,0,0,0,0,0,0,0,0,0],"sum_hessian":[5.300036E2,4.275971E2,1.02406494E2,3.8201846E2,4.5578644E1,4.8557526E1,5.3848965E1,3.62584E2,1.9434464E1,3.4310528E1,1.1268116E1,3.738644E1,1.1171086E1,3.508228E1,1.8766687E1],"tree_param":{"num_deleted":"0","num_feature":"11","num_nodes":"15","size_leaf_vector":"1"}},{"base_weights":[-2.7529871E-2,-8.519157E-2,3.3987483E-1,-2.6947358E-1,2.5147082E-2,6.622902E-1,1.9399136E-1,-8.754436E-3,-2.8709581E-2,-2.1256512E-2,3.7858852E-3,3.920598E-2,-7.947843E-3,1.5018478E-2,-2.2474501E-2],"categories":[],"categories_nodes":[],"categories_segments":[],"categories_sizes":[],"default_left":[0,0,0,0,0,0,0,0,0,0,0,0,0,0,0],"id":57,"left_children":[1,3,5,7,9,11,13,-1,-1,-1,-1,-1,-1,-1,-1],"loss_changes":[1.1194806E1,9.286175E0,3.2438345E0,4.8174934E0,6.552926E0,2.317875E0,3.610814E0,0E0,0E0,0E0,0E0,0E0,0E0,0E0,0E0],"parents":[2147483647,0,0,1,1,2,2,3,3,4,4,5,5,6,6],"right_children":[2,4,6,8,10,12,14,-1,-1,-1,-1,-1,-1,-1,-1],"split_conditions":[6.074146E0,-2.9566824E-2,-3E0,7.6666665E0,-7.38762E0,4.6666667E-1,1.3573764E-1,-8.754436E-3,-2.8709581E-2,-2.1256512E-2,3.7858852E-3,3.920598E-2,-7.947843E-3,1.5018478E-2,-2.2474501E-2],"split_indices":[10,1,6,6,10,2,1,0,0,0,0,0,0,0,0],"split_type":[0,0,0,0,0,0,0,0,0,0,0,0,0,0,0],"sum_hessian":[5.260595E2,4.553617E2,7.069783E1,1.6999779E2,2.8536392E2,2.0920912E1,4.977692E1,1.309968E2,3.900099E1,2.8065348E1,2.5729855E2,1.8257654E1,2.663257E0,4.3172928E1,6.603992E0],"tree_param":{"num_deleted":"0","num_feature":"11","num_nodes":"15","size_leaf_vector":"1"}},{"base_weights":[8.839882E-3,-8.466043E-2,2.4144915E-1,-1.8194008E-1,2.1289809E-1,1.4378549E-1,6.13288E-1,-1.32248E-2,1.6232025E-3,6.0855797E-3,4.9216863E-2,9.870812E-3,-2.4433104E-2,-5.042206E-3,4.075018E-2],"categories":[],"categories_nodes":[],"categories_segments":[],"categories_sizes":[],"default_left":[0,0,0,0,0,0,0,0,0,0,0,0,0,0,0],"id":58,"left_children":[1,3,5,7,9,11,13,-1,-1,-1,-1,-1,-1,-1,-1],"loss_changes":[1.1408407E1,1.0871118E1,5.37309E0,5.0100145E0,6.3984265E0,4.1805887E0,4.544363E0,0E0,0E0,0E0,0E0,0E0,0E0,0E0,0E0],"parents":[2147483647,0,0,1,1,2,2,3,3,4,4,5,5,6,6],"right_children":[2,4,6,8,10,12,14,-1,-1,-1,-1,-1,-1,-1,-1],"split_conditions":[2.8062048E0,5.6666665E0,3.8285036E0,1.4E1,4E0,2.7470834E0,-1.5555556E-1,-1.32248E-2,1.6232025E-3,6.0855797E-3,4.9216863E-2,9.870812E-3,-2.4433104E-2,-5.042206E-3,4.075018E-2],"split_indices":[10,5,4,8,7,4,2,0,0,0,0,0,0,0,0],"split_type":[0,0,0,0,0,0,0,0,0,0,0,0,0,0,0],"sum_hessian":[5.226078E2,3.732223E2,1.493855E2,2.8156116E2,9.166113E1,1.1940929E2,2.997622E1,2.0311748E2,7.844366E1,8.3007195E1,8.653935E0,1.10709145E2,8.700142E0,6.712406E0,2.3263813E1],"tree_param":{"num_deleted":"0","num_feature":"11","num_nodes":"15","size_leaf_vector":"1"}},{"base_weights":[1.6214276E-2,2.837037E-1,-7.017231E-2,-8.8701814E-2,4.062612E-1,-2.9486595E-2,-4.645292E-1,-2.0962844E-2,1.3850345E-2,2.6598204E-2,4.7482694E-3,-3.204058E-2,2.781747E-5,-1.3888905E-2,-4.641475E-2],"categories":[],"categories_nodes":[],"categories_segments":[],"categories_sizes":[],"default_left":[0,0,0,0,0,0,0,0,0,0,0,0,0,0,0],"id":59,"left_children":[1,3,5,7,9,11,13,-1,-1,-1,-1,-1,-1,-1,-1],"loss_changes":[1.227009E1,5.951729E0,6.4286547E0,4.095039E0,3.772522E0,6.7047195E0,2.9885273E0,0E0,0E0,0E0,0E0,0E0,0E0,0E0,0E0],"parents":[2147483647,0,0,1,1,2,2,3,3,4,4,5,5,6,6],"right_children":[2,4,6,8,10,12,14,-1,-1,-1,-1,-1,-1,-1,-1],"split_conditions":[-1E0,-1.7857143E-1,4E0,-2E0,3.6666667E0,-1.5666667E1,6E0,-2.0962844E-2,1.3850345E-2,2.6598204E-2,4.7482694E-3,-3.204058E-2,2.781747E-5,-1.3888905E-2,-4.641475E-2],"split_indices":[9,2,9,9,6,5,6,0,0,0,0,0,0,0,0],"split_type":[0,0,0,0,0,0,0,0,0,0,0,0,0,0,0],"sum_hessian":[5.2913873E2,1.2861331E2,4.005254E2,3.191426E1,9.669906E1,3.6404202E2,3.6483368E1,1.6685883E1,1.5228379E1,6.837857E1,2.832049E1,1.6100159E1,3.4794186E2,2.7149614E1,9.3337555E0],"tree_param":{"num_deleted":"0","num_feature":"11","num_nodes":"15","size_leaf_vector":"1"}},{"base_weights":[-4.5517024E-2,-1.4742278E-1,1.3438764E-1,-2.0925969E-1,2.2317643E-1,-1.5799133E-1,2.6066402E-1,-3.9778378E-2,-8.780214E-3,1.5689382E-2,-2.7793696E-2,-2.638955E-3,-5.3043168E-2,-3.2109823E-2,1.4991139E-2],"categories":[],"categories_nodes":[],"categories_segments":[],"categories_sizes":[],"default_left":[0,0,0,0,0,0,0,0,0,0,0,0,0,0,0],"id":60,"left_children":[1,3,5,7,9,11,13,-1,-1,-1,-1,-1,-1,-1,-1],"loss_changes":[9.604019E0,7.7057166E0,7.0400076E0,5.5222406E0,3.5821884E0,5.4345913E0,4.886425E0,0E0,0E0,0E0,0E0,0E0,0E0,0E0,0E0],"parents":[2147483647,0,0,1,1,2,2,3,3,4,4,5,5,6,6],"right_children":[2,4,6,8,10,12,14,-1,-1,-1,-1,-1,-1,-1,-1],"split_conditions":[2E-1,6.074146E0,-1.2086051E-2,-1.6333334E1,1.8E1,-1.5021997E-2,-9.666667E0,-3.9778378E-2,-8.780214E-3,1.5689382E-2,-2.7793696E-2,-2.638955E-3,-5.3043168E-2,-3.2109823E-2,1.4991139E-2],"split_indices":[3,10,0,5,8,0,5,0,0,0,0,0,0,0,0],"split_type":[0,0,0,0,0,0,0,0,0,0,0,0,0,0,0],"sum_hessian":[5.217753E2,3.332109E2,1.8856444E2,2.8593594E2,4.7274944E1,5.6799755E1,1.317647E2,1.4293394E1,2.7164255E2,4.2884296E1,4.390647E0,5.1819637E1,4.9801173E0,4.8371644E0,1.2692753E2],"tree_param":{"num_deleted":"0","num_feature":"11","num_nodes":"15","size_leaf_vector":"1"}},{"base_weights":[6.7045526E-3,-6.225038E-2,3.1007022E-1,6.6572607E-1,-9.7150825E-2,8.674521E-2,5.021138E-1,3.1984362E-3,3.976923E-2,-1.2768286E-2,2.8965835E-4,7.863502E-3,-7.091297E-2,2.7572175E-2,-1.2930577E-2],"categories":[],"categories_nodes":[],"categories_segments":[],"categories_sizes":[],"default_left":[0,0,0,0,0,0,0,0,0,0,0,0,0,0,0],"id":61,"left_children":[1,3,5,7,9,11,13,-1,-1,-1,-1,-1,-1,-1,-1],"loss_changes":[1.0850026E1,1.0804073E1,4.0761633E0,1.4678516E0,6.585352E0,5.0652137E0,2.0728502E0,0E0,0E0,0E0,0E0,0E0,0E0,0E0,0E0],"parents":[2147483647,0,0,1,1,2,2,3,3,4,4,5,5,6,6],"right_children":[2,4,6,8,10,12,14,-1,-1,-1,-1,-1,-1,-1,-1],"split_conditions":[4.6515255E0,-4E0,-5.1265955E-1,0E0,-1.681839E0,1.611856E1,5E0,3.1984362E-3,3.976923E-2,-1.2768286E-2,2.8965835E-4,7.863502E-3,-7.091297E-2,2.7572175E-2,-1.2930577E-2],"split_indices":[10,9,4,7,10,10,9,0,0,0,0,0,0,0,0],"split_type":[0,0,0,0,0,0,0,0,0,0,0,0,0,0,0],"sum_hessian":[5.1675665E2,4.2169934E2,9.5057335E1,1.8465195E1,4.0323413E2,4.462047E1,5.043687E1,3.5380638E0,1.4927131E1,1.5836378E2,2.4487036E2,4.3478558E1,1.1419117E0,4.7623783E1,2.813087E0],"tree_param":{"num_deleted":"0","num_feature":"11","num_nodes":"15","size_leaf_vector":"1"}},{"base_weights":[2.5698679E-2,9.4012934E-1,8.249572E-3,5.9667516E-2,-2.5901636E-2,3.7548576E-2,-3.8309523E-1,-4.0106368E-4,1.7452683E-2,1.7646167E-2,-2.4915028E-2],"categories":[],"categories_nodes":[],"categories_segments":[],"categories_sizes":[],"default_left":[0,0,0,0,0,0,0,0,0,0,0],"id":62,"left_children":[1,3,5,-1,-1,7,9,-1,-1,-1,-1],"loss_changes":[8.250419E0,4.193241E0,5.849175E0,0E0,0E0,6.736213E0,3.188901E0,0E0,0E0,0E0,0E0],"parents":[2147483647,0,0,1,1,2,2,5,5,6,6],"right_children":[2,4,6,-1,-1,8,10,-1,-1,-1,-1],"split_conditions":[-5E0,8.666667E0,4E0,5.9667516E-2,-2.5901636E-2,4.7183766E0,-1.3333333E1,-4.0106368E-4,1.7452683E-2,1.7646167E-2,-2.4915028E-2],"split_indices":[9,6,9,0,0,4,5,0,0,0,0],"split_type":[0,0,0,0,0,0,0,0,0,0,0],"sum_hessian":[5.165592E2,8.682254E0,5.0787698E2,7.5523396E0,1.1299144E0,4.7334302E2,3.4533955E1,4.1378497E2,5.9558052E1,4.3945866E0,3.0139368E1],"tree_param":{"num_deleted":"0","num_feature":"11","num_nodes":"11","size_leaf_vector":"1"}},{"base_weights":[1.2401806E-2,9.33828E-1,-5.3722216E-3,1.6041068E-2,5.2119263E-2,-1.6023746E-1,9.141499E-2,-6.069529E-3,-4.4884276E-2,2.4285447E-3,2.9893652E-2],"categories":[],"categories_nodes":[],"categories_segments":[],"categories_sizes":[],"default_left":[0,0,0,0,0,0,0,0,0,0,0],"id":63,"left_children":[1,3,5,-1,-1,7,9,-1,-1,-1,-1],"loss_changes":[8.458841E0,3.1602764E-1,7.620239E0,0E0,0E0,5.4921265E0,6.7603836E0,0E0,0E0,0E0,0E0],"parents":[2147483647,0,0,1,1,2,2,5,5,6,6],"right_children":[2,4,6,-1,-1,8,10,-1,-1,-1,-1],"split_conditions":[-5E0,4E0,-1.2086051E-2,1.6041068E-2,5.2119263E-2,-1.4014133E-2,5E-1,-6.069529E-3,-4.4884276E-2,2.4285447E-3,2.9893652E-2],"split_indices":[9,8,0,0,0,0,3,0,0,0,0],"split_type":[0,0,0,0,0,0,0,0,0,0,0],"sum_hessian":[5.151867E2,8.774368E0,5.0641235E2,1.9151452E0,6.8592234E0,1.9451744E2,3.118949E2,1.8588985E2,8.627593E0,2.8857837E2,2.3316542E1],"tree_param":{"num_deleted":"0","num_feature":"11","num_nodes":"11","size_leaf_vector":"1"}},{"base_weights":[-1.8030124E-3,5.147087E-2,-3.53362E-1,5.965551E-1,2.3644414E-2,-4.187061E-1,5.282771E-1,4.5646653E-2,-9.043809E-3,-5.965605E-3,6.2962095E-3,2.638893E-3,-2.4646634E-2,-1.0561655E-2,4.5303483E-2],"categories":[],"categories_nodes":[],"categories_segments":[],"categories_sizes":[],"default_left":[0,0,0,0,0,0,0,0,0,0,0,0,0,0,0],"id":64,"left_children":[1,3,5,7,9,11,13,-1,-1,-1,-1,-1,-1,-1,-1],"loss_changes":[9.672777E0,6.7890625E0,4.1365385E0,5.5133004E0,6.269898E0,2.2598982E0,1.6251104E0,0E0,0E0,0E0,0E0,0E0,0E0,0E0,0E0],"parents":[2147483647,0,0,1,1,2,2,3,3,4,4,5,5,6,6],"right_children":[2,4,6,8,10,12,14,-1,-1,-1,-1,-1,-1,-1,-1],"split_conditions":[3E0,-4E0,3.4615386E-1,4.6666665E0,-9.1206896E-1,-1.9472022E-1,-7.3333335E0,4.5646653E-2,-9.043809E-3,-5.965605E-3,6.2962095E-3,2.638893E-3,-2.4646634E-2,-1.0561655E-2,4.5303483E-2],"split_indices":[9,9,2,6,4,1,6,0,0,0,0,0,0,0,0],"split_type":[0,0,0,0,0,0,0,0,0,0,0,0,0,0,0],"sum_hessian":[5.144913E2,4.475282E2,6.696309E1,2.0743887E1,4.267843E2,6.2831326E1,4.13176E0,1.4619957E1,6.1239295E0,1.7792787E2,2.4885643E2,8.585513E0,5.424581E1,1.5461409E0,2.5856194E0],"tree_param":{"num_deleted":"0","num_feature":"11","num_nodes":"15","size_leaf_vector":"1"}},{"base_weights":[1.9957595E-2,-2.527252E-1,7.354415E-2,-7.342413E-2,-7.334744E-1,-2.3798355E-1,1.1594525E-1,2.7357822E-2,-9.873062E-3,-4.346397E-2,8.3655175E-3,-1.8980502E-3,-3.0347899E-2,4.4155596E-3,2.6012478E-2],"categories":[],"categories_nodes":[],"categories_segments":[],"categories_sizes":[],"default_left":[0,0,0,0,0,0,0,0,0,0,0,0,0,0,0],"id":65,"left_children":[1,3,5,7,9,11,13,-1,-1,-1,-1,-1,-1,-1,-1],"loss_changes":[7.536647E0,7.2496285E0,5.7178135E0,4.943869E0,2.9474344E0,3.8099678E0,4.1978917E0,0E0,0E0,0E0,0E0,0E0,0E0,0E0,0E0],"parents":[2147483647,0,0,1,1,2,2,3,3,4,4,5,5,6,6],"right_children":[2,4,6,8,10,12,14,-1,-1,-1,-1,-1,-1,-1,-1],"split_conditions":[-5.0818872E0,6E0,-5.463212E-2,-3.894404E0,1.7666666E1,1.3333334E0,9.86445E0,2.7357822E-2,-9.873062E-3,-4.346397E-2,8.3655175E-3,-1.8980502E-3,-3.0347899E-2,4.4155596E-3,2.6012478E-2],"split_indices":[10,6,0,4,6,5,10,0,0,0,0,0,0,0,0],"split_type":[0,0,0,0,0,0,0,0,0,0,0,0,0,0,0],"sum_hessian":[5.1350806E2,8.372833E1,4.2977972E2,6.182332E1,2.190501E1,5.0935528E1,3.788442E2,9.730184E0,5.2093136E1,1.9065598E1,2.839413E0,3.3745068E1,1.7190458E1,3.5574744E2,2.3096786E1],"tree_param":{"num_deleted":"0","num_feature":"11","num_nodes":"15","size_leaf_vector":"1"}},{"base_weights":[2.261576E-2,-3.519909E-1,5.4279912E-2,2.0331575E-1,-4.740178E-1,1.1400637E-1,-1.6765574E-1,-1.1533774E-2,3.4156516E-2,-1.5544127E-2,-5.8548417E-2,3.052399E-3,1.4662697E-2,-2.1670617E-3,-3.0760927E-2],"categories":[],"categories_nodes":[],"categories_segments":[],"categories_sizes":[],"default_left":[0,0,0,0,0,0,0,0,0,0,0,0,0,0,0],"id":66,"left_children":[1,3,5,7,9,11,13,-1,-1,-1,-1,-1,-1,-1,-1],"loss_changes":[6.1250834E0,2.8240733E0,6.322262E0,1.8134437E0,3.4223118E0,3.5444736E0,5.6060495E0,0E0,0E0,0E0,0E0,0E0,0E0,0E0,0E0],"parents":[2147483647,0,0,1,1,2,2,3,3,4,4,5,5,6,6],"right_children":[2,4,6,8,10,12,14,-1,-1,-1,-1,-1,-1,-1,-1],"split_conditions":[-5E-1,-1E0,2E0,-4.642857E-1,-1.3333334E0,6.6666665E0,6.6666665E0,-1.1533774E-2,3.4156516E-2,-1.5544127E-2,-5.8548417E-2,3.052399E-3,1.4662697E-2,-2.1670617E-3,-3.0760927E-2],"split_indices":[3,9,9,2,5,5,6,0,0,0,0,0,0,0,0],"split_type":[0,0,0,0,0,0,0,0,0,0,0,0,0,0,0],"sum_hessian":[5.137684E2,3.9253895E1,4.7451443E2,6.951879E0,3.2302013E1,3.7427682E2,1.0023761E2,3.9228816E0,3.0289977E0,2.734697E1,4.955046E0,2.899517E2,8.432516E1,7.93064E1,2.0931211E1],"tree_param":{"num_deleted":"0","num_feature":"11","num_nodes":"15","size_leaf_vector":"1"}},{"base_weights":[2.1899436E-2,6.493031E-2,-3.4277794E-1,-2.0448942E-1,1.10755846E-1,-4.2666E-2,-6.0308903E-1,-1.4881026E-3,-2.7292354E-2,2.3860188E-2,3.961785E-3,-1.910528E-2,2.2003602E-2,-4.985111E-2,-1.9644497E-2],"categories":[],"categories_nodes":[],"categories_segments":[],"categories_sizes":[],"default_left":[0,0,0,0,0,0,0,0,0,0,0,0,0,0,0],"id":67,"left_children":[1,3,5,7,9,11,13,-1,-1,-1,-1,-1,-1,-1,-1],"loss_changes":[8.139175E0,5.745164E0,4.2516108E0,4.0233545E0,4.545104E0,4.511731E0,2.029808E0,0E0,0E0,0E0,0E0,0E0,0E0,0E0,0E0],"parents":[2147483647,0,0,1,1,2,2,3,3,4,4,5,5,6,6],"right_children":[2,4,6,8,10,12,14,-1,-1,-1,-1,-1,-1,-1,-1],"split_conditions":[1.0666667E1,-4.9109228E-2,-9.999177E-1,3E0,-4.8214287E-1,-1.9393621E-2,1.5054342E-4,-1.4881026E-3,-2.7292354E-2,2.3860188E-2,3.961785E-3,-1.910528E-2,2.2003602E-2,-4.985111E-2,-1.9644497E-2],"split_indices":[6,0,4,6,2,0,0,0,0,0,0,0,0,0,0],"split_type":[0,0,0,0,0,0,0,0,0,0,0,0,0,0,0],"sum_hessian":[5.16252E2,4.625003E2,5.375175E1,6.672791E1,3.9577237E2,2.5507793E1,2.8243956E1,4.4855404E1,2.1872507E1,3.0226343E1,3.6554605E2,1.5099188E1,1.0408606E1,8.524676E0,1.971928E1],"tree_param":{"num_deleted":"0","num_feature":"11","num_nodes":"15","size_leaf_vector":"1"}},{"base_weights":[-3.3247173E-2,4.511712E-2,-3.1195238E-1,1.8542161E-2,6.2676984E-1,-4.1010872E-1,2.0558518E-1,-1.1219676E-2,3.830406E-3,6.638005E-3,4.397313E-2,-2.4578204E-2,1.50565505E-2,5.20418E-2,-5.8613913E-3],"categories":[],"categories_nodes":[],"categories_segments":[],"categories_sizes":[],"default_left":[0,0,0,0,0,0,0,0,0,0,0,0,0,0,0],"id":68,"left_children":[1,3,5,7,9,11,13,-1,-1,-1,-1,-1,-1,-1,-1],"loss_changes":[1.1178784E1,6.169435E0,5.789879E0,5.4260483E0,2.060464E0,5.636918E0,5.1295314E0,0E0,0E0,0E0,0E0,0E0,0E0,0E0,0E0],"parents":[2147483647,0,0,1,1,2,2,3,3,4,4,5,5,6,6],"right_children":[2,4,6,8,10,12,14,-1,-1,-1,-1,-1,-1,-1,-1],"split_conditions":[2E0,9.86445E0,7.7200103E0,-3E-1,7E0,3.0769232E-1,9.129223E0,-1.1219676E-2,3.830406E-3,6.638005E-3,4.397313E-2,-2.4578204E-2,1.50565505E-2,5.20418E-2,-5.8613913E-3],"split_indices":[9,10,10,3,8,2,10,0,0,0,0,0,0,0,0],"split_type":[0,0,0,0,0,0,0,0,0,0,0,0,0,0,0],"sum_hessian":[5.1019214E2,3.9887695E2,1.1131519E2,3.8243582E2,1.644112E1,9.374337E1,1.7571821E1,7.322278E1,3.0921304E2,6.08007E0,1.0361049E1,8.438766E1,9.355713E0,4.2781663E0,1.3293654E1],"tree_param":{"num_deleted":"0","num_feature":"11","num_nodes":"15","size_leaf_vector":"1"}},{"base_weights":[1.0656025E-2,2.3952457E-1,-6.213501E-2,3.5723805E-1,-2.435623E-2,-3.316408E-2,-5.8576167E-1,4.73993E-2,1.1411709E-2,-3.816935E-2,3.8482693E-3,2.968275E-4,-2.1731956E-2,3.4269206E-2,-3.7276972E-2],"categories":[],"categories_nodes":[],"categories_segments":[],"categories_sizes":[],"default_left":[0,0,0,0,0,0,0,0,0,0,0,0,0,0,0],"id":69,"left_children":[1,3,5,7,9,11,13,-1,-1,-1,-1,-1,-1,-1,-1],"loss_changes":[8.410797E0,3.7925487E0,5.793009E0,6.208143E0,2.942625E0,5.7186174E0,4.578593E0,0E0,0E0,0E0,0E0,0E0,0E0,0E0,0E0],"parents":[2147483647,0,0,1,1,2,2,3,3,4,4,5,5,6,6],"right_children":[2,4,6,8,10,12,14,-1,-1,-1,-1,-1,-1,-1,-1],"split_conditions":[-1E0,4.6666665E0,1.4333333E1,-4E0,-6.115364E0,4E0,-6.2974186E0,4.73993E-2,1.1411709E-2,-3.816935E-2,3.8482693E-3,2.968275E-4,-2.1731956E-2,3.4269206E-2,-3.7276972E-2],"split_indices":[9,6,6,9,4,9,4,0,0,0,0,0,0,0,0],"split_type":[0,0,0,0,0,0,0,0,0,0,0,0,0,0,0],"sum_hessian":[5.0296918E2,1.2081471E2,3.8215448E2,8.330137E1,3.7513344E1,3.6312692E2,1.9027552E1,1.3792555E1,6.950881E1,3.7351558E0,3.3778187E1,3.3179755E2,3.1329361E1,1.7573075E0,1.7270243E1],"tree_param":{"num_deleted":"0","num_feature":"11","num_nodes":"15","size_leaf_vector":"1"}},{"base_weights":[-2.1974305E-2,4.3152335E-1,-6.3657336E-2,6.1746603E-1,7.157841E-2,-4.1894566E-2,-7.7789927E-1,3.6770545E-2,-7.7844323E-3,-2.090048E-2,2.6590044E-2,-1.9406348E-2,-5.5364467E-4,-4.622205E-2,1.0716081E-2],"categories":[],"categories_nodes":[],"categories_segments":[],"categories_sizes":[],"default_left":[0,0,0,0,0,0,0,0,0,0,0,0,0,0,0],"id":70,"left_children":[1,3,5,7,9,11,13,-1,-1,-1,-1,-1,-1,-1,-1],"loss_changes":[9.736955E0,2.8582354E0,7.292898E0,2.710043E0,3.8054519E0,4.887497E0,2.2160416E0,0E0,0E0,0E0,0E0,0E0,0E0,0E0,0E0],"parents":[2147483647,0,0,1,1,2,2,3,3,4,4,5,5,6,6],"right_children":[2,4,6,8,10,12,14,-1,-1,-1,-1,-1,-1,-1,-1],"split_conditions":[-3E0,4E0,5E0,5E-1,-1.728745E-1,-5E-1,1.3394003E-1,3.6770545E-2,-7.7844323E-3,-2.090048E-2,2.6590044E-2,-1.9406348E-2,-5.5364467E-4,-4.622205E-2,1.0716081E-2],"split_indices":[9,6,9,3,4,3,1,0,0,0,0,0,0,0,0],"split_type":[0,0,0,0,0,0,0,0,0,0,0,0,0,0,0],"sum_hessian":[5.126436E2,4.236574E1,4.7027786E2,2.7463188E1,1.49025545E1,4.573997E2,1.2878195E1,2.387055E1,3.5926383E0,7.265347E0,7.637207E0,3.644177E1,4.2095792E2,1.1280484E1,1.5977099E0],"tree_param":{"num_deleted":"0","num_feature":"11","num_nodes":"15","size_leaf_vector":"1"}},{"base_weights":[1.3062441E-2,-3.0855066E-1,7.82835E-2,-4.1182524E-1,2.6987028E-1,2.8137378E-2,4.0517315E-1,-1.626842E-2,-5.756969E-2,4.8962023E-2,-1.9517479E-3,2.149388E-4,2.4954462E-2,-4.7180742E-2,2.6045475E-2],"categories":[],"categories_nodes":[],"categories_segments":[],"categories_sizes":[],"default_left":[0,0,0,0,0,0,0,0,0,0,0,0,0,0,0],"id":71,"left_children":[1,3,5,7,9,11,13,-1,-1,-1,-1,-1,-1,-1,-1],"loss_changes":[1.0756534E1,5.2764034E0,6.9747114E0,4.341915E0,3.0410967E0,4.158245E0,9.328296E0,0E0,0E0,0E0,0E0,0E0,0E0,0E0,0E0],"parents":[2147483647,0,0,1,1,2,2,3,3,4,4,5,5,6,6],"right_children":[2,4,6,8,10,12,14,-1,-1,-1,-1,-1,-1,-1,-1],"split_conditions":[-5.0225096E0,3.6363637E-1,4.7183766E0,4.804808E0,4.3333334E-1,1.1027059E1,-1.5331045E-1,-1.626842E-2,-5.756969E-2,4.8962023E-2,-1.9517479E-3,2.149388E-4,2.4954462E-2,-4.7180742E-2,2.6045475E-2],"split_indices":[10,2,4,4,2,10,1,0,0,0,0,0,0,0,0],"split_type":[0,0,0,0,0,0,0,0,0,0,0,0,0,0,0],"sum_hessian":[5.1065173E2,8.546794E1,4.2518378E2,7.276422E1,1.2703722E1,3.6957556E2,5.560823E1,6.64375E1,6.3267183E0,3.1955118E0,9.50821E0,3.5273022E2,1.684534E1,3.8292391E0,5.177899E1],"tree_param":{"num_deleted":"0","num_feature":"11","num_nodes":"15","size_leaf_vector":"1"}},{"base_weights":[-3.40839E-2,-1.17325425E-1,1.001253E-1,-8.0489224E-1,-9.786239E-2,7.067994E-3,4.881089E-1,1.0595637E-2,-5.792718E-2,-3.336095E-2,-3.8629868E-3,-1.5523403E-2,4.4625644E-3,1.22138215E-2,4.406291E-2],"categories":[],"categories_nodes":[],"categories_segments":[],"categories_sizes":[],"default_left":[0,0,0,0,0,0,0,0,0,0,0,0,0,0,0],"id":72,"left_children":[1,3,5,7,9,11,13,-1,-1,-1,-1,-1,-1,-1,-1],"loss_changes":[5.776268E0,4.1891418E0,7.1475797E0,3.352744E0,3.5999038E0,4.223005E0,3.4563313E0,0E0,0E0,0E0,0E0,0E0,0E0,0E0,0E0],"parents":[2147483647,0,0,1,1,2,2,3,3,4,4,5,5,6,6],"right_children":[2,4,6,8,10,12,14,-1,-1,-1,-1,-1,-1,-1,-1],"split_conditions":[1.0616102E0,-1.04085125E-1,1.3394003E-1,-2.9166666E-1,-2.5992483E-1,-2.1875E-1,2.6190478E-1,1.0595637E-2,-5.792718E-2,-3.336095E-2,-3.8629868E-3,-1.5523403E-2,4.4625644E-3,1.22138215E-2,4.406291E-2],"split_indices":[4,0,1,2,1,2,2,0,0,0,0,0,0,0,0],"split_type":[0,0,0,0,0,0,0,0,0,0,0,0,0,0,0],"sum_hessian":[5.149895E2,3.1792587E2,1.9706363E2,7.6409416E0,3.102849E2,1.5976294E2,3.7300694E1,2.0751977E0,5.565744E0,9.739786E0,3.0054514E2,3.2276546E1,1.2748639E2,2.4022926E1,1.3277766E1],"tree_param":{"num_deleted":"0","num_feature":"11","num_nodes":"15","size_leaf_vector":"1"}},{"base_weights":[1.6448485E-2,5.1179267E-2,-4.4851294E-1,-1.6993493E-1,1.2683034E-1,2.90415E-1,-5.445359E-1,-2.8598445E-4,-1.8365297E-2,-1.14050405E-2,8.550147E-3,-1.9986618E-2,5.5683322E-2,1.2575805E-2,-3.3738848E-2],"categories":[],"categories_nodes":[],"categories_segments":[],"categories_sizes":[],"default_left":[0,0,0,0,0,0,0,0,0,0,0,0,0,0,0],"id":73,"left_children":[1,3,5,7,9,11,13,-1,-1,-1,-1,-1,-1,-1,-1],"loss_changes":[8.347973E0,8.06073E0,2.7078023E0,3.9825578E0,5.662086E0,3.1636887E0,3.5029087E0,0E0,0E0,0E0,0E0,0E0,0E0,0E0,0E0],"parents":[2147483647,0,0,1,1,2,2,3,3,4,4,5,5,6,6],"right_children":[2,4,6,8,10,12,14,-1,-1,-1,-1,-1,-1,-1,-1],"split_conditions":[4E0,-2.8723018E0,-6.2974186E0,0E0,-5.2964067E0,-7.079775E-2,-1.3333333E1,-2.8598445E-4,-1.8365297E-2,-1.14050405E-2,8.550147E-3,-1.9986618E-2,5.5683322E-2,1.2575805E-2,-3.3738848E-2],"split_indices":[9,10,4,9,4,0,5,0,0,0,0,0,0,0,0],"split_type":[0,0,0,0,0,0,0,0,0,0,0,0,0,0,0],"sum_hessian":[5.145297E2,4.7959573E2,3.4933983E1,1.219403E2,3.5765543E2,3.784739E0,3.1149242E1,6.712249E1,5.4817806E1,3.9124252E1,3.1853116E2,2.3386507E0,1.4460884E0,4.248803E0,2.6900438E1],"tree_param":{"num_deleted":"0","num_feature":"11","num_nodes":"15","size_leaf_vector":"1"}},{"base_weights":[-2.8710972E-4,-4.0906492E-1,3.647185E-2,5.598275E-1,-5.509227E-1,2.8976184E-1,-3.7334368E-2,4.5955177E-2,-4.4325422E-3,1.586747E-2,-3.0823583E-2,8.431121E-3,3.348058E-2,-3.0315772E-2,2.991771E-4],"categories":[],"categories_nodes":[],"categories_segments":[],"categories_sizes":[],"default_left":[0,0,0,0,0,0,0,0,0,0,0,0,0,0,0],"id":74,"left_children":[1,3,5,7,9,11,13,-1,-1,-1,-1,-1,-1,-1,-1],"loss_changes":[7.620088E0,6.059074E0,8.709047E0,1.4419782E0,2.3014803E0,4.7233133E0,8.905762E0,0E0,0E0,0E0,0E0,0E0,0E0,0E0,0E0],"parents":[2147483647,0,0,1,1,2,2,3,3,4,4,5,5,6,6],"right_children":[2,4,6,8,10,12,14,-1,-1,-1,-1,-1,-1,-1,-1],"split_conditions":[-7.6513796E0,-4E0,-1E0,5.232144E-2,-6.885521E0,3.5636296E0,-2.1323228E-1,4.5955177E-2,-4.4325422E-3,1.586747E-2,-3.0823583E-2,8.431121E-3,3.348058E-2,-3.0315772E-2,2.991771E-4],"split_indices":[10,9,9,1,4,4,1,0,0,0,0,0,0,0,0],"split_type":[0,0,0,0,0,0,0,0,0,0,0,0,0,0,0],"sum_hessian":[5.0512555E2,4.083969E1,4.6428586E2,4.8394833E0,3.600021E1,1.0410157E2,3.601843E2,2.8456094E0,1.9938741E0,2.2573667E0,3.374284E1,8.0024536E1,2.4077032E1,2.4562237E1,3.3562204E2],"tree_param":{"num_deleted":"0","num_feature":"11","num_nodes":"15","size_leaf_vector":"1"}},{"base_weights":[-5.6560813E-3,-2.4133012E-1,6.9129355E-2,-1.1742044E-1,-6.764419E-1,-1.5042038E-2,2.242778E-1,-3.5356056E-2,3.4893144E-4,-9.7246235E-3,-4.872983E-2,2.1926274E-3,-2.2514973E-2,4.642831E-3,2.2187186E-2],"categories":[],"categories_nodes":[],"categories_segments":[],"categories_sizes":[],"default_left":[0,0,0,0,0,0,0,0,0,0,0,0,0,0,0],"id":75,"left_children":[1,3,5,7,9,11,13,-1,-1,-1,-1,-1,-1,-1,-1],"loss_changes":[8.85456E0,6.444921E0,4.984458E0,7.0032907E0,3.634613E0,6.3824997E0,3.8298883E0,0E0,0E0,0E0,0E0,0E0,0E0,0E0,0E0],"parents":[2147483647,0,0,1,1,2,2,3,3,4,4,5,5,6,6],"right_children":[2,4,6,8,10,12,14,-1,-1,-1,-1,-1,-1,-1,-1],"split_conditions":[-2.1875E-1,2.0086972E-2,4.3333335E0,-6.1398372E-2,-4.4444445E-1,2.6666667E0,2.3333333E-1,-3.5356056E-2,3.4893144E-4,-9.7246235E-3,-4.872983E-2,2.1926274E-3,-2.2514973E-2,4.642831E-3,2.2187186E-2],"split_indices":[2,0,5,0,2,5,2,0,0,0,0,0,0,0,0],"split_type":[0,0,0,0,0,0,0,0,0,0,0,0,0,0,0],"sum_hessian":[5.0044025E2,1.2001276E2,3.804275E2,9.4399765E1,2.5612986E1,2.4721243E2,1.3321506E2,1.56287985E1,7.8770966E1,1.042076E1,1.5192225E1,2.1854094E2,2.867148E1,8.4210815E1,4.9004242E1],"tree_param":{"num_deleted":"0","num_feature":"11","num_nodes":"15","size_leaf_vector":"1"}},{"base_weights":[5.4614986E-3,-1.7284565E-2,5.63406E-1,4.7062773E-2,-2.4407482E-1,8.5467476E-1,-2.1413034E-2,-1.4618546E-4,2.2194356E-2,-1.49219055E-2,3.4573212E-2,4.717421E-2,1.0693901E-2,-3.5625406E-2,3.1671077E-2],"categories":[],"categories_nodes":[],"categories_segments":[],"categories_sizes":[],"default_left":[0,0,0,0,0,0,0,0,0,0,0,0,0,0,0],"id":76,"left_children":[1,3,5,7,9,11,13,-1,-1,-1,-1,-1,-1,-1,-1],"loss_changes":[6.4253097E0,7.1139016E0,3.3963618E0,7.5381036E0,5.685382E0,5.529642E-1,3.8765957E0,0E0,0E0,0E0,0E0,0E0,0E0,0E0,0E0],"parents":[2147483647,0,0,1,1,2,2,3,3,4,4,5,5,6,6],"right_children":[2,4,6,8,10,12,14,-1,-1,-1,-1,-1,-1,-1,-1],"split_conditions":[1.1027059E1,2E0,1.4571372E1,1.7E1,5.2380955E-1,9E0,4.3298523E-3,-1.4618546E-4,2.2194356E-2,-1.49219055E-2,3.4573212E-2,4.717421E-2,1.0693901E-2,-3.5625406E-2,3.1671077E-2],"split_indices":[10,9,10,8,2,5,0,0,0,0,0,0,0,0,0],"split_type":[0,0,0,0,0,0,0,0,0,0,0,0,0,0,0],"sum_hessian":[5.0451978E2,4.8568845E2,1.8831337E1,3.7895874E2,1.06729706E2,1.2262547E1,6.5687895E0,3.374447E2,4.151402E1,1.0151194E2,5.217764E0,1.0355055E1,1.9074917E0,3.15306E0,3.4157295E0],"tree_param":{"num_deleted":"0","num_feature":"11","num_nodes":"15","size_leaf_vector":"1"}},{"base_weights":[-1.454383E-2,-2.123545E-1,7.860246E-2,1.5088394E-1,-3.1298444E-1,2.311013E-2,3.3067325E-1,-2.3778254E-2,1.6024996E-2,-2.9937852E-2,-9.653869E-3,1.9168336E-3,-5.320362E-2,-2.090272E-2,2.5188392E-2],"categories":[],"categories_nodes":[],"categories_segments":[],"categories_sizes":[],"default_left":[0,0,0,0,0,0,0,0,0,0,0,0,0,0,0],"id":77,"left_children":[1,3,5,7,9,11,13,-1,-1,-1,-1,-1,-1,-1,-1],"loss_changes":[9.305889E0,5.956648E0,4.797023E0,3.9506967E0,4.233527E0,4.718737E0,8.232677E0,0E0,0E0,0E0,0E0,0E0,0E0,0E0,0E0],"parents":[2147483647,0,0,1,1,2,2,3,3,4,4,5,5,6,6],"right_children":[2,4,6,8,10,12,14,-1,-1,-1,-1,-1,-1,-1,-1],"split_conditions":[-1.681839E0,-2E0,2.1875E-1,-1.9642857E-1,-6.773155E0,2.1428572E-1,-2.8548944E0,-2.3778254E-2,1.6024996E-2,-2.9937852E-2,-9.653869E-3,1.9168336E-3,-5.320362E-2,-2.090272E-2,2.5188392E-2],"split_indices":[10,9,2,2,10,2,4,0,0,0,0,0,0,0,0],"split_type":[0,0,0,0,0,0,0,0,0,0,0,0,0,0,0],"sum_hessian":[5.031536E2,1.6066873E2,3.4248486E2,3.4746563E1,1.25922165E2,2.8158646E2,6.0898407E1,7.0190525E0,2.7727509E1,3.603855E1,8.988361E1,2.786486E2,2.937877E0,1.1169424E1,4.972898E1],"tree_param":{"num_deleted":"0","num_feature":"11","num_nodes":"15","size_leaf_vector":"1"}},{"base_weights":[4.0703565E-2,-3.2057818E-2,2.5161797E-1,-7.511515E-2,3.131106E-1,1.9422331E-1,5.560953E-1,-3.400843E-2,-2.3123417E-3,1.8857036E-2,-2.7201364E-2,2.1308618E-2,4.382907E-3,4.1416362E-2,6.1342E-3],"categories":[],"categories_nodes":[],"categories_segments":[],"categories_sizes":[],"default_left":[0,0,0,0,0,0,0,0,0,0,0,0,0,0,0],"id":78,"left_children":[1,3,5,7,9,11,13,-1,-1,-1,-1,-1,-1,-1,-1],"loss_changes":[7.728745E0,5.5958776E0,2.149004E0,5.8053093E0,2.4980202E0,2.6866817E0,2.251974E0,0E0,0E0,0E0,0E0,0E0,0E0,0E0,0E0],"parents":[2147483647,0,0,1,1,2,2,3,3,4,4,5,5,6,6],"right_children":[2,4,6,8,10,12,14,-1,-1,-1,-1,-1,-1,-1,-1],"split_conditions":[3.2858448E0,1.7E1,1.1027059E1,-2.2487387E-1,2.6622999E0,-3.0817635E-2,1.3878135E1,-3.400843E-2,-2.3123417E-3,1.8857036E-2,-2.7201364E-2,2.1308618E-2,4.382907E-3,4.1416362E-2,6.1342E-3],"split_indices":[10,8,10,1,10,0,10,0,0,0,0,0,0,0,0],"split_type":[0,0,0,0,0,0,0,0,0,0,0,0,0,0,0],"sum_hessian":[5.0209302E2,3.739392E2,1.2815378E2,3.33162E2,4.0777233E1,1.09206085E2,1.8947699E1,1.414453E1,3.1901746E2,3.8463894E1,2.3133395E0,3.3434223E1,7.5771866E1,1.1078162E1,7.869536E0],"tree_param":{"num_deleted":"0","num_feature":"11","num_nodes":"15","size_leaf_vector":"1"}},{"base_weights":[1.6216151E-2,5.92354E-1,-7.9786135E-3,3.0274126E-1,5.526207E-2,1.4723386E-1,-4.938518E-2,3.4162708E-2,-1.7207129E-3,-1.4789074E-2,1.3720854E-2,-1.4439116E-2,-3.7244623E-4],"categories":[],"categories_nodes":[],"categories_segments":[],"categories_sizes":[],"default_left":[0,0,0,0,0,0,0,0,0,0,0,0,0],"id":79,"left_children":[1,3,5,7,-1,9,11,-1,-1,-1,-1,-1,-1],"loss_changes":[7.098533E0,2.7138677E0,3.1524E0,1.8829508E0,0E0,5.902091E0,3.883764E0,0E0,0E0,0E0,0E0,0E0,0E0],"parents":[2147483647,0,0,1,1,2,2,3,3,5,5,6,6],"right_children":[2,4,6,8,-1,10,12,-1,-1,-1,-1,-1,-1],"split_conditions":[-4E0,1.4E1,-1E0,-2.7611174E-2,5.526207E-2,5E0,-4.9109228E-2,3.4162708E-2,-1.7207129E-3,-1.4789074E-2,1.3720854E-2,-1.4439116E-2,-3.7244623E-4],"split_indices":[9,8,9,1,0,8,0,0,0,0,0,0,0],"split_type":[0,0,0,0,0,0,0,0,0,0,0,0,0],"sum_hessian":[5.0789902E2,1.9523073E1,4.8837595E2,1.3493788E1,6.0292854E0,1.0231025E2,3.8606567E2,5.857031E0,7.6367564E0,2.2524693E1,7.978555E1,5.6670494E1,3.293952E2],"tree_param":{"num_deleted":"0","num_feature":"11","num_nodes":"13","size_leaf_vector":"1"}},{"base_weights":[3.3785424E-3,-1.163806E-1,1.484689E-1,-3.198625E-1,-8.5337935E-3,5.968341E-2,4.410442E-1,-2.9490286E-2,-4.3425937E-3,9.7470044E-4,-5.799005E-2,5.1087E-3,-6.332069E-2,-4.0276865E-3,2.9797902E-2],"categories":[],"categories_nodes":[],"categories_segments":[],"categories_sizes":[],"default_left":[0,0,0,0,0,0,0,0,0,0,0,0,0,0,0],"id":80,"left_children":[1,3,5,7,9,11,13,-1,-1,-1,-1,-1,-1,-1,-1],"loss_changes":[8.761131E0,6.0591917E0,5.895871E0,5.9658976E0,5.8814726E0,1.0049924E1,4.324154E0,0E0,0E0,0E0,0E0,0E0,0E0,0E0,0E0],"parents":[2147483647,0,0,1,1,2,2,3,3,4,4,5,5,6,6],"right_children":[2,4,6,8,10,12,14,-1,-1,-1,-1,-1,-1,-1,-1],"split_conditions":[1.462877E-1,-3E0,3.8540494E-2,1.5E-1,1.28899E-2,3.4642223E-2,5E0,-2.9490286E-2,-4.3425937E-3,9.7470044E-4,-5.799005E-2,5.1087E-3,-6.332069E-2,-4.0276865E-3,2.9797902E-2],"split_indices":[10,6,0,3,10,0,8,0,0,0,0,0,0,0,0],"split_type":[0,0,0,0,0,0,0,0,0,0,0,0,0,0,0],"sum_hessian":[5.022173E2,2.7523404E2,2.2698326E2,9.466231E1,1.8057172E2,1.7506245E2,5.192081E1,4.314617E1,5.151614E1,1.7723985E2,3.3318682E0,1.7052158E2,4.5408726E0,1.1999218E1,3.9921593E1],"tree_param":{"num_deleted":"0","num_feature":"11","num_nodes":"15","size_leaf_vector":"1"}},{"base_weights":[-3.42629E-2,-3.0442092E-1,-5.881161E-3,-1.5934749E-1,-7.277146E-1,8.069629E-1,-1.5837094E-2,1.0331509E-3,-2.5953284E-2,-4.5478616E-2,-9.70244E-3,-2.5949204E-2,6.401767E-2,1.2194656E-3,-8.089432E-3],