{"learner":{"attributes":{"best_iteration":"281","best_score":"0.5986625822271818"},"feature_names":[],"feature_types":[],"gradient_booster":{"model":{"gbtree_model_param":{"num_parallel_tree":"1","num_trees":"300"},"iteration_indptr":[0,1,2,3,4,5,6,7,8,9,10,11,12,13,14,15,16,17,18,19,20,21,22,23,24,25,26,27,28,29,30,31,32,33,34,35,36,37,38,39,40,41,42,43,44,45,46,47,48,49,50,51,52,53,54,55,56,57,58,59,60,61,62,63,64,65,66,67,68,69,70,71,72,73,74,75,76,77,78,79,80,81,82,83,84,85,86,87,88,89,90,91,92,93,94,95,96,97,98,99,100,101,102,103,104,105,106,107,108,109,110,111,112,113,114,115,116,117,118,119,120,121,122,123,124,125,126,127,128,129,130,131,132,133,134,135,136,137,138,139,140,141,142,143,144,145,146,147,148,149,150,151,152,153,154,155,156,157,158,159,160,161,162,163,164,165,166,167,168,169,170,171,172,173,174,175,176,177,178,179,180,181,182,183,184,185,186,187,188,189,190,191,192,193,194,195,196,197,198,199,200,201,202,203,204,205,206,207,208,209,210,211,212,213,214,215,216,217,218,219,220,221,222,223,224,225,226,227,228,229,230,231,232,233,234,235,236,237,238,239,240,241,242,243,244,245,246,247,248,249,250,251,252,253,254,255,256,257,258,259,260,261,262,263,264,265,266,267,268,269,270,271,272,273,274,275,276,277,278,279,280,281,282,283,284,285,286,287,288,289,290,291,292,293,294,295,296,297,298,299,300],"tree_info":[0,0,0,0,0,0,0,0,0,0,0,0,0,0,0,0,0,0,0,0,0,0,0,0,0,0,0,0,0,0,0,0,0,0,0,0,0,0,0,0,0,0,0,0,0,0,0,0,0,0,0,0,0,0,0,0,0,0,0,0,0,0,0,0,0,0,0,0,0,0,0,0,0,0,0,0,0,0,0,0,0,0,0,0,0,0,0,0,0,0,0,0,0,0,0,0,0,0,0,0,0,0,0,0,0,0,0,0,0,0,0,0,0,0,0,0,0,0,0,0,0,0,0,0,0,0,0,0,0,0,0,0,0,0,0,0,0,0,0,0,0,0,0,0,0,0,0,0,0,0,0,0,0,0,0,0,0,0,0,0,0,0,0,0,0,0,0,0,0,0,0,0,0,0,0,0,0,0,0,0,0,0,0,0,0,0,0,0,0,0,0,0,0,0,0,0,0,0,0,0,0,0,0,0,0,0,0,0,0,0,0,0,0,0,0,0,0,0,0,0,0,0,0,0,0,0,0,0,0,0,0,0,0,0,0,0,0,0,0,0,0,0,0,0,0,0,0,0,0,0,0,0,0,0,0,0,0,0,0,0,0,0,0,0,0,0,0,0,0,0,0,0,0,0,0,0,0,0,0,0,0,0,0,0,0,0,0,0,0,0,0,0,0,0,0,0,0,0,0,0],"trees":[{"base_weights":[-1.0389781E-3,-2.4392796E-1,5.1087993E-1,-2.3201065E-2,-9.561005E-4,-3.5974074E-3,2.3687428E-2],"categories":[],"categories_nodes":[],"categories_segments":[],"categories_sizes":[],"default_left":[0,0,0,0,0,0,0],"id":0,"left_children":[1,3,5,-1,-1,-1,-1],"loss_changes":[8.3197685E1,5.092442E1,3.794772E1,0E0,0E0,0E0,0E0],"parents":[2147483647,0,0,1,1,2,2],"right_children":[2,4,6,-1,-1,-1,-1],"split_conditions":[4E0,-4.501216E-1,-7.7945274E-1,-2.3201065E-2,-9.561005E-4,-3.5974074E-3,2.3687428E-2],"split_indices":[5,10,4,0,0,0,0],"split_type":[0,0,0,0,0,0,0],"sum_hessian":[6.6711505E2,4.5279974E2,2.1431534E2,1.2873718E2,3.2406256E2,6.584833E1,1.4846701E2],"tree_param":{"num_deleted":"0","num_feature":"11","num_nodes":"7","size_leaf_vector":"1"}},{"base_weights":[-5.3857123E-3,-5.219356E-1,3.3963716E-1,-1.876402E-2,1.3075408E-2,3.5824124E-3,2.6995018E-2],"categories":[],"categories_nodes":[],"categories_segments":[],"categories_sizes":[],"default_left":[0,0,0,0,0,0,0],"id":1,"left_children":[1,3,5,-1,-1,-1,-1],"loss_changes":[1.2113361E2,2.7262093E1,5.016604E1,0E0,0E0,0E0,0E0],"parents":[2147483647,0,0,1,1,2,2],"right_children":[2,4,6,-1,-1,-1,-1],"split_conditions":[0E0,6.475138E0,1.930571E0,-1.876402E-2,1.3075408E-2,3.5824124E-3,2.6995018E-2],"split_indices":[3,10,10,0,0,0,0],"split_type":[0,0,0,0,0,0,0],"sum_hessian":[6.776854E2,2.711786E2,4.0650687E2,2.4503807E2,2.6140505E1,2.9266727E2,1.1383959E2],"tree_param":{"num_deleted":"0","num_feature":"11","num_nodes":"7","size_leaf_vector":"1"}},{"base_weights":[-8.887827E-3,-5.082925E-1,3.3338827E-1,-1.8372927E-2,1.9101633E-2,3.0448087E-3,2.3630898E-2],"categories":[],"categories_nodes":[],"categories_segments":[],"categories_sizes":[],"default_left":[0,0,0,0,0,0,0],"id":2,"left_children":[1,3,5,-1,-1,-1,-1],"loss_changes":[1.1554178E2,3.3165474E1,4.2174603E1,0E0,0E0,0E0,0E0],"parents":[2147483647,0,0,1,1,2,2],"right_children":[2,4,6,-1,-1,-1,-1],"split_conditions":[0E0,6.9954042E0,5.452777E-1,-1.8372927E-2,1.9101633E-2,3.0448087E-3,2.3630898E-2],"split_indices":[3,10,10,0,0,0,0],"split_type":[0,0,0,0,0,0,0],"sum_hessian":[6.7395135E2,2.7387036E2,4.00081E2,2.5146489E2,2.240548E1,2.6568805E2,1.3439291E2],"tree_param":{"num_deleted":"0","num_feature":"11","num_nodes":"7","size_leaf_vector":"1"}},{"base_weights":[-7.636923E-3,-4.833493E-1,3.210912E-1,-2.205031E-2,1.157536E-3,1.47438515E-2,-9.035273E-3],"categories":[],"categories_nodes":[],"categories_segments":[],"categories_sizes":[],"default_left":[0,0,0,0,0,0,0],"id":3,"left_children":[1,3,5,-1,-1,-1,-1],"loss_changes":[1.0657997E2,3.6609627E1,4.287784E1,0E0,0E0,0E0,0E0],"parents":[2147483647,0,0,1,1,2,2],"right_children":[2,4,6,-1,-1,-1,-1],"split_conditions":[0E0,5.557965E-4,1E0,-2.205031E-2,1.157536E-3,1.47438515E-2,-9.035273E-3],"split_indices":[3,0,9,0,0,0,0],"split_type":[0,0,0,0,0,0,0],"sum_hessian":[6.795522E2,2.775013E2,4.0205087E2,1.8695088E2,9.055042E1,3.1579855E2,8.62523E1],"tree_param":{"num_deleted":"0","num_feature":"11","num_nodes":"7","size_leaf_vector":"1"}},{"base_weights":[8.479512E-3,-2.3277555E-1,5.381772E-1,-2.1922354E-2,-2.1778376E-4,2.1995379E-2,-7.134885E-3],"categories":[],"categories_nodes":[],"categories_segments":[],"categories_sizes":[],"default_left":[0,0,0,0,0,0,0],"id":4,"left_children":[1,3,5,-1,-1,-1,-1],"loss_changes":[8.703407E1,5.254657E1,3.2424286E1,0E0,0E0,0E0,0E0],"parents":[2147483647,0,0,1,1,2,2],"right_children":[2,4,6,-1,-1,-1,-1],"split_conditions":[4.3333335E0,-2.037755E-1,1E0,-2.1922354E-2,-2.1778376E-4,2.1995379E-2,-7.134885E-3],"split_indices":[5,10,9,0,0,0,0],"split_type":[0,0,0,0,0,0,0],"sum_hessian":[6.7907874E2,4.6695905E2,2.121197E2,1.4485643E2,3.221026E2,1.6956502E2,4.2554684E1],"tree_param":{"num_deleted":"0","num_feature":"11","num_nodes":"7","size_leaf_vector":"1"}},{"base_weights":[-1.1380595E-3,-3.1687275E-1,4.8530805E-1,-1.5062381E-2,1.1337873E-2,-4.634535E-3,2.0473307E-2],"categories":[],"categories_nodes":[],"categories_segments":[],"categories_sizes":[],"default_left":[0,0,0,0,0,0,0],"id":5,"left_children":[1,3,5,-1,-1,-1,-1],"loss_changes":[1.03829315E2,5.2941944E1,3.3665165E1,0E0,0E0,0E0,0E0],"parents":[2147483647,0,0,1,1,2,2],"right_children":[2,4,6,-1,-1,-1,-1],"split_conditions":[1.2867647E-2,2.7431946E0,-1.634375E0,-1.5062381E-2,1.1337873E-2,-4.634535E-3,2.0473307E-2],"split_indices":[2,10,4,0,0,0,0],"split_type":[0,0,0,0,0,0,0],"sum_hessian":[6.7402405E2,4.0894266E2,2.650814E2,3.2309558E2,8.584708E1,6.248996E1,2.0259143E2],"tree_param":{"num_deleted":"0","num_feature":"11","num_nodes":"7","size_leaf_vector":"1"}},{"base_weights":[-1.5572047E-2,-4.9483842E-1,2.9596913E-1,-2.0343648E-2,-6.612909E-4,1.2565818E-2,-1.7036127E-2],"categories":[],"categories_nodes":[],"categories_segments":[],"categories_sizes":[],"default_left":[0,0,0,0,0,0,0],"id":6,"left_children":[1,3,5,-1,-1,-1,-1],"loss_changes":[1.0053041E2,2.2969055E1,4.355896E1,0E0,0E0,0E0,0E0],"parents":[2147483647,0,0,1,1,2,2],"right_children":[2,4,6,-1,-1,-1,-1],"split_conditions":[-3.3333335E-2,9.248891E-3,2E0,-2.0343648E-2,-6.612909E-4,1.2565818E-2,-1.7036127E-2],"split_indices":[2,0,9,0,0,0,0],"split_type":[0,0,0,0,0,0,0],"sum_hessian":[6.7131354E2,2.6423434E2,4.070792E2,1.9010443E2,7.4129906E1,3.568309E2,5.0248287E1],"tree_param":{"num_deleted":"0","num_feature":"11","num_nodes":"7","size_leaf_vector":"1"}},{"base_weights":[-3.5608523E-3,7.0744115E-1,-1.9502665E-1,-4.3079886E-3,2.5696035E-2,-1.784646E-2,3.414475E-3],"categories":[],"categories_nodes":[],"categories_segments":[],"categories_sizes":[],"default_left":[0,0,0,0,0,0,0],"id":7,"left_children":[1,3,5,-1,-1,-1,-1],"loss_changes":[9.258175E1,1.8430733E1,6.623305E1,0E0,0E0,0E0,0E0],"parents":[2147483647,0,0,1,1,2,2],"right_children":[2,4,6,-1,-1,-1,-1],"split_conditions":[-1E0,-2E-1,-4.0958953E-4,-4.3079886E-3,2.5696035E-2,-1.784646E-2,3.414475E-3],"split_indices":[9,3,0,0,0,0,0],"split_type":[0,0,0,0,0,0,0],"sum_hessian":[6.780717E2,1.4328662E2,5.347851E2,2.1365715E1,1.21920906E2,2.3264966E2,3.0213544E2],"tree_param":{"num_deleted":"0","num_feature":"11","num_nodes":"7","size_leaf_vector":"1"}},{"base_weights":[1.4709881E-2,-2.8207564E-1,5.702499E-1,-1.5262745E-2,5.9160506E-3,6.139459E-4,2.3161734E-2],"categories":[],"categories_nodes":[],"categories_segments":[],"categories_sizes":[],"default_left":[0,0,0,0,0,0,0],"id":8,"left_children":[1,3,5,-1,-1,-1,-1],"loss_changes":[1.12916534E2,4.860087E1,2.6441872E1,0E0,0E0,0E0,0E0],"parents":[2147483647,0,0,1,1,2,2],"right_children":[2,4,6,-1,-1,-1,-1],"split_conditions":[8.3333336E-2,4.489534E-1,-9.331149E-3,-1.5262745E-2,5.9160506E-3,6.139459E-4,2.3161734E-2],"split_indices":[2,10,0,0,0,0,0],"split_type":[0,0,0,0,0,0,0],"sum_hessian":[6.8288074E2,4.4541788E2,2.3746283E2,3.0235318E2,1.4306471E2,6.405614E1,1.734067E2],"tree_param":{"num_deleted":"0","num_feature":"11","num_nodes":"7","size_leaf_vector":"1"}},{"base_weights":[1.1921537E-3,-2.9565167E-1,4.649275E-1,-1.2833905E-2,2.3813143E-2,1.8780494E-2,-5.613855E-3],"categories":[],"categories_nodes":[],"categories_segments":[],"categories_sizes":[],"default_left":[0,0,0,0,0,0,0],"id":9,"left_children":[1,3,5,-1,-1,-1,-1],"loss_changes":[9.1853424E1,5.8909344E1,2.747171E1,0E0,0E0,0E0,0E0],"parents":[2147483647,0,0,1,1,2,2],"right_children":[2,4,6,-1,-1,-1,-1],"split_conditions":[3.5714287E-2,5.743791E0,1E0,-1.2833905E-2,2.3813143E-2,1.8780494E-2,-5.613855E-3],"split_indices":[2,10,9,0,0,0,0],"split_type":[0,0,0,0,0,0,0],"sum_hessian":[6.652646E2,4.0584174E2,2.5942282E2,3.6248074E2,4.3360992E1,2.0806158E2,5.136123E1],"tree_param":{"num_deleted":"0","num_feature":"11","num_nodes":"7","size_leaf_vector":"1"}},{"base_weights":[-1.7906683E-2,-2.4193652E-1,4.985913E-1,-1.1946263E-2,1.0339722E-2,-4.289529E-3,2.261125E-2],"categories":[],"categories_nodes":[],"categories_segments":[],"categories_sizes":[],"default_left":[0,0,0,0,0,0,0],"id":10,"left_children":[1,3,5,-1,-1,-1,-1],"loss_changes":[7.843434E1,4.3471268E1,3.3674374E1,0E0,0E0,0E0,0E0],"parents":[2147483647,0,0,1,1,2,2],"right_children":[2,4,6,-1,-1,-1,-1],"split_conditions":[4.3333335E0,2.7431946E0,-7.236399E-3,-1.1946263E-2,1.0339722E-2,-4.289529E-3,2.261125E-2],"split_indices":[5,10,0,0,0,0,0],"split_type":[0,0,0,0,0,0,0],"sum_hessian":[6.758047E2,4.717261E2,2.0407855E2,3.7274554E2,9.898057E1,5.8187206E1,1.4589134E2],"tree_param":{"num_deleted":"0","num_feature":"11","num_nodes":"7","size_leaf_vector":"1"}},{"base_weights":[1.1895749E-2,-4.0745902E-1,2.959668E-1,-1.7701631E-2,-7.841034E-4,1.5664834E-3,1.7610839E-2],"categories":[],"categories_nodes":[],"categories_segments":[],"categories_sizes":[],"default_left":[0,0,0,0,0,0,0],"id":11,"left_children":[1,3,5,-1,-1,-1,-1],"loss_changes":[8.1797264E1,1.9292667E1,2.900943E1,0E0,0E0,0E0,0E0],"parents":[2147483647,0,0,1,1,2,2],"right_children":[2,4,6,-1,-1,-1,-1],"split_conditions":[0E0,5.557965E-4,3.6666667E0,-1.7701631E-2,-7.841034E-4,1.5664834E-3,1.7610839E-2],"split_indices":[3,0,5,0,0,0,0],"split_type":[0,0,0,0,0,0,0],"sum_hessian":[6.8462946E2,2.763049E2,4.0832452E2,1.864678E2,8.9837105E1,2.228647E2,1.8545981E2],"tree_param":{"num_deleted":"0","num_feature":"11","num_nodes":"7","size_leaf_vector":"1"}},{"base_weights":[1.8270787E-2,-4.1146383E-1,3.1067136E-1,-6.2046754E-3,-2.7969535E-2,2.561405E-2,3.8348208E-3],"categories":[],"categories_nodes":[],"categories_segments":[],"categories_sizes":[],"default_left":[0,0,0,0,0,0,0],"id":12,"left_children":[1,3,5,-1,-1,-1,-1],"loss_changes":[8.536472E1,2.912946E1,4.003556E1,0E0,0E0,0E0,0E0],"parents":[2147483647,0,0,1,1,2,2],"right_children":[2,4,6,-1,-1,-1,-1],"split_conditions":[-1E-1,1E0,-1E0,-6.2046754E-3,-2.7969535E-2,2.561405E-2,3.8348208E-3],"split_indices":[3,9,9,0,0,0,0],"split_type":[0,0,0,0,0,0,0],"sum_hessian":[6.773426E2,2.7409866E2,4.032439E2,1.9778635E2,7.631232E1,1.0063685E2,3.0260706E2],"tree_param":{"num_deleted":"0","num_feature":"11","num_nodes":"7","size_leaf_vector":"1"}},{"base_weights":[1.7502304E-2,-2.5659952E-1,4.8305845E-1,1.3643185E-2,-1.2414648E-2,-3.7544018E-3,2.2203967E-2],"categories":[],"categories_nodes":[],"categories_segments":[],"categories_sizes":[],"default_left":[0,0,0,0,0,0,0],"id":13,"left_children":[1,3,5,-1,-1,-1,-1],"loss_changes":[8.599785E1,4.7634014E1,3.9138016E1,0E0,0E0,0E0,0E0],"parents":[2147483647,0,0,1,1,2,2],"right_children":[2,4,6,-1,-1,-1,-1],"split_conditions":[7.1428575E-2,-1E0,-8.459443E-1,1.3643185E-2,-1.2414648E-2,-3.7544018E-3,2.2203967E-2],"split_indices":[2,9,4,0,0,0,0],"split_type":[0,0,0,0,0,0,0],"sum_hessian":[6.7194135E2,4.232164E2,2.4872495E2,7.6262764E1,3.4695364E2,7.4048485E1,1.7467647E2],"tree_param":{"num_deleted":"0","num_feature":"11","num_nodes":"7","size_leaf_vector":"1"}},{"base_weights":[-2.129123E-3,-5.0635046E-1,2.2779301E-1,-3.573136E-2,-7.841424E-3,2.4968324E-2,1.8640149E-3],"categories":[],"categories_nodes":[],"categories_segments":[],"categories_sizes":[],"default_left":[0,0,0,0,0,0,0],"id":14,"left_children":[1,3,5,-1,-1,-1,-1],"loss_changes":[7.890363E1,3.544078E1,4.6758636E1,0E0,0E0,0E0,0E0],"parents":[2147483647,0,0,1,1,2,2],"right_children":[2,4,6,-1,-1,-1,-1],"split_conditions":[-1.8915186E-2,-2.6016548E0,-1E0,-3.573136E-2,-7.841424E-3,2.4968324E-2,1.8640149E-3],"split_indices":[0,10,9,0,0,0,0],"split_type":[0,0,0,0,0,0,0],"sum_hessian":[6.786099E2,2.1215337E2,4.664565E2,5.488545E1,1.5726793E2,9.947E1,3.6698654E2],"tree_param":{"num_deleted":"0","num_feature":"11","num_nodes":"7","size_leaf_vector":"1"}},{"base_weights":[-1.5866665E-2,-4.004988E-1,2.501436E-1,-2.2541761E-2,-4.6996423E-3,-6.185001E-3,1.287563E-2],"categories":[],"categories_nodes":[],"categories_segments":[],"categories_sizes":[],"default_left":[0,0,0,0,0,0,0],"id":15,"left_children":[1,3,5,-1,-1,-1,-1],"loss_changes":[6.89931E1,2.346968E1,3.265904E1,0E0,0E0,0E0,0E0],"parents":[2147483647,0,0,1,1,2,2],"right_children":[2,4,6,-1,-1,-1,-1],"split_conditions":[0E0,-1.7441098E-2,-1.5830845E0,-2.2541761E-2,-4.6996423E-3,-6.185001E-3,1.287563E-2],"split_indices":[3,0,4,0,0,0,0],"split_type":[0,0,0,0,0,0,0],"sum_hessian":[6.7233417E2,2.7467206E2,3.9766208E2,1.1176296E2,1.629091E2,1.1201923E2,2.8564285E2],"tree_param":{"num_deleted":"0","num_feature":"11","num_nodes":"7","size_leaf_vector":"1"}},{"base_weights":[-9.47383E-4,6.254028E-1,-1.6709642E-1,1.0019895E-2,3.0982967E-2,-2.77758E-2,5.4512307E-4],"categories":[],"categories_nodes":[],"categories_segments":[],"categories_sizes":[],"default_left":[0,0,0,0,0,0,0],"id":16,"left_children":[1,3,5,-1,-1,-1,-1],"loss_changes":[7.0995094E1,1.6633335E1,7.581051E1,0E0,0E0,0E0,0E0],"parents":[2147483647,0,0,1,1,2,2],"right_children":[2,4,6,-1,-1,-1,-1],"split_conditions":[-1E0,3.3333333E0,-1.7743707E0,1.0019895E-2,3.0982967E-2,-2.77758E-2,5.4512307E-4],"split_indices":[9,5,10,0,0,0,0],"split_type":[0,0,0,0,0,0,0],"sum_hessian":[6.8019824E2,1.4202542E2,5.3817285E2,8.385779E1,5.8167633E1,1.0483258E2,4.3334027E2],"tree_param":{"num_deleted":"0","num_feature":"11","num_nodes":"7","size_leaf_vector":"1"}},{"base_weights":[-1.1512236E-2,6.159602E-1,-1.7206986E-1,1.1232708E-3,2.6183326E-2,-2.7760178E-2,5.852814E-4],"categories":[],"categories_nodes":[],"categories_segments":[],"categories_sizes":[],"default_left":[0,0,0,0,0,0,0],"id":17,"left_children":[1,3,5,-1,-1,-1,-1],"loss_changes":[6.846942E1,2.0541042E1,7.810469E1,0E0,0E0,0E0,0E0],"parents":[2147483647,0,0,1,1,2,2],"right_children":[2,4,6,-1,-1,-1,-1],"split_conditions":[-1E0,-4.500377E-2,-1.7743707E0,1.1232708E-3,2.6183326E-2,-2.7760178E-2,5.852814E-4],"split_indices":[9,1,10,0,0,0,0],"split_type":[0,0,0,0,0,0,0],"sum_hessian":[6.775757E2,1.3747513E2,5.401005E2,4.2617935E1,9.48572E1,1.0873518E2,4.3136536E2],"tree_param":{"num_deleted":"0","num_feature":"11","num_nodes":"7","size_leaf_vector":"1"}},{"base_weights":[2.2778945E-2,-4.6527225E-1,2.0955293E-1,-3.0369569E-2,-6.80319E-3,-3.6228802E-3,1.2614768E-2],"categories":[],"categories_nodes":[],"categories_segments":[],"categories_sizes":[],"default_left":[0,0,0,0,0,0,0],"id":18,"left_children":[1,3,5,-1,-1,-1,-1],"loss_changes":[6.140443E1,2.4097416E1,3.3990147E1,0E0,0E0,0E0,0E0],"parents":[2147483647,0,0,1,1,2,2],"right_children":[2,4,6,-1,-1,-1,-1],"split_conditions":[-1.8181819E-1,-4.501216E-1,-6.001014E-1,-3.0369569E-2,-6.80319E-3,-3.6228802E-3,1.2614768E-2],"split_indices":[2,10,4,0,0,0,0],"split_type":[0,0,0,0,0,0,0],"sum_hessian":[6.71555E2,1.8545619E2,4.8609882E2,5.5321198E1,1.30135E2,1.8961037E2,2.9648846E2],"tree_param":{"num_deleted":"0","num_feature":"11","num_nodes":"7","size_leaf_vector":"1"}},{"base_weights":[-1.8733336E-3,-2.3048955E-1,3.9324182E-1,1.0768843E-2,-1.0814111E-2,8.4307085E-4,2.1252047E-2],"categories":[],"categories_nodes":[],"categories_segments":[],"categories_sizes":[],"default_left":[0,0,0,0,0,0,0],"id":19,"left_children":[1,3,5,-1,-1,-1,-1],"loss_changes":[6.0500446E1,3.26363E1,2.8230835E1,0E0,0E0,0E0,0E0],"parents":[2147483647,0,0,1,1,2,2],"right_children":[2,4,6,-1,-1,-1,-1],"split_conditions":[7.1428575E-2,-1E0,3.6666667E0,1.0768843E-2,-1.0814111E-2,8.4307085E-4,2.1252047E-2],"split_indices":[2,9,5,0,0,0,0],"split_type":[0,0,0,0,0,0,0],"sum_hessian":[6.677699E2,4.2327618E2,2.4449371E2,7.615566E1,3.4712054E2,1.137703E2,1.3072342E2],"tree_param":{"num_deleted":"0","num_feature":"11","num_nodes":"7","size_leaf_vector":"1"}},{"base_weights":[-1.9715326E-2,-3.9804584E-1,2.362708E-1,-2.6967617E-2,-5.4599904E-3,-1.1993244E-2,1.1311701E-2],"categories":[],"categories_nodes":[],"categories_segments":[],"categories_sizes":[],"default_left":[0,0,0,0,0,0,0],"id":20,"left_children":[1,3,5,-1,-1,-1,-1],"loss_changes":[6.5211754E1,2.923949E1,3.611763E1,0E0,0E0,0E0,0E0],"parents":[2147483647,0,0,1,1,2,2],"right_children":[2,4,6,-1,-1,-1,-1],"split_conditions":[-3.3333335E-2,-4.501216E-1,-2.7405322E0,-2.6967617E-2,-5.4599904E-3,-1.1993244E-2,1.1311701E-2],"split_indices":[2,10,10,0,0,0,0],"split_type":[0,0,0,0,0,0,0],"sum_hessian":[6.713746E2,2.7071735E2,4.0065723E2,8.062894E1,1.9008841E2,7.2278076E1,3.2837915E2],"tree_param":{"num_deleted":"0","num_feature":"11","num_nodes":"7","size_leaf_vector":"1"}},{"base_weights":[-1.9100947E-2,1.1573547E-1,-7.0639646E-1,-2.5247881E-2,5.7713273E-3,-2.450138E-2,5.0175544E-3],"categories":[],"categories_nodes":[],"categories_segments":[],"categories_sizes":[],"default_left":[0,0,0,0,0,0,0],"id":21,"left_children":[1,3,5,-1,-1,-1,-1],"loss_changes":[6.1216248E1,4.0688816E1,1.0577599E1,0E0,0E0,0E0,0E0],"parents":[2147483647,0,0,1,1,2,2],"right_children":[2,4,6,-1,-1,-1,-1],"split_conditions":[2E0,-5E-1,2.6666668E-1,-2.5247881E-2,5.7713273E-3,-2.450138E-2,5.0175544E-3],"split_indices":[9,3,2,0,0,0,0],"split_type":[0,0,0,0,0,0,0],"sum_hessian":[6.586835E2,5.513492E2,1.0733431E2,4.0128307E1,5.112209E2,9.535849E1,1.19758215E1],"tree_param":{"num_deleted":"0","num_feature":"11","num_nodes":"7","size_leaf_vector":"1"}},{"base_weights":[-2.0445518E-3,5.631282E-1,-1.5157996E-1,-8.352026E-3,2.1847915E-2,-2.4389338E-2,5.053046E-4],"categories":[],"categories_nodes":[],"categories_segments":[],"categories_sizes":[],"default_left":[0,0,0,0,0,0,0],"id":22,"left_children":[1,3,5,-1,-1,-1,-1],"loss_changes":[5.5211567E1,1.9197456E1,5.7559494E1,0E0,0E0,0E0,0E0],"parents":[2147483647,0,0,1,1,2,2],"right_children":[2,4,6,-1,-1,-1,-1],"split_conditions":[-1E0,-6.315194E0,-1.6837785E0,-8.352026E-3,2.1847915E-2,-2.4389338E-2,5.053046E-4],"split_indices":[9,10,10,0,0,0,0],"split_type":[0,0,0,0,0,0,0],"sum_hessian":[6.512782E2,1.3568555E2,5.1559265E2,2.2145664E1,1.1353988E2,1.0386974E2,4.1172293E2],"tree_param":{"num_deleted":"0","num_feature":"11","num_nodes":"7","size_leaf_vector":"1"}},{"base_weights":[1.55424E-2,-3.7127537E-1,2.8014424E-1,-5.9641427E-3,-2.3612328E-2,1.5830903E-3,1.7015986E-2],"categories":[],"categories_nodes":[],"categories_segments":[],"categories_sizes":[],"default_left":[0,0,0,0,0,0,0],"id":23,"left_children":[1,3,5,-1,-1,-1,-1],"loss_changes":[6.8892395E1,1.9451534E1,2.6054935E1,0E0,0E0,0E0,0E0],"parents":[2147483647,0,0,1,1,2,2],"right_children":[2,4,6,-1,-1,-1,-1],"split_conditions":[-1E-1,1E0,4E0,-5.9641427E-3,-2.3612328E-2,1.5830903E-3,1.7015986E-2],"split_indices":[3,9,5,0,0,0,0],"split_type":[0,0,0,0,0,0,0],"sum_hessian":[6.7107214E2,2.724208E2,3.9865134E2,1.9359688E2,7.882392E1,2.2311069E2,1.7554066E2],"tree_param":{"num_deleted":"0","num_feature":"11","num_nodes":"7","size_leaf_vector":"1"}},{"base_weights":[-1.2768479E-2,6.057978E-1,-1.6989659E-1,-8.297966E-3,2.3174215E-2,-2.2252224E-2,7.092491E-4],"categories":[],"categories_nodes":[],"categories_segments":[],"categories_sizes":[],"default_left":[0,0,0,0,0,0,0],"id":24,"left_children":[1,3,5,-1,-1,-1,-1],"loss_changes":[6.533464E1,2.0240772E1,5.93363E1,0E0,0E0,0E0,0E0],"parents":[2147483647,0,0,1,1,2,2],"right_children":[2,4,6,-1,-1,-1,-1],"split_conditions":[-1E0,-3E-1,-4.501216E-1,-8.297966E-3,2.3174215E-2,-2.2252224E-2,7.092491E-4],"split_indices":[9,3,10,0,0,0,0],"split_type":[0,0,0,0,0,0,0],"sum_hessian":[6.701486E2,1.3516988E2,5.3497876E2,2.1370928E1,1.1379894E2,1.34561E2,4.0041776E2],"tree_param":{"num_deleted":"0","num_feature":"11","num_nodes":"7","size_leaf_vector":"1"}},{"base_weights":[1.3439535E-2,-3.3385742E-1,2.5731197E-1,2.4380077E-2,-1.1575428E-2,2.117765E-2,3.303606E-3],"categories":[],"categories_nodes":[],"categories_segments":[],"categories_sizes":[],"default_left":[0,0,0,0,0,0,0],"id":25,"left_children":[1,3,5,-1,-1,-1,-1],"loss_changes":[5.691884E1,1.683983E1,2.5989761E1,0E0,0E0,0E0,0E0],"parents":[2147483647,0,0,1,1,2,2],"right_children":[2,4,6,-1,-1,-1,-1],"split_conditions":[0E0,-3E0,-1E0,2.4380077E-2,-1.1575428E-2,2.117765E-2,3.303606E-3],"split_indices":[3,9,9,0,0,0,0],"split_type":[0,0,0,0,0,0,0],"sum_hessian":[6.700214E2,2.762487E2,3.9377274E2,1.13486395E1,2.6490005E2,9.6343124E1,2.974296E2],"tree_param":{"num_deleted":"0","num_feature":"11","num_nodes":"7","size_leaf_vector":"1"}},{"base_weights":[-2.590986E-2,-3.47997E-1,2.2489789E-1,-1.6093126E-2,8.008847E-3,-7.692297E-4,1.8663011E-2],"categories":[],"categories_nodes":[],"categories_segments":[],"categories_sizes":[],"default_left":[0,0,0,0,0,0,0],"id":26,"left_children":[1,3,5,-1,-1,-1,-1],"loss_changes":[5.3352764E1,3.3646023E1,3.6973362E1,0E0,0E0,0E0,0E0],"parents":[2147483647,0,0,1,1,2,2],"right_children":[2,4,6,-1,-1,-1,-1],"split_conditions":[-4.0958953E-4,2.7431946E0,3.6666667E0,-1.6093126E-2,8.008847E-3,-7.692297E-4,1.8663011E-2],"split_indices":[0,10,5,0,0,0,0],"split_type":[0,0,0,0,0,0,0],"sum_hessian":[6.5848517E2,2.8810867E2,3.703765E2,2.2062936E2,6.7479324E1,2.2769278E2,1.4268372E2],"tree_param":{"num_deleted":"0","num_feature":"11","num_nodes":"7","size_leaf_vector":"1"}},{"base_weights":[-8.166425E-3,-4.8294073E-1,1.4338215E-1,-2.9173942E-2,-7.805308E-3,2.0762559E-2,-3.7257976E-4],"categories":[],"categories_nodes":[],"categories_segments":[],"categories_sizes":[],"default_left":[0,0,0,0,0,0,0],"id":27,"left_children":[1,3,5,-1,-1,-1,-1],"loss_changes":[4.760621E1,1.7204643E1,4.288896E1,0E0,0E0,0E0,0E0],"parents":[2147483647,0,0,1,1,2,2],"right_children":[2,4,6,-1,-1,-1,-1],"split_conditions":[-2.2222222E-1,-2.037755E-1,-1E0,-2.9173942E-2,-7.805308E-3,2.0762559E-2,-3.7257976E-4],"split_indices":[2,10,9,0,0,0,0],"split_type":[0,0,0,0,0,0,0],"sum_hessian":[6.596818E2,1.5909119E2,5.0059064E2,4.870231E1,1.1038887E2,1.09944595E2,3.9064606E2],"tree_param":{"num_deleted":"0","num_feature":"11","num_nodes":"7","size_leaf_vector":"1"}},{"base_weights":[1.35824615E-2,-1.2426731E-1,5.707797E-1,-8.295379E-3,1.2672222E-2,-1.00368075E-2,2.005997E-2],"categories":[],"categories_nodes":[],"categories_segments":[],"categories_sizes":[],"default_left":[0,0,0,0,0,0,0],"id":28,"left_children":[1,3,5,-1,-1,-1,-1],"loss_changes":[5.1302788E1,4.468851E1,1.1962833E1,0E0,0E0,0E0,0E0],"parents":[2147483647,0,0,1,1,2,2],"right_children":[2,4,6,-1,-1,-1,-1],"split_conditions":[3E-1,2.838889E0,-6.4745755E0,-8.295379E-3,1.2672222E-2,-1.00368075E-2,2.005997E-2],"split_indices":[3,10,10,0,0,0,0],"split_type":[0,0,0,0,0,0,0],"sum_hessian":[6.659989E2,5.3453314E2,1.3146574E2,4.184827E2,1.1605047E2,1.2591363E1,1.1887438E2],"tree_param":{"num_deleted":"0","num_feature":"11","num_nodes":"7","size_leaf_vector":"1"}},{"base_weights":[1.629247E-2,-1.5379824E-1,4.2073423E-1,-1.5316377E-2,-4.3173027E-4,-3.745523E-3,2.018711E-2],"categories":[],"categories_nodes":[],"categories_segments":[],"categories_sizes":[],"default_left":[0,0,0,0,0,0,0],"id":29,"left_children":[1,3,5,-1,-1,-1,-1],"loss_changes":[4.5925167E1,2.3368473E1,2.727415E1,0E0,0E0,0E0,0E0],"parents":[2147483647,0,0,1,1,2,2],"right_children":[2,4,6,-1,-1,-1,-1],"split_conditions":[4.3333335E0,-2.5555557E-1,-7.0178014E-1,-1.5316377E-2,-4.3173027E-4,-3.745523E-3,2.018711E-2],"split_indices":[5,2,4,0,0,0,0],"split_type":[0,0,0,0,0,0,0],"sum_hessian":[6.6565607E2,4.690244E2,1.9663165E2,1.3103621E2,3.3798822E2,6.231468E1,1.3431697E2],"tree_param":{"num_deleted":"0","num_feature":"11","num_nodes":"7","size_leaf_vector":"1"}},{"base_weights":[-1.3566694E-2,-4.9229708E-1,1.3490723E-1,-2.1969227E-2,-5.59022E-3,-5.0051725E-3,1.0329736E-2],"categories":[],"categories_nodes":[],"categories_segments":[],"categories_sizes":[],"default_left":[0,0,0,0,0,0,0],"id":30,"left_children":[1,3,5,-1,-1,-1,-1],"loss_changes":[4.7067745E1,1.13741E1,3.2000793E1,0E0,0E0,0E0,0E0],"parents":[2147483647,0,0,1,1,2,2],"right_children":[2,4,6,-1,-1,-1,-1],"split_conditions":[-1.8433719E0,3.1460518E-1,0E0,-2.1969227E-2,-5.59022E-3,-5.0051725E-3,1.0329736E-2],"split_indices":[10,4,3,0,0,0,0],"split_type":[0,0,0,0,0,0,0],"sum_hessian":[6.6025507E2,1.5574962E2,5.0450543E2,8.650019E1,6.9249435E1,2.0677284E2,2.977326E2],"tree_param":{"num_deleted":"0","num_feature":"11","num_nodes":"7","size_leaf_vector":"1"}},{"base_weights":[1.5208395E-3,-2.2899927E-1,3.7033173E-1,-2.1976566E-2,-3.1366749E-3,5.2825836E-3,2.3960797E-2],"categories":[],"categories_nodes":[],"categories_segments":[],"categories_sizes":[],"default_left":[0,0,0,0,0,0,0],"id":31,"left_children":[1,3,5,-1,-1,-1,-1],"loss_changes":[5.6384163E1,2.5497663E1,2.1084259E1,0E0,0E0,0E0,0E0],"parents":[2147483647,0,0,1,1,2,2],"right_children":[2,4,6,-1,-1,-1,-1],"split_conditions":[8.003155E-3,-2.6575906E0,6.3333335E0,-2.1976566E-2,-3.1366749E-3,5.2825836E-3,2.3960797E-2],"split_indices":[0,10,5,0,0,0,0],"split_type":[0,0,0,0,0,0,0],"sum_hessian":[6.612026E2,4.0711813E2,2.5408443E2,7.9705986E1,3.2741217E2,1.757841E2,7.830032E1],"tree_param":{"num_deleted":"0","num_feature":"11","num_nodes":"7","size_leaf_vector":"1"}},{"base_weights":[2.815406E-2,-1.8628088E-1,3.9903754E-1,-1.5616463E-3,-2.245595E-2,1.9011318E-3,2.097936E-2],"categories":[],"categories_nodes":[],"categories_segments":[],"categories_sizes":[],"default_left":[0,0,0,0,0,0,0],"id":32,"left_children":[1,3,5,-1,-1,-1,-1],"loss_changes":[5.349042E1,3.2130676E1,2.4788734E1,0E0,0E0,0E0,0E0],"parents":[2147483647,0,0,1,1,2,2],"right_children":[2,4,6,-1,-1,-1,-1],"split_conditions":[7.1428575E-2,2E0,3.6666667E0,-1.5616463E-3,-2.245595E-2,1.9011318E-3,2.097936E-2],"split_indices":[2,9,5,0,0,0,0],"split_type":[0,0,0,0,0,0,0],"sum_hessian":[6.706439E2,4.2526486E2,2.4537906E2,3.441892E2,8.107563E1,1.1643332E2,1.2894574E2],"tree_param":{"num_deleted":"0","num_feature":"11","num_nodes":"7","size_leaf_vector":"1"}},{"base_weights":[-3.420499E-2,-2.7506447E-1,3.162197E-1,-2.4705695E-2,-4.354237E-3,-1.2043627E-3,1.6092943E-2],"categories":[],"categories_nodes":[],"categories_segments":[],"categories_sizes":[],"default_left":[0,0,0,0,0,0,0],"id":33,"left_children":[1,3,5,-1,-1,-1,-1],"loss_changes":[5.590369E1,2.784626E1,2.119823E1,0E0,0E0,0E0,0E0],"parents":[2147483647,0,0,1,1,2,2],"right_children":[2,4,6,-1,-1,-1,-1],"split_conditions":[5.1745833E-3,-2.6575906E0,-4.520379E-3,-2.4705695E-2,-4.354237E-3,-1.2043627E-3,1.6092943E-2],"split_indices":[0,10,1,0,0,0,0],"split_type":[0,0,0,0,0,0,0],"sum_hessian":[6.603111E2,3.9146097E2,2.6885013E2,7.394989E1,3.1751108E2,1.029941E2,1.6585602E2],"tree_param":{"num_deleted":"0","num_feature":"11","num_nodes":"7","size_leaf_vector":"1"}},{"base_weights":[1.74376E-2,-9.404395E-2,5.8609676E-1,-8.020309E-3,5.5543217E-3,-1.6213596E-3,2.195802E-2],"categories":[],"categories_nodes":[],"categories_segments":[],"categories_sizes":[],"default_left":[0,0,0,0,0,0,0],"id":34,"left_children":[1,3,5,-1,-1,-1,-1],"loss_changes":[4.2319824E1,2.7060547E1,1.025415E1,0E0,0E0,0E0,0E0],"parents":[2147483647,0,0,1,1,2,2],"right_children":[2,4,6,-1,-1,-1,-1],"split_conditions":[2.9166666E-1,5.625841E-3,-2.1272707E0,-8.020309E-3,5.5543217E-3,-1.6213596E-3,2.195802E-2],"split_indices":[2,0,4,0,0,0,0],"split_type":[0,0,0,0,0,0,0],"sum_hessian":[6.6568823E2,5.572734E2,1.08414825E2,3.4386768E2,2.1340573E2,2.0232988E1,8.818183E1],"tree_param":{"num_deleted":"0","num_feature":"11","num_nodes":"7","size_leaf_vector":"1"}},{"base_weights":[1.3366962E-2,5.4571116E-1,-1.2469045E-1,-1.2137283E-2,2.0867435E-2,-2.3159847E-2,1.0135348E-3],"categories":[],"categories_nodes":[],"categories_segments":[],"categories_sizes":[],"default_left":[0,0,0,0,0,0,0],"id":35,"left_children":[1,3,5,-1,-1,-1,-1],"loss_changes":[4.8743965E1,1.9732693E1,5.4059227E1,0E0,0E0,0E0,0E0],"parents":[2147483647,0,0,1,1,2,2],"right_children":[2,4,6,-1,-1,-1,-1],"split_conditions":[-1E0,-3E-1,-1.7743707E0,-1.2137283E-2,2.0867435E-2,-2.3159847E-2,1.0135348E-3],"split_indices":[9,2,10,0,0,0,0],"split_type":[0,0,0,0,0,0,0],"sum_hessian":[6.613109E2,1.3557727E2,5.2573364E2,1.8237633E1,1.17339645E2,1.0263615E2,4.230975E2],"tree_param":{"num_deleted":"0","num_feature":"11","num_nodes":"7","size_leaf_vector":"1"}},{"base_weights":[-6.766542E-3,-2.0491396E-1,3.504707E-1,-9.295476E-3,1.8883813E-2,1.5812179E-3,1.8894877E-2],"categories":[],"categories_nodes":[],"categories_segments":[],"categories_sizes":[],"default_left":[0,0,0,0,0,0,0],"id":36,"left_children":[1,3,5,-1,-1,-1,-1],"loss_changes":[4.6403755E1,3.711243E1,1.9422598E1,0E0,0E0,0E0,0E0],"parents":[2147483647,0,0,1,1,2,2],"right_children":[2,4,6,-1,-1,-1,-1],"split_conditions":[7.1428575E-2,5.618854E0,1.127738E0,-9.295476E-3,1.8883813E-2,1.5812179E-3,1.8894877E-2],"split_indices":[2,10,4,0,0,0,0],"split_type":[0,0,0,0,0,0,0],"sum_hessian":[6.5353876E2,4.2064664E2,2.3289209E2,3.742124E2,4.6434242E1,1.13307884E2,1.19584206E2],"tree_param":{"num_deleted":"0","num_feature":"11","num_nodes":"7","size_leaf_vector":"1"}},{"base_weights":[-7.304311E-3,-1.2157692E-1,5.895266E-1,-6.6614733E-3,8.127967E-3,5.6700716E-3,2.420015E-2],"categories":[],"categories_nodes":[],"categories_segments":[],"categories_sizes":[],"default_left":[0,0,0,0,0,0,0],"id":37,"left_children":[1,3,5,-1,-1,-1,-1],"loss_changes":[4.5280773E1,2.203336E1,9.126881E0,0E0,0E0,0E0,0E0],"parents":[2147483647,0,0,1,1,2,2],"right_children":[2,4,6,-1,-1,-1,-1],"split_conditions":[2.9166666E-1,3.3378608E0,3.3333333E0,-6.6614733E-3,8.127967E-3,5.6700716E-3,2.420015E-2],"split_indices":[2,4,5,0,0,0,0],"split_type":[0,0,0,0,0,0,0],"sum_hessian":[6.618762E2,5.561826E2,1.0569357E2,4.4317548E2,1.1300719E2,3.7814724E1,6.7878845E1],"tree_param":{"num_deleted":"0","num_feature":"11","num_nodes":"7","size_leaf_vector":"1"}},{"base_weights":[-5.752545E-3,9.302611E-1,-7.476069E-2,9.149207E-3,3.2175962E-2,-1.8776942E-2,1.6196293E-3],"categories":[],"categories_nodes":[],"categories_segments":[],"categories_sizes":[],"default_left":[0,0,0,0,0,0,0],"id":38,"left_children":[1,3,5,-1,-1,-1,-1],"loss_changes":[4.295896E1,3.7354317E0,4.3980396E1,0E0,0E0,0E0,0E0],"parents":[2147483647,0,0,1,1,2,2],"right_children":[2,4,6,-1,-1,-1,-1],"split_conditions":[-3E0,5E0,-2.6575906E0,9.149207E-3,3.2175962E-2,-1.8776942E-2,1.6196293E-3],"split_indices":[9,8,10,0,0,0,0],"split_type":[0,0,0,0,0,0,0],"sum_hessian":[6.6299927E2,4.466679E1,6.1833246E2,8.861906E0,3.5804886E1,1.1636092E2,5.0197156E2],"tree_param":{"num_deleted":"0","num_feature":"11","num_nodes":"7","size_leaf_vector":"1"}},{"base_weights":[1.4863349E-2,1.6537723E-1,-4.261456E-1,-7.7217934E-3,9.575514E-3,-1.4722767E-2,7.622252E-3],"categories":[],"categories_nodes":[],"categories_segments":[],"categories_sizes":[],"default_left":[0,0,0,0,0,0,0],"id":39,"left_children":[1,3,5,-1,-1,-1,-1],"loss_changes":[4.380934E1,3.207371E1,7.506176E0,0E0,0E0,0E0,0E0],"parents":[2147483647,0,0,1,1,2,2],"right_children":[2,4,6,-1,-1,-1,-1],"split_conditions":[1E0,-1.6666667E-1,3.6363637E-1,-7.7217934E-3,9.575514E-3,-1.4722767E-2,7.622252E-3],"split_indices":[9,2,2,0,0,0,0],"split_type":[0,0,0,0,0,0,0],"sum_hessian":[6.579365E2,4.9098956E2,1.6694698E2,1.3079579E2,3.6019376E2,1.5271893E2,1.4228047E1],"tree_param":{"num_deleted":"0","num_feature":"11","num_nodes":"7","size_leaf_vector":"1"}},{"base_weights":[-5.8712335E-3,-1.1624606E-1,5.403732E-1,1.20117515E-2,-7.026082E-3,-8.21084E-3,2.125044E-2],"categories":[],"categories_nodes":[],"categories_segments":[],"categories_sizes":[],"default_left":[0,0,0,0,0,0,0],"id":40,"left_children":[1,3,5,-1,-1,-1,-1],"loss_changes":[4.0008022E1,3.3732353E1,1.5446991E1,0E0,0E0,0E0,0E0],"parents":[2147483647,0,0,1,1,2,2],"right_children":[2,4,6,-1,-1,-1,-1],"split_conditions":[2.857143E-1,-1E0,-2.072326E0,1.20117515E-2,-7.026082E-3,-8.21084E-3,2.125044E-2],"split_indices":[2,9,4,0,0,0,0],"split_type":[0,0,0,0,0,0,0],"sum_hessian":[6.6153314E2,5.509872E2,1.1054595E2,1.0197092E2,4.4901627E2,1.8800829E1,9.1745125E1],"tree_param":{"num_deleted":"0","num_feature":"11","num_nodes":"7","size_leaf_vector":"1"}},{"base_weights":[8.3668595E-3,-2.1413113E-1,3.412417E-1,-2.2531645E-2,-2.6143908E-3,1.383023E-2,-9.128975E-3],"categories":[],"categories_nodes":[],"categories_segments":[],"categories_sizes":[],"default_left":[0,0,0,0,0,0,0],"id":41,"left_children":[1,3,5,-1,-1,-1,-1],"loss_changes":[4.882486E1,2.6875935E1,2.0558441E1,0E0,0E0,0E0,0E0],"parents":[2147483647,0,0,1,1,2,2],"right_children":[2,4,6,-1,-1,-1,-1],"split_conditions":[5.625841E-3,-2.6575906E0,2E0,-2.2531645E-2,-2.6143908E-3,1.383023E-2,-9.128975E-3],"split_indices":[0,10,9,0,0,0,0],"split_type":[0,0,0,0,0,0,0],"sum_hessian":[6.5723883E2,3.9414426E2,2.6309457E2,7.444737E1,3.196969E2,2.2216296E2,4.093161E1],"tree_param":{"num_deleted":"0","num_feature":"11","num_nodes":"7","size_leaf_vector":"1"}},{"base_weights":[1.779116E-2,-2.9128727E-1,2.3839773E-1,-1.1000206E-2,1.2873161E-2,-1.8254904E-2,9.501146E-3],"categories":[],"categories_nodes":[],"categories_segments":[],"categories_sizes":[],"default_left":[0,0,0,0,0,0,0],"id":42,"left_children":[1,3,5,-1,-1,-1,-1],"loss_changes":[4.5019756E1,1.5092819E1,2.5740166E1,0E0,0E0,0E0,0E0],"parents":[2147483647,0,0,1,1,2,2],"right_children":[2,4,6,-1,-1,-1,-1],"split_conditions":[0E0,6.475138E0,-6.4745755E0,-1.1000206E-2,1.2873161E-2,-1.8254904E-2,9.501146E-3],"split_indices":[3,10,10,0,0,0,0],"split_type":[0,0,0,0,0,0,0],"sum_hessian":[6.5824304E2,2.740158E2,3.8422726E2,2.4850206E2,2.5513756E1,3.1947136E1,3.5228012E2],"tree_param":{"num_deleted":"0","num_feature":"11","num_nodes":"7","size_leaf_vector":"1"}},{"base_weights":[-2.2577848E-2,1.2181689E-1,-4.6309227E-1,6.7377805E-5,2.3358194E-2,-2.2711808E-2,-3.675615E-3],"categories":[],"categories_nodes":[],"categories_segments":[],"categories_sizes":[],"default_left":[0,0,0,0,0,0,0],"id":43,"left_children":[1,3,5,-1,-1,-1,-1],"loss_changes":[4.163544E1,3.872263E1,1.6084118E1,0E0,0E0,0E0,0E0],"parents":[2147483647,0,0,1,1,2,2],"right_children":[2,4,6,-1,-1,-1,-1],"split_conditions":[1E0,3.0086102E0,1.7572161E0,6.7377805E-5,2.3358194E-2,-2.2711808E-2,-3.675615E-3],"split_indices":[9,10,10,0,0,0,0],"split_type":[0,0,0,0,0,0,0],"sum_hessian":[6.5267645E2,4.9209708E2,1.6057938E2,4.1715576E2,7.494132E1,8.55302E1,7.504918E1],"tree_param":{"num_deleted":"0","num_feature":"11","num_nodes":"7","size_leaf_vector":"1"}},{"base_weights":[-1.5610225E-2,8.8286564E-2,-5.5825794E-1,-2.172278E-2,4.6048304E-3,-1.7761508E-2,2.945384E-2],"categories":[],"categories_nodes":[],"categories_segments":[],"categories_sizes":[],"default_left":[0,0,0,0,0,0,0],"id":44,"left_children":[1,3,5,-1,-1,-1,-1],"loss_changes":[3.669013E1,2.905191E1,6.0234222E0,0E0,0E0,0E0,0E0],"parents":[2147483647,0,0,1,1,2,2],"right_children":[2,4,6,-1,-1,-1,-1],"split_conditions":[2E0,-5E-1,9.383352E0,-2.172278E-2,4.6048304E-3,-1.7761508E-2,2.945384E-2],"split_indices":[9,3,4,0,0,0,0],"split_type":[0,0,0,0,0,0,0],"sum_hessian":[6.488982E2,5.453259E2,1.03572266E2,3.9768826E1,5.055571E2,1.019508E2,1.6214738E0],"tree_param":{"num_deleted":"0","num_feature":"11","num_nodes":"7","size_leaf_vector":"1"}},{"base_weights":[-4.2272437E-2,-1.6571516E-1,5.026492E-1,-8.469132E-3,1.2674264E-2,2.0689828E-2,-2.7481203E-3],"categories":[],"categories_nodes":[],"categories_segments":[],"categories_sizes":[],"default_left":[0,0,0,0,0,0,0],"id":45,"left_children":[1,3,5,-1,-1,-1,-1],"loss_changes":[4.444875E1,3.7046753E1,1.3628214E1,0E0,0E0,0E0,0E0],"parents":[2147483647,0,0,1,1,2,2],"right_children":[2,4,6,-1,-1,-1,-1],"split_conditions":[3.4381218E0,2.857143E-1,6E0,-8.469132E-3,1.2674264E-2,2.0689828E-2,-2.7481203E-3],"split_indices":[10,2,6,0,0,0,0],"split_type":[0,0,0,0,0,0,0],"sum_hessian":[6.5854645E2,5.374844E2,1.2106204E2,4.4900424E2,8.848014E1,9.196125E1,2.9100794E1],"tree_param":{"num_deleted":"0","num_feature":"11","num_nodes":"7","size_leaf_vector":"1"}},{"base_weights":[-2.2629635E-2,-2.993513E-1,1.96855E-1,-2.1407386E-2,-4.940038E-3,5.171313E-4,1.3174926E-2],"categories":[],"categories_nodes":[],"categories_segments":[],"categories_sizes":[],"default_left":[0,0,0,0,0,0,0],"id":46,"left_children":[1,3,5,-1,-1,-1,-1],"loss_changes":[3.972307E1,1.6020218E1,1.5869434E1,0E0,0E0,0E0,0E0],"parents":[2147483647,0,0,1,1,2,2],"right_children":[2,4,6,-1,-1,-1,-1],"split_conditions":[-4.0958953E-4,-2.6575906E0,7.1428575E-2,-2.1407386E-2,-4.940038E-3,5.171313E-4,1.3174926E-2],"split_indices":[0,10,2,0,0,0,0],"split_type":[0,0,0,0,0,0,0],"sum_hessian":[6.5205646E2,2.8826016E2,3.6379633E2,6.967417E1,2.1858598E2,2.0954063E2,1.5425568E2],"tree_param":{"num_deleted":"0","num_feature":"11","num_nodes":"7","size_leaf_vector":"1"}},{"base_weights":[1.4323046E-2,-8.836233E-2,5.517699E-1,-9.1103455E-3,2.93983E-3,3.589925E-3,2.3923425E-2],"categories":[],"categories_nodes":[],"categories_segments":[],"categories_sizes":[],"default_left":[0,0,0,0,0,0,0],"id":47,"left_children":[1,3,5,-1,-1,-1,-1],"loss_changes":[3.654481E1,2.2342983E1,1.1180733E1,0E0,0E0,0E0,0E0],"parents":[2147483647,0,0,1,1,2,2],"right_children":[2,4,6,-1,-1,-1,-1],"split_conditions":[2.9166666E-1,-4.0958953E-4,3.3333333E0,-9.1103455E-3,2.93983E-3,3.589925E-3,2.3923425E-2],"split_indices":[2,0,5,0,0,0,0],"split_type":[0,0,0,0,0,0,0],"sum_hessian":[6.60305E2,5.550852E2,1.05219795E2,2.5724066E2,2.9784454E2,3.8678276E1,6.654152E1],"tree_param":{"num_deleted":"0","num_feature":"11","num_nodes":"7","size_leaf_vector":"1"}},{"base_weights":[4.8605734E-3,-8.1510484E-2,6.4491576E-1,-8.29887E-3,6.956177E-3,-4.951358E-3,2.2530118E-2],"categories":[],"categories_nodes":[],"categories_segments":[],"categories_sizes":[],"default_left":[0,0,0,0,0,0,0],"id":48,"left_children":[1,3,5,-1,-1,-1,-1],"loss_changes":[3.6303974E1,3.5448055E1,6.833168E0,0E0,0E0,0E0,0E0],"parents":[2147483647,0,0,1,1,2,2],"right_children":[2,4,6,-1,-1,-1,-1],"split_conditions":[5.618854E0,1.2867647E-2,-4.1666666E-1,-8.29887E-3,6.956177E-3,-4.951358E-3,2.2530118E-2],"split_indices":[10,2,2,0,0,0,0],"split_type":[0,0,0,0,0,0,0],"sum_hessian":[6.5475134E2,5.776712E2,7.708012E1,3.560837E2,2.2158751E2,8.862335E0,6.821778E1],"tree_param":{"num_deleted":"0","num_feature":"11","num_nodes":"7","size_leaf_vector":"1"}},{"base_weights":[-2.9782786E-3,-1.784528E-1,2.6209226E-1,-1.1061028E-2,2.9341682E-4,-1.031499E-3,1.3697502E-2],"categories":[],"categories_nodes":[],"categories_segments":[],"categories_sizes":[],"default_left":[0,0,0,0,0,0,0],"id":49,"left_children":[1,3,5,-1,-1,-1,-1],"loss_changes":[3.0801989E1,1.427217E1,1.5225491E1,0E0,0E0,0E0,0E0],"parents":[2147483647,0,0,1,1,2,2],"right_children":[2,4,6,-1,-1,-1,-1],"split_conditions":[5.625841E-3,-1.6666666E0,0E0,-1.1061028E-2,2.9341682E-4,-1.031499E-3,1.3697502E-2],"split_indices":[0,5,1,0,0,0,0],"split_type":[0,0,0,0,0,0,0],"sum_hessian":[6.602159E2,3.9744037E2,2.627755E2,1.9718553E2,2.0025485E2,1.04421776E2,1.5835371E2],"tree_param":{"num_deleted":"0","num_feature":"11","num_nodes":"7","size_leaf_vector":"1"}},{"base_weights":[-3.0859844E-3,9.790895E-2,-5.2946204E-1,-5.6536257E-4,1.9511295E-2,-2.4385544E-2,-2.5022465E-3],"categories":[],"categories_nodes":[],"categories_segments":[],"categories_sizes":[],"default_left":[0,0,0,0,0,0,0],"id":50,"left_children":[1,3,5,-1,-1,-1,-1],"loss_changes":[3.468926E1,3.532825E1,1.3210478E1,0E0,0E0,0E0,0E0],"parents":[2147483647,0,0,1,1,2,2],"right_children":[2,4,6,-1,-1,-1,-1],"split_conditions":[2E0,3.0086102E0,2.838889E0,-5.6536257E-4,1.9511295E-2,-2.4385544E-2,-2.5022465E-3],"split_indices":[9,10,10,0,0,0,0],"split_type":[0,0,0,0,0,0,0],"sum_hessian":[6.5055316E2,5.465093E2,1.0404387E2,4.519611E2,9.454819E1,6.311987E1,4.0923996E1],"tree_param":{"num_deleted":"0","num_feature":"11","num_nodes":"7","size_leaf_vector":"1"}},{"base_weights":[1.4174745E-2,1.681609E-1,-4.475624E-1,-8.247963E-4,1.4050662E-2,-1.09681105E-2,-2.935521E-2],"categories":[],"categories_nodes":[],"categories_segments":[],"categories_sizes":[],"default_left":[0,0,0,0,0,0,0],"id":51,"left_children":[1,3,5,-1,-1,-1,-1],"loss_changes":[4.6723118E1,2.8952793E1,6.794098E0,0E0,0E0,0E0,0E0],"parents":[2147483647,0,0,1,1,2,2],"right_children":[2,4,6,-1,-1,-1,-1],"split_conditions":[1E0,5.625841E-3,1.1E1,-8.247963E-4,1.4050662E-2,-1.09681105E-2,-2.935521E-2],"split_indices":[9,0,6,0,0,0,0],"split_type":[0,0,0,0,0,0,0],"sum_hessian":[6.5507764E2,4.9172617E2,1.6335149E2,2.982487E2,1.934775E2,1.4297058E2,2.0380905E1],"tree_param":{"num_deleted":"0","num_feature":"11","num_nodes":"7","size_leaf_vector":"1"}},{"base_weights":[8.322568E-3,8.507724E-1,-5.508561E-2,2.8619407E-2,-1.0207768E-2,-1.0213598E-2,3.2407066E-3],"categories":[],"categories_nodes":[],"categories_segments":[],"categories_sizes":[],"default_left":[0,0,0,0,0,0,0],"id":52,"left_children":[1,3,5,-1,-1,-1,-1],"loss_changes":[3.4651844E1,5.9061203E0,2.8122967E1,0E0,0E0,0E0,0E0],"parents":[2147483647,0,0,1,1,2,2],"right_children":[2,4,6,-1,-1,-1,-1],"split_conditions":[-3E0,1.2666667E1,-1.1897857E-2,2.8619407E-2,-1.0207768E-2,-1.0213598E-2,3.2407066E-3],"split_indices":[9,6,0,0,0,0,0],"split_type":[0,0,0,0,0,0,0],"sum_hessian":[6.4681244E2,4.4406338E1,6.024061E2,4.1048355E1,3.3579834E0,2.1869717E2,3.8370895E2],"tree_param":{"num_deleted":"0","num_feature":"11","num_nodes":"7","size_leaf_vector":"1"}},{"base_weights":[-4.7272183E-3,9.353776E-2,-5.044448E-1,2.3333576E-2,1.0197827E-3,-3.010717E-2,-1.146538E-2],"categories":[],"categories_nodes":[],"categories_segments":[],"categories_sizes":[],"default_left":[0,0,0,0,0,0,0],"id":53,"left_children":[1,3,5,-1,-1,-1,-1],"loss_changes":[3.211412E1,2.224252E1,6.1747704E0,0E0,0E0,0E0,0E0],"parents":[2147483647,0,0,1,1,2,2],"right_children":[2,4,6,-1,-1,-1,-1],"split_conditions":[2E0,-3E0,-4.890999E-2,2.3333576E-2,1.0197827E-3,-3.010717E-2,-1.146538E-2],"split_indices":[9,9,0,0,0,0,0],"split_type":[0,0,0,0,0,0,0],"sum_hessian":[6.5203143E2,5.4556396E2,1.0646745E2,4.270995E1,5.0285403E2,1.9530283E1,8.693717E1],"tree_param":{"num_deleted":"0","num_feature":"11","num_nodes":"7","size_leaf_vector":"1"}},{"base_weights":[9.200636E-3,-1.0893948E-1,4.70845E-1,-1.1965769E-3,-2.9437313E-2,2.493581E-2,-1.7540135E-4],"categories":[],"categories_nodes":[],"categories_segments":[],"categories_sizes":[],"default_left":[0,0,0,0,0,0,0],"id":54,"left_children":[1,3,5,-1,-1,-1,-1],"loss_changes":[3.538696E1,3.1084234E1,2.2714878E1,0E0,0E0,0E0,0E0],"parents":[2147483647,0,0,1,1,2,2],"right_children":[2,4,6,-1,-1,-1,-1],"split_conditions":[3.0086102E0,3E0,1E0,-1.1965769E-3,-2.9437313E-2,2.493581E-2,-1.7540135E-4],"split_indices":[10,9,9,0,0,0,0],"split_type":[0,0,0,0,0,0,0],"sum_hessian":[6.4690063E2,5.156929E2,1.3120773E2,4.788331E2,3.6859787E1,7.429884E1,5.6908886E1],"tree_param":{"num_deleted":"0","num_feature":"11","num_nodes":"7","size_leaf_vector":"1"}},{"base_weights":[8.579028E-3,-8.056564E-2,4.1654667E-1,-1.7488768E-2,-6.4424967E-4,2.1407316E-3,1.9183483E-2],"categories":[],"categories_nodes":[],"categories_segments":[],"categories_sizes":[],"default_left":[0,0,0,0,0,0,0],"id":55,"left_children":[1,3,5,-1,-1,-1,-1],"loss_changes":[2.3913197E1,1.6009426E1,9.02667E0,0E0,0E0,0E0,0E0],"parents":[2147483647,0,0,1,1,2,2],"right_children":[2,4,6,-1,-1,-1,-1],"split_conditions":[2.6666668E-1,-5E-1,3.3333333E0,-1.7488768E-2,-6.4424967E-4,2.1407316E-3,1.9183483E-2],"split_indices":[2,3,5,0,0,0,0],"split_type":[0,0,0,0,0,0,0],"sum_hessian":[6.556087E2,5.3870026E2,1.16908424E2,5.5759884E1,4.8294037E2,4.6389477E1,7.051895E1],"tree_param":{"num_deleted":"0","num_feature":"11","num_nodes":"7","size_leaf_vector":"1"}},{"base_weights":[-2.1259423E-2,-1.9735686E-1,2.4383584E-1,-1.994489E-2,-2.6134779E-3,3.3838293E-3,1.662313E-2],"categories":[],"categories_nodes":[],"categories_segments":[],"categories_sizes":[],"default_left":[0,0,0,0,0,0,0],"id":56,"left_children":[1,3,5,-1,-1,-1,-1],"loss_changes":[3.0825485E1,2.038556E1,1.0654803E1,0E0,0E0,0E0,0E0],"parents":[2147483647,0,0,1,1,2,2],"right_children":[2,4,6,-1,-1,-1,-1],"split_conditions":[5.625841E-3,-2.6575906E0,1.923077E-1,-1.994489E-2,-2.6134779E-3,3.3838293E-3,1.662313E-2],"split_indices":[0,10,2,0,0,0,0],"split_type":[0,0,0,0,0,0,0],"sum_hessian":[6.582899E2,3.956939E2,2.6259598E2,7.454744E1,3.2114645E2,1.8558003E2,7.701595E1],"tree_param":{"num_deleted":"0","num_feature":"11","num_nodes":"7","size_leaf_vector":"1"}},{"base_weights":[9.661782E-3,-1.0413272E-1,4.2069632E-1,-6.1357683E-3,1.0625747E-2,-4.1322405E-3,1.8914815E-2],"categories":[],"categories_nodes":[],"categories_segments":[],"categories_sizes":[],"default_left":[0,0,0,0,0,0,0],"id":57,"left_children":[1,3,5,-1,-1,-1,-1],"loss_changes":[3.0154064E1,2.3307358E1,1.646294E1,0E0,0E0,0E0,0E0],"parents":[2147483647,0,0,1,1,2,2],"right_children":[2,4,6,-1,-1,-1,-1],"split_conditions":[6.3333335E0,3.538624E0,-7.236399E-3,-6.1357683E-3,1.0625747E-2,-4.1322405E-3,1.8914815E-2],"split_indices":[5,10,0,0,0,0,0],"split_type":[0,0,0,0,0,0,0],"sum_hessian":[6.4274646E2,5.039696E2,1.3877682E2,4.1386826E2,9.010134E1,3.799239E1,1.0078444E2],"tree_param":{"num_deleted":"0","num_feature":"11","num_nodes":"7","size_leaf_vector":"1"}},{"base_weights":[-1.9210568E-2,-1.9551536E-1,2.6446202E-1,-8.7867025E-3,1.7412722E-2,-4.754127E-3,1.20656835E-2],"categories":[],"categories_nodes":[],"categories_segments":[],"categories_sizes":[],"default_left":[0,0,0,0,0,0,0],"id":58,"left_children":[1,3,5,-1,-1,-1,-1],"loss_changes":[3.2682144E1,3.061504E1,1.4655191E1,0E0,0E0,0E0,0E0],"parents":[2147483647,0,0,1,1,2,2],"right_children":[2,4,6,-1,-1,-1,-1],"split_conditions":[4.411765E-2,5.743791E0,-1.634375E0,-8.7867025E-3,1.7412722E-2,-4.754127E-3,1.20656835E-2],"split_indices":[2,10,4,0,0,0,0],"split_type":[0,0,0,0,0,0,0],"sum_hessian":[6.514412E2,4.019419E2,2.4949934E2,3.576784E2,4.426349E1,6.1253056E1,1.8824628E2],"tree_param":{"num_deleted":"0","num_feature":"11","num_nodes":"7","size_leaf_vector":"1"}},{"base_weights":[9.865117E-3,-7.178329E-2,4.9159557E-1,-9.007314E-3,2.8955808E-3,2.123288E-2,-1.5044372E-3],"categories":[],"categories_nodes":[],"categories_segments":[],"categories_sizes":[],"default_left":[0,0,0,0,0,0,0],"id":59,"left_children":[1,3,5,-1,-1,-1,-1],"loss_changes":[2.5880024E1,2.1666126E1,1.1202368E1,0E0,0E0,0E0,0E0],"parents":[2147483647,0,0,1,1,2,2],"right_children":[2,4,6,-1,-1,-1,-1],"split_conditions":[4.607516E0,-4.0958953E-4,5E0,-9.007314E-3,2.8955808E-3,2.123288E-2,-1.5044372E-3],"split_indices":[10,0,6,0,0,0,0],"split_type":[0,0,0,0,0,0,0],"sum_hessian":[6.560831E2,5.617271E2,9.435604E1,2.3794603E2,3.2378107E2,6.722527E1,2.7130766E1],"tree_param":{"num_deleted":"0","num_feature":"11","num_nodes":"7","size_leaf_vector":"1"}},{"base_weights":[3.1463996E-2,-1.3707295E-1,2.925012E-1,-6.3126455E-3,1.136186E-2,2.0455802E-3,1.29929185E-2],"categories":[],"categories_nodes":[],"categories_segments":[],"categories_sizes":[],"default_left":[0,0,0,0,0,0,0],"id":60,"left_children":[1,3,5,-1,-1,-1,-1],"loss_changes":[2.854958E1,1.500354E1,7.998804E0,0E0,0E0,0E0,0E0],"parents":[2147483647,0,0,1,1,2,2],"right_children":[2,4,6,-1,-1,-1,-1],"split_conditions":[5.625841E-3,2.9166666E-1,-4.520379E-3,-6.3126455E-3,1.136186E-2,2.0455802E-3,1.29929185E-2],"split_indices":[0,2,1,0,0,0,0],"split_type":[0,0,0,0,0,0,0],"sum_hessian":[6.4702515E2,3.9346317E2,2.5356198E2,3.4499576E2,4.8467407E1,9.826663E1,1.5529535E2],"tree_param":{"num_deleted":"0","num_feature":"11","num_nodes":"7","size_leaf_vector":"1"}},{"base_weights":[-5.495158E-3,-1.0169488E-1,3.574726E-1,-5.5443626E-3,1.1912842E-2,-9.43068E-3,1.43366605E-2],"categories":[],"categories_nodes":[],"categories_segments":[],"categories_sizes":[],"default_left":[0,0,0,0,0,0,0],"id":61,"left_children":[1,3,5,-1,-1,-1,-1],"loss_changes":[2.2467476E1,2.1158684E1,1.1056313E1,0E0,0E0,0E0,0E0],"parents":[2147483647,0,0,1,1,2,2],"right_children":[2,4,6,-1,-1,-1,-1],"split_conditions":[2.9297814E0,3.3333334E-1,-4.6174164E0,-5.5443626E-3,1.1912842E-2,-9.43068E-3,1.43366605E-2],"split_indices":[10,2,4,0,0,0,0],"split_type":[0,0,0,0,0,0,0],"sum_hessian":[6.414053E2,5.0759412E2,1.3381117E2,4.35631E2,7.196312E1,2.0093641E1,1.1371754E2],"tree_param":{"num_deleted":"0","num_feature":"11","num_nodes":"7","size_leaf_vector":"1"}},{"base_weights":[7.1093994E-3,-3.43872E-1,1.17630705E-1,-2.894873E-2,-7.503229E-3,-9.666807E-3,6.864895E-3],"categories":[],"categories_nodes":[],"categories_segments":[],"categories_sizes":[],"default_left":[0,0,0,0,0,0,0],"id":62,"left_children":[1,3,5,-1,-1,-1,-1],"loss_changes":[2.5035006E1,8.759703E0,2.407856E1,0E0,0E0,0E0,0E0],"parents":[2147483647,0,0,1,1,2,2],"right_children":[2,4,6,-1,-1,-1,-1],"split_conditions":[-1.7743707E0,-4.1666666E-1,-3.9732587E0,-2.894873E-2,-7.503229E-3,-9.666807E-3,6.864895E-3],"split_indices":[10,2,4,0,0,0,0],"split_type":[0,0,0,0,0,0,0],"sum_hessian":[6.433403E2,1.5356238E2,4.897779E2,1.8923527E1,1.3463885E2,9.845057E1,3.913273E2],"tree_param":{"num_deleted":"0","num_feature":"11","num_nodes":"7","size_leaf_vector":"1"}},{"base_weights":[-6.931425E-3,7.756489E-1,-6.260406E-2,-7.665735E-3,2.8402364E-2,-4.231651E-3,1.1468303E-2],"categories":[],"categories_nodes":[],"categories_segments":[],"categories_sizes":[],"default_left":[0,0,0,0,0,0,0],"id":63,"left_children":[1,3,5,-1,-1,-1,-1],"loss_changes":[2.794595E1,7.7580585E0,2.0949793E1,0E0,0E0,0E0,0E0],"parents":[2147483647,0,0,1,1,2,2],"right_children":[2,4,6,-1,-1,-1,-1],"split_conditions":[-3E0,-2.3076923E-1,2.9166666E-1,-7.665735E-3,2.8402364E-2,-4.231651E-3,1.1468303E-2],"split_indices":[9,2,2,0,0,0,0],"split_type":[0,0,0,0,0,0,0],"sum_hessian":[6.3931384E2,4.160118E1,5.9771265E2,5.8500953E0,3.5751087E1,5.0869205E2,8.90206E1],"tree_param":{"num_deleted":"0","num_feature":"11","num_nodes":"7","size_leaf_vector":"1"}},{"base_weights":[2.0917244E-3,-2.741222E-1,1.3325647E-1,-1.222608E-2,1.01644145E-2,4.3596516E-4,1.1740664E-2],"categories":[],"categories_nodes":[],"categories_segments":[],"categories_sizes":[],"default_left":[0,0,0,0,0,0,0],"id":64,"left_children":[1,3,5,-1,-1,-1,-1],"loss_changes":[2.3243845E1,1.7030237E1,1.3323627E1,0E0,0E0,0E0,0E0],"parents":[2147483647,0,0,1,1,2,2],"right_children":[2,4,6,-1,-1,-1,-1],"split_conditions":[-1.8915186E-2,3.7437067E0,4.489534E-1,-1.222608E-2,1.01644145E-2,4.3596516E-4,1.1740664E-2],"split_indices":[0,10,10,0,0,0,0],"split_type":[0,0,0,0,0,0,0],"sum_hessian":[6.395636E2,2.0557098E2,4.339926E2,1.6909935E2,3.6471645E1,2.979797E2,1.3601291E2],"tree_param":{"num_deleted":"0","num_feature":"11","num_nodes":"7","size_leaf_vector":"1"}},{"base_weights":[9.7199547E-4,9.88885E-2,-5.104323E-1,-1.9202925E-2,4.783822E-3,-1.8719915E-2,1.1785795E-2],"categories":[],"categories_nodes":[],"categories_segments":[],"categories_sizes":[],"default_left":[0,0,0,0,0,0,0],"id":65,"left_children":[1,3,5,-1,-1,-1,-1],"loss_changes":[3.2243683E1,2.4292631E1,1.0859848E1,0E0,0E0,0E0,0E0],"parents":[2147483647,0,0,1,1,2,2],"right_children":[2,4,6,-1,-1,-1,-1],"split_conditions":[2E0,-5E-1,8.055607E0,-1.9202925E-2,4.783822E-3,-1.8719915E-2,1.1785795E-2],"split_indices":[9,3,10,0,0,0,0],"split_type":[0,0,0,0,0,0,0],"sum_hessian":[6.419008E2,5.394258E2,1.0247503E2,4.014055E1,4.9928522E2,9.130505E1,1.1169981E1],"tree_param":{"num_deleted":"0","num_feature":"11","num_nodes":"7","size_leaf_vector":"1"}},{"base_weights":[9.937918E-3,-3.685382E-1,1.1053875E-1,-2.3251638E-2,-2.7762025E-3,1.4932373E-3,2.0988854E-2],"categories":[],"categories_nodes":[],"categories_segments":[],"categories_sizes":[],"default_left":[0,0,0,0,0,0,0],"id":66,"left_children":[1,3,5,-1,-1,-1,-1],"loss_changes":[2.4748936E1,1.5243252E1,1.834386E1,0E0,0E0,0E0,0E0],"parents":[2147483647,0,0,1,1,2,2],"right_children":[2,4,6,-1,-1,-1,-1],"split_conditions":[-2.516162E0,-1.8915186E-2,7.5399694E0,-2.3251638E-2,-2.7762025E-3,1.4932373E-3,2.0988854E-2],"split_indices":[10,0,10,0,0,0,0],"split_type":[0,0,0,0,0,0,0],"sum_hessian":[6.4793475E2,1.3549982E2,5.1243494E2,5.4062782E1,8.143703E1,4.655031E2,4.693181E1],"tree_param":{"num_deleted":"0","num_feature":"11","num_nodes":"7","size_leaf_vector":"1"}},{"base_weights":[2.4460766E-2,-1.2189429E-1,3.881716E-1,-5.4872595E-3,2.1367388E-2,-1.4858604E-2,1.3742926E-2],"categories":[],"categories_nodes":[],"categories_segments":[],"categories_sizes":[],"default_left":[0,0,0,0,0,0,0],"id":67,"left_children":[1,3,5,-1,-1,-1,-1],"loss_changes":[3.422662E1,2.3471401E1,1.1623293E1,0E0,0E0,0E0,0E0],"parents":[2147483647,0,0,1,1,2,2],"right_children":[2,4,6,-1,-1,-1,-1],"split_conditions":[4.3333335E0,7.5399694E0,-4.520379E-3,-5.4872595E-3,2.1367388E-2,-1.4858604E-2,1.3742926E-2],"split_indices":[5,10,1,0,0,0,0],"split_type":[0,0,0,0,0,0,0],"sum_hessian":[6.410949E2,4.576173E2,1.834776E2,4.2715332E2,3.0463997E1,1.3010991E1,1.7046661E2],"tree_param":{"num_deleted":"0","num_feature":"11","num_nodes":"7","size_leaf_vector":"1"}},{"base_weights":[1.2749466E-2,-4.619662E-1,7.747807E-2,-2.0332176E-2,-3.7148962E-4,-6.3848967E-4,1.210284E-2],"categories":[],"categories_nodes":[],"categories_segments":[],"categories_sizes":[],"default_left":[0,0,0,0,0,0,0],"id":68,"left_children":[1,3,5,-1,-1,-1,-1],"loss_changes":[1.9680983E1,7.4474316E0,1.8147469E1,0E0,0E0,0E0,0E0],"parents":[2147483647,0,0,1,1,2,2],"right_children":[2,4,6,-1,-1,-1,-1],"split_conditions":[-5.158409E0,1.127738E0,3.2463417E0,-2.0332176E-2,-3.7148962E-4,-6.3848967E-4,1.210284E-2],"split_indices":[10,4,4,0,0,0,0],"split_type":[0,0,0,0,0,0,0],"sum_hessian":[6.383319E2,7.585788E1,5.62474E2,5.091449E1,2.4943386E1,4.323953E2,1.3007874E2],"tree_param":{"num_deleted":"0","num_feature":"11","num_nodes":"7","size_leaf_vector":"1"}},{"base_weights":[-1.6340721E-2,1.0313211E-1,-3.637013E-1,-1.2611828E-2,5.585346E-3,-8.475242E-3,-2.7532259E-2],"categories":[],"categories_nodes":[],"categories_segments":[],"categories_sizes":[],"default_left":[0,0,0,0,0,0,0],"id":69,"left_children":[1,3,5,-1,-1,-1,-1],"loss_changes":[2.6810108E1,2.0981892E1,7.177601E0,0E0,0E0,0E0,0E0],"parents":[2147483647,0,0,1,1,2,2],"right_children":[2,4,6,-1,-1,-1,-1],"split_conditions":[1E0,-4.9755945E0,1.0666667E1,-1.2611828E-2,5.585346E-3,-8.475242E-3,-2.7532259E-2],"split_indices":[9,4,6,0,0,0,0],"split_type":[0,0,0,0,0,0,0],"sum_hessian":[6.441205E2,4.7979922E2,1.6432129E2,6.513336E1,4.1466586E2,1.4463527E2,1.968602E1],"tree_param":{"num_deleted":"0","num_feature":"11","num_nodes":"7","size_leaf_vector":"1"}},{"base_weights":[3.4698445E-2,1.4225589E-1,-2.91774E-1,5.0808594E-4,1.5511561E-2,-2.9042494E-2,-5.4442585E-3],"categories":[],"categories_nodes":[],"categories_segments":[],"categories_sizes":[],"default_left":[0,0,0,0,0,0,0],"id":70,"left_children":[1,3,5,-1,-1,-1,-1],"loss_changes":[2.2345268E1,2.246331E1,1.1590377E1,0E0,0E0,0E0,0E0],"parents":[2147483647,0,0,1,1,2,2],"right_children":[2,4,6,-1,-1,-1,-1],"split_conditions":[1E0,4.489534E-1,-5.3672123E0,5.0808594E-4,1.5511561E-2,-2.9042494E-2,-5.4442585E-3],"split_indices":[9,10,10,0,0,0,0],"split_type":[0,0,0,0,0,0,0],"sum_hessian":[6.3417163E2,4.7744128E2,1.5673036E2,3.585867E2,1.1885458E2,2.088636E1,1.3584401E2],"tree_param":{"num_deleted":"0","num_feature":"11","num_nodes":"7","size_leaf_vector":"1"}},{"base_weights":[-2.6170437E-3,7.9081184E-1,-5.846238E-2,-2.3290515E-2,2.807181E-2,-1.0936087E-2,1.7653364E-3],"categories":[],"categories_nodes":[],"categories_segments":[],"categories_sizes":[],"default_left":[0,0,0,0,0,0,0],"id":71,"left_children":[1,3,5,-1,-1,-1,-1],"loss_changes":[2.8701374E1,1.0399801E1,2.1747786E1,0E0,0E0,0E0,0E0],"parents":[2147483647,0,0,1,1,2,2],"right_children":[2,4,6,-1,-1,-1,-1],"split_conditions":[-3E0,-4.4444445E-1,-4.501216E-1,-2.3290515E-2,2.807181E-2,-1.0936087E-2,1.7653364E-3],"split_indices":[9,2,10,0,0,0,0],"split_type":[0,0,0,0,0,0,0],"sum_hessian":[6.457071E2,4.1594063E1,6.0411304E2,3.1518285E0,3.8442234E1,1.6679881E2,4.3731424E2],"tree_param":{"num_deleted":"0","num_feature":"11","num_nodes":"7","size_leaf_vector":"1"}},{"base_weights":[2.3394868E-2,1.1768382E-1,-4.462949E-1,-3.280292E-4,1.3832533E-2,-1.7465541E-2,1.5493221E-2],"categories":[],"categories_nodes":[],"categories_segments":[],"categories_sizes":[],"default_left":[0,0,0,0,0,0,0],"id":72,"left_children":[1,3,5,-1,-1,-1,-1],"loss_changes":[2.7954544E1,2.3214756E1,1.410817E1,0E0,0E0,0E0,0E0],"parents":[2147483647,0,0,1,1,2,2],"right_children":[2,4,6,-1,-1,-1,-1],"split_conditions":[2E0,4.489534E-1,7.694185E0,-3.280292E-4,1.3832533E-2,-1.7465541E-2,1.5493221E-2],"split_indices":[9,10,10,0,0,0,0],"split_type":[0,0,0,0,0,0,0],"sum_hessian":[6.290336E2,5.244926E2,1.0454103E2,3.822805E2,1.4221214E2,9.1956665E1,1.2584372E1],"tree_param":{"num_deleted":"0","num_feature":"11","num_nodes":"7","size_leaf_vector":"1"}},{"base_weights":[9.409105E-3,7.4957883E-1,-4.2397454E-2,-9.119916E-3,2.861007E-2,-2.0098992E-2,2.8699057E-4],"categories":[],"categories_nodes":[],"categories_segments":[],"categories_sizes":[],"default_left":[0,0,0,0,0,0,0],"id":73,"left_children":[1,3,5,-1,-1,-1,-1],"loss_changes":[2.4363472E1,9.226599E0,1.9376442E1,0E0,0E0,0E0,0E0],"parents":[2147483647,0,0,1,1,2,2],"right_children":[2,4,6,-1,-1,-1,-1],"split_conditions":[-3E0,-2.3076923E-1,-6.315194E0,-9.119916E-3,2.861007E-2,-2.0098992E-2,2.8699057E-4],"split_indices":[9,2,10,0,0,0,0],"split_type":[0,0,0,0,0,0,0],"sum_hessian":[6.3353595E2,4.0561245E1,5.929747E2,6.5027146E0,3.4058533E1,4.443527E1,5.485394E2],"tree_param":{"num_deleted":"0","num_feature":"11","num_nodes":"7","size_leaf_vector":"1"}},{"base_weights":[-1.0548904E-2,3.6460796E-1,-1.0231947E-1,5.601957E-3,2.4729013E-2,-5.612484E-3,1.0472404E-2],"categories":[],"categories_nodes":[],"categories_segments":[],"categories_sizes":[],"default_left":[0,0,0,0,0,0,0],"id":74,"left_children":[1,3,5,-1,-1,-1,-1],"loss_changes":[2.2156176E1,1.0188889E1,1.9845741E1,0E0,0E0,0E0,0E0],"parents":[2147483647,0,0,1,1,2,2],"right_children":[2,4,6,-1,-1,-1,-1],"split_conditions":[-1E0,3.052677E0,2.6666668E-1,5.601957E-3,2.4729013E-2,-5.612484E-3,1.0472404E-2],"split_indices":[9,4,2,0,0,0,0],"split_type":[0,0,0,0,0,0,0],"sum_hessian":[6.4146075E2,1.25489265E2,5.159715E2,9.1492744E1,3.399652E1,4.3489325E2,8.107824E1],"tree_param":{"num_deleted":"0","num_feature":"11","num_nodes":"7","size_leaf_vector":"1"}},{"base_weights":[2.171429E-2,1.1475961E-1,-4.596332E-1,5.786991E-4,1.5054971E-2,-2.1041788E-2,-2.4593691E-3],"categories":[],"categories_nodes":[],"categories_segments":[],"categories_sizes":[],"default_left":[0,0,0,0,0,0,0],"id":75,"left_children":[1,3,5,-1,-1,-1,-1],"loss_changes":[2.8646723E1,1.9790901E1,9.403202E0,0E0,0E0,0E0,0E0],"parents":[2147483647,0,0,1,1,2,2],"right_children":[2,4,6,-1,-1,-1,-1],"split_conditions":[2E0,2.295447E0,2.838889E0,5.786991E-4,1.5054971E-2,-2.1041788E-2,-2.4593691E-3],"split_indices":[9,10,10,0,0,0,0],"split_type":[0,0,0,0,0,0,0],"sum_hessian":[6.374417E2,5.348214E2,1.0262033E2,4.2985065E2,1.0497076E2,6.2044556E1,4.057578E1],"tree_param":{"num_deleted":"0","num_feature":"11","num_nodes":"7","size_leaf_vector":"1"}},{"base_weights":[-2.0057485E-2,-7.232725E-2,6.022084E-1,-1.6980072E-2,-6.751893E-4,-1.39043E-2,2.014232E-2],"categories":[],"categories_nodes":[],"categories_segments":[],"categories_sizes":[],"default_left":[0,0,0,0,0,0,0],"id":76,"left_children":[1,3,5,-1,-1,-1,-1],"loss_changes":[2.1104435E1,1.4700993E1,4.019459E0,0E0,0E0,0E0,0E0],"parents":[2147483647,0,0,1,1,2,2],"right_children":[2,4,6,-1,-1,-1,-1],"split_conditions":[6.36673E0,-5E-1,-1.1E1,-1.6980072E-2,-6.751893E-4,-1.39043E-2,2.014232E-2],"split_indices":[4,3,5,0,0,0,0],"split_type":[0,0,0,0,0,0,0],"sum_hessian":[6.4651514E2,5.9723193E2,4.9283173E1,5.3797024E1,5.4343494E2,2.6577392E0,4.662543E1],"tree_param":{"num_deleted":"0","num_feature":"11","num_nodes":"7","size_leaf_vector":"1"}},{"base_weights":[-1.8299599E-3,-3.6617133E-1,9.790743E-2,-3.4919355E-2,-8.912044E-3,3.695346E-4,1.5181326E-2],"categories":[],"categories_nodes":[],"categories_segments":[],"categories_sizes":[],"default_left":[0,0,0,0,0,0,0],"id":77,"left_children":[1,3,5,-1,-1,-1,-1],"loss_changes":[2.3236055E1,7.230484E0,1.7530632E1,0E0,0E0,0E0,0E0],"parents":[2147483647,0,0,1,1,2,2],"right_children":[2,4,6,-1,-1,-1,-1],"split_conditions":[-2.5555557E-1,-7.5229635E0,3.7437067E0,-3.4919355E-2,-8.912044E-3,3.695346E-4,1.5181326E-2],"split_indices":[2,10,10,0,0,0,0],"split_type":[0,0,0,0,0,0,0],"sum_hessian":[6.374477E2,1.3642282E2,5.0102484E2,9.611582E0,1.2681124E2,4.150216E2,8.600324E1],"tree_param":{"num_deleted":"0","num_feature":"11","num_nodes":"7","size_leaf_vector":"1"}},{"base_weights":[-2.0256637E-2,-4.1265526E-1,7.9275906E-2,-2.5002664E-2,-2.763302E-3,1.53763E-2,-2.0159349E-4],"categories":[],"categories_nodes":[],"categories_segments":[],"categories_sizes":[],"default_left":[0,0,0,0,0,0,0],"id":78,"left_children":[1,3,5,-1,-1,-1,-1],"loss_changes":[2.470121E1,1.7181177E1,1.88065E1,0E0,0E0,0E0,0E0],"parents":[2147483647,0,0,1,1,2,2],"right_children":[2,4,6,-1,-1,-1,-1],"split_conditions":[-2.516162E0,-1.127246E-2,-1E0,-2.5002664E-2,-2.763302E-3,1.53763E-2,-2.0159349E-4],"split_indices":[10,0,9,0,0,0,0],"split_type":[0,0,0,0,0,0,0],"sum_hessian":[6.3061163E2,1.2695527E2,5.0365634E2,5.4203926E1,7.275134E1,8.258959E1,4.2106674E2],"tree_param":{"num_deleted":"0","num_feature":"11","num_nodes":"7","size_leaf_vector":"1"}},{"base_weights":[2.9895715E-2,-3.2471442E-1,1.1230516E-1,-1.1065119E-2,1.1949231E-2,5.2951234E-3,-1.3344328E-2],"categories":[],"categories_nodes":[],"categories_segments":[],"categories_sizes":[],"default_left":[0,0,0,0,0,0,0],"id":79,"left_children":[1,3,5,-1,-1,-1,-1],"loss_changes":[1.8265614E1,3.9076862E0,1.8208569E1,0E0,0E0,0E0,0E0],"parents":[2147483647,0,0,1,1,2,2],"right_children":[2,4,6,-1,-1,-1,-1],"split_conditions":[-4.142811E0,8.003155E-3,1.1E1,-1.1065119E-2,1.1949231E-2,5.2951234E-3,-1.3344328E-2],"split_indices":[4,0,6,0,0,0,0],"split_type":[0,0,0,0,0,0,0],"sum_hessian":[6.227897E2,1.1688595E2,5.0590375E2,1.1062486E2,6.2610803E0,4.5424255E2,5.16612E1],"tree_param":{"num_deleted":"0","num_feature":"11","num_nodes":"7","size_leaf_vector":"1"}},{"base_weights":[-1.043745E-2,-1.4438185E-1,2.120563E-1,-5.946075E-3,1.2021983E-2,3.4839544E-3,2.074655E-2],"categories":[],"categories_nodes":[],"categories_segments":[],"categories_sizes":[],"default_left":[0,0,0,0,0,0,0],"id":80,"left_children":[1,3,5,-1,-1,-1,-1],"loss_changes":[1.922735E1,1.1893442E1,1.1072014E1,0E0,0E0,0E0,0E0],"parents":[2147483647,0,0,1,1,2,2],"right_children":[2,4,6,-1,-1,-1,-1],"split_conditions":[8.003155E-3,3.5714287E-1,6.36673E0,-5.946075E-3,1.2021983E-2,3.4839544E-3,2.074655E-2],"split_indices":[0,2,4,0,0,0,0],"split_type":[0,0,0,0,0,0,0],"sum_hessian":[6.43147E2,4.016806E2,2.4146635E2,3.6616458E2,3.551603E1,2.022482E2,3.921816E1],"tree_param":{"num_deleted":"0","num_feature":"11","num_nodes":"7","size_leaf_vector":"1"}},{"base_weights":[2.3657804E-4,-9.7821146E-2,3.9847365E-1,-3.3235736E-4,-2.1765351E-2,1.5103134E-2,-1.154696E-2],"categories":[],"categories_nodes":[],"categories_segments":[],"categories_sizes":[],"default_left":[0,0,0,0,0,0,0],"id":81,"left_children":[1,3,5,-1,-1,-1,-1],"loss_changes":[2.5139853E1,2.811879E1,1.0652781E1,0E0,0E0,0E0,0E0],"parents":[2147483647,0,0,1,1,2,2],"right_children":[2,4,6,-1,-1,-1,-1],"split_conditions":[3.0086102E0,2E0,4E0,-3.3235736E-4,-2.1765351E-2,1.5103134E-2,-1.154696E-2],"split_indices":[10,9,9,0,0,0,0],"split_type":[0,0,0,0,0,0,0],"sum_hessian":[6.4178455E2,5.155863E2,1.2619821E2,4.5388074E2,6.1705578E1,1.1160198E2,1.4596226E1],"tree_param":{"num_deleted":"0","num_feature":"11","num_nodes":"7","size_leaf_vector":"1"}},{"base_weights":[-7.22035E-3,3.4482303E-1,-9.114618E-2,-7.7124075E-3,1.4398587E-2,-1.3211061E-2,8.1508164E-4],"categories":[],"categories_nodes":[],"categories_segments":[],"categories_sizes":[],"default_left":[0,0,0,0,0,0,0],"id":82,"left_children":[1,3,5,-1,-1,-1,-1],"loss_changes":[1.873073E1,1.0049883E1,2.1160957E1,0E0,0E0,0E0,0E0],"parents":[2147483647,0,0,1,1,2,2],"right_children":[2,4,6,-1,-1,-1,-1],"split_conditions":[-1E0,-2E-1,-2.037755E-1,-7.7124075E-3,1.4398587E-2,-1.3211061E-2,8.1508164E-4],"split_indices":[9,3,10,0,0,0,0],"split_type":[0,0,0,0,0,0,0],"sum_hessian":[6.3189777E2,1.21044426E2,5.1085333E2,2.2027185E1,9.901724E1,1.2858812E2,3.822652E2],"tree_param":{"num_deleted":"0","num_feature":"11","num_nodes":"7","size_leaf_vector":"1"}},{"base_weights":[1.780254E-2,7.5901705E-1,-3.2488838E-2,-2.63283E-2,2.4916276E-2,-2.5235448E-2,5.279045E-4],"categories":[],"categories_nodes":[],"categories_segments":[],"categories_sizes":[],"default_left":[0,0,0,0,0,0,0],"id":83,"left_children":[1,3,5,-1,-1,-1,-1],"loss_changes":[2.3682276E1,5.454155E0,2.4126093E1,0E0,0E0,0E0,0E0],"parents":[2147483647,0,0,1,1,2,2],"right_children":[2,4,6,-1,-1,-1,-1],"split_conditions":[-3E0,-6.363636E-1,-7.36164E0,-2.63283E-2,2.4916276E-2,-2.5235448E-2,5.279045E-4],"split_indices":[9,2,10,0,0,0,0],"split_type":[0,0,0,0,0,0,0],"sum_hessian":[6.336489E2,3.9365917E1,5.94283E2,1.1764665E0,3.818945E1,3.373857E1,5.6054443E2],"tree_param":{"num_deleted":"0","num_feature":"11","num_nodes":"7","size_leaf_vector":"1"}},{"base_weights":[-1.7506462E-2,-1.4960533E-1,3.0539003E-1,1.7531887E-2,-5.753153E-3,1.3080884E-2,-5.0761392E-3],"categories":[],"categories_nodes":[],"categories_segments":[],"categories_sizes":[],"default_left":[0,0,0,0,0,0,0],"id":84,"left_children":[1,3,5,-1,-1,-1,-1],"loss_changes":[2.7094551E1,1.4061426E1,1.1509165E1,0E0,0E0,0E0,0E0],"parents":[2147483647,0,0,1,1,2,2],"right_children":[2,4,6,-1,-1,-1,-1],"split_conditions":[4.3333335E0,-3E0,1E0,1.7531887E-2,-5.753153E-3,1.3080884E-2,-5.0761392E-3],"split_indices":[5,9,9,0,0,0,0],"split_type":[0,0,0,0,0,0,0],"sum_hessian":[6.331421E2,4.4970273E2,1.8343939E2,2.3732143E1,4.2597058E2,1.4390782E2,3.9531563E1],"tree_param":{"num_deleted":"0","num_feature":"11","num_nodes":"7","size_leaf_vector":"1"}},{"base_weights":[2.4492389E-2,5.0901514E-1,-3.7989397E-2,-2.317296E-2,1.959467E-2,-5.354019E-3,4.425202E-3],"categories":[],"categories_nodes":[],"categories_segments":[],"categories_sizes":[],"default_left":[0,0,0,0,0,0,0],"id":85,"left_children":[1,3,5,-1,-1,-1,-1],"loss_changes":[1.9135426E1,1.3839697E1,1.4625204E1,0E0,0E0,0E0,0E0],"parents":[2147483647,0,0,1,1,2,2],"right_children":[2,4,6,-1,-1,-1,-1],"split_conditions":[-2E0,-4.4444445E-1,6.145634E-1,-2.317296E-2,1.959467E-2,-5.354019E-3,4.425202E-3],"split_indices":[9,2,4,0,0,0,0],"split_type":[0,0,0,0,0,0,0],"sum_hessian":[6.30439E2,7.119579E1,5.592432E2,6.757852E0,6.443794E1,3.1825998E2,2.4098326E2],"tree_param":{"num_deleted":"0","num_feature":"11","num_nodes":"7","size_leaf_vector":"1"}},{"base_weights":[-2.0588351E-2,-1.3717009E-1,2.3081493E-1,-1.5705943E-2,-2.6215392E-3,-1.6940443E-2,9.318047E-3],"categories":[],"categories_nodes":[],"categories_segments":[],"categories_sizes":[],"default_left":[0,0,0,0,0,0,0],"id":86,"left_children":[1,3,5,-1,-1,-1,-1],"loss_changes":[1.8445965E1,8.222717E0,1.28325205E1,0E0,0E0,0E0,0E0],"parents":[2147483647,0,0,1,1,2,2],"right_children":[2,4,6,-1,-1,-1,-1],"split_conditions":[3.6666667E0,-5E-1,-4.520379E-3,-1.5705943E-2,-2.6215392E-3,-1.6940443E-2,9.318047E-3],"split_indices":[5,3,1,0,0,0,0],"split_type":[0,0,0,0,0,0,0],"sum_hessian":[6.272808E2,4.2886172E2,1.984191E2,4.786766E1,3.8099405E2,1.7532957E1,1.8088614E2],"tree_param":{"num_deleted":"0","num_feature":"11","num_nodes":"7","size_leaf_vector":"1"}},{"base_weights":[-2.1181695E-2,8.717277E-2,-3.3503792E-1,3.7322793E-4,2.3638899E-2,-3.86714E-2,-8.294754E-3],"categories":[],"categories_nodes":[],"categories_segments":[],"categories_sizes":[],"default_left":[0,0,0,0,0,0,0],"id":87,"left_children":[1,3,5,-1,-1,-1,-1],"loss_changes":[2.1338049E1,2.4425465E1,8.636652E0,0E0,0E0,0E0,0E0],"parents":[2147483647,0,0,1,1,2,2],"right_children":[2,4,6,-1,-1,-1,-1],"split_conditions":[1E0,4.607516E0,-8.262159E0,3.7322793E-4,2.3638899E-2,-3.86714E-2,-8.294754E-3],"split_indices":[9,10,10,0,0,0,0],"split_type":[0,0,0,0,0,0,0],"sum_hessian":[6.255884E2,4.6557678E2,1.6001161E2,4.21632E2,4.3944798E1,8.036659E0,1.5197496E2],"tree_param":{"num_deleted":"0","num_feature":"11","num_nodes":"7","size_leaf_vector":"1"}},{"base_weights":[2.0158278E-2,5.0735444E-1,-4.1294005E-2,-3.0236749E-2,1.7083962E-2,-1.9494804E-2,7.527013E-4],"categories":[],"categories_nodes":[],"categories_segments":[],"categories_sizes":[],"default_left":[0,0,0,0,0,0,0],"id":88,"left_children":[1,3,5,-1,-1,-1,-1],"loss_changes":[1.9182974E1,7.327793E0,2.301287E1,0E0,0E0,0E0,0E0],"parents":[2147483647,0,0,1,1,2,2],"right_children":[2,4,6,-1,-1,-1,-1],"split_conditions":[-2E0,-6.666667E-1,-5.3672123E0,-3.0236749E-2,1.7083962E-2,-1.9494804E-2,7.527013E-4],"split_indices":[9,2,10,0,0,0,0],"split_type":[0,0,0,0,0,0,0],"sum_hessian":[6.390288E2,7.076276E1,5.6826605E2,2.1867971E0,6.857596E1,5.502953E1,5.132365E2],"tree_param":{"num_deleted":"0","num_feature":"11","num_nodes":"7","size_leaf_vector":"1"}},{"base_weights":[-3.1035038E-2,7.194626E-2,-3.3663654E-1,-1.1860118E-3,1.3211682E-2,-1.6548777E-2,-2.7730467E-3],"categories":[],"categories_nodes":[],"categories_segments":[],"categories_sizes":[],"default_left":[0,0,0,0,0,0,0],"id":89,"left_children":[1,3,5,-1,-1,-1,-1],"loss_changes":[2.0001514E1,1.9552643E1,8.358013E0,0E0,0E0,0E0,0E0],"parents":[2147483647,0,0,1,1,2,2],"right_children":[2,4,6,-1,-1,-1,-1],"split_conditions":[1E0,4.489534E-1,1.7572161E0,-1.1860118E-3,1.3211682E-2,-1.6548777E-2,-2.7730467E-3],"split_indices":[9,10,10,0,0,0,0],"split_type":[0,0,0,0,0,0,0],"sum_hessian":[6.337793E2,4.746102E2,1.5916911E2,3.6504968E2,1.09560524E2,8.397798E1,7.519113E1],"tree_param":{"num_deleted":"0","num_feature":"11","num_nodes":"7","size_leaf_vector":"1"}},{"base_weights":[-3.954504E-3,6.0623014E-1,-4.4384237E-2,2.2546293E-2,-2.0859154E-2,-3.1836622E-3,1.092103E-2],"categories":[],"categories_nodes":[],"categories_segments":[],"categories_sizes":[],"default_left":[0,0,0,0,0,0,0],"id":90,"left_children":[1,3,5,-1,-1,-1,-1],"loss_changes":[1.5491974E1,7.903077E0,1.4886767E1,0E0,0E0,0E0,0E0],"parents":[2147483647,0,0,1,1,2,2],"right_children":[2,4,6,-1,-1,-1,-1],"split_conditions":[-3E0,1.1333333E1,3.3333334E-1,2.2546293E-2,-2.0859154E-2,-3.1836622E-3,1.092103E-2],"split_indices":[9,6,2,0,0,0,0],"split_type":[0,0,0,0,0,0,0],"sum_hessian":[6.258876E2,3.802355E1,5.87864E2,3.4584816E1,3.4387324E0,5.1131256E2,7.655145E1],"tree_param":{"num_deleted":"0","num_feature":"11","num_nodes":"7","size_leaf_vector":"1"}},{"base_weights":[-7.5398986E-3,-7.501088E-2,3.775377E-1,-7.490994E-4,-1.978301E-2,1.8271398E-2,-3.6469046E-3],"categories":[],"categories_nodes":[],"categories_segments":[],"categories_sizes":[],"default_left":[0,0,0,0,0,0,0],"id":91,"left_children":[1,3,5,-1,-1,-1,-1],"loss_changes":[1.615717E1,1.5455975E1,1.0787338E1,0E0,0E0,0E0,0E0],"parents":[2147483647,0,0,1,1,2,2],"right_children":[2,4,6,-1,-1,-1,-1],"split_conditions":[4.2953253E0,3E0,5E0,-7.490994E-4,-1.978301E-2,1.8271398E-2,-3.6469046E-3],"split_indices":[10,9,6,0,0,0,0],"split_type":[0,0,0,0,0,0,0],"sum_hessian":[6.1978064E2,5.2806195E2,9.171864E1,4.873736E2,4.0688385E1,6.2505215E1,2.921343E1],"tree_param":{"num_deleted":"0","num_feature":"11","num_nodes":"7","size_leaf_vector":"1"}},{"base_weights":[3.6361376E-3,1.0115914E-1,-2.783114E-1,1.1430466E-4,1.269446E-2,-3.826955E-2,-6.6344556E-3],"categories":[],"categories_nodes":[],"categories_segments":[],"categories_sizes":[],"default_left":[0,0,0,0,0,0,0],"id":92,"left_children":[1,3,5,-1,-1,-1,-1],"loss_changes":[1.736909E1,1.4709309E1,8.973339E0,0E0,0E0,0E0,0E0],"parents":[2147483647,0,0,1,1,2,2],"right_children":[2,4,6,-1,-1,-1,-1],"split_conditions":[1E0,4.489534E-1,-8.729213E0,1.1430466E-4,1.269446E-2,-3.826955E-2,-6.6344556E-3],"split_indices":[9,10,10,0,0,0,0],"split_type":[0,0,0,0,0,0,0],"sum_hessian":[6.296627E2,4.6831735E2,1.6134535E2,3.6037494E2,1.0794243E2,7.590757E0,1.537546E2],"tree_param":{"num_deleted":"0","num_feature":"11","num_nodes":"7","size_leaf_vector":"1"}},{"base_weights":[-1.3579577E-2,-1.2954235E-1,2.399963E-1,-8.776642E-4,-1.0789441E-2,-1.736234E-2,9.499238E-3],"categories":[],"categories_nodes":[],"categories_segments":[],"categories_sizes":[],"default_left":[0,0,0,0,0,0,0],"id":93,"left_children":[1,3,5,-1,-1,-1,-1],"loss_changes":[1.8533283E1,9.968065E0,1.2595658E1,0E0,0E0,0E0,0E0],"parents":[2147483647,0,0,1,1,2,2],"right_children":[2,4,6,-1,-1,-1,-1],"split_conditions":[3.6666667E0,5.3333335E0,-4.520379E-3,-8.776642E-4,-1.0789441E-2,-1.736234E-2,9.499238E-3],"split_indices":[5,6,1,0,0,0,0],"split_type":[0,0,0,0,0,0,0],"sum_hessian":[6.2821155E2,4.3141177E2,1.9679976E2,3.012467E2,1.3016508E2,1.628528E1,1.8051448E2],"tree_param":{"num_deleted":"0","num_feature":"11","num_nodes":"7","size_leaf_vector":"1"}},{"base_weights":[-1.5461346E-3,-9.329128E-2,3.767826E-1,-1.0798891E-3,-2.6955629E-2,1.7281242E-2,-3.5680886E-3],"categories":[],"categories_nodes":[],"categories_segments":[],"categories_sizes":[],"default_left":[0,0,0,0,0,0,0],"id":94,"left_children":[1,3,5,-1,-1,-1,-1],"loss_changes":[2.1957598E1,2.3456434E1,1.2264168E1,0E0,0E0,0E0,0E0],"parents":[2147483647,0,0,1,1,2,2],"right_children":[2,4,6,-1,-1,-1,-1],"split_conditions":[3.0086102E0,3E0,5E0,-1.0798891E-3,-2.6955629E-2,1.7281242E-2,-3.5680886E-3],"split_indices":[10,9,6,0,0,0,0],"split_type":[0,0,0,0,0,0,0],"sum_hessian":[6.305919E2,5.0812457E2,1.2246737E2,4.7534665E2,3.2777912E1,8.723887E1,3.5228504E1],"tree_param":{"num_deleted":"0","num_feature":"11","num_nodes":"7","size_leaf_vector":"1"}},{"base_weights":[2.1108828E-2,6.710968E-1,-2.6251392E-2,-8.082846E-3,2.5628744E-2,-7.862531E-3,2.6394865E-3],"categories":[],"categories_nodes":[],"categories_segments":[],"categories_sizes":[],"default_left":[0,0,0,0,0,0,0],"id":95,"left_children":[1,3,5,-1,-1,-1,-1],"loss_changes":[1.9124296E1,7.4996147E0,1.5634558E1,0E0,0E0,0E0,0E0],"parents":[2147483647,0,0,1,1,2,2],"right_children":[2,4,6,-1,-1,-1,-1],"split_conditions":[-3E0,-2.3076923E-1,-1.8915186E-2,-8.082846E-3,2.5628744E-2,-7.862531E-3,2.6394865E-3],"split_indices":[9,2,0,0,0,0,0],"split_type":[0,0,0,0,0,0,0],"sum_hessian":[6.196778E2,4.1190815E1,5.7848694E2,6.638404E0,3.455241E1,1.8835007E2,3.901369E2],"tree_param":{"num_deleted":"0","num_feature":"11","num_nodes":"7","size_leaf_vector":"1"}},{"base_weights":[1.5987957E-2,-1.530878E-1,1.24949366E-1,-1.2578773E-2,-1.7923571E-3,-3.0664569E-3,6.326073E-3],"categories":[],"categories_nodes":[],"categories_segments":[],"categories_sizes":[],"default_left":[0,0,0,0,0,0,0],"id":96,"left_children":[1,3,5,-1,-1,-1,-1],"loss_changes":[1.1696864E1,6.1587386E0,7.555744E0,0E0,0E0,0E0,0E0],"parents":[2147483647,0,0,1,1,2,2],"right_children":[2,4,6,-1,-1,-1,-1],"split_conditions":[-3E0,-3.5714287E-1,-1.8915186E-2,-1.2578773E-2,-1.7923571E-3,-3.0664569E-3,6.326073E-3],"split_indices":[5,2,0,0,0,0,0],"split_type":[0,0,0,0,0,0,0],"sum_hessian":[6.328764E2,2.4786247E2,3.8501392E2,6.3441364E1,1.8442111E2,1.0560733E2,2.794066E2],"tree_param":{"num_deleted":"0","num_feature":"11","num_nodes":"7","size_leaf_vector":"1"}},{"base_weights":[-2.7233562E-2,-5.801369E-1,1.9223483E-2,1.8249754E-2,-1.8977877E-2,2.1867558E-2,-6.9236825E-4],"categories":[],"categories_nodes":[],"categories_segments":[],"categories_sizes":[],"default_left":[0,0,0,0,0,0,0],"id":97,"left_children":[1,3,5,-1,-1,-1,-1],"loss_changes":[1.6025349E1,3.399643E0,1.7312313E1,0E0,0E0,0E0,0E0],"parents":[2147483647,0,0,1,1,2,2],"right_children":[2,4,6,-1,-1,-1,-1],"split_conditions":[-6.773155E0,-9.632811E0,-3E0,1.8249754E-2,-1.8977877E-2,2.1867558E-2,-6.9236825E-4],"split_indices":[10,4,9,0,0,0,0],"split_type":[0,0,0,0,0,0,0],"sum_hessian":[6.2245386E2,4.735663E1,5.750972E2,1.5540202E0,4.580261E1,3.1438126E1,5.436591E2],"tree_param":{"num_deleted":"0","num_feature":"11","num_nodes":"7","size_leaf_vector":"1"}},{"base_weights":[-2.0792636E-3,-8.115292E-2,3.7875488E-1,-4.4336054E-3,1.318137E-2,2.7333219E-3,1.6805429E-2],"categories":[],"categories_nodes":[],"categories_segments":[],"categories_sizes":[],"default_left":[0,0,0,0,0,0,0],"id":98,"left_children":[1,3,5,-1,-1,-1,-1],"loss_changes":[1.8674698E1,1.7875402E1,5.5132046E0,0E0,0E0,0E0,0E0],"parents":[2147483647,0,0,1,1,2,2],"right_children":[2,4,6,-1,-1,-1,-1],"split_conditions":[2.6666668E-1,5.618854E0,3.3333333E0,-4.4336054E-3,1.318137E-2,2.7333219E-3,1.6805429E-2],"split_indices":[2,10,5,0,0,0,0],"split_type":[0,0,0,0,0,0,0],"sum_hessian":[6.181137E2,5.124907E2,1.0562298E2,4.5496606E2,5.752467E1,4.1433666E1,6.4189316E1],"tree_param":{"num_deleted":"0","num_feature":"11","num_nodes":"7","size_leaf_vector":"1"}},{"base_weights":[-7.385418E-3,-4.984583E-2,5.039364E-1,1.5019896E-2,-2.5354628E-3,4.845998E-4,2.0687003E-2],"categories":[],"categories_nodes":[],"categories_segments":[],"categories_sizes":[],"default_left":[0,0,0,0,0,0,0],"id":99,"left_children":[1,3,5,-1,-1,-1,-1],"loss_changes":[1.380521E1,1.1244839E1,4.4035196E0,0E0,0E0,0E0,0E0],"parents":[2147483647,0,0,1,1,2,2],"right_children":[2,4,6,-1,-1,-1,-1],"split_conditions":[6.36673E0,-3E0,5E0,1.5019896E-2,-2.5354628E-3,4.845998E-4,2.0687003E-2],"split_indices":[4,9,8,0,0,0,0],"split_type":[0,0,0,0,0,0,0],"sum_hessian":[6.3370734E2,5.859521E2,4.775523E1,3.3919098E1,5.52033E2,1.3463655E1,3.4291576E1],"tree_param":{"num_deleted":"0","num_feature":"11","num_nodes":"7","size_leaf_vector":"1"}},{"base_weights":[8.708775E-3,-8.206718E-1,3.6396444E-2,2.3495689E-2,-2.8942183E-2,6.774859E-5,1.41036585E-2],"categories":[],"categories_nodes":[],"categories_segments":[],"categories_sizes":[],"default_left":[0,0,0,0,0,0,0],"id":100,"left_children":[1,3,5,-1,-1,-1,-1],"loss_changes":[1.4434969E1,5.447914E0,9.001249E0,0E0,0E0,0E0,0E0],"parents":[2147483647,0,0,1,1,2,2],"right_children":[2,4,6,-1,-1,-1,-1],"split_conditions":[-6E-1,-2.3333334E1,6.36673E0,2.3495689E-2,-2.8942183E-2,6.774859E-5,1.41036585E-2],"split_indices":[3,5,4,0,0,0,0],"split_type":[0,0,0,0,0,0,0],"sum_hessian":[6.26301E2,1.9307484E1,6.069935E2,1.2257142E0,1.808177E1,5.636355E2,4.335805E1],"tree_param":{"num_deleted":"0","num_feature":"11","num_nodes":"7","size_leaf_vector":"1"}},{"base_weights":[-1.211873E-2,-2.9113647E-1,7.425265E-2,1.42313745E-2,-1.077062E-2,1.1680897E-3,1.984523E-2],"categories":[],"categories_nodes":[],"categories_segments":[],"categories_sizes":[],"default_left":[0,0,0,0,0,0,0],"id":101,"left_children":[1,3,5,-1,-1,-1,-1],"loss_changes":[1.5020933E1,7.8263884E0,9.847847E0,0E0,0E0,0E0,0E0],"parents":[2147483647,0,0,1,1,2,2],"right_children":[2,4,6,-1,-1,-1,-1],"split_conditions":[-7E0,-1.1333333E1,7.2947154E0,1.42313745E-2,-1.077062E-2,1.1680897E-3,1.984523E-2],"split_indices":[5,6,4,0,0,0,0],"split_type":[0,0,0,0,0,0,0],"sum_hessian":[6.2140027E2,1.4632738E2,4.7507288E2,1.1431275E1,1.348961E2,4.4912946E2,2.5943432E1],"tree_param":{"num_deleted":"0","num_feature":"11","num_nodes":"7","size_leaf_vector":"1"}},{"base_weights":[1.817382E-2,-2.4006906E-1,1.2295174E-1,1.4208466E-2,-9.883736E-3,1.6074225E-2,4.5523807E-4],"categories":[],"categories_nodes":[],"categories_segments":[],"categories_sizes":[],"default_left":[0,0,0,0,0,0,0],"id":102,"left_children":[1,3,5,-1,-1,-1,-1],"loss_changes":[1.697007E1,1.1705731E1,1.983891E1,0E0,0E0,0E0,0E0],"parents":[2147483647,0,0,1,1,2,2],"right_children":[2,4,6,-1,-1,-1,-1],"split_conditions":[-4.501216E-1,-3E0,0E0,1.4208466E-2,-9.883736E-3,1.6074225E-2,4.5523807E-4],"split_indices":[10,9,9,0,0,0,0],"split_type":[0,0,0,0,0,0,0],"sum_hessian":[6.2507947E2,1.8004268E2,4.450368E2,1.9561817E1,1.6048085E2,9.130572E1,3.537311E2],"tree_param":{"num_deleted":"0","num_feature":"11","num_nodes":"7","size_leaf_vector":"1"}},{"base_weights":[1.3707396E-2,8.528191E-2,-3.584515E-1,-1.2278087E-2,3.806011E-3,-1.5350185E-2,-2.8929051E-3],"categories":[],"categories_nodes":[],"categories_segments":[],"categories_sizes":[],"default_left":[0,0,0,0,0,0,0],"id":103,"left_children":[1,3,5,-1,-1,-1,-1],"loss_changes":[1.6654844E1,1.0833481E1,3.9999294E0,0E0,0E0,0E0,0E0],"parents":[2147483647,0,0,1,1,2,2],"right_children":[2,4,6,-1,-1,-1,-1],"split_conditions":[2E0,-5E-1,1.0589366E-2,-1.2278087E-2,3.806011E-3,-1.5350185E-2,-2.8929051E-3],"split_indices":[9,3,0,0,0,0,0],"split_type":[0,0,0,0,0,0,0],"sum_hessian":[6.2310254E2,5.232421E2,9.9860374E1,3.9899174E1,4.83343E2,6.241144E1,3.7448933E1],"tree_param":{"num_deleted":"0","num_feature":"11","num_nodes":"7","size_leaf_vector":"1"}},{"base_weights":[7.86213E-3,-4.5053966E-2,4.3528256E-1,1.9286508E-2,-2.510692E-3,-1.1697928E-2,1.6933657E-2],"categories":[],"categories_nodes":[],"categories_segments":[],"categories_sizes":[],"default_left":[0,0,0,0,0,0,0],"id":104,"left_children":[1,3,5,-1,-1,-1,-1],"loss_changes":[1.42094755E1,1.4916163E1,7.5975027E0,0E0,0E0,0E0,0E0],"parents":[2147483647,0,0,1,1,2,2],"right_children":[2,4,6,-1,-1,-1,-1],"split_conditions":[3.6363637E-1,-3E0,-2E0,1.9286508E-2,-2.510692E-3,-1.1697928E-2,1.6933657E-2],"split_indices":[2,9,7,0,0,0,0],"split_type":[0,0,0,0,0,0,0],"sum_hessian":[6.2638654E2,5.581769E2,6.82096E1,2.8849594E1,5.2932733E2,8.958701E0,5.92509E1],"tree_param":{"num_deleted":"0","num_feature":"11","num_nodes":"7","size_leaf_vector":"1"}},{"base_weights":[-1.0766997E-2,-8.393906E-2,2.418871E-1,-3.5305845E-3,1.2312595E-2,-1.0379343E-2,1.1929071E-2],"categories":[],"categories_nodes":[],"categories_segments":[],"categories_sizes":[],"default_left":[0,0,0,0,0,0,0],"id":105,"left_children":[1,3,5,-1,-1,-1,-1],"loss_changes":[1.1775892E1,8.286745E0,1.3235927E1,0E0,0E0,0E0,0E0],"parents":[2147483647,0,0,1,1,2,2],"right_children":[2,4,6,-1,-1,-1,-1],"split_conditions":[6E0,7.5399694E0,-1.951616E-2,-3.5305845E-3,1.2312595E-2,-1.0379343E-2,1.1929071E-2],"split_indices":[5,10,0,0,0,0,0],"split_type":[0,0,0,0,0,0,0],"sum_hessian":[6.348764E2,4.928175E2,1.4205888E2,4.6203867E2,3.0778831E1,2.9498165E1,1.1256072E2],"tree_param":{"num_deleted":"0","num_feature":"11","num_nodes":"7","size_leaf_vector":"1"}},{"base_weights":[5.7844673E-3,-3.929711E-2,5.733164E-1,-4.16119E-4,-2.1252494E-2,2.337754E-3,2.3804419E-2],"categories":[],"categories_nodes":[],"categories_segments":[],"categories_sizes":[],"default_left":[0,0,0,0,0,0,0],"id":106,"left_children":[1,3,5,-1,-1,-1,-1],"loss_changes":[1.5833105E1,9.7459345E0,4.9049816E0,0E0,0E0,0E0,0E0],"parents":[2147483647,0,0,1,1,2,2],"right_children":[2,4,6,-1,-1,-1,-1],"split_conditions":[6.36673E0,1.6666666E1,5E0,-4.16119E-4,-2.1252494E-2,2.337754E-3,2.3804419E-2],"split_indices":[4,6,8,0,0,0,0],"split_type":[0,0,0,0,0,0,0],"sum_hessian":[6.16957E2,5.7241797E2,4.4538944E1,5.5244586E2,1.9972164E1,1.4120459E1,3.0418486E1],"tree_param":{"num_deleted":"0","num_feature":"11","num_nodes":"7","size_leaf_vector":"1"}},{"base_weights":[-1.0554593E-2,-2.3333134E-1,8.267196E-2,-1.5681222E-2,-1.4786278E-3,9.0940105E-4,2.0463685E-2],"categories":[],"categories_nodes":[],"categories_segments":[],"categories_sizes":[],"default_left":[0,0,0,0,0,0,0],"id":107,"left_children":[1,3,5,-1,-1,-1,-1],"loss_changes":[1.2975765E1,9.790044E0,1.38062525E1,0E0,0E0,0E0,0E0],"parents":[2147483647,0,0,1,1,2,2],"right_children":[2,4,6,-1,-1,-1,-1],"split_conditions":[-4.501216E-1,-1.8915186E-2,6.938624E-2,-1.5681222E-2,-1.4786278E-3,9.0940105E-4,2.0463685E-2],"split_indices":[10,0,0,0,0,0,0],"split_type":[0,0,0,0,0,0,0],"sum_hessian":[6.22846E2,1.8330722E2,4.395388E2,7.054601E1,1.127612E2,4.0519766E2,3.434112E1],"tree_param":{"num_deleted":"0","num_feature":"11","num_nodes":"7","size_leaf_vector":"1"}},{"base_weights":[1.8592196E-2,-8.1576616E-2,2.3692666E-1,-1.3189686E-3,-2.1443428E-2,8.793775E-3,-2.6144778E-2],"categories":[],"categories_nodes":[],"categories_segments":[],"categories_sizes":[],"default_left":[0,0,0,0,0,0,0],"id":108,"left_children":[1,3,5,-1,-1,-1,-1],"loss_changes":[1.356275E1,1.0096048E1,1.2403243E1,0E0,0E0,0E0,0E0],"parents":[2147483647,0,0,1,1,2,2],"right_children":[2,4,6,-1,-1,-1,-1],"split_conditions":[4.489534E-1,3E0,5E0,-1.3189686E-3,-2.1443428E-2,8.793775E-3,-2.6144778E-2],"split_indices":[10,9,9,0,0,0,0],"split_type":[0,0,0,0,0,0,0],"sum_hessian":[6.1826086E2,4.242481E2,1.9401276E2,4.01471E2,2.2777092E1,1.8535063E2,8.662122E0],"tree_param":{"num_deleted":"0","num_feature":"11","num_nodes":"7","size_leaf_vector":"1"}},{"base_weights":[9.287124E-3,-2.037288E-1,1.3680314E-1,-1.1963883E-2,-2.113098E-3,7.431886E-3,-4.4267927E-3],"categories":[],"categories_nodes":[],"categories_segments":[],"categories_sizes":[],"default_left":[0,0,0,0,0,0,0],"id":109,"left_children":[1,3,5,-1,-1,-1,-1],"loss_changes":[1.6687616E1,5.9539137E0,1.215733E1,0E0,0E0,0E0,0E0],"parents":[2147483647,0,0,1,1,2,2],"right_children":[2,4,6,-1,-1,-1,-1],"split_conditions":[-1.0552806E-2,-4.142811E0,5.3333335E0,-1.1963883E-2,-2.113098E-3,7.431886E-3,-4.4267927E-3],"split_indices":[0,4,6,0,0,0,0],"split_type":[0,0,0,0,0,0,0],"sum_hessian":[6.123263E2,2.2906866E2,3.8325763E2,9.2178116E1,1.3689055E2,2.7580023E2,1.074574E2],"tree_param":{"num_deleted":"0","num_feature":"11","num_nodes":"7","size_leaf_vector":"1"}},{"base_weights":[-3.6769384E-3,-4.7578618E-1,4.1013025E-2,-1.1054465E-2,-3.378281E-2,-6.0202007E-4,8.742972E-3],"categories":[],"categories_nodes":[],"categories_segments":[],"categories_sizes":[],"default_left":[0,0,0,0,0,0,0],"id":110,"left_children":[1,3,5,-1,-1,-1,-1],"loss_changes":[1.316629E1,3.3506098E0,8.7267E0,0E0,0E0,0E0,0E0],"parents":[2147483647,0,0,1,1,2,2],"right_children":[2,4,6,-1,-1,-1,-1],"split_conditions":[-5E-1,1.7E1,4E-1,-1.1054465E-2,-3.378281E-2,-6.0202007E-4,8.742972E-3],"split_indices":[3,6,3,0,0,0,0],"split_type":[0,0,0,0,0,0,0],"sum_hessian":[6.22113E2,5.2962757E1,5.6915027E2,4.6806137E1,6.15662E0,4.5828806E2,1.10862206E2],"tree_param":{"num_deleted":"0","num_feature":"11","num_nodes":"7","size_leaf_vector":"1"}},{"base_weights":[-2.6308626E-2,-1.462682E-1,1.6544148E-1,-5.6339502E-3,1.3202031E-2,8.537228E-3,-4.404313E-3],"categories":[],"categories_nodes":[],"categories_segments":[],"categories_sizes":[],"default_left":[0,0,0,0,0,0,0],"id":111,"left_children":[1,3,5,-1,-1,-1,-1],"loss_changes":[1.4177198E1,9.3122225E0,8.867674E0,0E0,0E0,0E0,0E0],"parents":[2147483647,0,0,1,1,2,2],"right_children":[2,4,6,-1,-1,-1,-1],"split_conditions":[6.450371E-3,4.1666666E-1,1E0,-5.6339502E-3,1.3202031E-2,8.537228E-3,-4.404313E-3],"split_indices":[0,2,9,0,0,0,0],"split_type":[0,0,0,0,0,0,0],"sum_hessian":[6.1428735E2,3.780285E2,2.3625883E2,3.5365857E2,2.4369913E1,1.7107689E2,6.518195E1],"tree_param":{"num_deleted":"0","num_feature":"11","num_nodes":"7","size_leaf_vector":"1"}},{"base_weights":[-1.8367814E-2,-1.9872504E-1,8.632217E-2,-9.896919E-3,1.6312308E-3,1.2376893E-3,1.5448036E-2],"categories":[],"categories_nodes":[],"categories_segments":[],"categories_sizes":[],"default_left":[0,0,0,0,0,0,0],"id":112,"left_children":[1,3,5,-1,-1,-1,-1],"loss_changes":[1.18232975E1,7.652132E0,7.6340714E0,0E0,0E0,0E0,0E0],"parents":[2147483647,0,0,1,1,2,2],"right_children":[2,4,6,-1,-1,-1,-1],"split_conditions":[-3.6666667E0,5.3403266E-5,7.1101636E-2,-9.896919E-3,1.6312308E-3,1.2376893E-3,1.5448036E-2],"split_indices":[5,0,0,0,0,0,0],"split_type":[0,0,0,0,0,0,0],"sum_hessian":[6.2427246E2,2.2894818E2,3.953243E2,1.5059619E2,7.835199E1,3.5870502E2,3.6619293E1],"tree_param":{"num_deleted":"0","num_feature":"11","num_nodes":"7","size_leaf_vector":"1"}},{"base_weights":[-2.2781959E-2,-1.00626476E-1,2.5861117E-1,1.5900081E-2,-4.204719E-3,9.412609E-3,-2.980475E-2],"categories":[],"categories_nodes":[],"categories_segments":[],"categories_sizes":[],"default_left":[0,0,0,0,0,0,0],"id":113,"left_children":[1,3,5,-1,-1,-1,-1],"loss_changes":[1.3802227E1,1.2373112E1,9.740413E0,0E0,0E0,0E0,0E0],"parents":[2147483647,0,0,1,1,2,2],"right_children":[2,4,6,-1,-1,-1,-1],"split_conditions":[3.3378608E0,-3E0,4E0,1.5900081E-2,-4.204719E-3,9.412609E-3,-2.980475E-2],"split_indices":[4,9,9,0,0,0,0],"split_type":[0,0,0,0,0,0,0],"sum_hessian":[6.2790924E2,4.923485E2,1.3556075E2,2.8310356E1,4.6403815E2,1.305603E2,5.0004406E0],"tree_param":{"num_deleted":"0","num_feature":"11","num_nodes":"7","size_leaf_vector":"1"}},{"base_weights":[-1.6657818E-2,-2.0304382E-1,7.4788675E-2,-3.0586487E-2,-5.127761E-3,-9.428094E-4,1.01372935E-2],"categories":[],"categories_nodes":[],"categories_segments":[],"categories_sizes":[],"default_left":[0,0,0,0,0,0,0],"id":114,"left_children":[1,3,5,-1,-1,-1,-1],"loss_changes":[1.0519355E1,5.1523943E0,1.15856695E1,0E0,0E0,0E0,0E0],"parents":[2147483647,0,0,1,1,2,2],"right_children":[2,4,6,-1,-1,-1,-1],"split_conditions":[-1.8915186E-2,-2.896655E-1,5E0,-3.0586487E-2,-5.127761E-3,-9.428094E-4,1.01372935E-2],"split_indices":[0,1,5,0,0,0,0],"split_type":[0,0,0,0,0,0,0],"sum_hessian":[6.152847E2,2.0211472E2,4.1316998E2,6.4860005E0,1.9562871E2,2.949759E2,1.1819411E2],"tree_param":{"num_deleted":"0","num_feature":"11","num_nodes":"7","size_leaf_vector":"1"}},{"base_weights":[-2.2431614E-2,3.8897566E-2,-3.5447904E-1,1.8291315E-3,-1.8332101E-2,-2.2258788E-2,-7.049157E-3],"categories":[],"categories_nodes":[],"categories_segments":[],"categories_sizes":[],"default_left":[0,0,0,0,0,0,0],"id":115,"left_children":[1,3,5,-1,-1,-1,-1],"loss_changes":[1.2878318E1,7.700528E0,4.390914E0,0E0,0E0,0E0,0E0],"parents":[2147483647,0,0,1,1,2,2],"right_children":[2,4,6,-1,-1,-1,-1],"split_conditions":[2E0,1.7E1,-4.393034E-2,1.8291315E-3,-1.8332101E-2,-2.2258788E-2,-7.049157E-3],"split_indices":[9,6,0,0,0,0,0],"split_type":[0,0,0,0,0,0,0],"sum_hessian":[6.307229E2,5.3313556E2,9.758732E1,5.165009E2,1.6634644E1,2.1775536E1,7.581178E1],"tree_param":{"num_deleted":"0","num_feature":"11","num_nodes":"7","size_leaf_vector":"1"}},{"base_weights":[1.0814078E-2,-2.3658516E-1,9.774091E-2,2.9639417E-4,-1.6444309E-2,1.0063712E-3,1.1231748E-2],"categories":[],"categories_nodes":[],"categories_segments":[],"categories_sizes":[],"default_left":[0,0,0,0,0,0,0],"id":116,"left_children":[1,3,5,-1,-1,-1,-1],"loss_changes":[1.3340157E1,1.2391142E1,8.13801E0,0E0,0E0,0E0,0E0],"parents":[2147483647,0,0,1,1,2,2],"right_children":[2,4,6,-1,-1,-1,-1],"split_conditions":[-2E-1,1.1E1,3.2746527E0,2.9639417E-4,-1.6444309E-2,1.0063712E-3,1.1231748E-2],"split_indices":[2,8,10,0,0,0,0],"split_type":[0,0,0,0,0,0,0],"sum_hessian":[6.182347E2,1.6029716E2,4.579375E2,9.003855E1,7.025862E1,3.7259924E2,8.533824E1],"tree_param":{"num_deleted":"0","num_feature":"11","num_nodes":"7","size_leaf_vector":"1"}},{"base_weights":[-1.5483148E-2,-1.7145382E-1,1.122029E-1,-1.8662324E-2,-3.8878422E-3,-4.1758E-4,1.109867E-2],"categories":[],"categories_nodes":[],"categories_segments":[],"categories_sizes":[],"default_left":[0,0,0,0,0,0,0],"id":117,"left_children":[1,3,5,-1,-1,-1,-1],"loss_changes":[1.2190831E1,5.1162186E0,1.0949408E1,0E0,0E0,0E0,0E0],"parents":[2147483647,0,0,1,1,2,2],"right_children":[2,4,6,-1,-1,-1,-1],"split_conditions":[-4.0958953E-4,-1.4E1,4.3333335E0,-1.8662324E-2,-3.8878422E-3,-4.1758E-4,1.109867E-2],"split_indices":[0,5,5,0,0,0,0],"split_type":[0,0,0,0,0,0,0],"sum_hessian":[6.1016864E2,2.7450876E2,3.3565988E2,2.2154007E1,2.5235474E2,2.2601393E2,1.0964596E2],"tree_param":{"num_deleted":"0","num_feature":"11","num_nodes":"7","size_leaf_vector":"1"}},{"base_weights":[-1.0736472E-2,7.229807E-2,-2.4856132E-1,5.582798E-3,-4.5229318E-3,-2.5667192E-2,-4.8993034E-3],"categories":[],"categories_nodes":[],"categories_segments":[],"categories_sizes":[],"default_left":[0,0,0,0,0,0,0],"id":118,"left_children":[1,3,5,-1,-1,-1,-1],"loss_changes":[1.2148531E1,1.1605055E1,8.098275E0,0E0,0E0,0E0,0E0],"parents":[2147483647,0,0,1,1,2,2],"right_children":[2,4,6,-1,-1,-1,-1],"split_conditions":[1E0,3.6666667E0,-6.377574E-2,5.582798E-3,-4.5229318E-3,-2.5667192E-2,-4.8993034E-3],"split_indices":[9,6,0,0,0,0,0],"split_type":[0,0,0,0,0,0,0],"sum_hessian":[6.132778E2,4.5508475E2,1.5819301E2,3.0146054E2,1.536242E2,1.8368486E1,1.3982452E2],"tree_param":{"num_deleted":"0","num_feature":"11","num_nodes":"7","size_leaf_vector":"1"}},{"base_weights":[1.9888772E-2,5.387822E-1,-1.3663645E-2,1.9388124E-2,-1.2835791E-2,-1.7746018E-2,7.120372E-4],"categories":[],"categories_nodes":[],"categories_segments":[],"categories_sizes":[],"default_left":[0,0,0,0,0,0,0],"id":119,"left_children":[1,3,5,-1,-1,-1,-1],"loss_changes":[1.07561035E1,4.1750736E0,1.2567264E1,0E0,0E0,0E0,0E0],"parents":[2147483647,0,0,1,1,2,2],"right_children":[2,4,6,-1,-1,-1,-1],"split_conditions":[-3E0,1.1333333E1,-7.1695366E0,1.9388124E-2,-1.2835791E-2,-1.7746018E-2,7.120372E-4],"split_indices":[9,6,10,0,0,0,0],"split_type":[0,0,0,0,0,0,0],"sum_hessian":[6.1638446E2,3.6521152E1,5.7986334E2,3.316473E1,3.3564234E0,3.434552E1,5.455178E2],"tree_param":{"num_deleted":"0","num_feature":"11","num_nodes":"7","size_leaf_vector":"1"}},{"base_weights":[1.5641844E-2,-8.330461E-2,2.433856E-1,-3.999855E-3,1.2017601E-2,-2.4273062E-2,1.0364722E-2],"categories":[],"categories_nodes":[],"categories_segments":[],"categories_sizes":[],"default_left":[0,0,0,0,0,0,0],"id":120,"left_children":[1,3,5,-1,-1,-1,-1],"loss_changes":[1.3857021E1,1.0432951E1,2.029249E1,0E0,0E0,0E0,0E0],"parents":[2147483647,0,0,1,1,2,2],"right_children":[2,4,6,-1,-1,-1,-1],"split_conditions":[4E0,6.475138E0,-4.520379E-3,-3.999855E-3,1.2017601E-2,-2.4273062E-2,1.0364722E-2],"split_indices":[5,10,1,0,0,0,0],"split_type":[0,0,0,0,0,0,0],"sum_hessian":[6.1302673E2,4.2779813E2,1.8522865E2,3.883732E2,3.942491E1,1.5768158E1,1.694605E2],"tree_param":{"num_deleted":"0","num_feature":"11","num_nodes":"7","size_leaf_vector":"1"}},{"base_weights":[-2.5049003E-2,-1.5704721E-1,8.2093455E-2,-1.5262489E-2,-3.2525018E-3,-1.1828227E-3,9.837117E-3],"categories":[],"categories_nodes":[],"categories_segments":[],"categories_sizes":[],"default_left":[0,0,0,0,0,0,0],"id":121,"left_children":[1,3,5,-1,-1,-1,-1],"loss_changes":[8.722628E0,4.669904E0,1.0186639E1,0E0,0E0,0E0,0E0],"parents":[2147483647,0,0,1,1,2,2],"right_children":[2,4,6,-1,-1,-1,-1],"split_conditions":[-4.0958953E-4,-5E-1,4.3333335E0,-1.5262489E-2,-3.2525018E-3,-1.1828227E-3,9.837117E-3],"split_indices":[0,3,5,0,0,0,0],"split_type":[0,0,0,0,0,0,0],"sum_hessian":[6.148505E2,2.752635E2,3.3958707E2,3.228832E1,2.4297516E2,2.278064E2,1.11780655E2],"tree_param":{"num_deleted":"0","num_feature":"11","num_nodes":"7","size_leaf_vector":"1"}},{"base_weights":[3.755815E-3,-2.24791E-2,6.552245E-1,-6.7062734E-5,-2.4101434E-2,2.774932E-2,-4.6811868E-3],"categories":[],"categories_nodes":[],"categories_segments":[],"categories_sizes":[],"default_left":[0,0,0,0,0,0,0],"id":122,"left_children":[1,3,5,-1,-1,-1,-1],"loss_changes":[1.0497926E1,9.33444E0,5.347825E0,0E0,0E0,0E0,0E0],"parents":[2147483647,0,0,1,1,2,2],"right_children":[2,4,6,-1,-1,-1,-1],"split_conditions":[9.5287075E0,1.8E1,5E0,-6.7062734E-5,-2.4101434E-2,2.774932E-2,-4.6811868E-3],"split_indices":[10,6,6,0,0,0,0],"split_type":[0,0,0,0,0,0,0],"sum_hessian":[6.123672E2,5.8958966E2,2.2777527E1,5.756692E2,1.3920469E1,1.6988518E1,5.7890086E0],"tree_param":{"num_deleted":"0","num_feature":"11","num_nodes":"7","size_leaf_vector":"1"}},{"base_weights":[-7.817182E-3,-6.892474E-2,2.591189E-1,-7.6781743E-4,-1.8414838E-2,1.4411951E-2,7.16356E-4],"categories":[],"categories_nodes":[],"categories_segments":[],"categories_sizes":[],"default_left":[0,0,0,0,0,0,0],"id":123,"left_children":[1,3,5,-1,-1,-1,-1],"loss_changes":[1.0219856E1,1.2019355E1,6.0640244E0,0E0,0E0,0E0,0E0],"parents":[2147483647,0,0,1,1,2,2],"right_children":[2,4,6,-1,-1,-1,-1],"split_conditions":[3.2746527E0,3E0,1E0,-7.6781743E-4,-1.8414838E-2,1.4411951E-2,7.16356E-4],"split_indices":[10,9,9,0,0,0,0],"split_type":[0,0,0,0,0,0,0],"sum_hessian":[6.244361E2,5.0872055E2,1.1571556E2,4.7221674E2,3.650381E1,5.9090122E1,5.6625435E1],"tree_param":{"num_deleted":"0","num_feature":"11","num_nodes":"7","size_leaf_vector":"1"}},{"base_weights":[-2.5071215E-2,-4.8791704E-1,1.6447987E-2,2.1444319E-2,-1.6142314E-2,-1.4420177E-3,9.697602E-3],"categories":[],"categories_nodes":[],"categories_segments":[],"categories_sizes":[],"default_left":[0,0,0,0,0,0,0],"id":124,"left_children":[1,3,5,-1,-1,-1,-1],"loss_changes":[1.1875731E1,3.4535742E0,1.1252242E1,0E0,0E0,0E0,0E0],"parents":[2147483647,0,0,1,1,2,2],"right_children":[2,4,6,-1,-1,-1,-1],"split_conditions":[-6.315194E0,-9.632811E0,3E-1,2.1444319E-2,-1.6142314E-2,-1.4420177E-3,9.697602E-3],"split_indices":[10,4,3,0,0,0,0],"split_type":[0,0,0,0,0,0,0],"sum_hessian":[6.1656323E2,4.9870262E1,5.66693E2,1.4660916E0,4.840417E1,4.689295E2,9.776347E1],"tree_param":{"num_deleted":"0","num_feature":"11","num_nodes":"7","size_leaf_vector":"1"}},{"base_weights":[3.6305282E-3,2.6855633E-1,-5.857645E-2,-8.587958E-3,1.1340319E-2,-2.589257E-2,-1.0136303E-3],"categories":[],"categories_nodes":[],"categories_segments":[],"categories_sizes":[],"default_left":[0,0,0,0,0,0,0],"id":125,"left_children":[1,3,5,-1,-1,-1,-1],"loss_changes":[1.0058751E1,7.1563234E0,9.829295E0,0E0,0E0,0E0,0E0],"parents":[2147483647,0,0,1,1,2,2],"right_children":[2,4,6,-1,-1,-1,-1],"split_conditions":[-1E0,-6.315194E0,-8.729213E0,-8.587958E-3,1.1340319E-2,-2.589257E-2,-1.0136303E-3],"split_indices":[9,10,10,0,0,0,0],"split_type":[0,0,0,0,0,0,0],"sum_hessian":[6.083979E2,1.15061066E2,4.9333685E2,1.8692717E1,9.6368355E1,1.3735614E1,4.7960123E2],"tree_param":{"num_deleted":"0","num_feature":"11","num_nodes":"7","size_leaf_vector":"1"}},{"base_weights":[-1.3761637E-2,5.5721134E-1,-4.9562365E-2,-5.8344803E-3,2.4070438E-2,-2.3291858E-3,1.6267208E-2],"categories":[],"categories_nodes":[],"categories_segments":[],"categories_sizes":[],"default_left":[0,0,0,0,0,0,0],"id":126,"left_children":[1,3,5,-1,-1,-1,-1],"loss_changes":[1.243258E1,6.768943E0,9.546066E0,0E0,0E0,0E0,0E0],"parents":[2147483647,0,0,1,1,2,2],"right_children":[2,4,6,-1,-1,-1,-1],"split_conditions":[-3E0,5E0,8.815794E0,-5.8344803E-3,2.4070438E-2,-2.3291858E-3,1.6267208E-2],"split_indices":[9,8,10,0,0,0,0],"split_type":[0,0,0,0,0,0,0],"sum_hessian":[6.058594E2,3.4887463E1,5.709719E2,8.6302E0,2.6257263E1,5.4593945E2,2.5032446E1],"tree_param":{"num_deleted":"0","num_feature":"11","num_nodes":"7","size_leaf_vector":"1"}},{"base_weights":[-2.3302576E-3,-8.464801E-2,2.0785055E-1,-1.8482482E-2,-1.7288455E-3,-8.826653E-3,1.036601E-2],"categories":[],"categories_nodes":[],"categories_segments":[],"categories_sizes":[],"default_left":[0,0,0,0,0,0,0],"id":127,"left_children":[1,3,5,-1,-1,-1,-1],"loss_changes":[1.063526E1,6.3067493E0,1.2060429E1,0E0,0E0,0E0,0E0],"parents":[2147483647,0,0,1,1,2,2],"right_children":[2,4,6,-1,-1,-1,-1],"split_conditions":[4.3333335E0,-8.146187E0,-2.2822954E-2,-1.8482482E-2,-1.7288455E-3,-8.826653E-3,1.036601E-2],"split_indices":[5,4,0,0,0,0,0],"split_type":[0,0,0,0,0,0,0],"sum_hessian":[6.126807E2,4.4068338E2,1.7199731E2,2.0266872E1,4.204165E2,3.677122E1,1.3522609E2],"tree_param":{"num_deleted":"0","num_feature":"11","num_nodes":"7","size_leaf_vector":"1"}},{"base_weights":[3.6232998E-3,-4.7485083E-1,4.4725202E-2,1.5791672E-3,-2.0277312E-2,2.0364428E-2,3.438186E-4],"categories":[],"categories_nodes":[],"categories_segments":[],