{"learner":{"attributes":{"best_iteration":"31","best_score":"0.6010808049938593"},"feature_names":[],"feature_types":[],"gradient_booster":{"model":{"gbtree_model_param":{"num_parallel_tree":"1","num_trees":"82"},"iteration_indptr":[0,1,2,3,4,5,6,7,8,9,10,11,12,13,14,15,16,17,18,19,20,21,22,23,24,25,26,27,28,29,30,31,32,33,34,35,36,37,38,39,40,41,42,43,44,45,46,47,48,49,50,51,52,53,54,55,56,57,58,59,60,61,62,63,64,65,66,67,68,69,70,71,72,73,74,75,76,77,78,79,80,81,82],"tree_info":[0,0,0,0,0,0,0,0,0,0,0,0,0,0,0,0,0,0,0,0,0,0,0,0,0,0,0,0,0,0,0,0,0,0,0,0,0,0,0,0,0,0,0,0,0,0,0,0,0,0,0,0,0,0,0,0,0,0,0,0,0,0,0,0,0,0,0,0,0,0,0,0,0,0,0,0,0,0,0,0,0,0],"trees":[{"base_weights":[-1.0389781E-3,-8.1612414E-1,5.3308004E-1,-1.0935063E0,-3.525333E-1,1.9270724E-1,1.0119182E0,-1.4548282E-1,-9.12214E-2,-1.1260023E-1,-4.8142513E-3,1.0956653E-3,6.1634827E-2,7.9246126E-2,1.22189045E-1],"categories":[],"categories_nodes":[],"categories_segments":[],"categories_sizes":[],"default_left":[0,0,0,0,0,0,0,0,0,0,0,0,0,0,0],"id":0,"left_children":[1,3,5,7,9,11,13,-1,-1,-1,-1,-1,-1,-1,-1],"loss_changes":[2.9130063E2,3.3676743E1,6.568755E1,9.49762E0,2.3639135E1,1.8280914E1,6.760071E0,0E0,0E0,0E0,0E0,0E0,0E0,0E0,0E0],"parents":[2147483647,0,0,1,1,2,2,3,3,4,4,5,5,6,6],"right_children":[2,4,6,8,10,12,14,-1,-1,-1,-1,-1,-1,-1,-1],"split_conditions":[2E0,1.7865169E0,7E0,-5E0,-4E0,4.714286E0,2.1424944E-2,-1.4548282E-1,-9.12214E-2,-1.1260023E-1,-4.8142513E-3,1.0956653E-3,6.1634827E-2,7.9246126E-2,1.22189045E-1],"split_indices":[10,56,10,10,10,56,7,0,0,0,0,0,0,0,0],"split_type":[0,0,0,0,0,0,0,0,0,0,0,0,0,0,0],"sum_hessian":[6.6711505E2,2.6388657E2,4.0322852E2,1.6425089E2,9.963567E1,2.3651141E2,1.6671712E2,5.253069E1,1.117202E2,2.7375147E1,7.226052E1,1.6622386E2,7.0287544E1,8.385181E1,8.286531E1],"tree_param":{"num_deleted":"0","num_feature":"63","num_nodes":"15","size_leaf_vector":"1"}},{"base_weights":[-3.1705848E-3,-4.729218E-1,4.3184093E-1,-7.1759075E-1,7.9038E-2,-1.2706591E-1,7.366593E-1,-7.706071E-2,2.056701E-2,2.8512647E-2,-7.079738E-2,-6.35083E-2,2.2021865E-3,4.8153296E-2,1.0279639E-1],"categories":[],"categories_nodes":[],"categories_segments":[],"categories_sizes":[],"default_left":[0,0,0,0,0,0,0,0,0,0,0,0,0,0,0],"id":1,"left_children":[1,3,5,7,9,11,13,-1,-1,-1,-1,-1,-1,-1,-1],"loss_changes":[1.3870747E2,4.4130386E1,6.0134842E1,1.1231583E1,1.6605354E1,9.498672E0,1.6464607E1,0E0,0E0,0E0,0E0,0E0,0E0,0E0,0E0],"parents":[2147483647,0,0,1,1,2,2,3,3,4,4,5,5,6,6],"right_children":[2,4,6,8,10,12,14,-1,-1,-1,-1,-1,-1,-1,-1],"split_conditions":[5.609756E-1,2.895396E-2,-4.6902723E-3,2.7465241E-2,2.1418971E-1,-3.764635E-2,1.4559545E-1,-7.706071E-2,2.056701E-2,2.8512647E-2,-7.079738E-2,-6.35083E-2,2.2021865E-3,4.8153296E-2,1.0279639E-1],"split_indices":[55,1,2,2,44,7,8,0,0,0,0,0,0,0,0],"split_type":[0,0,0,0,0,0,0,0,0,0,0,0,0,0,0],"sum_hessian":[6.76784E2,3.2535703E2,3.5142694E2,2.2522208E2,1.00134964E2,1.2422833E2,2.2719862E2,2.1314784E2,1.2074225E1,7.98603E1,2.0274668E1,2.7446047E1,9.678229E1,1.2253487E2,1.0466376E2],"tree_param":{"num_deleted":"0","num_feature":"63","num_nodes":"15","size_leaf_vector":"1"}},{"base_weights":[-8.654594E-3,-5.039994E-1,5.7733417E-1,-1.0394353E0,-3.2446486E-1,2.7130353E-1,8.512147E-1,-5.700314E-2,-1.227937E-1,-5.77663E-2,-1.2660165E-3,-2.4229575E-2,4.684809E-2,1.04081236E-1,5.8712255E-2],"categories":[],"categories_nodes":[],"categories_segments":[],"categories_sizes":[],"default_left":[0,0,0,0,0,0,0,0,0,0,0,0,0,0,0],"id":2,"left_children":[1,3,5,7,9,11,13,-1,-1,-1,-1,-1,-1,-1,-1],"loss_changes":[1.9538687E2,3.472764E1,2.5614403E1,7.364609E0,2.1673962E1,1.5010296E1,7.5134277E0,0E0,0E0,0E0,0E0,0E0,0E0,0E0,0E0],"parents":[2147483647,0,0,1,1,2,2,3,3,4,4,5,5,6,6],"right_children":[2,4,6,8,10,12,14,-1,-1,-1,-1,-1,-1,-1,-1],"split_conditions":[3.5E0,-4E0,7E0,-1.0110046E-1,1.7692307E0,-1.8166486E-2,1.9878428E-1,-5.700314E-2,-1.227937E-1,-5.77663E-2,-1.2660165E-3,-2.4229575E-2,4.684809E-2,1.04081236E-1,5.8712255E-2],"split_indices":[10,10,10,51,56,2,30,0,0,0,0,0,0,0,0],"split_type":[0,0,0,0,0,0,0,0,0,0,0,0,0,0,0],"sum_hessian":[6.7112683E2,3.6376822E2,3.073586E2,9.014226E1,2.7362595E2,1.460995E2,1.6125912E2,2.6980312E1,6.3161945E1,1.5053375E2,1.230922E2,4.0466145E1,1.05633354E2,9.215669E1,6.910244E1],"tree_param":{"num_deleted":"0","num_feature":"63","num_nodes":"15","size_leaf_vector":"1"}},{"base_weights":[-4.0119695E-3,-4.4939765E-1,5.425358E-1,-1.0556657E0,-2.789407E-1,2.2408022E-1,8.333873E-1,-1.0907283E-1,6.631245E-2,-4.577497E-2,1.3233038E-3,-1.3373743E-2,5.9747428E-2,6.617843E-2,1.021297E-1],"categories":[],"categories_nodes":[],"categories_segments":[],"categories_sizes":[],"default_left":[0,0,0,0,0,0,0,0,0,0,0,0,0,0,0],"id":3,"left_children":[1,3,5,7,9,11,13,-1,-1,-1,-1,-1,-1,-1,-1],"loss_changes":[1.6451514E2,3.8187798E1,2.7920624E1,5.626526E0,1.5261869E1,1.9616358E1,4.426552E0,0E0,0E0,0E0,0E0,0E0,0E0,0E0,0E0],"parents":[2147483647,0,0,1,1,2,2,3,3,4,4,5,5,6,6],"right_children":[2,4,6,8,10,12,14,-1,-1,-1,-1,-1,-1,-1,-1],"split_conditions":[3.5E0,-5E0,7E0,1.1861694E-1,5.771812E-1,5.8433735E-1,1E1,-1.0907283E-1,6.631245E-2,-4.577497E-2,1.3233038E-3,-1.3373743E-2,5.9747428E-2,6.617843E-2,1.021297E-1],"split_indices":[10,10,10,52,55,55,10,0,0,0,0,0,0,0,0],"split_type":[0,0,0,0,0,0,0,0,0,0,0,0,0,0,0],"sum_hessian":[6.738346E2,3.7137567E2,3.0245895E2,8.036095E1,2.910147E2,1.4522328E2,1.5723566E2,7.9112495E1,1.248451E0,1.8017918E2,1.1083554E2,7.448618E1,7.07371E1,8.454722E1,7.2688446E1],"tree_param":{"num_deleted":"0","num_feature":"63","num_nodes":"15","size_leaf_vector":"1"}},{"base_weights":[9.802039E-3,-3.987045E-1,5.0671315E-1,-8.9278114E-1,-2.2836635E-1,2.2135304E-1,7.677855E-1,-1.0378759E-1,-2.416266E-2,-4.1502576E-2,3.6898957E-5,-2.8851131E-2,4.159862E-2,5.5628568E-2,9.8203264E-2],"categories":[],"categories_nodes":[],"categories_segments":[],"categories_sizes":[],"default_left":[0,0,0,0,0,0,0,0,0,0,0,0,0,0,0],"id":4,"left_children":[1,3,5,7,9,11,13,-1,-1,-1,-1,-1,-1,-1,-1],"loss_changes":[1.3620622E2,3.0789654E1,2.2383392E1,8.636917E0,1.1749905E1,1.4612782E1,6.5990753E0,0E0,0E0,0E0,0E0,0E0,0E0,0E0,0E0],"parents":[2147483647,0,0,1,1,2,2,3,3,4,4,5,5,6,6],"right_children":[2,4,6,8,10,12,14,-1,-1,-1,-1,-1,-1,-1,-1],"split_conditions":[3.5E0,-4E0,7E0,6.036036E-1,5.609756E-1,-1.8166486E-2,2.1424944E-2,-1.0378759E-1,-2.416266E-2,-4.1502576E-2,3.6898957E-5,-2.8851131E-2,4.159862E-2,5.5628568E-2,9.8203264E-2],"split_indices":[10,10,10,55,55,2,7,0,0,0,0,0,0,0,0],"split_type":[0,0,0,0,0,0,0,0,0,0,0,0,0,0,0],"sum_hessian":[6.6899963E2,3.672687E2,3.0173093E2,9.307052E1,2.7419818E2,1.4504266E2,1.5668826E2,7.562527E1,1.7445248E1,1.505376E2,1.2366058E2,3.9938023E1,1.0510465E2,8.065952E1,7.602874E1],"tree_param":{"num_deleted":"0","num_feature":"63","num_nodes":"15","size_leaf_vector":"1"}},{"base_weights":[2.078443E-3,-3.5446218E-1,2.4344568E-1,-5.26892E-1,2.8227504E-2,-1.19214125E-1,4.5803735E-1,-6.4998746E-2,-9.877038E-3,8.059765E-2,-1.739838E-2,-1.735781E-2,7.999635E-2,2.8001195E-2,7.820952E-2],"categories":[],"categories_nodes":[],"categories_segments":[],"categories_sizes":[],"default_left":[0,0,0,0,0,0,0,0,0,0,0,0,0,0,0],"id":5,"left_children":[1,3,5,7,9,11,13,-1,-1,-1,-1,-1,-1,-1,-1],"loss_changes":[5.6918953E1,1.7633686E1,3.0748434E1,9.638821E0,1.3332823E1,7.5050154E0,1.40877E1,0E0,0E0,0E0,0E0,0E0,0E0,0E0,0E0],"parents":[2147483647,0,0,1,1,2,2,3,3,4,4,5,5,6,6],"right_children":[2,4,6,8,10,12,14,-1,-1,-1,-1,-1,-1,-1,-1],"split_conditions":[1.4285715E0,5.8149667E-3,-3.0103546E-2,2E-1,1.8097787E-1,9E0,5.64E0,-6.4998746E-2,-9.877038E-3,8.059765E-2,-1.739838E-2,-1.735781E-2,7.999635E-2,2.8001195E-2,7.820952E-2],"split_indices":[56,6,8,4,44,50,56,0,0,0,0,0,0,0,0],"split_type":[0,0,0,0,0,0,0,0,0,0,0,0,0,0,0],"sum_hessian":[6.594055E2,2.6600385E2,3.9340167E2,1.8311864E2,8.2885216E1,1.4641124E2,2.4699043E2,1.4182285E2,4.129579E1,1.6486958E1,6.6398254E1,1.3900128E2,7.4099493E0,1.6061731E2,8.637313E1],"tree_param":{"num_deleted":"0","num_feature":"63","num_nodes":"15","size_leaf_vector":"1"}},{"base_weights":[-8.264192E-3,-3.7995893E-1,4.662805E-1,-7.813873E-1,-2.6333222E-1,1.9131951E-1,7.247584E-1,-9.3122005E-2,-1.2348725E-2,-4.128414E-2,-8.007913E-3,-1.3552648E-2,4.751438E-2,7.659725E-2,-1.5032345E-2],"categories":[],"categories_nodes":[],"categories_segments":[],"categories_sizes":[],"default_left":[0,0,0,0,0,0,0,0,0,0,0,0,0,0,0],"id":6,"left_children":[1,3,5,7,9,11,13,-1,-1,-1,-1,-1,-1,-1,-1],"loss_changes":[1.1565136E2,1.7007477E1,2.0329872E1,7.9940605E0,7.8138924E0,1.3136078E1,5.4561462E0,0E0,0E0,0E0,0E0,0E0,0E0,0E0,0E0],"parents":[2147483647,0,0,1,1,2,2,3,3,4,4,5,5,6,6],"right_children":[2,4,6,8,10,12,14,-1,-1,-1,-1,-1,-1,-1,-1],"split_conditions":[3.5E0,-5E0,7E0,6.036036E-1,5.473684E-1,5.8E-1,1.3E1,-9.3122005E-2,-1.2348725E-2,-4.128414E-2,-8.007913E-3,-1.3552648E-2,4.751438E-2,7.659725E-2,-1.5032345E-2],"split_indices":[10,10,10,55,55,55,47,0,0,0,0,0,0,0,0],"split_type":[0,0,0,0,0,0,0,0,0,0,0,0,0,0,0],"sum_hessian":[6.536684E2,3.6666864E2,2.869998E2,8.126278E1,2.8540585E2,1.39909E2,1.4709079E2,6.585032E1,1.5412457E1,1.5648384E2,1.2892201E2,6.526905E1,7.4639946E1,1.4059386E2,6.4969254E0],"tree_param":{"num_deleted":"0","num_feature":"63","num_nodes":"15","size_leaf_vector":"1"}},{"base_weights":[4.4188995E-4,-1.9643854E-1,3.2662216E-1,-3.599828E-1,1.8552731E-1,-2.2908081E-1,4.378186E-1,-8.960503E-3,-4.9453486E-2,3.4560382E-2,-2.1622574E-2,6.462174E-2,-4.428284E-2,5.1333833E-2,-4.2953193E-2],"categories":[],"categories_nodes":[],"categories_segments":[],"categories_sizes":[],"default_left":[0,0,0,0,0,0,0,0,0,0,0,0,0,0,0],"id":7,"left_children":[1,3,5,7,9,11,13,-1,-1,-1,-1,-1,-1,-1,-1],"loss_changes":[4.2189896E1,2.5659426E1,1.5380581E1,1.0404167E1,8.0162115E0,8.1230955E0,1.3739937E1,0E0,0E0,0E0,0E0,0E0,0E0,0E0,0E0],"parents":[2147483647,0,0,1,1,2,2,3,3,4,4,5,5,6,6],"right_children":[2,4,6,8,10,12,14,-1,-1,-1,-1,-1,-1,-1,-1],"split_conditions":[2.6555646E-2,6.2765956E-1,4.7540984E-1,2.0375E1,2.4333334E1,1.8177134E-1,6.2427804E-2,-8.960503E-3,-4.9453486E-2,3.4560382E-2,-2.1622574E-2,6.462174E-2,-4.428284E-2,5.1333833E-2,-4.2953193E-2],"split_indices":[1,55,55,41,13,44,53,0,0,0,0,0,0,0,0],"split_type":[0,0,0,0,0,0,0,0,0,0,0,0,0,0,0],"sum_hessian":[6.54975E2,4.0868994E2,2.4628502E2,2.8620477E2,1.22485176E2,4.0887928E1,2.053971E2,9.56551E1,1.9054967E2,8.768664E1,3.4798542E1,7.627985E0,3.325994E1,1.8932115E2,1.6075935E1],"tree_param":{"num_deleted":"0","num_feature":"63","num_nodes":"15","size_leaf_vector":"1"}},{"base_weights":[2.4370402E-2,-2.9245996E-1,4.3231001E-1,-7.293268E-1,-1.4182653E-1,1.6975471E-1,6.892418E-1,-3.9098747E-2,-1.0255951E-1,-8.0366656E-2,-8.682888E-3,-3.349299E-2,3.3232402E-2,7.417647E-2,2.9268737E-3],"categories":[],"categories_nodes":[],"categories_segments":[],"categories_sizes":[],"default_left":[0,0,0,0,0,0,0,0,0,0,0,0,0,0,0],"id":8,"left_children":[1,3,5,7,9,11,13,-1,-1,-1,-1,-1,-1,-1,-1],"loss_changes":[8.507088E1,2.4279062E1,1.9291279E1,9.097477E0,1.0004131E1,1.1894983E1,5.007408E0,0E0,0E0,0E0,0E0,0E0,0E0,0E0,0E0],"parents":[2147483647,0,0,1,1,2,2,3,3,4,4,5,5,6,6],"right_children":[2,4,6,8,10,12,14,-1,-1,-1,-1,-1,-1,-1,-1],"split_conditions":[3.5E0,-4E0,7E0,-2.4379152E-1,4E-1,-7.639934E-2,2.2502117E-1,-3.9098747E-2,-1.0255951E-1,-8.0366656E-2,-8.682888E-3,-3.349299E-2,3.3232402E-2,7.417647E-2,2.9268737E-3],"split_indices":[10,10,10,8,55,8,44,0,0,0,0,0,0,0,0],"split_type":[0,0,0,0,0,0,0,0,0,0,0,0,0,0,0],"sum_hessian":[6.5622235E2,3.6951666E2,2.8670572E2,9.375803E1,2.7575864E2,1.426224E2,1.4408331E2,4.4854156E1,4.890388E1,2.0112509E1,2.5564612E2,3.449012E1,1.08132286E2,1.3334717E2,1.0736144E1],"tree_param":{"num_deleted":"0","num_feature":"63","num_nodes":"15","size_leaf_vector":"1"}},{"base_weights":[7.183562E-3,-3.635406E-1,2.7628613E-1,-5.62979E-1,-1.0529614E-1,1.19380325E-1,5.758698E-1,9.217024E-3,-6.4274006E-2,3.589839E-2,-2.8350282E-2,-3.695976E-3,4.4965383E-2,-5.0905056E-2,6.2241722E-2],"categories":[],"categories_nodes":[],"categories_segments":[],"categories_sizes":[],"default_left":[0,0,0,0,0,0,0,0,0,0,0,0,0,0,0],"id":9,"left_children":[1,3,5,7,9,11,13,-1,-1,-1,-1,-1,-1,-1,-1],"loss_changes":[6.35004E1,1.3729202E1,1.7266722E1,7.9408073E0,9.855716E0,1.2578875E1,6.7051086E0,0E0,0E0,0E0,0E0,0E0,0E0,0E0,0E0],"parents":[2147483647,0,0,1,1,2,2,3,3,4,4,5,5,6,6],"right_children":[2,4,6,8,10,12,14,-1,-1,-1,-1,-1,-1,-1,-1],"split_conditions":[2E0,5.270936E-1,6.4705884E-1,-1.5213107E-1,2.857143E-1,7E0,-3.764635E-2,9.217024E-3,-6.4274006E-2,3.589839E-2,-2.8350282E-2,-3.695976E-3,4.4965383E-2,-5.0905056E-2,6.2241722E-2],"split_indices":[10,55,55,52,12,10,7,0,0,0,0,0,0,0,0],"split_type":[0,0,0,0,0,0,0,0,0,0,0,0,0,0,0],"sum_hessian":[6.3450696E2,2.6671756E2,3.677894E2,1.4982776E2,1.1688979E2,2.4228961E2,1.2549979E2,1.624417E1,1.3358359E2,3.2140373E1,8.474942E1,1.6504913E2,7.724047E1,4.754167E0,1.2074562E2],"tree_param":{"num_deleted":"0","num_feature":"63","num_nodes":"15","size_leaf_vector":"1"}},{"base_weights":[-1.335453E-2,-1.3481465E-1,3.496438E-1,1.07269034E-1,-2.658053E-1,-1.4815238E-2,5.5979645E-1,-5.1582582E-2,2.0380253E-2,-4.4761136E-2,-1.0072564E-2,-6.777702E-2,1.6126035E-2,-7.507009E-2,6.0864706E-2],"categories":[],"categories_nodes":[],"categories_segments":[],"categories_sizes":[],"default_left":[0,0,0,0,0,0,0,0,0,0,0,0,0,0,0],"id":10,"left_children":[1,3,5,7,9,11,13,-1,-1,-1,-1,-1,-1,-1,-1],"loss_changes":[2.828538E1,1.5269247E1,1.2328333E1,1.0298242E1,9.323462E0,7.0900974E0,6.989996E0,0E0,0E0,0E0,0E0,0E0,0E0,0E0,0E0],"parents":[2147483647,0,0,1,1,2,2,3,3,4,4,5,5,6,6],"right_children":[2,4,6,8,10,12,14,-1,-1,-1,-1,-1,-1,-1,-1],"split_conditions":[6.5E-1,-3.1863324E-2,-1.2845551E-2,-4.4131316E-2,5.043478E-1,1.6E1,-9.762192E-2,-5.1582582E-2,2.0380253E-2,-4.4761136E-2,-1.0072564E-2,-6.777702E-2,1.6126035E-2,-7.507009E-2,6.0864706E-2],"split_indices":[55,32,2,2,55,15,19,0,0,0,0,0,0,0,0],"split_type":[0,0,0,0,0,0,0,0,0,0,0,0,0,0,0],"sum_hessian":[6.3947076E2,4.7961804E2,1.5985274E2,1.6846295E2,3.111551E2,5.880287E1,1.0104987E2,2.2015568E1,1.4644739E2,1.472613E2,1.6389377E2,1.174219E1,4.7060684E1,3.1150908E0,9.7934784E1],"tree_param":{"num_deleted":"0","num_feature":"63","num_nodes":"15","size_leaf_vector":"1"}},{"base_weights":[1.6103877E-2,-2.389002E-1,1.6446532E-1,-9.765167E-2,-6.2876356E-1,-8.29664E-2,3.3656487E-1,-2.3841988E-2,3.2654066E-2,-1.19014315E-1,-2.9089386E-2,-2.3508197E-2,2.4755603E-2,4.3455996E-2,-6.2376754E-3],"categories":[],"categories_nodes":[],"categories_segments":[],"categories_sizes":[],"default_left":[0,0,0,0,0,0,0,0,0,0,0,0,0,0,0],"id":11,"left_children":[1,3,5,7,9,11,13,-1,-1,-1,-1,-1,-1,-1,-1],"loss_changes":[2.4450087E1,1.3029755E1,1.7423042E1,1.0568728E1,1.1610746E1,8.523769E0,9.453665E0,0E0,0E0,0E0,0E0,0E0,0E0,0E0,0E0],"parents":[2147483647,0,0,1,1,2,2,3,3,4,4,5,5,6,6],"right_children":[2,4,6,8,10,12,14,-1,-1,-1,-1,-1,-1,-1,-1],"split_conditions":[5.068493E-1,4.7E1,-1.4569347E-2,2.5E0,2.2E1,2.39E1,2.51E1,-2.3841988E-2,3.2654066E-2,-1.19014315E-1,-2.9089386E-2,-2.3508197E-2,2.4755603E-2,4.3455996E-2,-6.2376754E-3],"split_indices":[55,11,0,5,24,42,35,0,0,0,0,0,0,0,0],"split_type":[0,0,0,0,0,0,0,0,0,0,0,0,0,0,0],"sum_hessian":[6.442288E2,2.3672867E2,4.0750015E2,1.7468889E2,6.2039772E1,1.6737663E2,2.4012354E2,1.3149141E2,4.319748E1,2.2362083E1,3.967769E1,1.148214E2,5.255523E1,1.926999E2,4.742363E1],"tree_param":{"num_deleted":"0","num_feature":"63","num_nodes":"15","size_leaf_vector":"1"}},{"base_weights":[3.369549E-2,-2.6754937E-1,2.5958878E-1,-6.565966E-2,-3.965613E-1,1.7169228E-1,7.136093E-1,-4.594615E-2,7.105069E-3,-2.2815173E-2,-6.721064E-2,6.66943E-2,1.0707125E-2,9.294882E-2,3.4302626E-2],"categories":[],"categories_nodes":[],"categories_segments":[],"categories_sizes":[],"default_left":[0,0,0,0,0,0,0,0,0,0,0,0,0,0,0],"id":12,"left_children":[1,3,5,7,9,11,13,-1,-1,-1,-1,-1,-1,-1,-1],"loss_changes":[4.3353184E1,7.086235E0,1.44036045E1,5.8287473E0,7.568514E0,9.730612E0,4.3790245E0,0E0,0E0,0E0,0E0,0E0,0E0,0E0,0E0],"parents":[2147483647,0,0,1,1,2,2,3,3,4,4,5,5,6,6],"right_children":[2,4,6,8,10,12,14,-1,-1,-1,-1,-1,-1,-1,-1],"split_conditions":[2E0,4E0,1E1,-3.5E0,-3.1408884E-2,-6.8E0,1.97305E-1,-4.594615E-2,7.105069E-3,-2.2815173E-2,-6.721064E-2,6.66943E-2,1.0707125E-2,9.294882E-2,3.4302626E-2],"split_indices":[10,49,10,10,51,4,18,0,0,0,0,0,0,0,0],"split_type":[0,0,0,0,0,0,0,0,0,0,0,0,0,0,0],"sum_hessian":[6.350653E2,2.7206403E2,3.6300125E2,1.0666063E2,1.6540341E2,3.0527872E2,5.772254E1,2.6877535E1,7.97831E1,1.0379392E2,6.1609486E1,3.4159798E1,2.711189E2,3.552164E1,2.22009E1],"tree_param":{"num_deleted":"0","num_feature":"63","num_nodes":"15","size_leaf_vector":"1"}},{"base_weights":[1.469243E-2,-2.6328263E-1,2.7145946E-1,-4.9247625E-1,-1.4767279E-1,3.3816856E-1,-3.136964E-1,2.2738954E-2,-6.2028464E-2,1.6317321E-2,-3.3319134E-2,5.199623E-2,1.8424151E-2,-6.9349036E-2,4.457419E-2],"categories":[],"categories_nodes":[],"categories_segments":[],"categories_sizes":[],"default_left":[0,0,0,0,0,0,0,0,0,0,0,0,0,0,0],"id":13,"left_children":[1,3,5,7,9,11,13,-1,-1,-1,-1,-1,-1,-1,-1],"loss_changes":[4.469111E1,7.894499E0,1.2810556E1,9.377281E0,1.1662589E1,8.093044E0,1.0065306E1,0E0,0E0,0E0,0E0,0E0,0E0,0E0,0E0],"parents":[2147483647,0,0,1,1,2,2,3,3,4,4,5,5,6,6],"right_children":[2,4,6,8,10,12,14,-1,-1,-1,-1,-1,-1,-1,-1],"split_conditions":[3E0,-3.5E0,2.329127E-1,-1.8819459E-1,-6.62602E-2,-4.475174E-2,6.5E0,2.2738954E-2,-6.2028464E-2,1.6317321E-2,-3.3319134E-2,5.199623E-2,1.8424151E-2,-6.9349036E-2,4.457419E-2],"split_indices":[10,10,18,28,1,53,10,0,0,0,0,0,0,0,0],"split_type":[0,0,0,0,0,0,0,0,0,0,0,0,0,0,0],"sum_hessian":[6.241453E2,2.9968356E2,3.2446176E2,9.938853E1,2.0029504E2,2.916366E2,3.2825146E1,1.4867867E1,8.452066E1,7.490622E1,1.25388824E2,1.3262425E2,1.5901234E2,2.1939882E1,1.0885263E1],"tree_param":{"num_deleted":"0","num_feature":"63","num_nodes":"15","size_leaf_vector":"1"}},{"base_weights":[-5.6937053E-3,-3.2943577E-1,1.7406258E-1,-1.3158092E-1,-5.418552E-1,7.347336E-2,4.1777843E-1,-3.0162646E-2,2.2832742E-2,-1.4103152E-2,-7.690799E-2,2.2352664E-2,-1.1132884E-2,2.022789E-2,7.491329E-2],"categories":[],"categories_nodes":[],"categories_segments":[],"categories_sizes":[],"default_left":[0,0,0,0,0,0,0,0,0,0,0,0,0,0,0],"id":14,"left_children":[1,3,5,7,9,11,13,-1,-1,-1,-1,-1,-1,-1,-1],"loss_changes":[3.6658737E1,9.380394E0,9.899387E0,7.2756968E0,9.739893E0,8.009329E0,8.283386E0,0E0,0E0,0E0,0E0,0E0,0E0,0E0,0E0],"parents":[2147483647,0,0,1,1,2,2,3,3,4,4,5,5,6,6],"right_children":[2,4,6,8,10,12,14,-1,-1,-1,-1,-1,-1,-1,-1],"split_conditions":[0E0,1.1E1,6.516854E-1,2.775E1,1.9257177E-1,-1.0341315E-2,2.35E1,-3.0162646E-2,2.2832742E-2,-1.4103152E-2,-7.690799E-2,2.2352664E-2,-1.1132884E-2,2.022789E-2,7.491329E-2],"split_indices":[10,62,55,40,43,38,42,0,0,0,0,0,0,0,0],"split_type":[0,0,0,0,0,0,0,0,0,0,0,0,0,0,0],"sum_hessian":[6.279476E2,2.238892E2,4.0405838E2,1.1675707E2,1.0713213E2,2.8693338E2,1.17124985E2,7.940337E1,3.7353695E1,3.9346203E1,6.778593E1,1.58239E2,1.286944E2,7.1945206E1,4.5179783E1],"tree_param":{"num_deleted":"0","num_feature":"63","num_nodes":"15","size_leaf_vector":"1"}},{"base_weights":[-1.6477313E-2,-1.22476146E-1,4.0399376E-1,-2.1080846E-1,1.7719822E-1,6.318176E-1,2.1280453E-1,-5.7204694E-2,-1.3418256E-2,-6.267365E-2,2.8151793E-2,-2.5996026E-3,8.4157765E-2,1.2637982E-3,6.727787E-2],"categories":[],"categories_nodes":[],"categories_segments":[],"categories_sizes":[],"default_left":[0,0,0,0,0,0,0,0,0,0,0,0,0,0,0],"id":15,"left_children":[1,3,5,7,9,11,13,-1,-1,-1,-1,-1,-1,-1,-1],"loss_changes":[2.767974E1,1.3163946E1,5.3124104E0,1.0537275E1,9.689833E0,7.824898E0,6.390418E0,0E0,0E0,0E0,0E0,0E0,0E0,0E0,0E0],"parents":[2147483647,0,0,1,1,2,2,3,3,4,4,5,5,6,6],"right_children":[2,4,6,8,10,12,14,-1,-1,-1,-1,-1,-1,-1,-1],"split_conditions":[7E0,6.4705884E-1,2.425E1,-4.5E0,-1.3865772E-1,1.3E1,1.1E1,-5.7204694E-2,-1.3418256E-2,-6.267365E-2,2.8151793E-2,-2.5996026E-3,8.4157765E-2,1.2637982E-3,6.727787E-2],"split_indices":[10,55,21,10,52,40,10,0,0,0,0,0,0,0,0],"split_type":[0,0,0,0,0,0,0,0,0,0,0,0,0,0,0],"sum_hessian":[6.189373E2,4.9488724E2,1.240501E2,3.824519E2,1.1243535E2,5.555057E1,6.849953E1,6.579731E1,3.1665457E2,1.23388405E1,1.00096504E2,1.3642712E1,4.190786E1,4.8445164E1,2.0054365E1],"tree_param":{"num_deleted":"0","num_feature":"63","num_nodes":"15","size_leaf_vector":"1"}},{"base_weights":[-6.9008543E-6,-1.895054E-1,2.5110686E-1,-6.255587E-1,-1.3301274E-1,9.9793024E-2,4.1745695E-1,8.317157E-2,-7.019686E-2,1.3114352E-3,-2.82611E-2,-4.158776E-3,5.04354E-2,1.0809107E-1,3.6056664E-2],"categories":[],"categories_nodes":[],"categories_segments":[],"categories_sizes":[],"default_left":[0,0,0,0,0,0,0,0,0,0,0,0,0,0,0],"id":16,"left_children":[1,3,5,7,9,11,13,-1,-1,-1,-1,-1,-1,-1,-1],"loss_changes":[2.968642E1,8.675237E0,6.711895E0,5.0945616E0,6.9123755E0,8.132515E0,4.4222145E0,0E0,0E0,0E0,0E0,0E0,0E0,0E0,0E0],"parents":[2147483647,0,0,1,1,2,2,3,3,4,4,5,5,6,6],"right_children":[2,4,6,8,10,12,14,-1,-1,-1,-1,-1,-1,-1,-1],"split_conditions":[3.5E0,4.3103448E-1,7E0,-1.798294E-1,2.04E1,5.321444E-2,-1.1827757E-1,8.317157E-2,-7.019686E-2,1.3114352E-3,-2.82611E-2,-4.158776E-3,5.04354E-2,1.0809107E-1,3.6056664E-2],"split_indices":[10,55,10,54,24,37,8,0,0,0,0,0,0,0,0],"split_type":[0,0,0,0,0,0,0,0,0,0,0,0,0,0,0],"sum_hessian":[6.2185187E2,3.545457E2,2.6730618E2,3.9509335E1,3.1503635E2,1.4081721E2,1.26488976E2,1.4759232E0,3.8033413E1,1.5982861E2,1.5520773E2,1.0501509E2,3.5802124E1,8.568098E0,1.17920876E2],"tree_param":{"num_deleted":"0","num_feature":"63","num_nodes":"15","size_leaf_vector":"1"}},{"base_weights":[-1.8262587E-2,-3.0981666E-1,9.822792E-2,-8.3823495E-2,-5.378261E-1,4.389067E-2,4.8949572E-1,5.1156334E-3,-8.074876E-2,-6.7215264E-2,2.7163737E-3,2.439121E-2,-7.4598975E-3,5.9149295E-2,-7.751925E-2],"categories":[],"categories_nodes":[],"categories_segments":[],"categories_sizes":[],"default_left":[0,0,0,0,0,0,0,0,0,0,0,0,0,0,0],"id":17,"left_children":[1,3,5,7,9,11,13,-1,-1,-1,-1,-1,-1,-1,-1],"loss_changes":[2.0990877E1,9.045984E0,9.36972E0,8.812024E0,6.6693363E0,9.236662E0,7.393961E0,0E0,0E0,0E0,0E0,0E0,0E0,0E0,0E0],"parents":[2147483647,0,0,1,1,2,2,3,3,4,4,5,5,6,6],"right_children":[2,4,6,8,10,12,14,-1,-1,-1,-1,-1,-1,-1,-1],"split_conditions":[-2E0,3E0,1E1,3.88567E-1,-1.250547E-2,-4E-1,4.782944E-2,5.1156334E-3,-8.074876E-2,-6.7215264E-2,2.7163737E-3,2.439121E-2,-7.4598975E-3,5.9149295E-2,-7.751925E-2],"split_indices":[10,50,10,26,28,5,54,0,0,0,0,0,0,0,0],"split_type":[0,0,0,0,0,0,0,0,0,0,0,0,0,0,0],"sum_hessian":[6.1615015E2,1.7542769E2,4.4072247E2,8.879025E1,8.6637436E1,3.8795715E2,5.2765305E1,7.561554E1,1.3174711E1,6.984265E1,1.6794783E1,1.4393059E2,2.4402658E2,4.931995E1,3.4453576E0],"tree_param":{"num_deleted":"0","num_feature":"63","num_nodes":"15","size_leaf_vector":"1"}},{"base_weights":[3.0733654E-2,-5.7755187E-2,3.2547343E-1,-9.8634875E-1,-2.2503737E-2,7.164232E-1,1.6260801E-1,-1.1688198E-1,7.802163E-2,-8.713847E-3,2.3402564E-2,4.319245E-2,1.12569265E-1,-1.5940747E-1,2.1002725E-2],"categories":[],"categories_nodes":[],"categories_segments":[],"categories_sizes":[],"default_left":[0,0,0,0,0,0,0,0,0,0,0,0,0,0,0],"id":18,"left_children":[1,3,5,7,9,11,13,-1,-1,-1,-1,-1,-1,-1,-1],"loss_changes":[1.5920355E1,1.5355161E1,8.856913E0,6.4426556E0,7.541495E0,4.305311E0,8.729831E0,0E0,0E0,0E0,0E0,0E0,0E0,0E0,0E0],"parents":[2147483647,0,0,1,1,2,2,3,3,4,4,5,5,6,6],"right_children":[2,4,6,8,10,12,14,-1,-1,-1,-1,-1,-1,-1,-1],"split_conditions":[6.5E0,3.6607143E-1,2.3333333E0,2.0010592E-2,6.516854E-1,2E-1,-1.6666667E-1,-1.1688198E-1,7.802163E-2,-8.713847E-3,2.3402564E-2,4.319245E-2,1.12569265E-1,-1.5940747E-1,2.1002725E-2],"split_indices":[10,55,5,27,55,4,9,0,0,0,0,0,0,0,0],"split_type":[0,0,0,0,0,0,0,0,0,0,0,0,0,0,0],"sum_hessian":[6.086947E2,4.6876334E2,1.3993137E2,1.615767E1,4.5260565E2,4.015134E1,9.978003E1,1.4951657E1,1.2060126E0,3.6204556E2,9.0560104E1,2.4898676E1,1.5252664E1,1.7653314E0,9.80147E1],"tree_param":{"num_deleted":"0","num_feature":"63","num_nodes":"15","size_leaf_vector":"1"}},{"base_weights":[-9.776355E-3,-9.106573E-2,2.4973027E-1,-1.5787902E-1,1.4283103E-1,1.1041547E0,1.9097103E-1,-9.5559465E-4,-3.3312824E-2,-7.4250135E-3,4.546271E-2,2.2943567E-3,1.3164398E-1,2.618947E-2,-4.7903594E-2],"categories":[],"categories_nodes":[],"categories_segments":[],"categories_sizes":[],"default_left":[0,0,0,0,0,0,0,0,0,0,0,0,0,0,0],"id":19,"left_children":[1,3,5,7,9,11,13,-1,-1,-1,-1,-1,-1,-1,-1],"loss_changes":[1.271858E1,7.19577E0,7.009783E0,9.289592E0,6.9722414E0,2.0458918E0,6.577494E0,0E0,0E0,0E0,0E0,0E0,0E0,0E0,0E0],"parents":[2147483647,0,0,1,1,2,2,3,3,4,4,5,5,6,6],"right_children":[2,4,6,8,10,12,14,-1,-1,-1,-1,-1,-1,-1,-1],"split_conditions":[6.5E0,6.4705884E-1,-3.3E0,4.5E1,1.0359683E-1,1.8489294E-1,3.06E1,-9.5559465E-4,-3.3312824E-2,-7.4250135E-3,4.546271E-2,2.2943567E-3,1.3164398E-1,2.618947E-2,-4.7903594E-2],"split_indices":[10,55,5,11,25,18,24,0,0,0,0,0,0,0,0],"split_type":[0,0,0,0,0,0,0,0,0,0,0,0,0,0,0],"sum_hessian":[6.0083746E2,4.5801517E2,1.4282227E2,3.565038E2,1.0151136E2,8.045185E0,1.3477707E2,1.9365631E2,1.628475E2,6.02945E1,4.1216858E1,1.5022086E0,6.542977E0,1.224267E2,1.2350376E1],"tree_param":{"num_deleted":"0","num_feature":"63","num_nodes":"15","size_leaf_vector":"1"}},{"base_weights":[-1.5491429E-2,-4.7392708E-1,3.4863237E-2,-7.5364316E-1,-1.944052E-1,3.0979617E-3,4.6035334E-1,-2.9181773E-2,-1.0755944E-1,7.786473E-2,-4.6832815E-2,-1.8793615E-3,7.10814E-2,7.7296994E-3,1.10019326E-1],"categories":[],"categories_nodes":[],"categories_segments":[],"categories_sizes":[],"default_left":[0,0,0,0,0,0,0,0,0,0,0,0,0,0,0],"id":20,"left_children":[1,3,5,7,9,11,13,-1,-1,-1,-1,-1,-1,-1,-1],"loss_changes":[1.4006748E1,4.548498E0,7.391705E0,4.097061E0,8.729368E0,7.914888E0,9.226825E0,0E0,0E0,0E0,0E0,0E0,0E0,0E0,0E0],"parents":[2147483647,0,0,1,1,2,2,3,3,4,4,5,5,6,6],"right_children":[2,4,6,8,10,12,14,-1,-1,-1,-1,-1,-1,-1,-1],"split_conditions":[-5.5E0,2.66E1,8.08E0,1.84E1,4.35E1,2.4665672E-1,2.1E1,-2.9181773E-2,-1.0755944E-1,7.786473E-2,-4.6832815E-2,-1.8793615E-3,7.10814E-2,7.7296994E-3,1.10019326E-1],"split_indices":[10,40,56,24,11,43,23,0,0,0,0,0,0,0,0],"split_type":[0,0,0,0,0,0,0,0,0,0,0,0,0,0,0],"sum_hessian":[6.0504736E2,5.904866E1,5.459987E2,2.8666277E1,3.0382383E1,5.090058E2,3.699292E1,1.2558313E1,1.6107964E1,6.269336E0,2.4113047E1,4.9467752E2,1.4328273E1,2.3840818E1,1.3152102E1],"tree_param":{"num_deleted":"0","num_feature":"63","num_nodes":"15","size_leaf_vector":"1"}},{"base_weights":[-1.5526378E-2,8.6319394E-2,-2.4449778E-1,-1.300991E-1,1.9488588E-1,-1.9567266E-1,-9.859969E-1,3.804958E-2,-2.402533E-2,1.4468746E-2,8.190991E-2,-4.213525E-2,-3.1251367E-3,1.772835E-2,-1.2346076E-1],"categories":[],"categories_nodes":[],"categories_segments":[],"categories_sizes":[],"default_left":[0,0,0,0,0,0,0,0,0,0,0,0,0,0,0],"id":21,"left_children":[1,3,5,7,9,11,13,-1,-1,-1,-1,-1,-1,-1,-1],"loss_changes":[1.384098E1,9.680193E0,6.421755E0,7.845989E0,8.468534E0,6.393924E0,3.4116297E0,0E0,0E0,0E0,0E0,0E0,0E0,0E0,0E0],"parents":[2147483647,0,0,1,1,2,2,3,3,4,4,5,5,6,6],"right_children":[2,4,6,8,10,12,14,-1,-1,-1,-1,-1,-1,-1,-1],"split_conditions":[6E0,5.023474E-1,2.875E1,-1.189674E-1,2.467741E-1,2E1,2.1923077E1,3.804958E-2,-2.402533E-2,1.4468746E-2,8.190991E-2,-4.213525E-2,-3.1251367E-3,1.772835E-2,-1.2346076E-1],"split_indices":[48,55,35,1,17,15,40,0,0,0,0,0,0,0,0],"split_type":[0,0,0,0,0,0,0,0,0,0,0,0,0,0,0],"sum_hessian":[5.916249E2,4.0991772E2,1.8170712E2,1.368734E2,2.7304434E2,1.7166733E2,1.00398035E1,2.3853178E1,1.1302022E2,2.5386096E2,1.918338E1,7.169636E1,9.997097E1,1.8183622E0,8.221441E0],"tree_param":{"num_deleted":"0","num_feature":"63","num_nodes":"15","size_leaf_vector":"1"}},{"base_weights":[1.0424077E-2,-1.1308003E-1,1.8233846E-1,-3.8533705E-1,-4.619369E-2,2.9724237E-1,-1.9611801E-1,8.66971E-3,-6.46882E-2,2.653282E-3,-4.5899954E-2,-6.672144E-2,3.8381577E-2,1.07791565E-1,-3.1858362E-2],"categories":[],"categories_nodes":[],"categories_segments":[],"categories_sizes":[],"default_left":[0,0,0,0,0,0,0,0,0,0,0,0,0,0,0],"id":22,"left_children":[1,3,5,7,9,11,13,-1,-1,-1,-1,-1,-1,-1,-1],"loss_changes":[1.2425801E1,6.1850066E0,1.0696884E1,8.332918E0,8.2555895E0,1.595867E1,9.327349E0,0E0,0E0,0E0,0E0,0E0,0E0,0E0,0E0],"parents":[2147483647,0,0,1,1,2,2,3,3,4,4,5,5,6,6],"right_children":[2,4,6,8,10,12,14,-1,-1,-1,-1,-1,-1,-1,-1],"split_conditions":[3.5E0,-5E0,2.6967963E-2,-1.10587545E-1,2.8E1,-9.530052E-2,3E0,8.66971E-3,-6.46882E-2,2.653282E-3,-4.5899954E-2,-6.672144E-2,3.8381577E-2,1.07791565E-1,-3.1858362E-2],"split_indices":[10,10,53,52,13,31,62,0,0,0,0,0,0,0,0],"split_type":[0,0,0,0,0,0,0,0,0,0,0,0,0,0,0],"sum_hessian":[5.832645E2,3.3962125E2,2.436433E2,6.604161E1,2.7357965E2,1.8706325E2,5.6580048E1,2.3784342E1,4.2257263E1,2.333965E2,4.0183147E1,1.4855957E1,1.7220729E2,4.277595E0,5.2302452E1],"tree_param":{"num_deleted":"0","num_feature":"63","num_nodes":"15","size_leaf_vector":"1"}},{"base_weights":[2.1346629E-2,-9.005552E-1,4.8719414E-2,-1.0992744E0,1.7231849E-1,-1.1512975E-1,1.6548476E-1,-1.22995794E-1,2.382756E-2,-8.6725354E-2,1.0313147E-1,1.4856647E-1,-1.3306915E-2,1.2956984E-2,7.243491E-2],"categories":[],"categories_nodes":[],"categories_segments":[],"categories_sizes":[],"default_left":[0,0,0,0,0,0,0,0,0,0,0,0,0,0,0],"id":23,"left_children":[1,3,5,7,9,11,13,-1,-1,-1,-1,-1,-1,-1,-1],"loss_changes":[1.5174105E1,3.8863869E0,1.1177399E1,2.874092E0,4.086269E0,7.1839266E0,6.749669E0,0E0,0E0,0E0,0E0,0E0,0E0,0E0,0E0],"parents":[2147483647,0,0,1,1,2,2,3,3,4,4,5,5,6,6],"right_children":[2,4,6,8,10,12,14,-1,-1,-1,-1,-1,-1,-1,-1],"split_conditions":[3.6607143E-1,2.5818182E1,1.5E0,6E0,1.9125684E-1,-3.5645747E-1,1E1,-1.22995794E-1,2.382756E-2,-8.6725354E-2,1.0313147E-1,1.4856647E-1,-1.3306915E-2,1.2956984E-2,7.243491E-2],"split_indices":[55,42,10,3,30,1,50,0,0,0,0,0,0,0,0],"split_type":[0,0,0,0,0,0,0,0,0,0,0,0,0,0,0],"sum_hessian":[5.985727E2,1.6340288E1,5.822324E2,1.3765934E1,2.5743546E0,2.4227615E2,3.3995627E2,1.2613945E1,1.1519885E0,1.1604028E0,1.4139521E0,1.7782804E0,2.4049788E2,3.2058597E2,1.937032E1],"tree_param":{"num_deleted":"0","num_feature":"63","num_nodes":"15","size_leaf_vector":"1"}},{"base_weights":[-9.51435E-3,-4.6471372E-2,3.370337E-1,5.4787945E-2,-1.6977647E-1,6.2089366E-1,-1.2713625E-1,3.5177987E-2,-3.1891128E-3,2.1759742E-3,-3.2999553E-2,-6.938856E-2,7.93636E-2,-7.6841146E-2,4.6228345E-2],"categories":[],"categories_nodes":[],"categories_segments":[],"categories_sizes":[],"default_left":[0,0,0,0,0,0,0,0,0,0,0,0,0,0,0],"id":24,"left_children":[1,3,5,7,9,11,13,-1,-1,-1,-1,-1,-1,-1,-1],"loss_changes":[7.641802E0,6.738471E0,7.655417E0,7.64874E0,7.472361E0,8.693232E0,8.916809E0,0E0,0E0,0E0,0E0,0E0,0E0,0E0,0E0],"parents":[2147483647,0,0,1,1,2,2,3,3,4,4,5,5,6,6],"right_children":[2,4,6,8,10,12,14,-1,-1,-1,-1,-1,-1,-1,-1],"split_conditions":[9.5E0,2.15E1,1.9878428E-1,-1.8819459E-1,9.534736E-3,1.7375E1,1.8973996E-1,3.5177987E-2,-3.1891128E-3,2.1759742E-3,-3.2999553E-2,-6.938856E-2,7.93636E-2,-7.6841146E-2,4.6228345E-2],"split_indices":[10,13,30,28,51,36,25,0,0,0,0,0,0,0,0],"split_type":[0,0,0,0,0,0,0,0,0,0,0,0,0,0,0],"sum_hessian":[5.9444867E2,5.379462E2,5.650245E1,2.9568365E2,2.4226256E2,3.485157E1,2.165088E1,6.610999E1,2.2957367E2,1.1074044E2,1.3152211E2,3.6968865E0,3.1154682E1,1.0223869E1,1.14270115E1],"tree_param":{"num_deleted":"0","num_feature":"63","num_nodes":"15","size_leaf_vector":"1"}},{"base_weights":[2.1381678E-2,-3.393384E-3,7.31179E-1,-3.2000545E-1,3.930889E-2,1.0565612E0,2.3687942E-1,5.9870374E-3,-5.6562968E-2,1.2476715E-2,-1.7150005E-2,5.5711283E-3,1.1949867E-1,-4.421892E-2,9.901649E-2],"categories":[],"categories_nodes":[],"categories_segments":[],"categories_sizes":[],"default_left":[0,0,0,0,0,0,0,0,0,0,0,0,0,0,0],"id":25,"left_children":[1,3,5,7,9,11,13,-1,-1,-1,-1,-1,-1,-1,-1],"loss_changes":[1.0488297E1,7.815926E0,2.9850407E0,6.4442472E0,9.1996155E0,1.5739822E0,5.1818495E0,0E0,0E0,0E0,0E0,0E0,0E0,0E0,0E0],"parents":[2147483647,0,0,1,1,2,2,3,3,4,4,5,5,6,6],"right_children":[2,4,6,8,10,12,14,-1,-1,-1,-1,-1,-1,-1,-1],"split_conditions":[2.4665672E-1,-5E0,2.8192757E-3,-1.12E1,2.1607299E-1,2.4431819E-1,5.5062726E-2,5.9870374E-3,-5.6562968E-2,1.2476715E-2,-1.7150005E-2,5.5711283E-3,1.1949867E-1,-4.421892E-2,9.901649E-2],"split_indices":[43,10,27,4,43,29,6,0,0,0,0,0,0,0,0],"split_type":[0,0,0,0,0,0,0,0,0,0,0,0,0,0,0],"sum_hessian":[5.9528394E2,5.7616833E2,1.91156E1,6.770227E1,5.0846606E2,1.084149E1,8.274111E0,2.6882607E1,4.081966E1,3.6208945E2,1.463766E2,1.4876775E0,9.353812E0,4.5686073E0,3.705503E0],"tree_param":{"num_deleted":"0","num_feature":"63","num_nodes":"15","size_leaf_vector":"1"}},{"base_weights":[-2.4128387E-2,-4.9694635E-2,6.159998E-1,-5.921963E-2,1.26781E-1,-9.0741046E-2,8.246219E-1,-7.4385935E-3,7.382983E-2,1.0829073E-1,-1.8523879E-3],"categories":[],"categories_nodes":[],"categories_segments":[],"categories_sizes":[],"default_left":[0,0,0,0,0,0,0,0,0,0,0],"id":26,"left_children":[1,3,5,7,-1,-1,9,-1,-1,-1,-1],"loss_changes":[9.600495E0,7.1430655E0,7.9094276E0,6.8299603E0,0E0,0E0,4.450032E0,0E0,0E0,0E0,0E0],"parents":[2147483647,0,0,1,1,2,2,3,3,6,6],"right_children":[2,4,6,8,-1,-1,10,-1,-1,-1,-1],"split_conditions":[1E1,5.7E1,1.611111E1,6.390162E-2,1.26781E-1,-9.0741046E-2,-3.449482E-2,-7.4385935E-3,7.382983E-2,1.0829073E-1,-1.8523879E-3],"split_indices":[50,11,33,7,0,0,27,0,0,0,0],"split_type":[0,0,0,0,0,0,0,0,0,0,0],"sum_hessian":[5.837533E2,5.62221E2,2.1532326E1,5.591337E2,3.0872462E0,2.1901038E0,1.9342222E1,5.49589E2,9.544741E0,1.4588792E1,4.75343E0],"tree_param":{"num_deleted":"0","num_feature":"63","num_nodes":"11","size_leaf_vector":"1"}},{"base_weights":[-2.1208443E-3,-1.8914704E-1,6.286856E-2,-1.1174032E-1,-9.032924E-1,3.8832068E-1,2.2817846E-2,1.6211605E-2,-2.8757846E-2,-1.1608305E-1,3.2645386E-2,-8.200632E-2,4.989693E-2,6.3535735E-2,-4.9003545E-4],"categories":[],"categories_nodes":[],"categories_segments":[],"categories_sizes":[],"default_left":[0,0,0,0,0,0,0,0,0,0,0,0,0,0,0],"id":27,"left_children":[1,3,5,7,9,11,13,-1,-1,-1,-1,-1,-1,-1,-1],"loss_changes":[7.1338005E0,8.265651E0,5.6688433E0,6.6770315E0,5.0217237E0,6.782676E0,6.606381E0,0E0,0E0,0E0,0E0,0E0,0E0,0E0,0E0],"parents":[2147483647,0,0,1,1,2,2,3,3,4,4,5,5,6,6],"right_children":[2,4,6,8,10,12,14,-1,-1,-1,-1,-1,-1,-1,-1],"split_conditions":[-2.5E0,1.8382914E-2,-7.4E0,-6.763972E-2,7.036457E-2,-6.622554E-2,-1.12514414E-1,1.6211605E-2,-2.8757846E-2,-1.1608305E-1,3.2645386E-2,-8.200632E-2,4.989693E-2,6.3535735E-2,-4.9003545E-4],"split_indices":[10,6,4,51,54,6,2,0,0,0,0,0,0,0,0],"split_type":[0,0,0,0,0,0,0,0,0,0,0,0,0,0,0],"sum_hessian":[5.849376E2,1.5035017E2,4.3458746E2,1.3669066E2,1.365953E1,4.666795E1,3.8791953E2,5.3478867E1,8.3211784E1,1.1340583E1,2.3189466E0,3.376967E0,4.329098E1,1.5844857E1,3.7207465E2],"tree_param":{"num_deleted":"0","num_feature":"63","num_nodes":"15","size_leaf_vector":"1"}},{"base_weights":[2.3318376E-2,-2.3750348E-2,3.8571262E-1,-8.457042E-2,1.9888079E-1,-3.9183915E-1,5.147207E-1,-1.3420561E-3,-4.154058E-2,-7.388132E-2,2.9326165E-2,-1.4233421E-1,7.781148E-3,9.00711E-2,2.7802518E-2],"categories":[],"categories_nodes":[],"categories_segments":[],"categories_sizes":[],"default_left":[0,0,0,0,0,0,0,0,0,0,0,0,0,0,0],"id":28,"left_children":[1,3,5,7,9,11,13,-1,-1,-1,-1,-1,-1,-1,-1],"loss_changes":[1.0115618E1,7.1300063E0,7.039528E0,9.723305E0,1.0218807E1,5.085165E0,5.1306753E0,0E0,0E0,0E0,0E0,0E0,0E0,0E0,0E0],"parents":[2147483647,0,0,1,1,2,2,3,3,4,4,5,5,6,6],"right_children":[2,4,6,8,10,12,14,-1,-1,-1,-1,-1,-1,-1,-1],"split_conditions":[2.652252E-1,2.5666666E1,-1.8E0,2.2398281E-1,-1.460873E-1,5.847307E-3,3.1340617E-1,-1.3420561E-3,-4.154058E-2,-7.388132E-2,2.9326165E-2,-1.4233421E-1,7.781148E-3,9.00711E-2,2.7802518E-2],"split_indices":[25,42,4,17,53,53,25,0,0,0,0,0,0,0,0],"split_type":[0,0,0,0,0,0,0,0,0,0,0,0,0,0,0],"sum_hessian":[5.914957E2,5.243289E2,6.716677E1,4.1231085E2,1.1201809E2,9.268252E0,5.7898518E1,3.401898E2,7.212106E1,9.619391E0,1.023987E2,2.264358E0,7.003894E0,2.0942032E1,3.6956486E1],"tree_param":{"num_deleted":"0","num_feature":"63","num_nodes":"15","size_leaf_vector":"1"}},{"base_weights":[1.9902337E-2,-4.3551303E-2,2.3780224E-1,9.296722E-3,-3.5185325E-1,3.349509E-1,-2.038997E-1,-6.2486686E-2,3.408343E-3,-6.454116E-3,-9.1954164E-2,5.2259482E-2,1.2065469E-2,-1.06342115E-1,4.0559385E-2],"categories":[],"categories_nodes":[],"categories_segments":[],"categories_sizes":[],"default_left":[0,0,0,0,0,0,0,0,0,0,0,0,0,0,0],"id":29,"left_children":[1,3,5,7,9,11,13,-1,-1,-1,-1,-1,-1,-1,-1],"loss_changes":[8.173303E0,7.466815E0,5.788457E0,6.1834087E0,1.0877997E1,4.34608E0,1.3347263E1,0E0,0E0,0E0,0E0,0E0,0E0,0E0,0E0],"parents":[2147483647,0,0,1,1,2,2,3,3,4,4,5,5,6,6],"right_children":[2,4,6,8,10,12,14,-1,-1,-1,-1,-1,-1,-1,-1],"split_conditions":[6.5E0,1.6544117E-1,2.3416036E-1,3.6607143E-1,1.0072216E-2,2.425E1,4.496552E1,-6.2486686E-2,3.408343E-3,-6.454116E-3,-9.1954164E-2,5.2259482E-2,1.2065469E-2,-1.06342115E-1,4.0559385E-2],"split_indices":[10,9,43,55,53,21,57,0,0,0,0,0,0,0,0],"split_type":[0,0,0,0,0,0,0,0,0,0,0,0,0,0,0],"sum_hessian":[5.893823E2,4.5707864E2,1.3230367E2,3.9102106E2,6.6057594E1,1.08648926E2,2.3654743E1,1.379777E1,3.772233E2,4.4599224E1,2.145837E1,5.7159645E1,5.148928E1,9.50534E0,1.4149404E1],"tree_param":{"num_deleted":"0","num_feature":"63","num_nodes":"15","size_leaf_vector":"1"}},{"base_weights":[-5.9372033E-3,-2.6646437E-2,5.376531E-1,-4.617356E-2,4.731866E-1,6.297324E-1,-5.9611984E-2,-3.7695285E-2,-1.5791117E-3,-1.19700626E-1,6.817842E-2,1.1223664E-1,3.8212873E-2],"categories":[],"categories_nodes":[],"categories_segments":[],"categories_sizes":[],"default_left":[0,0,0,0,0,0,0,0,0,0,0,0,0],"id":30,"left_children":[1,3,5,7,9,11,-1,-1,-1,-1,-1,-1,-1],"loss_changes":[6.5952873E0,5.5275526E0,2.6200557E0,5.4591117E0,8.236237E0,2.0561008E0,0E0,0E0,0E0,0E0,0E0,0E0,0E0],"parents":[2147483647,0,0,1,1,2,2,3,3,4,4,5,5],"right_children":[2,4,6,8,10,12,-1,-1,-1,-1,-1,-1,-1],"split_conditions":[2.4494016E-1,1E1,3.95E1,3.8E1,-2.1382272E-1,2.7448889E-2,-5.9611984E-2,-3.7695285E-2,-1.5791117E-3,-1.19700626E-1,6.817842E-2,1.1223664E-1,3.8212873E-2],"split_indices":[43,50,22,11,8,7,0,0,0,0,0,0,0],"split_type":[0,0,0,0,0,0,0,0,0,0,0,0,0],"sum_hessian":[5.8359283E2,5.630916E2,2.0501198E1,5.4279376E2,2.029786E1,1.9372437E1,1.1287615E0,4.4702496E1,4.9809128E2,1.7275354E0,1.8570324E1,5.298194E0,1.4074243E1],"tree_param":{"num_deleted":"0","num_feature":"63","num_nodes":"13","size_leaf_vector":"1"}},{"base_weights":[-1.2947002E-2,-2.9761363E-2,1.0144951E0,-9.603125E-2,1.5402061E-1,1.1167522E-1,8.851617E-3,-2.600563E-2,1.4501817E-3,3.164036E-2,-8.699814E-3],"categories":[],"categories_nodes":[],"categories_segments":[],"categories_sizes":[],"default_left":[0,0,0,0,0,0,0,0,0,0,0],"id":31,"left_children":[1,3,5,7,9,-1,-1,-1,-1,-1,-1],"loss_changes":[1.0100985E1,7.012085E0,7.926254E-1,7.670662E0,6.0017633E0,0E0,0E0,0E0,0E0,0E0,0E0],"parents":[2147483647,0,0,1,1,2,2,3,3,4,4],"right_children":[2,4,6,8,10,-1,-1,-1,-1,-1,-1],"split_conditions":[7.428503E-2,6.4705884E-1,8E0,2.0666666E1,2.0054033E-2,1.1167522E-1,8.851617E-3,-2.600563E-2,1.4501817E-3,3.164036E-2,-8.699814E-3],"split_indices":[6,55,50,14,53,0,0,0,0,0,0],"split_type":[0,0,0,0,0,0,0,0,0,0,0],"sum_hessian":[5.819427E2,5.735278E2,8.4149E0,4.2187976E2,1.5164803E2,7.3925123E0,1.0223873E0,1.69298E2,2.5258176E2,9.041764E1,6.1230373E1],"tree_param":{"num_deleted":"0","num_feature":"63","num_nodes":"11","size_leaf_vector":"1"}},{"base_weights":[2.3637561E-2,1.06414914E-1,-1.2470675E-1,1.5548962E-1,-2.6693076E-1,-2.9328138E-1,1.0209016E-1,1.9163525E-2,-4.3618884E-2,-5.5174977E-2,3.3924323E-2,2.1010458E-3,-4.6191674E-2,8.212053E-2,-3.4867008E-3],"categories":[],"categories_nodes":[],"categories_segments":[],"categories_sizes":[],"default_left":[0,0,0,0,0,0,0,0,0,0,0,0,0,0,0],"id":32,"left_children":[1,3,5,7,9,11,13,-1,-1,-1,-1,-1,-1,-1,-1],"loss_changes":[7.2770987E0,7.007754E0,8.147512E0,7.2839384E0,7.876948E0,6.4785986E0,9.017622E0,0E0,0E0,0E0,0E0,0E0,0E0,0E0,0E0],"parents":[2147483647,0,0,1,1,2,2,3,3,4,4,5,5,6,6],"right_children":[2,4,6,8,10,12,14,-1,-1,-1,-1,-1,-1,-1,-1],"split_conditions":[2.4E1,2.361512E-1,2.35E1,3.2333332E1,-5.2164283E-2,-1.75575E-2,-1E1,1.9163525E-2,-4.3618884E-2,-5.5174977E-2,3.3924323E-2,2.1010458E-3,-4.6191674E-2,8.212053E-2,-3.4867008E-3],"split_indices":[41,30,42,16,27,7,3,0,0,0,0,0,0,0,0],"split_type":[0,0,0,0,0,0,0,0,0,0,0,0,0,0,0],"sum_hessian":[5.9053864E2,3.7921576E2,2.1132288E2,3.356761E2,4.353968E1,1.21052956E2,9.026992E1,3.1698746E2,1.8688631E1,2.9682663E1,1.3857017E1,4.2576675E1,7.847628E1,1.3642381E1,7.662754E1],"tree_param":{"num_deleted":"0","num_feature":"63","num_nodes":"15","size_leaf_vector":"1"}},{"base_weights":[-2.8273392E-2,-6.245757E-1,-9.914981E-3,-8.047851E-1,7.023639E-2,-4.4755062E-1,1.2238678E-2,5.3927906E-2,-1.0284346E-1,-1.1616047E-1,1.4035545E-2,1.0647188E-2,-1.0527864E-2],"categories":[],"categories_nodes":[],"categories_segments":[],"categories_sizes":[],"default_left":[0,0,0,0,0,0,0,0,0,0,0,0,0],"id":33,"left_children":[1,3,5,7,-1,9,11,-1,-1,-1,-1,-1,-1],"loss_changes":[6.3704205E0,4.7216206E0,5.4940324E0,5.2948103E0,0E0,1.1624739E1,5.9890356E0,0E0,0E0,0E0,0E0,0E0,0E0],"parents":[2147483647,0,0,1,1,2,2,3,3,5,5,6,6],"right_children":[2,4,6,8,-1,10,12,-1,-1,-1,-1,-1,-1],"split_conditions":[3.6607143E-1,2.8571428E1,-1.750953E-1,1.4416667E1,7.023639E-2,1.958936E-1,6.9868355E-3,5.3927906E-2,-1.0284346E-1,-1.1616047E-1,1.4035545E-2,1.0647188E-2,-1.0527864E-2],"split_indices":[55,40,54,40,0,17,53,0,0,0,0,0,0],"split_type":[0,0,0,0,0,0,0,0,0,0,0,0,0],"sum_hessian":[5.814902E2,1.6381426E1,5.6510876E2,1.4769155E1,1.6122708E0,2.630298E1,5.388057E2,1.905632E0,1.2863523E1,1.143659E1,1.486639E1,2.990786E2,2.3972713E2],"tree_param":{"num_deleted":"0","num_feature":"63","num_nodes":"13","size_leaf_vector":"1"}},{"base_weights":[2.9139023E-2,-1.554431E-2,3.9274418E-1,2.1435343E-1,-7.391533E-2,5.0982225E-1,-2.0866641E-1,8.240826E-2,7.3716934E-3,-7.8313835E-2,-5.1334407E-3,6.118969E-2,-7.603476E-2,-1.12897255E-1,4.70778E-2],"categories":[],"categories_nodes":[],"categories_segments":[],"categories_sizes":[],"default_left":[0,0,0,0,0,0,0,0,0,0,0,0,0,0,0],"id":34,"left_children":[1,3,5,7,9,11,13,-1,-1,-1,-1,-1,-1,-1,-1],"loss_changes":[9.579574E0,7.0706325E0,4.649723E0,9.089471E0,6.6862054E0,7.5055056E0,7.5498075E0,0E0,0E0,0E0,0E0,0E0,0E0,0E0,0E0],"parents":[2147483647,0,0,1,1,2,2,3,3,4,4,5,5,6,6],"right_children":[2,4,6,8,10,12,14,-1,-1,-1,-1,-1,-1,-1,-1],"split_conditions":[9E0,-1.189674E-1,2.394414E-1,2.0583765E-1,-4.933571E-2,2.71E1,1.2322582E-1,8.240826E-2,7.3716934E-3,-7.8313835E-2,-5.1334407E-3,6.118969E-2,-7.603476E-2,-1.12897255E-1,4.70778E-2],"split_indices":[10,1,29,30,7,35,1,0,0,0,0,0,0,0,0],"split_type":[0,0,0,0,0,0,0,0,0,0,0,0,0,0,0],"sum_hessian":[5.8824207E2,5.24717E2,6.3525074E1,1.057079E2,4.190091E2,5.3301105E1,1.0223969E1,1.8901375E1,8.6806526E1,1.1889873E1,4.0711923E2,4.9816E1,3.4851048E0,4.061315E0,6.1626544E0],"tree_param":{"num_deleted":"0","num_feature":"63","num_nodes":"15","size_leaf_vector":"1"}},{"base_weights":[1.589364E-2,1.0567021E-1,-1.06574915E-1,-1.7076358E-1,1.9633573E-1,-3.4873623E-2,-5.07189E-1,3.7171082E-3,-5.7670563E-2,-5.634717E-2,2.4426693E-2,-7.814345E-2,1.6191738E-3,-9.050095E-2,2.9565657E-2],"categories":[],"categories_nodes":[],"categories_segments":[],"categories_sizes":[],"default_left":[0,0,0,0,0,0,0,0,0,0,0,0,0,0,0],"id":35,"left_children":[1,3,5,7,9,11,13,-1,-1,-1,-1,-1,-1,-1,-1],"loss_changes":[6.4330378E0,8.492824E0,7.0931425E0,7.10298E0,9.410729E0,8.058435E0,1.2246754E1,0E0,0E0,0E0,0E0,0E0,0E0,0E0,0E0],"parents":[2147483647,0,0,1,1,2,2,3,3,4,4,5,5,6,6],"right_children":[2,4,6,8,10,12,14,-1,-1,-1,-1,-1,-1,-1,-1],"split_conditions":[1.0072216E-2,4.7540984E-1,2.8375E1,4.3333332E1,-1.6925074E-1,1.8666666E1,8.5714287E-1,3.7171082E-3,-5.7670563E-2,-5.634717E-2,2.4426693E-2,-7.814345E-2,1.6191738E-3,-9.050095E-2,2.9565657E-2],"split_indices":[53,55,33,57,52,22,45,0,0,0,0,0,0,0,0],"split_type":[0,0,0,0,0,0,0,0,0,0,0,0,0,0,0],"sum_hessian":[5.8307355E2,3.3652115E2,2.4655241E2,8.289518E1,2.5362596E2,2.1004579E2,3.6506622E1,5.541733E1,2.7477846E1,1.4411909E1,2.3921405E2,1.2531804E1,1.9751399E2,2.4325676E1,1.2180944E1],"tree_param":{"num_deleted":"0","num_feature":"63","num_nodes":"15","size_leaf_vector":"1"}},{"base_weights":[-1.0676189E-2,-6.0621608E-2,1.6979475E-1,4.9759645E-2,-2.521062E-1,2.88342E-1,-3.158183E-1,8.512087E-3,-5.4317188E-2,-1.1924815E-2,-4.9886327E-2,2.0359479E-2,1.2861536E-1,-1.0897759E-1,2.2048973E-4],"categories":[],"categories_nodes":[],"categories_segments":[],"categories_sizes":[],"default_left":[0,0,0,0,0,0,0,0,0,0,0,0,0,0,0],"id":36,"left_children":[1,3,5,7,9,11,13,-1,-1,-1,-1,-1,-1,-1,-1],"loss_changes":[5.1874804E0,9.536663E0,7.2735023E0,6.056788E0,5.3476667E0,8.262474E0,6.145544E0,0E0,0E0,0E0,0E0,0E0,0E0,0E0,0E0],"parents":[2147483647,0,0,1,1,2,2,3,3,4,4,5,5,6,6],"right_children":[2,4,6,8,10,12,14,-1,-1,-1,-1,-1,-1,-1,-1],"split_conditions":[2.5666666E1,2.16E1,5.9524804E-2,3.01E1,3.6347788E-2,2.98E1,2.8924847E-2,8.512087E-3,-5.4317188E-2,-1.1924815E-2,-4.9886327E-2,2.0359479E-2,1.2861536E-1,-1.0897759E-1,2.2048973E-4],"split_indices":[42,24,53,35,2,22,20,0,0,0,0,0,0,0,0],"split_type":[0,0,0,0,0,0,0,0,0,0,0,0,0,0,0],"sum_hessian":[5.733689E2,4.496047E2,1.2376422E2,2.8567026E2,1.6393445E2,9.980595E1,2.3958275E1,2.7040057E2,1.5269694E1,1.0752467E2,5.640977E1,9.31025E1,6.7034435E0,6.2707458E0,1.7687529E1],"tree_param":{"num_deleted":"0","num_feature":"63","num_nodes":"15","size_leaf_vector":"1"}},{"base_weights":[-7.794949E-4,-1.7640712E-2,6.1078036E-1,-3.4450393E-2,5.408765E-1,9.9908525E-1,1.0733471E-1,4.73195E-4,-3.350779E-2,-8.2074754E-2,8.0757506E-2,1.1034363E-1,1.4025782E-2,-8.991143E-2,8.092061E-2],"categories":[],"categories_nodes":[],"categories_segments":[],"categories_sizes":[],"default_left":[0,0,0,0,0,0,0,0,0,0,0,0,0,0,0],"id":37,"left_children":[1,3,5,7,9,11,13,-1,-1,-1,-1,-1,-1,-1,-1],"loss_changes":[6.0527024E0,5.3811865E0,2.9715962E0,6.544214E0,6.7449164E0,6.312895E-1,6.3633857E0,0E0,0E0,0E0,0E0,0E0,0E0,0E0,0E0],"parents":[2147483647,0,0,1,1,2,2,3,3,4,4,5,5,6,6],"right_children":[2,4,6,8,10,12,14,-1,-1,-1,-1,-1,-1,-1,-1],"split_conditions":[1.015894E1,3.325E1,7.945021E-3,2.3549093E-1,2.0739627E-1,2.74E1,2.4875E1,4.73195E-4,-3.350779E-2,-8.2074754E-2,8.0757506E-2,1.1034363E-1,1.4025782E-2,-8.991143E-2,8.092061E-2],"split_indices":[56,33,54,30,29,24,40,0,0,0,0,0,0,0,0],"split_type":[0,0,0,0,0,0,0,0,0,0,0,0,0,0,0],"sum_hessian":[5.849326E2,5.7018335E2,1.4749278E1,5.544349E2,1.5748495E1,7.77103E0,6.978248E0,4.9137558E2,6.305927E1,2.2391458E0,1.350935E1,6.6751547E0,1.0958753E0,2.7515855E0,4.2266626E0],"tree_param":{"num_deleted":"0","num_feature":"63","num_nodes":"15","size_leaf_vector":"1"}},{"base_weights":[-4.520129E-3,-4.121409E-2,3.1529298E-1,-9.176135E-2,1.5545562E-1,-9.193237E-1,4.021957E-1,-2.5351045E-3,-4.1591357E-2,-4.1022774E-2,2.9232388E-2,4.3112334E-2,-1.5229248E-1,1.0003501E-1,1.944721E-2],"categories":[],"categories_nodes":[],"categories_segments":[],"categories_sizes":[],"default_left":[0,0,0,0,0,0,0,0,0,0,0,0,0,0,0],"id":38,"left_children":[1,3,5,7,9,11,13,-1,-1,-1,-1,-1,-1,-1,-1],"loss_changes":[6.8757005E0,5.2382183E0,6.840129E0,9.0022745E0,8.467439E0,4.1372447E0,6.8922815E0,0E0,0E0,0E0,0E0,0E0,0E0,0E0,0E0],"parents":[2147483647,0,0,1,1,2,2,3,3,4,4,5,5,6,6],"right_children":[2,4,6,8,10,12,14,-1,-1,-1,-1,-1,-1,-1,-1],"split_conditions":[7.3391304E0,5.9962414E-2,-1.3865772E-1,2.2105303E-1,1.85E1,4E0,-1.0599531E-2,-2.5351045E-3,-4.1591357E-2,-4.1022774E-2,2.9232388E-2,4.3112334E-2,-1.5229248E-1,1.0003501E-1,1.944721E-2],"split_indices":[56,52,52,17,41,62,7,0,0,0,0,0,0,0,0],"split_type":[0,0,0,0,0,0,0,0,0,0,0,0,0,0,0],"sum_hessian":[5.837962E2,5.244897E2,5.9306526E1,4.1767416E2,1.0681552E2,3.2700822E0,5.603644E1,3.4754874E2,7.0125435E1,2.0420275E1,8.639525E1,1.0983878E0,2.1716945E0,1.3460429E1,4.2576015E1],"tree_param":{"num_deleted":"0","num_feature":"63","num_nodes":"15","size_leaf_vector":"1"}},{"base_weights":[4.358004E-3,5.6501202E-2,-2.3625529E-1,-1.4574005E-1,1.1339399E-1,-4.5169306E-1,1.3271408E-2,-8.919754E-2,-7.59419E-3,-5.1711556E-2,1.3973114E-2,4.6125144E-2,-6.9254875E-2,-8.900686E-2,1.8316703E-2],"categories":[],"categories_nodes":[],"categories_segments":[],"categories_sizes":[],"default_left":[0,0,0,0,0,0,0,0,0,0,0,0,0,0,0],"id":39,"left_children":[1,3,5,7,9,11,13,-1,-1,-1,-1,-1,-1,-1,-1],"loss_changes":[7.2733693E0,5.4979944E0,5.55689E0,5.402869E0,6.2557273E0,1.2510638E1,7.6548905E0,0E0,0E0,0E0,0E0,0E0,0E0,0E0,0E0],"parents":[2147483647,0,0,1,1,2,2,3,3,4,4,5,5,6,6],"right_children":[2,4,6,8,10,12,14,-1,-1,-1,-1,-1,-1,-1,-1],"split_conditions":[2.85E1,1.74E1,2.35E1,-2.1E0,-3.155717E-1,1.7E1,2.9333334E1,-8.919754E-2,-7.59419E-3,-5.1711556E-2,1.3973114E-2,4.6125144E-2,-6.9254875E-2,-8.900686E-2,1.8316703E-2],"split_indices":[15,22,16,5,28,14,15,0,0,0,0,0,0,0,0],"split_type":[0,0,0,0,0,0,0,0,0,0,0,0,0,0,0],"sum_hessian":[5.776561E2,4.7539804E2,1.0225812E2,1.0403061E2,3.7136743E2,5.4442795E1,4.7815323E1,7.8905663E0,9.6140045E1,1.4143304E1,3.5722412E2,1.1173912E1,4.3268883E1,6.898243E0,4.091708E1],"tree_param":{"num_deleted":"0","num_feature":"63","num_nodes":"15","size_leaf_vector":"1"}},{"base_weights":[-1.1031322E-2,9.296339E-3,-5.5486053E-1,-2.8167946E-2,3.8745466E-1,-7.4971604E-1,6.2258327E-1,5.818793E-3,-1.6169457E-2,6.460125E-2,-3.4149367E-2,-9.595396E-2,6.759458E-2,1.1430234E-1,-3.346689E-2],"categories":[],"categories_nodes":[],"categories_segments":[],"categories_sizes":[],"default_left":[0,0,0,0,0,0,0,0,0,0,0,0,0,0,0],"id":40,"left_children":[1,3,5,7,9,11,13,-1,-1,-1,-1,-1,-1,-1,-1],"loss_changes":[6.4676056E0,8.008486E0,5.303215E0,5.9426055E0,9.823851E0,6.1947956E0,2.145905E0,0E0,0E0,0E0,0E0,0E0,0E0,0E0,0E0],"parents":[2147483647,0,0,1,1,2,2,3,3,4,4,5,5,6,6],"right_children":[2,4,6,8,10,12,14,-1,-1,-1,-1,-1,-1,-1,-1],"split_conditions":[8.943021E-2,1.1232323E-1,2.8222221E1,2.2333334E1,8.1512146E-2,4.884E1,5.555556E-1,5.818793E-3,-1.6169457E-2,6.460125E-2,-3.4149367E-2,-9.595396E-2,6.759458E-2,1.1430234E-1,-3.346689E-2],"split_indices":[27,52,42,13,53,57,12,0,0,0,0,0,0,0,0],"split_type":[0,0,0,0,0,0,0,0,0,0,0,0,0,0,0],"sum_hessian":[5.8358417E2,5.6350397E2,2.0080175E1,5.1355176E2,4.9952248E1,1.7540638E1,2.5395374E0,3.1220386E2,2.0134787E2,3.6957283E1,1.29949665E1,1.5575278E1,1.9653591E0,1.5194007E0,1.0201367E0],"tree_param":{"num_deleted":"0","num_feature":"63","num_nodes":"15","size_leaf_vector":"1"}},{"base_weights":[1.3172049E-3,-3.218232E-2,3.0339873E-1,-4.870779E-2,6.322047E-1,-1.282481E0,3.9572877E-1,1.8020918E-3,-2.0904087E-2,-7.503847E-2,8.2983784E-2,-4.0994983E-2,-1.5392491E-1,1.16983294E-1,2.3539318E-2],"categories":[],"categories_nodes":[],"categories_segments":[],"categories_sizes":[],"default_left":[0,0,0,0,0,0,0,0,0,0,0,0,0,0,0],"id":41,"left_children":[1,3,5,7,9,11,13,-1,-1,-1,-1,-1,-1,-1,-1],"loss_changes":[5.8751287E0,5.769128E0,8.993574E0,5.469728E0,4.108226E0,1.3616514E-1,6.616929E0,0E0,0E0,0E0,0E0,0E0,0E0,0E0,0E0],"parents":[2147483647,0,0,1,1,2,2,3,3,4,4,5,5,6,6],"right_children":[2,4,6,8,10,12,14,-1,-1,-1,-1,-1,-1,-1,-1],"split_conditions":[1.1232323E-1,7.549669E-1,1.9213048E-1,4.65E1,1.7177296E-1,1.8454519E-1,-9.090909E-2,1.8020918E-3,-2.0904087E-2,-7.503847E-2,8.2983784E-2,-4.0994983E-2,-1.5392491E-1,1.16983294E-1,2.3539318E-2],"split_indices":[52,55,29,11,17,17,9,0,0,0,0,0,0,0,0],"split_type":[0,0,0,0,0,0,0,0,0,0,0,0,0,0,0],"sum_hessian":[5.786051E2,5.216499E2,5.695524E1,5.0989386E2,1.1756034E1,2.4243276E0,5.453091E1,3.6067346E2,1.4922038E2,1.1204942E0,1.063554E1,1.1415999E0,1.2827276E0,8.276349E0,4.6254562E1],"tree_param":{"num_deleted":"0","num_feature":"63","num_nodes":"15","size_leaf_vector":"1"}},{"base_weights":[1.2768433E-2,-1.094199E0,2.3548651E-2,-3.948243E-3,-1.3154106E-1,7.265361E-2,-1.5996471E-1,-5.7385083E-2,8.740012E-3,-3.9732795E-2,1.2344784E-2],"categories":[],"categories_nodes":[],"categories_segments":[],"categories_sizes":[],"default_left":[0,0,0,0,0,0,0,0,0,0,0],"id":42,"left_children":[1,3,5,-1,-1,7,9,-1,-1,-1,-1],"loss_changes":[6.9441214E0,1.2575521E0,5.1944213E0,0E0,0E0,4.382406E0,8.237487E0,0E0,0E0,0E0,0E0],"parents":[2147483647,0,0,1,1,2,2,5,5,6,6],"right_children":[2,4,6,-1,-1,8,10,-1,-1,-1,-1],"split_conditions":[-8.126267E-2,2.2333334E1,2.7E1,-3.948243E-3,-1.3154106E-1,-2.0480621E-1,2.35E1,-5.7385083E-2,8.740012E-3,-3.9732795E-2,1.2344784E-2],"split_indices":[7,14,23,0,0,54,42,0,0,0,0],"split_type":[0,0,0,0,0,0,0,0,0,0,0],"sum_hessian":[5.787496E2,4.6125154E0,5.741371E2,1.0040038E0,3.6085117E0,4.5341522E2,1.20721855E2,9.266057E0,4.4414917E2,6.547957E1,5.5242287E1],"tree_param":{"num_deleted":"0","num_feature":"63","num_nodes":"11","size_leaf_vector":"1"}},{"base_weights":[-2.344107E-2,-3.2260478E-1,3.4790586E-3,-5.349662E-1,3.1430644E-1,2.8250534E-2,-4.2862877E-1,-4.005873E-3,-9.632649E-2,5.8753856E-2,-1.3440238E-1,1.0501126E-1,2.0045657E-3,-1.0087798E-1,-5.5243303E-3],"categories":[],"categories_nodes":[],"categories_segments":[],"categories_sizes":[],"default_left":[0,0,0,0,0,0,0,0,0,0,0,0,0,0,0],"id":43,"left_children":[1,3,5,7,9,11,13,-1,-1,-1,-1,-1,-1,-1,-1],"loss_changes":[4.6210756E0,6.5750985E0,5.6561584E0,7.5699444E0,6.4420457E0,4.168024E0,6.150589E0,0E0,0E0,0E0,0E0,0E0,0E0,0E0,0E0],"parents":[2147483647,0,0,1,1,2,2,3,3,4,4,5,5,6,6],"right_children":[2,4,6,8,10,12,14,-1,-1,-1,-1,-1,-1,-1,-1],"split_conditions":[4.3103448E-1,2.8E0,3.04E1,2.857143E-1,7E-1,-3.2113007E-1,1.925E1,-4.005873E-3,-9.632649E-2,5.8753856E-2,-1.3440238E-1,1.0501126E-1,2.0045657E-3,-1.0087798E-1,-5.5243303E-3],"split_indices":[55,4,35,45,45,1,33,0,0,0,0,0,0,0,0],"split_type":[0,0,0,0,0,0,0,0,0,0,0,0,0,0,0],"sum_hessian":[5.72656E2,4.636933E1,5.262867E2,3.4894676E1,1.1474655E1,4.9863596E2,2.7650717E1,1.669584E1,1.8198835E1,1.0405855E1,1.0687995E0,2.9603307E0,4.9567563E2,1.0161102E1,1.7489614E1],"tree_param":{"num_deleted":"0","num_feature":"63","num_nodes":"15","size_leaf_vector":"1"}},{"base_weights":[-1.4152812E-2,-4.5783274E-2,2.4524853E-1,-5.988605E-2,6.0697216E-1,6.165001E-1,2.7658451E-2,-3.2365348E-3,-6.1435897E-2,-2.7369846E-2,9.197896E-2,-3.3623867E-2,7.4367665E-2,-1.2214208E-2,1.05758704E-1],"categories":[],"categories_nodes":[],"categories_segments":[],"categories_sizes":[],"default_left":[0,0,0,0,0,0,0,0,0,0,0,0,0,0,0],"id":44,"left_children":[1,3,5,7,9,11,13,-1,-1,-1,-1,-1,-1,-1,-1],"loss_changes":[4.708686E0,4.741663E0,5.0220633E0,7.6286755E0,3.2543788E0,3.037344E0,6.3585863E0,0E0,0E0,0E0,0E0,0E0,0E0,0E0,0E0],"parents":[2147483647,0,0,1,1,2,2,3,3,4,4,5,5,6,6],"right_children":[2,4,6,8,10,12,14,-1,-1,-1,-1,-1,-1,-1,-1],"split_conditions":[7.3391304E0,2.4665672E-1,-2.2405814E-2,2.3458472E-1,1.98E1,-1.2969874E-1,3.075E1,-3.2365348E-3,-6.1435897E-2,-2.7369846E-2,9.197896E-2,-3.3623867E-2,7.4367665E-2,-1.2214208E-2,1.05758704E-1],"split_indices":[56,43,53,43,23,52,34,0,0,0,0,0,0,0,0],"split_type":[0,0,0,0,0,0,0,0,0,0,0,0,0,0,0],"sum_hessian":[5.715127E2,5.1013248E2,6.1380203E1,5.0023322E2,9.899279E0,2.20039E1,3.9376305E1,4.7758704E2,2.2646177E1,2.6274133E0,7.2718654E0,2.3977056E0,1.9606195E1,3.5145836E1,4.230467E0],"tree_param":{"num_deleted":"0","num_feature":"63","num_nodes":"15","size_leaf_vector":"1"}},{"base_weights":[-4.335405E-2,-2.911211E-1,-9.981681E-3,9.997498E-2,-5.0040746E-1,-4.739998E-2,2.704885E-1,-7.228019E-2,3.624839E-2,7.31894E-2,-6.039374E-2,2.2646904E-3,-2.3945494E-2,-1.2338594E-1,3.5187967E-2],"categories":[],"categories_nodes":[],"categories_segments":[],"categories_sizes":[],"default_left":[0,0,0,0,0,0,0,0,0,0,0,0,0,0,0],"id":45,"left_children":[1,3,5,7,9,11,13,-1,-1,-1,-1,-1,-1,-1,-1],"loss_changes":[4.792342E0,5.681814E0,5.387494E0,5.622395E0,6.181472E0,6.095525E0,7.833443E0,0E0,0E0,0E0,0E0,0E0,0E0,0E0,0E0],"parents":[2147483647,0,0,1,1,2,2,3,3,4,4,5,5,6,6],"right_children":[2,4,6,8,10,12,14,-1,-1,-1,-1,-1,-1,-1,-1],"split_conditions":[-4.5E0,-1.1302838E-1,1.2226957E-2,-1E1,-1.4755784E-1,6E0,1.675E1,-7.228019E-2,3.624839E-2,7.31894E-2,-6.039374E-2,2.2646904E-3,-2.3945494E-2,-1.2338594E-1,3.5187967E-2],"split_indices":[10,52,28,10,19,48,34,0,0,0,0,0,0,0,0],"split_type":[0,0,0,0,0,0,0,0,0,0,0,0,0,0,0],"sum_hessian":[5.789366E2,6.7805275E1,5.111313E2,2.3818203E1,4.3987072E1,4.5169977E2,5.9431515E1,5.337025E0,1.8481178E1,2.9387045E0,4.1048367E1,3.3162906E2,1.2007071E2,2.323669E0,5.710785E1],"tree_param":{"num_deleted":"0","num_feature":"63","num_nodes":"15","size_leaf_vector":"1"}},{"base_weights":[-2.4478745E-2,-2.1968983E-1,4.3939654E-2,4.354573E-1,-3.6690632E-1,-2.8965673E-1,8.738363E-2,6.925398E-2,-5.7703342E-2,-1.0859352E-2,-8.461345E-2,-7.4794225E-2,1.9845078E-2,1.1391017E-2,-5.867064E-2],"categories":[],"categories_nodes":[],"categories_segments":[],"categories_sizes":[],"default_left":[0,0,0,0,0,0,0,0,0,0,0,0,0,0,0],"id":46,"left_children":[1,3,5,7,9,11,13,-1,-1,-1,-1,-1,-1,-1,-1],"loss_changes":[7.6786704E0,1.4548484E1,6.1994166E0,7.6434937E0,1.5054646E1,1.1180628E1,6.8204975E0,0E0,0E0,0E0,0E0,0E0,0E0,0E0,0E0],"parents":[2147483647,0,0,1,1,2,2,3,3,4,4,5,5,6,6],"right_children":[2,4,6,8,10,12,14,-1,-1,-1,-1,-1,-1,-1,-1],"split_conditions":[1.82E1,-5.428198E-2,-1.2645833E-1,4.5E1,1.6846153E1,1.7460715E-2,3.55E1,6.925398E-2,-5.7703342E-2,-1.0859352E-2,-8.461345E-2,-7.4794225E-2,1.9845078E-2,1.1391017E-2,-5.867064E-2],"split_indices":[23,20,26,11,41,7,15,0,0,0,0,0,0,0,0],"split_type":[0,0,0,0,0,0,0,0,0,0,0,0,0,0,0],"sum_hessian":[5.731988E2,1.4818552E2,4.250133E2,2.682962E1,1.213559E2,4.8318577E1,3.7669473E2,2.1648764E1,5.180856E0,7.9649796E1,4.170611E1,2.4646025E1,2.367255E1,3.6323196E2,1.3462756E1],"tree_param":{"num_deleted":"0","num_feature":"63","num_nodes":"15","size_leaf_vector":"1"}},{"base_weights":[1.739265E-2,-1.3874707E-1,6.687501E-2,-4.830231E-2,-7.9678804E-1,5.752381E-1,3.8073085E-2,-1.47291515E-2,4.7657907E-2,-1.1127951E-1,9.35294E-3,-2.2580909E-2,8.8285886E-2,3.1480636E-2,-3.5653617E-3],"categories":[],"categories_nodes":[],"categories_segments":[],"categories_sizes":[],"default_left":[0,0,0,0,0,0,0,0,0,0,0,0,0,0,0],"id":47,"left_children":[1,3,5,7,9,11,13,-1,-1,-1,-1,-1,-1,-1,-1],"loss_changes":[4.490716E0,8.288374E0,6.4369836E0,6.516426E0,4.842412E0,6.010293E0,8.550618E0,0E0,0E0,0E0,0E0,0E0,0E0,0E0,0E0],"parents":[2147483647,0,0,1,1,2,2,3,3,4,4,5,5,6,6],"right_children":[2,4,6,8,10,12,14,-1,-1,-1,-1,-1,-1,-1,-1],"split_conditions":[1.7666666E1,8.540028E-2,1.32E1,2.3833731E-2,2.5194006E-2,2.1428572E-1,1.65E1,-1.47291515E-2,4.7657907E-2,-1.1127951E-1,9.35294E-3,-2.2580909E-2,8.8285886E-2,3.1480636E-2,-3.5653617E-3],"split_indices":[23,54,24,7,28,45,13,0,0,0,0,0,0,0,0],"split_type":[0,0,0,0,0,0,0,0,0,0,0,0,0,0,0],"sum_hessian":[5.7903406E2,1.3890877E2,4.401253E2,1.2306715E2,1.58416195E1,2.2581553E1,4.1754376E2,1.04145386E2,1.8921757E1,1.1507345E1,4.334274E0,6.3394685E0,1.6242085E1,8.715131E1,3.3039246E2],"tree_param":{"num_deleted":"0","num_feature":"63","num_nodes":"15","size_leaf_vector":"1"}},{"base_weights":[1.1959007E-2,-3.128415E-3,4.8112097E-1,2.2798903E-1,-4.1776206E-2,7.866134E-1,-2.0587476E-1,-1.549103E-4,5.977868E-2,-1.3970661E-2,6.2590055E-3,-2.2820685E-2,9.097933E-2,9.048796E-2,-8.8231206E-2],"categories":[],"categories_nodes":[],"categories_segments":[],"categories_sizes":[],"default_left":[0,0,0,0,0,0,0,0,0,0,0,0,0,0,0],"id":48,"left_children":[1,3,5,7,9,11,13,-1,-1,-1,-1,-1,-1,-1,-1],"loss_changes":[4.0893917E0,5.016121E0,3.9395556E0,6.8302803E0,4.9254394E0,1.7910237E0,5.5566664E0,0E0,0E0,0E0,0E0,0E0,0E0,0E0,0E0],"parents":[2147483647,0,0,1,1,2,2,3,3,4,4,5,5,6,6],"right_children":[2,4,6,8,10,12,14,-1,-1,-1,-1,-1,-1,-1,-1],"split_conditions":[7.549669E-1,-1.031029E-1,8E0,1.8333334E1,7.226502E-2,1.7177296E-1,2.0991027E-1,-1.549103E-4,5.977868E-2,-1.3970661E-2,6.2590055E-3,-2.2820685E-2,9.097933E-2,9.048796E-2,-8.8231206E-2],"split_indices":[55,51,48,33,25,17,25,0,0,0,0,0,0,0,0],"split_type":[0,0,0,0,0,0,0,0,0,0,0,0,0,0,0],"sum_hessian":[5.7651196E2,5.595123E2,1.6999598E1,7.94564E1,4.8005594E2,1.1666672E1,5.3329263E0,4.9640022E1,2.981638E1,2.474895E2,2.3256644E2,1.1705381E0,1.0496134E1,1.8906468E0,3.4422796E0],"tree_param":{"num_deleted":"0","num_feature":"63","num_nodes":"15","size_leaf_vector":"1"}},{"base_weights":[-5.038878E-3,-1.5775174E-1,5.0935622E-2,-1.0378693E-1,-7.5348574E-1,-4.275233E-1,8.181004E-2,-5.1325923E-3,-7.735222E-2,-1.3366963E-1,3.8948223E-2,2.5834281E-2,-7.500753E-2,5.1317304E-2,3.8315977E-3],"categories":[],"categories_nodes":[],"categories_segments":[],"categories_sizes":[],"default_left":[0,0,0,0,0,0,0,0,0,0,0,0,0,0,0],"id":49,"left_children":[1,3,5,7,9,11,13,-1,-1,-1,-1,-1,-1,-1,-1],"loss_changes":[4.9731274E0,4.9382715E0,6.3250556E0,5.028123E0,9.05373E0,5.9394727E0,7.500695E0,0E0,0E0,0E0,0E0,0E0,0E0,0E0,0E0],"parents":[2147483647,0,0,1,1,2,2,3,3,4,4,5,5,6,6],"right_children":[2,4,6,8,10,12,14,-1,-1,-1,-1,-1,-1,-1,-1],"split_conditions":[1.8847333E-1,4.0274614E-4,-1.2193183E-1,6.819661E-3,5E0,-9.666667E0,1.8E1,-5.1325923E-3,-7.735222E-2,-1.3366963E-1,3.8948223E-2,2.5834281E-2,-7.500753E-2,5.1317304E-2,3.8315977E-3],"split_indices":[43,52,52,7,49,3,33,0,0,0,0,0,0,0,0],"split_type":[0,0,0,0,0,0,0,0,0,0,0,0,0,0,0],"sum_hessian":[5.798467E2,1.5503983E2,4.248069E2,1.4323871E2,1.180112E1,2.4971895E1,3.99835E2,1.3383214E2,9.406565E0,7.701738E0,4.0993824E0,8.051168E0,1.6920727E1,3.5633396E1,3.6420157E2],"tree_param":{"num_deleted":"0","num_feature":"63","num_nodes":"15","size_leaf_vector":"1"}},{"base_weights":[-7.8325847E-4,-8.173987E-2,1.5019968E-1,-3.831811E-2,-4.8474628E-1,2.8451818E-1,-3.9815493E-2,-1.0450398E-2,2.9495476E-2,-6.290045E-2,7.45511E-2,-6.749795E-3,5.77414E-2,3.862215E-2,-3.3536106E-2],"categories":[],"categories_nodes":[],"categories_segments":[],"categories_sizes":[],"default_left":[0,0,0,0,0,0,0,0,0,0,0,0,0,0,0],"id":50,"left_children":[1,3,5,7,9,11,13,-1,-1,-1,-1,-1,-1,-1,-1],"loss_changes":[7.021269E0,6.524781E0,5.128629E0,7.500497E0,6.9083576E0,1.2162877E1,1.0695183E1,0E0,0E0,0E0,0E0,0E0,0E0,0E0,0E0],"parents":[2147483647,0,0,1,1,2,2,3,3,4,4,5,5,6,6],"right_children":[2,4,6,8,10,12,14,-1,-1,-1,-1,-1,-1,-1,-1],"split_conditions":[4E0,1.6666667E-1,2.1607299E-1,5.015304E-2,2.8333334E1,1.9060342E-1,2.16E1,-1.0450398E-2,2.9495476E-2,-6.290045E-2,7.45511E-2,-6.749795E-3,5.77414E-2,3.862215E-2,-3.3536106E-2],"split_indices":[10,9,43,52,40,18,24,0,0,0,0,0,0,0,0],"split_type":[0,0,0,0,0,0,0,0,0,0,0,0,0,0,0],"sum_hessian":[5.7242334E2,3.7292215E2,1.9950116E2,3.3763852E2,3.5283646E1,1.1658902E2,8.291215E1,2.8226825E2,5.5370247E1,3.2017986E1,3.2656612E0,5.3300037E1,6.328898E1,3.3833473E1,4.9078674E1],"tree_param":{"num_deleted":"0","num_feature":"63","num_nodes":"15","size_leaf_vector":"1"}},{"base_weights":[1.2941375E-2,4.3974932E-2,-2.3916987E-1,2.1590506E-1,-3.5574764E-2,-4.0691772E-1,5.0020546E-1,2.9245466E-2,-2.4863394E-2,-5.9352215E-2,1.4101249E-3,2.8439143E-3,-6.753254E-2,-6.500986E-2,1.0515758E-1],"categories":[],"categories_nodes":[],"categories_segments":[],"categories_sizes":[],"default_left":[0,0,0,0,0,0,0,0,0,0,0,0,0,0,0],"id":51,"left_children":[1,3,5,7,9,11,13,-1,-1,-1,-1,-1,-1,-1,-1],"loss_changes":[4.5216813E0,7.04088E0,8.060884E0,5.8622055E0,9.776478E0,6.117468E0,8.398339E0,0E0,0E0,0E0,0E0,0E0,0E0,0E0,0E0],"parents":[2147483647,0,0,1,1,2,2,3,3,4,4,5,5,6,6],"right_children":[2,4,6,8,10,12,14,-1,-1,-1,-1,-1,-1,-1,-1],"split_conditions":[1.0817808E-1,-5.9576347E-2,7.570184E-2,3.1931616E-2,-3.7209794E-2,3.0075174E-2,-8.302274E-2,2.9245466E-2,-2.4863394E-2,-5.9352215E-2,1.4101249E-3,2.8439143E-3,-6.753254E-2,-6.500986E-2,1.0515758E-1],"split_indices":[54,0,52,52,0,53,27,0,0,0,0,0,0,0,0],"split_type":[0,0,0,0,0,0,0,0,0,0,0,0,0,0,0],"sum_hessian":[5.75587E2,5.1323596E2,6.2351048E1,1.6180785E2,3.514281E2,5.118741E1,1.116364E1,1.3923439E2,2.257346E1,2.783583E1,3.2359225E2,1.9863264E1,3.1324142E1,3.5591834E0,7.604456E0],"tree_param":{"num_deleted":"0","num_feature":"63","num_nodes":"15","size_leaf_vector":"1"}},{"base_weights":[2.3288913E-2,6.421616E-3,5.372337E-1,3.271151E-2,-7.0694345E-1,6.9902337E-1,-3.6473864E-1,6.6828826E-3,-1.8814292E-2,8.0256484E-4,-1.3747545E-1,8.718645E-2,-1.0536786E-2,4.5453116E-2,-1.0351415E-1],"categories":[],"categories_nodes":[],"categories_segments":[],"categories_sizes":[],"default_left":[0,0,0,0,0,0,0,0,0,0,0,0,0,0,0],"id":52,"left_children":[1,3,5,7,9,11,13,-1,-1,-1,-1,-1,-1,-1,-1],"loss_changes":[4.9341297E0,1.0384676E1,2.8943925E0,4.0347953E0,9.408302E0,2.2717452E0,2.3423233E0,0E0,0E0,0E0,0E0,0E0,0E0,0E0,0E0],"parents":[2147483647,0,0,1,1,2,2,3,3,4,4,5,5,6,6],"right_children":[2,4,6,8,10,12,14,-1,-1,-1,-1,-1,-1,-1,-1],"split_conditions":[2.4494016E-1,2.3611018E-1,2.3715684E-1,9.17075E-2,2.394414E-1,1.5E1,-4.6666665E0,6.6828826E-3,-1.8814292E-2,8.0256484E-4,-1.3747545E-1,8.718645E-2,-1.0536786E-2,4.5453116E-2,-1.0351415E-1],"split_indices":[43,43,18,53,29,62,3,0,0,0,0,0,0,0,0],"split_type":[0,0,0,0,0,0,0,0,0,0,0,0,0,0,0],"sum_hessian":[5.685766E2,5.514896E2,1.7086996E1,5.32808E2,1.8681618E1,1.4678986E1,2.4080114E0,4.62118E2,7.069001E1,9.499395E0,9.182221E0,1.2013698E1,2.665288E0,1.2285984E0,1.179413E0],"tree_param":{"num_deleted":"0","num_feature":"63","num_nodes":"15","size_leaf_vector":"1"}},{"base_weights":[-2.050955E-3,-1.7060928E-2,7.0538557E-1,8.104448E-3,-3.8541022E-1,-8.583077E-2,1.1168739E0,-4.6859053E-3,2.332007E-2,-2.1505512E-3,-8.245276E-2,5.82121E-2,-6.636118E-2,1.24643624E-1,3.8737092E-2],"categories":[],"categories_nodes":[],"categories_segments":[],"categories_sizes":[],"default_left":[0,0,0,0,0,0,0,0,0,0,0,0,0,0,0],"id":53,"left_children":[1,3,5,7,9,11,13,-1,-1,-1,-1,-1,-1,-1,-1],"loss_changes":[6.0963254E0,5.2131834E0,3.979422E0,6.5321465E0,5.729239E0,2.319704E0,2.6559734E-1,0E0,0E0,0E0,0E0,0E0,0E0,0E0,0E0],"parents":[2147483647,0,0,1,1,2,2,3,3,4,4,5,5,6,6],"right_children":[2,4,6,8,10,12,14,-1,-1,-1,-1,-1,-1,-1,-1],"split_conditions":[2.5056118E-1,2.3416036E-1,1.7333334E1,6.5E0,2.16E1,1.1132135E-2,5E0,-4.6859053E-3,2.332007E-2,-2.1505512E-3,-8.245276E-2,5.82121E-2,-6.636118E-2,1.24643624E-1,3.8737092E-2],"split_indices":[43,43,15,10,24,27,48,0,0,0,0,0,0,0,0],"split_type":[0,0,0,0,0,0,0,0,0,0,0,0,0,0,0],"sum_hessian":[5.719841E2,5.610558E2,1.0928269E1,5.260916E2,3.4964226E1,4.0097227E0,6.9185467E0,4.2347922E2,1.0261238E2,1.9693134E1,1.5271091E1,1.8562582E0,2.1534646E0,5.2733674E0,1.6451794E0],"tree_param":{"num_deleted":"0","num_feature":"63","num_nodes":"15","size_leaf_vector":"1"}},{"base_weights":[2.37981E-2,-3.111337E-1,5.4470487E-2,-1.9055435E-1,-1.351077E0,8.749723E-2,-1.753301E-1,-2.9570444E-2,1.0475822E-1,-1.8647754E-1,4.4811456E-4,3.719279E-2,3.6288723E-3,-9.5974885E-2,2.8506776E-3],"categories":[],"categories_nodes":[],"categories_segments":[],"categories_sizes":[],"default_left":[0,0,0,0,0,0,0,0,0,0,0,0,0,0,0],"id":54,"left_children":[1,3,5,7,9,11,13,-1,-1,-1,-1,-1,-1,-1,-1],"loss_changes":[5.8783503E0,5.7635117E0,3.9887762E0,6.0630145E0,3.3680162E0,6.663497E0,1.0599609E1,0E0,0E0,0E0,0E0,0E0,0E0,0E0,0E0],"parents":[2147483647,0,0,1,1,2,2,3,3,4,4,5,5,6,6],"right_children":[2,4,6,8,10,12,14,-1,-1,-1,-1,-1,-1,-1,-1],"split_conditions":[3.8E1,2.7E1,1.0615853E-1,1.0333333E1,3.3654254E-2,-1.189674E-1,1.78E1,-2.9570444E-2,1.0475822E-1,-1.8647754E-1,4.4811456E-4,3.719279E-2,3.6288723E-3,-9.5974885E-2,2.8506776E-3],"split_indices":[11,13,54,3,31,1,23,0,0,0,0,0,0,0,0],"split_type":[0,0,0,0,0,0,0,0,0,0,0,0,0,0,0],"sum_hessian":[5.6955505E2,4.7015736E1,5.225393E2,4.3191055E1,3.8246822E0,4.5741873E2,6.512058E1,4.0511723E1,2.679332E0,2.5011876E0,1.3234947E0,6.883287E1,3.8858585E2,1.2666827E1,5.2453754E1],"tree_param":{"num_deleted":"0","num_feature":"63","num_nodes":"15","size_leaf_vector":"1"}},{"base_weights":[1.0087803E-2,2.8861566E-2,-4.4610715E-1,6.765935E-2,-1.7605856E-1,9.7149986E-1,-6.614997E-1,-2.7123261E-2,1.0330007E-2,8.973979E-2,-2.4806816E-2,2.4431614E-2,1.1740785E-1,-9.41762E-2,2.5627358E-2],"categories":[],"categories_nodes":[],"categories_segments":[],"categories_sizes":[],"default_left":[0,0,0,0,0,0,0,0,0,0,0,0,0,0,0],"id":55,"left_children":[1,3,5,7,9,11,13,-1,-1,-1,-1,-1,-1,-1,-1],"loss_changes":[4.950506E0,4.421822E0,7.619283E0,5.6697884E0,7.069544E0,2.1678495E-1,5.4962425E0,0E0,0E0,0E0,0E0,0E0,0E0,0E0,0E0],"parents":[2147483647,0,0,1,1,2,2,3,3,4,4,5,5,6,6],"right_children":[2,4,6,8,10,12,14,-1,-1,-1,-1,-1,-1,-1,-1],"split_conditions":[8.212684E-2,7.776634E-2,-1.4886464E-2,3.8E1,1.51E1,1.72E1,1.6300528E-1,-2.7123261E-2,1.0330007E-2,8.973979E-2,-2.4806816E-2,2.4431614E-2,1.1740785E-1,-9.41762E-2,2.5627358E-2],"split_indices":[27,54,19,11,36,22,27,0,0,0,0,0,0,0,0],"split_type":[0,0,0,0,0,0,0,0,0,0,0,0,0,0,0],"sum_hessian":[5.7552313E2,5.5367456E2,2.18486E1,4.6609756E2,8.7577E1,2.418811E0,1.9429789E1,4.3725056E1,4.223725E2,4.784948E0,8.279205E1,1.0076703E0,1.4111408E0,1.486446E1,4.5653296E0],"tree_param":{"num_deleted":"0","num_feature":"63","num_nodes":"15","size_leaf_vector":"1"}},{"base_weights":[-1.718034E-2,-5.1274574E-1,-1.7762121E-3,-7.175004E-1,8.822884E-2,3.5572317E-1,-3.1463955E-2,7.5261995E-2,-8.8764094E-2,1.0387602E-1,-1.9503683E-3,-3.9844614E-2,4.942159E-4],"categories":[],"categories_nodes":[],"categories_segments":[],"categories_sizes":[],"default_left":[0,0,0,0,0,0,0,0,0,0,0,0,0],"id":56,"left_children":[1,3,5,7,-1,9,11,-1,-1,-1,-1,-1,-1],"loss_changes":[4.4255276E0,5.6252265E0,5.990474E0,4.61802E0,0E0,1.1112194E1,6.964011E0,0E0,0E0,0E0,0E0,0E0,0E0],"parents":[2147483647,0,0,1,1,2,2,3,3,5,5,6,6],"right_children":[2,4,6,8,-1,10,12,-1,-1,-1,-1,-1,-1],"split_conditions":[-4.3333335E0,1E1,-1.08E1,-1.5490755E-1,8.822884E-2,4.0477566E-2,-4E0,7.5261995E-2,-8.8764094E-2,1.0387602E-1,-1.9503683E-3,-3.9844614E-2,4.942159E-4],"split_indices":[56,49,5,20,0,53,10,0,0,0,0,0,0],"split_type":[0,0,0,0,0,0,0,0,0,0,0,0,0],"sum_hessian":[5.788508E2,1.6477207E1,5.6237366E2,1.4791828E1,1.6853797E0,4.2278187E1,5.2009546E2,1.179209E0,1.3612619E1,1.4363503E1,2.7914684E1,4.604153E1,4.7405392E2],"tree_param":{"num_deleted":"0","num_feature":"63","num_nodes":"13","size_leaf_vector":"1"}},{"base_weights":[2.5229384E-3,-1.3842907E-2,4.6735892E-1,-4.7353382E-4,-8.540132E-1,6.7112666E-1,-5.442732E-1,-8.2005607E-4,9.65472E-2,-1.3538918E-1,5.2496262E-2,9.4107E-4,1.0592025E-1,4.0553544E-2,-1.2105856E-1],"categories":[],"categories_nodes":[],"categories_segments":[],"categories_sizes":[],"default_left":[0,0,0,0,0,0,0,0,0,0,0,0,0,0,0],"id":57,"left_children":[1,3,5,7,9,11,13,-1,-1,-1,-1,-1,-1,-1,-1],"loss_changes":[4.3165097E0,6.15794E0,4.343234E0,4.04343E0,6.629985E0,4.229743E0,2.887937E0,0E0,0E0,0E0,0E0,0E0,0E0,0E0,0E0],"parents":[2147483647,0,0,1,1,2,2,3,3,4,4,5,5,6,6],"right_children":[2,4,6,8,10,12,14,-1,-1,-1,-1,-1,-1,-1,-1],"split_conditions":[1.23E1,4.4090965E-1,1.12052314E-1,1.3E1,8.403628E-2,1.7892966E-1,3.4E1,-8.2005607E-4,9.65472E-2,-1.3538918E-1,5.2496262E-2,9.4107E-4,1.0592025E-1,4.0553544E-2,-1.2105856E-1],"split_indices":[5,8,27,49,51,44,13,0,0,0,0,0,0,0,0],"split_type":[0,0,0,0,0,0,0,0,0,0,0,0,0,0,0],"sum_hessian":[5.6555634E2,5.472588E2,1.829755E1,5.3967175E2,7.587068E0,1.5510036E1,2.7875144E0,5.3637256E2,3.2991717E0,5.5818415E0,2.0052264E0,6.1122184E0,9.397818E0,1.3106275E0,1.476887E0],"tree_param":{"num_deleted":"0","num_feature":"63","num_nodes":"15","size_leaf_vector":"1"}},{"base_weights":[-1.5588251E-2,-6.755546E-2,1.6564803E-1,-1.1256832E-1,2.2907081E-1,6.564301E-2,7.525335E-1,1.7678386E-3,-2.2570526E-2,-1.8106688E-2,6.2448073E-2,2.80551E-2,-4.1516677E-2,9.8320745E-2,-6.395816E-2],"categories":[],"categories_nodes":[],"categories_segments":[],"categories_sizes":[],"default_left":[0,0,0,0,0,0,0,0,0,0,0,0,0,0,0],"id":58,"left_children":[1,3,5,7,9,11,13,-1,-1,-1,-1,-1,-1,-1,-1],"loss_changes":[5.416957E0,5.9910574E0,7.4743586E0,5.7299347E0,9.712701E0,1.1547202E1,6.5914764E0,0E0,0E0,0E0,0E0,0E0,0E0,0E0,0E0],"parents":[2147483647,0,0,1,1,2,2,3,3,4,4,5,5,6,6],"right_children":[2,4,6,8,10,12,14,-1,-1,-1,-1,-1,-1,-1,-1],"split_conditions":[2.5666666E1,1.2226957E-2,3.0333334E1,-1.1865518E-1,-3.6E0,2.36E1,3.9666668E1,1.7678386E-3,-2.2570526E-2,-1.8106688E-2,6.2448073E-2,2.80551E-2,-4.1516677E-2,9.8320745E-2,-6.395816E-2],"split_indices":[42,28,14,28,4,34,14,0,0,0,0,0,0,0,0],"split_type":[0,0,0,0,0,0,0,0,0,0,0,0,0,0,0],"sum_hessian":[5.7296155E2,4.4576996E2,1.2719163E2,3.8757602E2,5.8193928E1,1.0962366E2,1.7567972E1,1.8055702E2,2.07019E2,2.883107E1,2.9362858E1,7.604864E1,3.3575024E1,1.5322722E1,2.2452497E0],"tree_param":{"num_deleted":"0","num_feature":"63","num_nodes":"15","size_leaf_vector":"1"}},{"base_weights":[7.7227335E-3,-5.062469E-1,2.50164E-2,-6.740595E-1,1.0813924E-1,-1.1473559E-2,3.0434075E-1,-9.972849E-2,3.8069623E-4,9.764264E-3,-1.158769E-2,6.667953E-2,6.636098E-3],"categories":[],"categories_nodes":[],"categories_segments":[],"categories_sizes":[],"default_left":[0,0,0,0,0,0,0,0,0,0,0,0,0],"id":59,"left_children":[1,3,5,7,-1,9,11,-1,-1,-1,-1,-1,-1],"loss_changes":[5.143855E0,5.7481184E0,5.705709E0,3.8718748E0,0E0,5.659218E0,5.5345497E0,0E0,0E0,0E0,0E0,0E0,0E0],"parents":[2147483647,0,0,1,1,2,2,3,3,5,5,6,6],"right_children":[2,4,6,8,-1,10,12,-1,-1,-1,-1,-1,-1],"split_conditions":[-9E0,1E0,3E1,2.3144436E-1,1.0813924E-1,2.16E1,-1.5770365E-2,-9.972849E-2,3.8069623E-4,9.764264E-3,-1.158769E-2,6.667953E-2,6.636098E-3],"split_indices":[10,61,22,18,0,24,52,0,0,0,0,0,0],"split_type":[0,0,0,0,0,0,0,0,0,0,0,0,0],"sum_hessian":[5.762894E2,1.7838995E1,5.5845044E2,1.6654099E1,1.1848961E0,4.9477383E2,6.3676605E1,1.0957872E1,5.6962266E0,2.419582E2,2.5281564E2,2.4523798E1,3.9152805E1],"tree_param":{"num_deleted":"0","num_feature":"63","num_nodes":"13","size_leaf_vector":"1"}},{"base_weights":[4.019407E-2,4.7639098E-2,-1.2527062E-1,6.602168E-2,-3.4725013E-1,8.070828E-3,-5.871992E-2,-9.6676834E-2,1.0167985E-3],"categories":[],"categories_nodes":[],"categories_segments":[],"categories_sizes":[],"default_left":[0,0,0,0,0,0,0,0,0],"id":60,"left_children":[1,3,-1,5,7,-1,-1,-1,-1],"loss_changes":[5.5574923E0,4.1522903E0,0E0,5.270068E0,5.6479735E0,0E0,0E0,0E0,0E0],"parents":[2147483647,0,0,1,1,3,3,4,4],"right_children":[2,4,-1,6,8,-1,-1,-1,-1],"split_conditions":[2.1E1,1.4333333E1,-1.2527062E-1,3.6666668E1,2.7986267E-1,8.070828E-3,-5.871992E-2,-9.6676834E-2,1.0167985E-3],"split_indices":[62,3,0,15,8,0,0,0,0],"split_type":[0,0,0,0,0,0,0,0,0],"sum_hessian":[5.701615E2,5.6785474E2,2.306776E0,5.4339197E2,2.4462757E1,5.3230054E2,1.1091461E1,8.326114E0,1.6136644E1],"tree_param":{"num_deleted":"0","num_feature":"63","num_nodes":"9","size_leaf_vector":"1"}},{"base_weights":[-8.129E-3,-1.5435214E-2,8.808867E-1,3.9025873E-3,-4.4978052E-1,2.1590611E-2,1.0343587E-1,-2.8113404E-3,2.7767703E-2,-1.13266625E-1,1.0990434E-2],"categories":[],"categories_nodes":[],"categories_segments":[],"categories_sizes":[],"default_left":[0,0,0,0,0,0,0,0,0,0,0],"id":61,"left_children":[1,3,5,7,9,-1,-1,-1,-1,-1,-1],"loss_changes":[3.6975267E0,4.734959E0,2.5025225E-1,4.7453446E0,9.30812E0,0E0,0E0,0E0,0E0,0E0,0E0],"parents":[2147483647,0,0,1,1,2,2,3,3,4,4],"right_children":[2,4,6,8,10,-1,-1,-1,-1,-1,-1],"split_conditions":[3.95E1,3.4824136E-1,2.0248444E-1,7.951611E-2,2.2517367E-1,2.1590611E-2,1.0343587E-1,-2.8113404E-3,2.7767703E-2,-1.13266625E-1,1.0990434E-2],"split_indices":[13,25,18,19,17,0,0,0,0,0,0],"split_type":[0,0,0,0,0,0,0,0,0,0,0],"sum_hessian":[5.6616516E2,5.625248E2,3.6403701E0,5.3949646E2,2.30283E1,1.1339359E0,2.5064342E0,4.8381503E2,5.5681446E1,9.911396E0,1.3116902E1],"tree_param":{"num_deleted":"0","num_feature":"63","num_nodes":"11","size_leaf_vector":"1"}},{"base_weights":[-2.0890574E-3,2.940161E-2,-2.5075367E-1,1.14893345E-2,6.9637066E-1,-1.2996132E0,-1.1286228E-1,-2.238169E-5,1.1296552E-1,1.0133529E-1,-6.423016E-2,-6.463925E-3,-1.5160081E-1,-3.349058E-2,6.9751866E-2],"categories":[],"categories_nodes":[],"categories_segments":[],"categories_sizes":[],"default_left":[0,0,0,0,0,0,0,0,0,0,0,0,0,0,0],"id":62,"left_children":[1,3,5,7,9,11,13,-1,-1,-1,-1,-1,-1,-1,-1],"loss_changes":[4.448312E0,6.016515E0,9.088197E0,6.445421E0,6.2401795E0,1.8592997E0,1.0585223E1,0E0,0E0,0E0,0E0,0E0,0E0,0E0,0E0],"parents":[2147483647,0,0,1,1,2,2,3,3,4,4,5,5,6,6],"right_children":[2,4,6,8,10,12,14,-1,-1,-1,-1,-1,-1,-1,-1],"split_conditions":[2.3549093E-1,2.3241557E-1,-3.362581E-2,2.4699862E-1,3.04E1,4E1,-1E0,-2.238169E-5,1.1296552E-1,1.0133529E-1,-6.423016E-2,-6.463925E-3,-1.5160081E-1,-3.349058E-2,6.9751866E-2],"split_indices":[30,30,53,18,40,11,4,0,0,0,0,0,0,0,0],"split_type":[0,0,0,0,0,0,0,0,0,0,0,0,0,0,0],"sum_hessian":[5.661253E2,5.03273E2,6.2852287E1,4.911011E2,1.2171899E1,6.3240457E0,5.6528244E1,4.8699942E2,4.1016784E0,1.0038026E1,2.133873E0,1.1365304E0,5.1875153E0,4.4831257E1,1.1696985E1],"tree_param":{"num_deleted":"0","num_feature":"63","num_nodes":"15","size_leaf_vector":"1"}},{"base_weights":[-1.63208E-3,-3.0732903E-1,3.0681988E-2,-1.0966226E-1,-2.0668879E-1,9.345577E-2,-1.8597059E-1,1.1839934E-1,-2.7316207E-2,-1.7978359E-2,1.4016909E-2,-8.25256E-3,-5.602751E-2],"categories":[],"categories_nodes":[],"categories_segments":[],"categories_sizes":[],"default_left":[0,0,0,0,0,0,0,0,0,0,0,0,0],"id":63,"left_children":[1,3,5,-1,7,9,11,-1,-1,-1,-1,-1,-1],"loss_changes":[5.5854797E0,4.06717E0,6.9727325E0,0E0,4.8692403E0,5.09494E0,4.4153023E0,0E0,0E0,0E0,0E0,0E0,0E0],"parents":[2147483647,0,0,1,1,2,2,4,4,5,5,6,6],"right_children":[2,4,6,-1,8,10,12,-1,-1,-1,-1,-1,-1],"split_conditions":[-5.5E0,1.91E1,5.5E0,-1.0966226E-1,1.9666666E1,-9.683879E-2,6.111111E-1,1.1839934E-1,-2.7316207E-2,-1.7978359E-2,1.4016909E-2,-8.25256E-3,-5.602751E-2],"split_indices":[10,35,4,0,35,37,46,0,0,0,0,0,0],"split_type":[0,0,0,0,0,0,0,0,0,0,0,0,0],"sum_hessian":[5.63474E2,5.3054848E1,5.1041916E2,4.8806663E0,4.817418E1,3.961932E2,1.1422596E2,1.4307159E0,4.6743465E1,5.742858E1,3.3876462E2,9.0449326E1,2.377663E1],"tree_param":{"num_deleted":"0","num_feature":"63","num_nodes":"13","size_leaf_vector":"1"}},{"base_weights":[2.1764399E-3,-1.0184443E0,1.1782489E-2,-1.284304E-2,-1.2165103E-1,8.058266E-2,-1.0229974E-1,3.836769E-2,3.467472E-3,-3.395992E-2,5.424844E-3],"categories":[],"categories_nodes":[],"categories_segments":[],"categories_sizes":[],"default_left":[0,0,0,0,0,0,0,0,0,0,0],"id":64,"left_children":[1,3,5,-1,-1,7,9,-1,-1,-1,-1],"loss_changes":[5.5458364E0,7.7353954E-1,4.4049087E0,0E0,0E0,4.856619E0,7.863285E0,0E0,0E0,0E0,0E0],"parents":[2147483647,0,0,1,1,2,2,5,5,6,6],"right_children":[2,4,6,-1,-1,8,10,-1,-1,-1,-1],"split_conditions":[-8.126267E-2,6.260145E-2,4.6E1,-1.284304E-2,-1.2165103E-1,-8.466666E0,5.3846157E-1,3.836769E-2,3.467472E-3,-3.395992E-2,5.424844E-3],"split_indices":[7,26,11,0,0,5,55,0,0,0,0],"split_type":[0,0,0,0,0,0,0,0,0,0,0],"sum_hessian":[5.634392E2,4.2743855E0,5.591648E2,1.078144E0,3.1962414E0,3.4899075E2,2.1017407E2,4.4938637E1,3.0405212E2,8.307608E1,1.2709799E2],"tree_param":{"num_deleted":"0","num_feature":"63","num_nodes":"11","size_leaf_vector":"1"}},{"base_weights":[-4.215186E-3,9.7881496E-2,-9.227344E-2,-2.9152643E-2,3.4338E-1,-1.2209564E-1,5.524554E-1,1.5599731E-3,-8.255609E-2,4.614183E-2,-8.3012745E-2,-2.0997254E-2,9.837372E-3,-8.193812E-2,7.816737E-2],"categories":[],"categories_nodes":[],"categories_segments":[],"categories_sizes":[],"default_left":[0,0,0,0,0,0,0,0,0,0,0,0,0,0,0],"id":65,"left_children":[1,3,5,7,9,11,13,-1,-1,-1,-1,-1,-1,-1,-1],"loss_changes":[5.0956173E0,8.196165E0,5.918058E0,6.210929E0,1.2792558E1,5.6712046E0,4.9276013E0,0E0,0E0,0E0,0E0,0E0,0E0,0E0,0E0],"parents":[2147483647,0,0,1,1,2,2,3,3,4,4,5,5,6,6],"right_children":[2,4,6,8,10,12,14,-1,-1,-1,-1,-1,-1,-1,-1],"split_conditions":[2.0666666E1,1.925E1,1.791757E-1,3.25E1,1.1929943E-1,2.1424944E-2,1.946042E-1,1.5599731E-3,-8.255609E-2,4.614183E-2,-8.3012745E-2,-2.0997254E-2,9.837372E-3,-8.193812E-2,7.816737E-2],"split_indices":[13,39,54,16,54,7,17,0,0,0,0,0,0,0,0],"split_type":[0,0,0,0,0,0,0,0,0,0,0,0,0,0,0],"sum_hessian":[5.647761E2,2.6148874E2,3.0328738E2,1.7290147E2,8.858728E1,2.9065372E2,1.2633685E1,1.6463083E2,8.270647E0,8.1042366E1,7.5449133E0,2.0785312E2,8.280059E1,1.4401187E0,1.1193566E1],"tree_param":{"num_deleted":"0","num_feature":"63","num_nodes":"15","size_leaf_vector":"1"}},{"base_weights":[-4.814029E-3,-5.203707E-1,1.0129174E-2,2.2410363E-1,-8.312157E-1,-1.6180723E-3,6.498488E-1,-5.3080827E-2,8.579271E-2,4.8921697E-2,-1.0029091E-1,4.192177E-3,-1.9206226E-2,-9.965709E-3,8.743163E-2],"categories":[],"categories_nodes":[],"categories_segments":[],"categories_sizes":[],"default_left":[0,0,0,0,0,0,0,0,0,0,0,0,0,0,0],"id":66,"left_children":[1,3,5,7,9,11,13,-1,-1,-1,-1,-1,-1,-1,-1],"loss_changes":[4.3958564E0,3.9056592E0,4.1705875E0,3.0974412E0,3.1092544E0,4.533986E0,1.7707429E0,0E0,0E0,0E0,0E0,0E0,0E0,0E0,0E0],"parents":[2147483647,0,0,1,1,2,2,3,3,4,4,5,5,6,6],"right_children":[2,4,6,8,10,12,14,-1,-1,-1,-1,-1,-1,-1,-1],"split_conditions":[-7.5E-1,2.3333334E1,1.4E1,5.5813956E-1,3.8724136E1,7.916987E-2,-8.8464556E-5,-5.3080827E-2,8.579271E-2,4.8921697E-2,-1.0029091E-1,4.192177E-3,-1.9206226E-2,-9.965709E-3,8.743163E-2],"split_indices":[9,15,10,55,57,2,19,0,0,0,0,0,0,0,0],"split_type":[0,0,0,0,0,0,0,0,0,0,0,0,0,0,0],"sum_hessian":[5.6890485E2,1.5072262E1,5.538326E2,4.5217385E0,1.0550523E1,5.448253E2,9.00722E0,2.1379158E0,2.3838227E0,1.00121E0,9.549313E0,4.4407877E2,1.0074657E2,2.2040005E0,6.80322E0],"tree_param":{"num_deleted":"0","num_feature":"63","num_nodes":"15","size_leaf_vector":"1"}},{"base_weights":[2.4343995E-2,-1.5567808E-2,2.096651E-1,-5.057461E-3,-9.7292703E-1,6.8946964E-1,7.9725586E-2,-2.218723E-3,4.819266E-2,3.3546455E-2,-1.5212576E-1,2.0905808E-4,9.346704E-2,-7.294074E-2,1.6563693E-2],"categories":[],"categories_nodes":[],"categories_segments":[],"categories_sizes":[],"default_left":[0,0,0,0,0,0,0,0,0,0,0,0,0,0,0],"id":67,"left_children":[1,3,5,7,9,11,13,-1,-1,-1,-1,-1,-1,-1,-1],"loss_changes":[4.1859903E0,4.686304E0,6.196871E0,3.8660457E0,4.138819E0,3.5777588E0,5.6845794E0,0E0,0E0,0E0,0E0,0E0,0E0,0E0,0E0],"parents":[2147483647,0,0,1,1,2,2,3,3,4,4,5,5,6,6],"right_children":[2,4,6,8,10,12,14,-1,-1,-1,-1,-1,-1,-1,-1],"split_conditions":[2.1383233E-1,2.7791154E-1,2.3833334E1,1.2037158E-1,2.36E1,2.06E1,1.9694102E-1,-2.218723E-3,4.819266E-2,3.3546455E-2,-1.5212576E-1,2.0905808E-4,9.346704E-2,-7.294074E-2,1.6563693E-2],"split_indices":[25,0,33,52,33,39,17,0,0,0,0,0,0,0,0],"split_type":[0,0,0,0,0,0,0,0,0,0,0,0,0,0,0],"sum_hessian":[5.6450073E2,4.6522354E2,9.9277176E1,4.6116592E2,4.057617E0,2.0238817E1,7.903836E1,4.4641754E2,1.4748394E1,1.3129487E0,2.7446685E0,5.586508E0,1.465231E1,6.8675885E0,7.217078E1],"tree_param":{"num_deleted":"0","num_feature":"63","num_nodes":"15","size_leaf_vector":"1"}},{"base_weights":[1.8144527E-2,1.0357282E-1,-7.713979E-2,4.0671253E-1,2.0929815E-2,-3.6401537E-1,1.8681437E-2,1.4938823E-2,1.0901698E-1,-5.059808E-2,6.365038E-3,-7.818063E-2,-1.8234352E-3,3.8597576E-2,-7.3841373E-3],"categories":[],"categories_nodes":[],"categories_segments":[],"categories_sizes":[],"default_left":[0,0,0,0,0,0,0,0,0,0,0,0,0,0,0],"id":68,"left_children":[1,3,5,7,9,11,13,-1,-1,-1,-1,-1,-1,-1,-1],"loss_changes":[4.5883584E0,7.4350977E0,7.3347197E0,1.1021726E1,5.3113704E0,9.635358E0,6.8517213E0,0E0,0E0,0E0,0E0,0E0,0E0,0E0,0E0],"parents":[2147483647,0,0,1,1,2,2,3,3,4,4,5,5,6,6],"right_children":[2,4,6,8,10,12,14,-1,-1,-1,-1,-1,-1,-1,-1],"split_conditions":[2.2E1,-1.7647144E-1,2.2333334E1,-2.0099506E-1,-1.6972888E-1,2.4E1,-1.2662299E-1,1.4938823E-2,1.0901698E-1,-5.059808E-2,6.365038E-3,-7.818063E-2,-1.8234352E-3,3.8597576E-2,-7.3841373E-3],"split_indices":[16,28,42,28,25,16,0,0,0,0,0,0,0,0,0],"split_type":[0,0,0,0,0,0,0,0,0,0,0,0,0,0,0],"sum_hessian":[5.6170056E2,2.9612192E2,2.6557864E2,6.2595684E1,2.3352621E2,6.579588E1,1.9978275E2,4.6359665E1,1.623602E1,1.6700474E1,2.1682574E2,2.9224415E1,3.657147E1,3.9561398E1,1.6022136E2],"tree_param":{"num_deleted":"0","num_feature":"63","num_nodes":"15","size_leaf_vector":"1"}},{"base_weights":[-2.6720215E-2,-1.800434E-1,2.5562601E-2,1.1860122E-1,-3.885329E-1,-3.6818686E-1,6.644569E-2,9.137859E-2,-4.379202E-3,1.2080114E-2,-5.969265E-2,-7.854148E-3,-1.04412735E-1,-8.295678E-2,8.567326E-3],"categories":[],"categories_nodes":[],"categories_segments":[],"categories_sizes":[],"default_left":[0,0,0,0,0,0,0,0,0,0,0,0,0,0,0],"id":69,"left_children":[1,3,5,7,9,11,13,-1,-1,-1,-1,-1,-1,-1,-1],"loss_changes":[4.5463057E0,9.024267E0,6.8397946E0,7.7939825E0,9.109919E0,7.7447863E0,6.693508E0,0E0,0E0,0E0,0E0,0E0,0E0,0E0,0E0],"parents":[2147483647,0,0,1,1,2,2,3,3,4,4,5,5,6,6],"right_children":[2,4,6,8,10,12,14,-1,-1,-1,-1,-1,-1,-1,-1],"split_conditions":[-2.5E0,-6.584621E-2,-1.10111736E-1,2.0428572E1,-2.3169143E-1,-1.4737481E-1,-6.332641E-2,9.137859E-2,-4.379202E-3,1.2080114E-2,-5.969265E-2,-7.854148E-3,-1.04412735E-1,-8.295678E-2,8.567326E-3],"split_indices":[10,51,25,35,8,25,6,0,0,0,0,0,0,0,0],"split_type":[0,0,0,0,0,0,0,0,0,0,0,0,0,0,0],"sum_hessian":[5.655679E2,1.4319485E2,4.2237305E2,5.904653E1,8.414832E1,3.8976864E1,3.8339618E2,9.228873E0,4.9817657E1,2.4554668E1,5.959365E1,2.8066402E1,1.09104595E1,7.169075E0,3.762271E2],"tree_param":{"num_deleted":"0","num_feature":"63","num_nodes":"15","size_leaf_vector":"1"}},{"base_weights":[4.2732835E-2,2.7565274E-2,5.8579594E-1,3.5225663E-2,-9.5262706E-1,-4.9064606E-1,7.9466504E-1,-1.1734018E-4,2.4464818E-2,-1.4186248E-1,2.4830004E-2,4.3259528E-2,-1.1822013E-1,-4.9564302E-2,9.958551E-2],"categories":[],"categories_nodes":[],"categories_segments":[],"categories_sizes":[],"default_left":[0,0,0,0,0,0,0,0,0,0,0,0,0,0,0],"id":70,"left_children":[1,3,5,7,9,11,13,-1,-1,-1,-1,-1,-1,-1,-1],"loss_changes":[4.5978527E0,4.1331973E0,3.8007846E0,4.137317E0,2.741623E0,2.4801807E0,3.8909426E0,0E0,0E0,0E0,0E0,0E0,0E0,0E0,0E0],"parents":[2147483647,0,0,1,1,2,2,3,3,4,4,5,5,6,6],"right_children":[2,4,6,8,10,12,14,-1,-1,-1,-1,-1,-1,-1,-1],"split_conditions":[6.4601496E-2,2.670845E-1,4.1957447E1,3.0333334E1,3.0762258E-1,1.75E1,1.3333333E1,-1.1734018E-4,2.4464818E-2,-1.4186248E-1,2.4830004E-2,4.3259528E-2,-1.1822013E-1,-4.9564302E-2,9.958551E-2],"split_indices":[6,17,57,14,25,15,15,0,0,0,0,0,0,0,0],"split_type":[0,0,0,0,0,0,0,0,0,0,0,0,0,0,0],"sum_hessian":[5.5915924E2,5.4498865E2,1.4170582E1,5.4171906E2,3.2695749E0,2.0835578E0,1.2087025E1,4.623533E2,7.9365776E1,2.2249494E0,1.0446255E0,1.0526745E0,1.0308833E0,1.4330126E0,1.0654012E1],"tree_param":{"num_deleted":"0","num_feature":"63","num_nodes":"15","size_leaf_vector":"1"}},{"base_weights":[-1.3929184E-2,2.4284892E-1,-4.7793467E-2,-4.148529E-1,4.0546834E-1,-8.7085277E-1,-3.629619E-2,-9.0082884E-2,4.789222E-2,5.35656E-2,-4.303099E-2,2.3280483E-2,-1.4411606E-1,-4.7990886E-4,-3.110573E-2],"categories":[],"categories_nodes":[],"categories_segments":[],"categories_sizes":[],"default_left":[0,0,0,0,0,0,0,0,0,0,0,0,0,0,0],"id":71,"left_children":[1,3,5,7,9,11,13,-1,-1,-1,-1,-1,-1,-1,-1],"loss_changes":[4.9552684E0,7.2706895E0,4.729366E0,6.364066E0,6.0786695E0,4.670807E0,4.3016257E0,0E0,0E0,0E0,0E0,0E0,0E0,0E0,0E0],"parents":[2147483647,0,0,1,1,2,2,3,3,4,4,5,5,6,6],"right_children":[2,4,6,8,10,12,14,-1,-1,-1,-1,-1,-1,-1,-1],"split_conditions":[-9.770732E-2,1.7780635E-1,-1.2798235E-1,1.9E1,3.0591142E-1,-2.6154237E-2,3.05E1,-9.0082884E-2,4.789222E-2,5.35656E-2,-4.303099E-2,2.3280483E-2,-1.4411606E-1,-4.7990886E-4,-3.110573E-2],"split_indices":[32,29,20,14,0,51,15,0,0,0,0,0,0,0,0],"split_type":[0,0,0,0,0,0,0,0,0,0,0,0,0,0,0],"sum_hessian":[5.675241E2,6.540619E1,5.0211792E2,1.2658559E1,5.2747635E1,5.887716E0,4.962302E2,8.194848E0,4.4637103E0,4.594929E1,6.7983437E0,2.2075207E0,3.680195E0,4.4610828E2,5.012193E1],"tree_param":{"num_deleted":"0","num_feature":"63","num_nodes":"15","size_leaf_vector":"1"}},{"base_weights":[1.0939513E-2,-9.258104E-3,5.8644015E-1,-8.652559E-2,1.3169402E-1,-1.000154E-1,8.4211695E-1,-1.2311126E-2,3.51954E-2,2.0845754E-2,-1.4694534E-2,9.667715E-2,-5.477312E-2],"categories":[],"categories_nodes":[],"categories_segments":[],"categories_sizes":[],"default_left":[0,0,0,0,0,0,0,0,0,0,0,0,0],"id":72,"left_children":[1,3,5,7,9,-1,11,-1,-1,-1,-1,-1,-1],"loss_changes":[6.459867E0,5.8646383E0,8.485914E0,5.621873E0,4.109432E0,0E0,3.435049E0,0E0,0E0,0E0,0E0,0E0,0E0],"parents":[2147483647,0,0,1,1,2,2,3,3,4,4,6,6],"right_children":[2,4,6,8,10,-1,12,-1,-1,-1,-1,-1,-1],"split_conditions":[1E1,1.3465472E-1,1.5888889E1,1.1861694E-1,4.6938774E1,-1.000154E-1,2.46E1,-1.2311126E-2,3.51954E-2,2.0845754E-2,-1.4694534E-2,9.667715E-2,-5.477312E-2],"split_indices":[50,26,33,52,57,0,22,0,0,0,0,0,0],"split_type":[0,0,0,0,0,0,0,0,0,0,0,0,0],"sum_hessian":[5.542805E2,5.3643774E2,1.7842764E1,3.467446E2,1.8969318E2,2.072173E0,1.5770592E1,3.20705E2,2.6039614E1,1.489188E2,4.0774384E1,1.4751908E1,1.0186828E0],"tree_param":{"num_deleted":"0","num_feature":"63","num_nodes":"13","size_leaf_vector":"1"}},{"base_weights":[8.174812E-3,2.7298713E-2,-3.8477412E-1,1.2526868E-2,7.4394184E-1,-7.281361E-1,5.1180583E-1,-1.8692684E-3,2.538384E-2,1.3793884E-1,-2.3365224E-2,8.0262505E-2,-8.998919E-2,9.959658E-2,-3.3279225E-2],"categories":[],"categories_nodes":[],"categories_segments":[],"categories_sizes":[],"default_left":[0,0,0,0,0,0,0,0,0,0,0,0,0,0,0],"id":73,"left_children":[1,3,5,7,9,11,13,-1,-1,-1,-1,-1,-1,-1,-1],"loss_changes":[4.211345E0,5.6437407E0,8.379759E0,3.9541633E0,7.0113416E0,5.7755013E0,3.5168421E0,0E0,0E0,0E0,0E0,0E0,0E0,0E0,0E0],"parents":[2147483647,0,0,1,1,2,2,3,3,4,4,5,5,6,6],"right_children":[2,4,6,8,10,12,14,-1,-1,-1,-1,-1,-1,-1,-1],"split_conditions":[2.2310002E-1,1.9833896E-1,1.3083264E-1,2.3950581E-1,2.36E1,-2.4090405E-1,8.212684E-2,-1.8692684E-3,2.538384E-2,1.3793884E-1,-2.3365224E-2,8.0262505E-2,-8.998919E-2,9.959658E-2,-3.3279225E-2],"split_indices":[0,0,31,25,24,27,27,0,0,0,0,0,0,0,0],"split_type":[0,0,0,0,0,0,0,0,0,0,0,0,0,0,0],"sum_hessian":[5.580153E2,5.330057E2,2.5009605E1,5.232379E2,9.76779E0,1.8219849E1,6.7897573E0,4.6411572E2,5.9122192E1,5.670743E0,4.0970464E0,1.4675299E0,1.675232E1,4.201854E0,2.5879028E0],"tree_param":{"num_deleted":"0","num_feature":"63","num_nodes":"15","size_leaf_vector":"1"}},{"base_weights":[-2.558462E-2,-1.1772491E-1,4.6554208E-2,-3.8409546E-1,1.1992449E-2,-6.7985964E-1,7.109989E-2,-5.6481976E-2,7.7874972E-3,6.162203E-3,-1.200688E-1,-1.1415994E-1,5.1098943E-2,1.9533304E-2,-5.293886E-3],"categories":[],"categories_nodes":[],"categories_segments":[],"categories_sizes":[],"default_left":[0,0,0,0,0,0,0,0,0,0,0,0,0,0,0],"id":74,"left_children":[1,3,5,7,9,11,13,-1,-1,-1,-1,-1,-1,-1,-1],"loss_changes":[3.758924E0,8.582453E0,5.708376E0,6.8343477E0,1.0180258E1,6.3406296E0,4.7560487E0,0E0,0E0,0E0,0E0,0E0,0E0,0E0,0E0],"parents":[2147483647,0,0,1,1,2,2,3,3,4,4,5,5,6,6],"right_children":[2,4,6,8,10,12,14,-1,-1,-1,-1,-1,-1,-1,-1],"split_conditions":[2.1E1,-6.30381E-2,-2.0480621E-1,3.0333334E1,2.55E1,1.0333333E1,4.1666666E-1,-5.6481976E-2,7.7874972E-3,6.162203E-3,-1.200688E-1,-1.1415994E-1,5.1098943E-2,1.9533304E-2,-5.293886E-3],"split_indices":[15,8,54,14,41,3,45,0,0,0,0,0,0,0,0],"split_type":[0,0,0,0,0,0,0,0,0,0,0,0,0,0,0],"sum_hessian":[5.636915E2,2.4725272E2,3.1643878E2,8.0332146E1,1.6692056E2,9.470408E0,3.0696838E2,5.75829E1,2.2749245E1,1.612697E2,5.6508613E0,6.854141E0,2.616268E0,1.5307686E2,1.5389154E2],"tree_param":{"num_deleted":"0","num_feature":"63","num_nodes":"15","size_leaf_vector":"1"}},{"base_weights":[1.5227505E-2,-1.0339565E-2,2.909409E-1,1.5438716E-2,-5.270754E-1,-1.035988E0,3.8129088E-1,4.952586E-3,-2.9165018E-2,-2.9337085E-3,-1.21127084E-1,-1.2446935E-2,-1.4120229E-1,2.0062117E-2,9.1159396E-2],"categories":[],"categories_nodes":[],"categories_segments":[],"categories_sizes":[],"default_left":[0,0,0,0,0,0,0,0,0,0,0,0,0,0,0],"id":75,"left_children":[1,3,5,7,9,11,13,-1,-1,-1,-1,-1,-1,-1,-1],"loss_changes":[3.97019E0,6.881452E0,6.1248307E0,5.1692653E0,8.323799E0,9.607754E-1,4.1742826E0,0E0,0E0,0E0,0E0,0E0,0E0,0E0,0E0],"parents":[2147483647,0,0,1,1,2,2,3,3,4,4,5,5,6,6],"right_children":[2,4,6,8,10,12,14,-1,-1,-1,-1,-1,-1,-1,-1],"split_conditions":[4.22438E-2,3.4610618E-2,4.068E1,2.8375E1,1.9798405E-1,2.3287676E-1,2.510141E-1,4.952586E-3,-2.9165018E-2,-2.9337085E-3,-1.21127084E-1,-1.2446935E-2,-1.4120229E-1,2.0062117E-2,9.1159396E-2],"split_indices":[6,6,57,33,30,29,17,0,0,0,0,0,0,0,0],"split_type":[0,0,0,0,0,0,0,0,0,0,0,0,0,0,0],"sum_hessian":[5.61786E2,5.1499286E2,4.6793102E1,4.9144635E2,2.3546547E1,2.3157878E0,4.4477314E1,4.4310052E2,4.834583E1,1.4234278E1,9.312269E0,1.0650597E0,1.2507281E0,3.420297E1,1.0274345E1],"tree_param":{"num_deleted":"0","num_feature":"63","num_nodes":"15","size_leaf_vector":"1"}},{"base_weights":[-2.6134577E-2,-6.4627245E-2,1.5646219E-1,-5.0646048E-2,-8.391242E-1,4.9977955E-1,-5.9227332E-2,3.4291775E-3,-1.8668614E-2,9.854272E-3,-1.888983E-1,6.1084844E-2,-6.2364485E-2,-5.071457E-2,2.1787819E-2],"categories":[],"categories_nodes":[],"categories_segments":[],"categories_sizes":[],"default_left":[0,0,0,0,0,0,0,0,0,0,0,0,0,0,0],"id":76,"left_children":[1,3,5,7,9,11,13,-1,-1,-1,-1,-1,-1,-1,-1],"loss_changes":[4.0136943E0,5.0592585E0,7.394905E0,5.366235E0,8.34704E0,5.1828337E0,7.80355E0,0E0,0E0,0E0,0E0,0E0,0E0,0E0,0E0],"parents":[2147483647,0,0,1,1,2,2,3,3,4,4,5,5,6,6],"right_children":[2,4,6,8,10,12,14,-1,-1,-1,-1,-1,-1,-1,-1],"split_conditions":[2.1383233E-1,1.5666667E1,-1.3125737E-1,2.4333334E1,6E0,3.2402453E-1,4.4676693E1,3.4291775E-3,-1.8668614E-2,9.854272E-3,-1.888983E-1,6.1084844E-2,-6.2364485E-2,-5.071457E-2,2.1787819E-2],"split_indices":[25,3,28,14,50,1,57,0,0,0,0,0,0,0,0],"split_type":[0,0,0,0,0,0,0,0,0,0,0,0,0,0,0],"sum_hessian":[5.686101E2,4.701461E2,9.8464005E1,4.6285602E2,7.290073E0,3.7483555E1,6.0980453E1,2.8540735E2,1.7744865E2,4.329435E0,2.960638E0,3.4526325E1,2.9572306E0,2.298956E1,3.7990894E1],"tree_param":{"num_deleted":"0","num_feature":"63","num_nodes":"15","size_leaf_vector":"1"}},{"base_weights":[-1.5589304E-2,-3.0767865E-2,4.3208095E-1,-1.2974873E-1,3.80257E-2,-6.2836444E-1,6.32874E-1,3.8206488E-2,-2.189422E-2,4.0668577E-2,-1.8347977E-3,-1.5527344E-1,6.2581144E-2,8.326649E-2,-7.794928E-2],"categories":[],"categories_nodes":[],"categories_segments":[],"categories_sizes":[],"default_left":[0,0,0,0,0,0,0,0,0,0,0,0,0,0,0],"id":77,"left_children":[1,3,5,7,9,11,13,-1,-1,-1,-1,-1,-1,-1,-1],"loss_changes":[3.8535638E0,3.7334163E0,4.358232E0,1.0343431E1,6.7372193E0,4.986461E0,5.2026343E0,0E0,0E0,0E0,0E0,0E0,0E0,0E0,0E0],"parents":[2147483647,0,0,1,1,2,2,3,3,4,4,5,5,6,6],"right_children":[2,4,6,8,10,12,14,-1,-1,-1,-1,-1,-1,-1,-1],"split_conditions":[1E1,-1.0851429E-2,-1.4071305E-1,-2.2832985E-1,-3.364677E-2,6.657457E-2,2.2494722E-2,3.8206488E-2,-2.189422E-2,4.0668577E-2,-1.8347977E-3,-1.5527344E-1,6.2581144E-2,8.326649E-2,-7.794928E-2],"split_indices":[50,54,38,27,20,1,20,0,0,0,0,0,0,0,0],"split_type":[0,0,0,0,0,0,0,0,0,0,0,0,0,0,0],"sum_hessian":[5.641619E2,5.4656165E2,1.7600267E1,2.2374666E2,3.22815E2,2.463008E0,1.51372595E1,3.27182E1,1.9102846E2,4.1991856E1,2.8082315E2,1.2808942E0,1.1821138E0,1.3620917E1,1.5163424E0],"tree_param":{"num_deleted":"0","num_feature":"63","num_nodes":"15","size_leaf_vector":"1"}},{"base_weights":[-1.6175682E-2,-2.6380133E-2,8.6261666E-1,-1.7588955E-1,1.9396227E-2,1.0763389E-1,-1.4635297E-2,-2.4780186E-2,5.2419897E-2,-6.6408046E-2,3.6790476E-3],"categories":[],"categories_nodes":[],"categories_segments":[],"categories_sizes":[],"default_left":[0,0,0,0,0,0,0,0,0,0,0],"id":78,"left_children":[1,3,5,7,9,-1,-1,-1,-1,-1,-1],"loss_changes":[5.0386267E0,3.794184E0,1.5484066E0,6.6713896E0,5.0764704E0,0E0,0E0,0E0,0E0,0E0,0E0],"parents":[2147483647,0,0,1,1,2,2,3,3,4,4],"right_children":[2,4,6,8,10,-1,-1,-1,-1,-1,-1],"split_conditions":[8.214286E-1,1.8639846E-1,1.5830813E-1,1.05E1,-1.5424412E-1,1.0763389E-1,-1.4635297E-2,-2.4780186E-2,5.2419897E-2,-6.6408046E-2,3.6790476E-3],"split_indices":[55,18,52,10,53,0,0,0,0,0,0],"split_type":[0,0,0,0,0,0,0,0,0,0,0],"sum_hessian":[5.583329E2,5.528829E2,5.4500413E0,1.2893336E2,4.239495E2,4.4422946E0,1.0077468E0,1.1750901E2,1.1424351E1,9.598909E0,4.143506E2],"tree_param":{"num_deleted":"0","num_feature":"63","num_nodes":"11","size_leaf_vector":"1"}},{"base_weights":[3.083291E-2,-1.7223656E-2,1.8992168E-1,6.370026E-2,-1.7049044E-1,-1.5131973E-1,3.3178124E-1,1.761224E-2,-9.1700535E-3,-1.1020405E-2,-9.5300205E-2,1.5001416E-2,-8.7594025E-2,3.8212437E-2,-5.8170497E-2],"categories":[],"categories_nodes":[],"categories_segments":[],"categories_sizes":[],"default_left":[0,0,0,0,0,0,0,0,0,0,0,0,0,0,0],"id":79,"left_children":[1,3,5,7,9,11,13,-1,-1,-1,-1,-1,-1,-1,-1],"loss_changes":[4.2170324E0,5.2723255E0,6.2440157E0,4.8791313E0,6.8229165E0,8.485197E0,4.3929577E0,0E0,0E0,0E0,0E0,0E0,0E0,0E0,0E0],"parents":[2147483647,0,0,1,1,2,2,3,3,4,4,5,5,6,6],"right_children":[2,4,6,8,10,12,14,-1,-1,-1,-1,-1,-1,-1,-1],"split_conditions":[6.516854E-1,4.65E1,4.15E1,2.24E1,5E-1,2.35E1,2.5612757E-1,1.761224E-2,-9.1700535E-3,-1.1020405E-2,-9.5300205E-2,1.5001416E-2,-8.7594025E-2,3.8212437E-2,-5.8170497E-2],"split_indices":[55,11,11,24,9,14,17,0,0,0,0,0,0,0,0],"split_type":[0,0,0,0,0,0,0,0,0,0,0,0,0,0,0],"sum_hessian":[5.5016003E2,4.2321082E2,1.2694921E2,2.77354E2,1.4585681E2,3.7258255E1,8.9690956E1,1.608537E2,1.1650029E2,1.3648273E2,9.374091E0,2.6875174E1,1.0383083E1,8.555748E1,4.133472E0],"tree_param":{"num_deleted":"0","num_feature":"63","num_nodes":"15","size_leaf_vector":"1"}},{"base_weights":[-1.1160747E-2,2.6937425E-2,-2.1779487E-1,5.0080568E-2,-3.7474158E-1,-3.5007936E-1,2.8553036E-1,2.2395605E-3,5.215278E-2,-8.143565E-2,4.9566273E-2,1.6810607E-2,-5.2436437E-2,6.584584E-2,-4.4340935E-2],"categories":[],"categories_nodes":[],"categories_segments":[],"categories_sizes":[],"default_left":[0,0,0,0,0,0,0,0,0,0,0,0,0,0,0],"id":80,"left_children":[1,3,5,7,9,11,13,-1,-1,-1,-1,-1,-1,-1,-1],"loss_changes":[4.5004888E0,4.508291E0,6.025048E0,5.959854E0,1.0515924E1,6.492874E0,5.4763756E0,0E0,0E0,0E0,0E0,0E0,0E0,0E0,0E0],"parents":[2147483647,0,0,1,1,2,2,3,3,4,4,5,5,6,6],"right_children":[2,4,6,8,10,12,14,-1,-1,-1,-1,-1,-1,-1,-1],"split_conditions":[2.75E1,2.3212487E-1,4.087502E-2,2.5214353E-1,2.65E1,-9.536817E-3,5.686908E-2,2.2395605E-3,5.215278E-2,-8.143565E-2,4.9566273E-2,1.6810607E-2,-5.2436437E-2,6.584584E-2,-4.4340935E-2],"split_indices":[33,43,6,25,14,7,7,0,0,0,0,0,0,0,0],"split_type":[0,0,0,0,0,0,0,0,0,0,0,0,0,0,0],"sum_hessian":[5.699354E2,4.819462E2,8.798921E1,4.5651874E2,2.5427467E1,6.99178E1,1.8071405E1,4.3218677E2,2.4331957E1,1.6937326E1,8.49014E0,1.7606247E1,5.2311558E1,1.2019089E1,6.0523167E0],"tree_param":{"num_deleted":"0","num_feature":"63","num_nodes":"15","size_leaf_vector":"1"}},{"base_weights":[-1.0218624E-2,1.233953E-1,-7.29381E-2,-7.399587E-2,3.6312243E-1,-4.4947185E-2,-6.109002E-1,1.100764E-2,-4.0183943E-2,-7.187847E-3,6.332047E-2,-1.4067434E-3,-3.9471574E-2,8.765729E-2,-7.703582E-2],"categories":[],"categories_nodes":[],"categories_segments":[],"categories_sizes":[],"default_left":[0,0,0,0,0,0,0,0,0,0,0,0,0,0,0],"id":81,"left_children":[1,3,5,7,9,11,13,-1,-1,-1,-1,-1,-1,-1,-1],"loss_changes":[4.7603083E0,8.6150675E0,5.7921286E0,6.1009865E0,9.694199E0,3.973901E0,5.190168E0,0E0,0E0,0E0,0E0,0E0,0E0,0E0,0E0],"parents":[2147483647,0,0,1,1,2,2,3,3,4,4,5,5,6,6],"right_children":[2,4,6,8,10,12,14,-1,-1,-1,-1,-1,-1,-1,-1],"split_conditions":[4E-1,2.3E1,3.1E1,-3.789588E-2,-4E0,2.6454546E1,1.5333333E1,1.100764E-2,-4.0183943E-2,-7.187847E-3,6.332047E-2,-1.4067434E-3,-3.9471574E-2,8.765729E-2,-7.703582E-2],"split_indices":[45,22,24,32,10,41,13,0,0,0,0,0,0,0,0],"split_type":[0,0,0,0,0,0,0,0,0,0,0,0,0,0,0],"sum_hessian":[5.659686E2,1.8049185E2,3.8547675E2,9.936561E1,8.112625E1,3.674418E2,1.8034958E1,6.406159E1,3.530402E1,3.1356533E1,4.9769714E1,3.3858923E2,2.8852554E1,1.3107433E0,1.6724215E1],"tree_param":{"num_deleted":"0","num_feature":"63","num_nodes":"15","size_leaf_vector":"1"}}]},"name":"gbtree"},"learner_model_param":{"base_score":"5.5811244E-1","boost_from_average":"1","num_class":"0","num_feature":"63","num_target":"1"},"objective":{"name":"binary:logistic","reg_loss_param":{"scale_pos_weight":"1"}}},"version":[3,0,5]}