{"learner":{"attributes":{"best_iteration":"27","best_score":"0.603396038992094"},"feature_names":[],"feature_types":[],"gradient_booster":{"model":{"gbtree_model_param":{"num_parallel_tree":"1","num_trees":"78"},"iteration_indptr":[0,1,2,3,4,5,6,7,8,9,10,11,12,13,14,15,16,17,18,19,20,21,22,23,24,25,26,27,28,29,30,31,32,33,34,35,36,37,38,39,40,41,42,43,44,45,46,47,48,49,50,51,52,53,54,55,56,57,58,59,60,61,62,63,64,65,66,67,68,69,70,71,72,73,74,75,76,77,78],"tree_info":[0,0,0,0,0,0,0,0,0,0,0,0,0,0,0,0,0,0,0,0,0,0,0,0,0,0,0,0,0,0,0,0,0,0,0,0,0,0,0,0,0,0,0,0,0,0,0,0,0,0,0,0,0,0,0,0,0,0,0,0,0,0,0,0,0,0,0,0,0,0,0,0,0,0,0,0,0,0],"trees":[{"base_weights":[-4.439473E-3,-8.224787E-1,5.3254735E-1,-1.0969481E0,-3.4873587E-1,2.005888E-1,1.0100406E0,-7.594343E-2,-1.2703937E-1,-1.00860596E-1,-7.963578E-3,-1.1269066E-2,4.5957543E-2,7.8105964E-2,1.233567E-1],"categories":[],"categories_nodes":[],"categories_segments":[],"categories_sizes":[],"default_left":[0,0,0,0,0,0,0,0,0,0,0,0,0,0,0],"id":0,"left_children":[1,3,5,7,9,11,13,-1,-1,-1,-1,-1,-1,-1,-1],"loss_changes":[2.56441E2,2.9698883E1,5.5661575E1,7.582947E0,1.5249666E1,1.7021194E1,6.421631E0,0E0,0E0,0E0,0E0,0E0,0E0,0E0,0E0],"parents":[2147483647,0,0,1,1,2,2,3,3,4,4,5,5,6,6],"right_children":[2,4,6,8,10,12,14,-1,-1,-1,-1,-1,-1,-1,-1],"split_conditions":[2E0,1.7865169E0,7E0,-2.2400212E-1,-4E0,2.5E0,2.1424944E-2,-7.594343E-2,-1.2703937E-1,-1.00860596E-1,-7.963578E-3,-1.1269066E-2,4.5957543E-2,7.8105964E-2,1.233567E-1],"split_indices":[10,56,10,8,10,56,7,0,0,0,0,0,0,0,0],"split_type":[0,0,0,0,0,0,0,0,0,0,0,0,0,0,0],"sum_hessian":[5.817835E2,2.3034584E2,3.514377E2,1.450143E2,8.533154E1,2.0814977E2,1.4328793E2,5.105095E1,9.396334E1,2.3922426E1,6.1409115E1,9.445659E1,1.1369318E2,7.30004E1,7.0287544E1],"tree_param":{"num_deleted":"0","num_feature":"63","num_nodes":"15","size_leaf_vector":"1"}},{"base_weights":[-1.0186889E-2,-4.6479723E-1,4.7858948E-1,-7.2663206E-1,9.38433E-2,-8.412434E-2,7.8482205E-1,-8.981754E-2,-4.150378E-2,-5.1841676E-2,3.104716E-2,-7.055358E-2,9.439411E-3,5.7959765E-2,1.20961845E-1],"categories":[],"categories_nodes":[],"categories_segments":[],"categories_sizes":[],"default_left":[0,0,0,0,0,0,0,0,0,0,0,0,0,0,0],"id":1,"left_children":[1,3,5,7,9,11,13,-1,-1,-1,-1,-1,-1,-1,-1],"loss_changes":[1.3286304E2,4.53808E1,4.972052E1,1.0907631E1,1.33905115E1,1.1432031E1,1.5574959E1,0E0,0E0,0E0,0E0,0E0,0E0,0E0,0E0],"parents":[2147483647,0,0,1,1,2,2,3,3,4,4,5,5,6,6],"right_children":[2,4,6,8,10,12,14,-1,-1,-1,-1,-1,-1,-1,-1],"split_conditions":[5.730337E-1,2.6555646E-2,-4.6902723E-3,2.35E1,3E0,-3.764635E-2,1.2589057E-1,-8.981754E-2,-4.150378E-2,-5.1841676E-2,3.104716E-2,-7.055358E-2,9.439411E-3,5.7959765E-2,1.20961845E-1],"split_indices":[55,1,2,36,50,7,1,0,0,0,0,0,0,0,0],"split_type":[0,0,0,0,0,0,0,0,0,0,0,0,0,0,0],"sum_hessian":[5.959348E2,3.0878412E2,2.871507E2,2.1003839E2,9.874572E1,1.0145275E2,1.8569795E2,1.3424785E2,7.579055E1,2.5442905E1,7.330282E1,2.198214E1,7.947061E1,1.26802505E2,5.889544E1],"tree_param":{"num_deleted":"0","num_feature":"63","num_nodes":"15","size_leaf_vector":"1"}},{"base_weights":[-1.5810014E-4,-4.9590802E-1,5.765402E-1,-1.0734913E0,-3.0156612E-1,2.4961735E-1,8.692735E-1,-1.12188615E-1,4.1050013E-2,-5.0319828E-2,4.3459246E-3,-7.49911E-2,3.5576813E-2,1.0767422E-1,5.835823E-2],"categories":[],"categories_nodes":[],"categories_segments":[],"categories_sizes":[],"default_left":[0,0,0,0,0,0,0,0,0,0,0,0,0,0,0],"id":2,"left_children":[1,3,5,7,9,11,13,-1,-1,-1,-1,-1,-1,-1,-1],"loss_changes":[1.6890324E2,3.533615E1,2.5918503E1,6.1765594E0,1.665532E1,1.4104039E1,7.887741E0,0E0,0E0,0E0,0E0,0E0,0E0,0E0,0E0],"parents":[2147483647,0,0,1,1,2,2,3,3,4,4,5,5,6,6],"right_children":[2,4,6,8,10,12,14,-1,-1,-1,-1,-1,-1,-1,-1],"split_conditions":[3.5E0,-4E0,7E0,1.3E1,2.7826087E0,-1.03733286E-1,1.9878428E-1,-1.12188615E-1,4.1050013E-2,-5.0319828E-2,4.3459246E-3,-7.49911E-2,3.5576813E-2,1.0767422E-1,5.835823E-2],"split_indices":[10,10,10,49,56,25,30,0,0,0,0,0,0,0,0],"split_type":[0,0,0,0,0,0,0,0,0,0,0,0,0,0,0],"sum_hessian":[5.887812E2,3.1668652E2,2.7209467E2,7.859092E1,2.380956E2,1.2941617E2,1.426785E2,7.6345215E1,2.2457051E0,1.4998578E2,8.810982E1,1.1842374E1,1.175738E2,8.1050674E1,6.1627834E1],"tree_param":{"num_deleted":"0","num_feature":"63","num_nodes":"15","size_leaf_vector":"1"}},{"base_weights":[-9.056585E-3,-4.4961655E-1,5.3764164E-1,-1.0818725E0,-2.9987526E-1,2.2999282E-1,8.119187E-1,-3.9372575E-2,-1.18386604E-1,-4.6071973E-2,-1.2215527E-4,-3.4347635E-2,4.537323E-2,6.210604E-2,9.987295E-2],"categories":[],"categories_nodes":[],"categories_segments":[],"categories_sizes":[],"default_left":[0,0,0,0,0,0,0,0,0,0,0,0,0,0,0],"id":3,"left_children":[1,3,5,7,9,11,13,-1,-1,-1,-1,-1,-1,-1,-1],"loss_changes":[1.4156474E2,3.0488922E1,2.194593E1,3.8811188E0,1.2706451E1,1.6197071E1,4.3097763E0,0E0,0E0,0E0,0E0,0E0,0E0,0E0,0E0],"parents":[2147483647,0,0,1,1,2,2,3,3,4,4,5,5,6,6],"right_children":[2,4,6,8,10,12,14,-1,-1,-1,-1,-1,-1,-1,-1],"split_conditions":[3.5E0,-5.5E0,7E0,-1.8819459E-1,5.8208954E-1,-1.8166486E-2,2.1424944E-2,-3.9372575E-2,-1.18386604E-1,-4.6071973E-2,-1.2215527E-4,-3.4347635E-2,4.537323E-2,6.210604E-2,9.987295E-2],"split_indices":[10,10,10,28,55,2,7,0,0,0,0,0,0,0,0],"split_type":[0,0,0,0,0,0,0,0,0,0,0,0,0,0,0],"sum_hessian":[5.857595E2,3.2446506E2,2.612945E2,6.093844E1,2.635266E2,1.2402154E2,1.3727295E2,8.493483E0,5.2444954E1,1.7092805E2,9.259856E1,3.46569E1,8.936464E1,7.0039986E1,6.7232956E1],"tree_param":{"num_deleted":"0","num_feature":"63","num_nodes":"15","size_leaf_vector":"1"}},{"base_weights":[-2.870489E-2,-3.9203298E-1,4.182533E-1,-8.777111E-1,-2.251545E-1,1.1498023E-1,6.986227E-1,-9.890544E-2,-3.0002974E-3,-4.3743186E-2,3.4243886E-3,-9.388422E-3,5.246346E-2,4.811684E-2,9.3254104E-2],"categories":[],"categories_nodes":[],"categories_segments":[],"categories_sizes":[],"default_left":[0,0,0,0,0,0,0,0,0,0,0,0,0,0,0],"id":4,"left_children":[1,3,5,7,9,11,13,-1,-1,-1,-1,-1,-1,-1,-1],"loss_changes":[9.4039734E1,2.5688522E1,2.200085E1,7.646984E0,1.3178443E1,1.082559E1,6.405266E0,0E0,0E0,0E0,0E0,0E0,0E0,0E0,0E0],"parents":[2147483647,0,0,1,1,2,2,3,3,4,4,5,5,6,6],"right_children":[2,4,6,8,10,12,14,-1,-1,-1,-1,-1,-1,-1,-1],"split_conditions":[3.5E0,-4E0,7E0,6.5E-1,5.609756E-1,6.4705884E-1,2.2917826E-2,-9.890544E-2,-3.0002974E-3,-4.3743186E-2,3.4243886E-3,-9.388422E-3,5.246346E-2,4.811684E-2,9.3254104E-2],"split_indices":[10,10,10,55,55,55,7,0,0,0,0,0,0,0,0],"split_type":[0,0,0,0,0,0,0,0,0,0,0,0,0,0,0],"sum_hessian":[5.770795E2,3.183879E2,2.5869162E2,8.0332115E1,2.3805579E2,1.2494732E2,1.3374431E2,7.08584E1,9.473719E0,1.3054149E2,1.075143E2,8.326503E1,4.168229E1,7.0895584E1,6.2848717E1],"tree_param":{"num_deleted":"0","num_feature":"63","num_nodes":"15","size_leaf_vector":"1"}},{"base_weights":[2.0752752E-2,-2.4429904E-1,3.6035535E-1,-4.5550725E-1,1.5982229E-1,-1.7097451E-1,4.679628E-1,-2.7086088E-2,-8.251876E-2,3.5068523E-2,-8.5077725E-2,-3.0558545E-2,1.2905727E-1,6.248784E-2,-3.7589183E-3],"categories":[],"categories_nodes":[],"categories_segments":[],"categories_sizes":[],"default_left":[0,0,0,0,0,0,0,0,0,0,0,0,0,0,0],"id":5,"left_children":[1,3,5,7,9,11,13,-1,-1,-1,-1,-1,-1,-1,-1],"loss_changes":[5.2087326E1,2.7817436E1,1.4581684E1,1.4366501E1,2.1962032E1,8.94253E0,1.6776783E1,0E0,0E0,0E0,0E0,0E0,0E0,0E0,0E0],"parents":[2147483647,0,0,1,1,2,2,3,3,4,4,5,5,6,6],"right_children":[2,4,6,8,10,12,14,-1,-1,-1,-1,-1,-1,-1,-1],"split_conditions":[9.235971E-3,3.2022471E0,-3.0769232E-1,6E0,2.68E1,4.9921032E-2,1.4791543E-2,-2.7086088E-2,-8.251876E-2,3.5068523E-2,-8.5077725E-2,-3.0558545E-2,1.2905727E-1,6.248784E-2,-3.7589183E-3],"split_indices":[1,56,56,48,23,7,53,0,0,0,0,0,0,0,0],"split_type":[0,0,0,0,0,0,0,0,0,0,0,0,0,0,0],"sum_hessian":[5.766911E2,3.2405472E2,2.526364E2,2.1274135E2,1.1131337E2,4.244891E1,2.101875E2,1.4303267E2,6.970867E1,9.417951E1,1.7133854E1,3.9593224E1,2.8556855E0,1.6022124E2,4.9966255E1],"tree_param":{"num_deleted":"0","num_feature":"63","num_nodes":"15","size_leaf_vector":"1"}},{"base_weights":[-1.9764738E-2,-2.6581952E-1,7.0032287E-1,-5.0557196E-1,9.315474E-3,5.3221744E-1,9.392979E-1,1.5574803E-3,-6.68058E-2,-4.3419823E-2,1.6897932E-2,7.8888305E-2,1.4196514E-2,3.8956467E-3,1.07992366E-1],"categories":[],"categories_nodes":[],"categories_segments":[],"categories_sizes":[],"default_left":[0,0,0,0,0,0,0,0,0,0,0,0,0,0,0],"id":6,"left_children":[1,3,5,7,9,11,13,-1,-1,-1,-1,-1,-1,-1,-1],"loss_changes":[1.02506E2,2.8444517E1,5.4195175E0,1.9520592E1,1.43590555E1,8.783367E0,7.496437E0,0E0,0E0,0E0,0E0,0E0,0E0,0E0,0E0],"parents":[2147483647,0,0,1,1,2,2,3,3,4,4,5,5,6,6],"right_children":[2,4,6,8,10,12,14,-1,-1,-1,-1,-1,-1,-1,-1],"split_conditions":[6.5E0,5.473684E-1,1E1,-4.6256214E-2,-2.5E0,2.5833334E1,3.95E1,1.5574803E-3,-6.68058E-2,-4.3419823E-2,1.6897932E-2,7.8888305E-2,1.4196514E-2,3.8956467E-3,1.07992366E-1],"split_indices":[10,55,10,38,10,39,11,0,0,0,0,0,0,0,0],"split_type":[0,0,0,0,0,0,0,0,0,0,0,0,0,0,0],"sum_hessian":[5.764877E2,4.3013937E2,1.4634828E2,2.294015E2,2.0073785E2,8.7807655E1,5.854063E1,5.4739105E1,1.746624E2,5.2681076E1,1.4805678E2,5.235364E1,3.545401E1,8.080851E0,5.0459778E1],"tree_param":{"num_deleted":"0","num_feature":"63","num_nodes":"15","size_leaf_vector":"1"}},{"base_weights":[1.2468889E-2,-1.7531727E-1,3.4830126E-1,-3.0309996E-1,2.4559852E-1,-1.9979991E-1,4.5853597E-1,-1.642177E-2,-5.7029404E-2,-4.578367E-2,3.714719E-2,5.997449E-2,-4.469211E-2,6.0109515E-2,-4.7742617E-3],"categories":[],"categories_nodes":[],"categories_segments":[],"categories_sizes":[],"default_left":[0,0,0,0,0,0,0,0,0,0,0,0,0,0,0],"id":7,"left_children":[1,3,5,7,9,11,13,-1,-1,-1,-1,-1,-1,-1,-1],"loss_changes":[3.6200546E1,1.9878576E1,1.2529037E1,1.0404459E1,7.8114853E0,7.216095E0,1.2420021E1,0E0,0E0,0E0,0E0,0E0,0E0,0E0,0E0],"parents":[2147483647,0,0,1,1,2,2,3,3,4,4,5,5,6,6],"right_children":[2,4,6,8,10,12,14,-1,-1,-1,-1,-1,-1,-1,-1],"split_conditions":[3.3992168E-2,6.516854E-1,4.7540984E-1,6E0,-3.5891835E-2,1.8278357E-1,1.2317555E-2,-1.642177E-2,-5.7029404E-2,-4.578367E-2,3.714719E-2,5.997449E-2,-4.469211E-2,6.0109515E-2,-4.7742617E-3],"split_indices":[1,55,55,48,7,44,53,0,0,0,0,0,0,0,0],"split_type":[0,0,0,0,0,0,0,0,0,0,0,0,0,0,0],"sum_hessian":[5.720543E2,3.672041E2,2.0485022E2,2.8190314E2,8.530097E1,3.416499E1,1.7068523E2,1.8655176E2,9.535137E1,1.2546784E1,7.275419E1,7.7295613E0,2.6435429E1,1.3303705E2,3.7648182E1],"tree_param":{"num_deleted":"0","num_feature":"63","num_nodes":"15","size_leaf_vector":"1"}},{"base_weights":[3.5302382E-2,-3.0129352E-1,4.6002877E-1,-8.3176225E-1,-1.2436837E-1,2.2980054E-1,6.860461E-1,-4.0593788E-2,-1.06373444E-1,1.8255925E-2,-2.6606956E-2,-2.9563883E-2,3.7849024E-2,1.01279795E-1,5.5336148E-2],"categories":[],"categories_nodes":[],"categories_segments":[],"categories_sizes":[],"default_left":[0,0,0,0,0,0,0,0,0,0,0,0,0,0,0],"id":8,"left_children":[1,3,5,7,9,11,13,-1,-1,-1,-1,-1,-1,-1,-1],"loss_changes":[8.192629E1,2.9907614E1,1.302459E1,7.450817E0,1.0528647E1,1.0034105E1,4.9599876E0,0E0,0E0,0E0,0E0,0E0,0E0,0E0,0E0],"parents":[2147483647,0,0,1,1,2,2,3,3,4,4,5,5,6,6],"right_children":[2,4,6,8,10,12,14,-1,-1,-1,-1,-1,-1,-1,-1],"split_conditions":[3.5E0,-4.5E0,7E0,-3.222869E-1,2.857143E-1,-8.6302914E-2,-3.219251E-3,-4.0593788E-2,-1.06373444E-1,1.8255925E-2,-2.6606956E-2,-2.9563883E-2,3.7849024E-2,1.01279795E-1,5.5336148E-2],"split_indices":[10,10,10,8,12,8,37,0,0,0,0,0,0,0,0],"split_type":[0,0,0,0,0,0,0,0,0,0,0,0,0,0,0],"sum_hessian":[5.710972E2,3.1876578E2,2.5233145E2,7.88003E1,2.3996548E2,1.2600035E2,1.263311E2,2.8758722E1,5.0041576E1,7.570298E1,1.642625E2,2.757336E1,9.842699E1,3.456862E1,9.176248E1],"tree_param":{"num_deleted":"0","num_feature":"63","num_nodes":"15","size_leaf_vector":"1"}},{"base_weights":[-1.2539012E-3,-3.7342533E-1,2.6507226E-1,-6.051635E-1,-1.3840489E-1,1.2118607E-1,5.4544234E-1,-2.7219808E-2,-7.6282084E-2,4.8245225E-2,-2.957703E-2,-4.448717E-3,4.7530435E-2,1.2356438E-2,7.472849E-2],"categories":[],"categories_nodes":[],"categories_segments":[],"categories_sizes":[],"default_left":[0,0,0,0,0,0,0,0,0,0,0,0,0,0,0],"id":9,"left_children":[1,3,5,7,9,11,13,-1,-1,-1,-1,-1,-1,-1,-1],"loss_changes":[5.432831E1,1.2367817E1,1.2822556E1,5.8197365E0,1.1359261E1,1.2483422E1,9.11005E0,0E0,0E0,0E0,0E0,0E0,0E0,0E0,0E0],"parents":[2147483647,0,0,1,1,2,2,3,3,4,4,5,5,6,6],"right_children":[2,4,6,8,10,12,14,-1,-1,-1,-1,-1,-1,-1,-1],"split_conditions":[2E0,5.043478E-1,6.4705884E-1,-2.3840499E-1,2E0,7E0,-1.3157281E-3,-2.7219808E-2,-7.6282084E-2,4.8245225E-2,-2.957703E-2,-4.448717E-3,4.7530435E-2,1.2356438E-2,7.472849E-2],"split_indices":[10,55,55,8,48,10,0,0,0,0,0,0,0,0,0],"split_type":[0,0,0,0,0,0,0,0,0,0,0,0,0,0,0],"sum_hessian":[5.4611334E2,2.2762369E2,3.184897E2,1.1381917E2,1.1380452E2,2.1142065E2,1.0706903E2,3.7450935E1,7.6368225E1,2.259483E1,9.120969E1,1.4463019E2,6.679046E1,3.517039E1,7.189864E1],"tree_param":{"num_deleted":"0","num_feature":"63","num_nodes":"15","size_leaf_vector":"1"}},{"base_weights":[5.586581E-3,-3.2655558E-1,1.5266536E-1,-2.4832435E-1,-8.642019E-1,4.1164095E-3,4.509373E-1,-4.6512853E-2,-7.976821E-3,-1.0269938E-1,1.0204046E-1,-1.8377766E-2,3.7104532E-2,-1.5920093E-2,5.6226607E-2],"categories":[],"categories_nodes":[],"categories_segments":[],"categories_sizes":[],"default_left":[0,0,0,0,0,0,0,0,0,0,0,0,0,0,0],"id":10,"left_children":[1,3,5,7,9,11,13,-1,-1,-1,-1,-1,-1,-1,-1],"loss_changes":[2.734596E1,7.0118275E0,1.718753E1,5.4951963E0,7.619793E0,1.7992458E1,8.849812E0,0E0,0E0,0E0,0E0,0E0,0E0,0E0,0E0],"parents":[2147483647,0,0,1,1,2,2,3,3,4,4,5,5,6,6],"right_children":[2,4,6,8,10,12,14,-1,-1,-1,-1,-1,-1,-1,-1],"split_conditions":[-3.7E0,-4.6E0,4.4026847E0,-3.0608553E-2,2.2342391E-1,2.4181818E1,-1.8E0,-4.6512853E-2,-7.976821E-3,-1.0269938E-1,1.0204046E-1,-1.8377766E-2,3.7104532E-2,-1.5920093E-2,5.6226607E-2],"split_indices":[5,5,56,6,43,42,4,0,0,0,0,0,0,0,0],"split_type":[0,0,0,0,0,0,0,0,0,0,0,0,0,0,0],"sum_hessian":[5.577617E2,1.7080939E2,3.8695233E2,1.5038867E2,2.0420713E1,2.589839E2,1.27968445E2,6.501023E1,8.537845E1,1.921591E1,1.2048033E0,1.7160757E2,8.737631E1,1.9680304E1,1.0828814E2],"tree_param":{"num_deleted":"0","num_feature":"63","num_nodes":"15","size_leaf_vector":"1"}},{"base_weights":[1.3045386E-2,-8.167481E-2,3.7650126E-1,-7.726502E-1,-3.138465E-2,-3.151832E-1,4.9380213E-1,-1.2268117E-2,-1.052837E-1,6.7437044E-3,-3.0418077E-2,-1.5351741E-1,-8.281125E-3,1.2502699E-1,4.2083222E-2],"categories":[],"categories_nodes":[],"categories_segments":[],"categories_sizes":[],"default_left":[0,0,0,0,0,0,0,0,0,0,0,0,0,0,0],"id":11,"left_children":[1,3,5,7,9,11,13,-1,-1,-1,-1,-1,-1,-1,-1],"loss_changes":[1.9521421E1,1.5610514E1,9.6663475E0,5.4221096E0,1.1355029E1,4.864331E0,5.027647E0,0E0,0E0,0E0,0E0,0E0,0E0,0E0,0E0],"parents":[2147483647,0,0,1,1,2,2,3,3,4,4,5,5,6,6],"right_children":[2,4,6,8,10,12,14,-1,-1,-1,-1,-1,-1,-1,-1],"split_conditions":[5.3E0,4E-1,-1.5810391E-1,-1.1771658E-1,2.5375E1,1.8625E1,2.6E0,-1.2268117E-2,-1.052837E-1,6.7437044E-3,-3.0418077E-2,-1.5351741E-1,-8.281125E-3,1.2502699E-1,4.2083222E-2],"split_indices":[5,55,54,51,35,36,4,0,0,0,0,0,0,0,0],"split_type":[0,0,0,0,0,0,0,0,0,0,0,0,0,0,0],"sum_hessian":[5.651513E2,4.4893082E2,1.1622052E2,2.9482607E1,4.1944818E2,1.660708E1,9.961344E1,9.314038E0,2.016857E1,3.084599E2,1.1098828E2,1.7600406E0,1.484704E1,7.3441153E0,9.2269325E1],"tree_param":{"num_deleted":"0","num_feature":"63","num_nodes":"15","size_leaf_vector":"1"}},{"base_weights":[3.9548527E-2,-2.677026E-1,2.7288103E-1,-4.4984743E-1,-1.5637958E-2,1.1090558E-1,5.579052E-1,-3.549025E-2,-1.0065784E-1,8.097562E-3,-7.049874E-2,-1.6908197E-3,5.973777E-2,6.06817E-2,-1.7782994E-2],"categories":[],"categories_nodes":[],"categories_segments":[],"categories_sizes":[],"default_left":[0,0,0,0,0,0,0,0,0,0,0,0,0,0,0],"id":12,"left_children":[1,3,5,7,9,11,13,-1,-1,-1,-1,-1,-1,-1,-1],"loss_changes":[4.0398388E1,1.1162945E1,1.4720453E1,7.106266E0,6.9231086E0,1.2782396E1,4.274296E0,0E0,0E0,0E0,0E0,0E0,0E0,0E0,0E0],"parents":[2147483647,0,0,1,1,2,2,3,3,4,4,5,5,6,6],"right_children":[2,4,6,8,10,12,14,-1,-1,-1,-1,-1,-1,-1,-1],"split_conditions":[2E0,5.270936E-1,7E0,3.011111E1,8E0,6.666667E-1,8.212684E-2,-3.549025E-2,-1.0065784E-1,8.097562E-3,-7.049874E-2,-1.6908197E-3,5.973777E-2,6.06817E-2,-1.7782994E-2],"split_indices":[10,55,10,34,47,55,27,0,0,0,0,0,0,0,0],"split_type":[0,0,0,0,0,0,0,0,0,0,0,0,0,0,0],"sum_hessian":[5.614827E2,2.4228963E2,3.191931E2,1.40197E2,1.0209262E2,2.0441556E2,1.14777565E2,1.2117012E2,1.9026888E1,9.0317055E1,1.1775566E1,1.6264745E2,4.1768112E1,1.0778708E2,6.9904833E0],"tree_param":{"num_deleted":"0","num_feature":"63","num_nodes":"15","size_leaf_vector":"1"}},{"base_weights":[4.242793E-3,-1.5268399E-1,4.7605073E-1,-5.343112E-1,-4.7811277E-2,7.7064484E-1,3.0624303E-1,3.1811424E-2,-6.720618E-2,1.7390009E-3,-5.226112E-2,8.688701E-2,-2.0395976E-2,-4.670096E-2,4.294796E-2],"categories":[],"categories_nodes":[],"categories_segments":[],"categories_sizes":[],"default_left":[0,0,0,0,0,0,0,0,0,0,0,0,0,0,0],"id":13,"left_children":[1,3,5,7,9,11,13,-1,-1,-1,-1,-1,-1,-1,-1],"loss_changes":[4.0211853E1,1.6286678E1,6.5450306E0,1.0518963E1,9.940799E0,4.8590107E0,8.552883E0,0E0,0E0,0E0,0E0,0E0,0E0,0E0,0E0],"parents":[2147483647,0,0,1,1,2,2,3,3,4,4,5,5,6,6],"right_children":[2,4,6,8,10,12,14,-1,-1,-1,-1,-1,-1,-1,-1],"split_conditions":[6.5E0,-3.5E0,-9.777189E-2,-1.8819459E-1,2.5E-1,3E1,5.043478E-1,3.1811424E-2,-6.720618E-2,1.7390009E-3,-5.226112E-2,8.688701E-2,-2.0395976E-2,-4.670096E-2,4.294796E-2],"split_indices":[10,10,27,28,9,42,55,0,0,0,0,0,0,0,0],"split_type":[0,0,0,0,0,0,0,0,0,0,0,0,0,0,0],"sum_hessian":[5.411333E2,4.0657864E2,1.3455466E2,8.676171E1,3.1981693E2,4.790588E1,8.6648766E1,1.1887903E1,7.487381E1,2.8204837E2,3.776855E1,4.3618313E1,4.287568E0,1.1527771E1,7.5120995E1],"tree_param":{"num_deleted":"0","num_feature":"63","num_nodes":"15","size_leaf_vector":"1"}},{"base_weights":[-7.836576E-3,-2.1719119E-1,2.655662E-1,-2.5179094E-1,5.0016385E-1,3.7192333E-1,-4.7306176E-2,-3.084241E-3,-3.456782E-2,-3.3203866E-2,9.374093E-2,2.8906822E-2,9.6882574E-2,-2.1665638E-2,6.4273365E-2],"categories":[],"categories_nodes":[],"categories_segments":[],"categories_sizes":[],"default_left":[0,0,0,0,0,0,0,0,0,0,0,0,0,0,0],"id":14,"left_children":[1,3,5,7,9,11,13,-1,-1,-1,-1,-1,-1,-1,-1],"loss_changes":[3.17117E1,7.9132347E0,8.013081E0,6.2121086E0,5.6861954E0,8.594E0,7.3662977E0,0E0,0E0,0E0,0E0,0E0,0E0,0E0,0E0],"parents":[2147483647,0,0,1,1,2,2,3,3,4,4,5,5,6,6],"right_children":[2,4,6,8,10,12,14,-1,-1,-1,-1,-1,-1,-1,-1],"split_conditions":[3.5E0,4.0229872E-2,1.4791543E-2,-6.763972E-2,-2.5E0,1.0340124E-1,2.0956527E-2,-3.084241E-3,-3.456782E-2,-3.3203866E-2,9.374093E-2,2.8906822E-2,9.6882574E-2,-2.1665638E-2,6.4273365E-2],"split_indices":[10,6,53,51,10,51,28,0,0,0,0,0,0,0,0],"split_type":[0,0,0,0,0,0,0,0,0,0,0,0,0,0,0],"sum_hessian":[5.520233E2,3.1274698E2,2.3927634E2,2.9897568E2,1.3771316E1,1.7843187E2,6.084447E1,8.955377E1,2.0942189E2,4.8262334E0,8.945082E0,1.5798631E2,2.0445559E1,4.940538E1,1.1439091E1],"tree_param":{"num_deleted":"0","num_feature":"63","num_nodes":"15","size_leaf_vector":"1"}},{"base_weights":[-3.7548378E-2,-2.2786757E-1,2.1646787E-1,-9.332725E-1,-1.9177377E-1,4.0195577E-2,5.0916994E-1,2.515578E-2,-1.0794385E-1,5.524161E-3,-2.9221922E-2,-2.5804203E-3,7.781139E-2,7.028556E-2,1.0653808E-3],"categories":[],"categories_nodes":[],"categories_segments":[],"categories_sizes":[],"default_left":[0,0,0,0,0,0,0,0,0,0,0,0,0,0,0],"id":15,"left_children":[1,3,5,7,9,11,13,-1,-1,-1,-1,-1,-1,-1,-1],"loss_changes":[2.6119864E1,7.682667E0,1.1923553E1,2.829709E0,7.335642E0,7.1096406E0,8.385647E0,0E0,0E0,0E0,0E0,0E0,0E0,0E0,0E0],"parents":[2147483647,0,0,1,1,2,2,3,3,4,4,5,5,6,6],"right_children":[2,4,6,8,10,12,14,-1,-1,-1,-1,-1,-1,-1,-1],"split_conditions":[3.5E0,3.6607143E-1,6.4705884E-1,6.75E0,-6.6730455E-2,1E1,2.0054033E-2,2.515578E-2,-1.0794385E-1,5.524161E-3,-2.9221922E-2,-2.5804203E-3,7.781139E-2,7.028556E-2,1.0653808E-3],"split_indices":[10,55,55,24,51,50,53,0,0,0,0,0,0,0,0],"split_type":[0,0,0,0,0,0,0,0,0,0,0,0,0,0,0],"sum_hessian":[5.382695E2,3.0777502E2,2.3049448E2,1.3771562E1,2.9400345E2,1.4456891E2,8.5925575E1,1.4331691E0,1.2338393E1,8.512187E1,2.0888158E2,1.3358594E2,1.0982962E1,6.158746E1,2.4338116E1],"tree_param":{"num_deleted":"0","num_feature":"63","num_nodes":"15","size_leaf_vector":"1"}},{"base_weights":[-9.245355E-3,-2.7551883E-1,1.9219774E-1,-1.1976067E-1,-5.297522E-1,7.7839285E-2,5.0282323E-1,-7.827317E-2,-3.7602966E-3,-2.0360911E-2,-8.563185E-2,1.4803064E-2,-4.280622E-2,-8.374022E-2,5.4709505E-2],"categories":[],"categories_nodes":[],"categories_segments":[],"categories_sizes":[],"default_left":[0,0,0,0,0,0,0,0,0,0,0,0,0,0,0],"id":16,"left_children":[1,3,5,7,9,11,13,-1,-1,-1,-1,-1,-1,-1,-1],"loss_changes":[2.9554493E1,9.333141E0,1.1104606E1,8.055647E0,9.396105E0,8.247547E0,5.4559956E0,0E0,0E0,0E0,0E0,0E0,0E0,0E0,0E0],"parents":[2147483647,0,0,1,1,2,2,3,3,4,4,5,5,6,6],"right_children":[2,4,6,8,10,12,14,-1,-1,-1,-1,-1,-1,-1,-1],"split_conditions":[2E0,2.24E1,6.666667E-1,4.3103448E-1,-8.429508E-2,6.881138E-2,-2.163253E-1,-7.827317E-2,-3.7602966E-3,-2.0360911E-2,-8.563185E-2,1.4803064E-2,-4.280622E-2,-8.374022E-2,5.4709505E-2],"split_indices":[10,24,55,55,0,54,0,0,0,0,0,0,0,0,0],"split_type":[0,0,0,0,0,0,0,0,0,0,0,0,0,0,0],"sum_hessian":[5.490022E2,2.36294E2,3.1270816E2,1.4743675E2,8.885726E1,2.2947595E2,8.323222E1,1.53161335E1,1.3212062E2,4.5269703E1,4.3587555E1,2.0213773E2,2.7338228E1,2.0886393E0,8.1143585E1],"tree_param":{"num_deleted":"0","num_feature":"63","num_nodes":"15","size_leaf_vector":"1"}},{"base_weights":[-8.664322E-3,-2.5131044E-1,1.2882501E-1,-4.086576E-1,6.688951E-2,4.029883E-2,4.5032617E-1,-9.341879E-3,-6.4984046E-2,-1.403351E-2,4.4488456E-2,-3.5614115E-3,4.4032652E-2,-4.8195835E-2,5.4861613E-2],"categories":[],"categories_nodes":[],"categories_segments":[],"categories_sizes":[],"default_left":[0,0,0,0,0,0,0,0,0,0,0,0,0,0,0],"id":17,"left_children":[1,3,5,7,9,11,13,-1,-1,-1,-1,-1,-1,-1,-1],"loss_changes":[1.8028229E1,9.812619E0,9.800518E0,9.892754E0,5.1950684E0,8.263394E0,7.0805855E0,0E0,0E0,0E0,0E0,0E0,0E0,0E0,0E0],"parents":[2147483647,0,0,1,1,2,2,3,3,4,4,5,5,6,6],"right_children":[2,4,6,8,10,12,14,-1,-1,-1,-1,-1,-1,-1,-1],"split_conditions":[1E0,-3.0860528E-2,2.51E1,3E0,2.1519423E-1,1E1,1.8847333E-1,-9.341879E-3,-6.4984046E-2,-1.403351E-2,4.4488456E-2,-3.5614115E-3,4.4032652E-2,-4.8195835E-2,5.4861613E-2],"split_indices":[10,28,34,50,26,10,43,0,0,0,0,0,0,0,0],"split_type":[0,0,0,0,0,0,0,0,0,0,0,0,0,0,0],"sum_hessian":[5.384238E2,1.9444043E2,3.4398337E2,1.2991454E2,6.45259E1,2.7059866E2,7.338469E1,5.6913242E1,7.300129E1,4.208357E1,2.2442335E1,2.2820363E2,4.2395054E1,6.626699E0,6.6757996E1],"tree_param":{"num_deleted":"0","num_feature":"63","num_nodes":"15","size_leaf_vector":"1"}},{"base_weights":[3.3481333E-2,-7.729607E-2,3.5551918E-1,-4.1348934E-1,1.9517967E-2,4.3365398E-1,-1.8090685E-1,1.562659E-3,-6.816429E-2,-5.453051E-2,7.55151E-3,3.034636E-3,5.5686858E-2,-1.13365434E-1,1.3693431E-2],"categories":[],"categories_nodes":[],"categories_segments":[],"categories_sizes":[],"default_left":[0,0,0,0,0,0,0,0,0,0,0,0,0,0,0],"id":18,"left_children":[1,3,5,7,9,11,13,-1,-1,-1,-1,-1,-1,-1,-1],"loss_changes":[1.9368416E1,1.3164394E1,5.901909E0,1.0415242E1,9.997494E0,6.0242996E0,5.7181826E0,0E0,0E0,0E0,0E0,0E0,0E0,0E0,0E0],"parents":[2147483647,0,0,1,1,2,2,3,3,4,4,5,5,6,6],"right_children":[2,4,6,8,10,12,14,-1,-1,-1,-1,-1,-1,-1,-1],"split_conditions":[6.4705884E-1,-3E0,1.0358207E-1,-8.7E0,4.3103448E-1,1.5E0,1.62E1,1.562659E-3,-6.816429E-2,-5.453051E-2,7.55151E-3,3.034636E-3,5.5686858E-2,-1.13365434E-1,1.3693431E-2],"split_indices":[55,10,54,5,55,10,23,0,0,0,0,0,0,0,0],"split_type":[0,0,0,0,0,0,0,0,0,0,0,0,0,0,0],"sum_hessian":[5.4114996E2,4.0321014E2,1.3793979E2,8.9420494E1,3.1378967E2,1.2056946E2,1.7370329E1,3.4751194E1,5.4669296E1,2.7515236E1,2.862744E2,2.8506828E1,9.206263E1,3.7031598E0,1.366717E1],"tree_param":{"num_deleted":"0","num_feature":"63","num_nodes":"15","size_leaf_vector":"1"}},{"base_weights":[-1.22670075E-2,-2.504696E-1,7.186865E-2,2.3150828E-1,-3.930684E-1,3.8583674E-2,6.526364E-1,-6.0651293E-3,1.0189619E-1,-5.3378295E-2,1.1271716E-2,-5.444334E-4,4.7237303E-2,-1.0349486E-1,8.236694E-2],"categories":[],"categories_nodes":[],"categories_segments":[],"categories_sizes":[],"default_left":[0,0,0,0,0,0,0,0,0,0,0,0,0,0,0],"id":19,"left_children":[1,3,5,7,9,11,13,-1,-1,-1,-1,-1,-1,-1,-1],"loss_changes":[1.0642158E1,9.616292E0,7.562583E0,7.4862394E0,7.6982574E0,7.113224E0,6.9754925E0,0E0,0E0,0E0,0E0,0E0,0E0,0E0,0E0],"parents":[2147483647,0,0,1,1,2,2,3,3,4,4,5,5,6,6],"right_children":[2,4,6,8,10,12,14,-1,-1,-1,-1,-1,-1,-1,-1],"split_conditions":[-2.5E0,-1.0867621E-1,1E1,2.409091E1,-3.1800702E-2,1.345427E-1,-2.1382272E-1,-6.0651293E-3,1.0189619E-1,-5.3378295E-2,1.1271716E-2,-5.444334E-4,4.7237303E-2,-1.0349486E-1,8.236694E-2],"split_indices":[10,51,50,42,27,52,8,0,0,0,0,0,0,0,0],"split_type":[0,0,0,0,0,0,0,0,0,0,0,0,0,0,0],"sum_hessian":[5.291123E2,1.3759111E2,3.915212E2,3.1271452E1,1.06319664E2,3.7130728E2,2.0213934E1,2.3482132E1,7.7893195E0,8.3135254E1,2.3184404E1,3.3799E2,3.331728E1,1.3953028E0,1.8818632E1],"tree_param":{"num_deleted":"0","num_feature":"63","num_nodes":"15","size_leaf_vector":"1"}},{"base_weights":[-2.1434559E-2,-4.9831668E-1,3.5388604E-2,-3.3917254E-1,-1.080147E0,-1.1790466E-2,3.9133355E-1,-6.785493E-2,-4.8697047E-4,-1.233017E-1,2.3496514E-2,-3.1630707E-3,8.534442E-2,7.019791E-2,1.0140529E-2],"categories":[],"categories_nodes":[],"categories_segments":[],"categories_sizes":[],"default_left":[0,0,0,0,0,0,0,0,0,0,0,0,0,0,0],"id":20,"left_children":[1,3,5,7,9,11,13,-1,-1,-1,-1,-1,-1,-1,-1],"loss_changes":[1.429966E1,4.835724E0,7.92881E0,5.167098E0,2.6235342E0,7.1959977E0,4.905263E0,0E0,0E0,0E0,0E0,0E0,0E0,0E0,0E0],"parents":[2147483647,0,0,1,1,2,2,3,3,4,4,5,5,6,6],"right_children":[2,4,6,8,10,12,14,-1,-1,-1,-1,-1,-1,-1,-1],"split_conditions":[-5.5E0,2.96E1,7.1428573E-1,2.66E1,-6.666667E-1,6.390162E-2,4E0,-6.785493E-2,-4.8697047E-4,-1.233017E-1,2.3496514E-2,-3.1630707E-3,8.534442E-2,7.019791E-2,1.0140529E-2],"split_indices":[10,35,55,40,3,7,48,0,0,0,0,0,0,0,0],"split_type":[0,0,0,0,0,0,0,0,0,0,0,0,0,0,0],"sum_hessian":[5.260518E2,5.518108E1,4.7087076E2,4.4572426E1,1.0608654E1,4.1661676E2,5.4253994E1,2.1607367E1,2.2965061E1,9.5598345E0,1.0488198E0,4.082195E2,8.397224E0,2.5505135E1,2.8748861E1],"tree_param":{"num_deleted":"0","num_feature":"63","num_nodes":"15","size_leaf_vector":"1"}},{"base_weights":[-2.2886768E-2,-1.0811014E-1,2.2353941E-1,-5.588688E-3,-3.537683E-1,3.045015E-2,4.8112375E-1,-2.0440703E-2,1.195539E-2,-4.6328466E-2,2.066926E-2,1.0293736E-2,-1.4652878E-1,2.413947E-3,6.800788E-2],"categories":[],"categories_nodes":[],"categories_segments":[],"categories_sizes":[],"default_left":[0,0,0,0,0,0,0,0,0,0,0,0,0,0,0],"id":21,"left_children":[1,3,5,7,9,11,13,-1,-1,-1,-1,-1,-1,-1,-1],"loss_changes":[1.1043023E1,9.833478E0,6.7073197E0,6.9052E0,7.1528187E0,8.641742E0,5.242111E0,0E0,0E0,0E0,0E0,0E0,0E0,0E0,0E0],"parents":[2147483647,0,0,1,1,2,2,3,3,4,4,5,5,6,6],"right_children":[2,4,6,8,10,12,14,-1,-1,-1,-1,-1,-1,-1,-1],"split_conditions":[6.4705884E-1,6E0,2.2307692E1,1.925086E-1,2.0956527E-2,2.2875E1,1.9660813E-1,-2.0440703E-2,1.195539E-2,-4.6328466E-2,2.066926E-2,1.0293736E-2,-1.4652878E-1,2.413947E-3,6.800788E-2],"split_indices":[55,48,42,29,28,36,29,0,0,0,0,0,0,0,0],"split_type":[0,0,0,0,0,0,0,0,0,0,0,0,0,0,0],"sum_hessian":[5.236757E2,3.8952478E2,1.3415092E2,2.7555084E2,1.1397394E2,7.731362E1,5.6837296E1,1.06197624E2,1.6935321E2,9.548848E1,1.8485456E1,7.4628136E1,2.6854868E0,1.7579613E1,3.9257683E1],"tree_param":{"num_deleted":"0","num_feature":"63","num_nodes":"15","size_leaf_vector":"1"}},{"base_weights":[3.2908958E-3,-3.954679E-1,5.432096E-2,1.1771021E-1,-6.9118804E-1,1.5242827E-1,-1.3528174E-1,-1.1202828E-2,1.2583713E-1,-1.14118315E-1,-2.8518094E-2,-5.0407954E-2,2.3334945E-2,1.47182075E-2,-3.5928387E-2],"categories":[],"categories_nodes":[],"categories_segments":[],"categories_sizes":[],"default_left":[0,0,0,0,0,0,0,0,0,0,0,0,0,0,0],"id":22,"left_children":[1,3,5,7,9,11,13,-1,-1,-1,-1,-1,-1,-1,-1],"loss_changes":[1.0501661E1,8.96714E0,8.530343E0,5.9743896E0,6.487898E0,1.615886E1,9.956709E0,0E0,0E0,0E0,0E0,0E0,0E0,0E0,0E0],"parents":[2147483647,0,0,1,1,2,2,3,3,4,4,5,5,6,6],"right_children":[2,4,6,8,10,12,14,-1,-1,-1,-1,-1,-1,-1,-1],"split_conditions":[-5E0,-1.03272624E-1,4.65E1,-6.2929586E-2,4.893617E-1,-1.1665842E-1,-2E-1,-1.1202828E-2,1.2583713E-1,-1.14118315E-1,-2.8518094E-2,-5.0407954E-2,2.3334945E-2,1.47182075E-2,-3.5928387E-2],"split_indices":[10,31,11,0,55,31,5,0,0,0,0,0,0,0,0],"split_type":[0,0,0,0,0,0,0,0,0,0,0,0,0,0,0],"sum_hessian":[5.140298E2,5.7552635E1,4.5647714E2,2.126038E1,3.6292255E1,3.009505E2,1.5552663E2,1.8446825E1,2.813555E0,1.6354792E1,1.9937464E1,3.245073E1,2.684998E2,6.893872E1,8.658791E1],"tree_param":{"num_deleted":"0","num_feature":"63","num_nodes":"15","size_leaf_vector":"1"}},{"base_weights":[5.8642323E-3,-9.448951E-1,3.496153E-2,-1.1132699E0,7.4613295E-3,-1.3075075E-1,1.5252893E-1,8.558708E-3,-1.22703806E-1,2.9962137E-2,-2.35868E-2,-3.1668242E-2,1.9257018E-2],"categories":[],"categories_nodes":[],"categories_segments":[],"categories_sizes":[],"default_left":[0,0,0,0,0,0,0,0,0,0,0,0,0],"id":23,"left_children":[1,3,5,7,-1,9,11,-1,-1,-1,-1,-1,-1],"loss_changes":[1.4575116E1,2.768736E0,9.9756775E0,1.945015E0,0E0,9.689507E0,5.6859164E0,0E0,0E0,0E0,0E0,0E0,0E0],"parents":[2147483647,0,0,1,1,2,2,3,3,5,5,6,6],"right_children":[2,4,6,8,-1,10,12,-1,-1,-1,-1,-1,-1],"split_conditions":[3.6607143E-1,2.6375E1,1.5E0,7E0,7.4613295E-3,-1.10587545E-1,-9.183555E-2,8.558708E-3,-1.22703806E-1,2.9962137E-2,-2.35868E-2,-3.1668242E-2,1.9257018E-2],"split_indices":[55,42,10,16,0,52,31,0,0,0,0,0,0],"split_type":[0,0,0,0,0,0,0,0,0,0,0,0,0],"sum_hessian":[5.246581E2,1.464534E1,5.1001273E2,1.2490525E1,2.154815E0,2.1162013E2,2.9839258E2,1.1040509E0,1.1386475E1,4.1178074E1,1.7044206E2,2.2918636E1,2.7547394E2],"tree_param":{"num_deleted":"0","num_feature":"63","num_nodes":"13","size_leaf_vector":"1"}},{"base_weights":[1.425455E-3,-5.750791E-2,2.4905875E-1,-3.4616724E-2,-6.962926E-1,1.7948662E-1,1.0794889E-1,6.6656703E-3,-1.707582E-2,1.0233948E-2,-1.1284711E-1,3.8547855E-2,-9.564885E-3],"categories":[],"categories_nodes":[],"categories_segments":[],"categories_sizes":[],"default_left":[0,0,0,0,0,0,0,0,0,0,0,0,0],"id":24,"left_children":[1,3,5,7,9,11,-1,-1,-1,-1,-1,-1,-1],"loss_changes":[7.664101E0,6.179127E0,5.63883E0,5.672534E0,5.162998E0,5.3841815E0,0E0,0E0,0E0,0E0,0E0,0E0,0E0],"parents":[2147483647,0,0,1,1,2,2,3,3,4,4,5,5],"right_children":[2,4,6,8,10,12,-1,-1,-1,-1,-1,-1,-1],"split_conditions":[7E0,3.55E1,7.102198E-2,2.15E1,1.9988419E-1,-4.777098E-2,1.0794889E-1,6.6656703E-3,-1.707582E-2,1.0233948E-2,-1.1284711E-1,3.8547855E-2,-9.564885E-3],"split_indices":[10,15,6,13,44,27,0,0,0,0,0,0,0],"split_type":[0,0,0,0,0,0,0,0,0,0,0,0,0],"sum_hessian":[5.2317773E2,4.2322397E2,9.99538E1,4.0959995E2,1.3624038E1,9.334927E1,6.6045194E0,2.3517067E2,1.7442926E2,5.0518384E0,8.572199E0,5.3152973E1,4.01963E1],"tree_param":{"num_deleted":"0","num_feature":"63","num_nodes":"13","size_leaf_vector":"1"}},{"base_weights":[2.0051723E-2,-2.0979393E-2,5.025156E-1,6.377607E-2,-2.0124994E-1,2.9088196E-1,1.08836345E-1,2.4803055E-3,6.876256E-2,-5.890117E-3,-5.780008E-2,-8.405566E-3,7.096513E-2],"categories":[],"categories_nodes":[],"categories_segments":[],"categories_sizes":[],"default_left":[0,0,0,0,0,0,0,0,0,0,0,0,0],"id":25,"left_children":[1,3,5,7,9,11,-1,-1,-1,-1,-1,-1,-1],"loss_changes":[1.0315799E1,7.3578615E0,4.747222E0,7.951663E0,8.223811E0,4.984853E0,0E0,0E0,0E0,0E0,0E0,0E0,0E0],"parents":[2147483647,0,0,1,1,2,2,3,3,4,4,5,5],"right_children":[2,4,6,8,10,12,-1,-1,-1,-1,-1,-1,-1],"split_conditions":[1E1,6E0,7.147059E0,2.4522252E-1,2.3388603E-1,5.9962414E-2,1.08836345E-1,2.4803055E-3,6.876256E-2,-5.890117E-3,-5.780008E-2,-8.405566E-3,7.096513E-2],"split_indices":[10,48,56,17,18,52,0,0,0,0,0,0,0],"split_type":[0,0,0,0,0,0,0,0,0,0,0,0,0],"sum_hessian":[5.195717E2,4.7972968E2,3.9842064E1,3.2675143E2,1.5297824E2,3.0368248E1,9.473818E0,3.0851755E2,1.823389E1,1.1186741E2,4.111083E1,1.6444363E1,1.3923885E1],"tree_param":{"num_deleted":"0","num_feature":"63","num_nodes":"13","size_leaf_vector":"1"}},{"base_weights":[-2.0272946E-3,-3.8046443E-1,4.6625055E-2,-6.254869E-1,-4.607403E-2,4.5042217E-1,5.5453745E-3,6.72695E-2,-7.931975E-2,-8.7308206E-2,1.7519372E-2,9.674046E-2,1.2561115E-2,-2.4630444E-3,6.0225602E-2],"categories":[],"categories_nodes":[],"categories_segments":[],"categories_sizes":[],"default_left":[0,0,0,0,0,0,0,0,0,0,0,0,0,0,0],"id":26,"left_children":[1,3,5,7,9,11,13,-1,-1,-1,-1,-1,-1,-1,-1],"loss_changes":[9.512109E0,4.7930984E0,7.59166E0,7.910984E0,4.90463E0,6.9751606E0,7.515374E0,0E0,0E0,0E0,0E0,0E0,0E0,0E0,0E0],"parents":[2147483647,0,0,1,1,2,2,3,3,4,4,5,5,6,6],"right_children":[2,4,6,8,10,12,14,-1,-1,-1,-1,-1,-1,-1,-1],"split_conditions":[-5E0,4.4705883E1,-8.466666E0,1.6194117E-1,1.6666667E-1,2.83E1,1E1,6.72695E-2,-7.931975E-2,-8.7308206E-2,1.7519372E-2,9.674046E-2,1.2561115E-2,-2.4630444E-3,6.0225602E-2],"split_indices":[10,57,5,29,29,34,50,0,0,0,0,0,0,0,0],"split_type":[0,0,0,0,0,0,0,0,0,0,0,0,0,0,0],"sum_hessian":[5.1466614E2,5.785182E1,4.5681433E2,3.2885006E1,2.4966814E1,4.126186E1,4.1555246E2,3.4178352E0,2.9467173E1,4.648144E0,2.031867E1,1.5157771E1,2.6104088E1,3.96462E2,1.9090466E1],"tree_param":{"num_deleted":"0","num_feature":"63","num_nodes":"15","size_leaf_vector":"1"}},{"base_weights":[8.6881155E-3,-5.862073E-2,2.2275943E-1,-4.3552762E-1,-2.1861135E-3,1.5403968E-1,9.246414E-1,-1.1641894E-2,-8.0785625E-2,4.3532442E-2,-4.232933E-3,2.4455104E-2,-6.2610336E-2,-1.3676408E-2,1.3851354E-1],"categories":[],"categories_nodes":[],"categories_segments":[],"categories_sizes":[],"default_left":[0,0,0,0,0,0,0,0,0,0,0,0,0,0,0],"id":27,"left_children":[1,3,5,7,9,11,13,-1,-1,-1,-1,-1,-1,-1,-1],"loss_changes":[7.4422545E0,8.359533E0,5.816501E0,5.987152E0,6.0402946E0,8.183579E0,5.476659E0,0E0,0E0,0E0,0E0,0E0,0E0,0E0,0E0],"parents":[2147483647,0,0,1,1,2,2,3,3,4,4,5,5,6,6],"right_children":[2,4,6,8,10,12,14,-1,-1,-1,-1,-1,-1,-1,-1],"split_conditions":[6.5E-1,-5E0,3.075E1,1.82E1,-1E1,7.787693E-2,-1.0125E1,-1.1641894E-2,-8.0785625E-2,4.3532442E-2,-4.232933E-3,2.4455104E-2,-6.2610336E-2,-1.3676408E-2,1.3851354E-1],"split_indices":[55,10,34,21,4,32,5,0,0,0,0,0,0,0,0],"split_type":[0,0,0,0,0,0,0,0,0,0,0,0,0,0,0],"sum_hessian":[5.14598E2,3.9205368E2,1.2254435E2,5.0182835E1,3.4187085E2,1.1272696E2,9.817387E0,2.772956E1,2.2453274E1,2.790434E1,3.139665E2,1.0162327E2,1.1103693E1,3.1832438E0,6.6341434E0],"tree_param":{"num_deleted":"0","num_feature":"63","num_nodes":"15","size_leaf_vector":"1"}},{"base_weights":[1.9217802E-4,-4.298007E-2,3.499975E-1,-7.751363E-1,-2.298359E-2,-3.3999926E-1,5.119191E-1,2.7420685E-2,-1.2775925E-1,1.9077044E-2,-9.393684E-3,4.7630947E-2,-8.797186E-2,8.906166E-2,2.0309051E-2],"categories":[],"categories_nodes":[],"categories_segments":[],"categories_sizes":[],"default_left":[0,0,0,0,0,0,0,0,0,0,0,0,0,0,0],"id":28,"left_children":[1,3,5,7,9,11,13,-1,-1,-1,-1,-1,-1,-1,-1],"loss_changes":[7.9226675E0,6.819098E0,6.6132035E0,6.880061E0,6.9278007E0,5.50997E0,5.3250866E0,0E0,0E0,0E0,0E0,0E0,0E0,0E0,0E0],"parents":[2147483647,0,0,1,1,2,2,3,3,4,4,5,5,6,6],"right_children":[2,4,6,8,10,12,14,-1,-1,-1,-1,-1,-1,-1,-1],"split_conditions":[2.6917088E-1,-2.0480621E-1,1.7533333E1,2.16E1,-1.7306745E-1,1.41E1,9.4592296E-2,2.7420685E-2,-1.2775925E-1,1.9077044E-2,-9.393684E-3,4.7630947E-2,-8.797186E-2,8.906166E-2,2.0309051E-2],"split_indices":[25,54,41,35,28,35,31,0,0,0,0,0,0,0,0],"split_type":[0,0,0,0,0,0,0,0,0,0,0,0,0,0,0],"sum_hessian":[5.226185E2,4.6598477E2,5.6633747E1,1.1384543E1,4.5460022E2,1.0555176E1,4.607857E1,3.8332813E0,7.5512624E0,1.1287224E2,3.41728E2,4.2478786E0,6.307297E0,1.985174E1,2.622683E1],"tree_param":{"num_deleted":"0","num_feature":"63","num_nodes":"15","size_leaf_vector":"1"}},{"base_weights":[2.7800253E-2,7.2053835E-2,-3.1370127E-1,-8.2052886E-1,9.2901446E-2,6.0192984E-1,-4.6670938E-1,3.6258403E-2,-1.2184501E-1,2.6135573E-2,-1.9791818E-3,1.0027768E-1,-5.678424E-2,-9.084677E-2,-2.0167898E-2],"categories":[],"categories_nodes":[],"categories_segments":[],"categories_sizes":[],"default_left":[0,0,0,0,0,0,0,0,0,0,0,0,0,0,0],"id":29,"left_children":[1,3,5,7,9,11,13,-1,-1,-1,-1,-1,-1,-1,-1],"loss_changes":[7.80895E0,8.578833E0,8.587746E0,5.3993316E0,8.498406E0,4.754935E0,5.8307095E0,0E0,0E0,0E0,0E0,0E0,0E0,0E0,0E0],"parents":[2147483647,0,0,1,1,2,2,3,3,4,4,5,5,6,6],"right_children":[2,4,6,8,10,12,14,-1,-1,-1,-1,-1,-1,-1,-1],"split_conditions":[3.05E1,-4.90625E0,-1.08214505E-1,1.7719287E-1,1.4053616E-2,2.9E1,2.2E1,3.6258403E-2,-1.2184501E-1,2.6135573E-2,-1.9791818E-3,1.0027768E-1,-5.678424E-2,-9.084677E-2,-2.0167898E-2],"split_indices":[15,56,38,17,25,36,34,0,0,0,0,0,0,0,0],"split_type":[0,0,0,0,0,0,0,0,0,0,0,0,0,0,0],"sum_hessian":[5.1422E2,4.5592746E2,5.8292496E1,9.530356E0,4.463971E2,7.9262514E0,5.036624E1,2.4209902E0,7.1093664E0,1.7840201E2,2.679951E2,6.009671E0,1.9165803E0,1.7975878E1,3.2390366E1],"tree_param":{"num_deleted":"0","num_feature":"63","num_nodes":"15","size_leaf_vector":"1"}},{"base_weights":[1.6525221E-3,-6.208568E-1,2.0782657E-2,-8.530502E-1,9.978422E-2,7.3658302E-3,7.373609E-1,2.6995658E-3,-1.2386703E-1,-5.1068064E-2,2.9588754E-3,1.0017492E-1,-2.8572012E-2],"categories":[],"categories_nodes":[],"categories_segments":[],"categories_sizes":[],"default_left":[0,0,0,0,0,0,0,0,0,0,0,0,0],"id":30,"left_children":[1,3,5,7,-1,9,11,-1,-1,-1,-1,-1,-1],"loss_changes":[6.022567E0,6.518339E0,4.710983E0,4.6914377E0,0E0,5.570597E0,2.7223153E0,0E0,0E0,0E0,0E0,0E0,0E0],"parents":[2147483647,0,0,1,1,2,2,3,3,5,5,6,6],"right_children":[2,4,6,8,-1,10,12,-1,-1,-1,-1,-1,-1],"split_conditions":[-4.3333335E0,1.8039273E-2,6.390162E-2,-8E0,9.978422E-2,-1.798294E-1,3.420247E-1,2.6995658E-3,-1.2386703E-1,-5.1068064E-2,2.9588754E-3,1.0017492E-1,-2.8572012E-2],"split_indices":[56,6,7,4,0,54,1,0,0,0,0,0,0],"split_type":[0,0,0,0,0,0,0,0,0,0,0,0,0],"sum_hessian":[5.036454E2,1.407812E1,4.8956726E2,1.2725693E1,1.3524274E0,4.8156107E2,8.006212E0,4.160582E0,8.56511E0,1.890397E1,4.6265707E2,6.378665E0,1.6275469E0],"tree_param":{"num_deleted":"0","num_feature":"63","num_nodes":"13","size_leaf_vector":"1"}},{"base_weights":[-1.49948215E-2,-3.1541407E-2,9.4151026E-1,-1.8557669E-1,7.011797E-2,1.0347674E-1,1.3507622E-2,-2.896188E-2,2.5862023E-2,3.0766595E-2,-2.2343474E-3],"categories":[],"categories_nodes":[],"categories_segments":[],"categories_sizes":[],"default_left":[0,0,0,0,0,0,0,0,0,0,0],"id":31,"left_children":[1,3,5,7,9,-1,-1,-1,-1,-1,-1],"loss_changes":[8.087226E0,7.86472E0,5.1373816E-1,9.300699E0,6.657297E0,0E0,0E0,0E0,0E0,0E0,0E0],"parents":[2147483647,0,0,1,1,2,2,3,3,4,4],"right_children":[2,4,6,8,10,-1,-1,-1,-1,-1,-1],"split_conditions":[7.428503E-2,2.0666666E1,4.3171287E-1,6.666667E-1,2.4E1,1.0347674E-1,1.3507622E-2,-2.896188E-2,2.5862023E-2,3.0766595E-2,-2.2343474E-3],"split_indices":[6,14,25,55,14,0,0,0,0,0,0],"split_type":[0,0,0,0,0,0,0,0,0,0,0],"sum_hessian":[5.0810364E2,5.00414E2,7.68964E0,1.98627E2,3.0178702E2,6.638783E0,1.0508573E0,1.612145E2,3.7412502E1,8.390203E1,2.1788498E2],"tree_param":{"num_deleted":"0","num_feature":"63","num_nodes":"11","size_leaf_vector":"1"}},{"base_weights":[1.9058548E-2,1.2175199E-1,-1.484514E-1,2.7142225E-2,4.193572E-1,-7.37878E-1,-5.5222195E-2,-3.2541808E-2,1.0797299E-2,-9.609708E-2,5.0319683E-2,7.470271E-2,-8.869218E-2,2.6371812E-3,-5.196483E-2],"categories":[],"categories_nodes":[],"categories_segments":[],"categories_sizes":[],"default_left":[0,0,0,0,0,0,0,0,0,0,0,0,0,0,0],"id":32,"left_children":[1,3,5,7,9,11,13,-1,-1,-1,-1,-1,-1,-1,-1],"loss_changes":[8.88826E0,9.004776E0,1.0753204E1,6.989836E0,9.414536E0,6.5815783E0,6.481564E0,0E0,0E0,0E0,0E0,0E0,0E0,0E0,0E0],"parents":[2147483647,0,0,1,1,2,2,3,3,4,4,5,5,6,6],"right_children":[2,4,6,8,10,12,14,-1,-1,-1,-1,-1,-1,-1,-1],"split_conditions":[2.0054033E-2,2.576923E1,5.4459022E-3,-8.3146125E-2,9.5E0,-1.1411265E-1,2.8285715E1,-3.2541808E-2,1.0797299E-2,-9.609708E-2,5.0319683E-2,7.470271E-2,-8.869218E-2,2.6371812E-3,-5.196483E-2],"split_indices":[53,42,38,52,13,2,33,0,0,0,0,0,0,0,0],"split_type":[0,0,0,0,0,0,0,0,0,0,0,0,0,0,0],"sum_hessian":[5.146434E2,3.1921747E2,1.9542589E2,2.4304408E2,7.617338E1,2.5744675E1,1.6968121E2,4.476524E1,1.9827884E2,3.7626941E0,7.241068E1,1.9823756E0,2.3762299E1,1.4512732E2,2.4553885E1],"tree_param":{"num_deleted":"0","num_feature":"63","num_nodes":"15","size_leaf_vector":"1"}},{"base_weights":[-6.8514445E-3,-1.8786013E-1,9.079035E-2,3.3538884E-1,-2.6025733E-1,3.7930276E-2,5.986142E-1,8.3114006E-2,-4.03199E-2,-3.710291E-2,1.880838E-2,7.1200407E-3,-7.892602E-2,-2.4050876E-2,7.250505E-2],"categories":[],"categories_nodes":[],"categories_segments":[],"categories_sizes":[],"default_left":[0,0,0,0,0,0,0,0,0,0,0,0,0,0,0],"id":33,"left_children":[1,3,5,7,9,11,13,-1,-1,-1,-1,-1,-1,-1,-1],"loss_changes":[8.953259E0,6.8111997E0,8.811935E0,8.394446E0,7.841465E0,8.289151E0,3.4591656E0,0E0,0E0,0E0,0E0,0E0,0E0,0E0,0E0],"parents":[2147483647,0,0,1,1,2,2,3,3,4,4,5,5,6,6],"right_children":[2,4,6,8,10,12,14,-1,-1,-1,-1,-1,-1,-1,-1],"split_conditions":[5.043478E-1,-1.1E1,8.8235295E-1,3.011111E1,1.7460715E-2,8.333333E-1,-3.8873922E-2,8.3114006E-2,-4.03199E-2,-3.710291E-2,1.880838E-2,7.1200407E-3,-7.892602E-2,-2.4050876E-2,7.250505E-2],"split_indices":[55,4,45,34,7,45,6,0,0,0,0,0,0,0,0],"split_type":[0,0,0,0,0,0,0,0,0,0,0,0,0,0,0],"sum_hessian":[5.0461258E2,1.7649731E2,3.2811526E2,2.1010664E1,1.5548665E2,2.9815463E2,2.996063E1,1.2497109E1,8.513556E0,1.24819824E2,3.066683E1,2.8750494E2,1.0649708E1,3.8050883E0,2.6155542E1],"tree_param":{"num_deleted":"0","num_feature":"63","num_nodes":"15","size_leaf_vector":"1"}},{"base_weights":[3.169497E-2,-7.6637785E-3,5.0982624E-1,-8.889825E-2,2.0053147E-1,7.906486E-1,9.4549455E-2,8.4747653E-4,-3.313623E-2,1.3939621E-2,1.176879E-1,8.9391105E-2,-1.692513E-2,5.7963725E-2,-7.658445E-2],"categories":[],"categories_nodes":[],"categories_segments":[],"categories_sizes":[],"default_left":[0,0,0,0,0,0,0,0,0,0,0,0,0,0,0],"id":34,"left_children":[1,3,5,7,9,11,13,-1,-1,-1,-1,-1,-1,-1,-1],"loss_changes":[9.821522E0,8.186672E0,4.5542574E0,8.221985E0,7.946042E0,2.485055E0,7.6013656E0,0E0,0E0,0E0,0E0,0E0,0E0,0E0,0E0],"parents":[2147483647,0,0,1,1,2,2,3,3,4,4,5,5,6,6],"right_children":[2,4,6,8,10,12,14,-1,-1,-1,-1,-1,-1,-1,-1],"split_conditions":[1E1,2.62E1,1.9666137E-1,2.4333334E1,2.8888888E0,3.4E1,1.8278718E-2,8.4747653E-4,-3.313623E-2,1.3939621E-2,1.176879E-1,8.9391105E-2,-1.692513E-2,5.7963725E-2,-7.658445E-2],"split_indices":[10,34,30,13,5,21,7,0,0,0,0,0,0,0,0],"split_type":[0,0,0,0,0,0,0,0,0,0,0,0,0,0,0],"sum_hessian":[5.206961E2,4.8200266E2,3.8693466E1,3.4713077E2,1.3487189E2,2.2544382E1,1.6149082E1,2.4835643E2,9.877434E1,1.2799979E2,6.8721E0,2.0416767E1,2.127615E0,1.0535505E1,5.6135774E0],"tree_param":{"num_deleted":"0","num_feature":"63","num_nodes":"15","size_leaf_vector":"1"}},{"base_weights":[3.613528E-2,8.6560115E-2,-2.4562679E-1,-2.706681E-1,1.4090832E-1,1.6529872E-1,-5.584391E-1,9.229129E-2,-3.327495E-2,1.008815E-2,5.4838385E-2,-1.0700243E-1,4.3245897E-2,-8.451822E-2,2.0120772E-2],"categories":[],"categories_nodes":[],"categories_segments":[],"categories_sizes":[],"default_left":[0,0,0,0,0,0,0,0,0,0,0,0,0,0,0],"id":35,"left_children":[1,3,5,7,9,11,13,-1,-1,-1,-1,-1,-1,-1,-1],"loss_changes":[7.299806E0,8.488724E0,1.0121807E1,4.5914307E0,6.1171484E0,1.1847192E1,9.869619E0,0E0,0E0,0E0,0E0,0E0,0E0,0E0,0E0],"parents":[2147483647,0,0,1,1,2,2,3,3,4,4,5,5,6,6],"right_children":[2,4,6,8,10,12,14,-1,-1,-1,-1,-1,-1,-1,-1],"split_conditions":[2.78E1,-4.5E0,-3.9471625E-3,-2.4E1,3E1,2.0744072E-1,3.24E1,9.229129E-2,-3.327495E-2,1.008815E-2,5.4838385E-2,-1.0700243E-1,4.3245897E-2,-8.451822E-2,2.0120772E-2],"split_indices":[33,10,38,3,22,43,33,0,0,0,0,0,0,0,0],"split_type":[0,0,0,0,0,0,0,0,0,0,0,0,0,0,0],"sum_hessian":[5.1129193E2,4.3426718E2,7.702474E1,5.6818897E1,3.774483E2,3.3495277E1,4.3529465E1,2.1236322E0,5.4695267E1,3.4482346E2,3.2624847E1,5.42152E0,2.807376E1,3.1519308E1,1.2010158E1],"tree_param":{"num_deleted":"0","num_feature":"63","num_nodes":"15","size_leaf_vector":"1"}},{"base_weights":[-5.5658806E-2,1.9131418E-1,-1.0492081E-1,-1.109015E-1,5.147911E-1,-3.4552163E-1,-3.255953E-2,9.1457635E-2,-2.6428996E-2,-5.4668076E-2,6.6669986E-2,2.8331643E-3,-5.2982796E-2,8.785713E-3,-2.4201723E-2],"categories":[],"categories_nodes":[],"categories_segments":[],"categories_sizes":[],"default_left":[0,0,0,0,0,0,0,0,0,0,0,0,0,0,0],"id":36,"left_children":[1,3,5,7,9,11,13,-1,-1,-1,-1,-1,-1,-1,-1],"loss_changes":[6.130583E0,8.256637E0,7.2900753E0,7.1918583E0,6.9255075E0,6.689039E0,8.180908E0,0E0,0E0,0E0,0E0,0E0,0E0,0E0,0E0],"parents":[2147483647,0,0,1,1,2,2,3,3,4,4,5,5,6,6],"right_children":[2,4,6,8,10,12,14,-1,-1,-1,-1,-1,-1,-1,-1],"split_conditions":[-1.4329694E-1,-2.0838097E-1,4.7938144E-1,1.425E1,1.6E1,3.0769232E-1,2.4E1,9.1457635E-2,-2.6428996E-2,-5.4668076E-2,6.6669986E-2,2.8331643E-3,-5.2982796E-2,8.785713E-3,-2.4201723E-2],"split_indices":[0,0,55,24,15,45,14,0,0,0,0,0,0,0,0],"split_type":[0,0,0,0,0,0,0,0,0,0,0,0,0,0,0],"sum_hessian":[5.0124536E2,8.287441E1,4.1837097E2,4.3184998E1,3.968941E1,9.586048E1,3.225105E2,4.973331E0,3.8211666E1,4.643552E0,3.504586E1,3.193292E1,6.392756E1,2.0515054E2,1.1735994E2],"tree_param":{"num_deleted":"0","num_feature":"63","num_nodes":"15","size_leaf_vector":"1"}},{"base_weights":[1.1475829E-2,-1.1188667E0,2.3163047E-2,-1.5738381E-2,-1.337273E-1,5.7067715E-2,-3.4397662E-1,3.854755E-3,1.1191235E-1,-1.6952163E-2,-1.2337655E-1],"categories":[],"categories_nodes":[],"categories_segments":[],"categories_sizes":[],"default_left":[0,0,0,0,0,0,0,0,0,0,0],"id":37,"left_children":[1,3,5,-1,-1,7,9,-1,-1,-1,-1],"loss_changes":[6.8658037E0,9.0646887E-1,6.4108047E0,0E0,0E0,9.21903E0,6.5508842E0,0E0,0E0,0E0,0E0],"parents":[2147483647,0,0,1,1,2,2,5,5,6,6],"right_children":[2,4,6,-1,-1,8,10,-1,-1,-1,-1],"split_conditions":[-8.126267E-2,1.4E1,2.95E1,-1.5738381E-2,-1.337273E-1,2.8777779E1,2.9333334E1,3.854755E-3,1.1191235E-1,-1.6952163E-2,-1.2337655E-1],"split_indices":[7,16,35,0,0,41,13,0,0,0,0],"split_type":[0,0,0,0,0,0,0,0,0,0,0],"sum_hessian":[5.1675916E2,4.3188863E0,5.1244025E2,1.117954E0,3.2009323E0,4.6989124E2,4.2549023E1,4.6285623E2,7.0350065E0,3.6569588E1,5.9794374E0],"tree_param":{"num_deleted":"0","num_feature":"63","num_nodes":"11","size_leaf_vector":"1"}},{"base_weights":[1.5949892E-2,-2.9094318E-1,5.773263E-2,6.1922505E-2,-5.8858335E-1,3.627031E-1,9.081585E-3,8.6334296E-2,-2.6668528E-2,5.0116092E-2,-6.8870686E-2,-7.298225E-2,4.5174733E-2,-1.9728593E-3,6.707452E-2],"categories":[],"categories_nodes":[],"categories_segments":[],"categories_sizes":[],"default_left":[0,0,0,0,0,0,0,0,0,0,0,0,0,0,0],"id":38,"left_children":[1,3,5,7,9,11,13,-1,-1,-1,-1,-1,-1,-1,-1],"loss_changes":[6.53434E0,6.4508305E0,6.6467485E0,7.8277593E0,3.9702473E0,6.326009E0,7.4012446E0,0E0,0E0,0E0,0E0,0E0,0E0,0E0,0E0],"parents":[2147483647,0,0,1,1,2,2,3,3,4,4,5,5,6,6],"right_children":[2,4,6,8,10,12,14,-1,-1,-1,-1,-1,-1,-1,-1],"split_conditions":[-4.5E0,-2.5042397E-1,-2.857143E-1,-1.3778181E-1,-1.38E1,-2.8644922E-1,3.2E1,8.6334296E-2,-2.6668528E-2,5.0116092E-2,-6.8870686E-2,-7.298225E-2,4.5174733E-2,-1.9728593E-3,6.707452E-2],"split_indices":[10,8,9,28,4,28,22,0,0,0,0,0,0,0,0],"split_type":[0,0,0,0,0,0,0,0,0,0,0,0,0,0,0],"sum_hessian":[5.0727637E2,6.007367E1,4.472027E2,2.784918E1,3.222449E1,6.0637787E1,3.865649E2,7.6252275E0,2.0223953E1,2.3745444E0,2.9849945E1,4.02741E0,5.6610374E1,3.713651E2,1.5199807E1],"tree_param":{"num_deleted":"0","num_feature":"63","num_nodes":"15","size_leaf_vector":"1"}},{"base_weights":[-2.1101972E-2,3.017395E-2,-2.5150234E-1,6.4658974E-3,5.699264E-1,-6.891301E-1,-7.5531006E-2,1.0296385E-2,-1.803737E-2,-1.3416846E-2,9.952878E-2,-1.2787923E-1,-6.4840675E-3,7.740847E-2,-2.1895943E-2],"categories":[],"categories_nodes":[],"categories_segments":[],"categories_sizes":[],"default_left":[0,0,0,0,0,0,0,0,0,0,0,0,0,0,0],"id":39,"left_children":[1,3,5,7,9,11,13,-1,-1,-1,-1,-1,-1,-1,-1],"loss_changes":[6.0374756E0,5.3501344E0,7.11141E0,7.262698E0,5.4023356E0,9.692019E0,8.390869E0,0E0,0E0,0E0,0E0,0E0,0E0,0E0,0E0],"parents":[2147483647,0,0,1,1,2,2,3,3,4,4,5,5,6,6],"right_children":[2,4,6,8,10,12,14,-1,-1,-1,-1,-1,-1,-1,-1],"split_conditions":[2.6666666E1,3.24E1,2.76E1,1.4987056E-2,2.0892702E-1,2.079386E-1,-3.5490196E0,1.0296385E-2,-1.803737E-2,-1.3416846E-2,9.952878E-2,-1.2787923E-1,-6.4840675E-3,7.740847E-2,-2.1895943E-2],"split_indices":[41,33,41,37,30,18,56,0,0,0,0,0,0,0,0],"split_type":[0,0,0,0,0,0,0,0,0,0,0,0,0,0,0],"sum_hessian":[5.0940216E2,4.173822E2,9.201995E1,4.0078992E2,1.659229E1,2.5553679E1,6.646627E1,2.6458652E2,1.3620338E2,6.5065947E0,1.0085697E1,1.2602141E1,1.2951537E1,8.964855E0,5.750142E1],"tree_param":{"num_deleted":"0","num_feature":"63","num_nodes":"15","size_leaf_vector":"1"}},{"base_weights":[-7.2595323E-3,-3.432557E-2,5.1499265E-1,5.8338805E-3,-3.5801104E-1,-1.9879484E-1,7.9628146E-1,1.597092E-2,-8.685036E-3,1.4976333E-1,-4.4133674E-2,6.910553E-2,-1.2417095E-1,-6.129664E-2,9.6448176E-2],"categories":[],"categories_nodes":[],"categories_segments":[],"categories_sizes":[],"default_left":[0,0,0,0,0,0,0,0,0,0,0,0,0,0,0],"id":40,"left_children":[1,3,5,7,9,11,13,-1,-1,-1,-1,-1,-1,-1,-1],"loss_changes":[7.3371387E0,6.4137073E0,5.2935123E0,6.2859445E0,9.081301E0,8.31036E0,4.987294E0,0E0,0E0,0E0,0E0,0E0,0E0,0E0,0E0],"parents":[2147483647,0,0,1,1,2,2,3,3,4,4,5,5,6,6],"right_children":[2,4,6,8,10,12,14,-1,-1,-1,-1,-1,-1,-1,-1],"split_conditions":[1.2171446E-1,2.3549093E-1,1.75E1,-2.8695114E-2,-2.3E1,5.555556E-1,4.893617E-1,1.597092E-2,-8.685036E-3,1.4976333E-1,-4.4133674E-2,6.910553E-2,-1.2417095E-1,-6.129664E-2,9.6448176E-2],"split_indices":[37,30,15,53,3,12,55,0,0,0,0,0,0,0,0],"split_type":[0,0,0,0,0,0,0,0,0,0,0,0,0,0,0],"sum_hessian":[5.1681445E2,4.9223816E2,2.457627E1,4.3878088E2,5.3457287E1,7.030137E0,1.7546131E1,1.6467035E2,2.7411053E2,1.5678725E0,5.1889416E1,3.9754927E0,3.0546446E0,1.5889572E0,1.5957174E1],"tree_param":{"num_deleted":"0","num_feature":"63","num_nodes":"15","size_leaf_vector":"1"}},{"base_weights":[1.49162E-2,5.734609E-1,-7.5481124E-3,-7.7489674E-2,7.9178375E-1,-4.2771507E-2,3.0549315E-1,9.78067E-2,-1.08912066E-1,4.046384E-3,-2.2793742E-2,-3.0479688E-2,5.7555046E-2],"categories":[],"categories_nodes":[],"categories_segments":[],"categories_sizes":[],"default_left":[0,0,0,0,0,0,0,0,0,0,0,0,0],"id":41,"left_children":[1,3,5,-1,7,9,11,-1,-1,-1,-1,-1,-1],"loss_changes":[6.3389435E0,6.363616E0,5.3754683E0,0E0,7.128783E0,6.760069E0,8.302301E0,0E0,0E0,0E0,0E0,0E0,0E0],"parents":[2147483647,0,0,1,1,2,2,4,4,5,5,6,6],"right_children":[2,4,6,-1,8,10,12,-1,-1,-1,-1,-1,-1],"split_conditions":[3.8583332E1,1.3E1,1.1232323E-1,-7.7489674E-2,2.3323126E-1,4.65E1,2.0666666E1,9.78067E-2,-1.08912066E-1,4.046384E-3,-2.2793742E-2,-3.0479688E-2,5.7555046E-2],"split_indices":[57,22,52,0,17,11,14,0,0,0,0,0,0],"split_type":[0,0,0,0,0,0,0,0,0,0,0,0,0],"sum_hessian":[5.0385794E2,1.8532976E1,4.8532498E2,2.2273839E0,1.6305592E1,4.3701538E2,4.8309593E1,1.5272971E1,1.032621E0,3.0202933E2,1.3498604E2,1.4780095E1,3.3529495E1],"tree_param":{"num_deleted":"0","num_feature":"63","num_nodes":"13","size_leaf_vector":"1"}},{"base_weights":[1.749456E-2,-2.0867215E-1,7.045158E-2,-2.892729E-1,6.363356E-1,1.4165218E-1,5.9605688E-2,-1.6449256E-2,-9.493854E-2,-3.6615547E-2,9.852485E-2,-6.21773E-2,8.173971E-3],"categories":[],"categories_nodes":[],"categories_segments":[],"categories_sizes":[],"default_left":[0,0,0,0,0,0,0,0,0,0,0,0,0],"id":42,"left_children":[1,3,5,7,9,-1,11,-1,-1,-1,-1,-1,-1],"loss_changes":[6.1010942E0,6.767772E0,5.9378405E0,7.169341E0,3.414351E0,0E0,6.238074E0,0E0,0E0,0E0,0E0,0E0,0E0],"parents":[2147483647,0,0,1,1,2,2,3,3,4,4,6,6],"right_children":[2,4,6,8,10,-1,12,-1,-1,-1,-1,-1,-1],"split_conditions":[-8.4949456E-2,7.400812E-2,-1.7264202E-1,3.05E1,1.5955281E-1,1.4165218E-1,-2.341494E-1,-1.6449256E-2,-9.493854E-2,-3.6615547E-2,9.852485E-2,-6.21773E-2,8.173971E-3],"split_indices":[52,1,19,23,18,0,0,0,0,0,0,0,0],"split_type":[0,0,0,0,0,0,0,0,0,0,0,0,0],"sum_hessian":[5.0716855E2,9.566518E1,4.115034E2,8.793518E1,7.729998E0,2.2532306E0,4.0925015E2,7.500605E1,1.2929125E1,1.9830146E0,5.7469835E0,1.2023541E1,3.972266E2],"tree_param":{"num_deleted":"0","num_feature":"63","num_nodes":"13","size_leaf_vector":"1"}},{"base_weights":[-3.5070054E-2,-7.491618E-1,-1.5809393E-2,-9.0255964E-1,1.658796E-2,-3.6605176E-2,5.7357025E-1,1.9797953E-2,-1.079263E-1,3.317456E-3,-2.1594688E-2,-6.728151E-2,8.414356E-2],"categories":[],"categories_nodes":[],"categories_segments":[],"categories_sizes":[],"default_left":[0,0,0,0,0,0,0,0,0,0,0,0,0],"id":43,"left_children":[1,3,5,7,-1,9,11,-1,-1,-1,-1,-1,-1],"loss_changes":[6.911569E0,2.0024157E0,6.041196E0,2.4421587E0,0E0,5.956262E0,6.175103E0,0E0,0E0,0E0,0E0,0E0,0E0],"parents":[2147483647,0,0,1,1,2,2,3,3,5,5,6,6],"right_children":[2,4,6,8,-1,10,12,-1,-1,-1,-1,-1,-1],"split_conditions":[3.3333334E-1,2.8666666E1,1E1,1.53E1,1.658796E-2,2.511111E1,1.52E1,1.9797953E-2,-1.079263E-1,3.317456E-3,-2.1594688E-2,-6.728151E-2,8.414356E-2],"split_indices":[55,40,50,34,0,41,21,0,0,0,0,0,0],"split_type":[0,0,0,0,0,0,0,0,0,0,0,0,0],"sum_hessian":[5.023789E2,1.2199115E1,4.901798E2,1.0459347E1,1.7397683E0,4.743796E2,1.5800207E1,1.4303662E0,9.02898E0,3.4209103E2,1.3228856E2,2.5275714E0,1.3272635E1],"tree_param":{"num_deleted":"0","num_feature":"63","num_nodes":"13","size_leaf_vector":"1"}},{"base_weights":[-4.956007E-3,-1.0441857E-1,1.1523477E-1,-1.7072627E-3,-4.684629E-1,5.367871E-2,6.87868E-1,-6.5784142E-3,4.078966E-2,-5.9883744E-2,4.379004E-2,-4.938509E-2,1.30877495E-2,9.258426E-2,9.720807E-3],"categories":[],"categories_nodes":[],"categories_segments":[],"categories_sizes":[],"default_left":[0,0,0,0,0,0,0,0,0,0,0,0,0,0,0],"id":44,"left_children":[1,3,5,7,9,11,13,-1,-1,-1,-1,-1,-1,-1,-1],"loss_changes":[6.022933E0,1.030643E1,8.00544E0,5.6960382E0,7.429717E0,8.818353E0,3.0109415E0,0E0,0E0,0E0,0E0,0E0,0E0,0E0,0E0],"parents":[2147483647,0,0,1,1,2,2,3,3,4,4,5,5,6,6],"right_children":[2,4,6,8,10,12,14,-1,-1,-1,-1,-1,-1,-1,-1],"split_conditions":[2.2307692E1,2.1666666E1,7.147059E0,1.2226957E-2,2.3923035E-1,-1.271913E-1,2.2333334E1,-6.5784142E-3,4.078966E-2,-5.9883744E-2,4.379004E-2,-4.938509E-2,1.30877495E-2,9.258426E-2,9.720807E-3],"split_indices":[42,16,56,28,8,53,41,0,0,0,0,0,0,0,0],"split_type":[0,0,0,0,0,0,0,0,0,0,0,0,0,0,0],"sum_hessian":[5.0181558E2,2.7465723E2,2.2715836E2,2.150015E2,5.9655735E1,2.0609737E2,2.1061003E1,1.8664314E2,2.835835E1,5.2450382E1,7.2053537E0,2.4800879E1,1.8129648E2,1.4608017E1,6.4529853E0],"tree_param":{"num_deleted":"0","num_feature":"63","num_nodes":"15","size_leaf_vector":"1"}},{"base_weights":[-5.3635515E-2,-1.0994995E-1,1.5731576E-1,2.4789209E-2,-2.892012E-1,2.0187795E-1,-1.2047362E-1,-5.8951207E-2,7.274167E-3,-4.2971823E-2,-3.9566495E-3,2.6298532E-2,-7.3042035E-2],"categories":[],"categories_nodes":[],"categories_segments":[],"categories_sizes":[],"default_left":[0,0,0,0,0,0,0,0,0,0,0,0,0],"id":45,"left_children":[1,3,5,7,9,11,-1,-1,-1,-1,-1,-1,-1],"loss_changes":[6.0320396E0,9.673226E0,6.743361E0,6.8002687E0,6.010041E0,6.148746E0,0E0,0E0,0E0,0E0,0E0,0E0,0E0],"parents":[2147483647,0,0,1,1,2,2,3,3,4,4,5,5],"right_children":[2,4,6,8,10,12,-1,-1,-1,-1,-1,-1,-1],"split_conditions":[2.576923E1,2.0666666E1,3.55E1,-6.333333E-1,4.2724527E-2,3.2E1,-1.2047362E-1,-5.8951207E-2,7.274167E-3,-4.2971823E-2,-3.9566495E-3,2.6298532E-2,-7.3042035E-2],"split_indices":[42,16,15,9,1,21,0,0,0,0,0,0,0],"split_type":[0,0,0,0,0,0,0,0,0,0,0,0,0],"sum_hessian":[5.0530847E2,3.9921497E2,1.0609351E2,2.2839629E2,1.7081866E2,1.0355722E2,2.5362937E0,1.5719965E1,2.1267633E2,1.0883505E2,6.1983612E1,9.786086E1,5.696361E0],"tree_param":{"num_deleted":"0","num_feature":"63","num_nodes":"13","size_leaf_vector":"1"}},{"base_weights":[-1.0401338E-2,-1.9044515E-1,5.2710697E-2,4.3532735E-1,-3.6097276E-1,-3.362429E-1,1.026679E-1,6.425933E-2,-6.5905355E-2,-4.320654E-3,-9.589159E-2,-5.9979964E-2,1.8208211E-2,1.4635868E-2,-4.187995E-2],"categories":[],"categories_nodes":[],"categories_segments":[],"categories_sizes":[],"default_left":[0,0,0,0,0,0,0,0,0,0,0,0,0,0,0],"id":46,"left_children":[1,3,5,7,9,11,13,-1,-1,-1,-1,-1,-1,-1,-1],"loss_changes":[5.751529E0,1.4175272E1,7.3195596E0,6.9073944E0,1.967735E1,5.970705E0,7.6483765E0,0E0,0E0,0E0,0E0,0E0,0E0,0E0,0E0],"parents":[2147483647,0,0,1,1,2,2,3,3,4,4,5,5,6,6],"right_children":[2,4,6,8,10,12,14,-1,-1,-1,-1,-1,-1,-1,-1],"split_conditions":[1.82E1,-4.8042744E-2,-1.2645833E-1,2.3101842E-1,1.6846153E1,3.004937E-2,3.25E1,6.425933E-2,-6.5905355E-2,-4.320654E-3,-9.589159E-2,-5.9979964E-2,1.8208211E-2,1.4635868E-2,-4.187995E-2],"split_indices":[23,20,26,43,41,7,15,0,0,0,0,0,0,0,0],"split_type":[0,0,0,0,0,0,0,0,0,0,0,0,0,0,0],"sum_hessian":[5.0428253E2,1.303648E2,3.7391772E2,2.7585075E1,1.0277973E2,4.1907364E1,3.3201035E2,2.3539694E1,4.045382E0,6.781364E1,3.496609E1,2.7677025E1,1.423034E1,3.070073E2,2.5003063E1],"tree_param":{"num_deleted":"0","num_feature":"63","num_nodes":"15","size_leaf_vector":"1"}},{"base_weights":[1.4987648E-2,-7.574228E-3,6.2971616E-1,1.81131E-2,-8.1053865E-1,8.159117E-1,-3.3137593E-1,-1.8354406E-3,3.5577867E-2,7.609667E-2,-1.0601075E-1,9.066177E-2,-1.9393764E-2,7.3015414E-2,-1.0999943E-1],"categories":[],"categories_nodes":[],"categories_segments":[],"categories_sizes":[],"default_left":[0,0,0,0,0,0,0,0,0,0,0,0,0,0,0],"id":47,"left_children":[1,3,5,7,9,11,13,-1,-1,-1,-1,-1,-1,-1,-1],"loss_changes":[6.9826946E0,1.0044945E1,3.4599252E0,5.8210626E0,6.7274914E0,1.569952E0,3.7435403E0,0E0,0E0,0E0,0E0,0E0,0E0,0E0,0E0],"parents":[2147483647,0,0,1,1,2,2,3,3,4,4,5,5,6,6],"right_children":[2,4,6,8,10,12,14,-1,-1,-1,-1,-1,-1,-1,-1],"split_conditions":[2.4494016E-1,2.3654167E-1,2.3628452E-1,8.5E0,1.7573564E-1,1.1E1,1.5942777E-2,-1.8354406E-3,3.5577867E-2,7.609667E-2,-1.0601075E-1,9.066177E-2,-1.9393764E-2,7.3015414E-2,-1.0999943E-1],"split_indices":[43,43,18,10,18,48,7,0,0,0,0,0,0,0,0],"split_type":[0,0,0,0,0,0,0,0,0,0,0,0,0,0,0],"sum_hessian":[5.0211557E2,4.8529196E2,1.6823595E1,4.7119556E2,1.40963955E1,1.4219803E1,2.6037917E0,4.2612067E2,4.5074913E1,1.651016E0,1.2445379E1,1.3141629E1,1.078173E0,1.1145469E0,1.4892447E0],"tree_param":{"num_deleted":"0","num_feature":"63","num_nodes":"15","size_leaf_vector":"1"}},{"base_weights":[-1.80757E-2,1.4121976E-1,-9.1339834E-2,2.1674363E-1,-5.5021566E-1,-1.22344665E-1,4.696323E-1,6.526331E-3,4.860684E-2,1.6066333E-2,-1.2051063E-1,-8.820116E-3,-9.455133E-2,-3.7063513E-2,8.5876405E-2],"categories":[],"categories_nodes":[],"categories_segments":[],"categories_sizes":[],"default_left":[0,0,0,0,0,0,0,0,0,0,0,0,0,0,0],"id":48,"left_children":[1,3,5,7,9,11,13,-1,-1,-1,-1,-1,-1,-1,-1],"loss_changes":[5.8078127E0,8.308318E0,5.9835243E0,5.765347E0,7.514285E0,9.013546E0,6.2207823E0,0E0,0E0,0E0,0E0,0E0,0E0,0E0,0E0],"parents":[2147483647,0,0,1,1,2,2,3,3,4,4,5,5,6,6],"right_children":[2,4,6,8,10,12,14,-1,-1,-1,-1,-1,-1,-1,-1],"split_conditions":[-3.6280923E-2,2.3212487E-1,2.4811123E-1,1.995465E-1,2.16E1,2.3611018E-1,1.75E1,6.526331E-3,4.860684E-2,1.6066333E-2,-1.2051063E-1,-8.820116E-3,-9.455133E-2,-3.7063513E-2,8.5876405E-2],"split_indices":[32,43,17,44,24,43,15,0,0,0,0,0,0,0,0],"split_type":[0,0,0,0,0,0,0,0,0,0,0,0,0,0,0],"sum_hessian":[4.9553763E2,1.558189E2,3.3971872E2,1.4109406E2,1.4724841E1,3.226669E2,1.7051836E1,9.1098495E1,4.9995552E1,7.4224725E0,7.3023686E0,3.1087933E2,1.1787553E1,5.4123244E0,1.1639511E1],"tree_param":{"num_deleted":"0","num_feature":"63","num_nodes":"15","size_leaf_vector":"1"}},{"base_weights":[-2.6926132E-2,-1.1982828E-1,1.1190676E-1,-7.644123E-2,-6.85647E-1,3.8675982E-1,7.313186E-4,-9.06307E-3,1.15635745E-1,-1.98507E-3,-1.06631115E-1,6.0149785E-2,-1.4781401E-2,-2.5423644E-2,1.9647079E-2],"categories":[],"categories_nodes":[],"categories_segments":[],"categories_sizes":[],"default_left":[0,0,0,0,0,0,0,0,0,0,0,0,0,0,0],"id":49,"left_children":[1,3,5,7,9,11,13,-1,-1,-1,-1,-1,-1,-1,-1],"loss_changes":[6.5466356E0,7.409295E0,6.220678E0,5.06273E0,5.433339E0,6.8193007E0,7.3341913E0,0E0,0E0,0E0,0E0,0E0,0E0,0E0,0E0],"parents":[2147483647,0,0,1,1,2,2,3,3,4,4,5,5,6,6],"right_children":[2,4,6,8,10,12,14,-1,-1,-1,-1,-1,-1,-1,-1],"split_conditions":[9.293368E-2,8E0,-4.475174E-2,1.2535031E-1,-5.5643253E-2,2.2618161E-1,4.488764E1,-9.06307E-3,1.15635745E-1,-1.98507E-3,-1.06631115E-1,6.0149785E-2,-1.4781401E-2,-2.5423644E-2,1.9647079E-2],"split_indices":[25,3,53,52,52,43,57,0,0,0,0,0,0,0,0],"split_type":[0,0,0,0,0,0,0,0,0,0,0,0,0,0,0],"sum_hessian":[5.055351E2,3.02949E2,2.0258606E2,2.8242755E2,2.052148E1,5.763049E1,1.4495558E2,2.8012973E2,2.297799E0,7.8476973E0,1.2673782E1,4.102541E1,1.660508E1,6.282356E1,8.213202E1],"tree_param":{"num_deleted":"0","num_feature":"63","num_nodes":"15","size_leaf_vector":"1"}},{"base_weights":[3.2576405E-2,-3.407842E-2,2.255367E-1,-4.3979406E-1,1.0566487E-2,-2.0162955E-1,3.6440575E-1,-2.3196151E-2,-1.4791484E-1,-2.1418318E-2,9.833864E-3,4.6578027E-2,-7.1420774E-2,5.0625216E-2,-3.206181E-2],"categories":[],"categories_nodes":[],"categories_segments":[],"categories_sizes":[],"default_left":[0,0,0,0,0,0,0,0,0,0,0,0,0,0,0],"id":50,"left_children":[1,3,5,7,9,11,13,-1,-1,-1,-1,-1,-1,-1,-1],"loss_changes":[6.4742184E0,6.7890573E0,7.7385664E0,7.6825695E0,6.696668E0,1.1397903E1,9.672217E0,0E0,0E0,0E0,0E0,0E0,0E0,0E0,0E0],"parents":[2147483647,0,0,1,1,2,2,3,3,4,4,5,5,6,6],"right_children":[2,4,6,8,10,12,14,-1,-1,-1,-1,-1,-1,-1,-1],"split_conditions":[2.56E1,-1.8718092E-1,-1E0,4.0274614E-4,1.87788E-1,-1E1,2.2633825E-1,-2.3196151E-2,-1.4791484E-1,-2.1418318E-2,9.833864E-3,4.6578027E-2,-7.1420774E-2,5.0625216E-2,-3.206181E-2],"split_indices":[24,0,10,52,18,3,29,0,0,0,0,0,0,0,0],"split_type":[0,0,0,0,0,0,0,0,0,0,0,0,0,0,0],"sum_hessian":[5.01773E2,3.735574E2,1.282156E2,3.615389E1,3.374035E2,3.1345074E1,9.687053E1,3.1148514E1,5.005377E0,9.435572E1,2.4304779E2,1.3655731E1,1.7689342E1,8.046896E1,1.6401566E1],"tree_param":{"num_deleted":"0","num_feature":"63","num_nodes":"15","size_leaf_vector":"1"}},{"base_weights":[1.2793965E-2,2.311618E-3,8.004054E-1,-1.5750267E-2,5.076287E-1,1.1670603E-1,-2.065558E-2,4.6410444E-3,-2.2578808E-2,-6.972856E-2,7.161158E-2],"categories":[],"categories_nodes":[],"categories_segments":[],"categories_sizes":[],"default_left":[0,0,0,0,0,0,0,0,0,0,0],"id":51,"left_children":[1,3,5,7,9,-1,-1,-1,-1,-1,-1],"loss_changes":[4.1667895E0,4.5650287E0,2.6884856E0,6.3169904E0,4.835396E0,0E0,0E0,0E0,0E0,0E0,0E0],"parents":[2147483647,0,0,1,1,2,2,3,3,4,4],"right_children":[2,4,6,8,10,-1,-1,-1,-1,-1,-1],"split_conditions":[8.214286E-1,1.5179183E-1,2.925E1,1.6544117E-1,1.4E1,1.1670603E-1,-2.065558E-2,4.6410444E-3,-2.2578808E-2,-6.972856E-2,7.161158E-2],"split_indices":[55,19,39,9,23,0,0,0,0,0,0],"split_type":[0,0,0,0,0,0,0,0,0,0,0],"sum_hessian":[5.0392145E2,4.982926E2,5.6288576E0,4.8203186E2,1.6260754E1,4.009812E0,1.6190459E0,3.7255362E2,1.0947824E2,2.0527496E0,1.4208004E1],"tree_param":{"num_deleted":"0","num_feature":"63","num_nodes":"11","size_leaf_vector":"1"}},{"base_weights":[2.6527641E-2,4.8613615E-2,-4.561596E-1,1.8435998E-2,4.2481083E-1,4.6322662E-1,-8.9428186E-1,3.690391E-3,-8.899804E-2,1.158126E-1,1.646304E-2,7.954546E-2,-3.9985966E-2,4.983015E-2,-1.0979634E-1],"categories":[],"categories_nodes":[],"categories_segments":[],"categories_sizes":[],"default_left":[0,0,0,0,0,0,0,0,0,0,0,0,0,0,0],"id":52,"left_children":[1,3,5,7,9,11,13,-1,-1,-1,-1,-1,-1,-1,-1],"loss_changes":[5.290802E0,5.367617E0,9.163256E0,7.404078E0,6.5093703E0,2.5170226E0,4.8163795E0,0E0,0E0,0E0,0E0,0E0,0E0,0E0,0E0],"parents":[2147483647,0,0,1,1,2,2,3,3,4,4,5,5,6,6],"right_children":[2,4,6,8,10,12,14,-1,-1,-1,-1,-1,-1,-1,-1],"split_conditions":[1E0,1.06E1,4.3285713E1,2.2310002E-1,1.1E1,7.8007793E-3,1.7625E1,3.690391E-3,-8.899804E-2,1.158126E-1,1.646304E-2,7.954546E-2,-3.9985966E-2,4.983015E-2,-1.0979634E-1],"split_indices":[60,4,57,0,3,6,41,0,0,0,0,0,0,0,0],"split_type":[0,0,0,0,0,0,0,0,0,0,0,0,0,0,0],"sum_hessian":[4.9321396E2,4.7249368E2,2.072027E1,4.3837717E2,3.4116535E1,6.668767E0,1.4051504E1,4.305829E2,7.794282E0,8.030745E0,2.608579E1,4.8718176E0,1.7969493E0,1.6083871E0,1.2443117E1],"tree_param":{"num_deleted":"0","num_feature":"63","num_nodes":"15","size_leaf_vector":"1"}},{"base_weights":[1.3301462E-3,-1.5020378E-2,7.111925E-1,1.602312E-2,-3.7265664E-1,1.0432588E0,-3.006079E-1,-6.794577E-2,3.6604565E-3,-9.928343E-2,-1.4006451E-3,1.7488495E-3,1.23639084E-1,4.1522957E-2,-8.874951E-2],"categories":[],"categories_nodes":[],"categories_segments":[],"categories_sizes":[],"default_left":[0,0,0,0,0,0,0,0,0,0,0,0,0,0,0],"id":53,"left_children":[1,3,5,7,9,11,13,-1,-1,-1,-1,-1,-1,-1,-1],"loss_changes":[5.853027E0,5.479499E0,4.128313E0,6.5319E0,8.753587E0,1.7161875E0,1.8732878E0,0E0,0E0,0E0,0E0,0E0,0E0,0E0,0E0],"parents":[2147483647,0,0,1,1,2,2,3,3,4,4,5,5,6,6],"right_children":[2,4,6,8,10,12,14,-1,-1,-1,-1,-1,-1,-1,-1],"split_conditions":[2.5056118E-1,2.95E1,5E0,3.6607143E-1,2.08E1,1.0333333E1,4.0853217E-2,-6.794577E-2,3.6604565E-3,-9.928343E-2,-1.4006451E-3,1.7488495E-3,1.23639084E-1,4.1522957E-2,-8.874951E-2],"split_indices":[43,35,48,55,36,15,7,0,0,0,0,0,0,0,0],"split_type":[0,0,0,0,0,0,0,0,0,0,0,0,0,0,0],"sum_hessian":[5.023631E2,4.9200928E2,1.0353792E1,4.5359186E2,3.8417427E1,7.771986E0,2.5818062E0,1.2117243E1,4.414746E2,1.3428545E1,2.498888E1,1.4042472E0,6.367739E0,1.2948911E0,1.2869151E0],"tree_param":{"num_deleted":"0","num_feature":"63","num_nodes":"15","size_leaf_vector":"1"}},{"base_weights":[5.4866755E-3,-3.6388707E-1,3.9492875E-2,-2.1388038E-1,-1.5876513E0,7.7739745E-2,-2.1298596E-1,-3.8475882E-2,8.798085E-2,-2.0212448E-1,-1.2330455E-2,4.4136394E-2,3.38532E-3,-1.05237186E-1,-4.629921E-3],"categories":[],"categories_nodes":[],"categories_segments":[],"categories_sizes":[],"default_left":[0,0,0,0,0,0,0,0,0,0,0,0,0,0,0],"id":54,"left_children":[1,3,5,7,9,11,13,-1,-1,-1,-1,-1,-1,-1,-1],"loss_changes":[6.3383775E0,7.4698925E0,4.477122E0,7.636844E0,2.6013336E0,6.3984394E0,8.491138E0,0E0,0E0,0E0,0E0,0E0,0E0,0E0,0E0],"parents":[2147483647,0,0,1,1,2,2,3,3,4,4,5,5,6,6],"right_children":[2,4,6,8,10,12,14,-1,-1,-1,-1,-1,-1,-1,-1],"split_conditions":[3.8E1,2.7E1,1.0615853E-1,1.00117266E-1,3.3654254E-2,-9.8E0,1.6E1,-3.8475882E-2,8.798085E-2,-2.0212448E-1,-1.2330455E-2,4.4136394E-2,3.38532E-3,-1.05237186E-1,-4.629921E-3],"split_indices":[11,13,54,1,31,4,15,0,0,0,0,0,0,0,0],"split_type":[0,0,0,0,0,0,0,0,0,0,0,0,0,0,0],"sum_hessian":[5.0246375E2,4.1541485E1,4.6092227E2,3.805192E1,3.4895604E0,4.0088596E2,6.0036293E1,3.3470654E1,4.581269E0,2.3989315E0,1.0906289E0,4.2197716E1,3.5868823E2,9.066512E0,5.0969784E1],"tree_param":{"num_deleted":"0","num_feature":"63","num_nodes":"15","size_leaf_vector":"1"}},{"base_weights":[1.373693E-2,4.0860713E-2,-5.584248E-1,-2.5495782E-1,7.545291E-2,-1.0735056E0,6.618089E-1,1.0512542E-2,-6.8917826E-2,1.66683E-2,-5.378497E-3,-5.5549946E-2,-1.6966347E-1,-6.359711E-2,9.858065E-2],"categories":[],"categories_nodes":[],"categories_segments":[],"categories_sizes":[],"default_left":[0,0,0,0,0,0,0,0,0,0,0,0,0,0,0],"id":55,"left_children":[1,3,5,7,9,11,13,-1,-1,-1,-1,-1,-1,-1,-1],"loss_changes":[7.855736E0,4.9598646E0,1.5111162E1,8.011587E0,5.1146297E0,4.3811016E0,3.746663E0,0E0,0E0,0E0,0E0,0E0,0E0,0E0,0E0],"parents":[2147483647,0,0,1,1,2,2,3,3,4,4,5,5,6,6],"right_children":[2,4,6,8,10,12,14,-1,-1,-1,-1,-1,-1,-1,-1],"split_conditions":[2.2310002E-1,3.85E1,1.24134086E-1,5.5172414E-1,4.6E1,4.2857143E-1,-3.5319394E-1,1.0512542E-2,-6.8917826E-2,1.66683E-2,-5.378497E-3,-5.5549946E-2,-1.6966347E-1,-6.359711E-2,9.858065E-2],"split_indices":[0,11,37,55,11,46,28,0,0,0,0,0,0,0,0],"split_type":[0,0,0,0,0,0,0,0,0,0,0,0,0,0,0],"sum_hessian":[5.037247E2,4.8181256E2,2.1912125E1,4.9776196E1,4.3203638E2,1.5492661E1,6.419464E0,2.7625374E1,2.2150824E1,2.53089E2,1.7894736E2,9.492788E0,5.9998727E0,1.0901107E0,5.3293533E0],"tree_param":{"num_deleted":"0","num_feature":"63","num_nodes":"15","size_leaf_vector":"1"}},{"base_weights":[4.337452E-3,-1.1439835E-1,8.624062E-2,-6.1538845E-2,-4.9890438E-1,5.9640515E-1,4.5387264E-2,-1.3013643E-2,4.3996416E-2,2.9597221E-2,-8.587187E-2,1.1504197E-1,1.1056909E-2,2.602104E-3,1.1437892E-1],"categories":[],"categories_nodes":[],"categories_segments":[],"categories_sizes":[],"default_left":[0,0,0,0,0,0,0,0,0,0,0,0,0,0,0],"id":56,"left_children":[1,3,5,7,9,11,13,-1,-1,-1,-1,-1,-1,-1,-1],"loss_changes":[4.907125E0,4.156169E0,6.196008E0,6.3267293E0,7.334571E0,5.8091726E0,5.873812E0,0E0,0E0,0E0,0E0,0E0,0E0,0E0,0E0],"parents":[2147483647,0,0,1,1,2,2,3,3,4,4,5,5,6,6],"right_children":[2,4,6,8,10,12,14,-1,-1,-1,-1,-1,-1,-1,-1],"split_conditions":[2.0666666E1,3.05E1,-6.0041964E-2,2.7666666E1,1.4333333E1,2.075E1,3.5666668E1,-1.3013643E-2,4.3996416E-2,2.9597221E-2,-8.587187E-2,1.1504197E-1,1.1056909E-2,2.602104E-3,1.1437892E-1],"split_indices":[14,15,26,15,14,21,16,0,0,0,0,0,0,0,0],"split_type":[0,0,0,0,0,0,0,0,0,0,0,0,0,0,0],"sum_hessian":[5.0258264E2,2.0499812E2,2.975845E2,1.8124213E2,2.3756E1,2.1055168E1,2.7652933E2,1.600855E2,2.1156626E1,7.457919E0,1.629808E1,9.198221E0,1.1856947E1,2.727442E2,3.785137E0],"tree_param":{"num_deleted":"0","num_feature":"63","num_nodes":"15","size_leaf_vector":"1"}},{"base_weights":[-4.3537747E-3,5.5936255E-2,-2.14914E-1,6.9035846E-3,3.5133663E-1,-7.104731E-2,-6.75158E-1,2.1603701E-3,-8.768745E-2,6.130242E-2,-1.7423352E-2,-3.1570993E-2,3.2341015E-2,-1.649261E-1,-3.678491E-2],"categories":[],"categories_nodes":[],"categories_segments":[],"categories_sizes":[],"default_left":[0,0,0,0,0,0,0,0,0,0,0,0,0,0,0],"id":57,"left_children":[1,3,5,7,9,11,13,-1,-1,-1,-1,-1,-1,-1,-1],"loss_changes":[6.3845296E0,5.661459E0,7.364369E0,4.3891997E0,7.760237E0,8.440842E0,7.338623E0,0E0,0E0,0E0,0E0,0E0,0E0,0E0,0E0],"parents":[2147483647,0,0,1,1,2,2,3,3,4,4,5,5,6,6],"right_children":[2,4,6,8,10,12,14,-1,-1,-1,-1,-1,-1,-1,-1],"split_conditions":[2.2311805E-1,2.1437088E-1,2.5E1,3.35E1,4E0,2.15E1,2.6E1,2.1603701E-3,-8.768745E-2,6.130242E-2,-1.7423352E-2,-3.1570993E-2,3.2341015E-2,-1.649261E-1,-3.678491E-2],"split_indices":[17,17,35,13,56,35,35,0,0,0,0,0,0,0,0],"split_type":[0,0,0,0,0,0,0,0,0,0,0,0,0,0,0],"sum_hessian":[5.009825E2,3.9003696E2,1.1094553E2,3.3538992E2,5.4647053E1,8.540374E1,2.5541798E1,3.3086215E2,4.5277624E0,3.6371067E1,1.8275984E1,5.2833405E1,3.257033E1,5.0782046E0,2.0463594E1],"tree_param":{"num_deleted":"0","num_feature":"63","num_nodes":"15","size_leaf_vector":"1"}},{"base_weights":[-1.639635E-2,-1.05214074E-1,1.113119E-1,-7.8829885E-2,-6.9439834E-1,3.0460596E-1,-4.184579E-2,-1.0083778E-2,1.13245144E-1,-9.2298895E-2,8.926392E-2,1.9755329E-3,5.5975657E-2,-1.1217983E-1,2.879554E-3],"categories":[],"categories_nodes":[],"categories_segments":[],"categories_sizes":[],"default_left":[0,0,0,0,0,0,0,0,0,0,0,0,0,0,0],"id":58,"left_children":[1,3,5,7,9,11,13,-1,-1,-1,-1,-1,-1,-1,-1],"loss_changes":[5.731732E0,4.5768785E0,6.151001E0,7.7464085E0,5.410315E0,6.6596117E0,8.924624E0,0E0,0E0,0E0,0E0,0E0,0E0,0E0,0E0],"parents":[2147483647,0,0,1,1,2,2,3,3,4,4,5,5,6,6],"right_children":[2,4,6,8,10,12,14,-1,-1,-1,-1,-1,-1,-1,-1],"split_conditions":[3.5E0,3.25E1,5.3333336E-1,3.1666666E1,2.4134868E-1,2.35E1,1.9428572E1,-1.0083778E-2,1.13245144E-1,-9.2298895E-2,8.926392E-2,1.9755329E-3,5.5975657E-2,-1.1217983E-1,2.879554E-3],"split_indices":[10,16,45,16,18,36,33,0,0,0,0,0,0,0,0],"split_type":[0,0,0,0,0,0,0,0,0,0,0,0,0,0,0],"sum_hessian":[5.032884E2,2.9694623E2,2.0634215E2,2.8530386E2,1.1642361E1,9.0781586E1,1.1556057E2,2.8111307E2,4.1908197E0,1.0542309E1,1.1000524E0,4.340339E1,4.7378193E1,6.1813254E0,1.0937924E2],"tree_param":{"num_deleted":"0","num_feature":"63","num_nodes":"15","size_leaf_vector":"1"}},{"base_weights":[-4.361253E-3,1.08624294E-1,-1.17042266E-1,6.452145E-2,6.428789E-1,-4.676641E-3,-3.9121166E-1,9.5713E-3,-7.0920765E-2,-3.082717E-2,9.256401E-2,-1.6119702E-2,2.3387892E-2,-5.4250836E-2,3.0583134E-2],"categories":[],"categories_nodes":[],"categories_segments":[],"categories_sizes":[],"default_left":[0,0,0,0,0,0,0,0,0,0,0,0,0,0,0],"id":59,"left_children":[1,3,5,7,9,11,13,-1,-1,-1,-1,-1,-1,-1,-1],"loss_changes":[6.446645E0,5.916417E0,7.807905E0,5.7318063E0,5.4411626E0,6.789384E0,7.936369E0,0E0,0E0,0E0,0E0,0E0,0E0,0E0,0E0],"parents":[2147483647,0,0,1,1,2,2,3,3,4,4,5,5,6,6],"right_children":[2,4,6,8,10,12,14,-1,-1,-1,-1,-1,-1,-1,-1],"split_conditions":[2.16E1,8.8235295E-1,2.1607299E-1,4.6895333E-2,-3.4270603E-2,2.017973E-1,1.5231885E-1,9.5713E-3,-7.0920765E-2,-3.082717E-2,9.256401E-2,-1.6119702E-2,2.3387892E-2,-5.4250836E-2,3.0583134E-2],"split_indices":[24,45,43,7,6,43,1,0,0,0,0,0,0,0,0],"split_type":[0,0,0,0,0,0,0,0,0,0,0,0,0,0,0],"sum_hessian":[5.0436218E2,2.5185875E2,2.5250343E2,2.3368848E2,1.8170273E1,1.7982216E2,7.268128E1,2.2547514E2,8.213344E0,4.143194E0,1.4027079E1,1.0877638E2,7.104577E1,5.990114E1,1.2780146E1],"tree_param":{"num_deleted":"0","num_feature":"63","num_nodes":"15","size_leaf_vector":"1"}},{"base_weights":[3.6956374E-2,7.726499E-2,-2.1752231E-1,3.8279653E-2,3.6049613E-1,-8.858007E-1,4.5550738E-2,-3.7953615E-2,6.447784E-3,5.4030813E-2,-4.872785E-2,7.417087E-2,-1.03306234E-1,1.7748777E-2,-9.7639784E-2],"categories":[],"categories_nodes":[],"categories_segments":[],"categories_sizes":[],"default_left":[0,0,0,0,0,0,0,0,0,0,0,0,0,0,0],"id":60,"left_children":[1,3,5,7,9,11,13,-1,-1,-1,-1,-1,-1,-1,-1],"loss_changes":[5.055337E0,4.676435E0,1.1894459E1,4.1236897E0,8.0795555E0,5.3426437E0,6.8249474E0,0E0,0E0,0E0,0E0,0E0,0E0,0E0,0E0],"parents":[2147483647,0,0,1,1,2,2,3,3,4,4,5,5,6,6],"right_children":[2,4,6,8,10,12,14,-1,-1,-1,-1,-1,-1,-1,-1],"split_conditions":[7.6E0,7E0,7.4333334E0,-2.8644922E-1,8.125E-1,-1.1792086E-1,3.06E1,-3.7953615E-2,6.447784E-3,5.4030813E-2,-4.872785E-2,7.417087E-2,-1.03306234E-1,1.7748777E-2,-9.7639784E-2],"split_indices":[4,10,5,28,45,32,24,0,0,0,0,0,0,0,0],"split_type":[0,0,0,0,0,0,0,0,0,0,0,0,0,0,0],"sum_hessian":[4.901957E2,4.237685E2,6.642721E1,3.7349408E2,5.027442E1,1.8094652E1,4.8332558E1,2.124151E1,3.5225256E2,4.177638E1,8.498044E0,1.166461E0,1.692819E1,4.353798E1,4.7945766E0],"tree_param":{"num_deleted":"0","num_feature":"63","num_nodes":"15","size_leaf_vector":"1"}},{"base_weights":[-1.3468504E-2,2.4265231E-1,-5.7986166E-2,-5.202474E-1,3.645111E-1,-3.0182606E-1,1.1192057E-2,-7.832269E-2,9.815053E-2,4.27376E-2,-1.2062671E-1,-4.7963988E-2,1.0766284E-2,1.9182242E-2,-9.10855E-3],"categories":[],"categories_nodes":[],"categories_segments":[],"categories_sizes":[],"default_left":[0,0,0,0,0,0,0,0,0,0,0,0,0,0,0],"id":61,"left_children":[1,3,5,7,9,11,13,-1,-1,-1,-1,-1,-1,-1,-1],"loss_changes":[5.7126436E0,7.0877676E0,7.1992908E0,4.9675264E0,6.891494E0,6.918907E0,6.1745753E0,0E0,0E0,0E0,0E0,0E0,0E0,0E0,0E0],"parents":[2147483647,0,0,1,1,2,2,3,3,4,4,5,5,6,6],"right_children":[2,4,6,8,10,12,14,-1,-1,-1,-1,-1,-1,-1,-1],"split_conditions":[-1.031029E-1,-1.2645833E-1,-2.5E0,3.23523E-2,7.2E0,2.3183374E-1,2.0666666E1,-7.832269E-2,9.815053E-2,4.27376E-2,-1.2062671E-1,-4.7963988E-2,1.0766284E-2,1.9182242E-2,-9.10855E-3],"split_indices":[51,26,10,7,4,18,13,0,0,0,0,0,0,0,0],"split_type":[0,0,0,0,0,0,0,0,0,0,0,0,0,0,0],"sum_hessian":[4.9879156E2,7.320055E1,4.2559103E2,9.631716E0,6.356883E1,9.331403E1,3.32277E2,8.603561E0,1.028155E0,6.182252E1,1.7463087E0,6.4942505E1,2.8371527E1,1.1980907E2,2.1246794E2],"tree_param":{"num_deleted":"0","num_feature":"63","num_nodes":"15","size_leaf_vector":"1"}},{"base_weights":[1.9346578E-2,3.467766E-3,6.5359646E-1,4.3568548E-2,-3.5906366E-1,1.3030899E0,-1.0320328E-2,2.195959E-3,7.9849176E-2,7.3612355E-2,-4.4809084E-2,2.2876343E-2,1.5109862E-1,-8.80036E-2,4.6725675E-2],"categories":[],"categories_nodes":[],"categories_segments":[],"categories_sizes":[],"default_left":[0,0,0,0,0,0,0,0,0,0,0,0,0,0,0],"id":62,"left_children":[1,3,5,7,9,11,13,-1,-1,-1,-1,-1,-1,-1,-1],"loss_changes":[4.9238954E0,6.967549E0,5.162692E0,7.0209255E0,4.984063E0,1.0042858E0,3.2760274E0,0E0,0E0,0E0,0E0,0E0,0E0,0E0,0E0],"parents":[2147483647,0,0,1,1,2,2,3,3,4,4,5,5,6,6],"right_children":[2,4,6,8,10,12,14,-1,-1,-1,-1,-1,-1,-1,-1],"split_conditions":[1.7268296E-1,2.3549093E-1,4.4622362E-1,2.3241557E-1,-1.68E1,1.6333334E1,-2.4090405E-1,2.195959E-3,7.9849176E-2,7.3612355E-2,-4.4809084E-2,2.2876343E-2,1.5109862E-1,-8.80036E-2,4.6725675E-2],"split_indices":[32,30,26,30,4,15,27,0,0,0,0,0,0,0,0],"split_type":[0,0,0,0,0,0,0,0,0,0,0,0,0,0,0],"sum_hessian":[4.8813678E2,4.7719537E2,1.0941394E1,4.3046054E2,4.673482E1,5.044122E0,5.897271E0,4.1948236E2,1.0978193E1,2.9670076E0,4.3767815E1,1.15839E0,3.8857324E0,1.7916989E0,4.105572E0],"tree_param":{"num_deleted":"0","num_feature":"63","num_nodes":"15","size_leaf_vector":"1"}},{"base_weights":[-5.3411545E-3,-3.1015673E-1,2.2752913E-2,-7.892055E-1,1.0122648E-1,-8.879584E-2,1.2647438E-1,-1.207802E-2,-1.3180038E-1,6.804881E-2,-3.501072E-2,4.5909067E-3,-4.4009663E-2,-4.9843926E-2,1.6955048E-2],"categories":[],"categories_nodes":[],"categories_segments":[],"categories_sizes":[],"default_left":[0,0,0,0,0,0,0,0,0,0,0,0,0,0,0],"id":63,"left_children":[1,3,5,7,9,11,13,-1,-1,-1,-1,-1,-1,-1,-1],"loss_changes":[4.2340245E0,8.302383E0,5.2510414E0,6.6944284E0,6.3384857E0,1.0373943E1,6.412739E0,0E0,0E0,0E0,0E0,0E0,0E0,0E0,0E0],"parents":[2147483647,0,0,1,1,2,2,3,3,4,4,5,5,6,6],"right_children":[2,4,6,8,10,12,14,-1,-1,-1,-1,-1,-1,-1,-1],"split_conditions":[3.8E1,1.8E1,5.5172414E-1,1.3333333E1,5E-1,4.7E1,1.25E-1,-1.207802E-2,-1.3180038E-1,6.804881E-2,-3.501072E-2,4.5909067E-3,-4.4009663E-2,-4.9843926E-2,1.6955048E-2],"split_indices":[11,15,55,15,55,11,45,0,0,0,0,0,0,0,0],"split_type":[0,0,0,0,0,0,0,0,0,0,0,0,0,0,0],"sum_hessian":[4.9260226E2,4.0723175E1,4.518791E2,1.8389961E1,2.2333216E1,2.1779364E2,2.3408543E2,8.66518E0,9.724781E0,9.558144E0,1.2775072E1,1.5805673E2,5.9736916E1,1.4413587E1,2.1967186E2],"tree_param":{"num_deleted":"0","num_feature":"63","num_nodes":"15","size_leaf_vector":"1"}},{"base_weights":[-1.914069E-2,6.3704085E-3,-5.2353984E-1,2.7504164E-1,-3.638075E-2,-7.471347E-1,1.5149334E-1,-1.2275767E-2,4.744752E-2,5.9309818E-2,-5.920521E-3,-2.7715852E-2,-1.1718351E-1,-1.0660328E-1,6.554339E-2],"categories":[],"categories_nodes":[],"categories_segments":[],"categories_sizes":[],"default_left":[0,0,0,0,0,0,0,0,0,0,0,0,0,0,0],"id":64,"left_children":[1,3,5,7,9,11,13,-1,-1,-1,-1,-1,-1,-1,-1],"loss_changes":[6.399353E0,5.4557E0,3.726769E0,5.2310166E0,5.9245515E0,3.2985373E0,4.8638644E0,0E0,0E0,0E0,0E0,0E0,0E0,0E0,0E0],"parents":[2147483647,0,0,1,1,2,2,3,3,4,4,5,5,6,6],"right_children":[2,4,6,8,10,12,14,-1,-1,-1,-1,-1,-1,-1,-1],"split_conditions":[2.4790145E-1,-1.0333333E1,-6.666667E-1,-3.411195E-2,-1.7054616E-1,-1.2001481E-1,2.5028893E-1,-1.2275767E-2,4.744752E-2,5.9309818E-2,-5.920521E-3,-2.7715852E-2,-1.1718351E-1,-1.0660328E-1,6.554339E-2],"split_indices":[30,3,3,7,2,2,30,0,0,0,0,0,0,0,0],"split_type":[0,0,0,0,0,0,0,0,0,0,0,0,0,0,0],"sum_hessian":[4.9605695E2,4.7311548E2,2.2941486E1,6.420201E1,4.0891345E2,1.7152996E1,5.7884893E0,2.156732E1,4.2634693E1,1.3433862E1,3.9547958E2,8.926962E0,8.226034E0,1.3679978E0,4.4204917E0],"tree_param":{"num_deleted":"0","num_feature":"63","num_nodes":"15","size_leaf_vector":"1"}},{"base_weights":[1.3494406E-2,-5.4032433E-1,3.2152604E-2,1.11577705E-1,-7.341491E-1,9.470333E-2,-1.5093747E-1,3.5869342E-3,-9.16497E-2,-6.5733055E-3,1.8587088E-2,-7.934262E-3,-9.49024E-2],"categories":[],"categories_nodes":[],"categories_segments":[],"categories_sizes":[],"default_left":[0,0,0,0,0,0,0,0,0,0,0,0,0],"id":65,"left_children":[1,3,5,-1,7,9,11,-1,-1,-1,-1,-1,-1],"loss_changes":[5.1175175E0,6.00078E0,5.4933977E0,0E0,2.1466694E0,5.236993E0,6.9078016E0,0E0,0E0,0E0,0E0,0E0,0E0],"parents":[2147483647,0,0,1,1,2,2,4,4,5,5,6,6],"right_children":[2,4,6,-1,8,10,12,-1,-1,-1,-1,-1,-1],"split_conditions":[-9E0,-2.4E1,5.432001E-2,1.11577705E-1,-3.6666667E0,1.96E1,4.6287756E-2,3.5869342E-3,-9.16497E-2,-6.5733055E-3,1.8587088E-2,-7.934262E-3,-9.49024E-2],"split_indices":[10,3,2,0,56,23,20,0,0,0,0,0,0],"split_type":[0,0,0,0,0,0,0,0,0,0,0,0,0],"sum_hessian":[4.9256586E2,1.5142488E1,4.7742337E2,1.0881715E0,1.4054316E1,3.5621063E2,1.2121273E2,2.8447597E0,1.1209556E1,1.2917241E2,2.2703822E2,1.12243034E2,8.969696E0],"tree_param":{"num_deleted":"0","num_feature":"63","num_nodes":"13","size_leaf_vector":"1"}},{"base_weights":[7.077175E-3,-9.846187E-2,1.0601901E-1,-1.6064951E-2,-3.7419903E-1,5.857236E-1,5.8887627E-2,-4.8535075E-2,4.665574E-3,-1.6218504E-2,-8.118173E-2,6.6194974E-2,-4.9768455E-2,-2.3976618E-2,1.2720463E-2],"categories":[],"categories_nodes":[],"categories_segments":[],"categories_sizes":[],"default_left":[0,0,0,0,0,0,0,0,0,0,0,0,0,0,0],"id":66,"left_children":[1,3,5,7,9,11,13,-1,-1,-1,-1,-1,-1,-1,-1],"loss_changes":[5.24563E0,5.5173073E0,5.826772E0,5.562639E0,5.0535984E0,2.235516E0,4.8693614E0,0E0,0E0,0E0,0E0,0E0,0E0,0E0,0E0],"parents":[2147483647,0,0,1,1,2,2,3,3,4,4,5,5,6,6],"right_children":[2,4,6,8,10,12,14,-1,-1,-1,-1,-1,-1,-1,-1],"split_conditions":[5.5172414E-1,2.2459017E-1,1.19E1,1.6194117E-1,4.4048782E1,3.279331E-4,1.925E1,-4.8535075E-2,4.665574E-3,-1.6218504E-2,-8.118173E-2,6.6194974E-2,-4.9768455E-2,-2.3976618E-2,1.2720463E-2],"split_indices":[55,18,35,29,57,54,39,0,0,0,0,0,0,0,0],"split_type":[0,0,0,0,0,0,0,0,0,0,0,0,0,0,0],"sum_hessian":[5.0034808E2,2.4210498E2,2.582431E2,1.8721799E2,5.4886993E1,2.2080425E1,2.3616269E2,2.1277582E1,1.659404E2,3.789737E1,1.6989622E1,2.0992456E1,1.0879695E0,4.349795E1,1.9266473E2],"tree_param":{"num_deleted":"0","num_feature":"63","num_nodes":"15","size_leaf_vector":"1"}},{"base_weights":[6.8880275E-2,-7.2394145E-1,8.017731E-2,6.684333E-2,-1.2634687E-1,6.952297E-1,6.78024E-2,-7.987779E-2,7.631579E-2,-9.803066E-3,1.2625672E-1,-5.1141E-2,8.430993E-3],"categories":[],"categories_nodes":[],"categories_segments":[],"categories_sizes":[],"default_left":[0,0,0,0,0,0,0,0,0,0,0,0,0],"id":67,"left_children":[1,3,5,7,-1,9,11,-1,-1,-1,-1,-1,-1],"loss_changes":[4.523517E0,3.1154268E0,3.7011406E0,2.9186678E0,0E0,4.446467E0,4.669506E0,0E0,0E0,0E0,0E0,0E0,0E0],"parents":[2147483647,0,0,1,1,2,2,3,3,5,5,6,6],"right_children":[2,4,6,8,-1,10,12,-1,-1,-1,-1,-1,-1],"split_conditions":[-7.653197E-2,-1.8408956E-1,-6.219705E-2,1.5882593E-1,-1.2634687E-1,-6.9059454E-2,-9E0,-7.987779E-2,7.631579E-2,-9.803066E-3,1.2625672E-1,-5.1141E-2,8.430993E-3],"split_indices":[7,27,7,17,0,7,10,0,0,0,0,0,0],"split_type":[0,0,0,0,0,0,0,0,0,0,0,0,0],"sum_hessian":[4.975718E2,6.1041217E0,4.9146768E2,2.8309326E0,3.2731893E0,8.605002E0,4.8286267E2,1.1964359E0,1.6344965E0,3.9330115E0,4.6719904E0,1.2549471E1,4.703132E2],"tree_param":{"num_deleted":"0","num_feature":"63","num_nodes":"13","size_leaf_vector":"1"}},{"base_weights":[2.6596537E-2,1.4085536E-1,-8.878955E-2,3.0450815E-1,8.246157E-3,-5.7746414E-2,-9.3239063E-1,2.1008851E-2,9.079779E-2,1.3237858E-2,-2.9862737E-2,1.7389812E-2,-1.9094033E-2,-1.1872417E-1,3.602119E-3],"categories":[],"categories_nodes":[],"categories_segments":[],"categories_sizes":[],"default_left":[0,0,0,0,0,0,0,0,0,0,0,0,0,0,0],"id":68,"left_children":[1,3,5,7,9,11,13,-1,-1,-1,-1,-1,-1,-1,-1],"loss_changes":[6.5538445E0,5.4161277E0,6.42708E0,6.1757383E0,5.3326254E0,7.430643E0,2.1942487E0,0E0,0E0,0E0,0E0,0E0,0E0,0E0,0E0],"parents":[2147483647,0,0,1,1,2,2,3,3,4,4,5,5,6,6],"right_children":[2,4,6,8,10,12,14,-1,-1,-1,-1,-1,-1,-1,-1],"split_conditions":[2.16E1,-9.5817365E-2,9.573534E-2,3.6537115E-2,2.38E1,-5.7330202E-2,2.98E1,2.1008851E-2,9.079779E-2,1.3237858E-2,-2.9862737E-2,1.7389812E-2,-1.9094033E-2,-1.1872417E-1,3.602119E-3],"split_indices":[24,28,28,7,41,0,24,0,0,0,0,0,0,0,0],"split_type":[0,0,0,0,0,0,0,0,0,0,0,0,0,0,0],"sum_hessian":[4.9516187E2,2.4868533E2,2.4647653E2,1.10733284E2,1.3795204E2,2.3875903E2,7.7174892E0,9.6917564E1,1.3815716E1,9.862585E1,3.93262E1,8.705373E1,1.517053E2,5.9307594E0,1.7867298E0],"tree_param":{"num_deleted":"0","num_feature":"63","num_nodes":"15","size_leaf_vector":"1"}},{"base_weights":[-3.006295E-2,-3.255976E-1,1.2666951E-2,-6.567017E-1,-3.3026934E-2,-3.0252776E-1,4.6256054E-2,1.7667955E-2,-8.235141E-2,4.6365026E-2,-4.2755947E-2,-7.4998535E-2,2.262333E-2,1.9923693E-2,-4.6639023E-3],"categories":[],"categories_nodes":[],"categories_segments":[],"categories_sizes":[],"default_left":[0,0,0,0,0,0,0,0,0,0,0,0,0,0,0],"id":69,"left_children":[1,3,5,7,9,11,13,-1,-1,-1,-1,-1,-1,-1,-1],"loss_changes":[6.2704964E0,6.054146E0,4.6141043E0,4.2284403E0,6.929472E0,1.0101259E1,5.601737E0,0E0,0E0,0E0,0E0,0E0,0E0,0E0,0E0],"parents":[2147483647,0,0,1,1,2,2,3,3,4,4,5,5,6,6],"right_children":[2,4,6,8,10,12,14,-1,-1,-1,-1,-1,-1,-1,-1],"split_conditions":[-4E0,2.625E1,-1.17343806E-1,-5.7255566E-2,1.82E1,2.409091E1,2.0666666E1,1.7667955E-2,-8.235141E-2,4.6365026E-2,-4.2755947E-2,-7.4998535E-2,2.262333E-2,1.9923693E-2,-4.6639023E-3],"split_indices":[10,40,19,54,21,42,13,0,0,0,0,0,0,0,0],"split_type":[0,0,0,0,0,0,0,0,0,0,0,0,0,0,0],"sum_hessian":[4.9522183E2,6.1720657E1,4.3350116E2,2.8369793E1,3.3350864E1,4.097661E1,3.9252457E2,4.721653E0,2.364814E1,1.4686647E1,1.8664215E1,2.196804E1,1.9008568E1,1.4786829E2,2.4465627E2],"tree_param":{"num_deleted":"0","num_feature":"63","num_nodes":"15","size_leaf_vector":"1"}},{"base_weights":[2.034357E-2,-3.0363146E-3,5.1382273E-1,1.9353636E-2,-5.290148E-1,6.499794E-1,-8.096077E-2,-2.2036837E-2,7.0785284E-3,-1.4743046E-1,2.0492019E-3,-1.8089468E-3,9.3809895E-2],"categories":[],"categories_nodes":[],"categories_segments":[],"categories_sizes":[],"default_left":[0,0,0,0,0,0,0,0,0,0,0,0,0],"id":70,"left_children":[1,3,5,7,9,11,-1,-1,-1,-1,-1,-1,-1],"loss_changes":[5.7087975E0,5.583966E0,4.5593295E0,5.6245337E0,1.0086456E1,4.0300217E0,0E0,0E0,0E0,0E0,0E0,0E0,0E0],"parents":[2147483647,0,0,1,1,2,2,3,3,4,4,5,5],"right_children":[2,4,6,8,10,12,-1,-1,-1,-1,-1,-1,-1],"split_conditions":[5.5062726E-2,3.5239825E-1,2.1693882E-1,1.6333334E1,2.9333334E1,-2.0838208E-1,-8.096077E-2,-2.2036837E-2,7.0785284E-3,-1.4743046E-1,2.0492019E-3,-1.8089468E-3,9.3809895E-2],"split_indices":[6,25,44,22,13,28,0,0,0,0,0,0,0],"split_type":[0,0,0,0,0,0,0,0,0,0,0,0,0],"sum_hessian":[4.9366904E2,4.7228705E2,2.1382004E1,4.5392737E2,1.835966E1,1.9848795E1,1.5332091E0,7.9605034E1,3.7432236E2,6.1305733E0,1.2229086E1,6.2632585E0,1.3585537E1],"tree_param":{"num_deleted":"0","num_feature":"63","num_nodes":"13","size_leaf_vector":"1"}},{"base_weights":[-3.2247629E-3,9.055548E-2,-1.01336114E-1,6.169623E-1,3.0422308E-2,-1.5386711E-1,3.8004085E-1,-1.0282834E-1,7.513078E-2,8.07897E-3,-4.4580642E-2,4.2060863E-2,-2.0963002E-2,-8.948429E-2,5.142319E-2],"categories":[],"categories_nodes":[],"categories_segments":[],"categories_sizes":[],"default_left":[0,0,0,0,0,0,0,0,0,0,0,0,0,0,0],"id":71,"left_children":[1,3,5,7,9,11,13,-1,-1,-1,-1,-1,-1,-1,-1],"loss_changes":[4.584942E0,8.046762E0,6.216366E0,6.534976E0,5.54637E0,7.1444006E0,4.608425E0,0E0,0E0,0E0,0E0,0E0,0E0,0E0,0E0],"parents":[2147483647,0,0,1,1,2,2,3,3,4,4,5,5,6,6],"right_children":[2,4,6,8,10,12,14,-1,-1,-1,-1,-1,-1,-1,-1],"split_conditions":[2.0744681E-1,-1.2860599E-1,1.1861694E-1,9E0,2.84E1,-6.907546E-2,1.8666666E1,-1.0282834E-1,7.513078E-2,8.07897E-3,-4.4580642E-2,4.2060863E-2,-2.0963002E-2,-8.948429E-2,5.142319E-2],"split_indices":[18,0,52,21,42,20,14,0,0,0,0,0,0,0,0],"split_type":[0,0,0,0,0,0,0,0,0,0,0,0,0,0,0],"sum_hessian":[4.9631674E2,2.5379883E2,2.4251791E2,2.5070585E1,2.2872824E2,2.192701E2,2.3247826E1,1.3903097E0,2.3680275E1,2.0760197E2,2.1126259E1,1.8821903E1,2.004482E2,1.6741467E0,2.1573679E1],"tree_param":{"num_deleted":"0","num_feature":"63","num_nodes":"15","size_leaf_vector":"1"}},{"base_weights":[1.254511E-2,-6.0694176E-3,6.616814E-1,1.36495E-1,-8.505842E-2,8.8966095E-1,-3.808461E-1,1.6200705E-2,-1.2223401E-1,-8.555346E-2,-3.9262925E-3,-3.430358E-2,1.0511259E-1,-1.12703495E-1,6.0331084E-2],"categories":[],"categories_nodes":[],"categories_segments":[],"categories_sizes":[],"default_left":[0,0,0,0,0,0,0,0,0,0,0,0,0,0,0],"id":72,"left_children":[1,3,5,7,9,11,13,-1,-1,-1,-1,-1,-1,-1,-1],"loss_changes":[5.890478E0,5.3556967E0,3.5686421E0,6.0767145E0,1.0762976E1,2.639656E0,2.9849017E0,0E0,0E0,0E0,0E0,0E0,0E0,0E0,0E0],"parents":[2147483647,0,0,1,1,2,2,3,3,4,4,5,5,6,6],"right_children":[2,4,6,8,10,12,14,-1,-1,-1,-1,-1,-1,-1,-1],"split_conditions":[1.3E1,-1.5528193E-2,2.1363331E-1,1.4007474E-1,-1.2553955E-2,1.82E1,2.7286125E-2,1.6200705E-2,-1.2223401E-1,-8.555346E-2,-3.9262925E-3,-3.430358E-2,1.0511259E-1,-1.12703495E-1,6.0331084E-2],"split_indices":[10,6,18,2,6,24,0,0,0,0,0,0,0,0,0],"split_type":[0,0,0,0,0,0,0,0,0,0,0,0,0,0,0],"sum_hessian":[4.8615424E2,4.73565E2,1.2589224E1,1.6857751E2,3.049875E2,1.0450535E1,2.138689E0,1.6633534E2,2.2421613E0,1.6118795E1,2.888687E2,1.0800924E0,9.370442E0,1.1338356E0,1.0048534E0],"tree_param":{"num_deleted":"0","num_feature":"63","num_nodes":"15","size_leaf_vector":"1"}},{"base_weights":[3.222906E-2,2.162694E-2,9.5415425E-1,4.1473642E-2,-3.989551E-1,1.0534775E-1,2.6784947E-2,2.4320595E-3,8.00592E-2,-6.523738E-2,5.1789016E-2],"categories":[],"categories_nodes":[],"categories_segments":[],"categories_sizes":[],"default_left":[0,0,0,0,0,0,0,0,0,0,0],"id":73,"left_children":[1,3,5,7,9,-1,-1,-1,-1,-1,-1],"loss_changes":[4.8151436E0,4.107824E0,9.9668026E-2,6.0869317E0,5.4915085E0,0E0,0E0,0E0,0E0,0E0,0E0],"parents":[2147483647,0,0,1,1,2,2,3,3,4,4],"right_children":[2,4,6,8,10,-1,-1,-1,-1,-1,-1],"split_conditions":[8.214286E-1,2.2310002E-1,6.666667E-1,1.9833896E-1,1.24283955E-1,1.0534775E-1,2.6784947E-2,2.4320595E-3,8.00592E-2,-6.523738E-2,5.1789016E-2],"split_indices":[55,0,12,0,51,0,0,0,0,0,0],"split_type":[0,0,0,0,0,0,0,0,0,0,0],"sum_hessian":[4.9374136E2,4.8913974E2,4.601636E0,4.6795877E2,2.1180956E1,3.5525103E0,1.0491257E0,4.5862766E2,9.331118E0,1.6820248E1,4.360707E0],"tree_param":{"num_deleted":"0","num_feature":"63","num_nodes":"11","size_leaf_vector":"1"}},{"base_weights":[-2.576248E-2,1.8214905E-1,-7.139526E-2,4.327031E-2,9.1473806E-1,-1.8457925E-2,-4.012689E-1,-8.61317E-2,1.43284695E-2,1.5024601E-1,-6.744671E-3,-9.785444E-3,1.6689908E-2,-7.12895E-2,2.9342505E-3],"categories":[],"categories_nodes":[],"categories_segments":[],"categories_sizes":[],"default_left":[0,0,0,0,0,0,0,0,0,0,0,0,0,0,0],"id":74,"left_children":[1,3,5,7,9,11,13,-1,-1,-1,-1,-1,-1,-1,-1],"loss_changes":[4.707825E0,9.050207E0,7.0910845E0,7.013222E0,8.291451E0,5.1867747E0,7.5576124E0,0E0,0E0,0E0,0E0,0E0,0E0,0E0,0E0],"parents":[2147483647,0,0,1,1,2,2,3,3,4,4,5,5,6,6],"right_children":[2,4,6,8,10,12,14,-1,-1,-1,-1,-1,-1,-1,-1],"split_conditions":[-1.189674E-1,-1.2976319E-1,6.73009E-2,1.5E1,4.375E-1,3.875E0,7.058824E-1,-8.61317E-2,1.43284695E-2,1.5024601E-1,-6.744671E-3,-9.785444E-3,1.6689908E-2,-7.12895E-2,2.9342505E-3],"split_indices":[1,1,53,15,45,56,46,0,0,0,0,0,0,0,0],"split_type":[0,0,0,0,0,0,0,0,0,0,0,0,0,0,0],"sum_hessian":[4.938385E2,8.834238E1,4.0549612E2,7.515426E1,1.3188118E1,3.503317E2,5.516444E1,6.724262E0,6.843E1,7.9195104E0,5.268608E0,2.4560178E2,1.0472991E2,3.1623505E1,2.3540936E1],"tree_param":{"num_deleted":"0","num_feature":"63","num_nodes":"15","size_leaf_vector":"1"}},{"base_weights":[-4.8288E-4,1.7098937E-2,-4.6323812E-1,2.5686452E-1,-1.4250019E-2,-9.981557E-1,7.604078E-2,8.304683E-3,8.1718184E-2,-3.522341E-2,2.1837016E-3,-1.2910728E-1,6.704571E-2,-5.9688557E-2,4.4754278E-2],"categories":[],"categories_nodes":[],"categories_segments":[],"categories_sizes":[],"default_left":[0,0,0,0,0,0,0,0,0,0,0,0,0,0,0],"id":75,"left_children":[1,3,5,7,9,11,13,-1,-1,-1,-1,-1,-1,-1,-1],"loss_changes":[4.0008545E0,3.564702E0,5.2681413E0,5.2726364E0,5.1295743E0,5.3167696E0,2.7401419E0,0E0,0E0,0E0,0E0,0E0,0E0,0E0,0E0],"parents":[2147483647,0,0,1,1,2,2,3,3,4,4,5,5,6,6],"right_children":[2,4,6,8,10,12,14,-1,-1,-1,-1,-1,-1,-1,-1],"split_conditions":[3.4333332E1,1.35E1,3.0916666E1,4.621127E1,1.7E1,1.6272795E-1,1.92E1,8.304683E-3,8.1718184E-2,-3.522341E-2,2.1837016E-3,-1.2910728E-1,6.704571E-2,-5.9688557E-2,4.4754278E-2],"split_indices":[16,22,42,57,22,2,21,0,0,0,0,0,0,0,0],"split_type":[0,0,0,0,0,0,0,0,0,0,0,0,0,0,0],"sum_hessian":[4.8976886E2,4.727696E2,1.6999252E1,5.383451E1,4.189351E2,8.106954E0,8.892299E0,4.196472E1,1.1869787E1,3.9569958E1,3.7936514E2,7.0888066E0,1.0181468E0,2.9471846E0,5.9451137E0],"tree_param":{"num_deleted":"0","num_feature":"63","num_nodes":"15","size_leaf_vector":"1"}},{"base_weights":[-4.663732E-2,-9.368074E-2,1.7376761E-1,-7.553809E-2,-7.894727E-1,4.752336E-1,-2.1560665E-2,1.3254576E-3,-2.1647573E-2,1.0960886E-2,-1.7379522E-1,1.4475022E-2,8.88577E-2,-5.9464063E-2,3.3096705E-2],"categories":[],"categories_nodes":[],"categories_segments":[],"categories_sizes":[],"default_left":[0,0,0,0,0,0,0,0,0,0,0,0,0,0,0],"id":76,"left_children":[1,3,5,7,9,11,13,-1,-1,-1,-1,-1,-1,-1,-1],"loss_changes":[5.1969533E0,5.1464624E0,5.206089E0,5.0465837E0,9.037469E0,4.616471E0,1.1207462E1,0E0,0E0,0E0,0E0,0E0,0E0,0E0,0E0],"parents":[2147483647,0,0,1,1,2,2,3,3,4,4,5,5,6,6],"right_children":[2,4,6,8,10,12,14,-1,-1,-1,-1,-1,-1,-1,-1],"split_conditions":[2.1383233E-1,2.2310002E-1,-1.23088665E-1,2.4333334E1,4E0,2.21E1,4.4676693E1,1.3254576E-3,-2.1647573E-2,1.0960886E-2,-1.7379522E-1,1.4475022E-2,8.88577E-2,-5.9464063E-2,3.3096705E-2],"split_indices":[25,0,28,14,47,35,57,0,0,0,0,0,0,0,0],"split_type":[0,0,0,0,0,0,0,0,0,0,0,0,0,0,0],"sum_hessian":[4.9865027E2,4.114129E2,8.7237366E1,4.020384E2,9.374512E0,3.3736336E1,5.3501034E1,2.47203E2,1.5483537E2,5.2666206E0,4.107891E0,1.9497528E1,1.4238807E1,2.0114876E1,3.3386158E1],"tree_param":{"num_deleted":"0","num_feature":"63","num_nodes":"15","size_leaf_vector":"1"}},{"base_weights":[-9.135428E-3,-5.629896E-1,6.1876406E-3,2.9192603E-1,-9.4476193E-1,-1.5756667E-1,5.8249135E-2,8.811495E-2,-8.527972E-2,-1.1611008E-1,1.9062165E-2,-7.15736E-3,-8.920314E-2,-1.9299746E-2,1.1752167E-2],"categories":[],"categories_nodes":[],"categories_segments":[],"categories_sizes":[],"default_left":[0,0,0,0,0,0,0,0,0,0,0,0,0,0,0],"id":77,"left_children":[1,3,5,7,9,11,13,-1,-1,-1,-1,-1,-1,-1,-1],"loss_changes":[4.188989E0,4.612787E0,4.108936E0,4.0335684E0,2.5356321E0,7.2800393E0,5.4674582E0,0E0,0E0,0E0,0E0,0E0,0E0,0E0,0E0],"parents":[2147483647,0,0,1,1,2,2,3,3,4,4,5,5,6,6],"right_children":[2,4,6,8,10,12,14,-1,-1,-1,-1,-1,-1,-1,-1],"split_conditions":[-7.5E-1,4.3E1,1.7666666E1,2E0,6.3265306E-1,1.0358207E-1,1.8992466E-1,8.811495E-2,-8.527972E-2,-1.1611008E-1,1.9062165E-2,-7.15736E-3,-8.920314E-2,-1.9299746E-2,1.1752167E-2],"split_indices":[9,57,23,48,55,54,30,0,0,0,0,0,0,0,0],"split_type":[0,0,0,0,0,0,0,0,0,0,0,0,0,0,0],"sum_hessian":[4.9218146E2,1.2288023E1,4.7989343E2,3.8660307E0,8.421992E0,1.15276375E2,3.6461707E2,2.704298E0,1.1617326E0,7.055054E0,1.3669382E0,1.0417656E2,1.1099816E1,6.9168205E1,2.9544885E2],"tree_param":{"num_deleted":"0","num_feature":"63","num_nodes":"15","size_leaf_vector":"1"}}]},"name":"gbtree"},"learner_model_param":{"base_score":"5.5811244E-1","boost_from_average":"1","num_class":"0","num_feature":"63","num_target":"1"},"objective":{"name":"binary:logistic","reg_loss_param":{"scale_pos_weight":"1"}}},"version":[3,0,5]}