{"learner":{"attributes":{"best_iteration":"37","best_score":"0.5803413814834377"},"feature_names":[],"feature_types":[],"gradient_booster":{"model":{"gbtree_model_param":{"num_parallel_tree":"1","num_trees":"88"},"iteration_indptr":[0,1,2,3,4,5,6,7,8,9,10,11,12,13,14,15,16,17,18,19,20,21,22,23,24,25,26,27,28,29,30,31,32,33,34,35,36,37,38,39,40,41,42,43,44,45,46,47,48,49,50,51,52,53,54,55,56,57,58,59,60,61,62,63,64,65,66,67,68,69,70,71,72,73,74,75,76,77,78,79,80,81,82,83,84,85,86,87,88],"tree_info":[0,0,0,0,0,0,0,0,0,0,0,0,0,0,0,0,0,0,0,0,0,0,0,0,0,0,0,0,0,0,0,0,0,0,0,0,0,0,0,0,0,0,0,0,0,0,0,0,0,0,0,0,0,0,0,0,0,0,0,0,0,0,0,0,0,0,0,0,0,0,0,0,0,0,0,0,0,0,0,0,0,0,0,0,0,0,0,0],"trees":[{"base_weights":[-6.0984036E-8,-5.026803E-1,7.7799183E-1,-9.8577327E-1,-4.675953E-2,1.0322876E-1,1.0100044E0,-2.709627E-1,-1.14061475E-1,-1.20088935E-1,4.137302E-2,-1.02570534E-1,8.670108E-2,6.1293323E-2,2.1953486E-1],"categories":[],"categories_nodes":[],"categories_segments":[],"categories_sizes":[],"default_left":[0,0,0,0,0,0,0,0,0,0,0,0,0,0,0],"id":0,"left_children":[1,3,5,7,9,11,13,-1,-1,-1,-1,-1,-1,-1,-1],"loss_changes":[2.8936096E2,9.89528E1,4.5362076E1,3.268051E1,3.2744705E1,1.5569062E1,1.2986191E1,0E0,0E0,0E0,0E0,0E0,0E0,0E0,0E0],"parents":[2147483647,0,0,1,1,2,2,3,3,4,4,5,5,6,6],"right_children":[2,4,6,8,10,12,14,-1,-1,-1,-1,-1,-1,-1,-1],"split_conditions":[3.3333335E-2,-2.8057335E-2,-1E0,-1.6666667E-1,-2.1428572E-1,-5.449927E-1,-2.293825E-2,-2.709627E-1,-1.14061475E-1,-1.20088935E-1,4.137302E-2,-1.02570534E-1,8.670108E-2,6.1293323E-2,2.1953486E-1],"split_indices":[2,1,5,2,2,4,1,0,0,0,0,0,0,0,0],"split_type":[0,0,0,0,0,0,0,0,0,0,0,0,0,0,0],"sum_hessian":[7.3790015E2,4.4847986E2,2.894203E2,2.1718683E2,2.3129303E2,7.442236E1,2.1499792E2,1.1382243E2,1.0336439E2,7.223347E1,1.5905956E2,2.5780294E1,4.8642067E1,2.4321033E1,1.906769E2],"tree_param":{"num_deleted":"0","num_feature":"9","num_nodes":"15","size_leaf_vector":"1"}},{"base_weights":[2.0075582E-3,-6.247601E-1,4.324973E-1,-8.3532184E-1,-7.1566924E-3,-1.1859426E-1,6.319059E-1,-1.8815677E-1,2.6228416E-4,-8.9396164E-2,6.602561E-2,-3.6408633E-2,2.4566069E-1,7.001323E-2,1.80069E-1],"categories":[],"categories_nodes":[],"categories_segments":[],"categories_sizes":[],"default_left":[0,0,0,0,0,0,0,0,0,0,0,0,0,0,0],"id":1,"left_children":[1,3,5,7,9,11,13,-1,-1,-1,-1,-1,-1,-1,-1],"loss_changes":[1.9833502E2,3.8916748E1,4.7962288E1,1.9694656E1,1.1586104E1,1.0190315E1,2.390564E1,0E0,0E0,0E0,0E0,0E0,0E0,0E0,0E0],"parents":[2147483647,0,0,1,1,2,2,3,3,4,4,5,5,6,6],"right_children":[2,4,6,8,10,12,14,-1,-1,-1,-1,-1,-1,-1,-1],"split_conditions":[0E0,1.6083913E0,-2.8057335E-2,7.2729684E-2,-3.6692817E-2,7.039074E0,1.0544177E0,-1.8815677E-1,2.6228416E-4,-8.9396164E-2,6.602561E-2,-3.6408633E-2,2.4566069E-1,7.001323E-2,1.80069E-1],"split_indices":[3,4,1,1,1,4,4,0,0,0,0,0,0,0,0],"split_type":[0,0,0,0,0,0,0,0,0,0,0,0,0,0,0],"sum_hessian":[7.3307086E2,2.9830505E2,4.347658E2,2.2219781E2,7.610722E1,1.1562538E2,3.1914044E2,1.9721353E2,2.4984285E1,3.2891285E1,4.321594E1,1.1124954E2,4.375839E0,1.5680824E2,1.6233218E2],"tree_param":{"num_deleted":"0","num_feature":"9","num_nodes":"15","size_leaf_vector":"1"}},{"base_weights":[3.3748813E-3,-4.7888732E-1,3.1584704E-1,-2.2241311E-1,-8.437322E-1,-7.068964E-2,5.3026354E-1,-1.7964487E-1,-1.825473E-2,-2.5917602E-1,-1.3803434E-1,-1.6756195E-1,2.0530518E-2,1.2746763E-1,-8.86623E-2],"categories":[],"categories_nodes":[],"categories_segments":[],"categories_sizes":[],"default_left":[0,0,0,0,0,0,0,0,0,0,0,0,0,0,0],"id":2,"left_children":[1,3,5,7,9,11,13,-1,-1,-1,-1,-1,-1,-1,-1],"loss_changes":[1.0943283E2,2.6530006E1,3.6559677E1,1.4897685E1,7.2641983E0,2.1110409E1,2.9841843E1,0E0,0E0,0E0,0E0,0E0,0E0,0E0,0E0],"parents":[2147483647,0,0,1,1,2,2,3,3,4,4,5,5,6,6],"right_children":[2,4,6,8,10,12,14,-1,-1,-1,-1,-1,-1,-1,-1],"split_conditions":[-2.8057335E-2,3.3333333E0,-8.821717E-1,-2.0876865E-1,-1.1E1,-3.3333333E0,1E1,-1.7964487E-1,-1.825473E-2,-2.5917602E-1,-1.3803434E-1,-1.6756195E-1,2.0530518E-2,1.2746763E-1,-8.86623E-2],"split_indices":[1,6,4,1,5,5,6,0,0,0,0,0,0,0,0],"split_type":[0,0,0,0,0,0,0,0,0,0,0,0,0,0,0],"sum_hessian":[7.24191E2,2.8452664E2,4.3966437E2,1.6802213E2,1.1650453E2,1.5710878E2,2.8255557E2,2.6355076E1,1.4166704E2,2.7650557E1,8.885397E1,2.8251125E1,1.2885765E2,2.548701E2,2.768547E1],"tree_param":{"num_deleted":"0","num_feature":"9","num_nodes":"15","size_leaf_vector":"1"}},{"base_weights":[2.5583515E-3,-2.7015004E-1,6.9403595E-1,-6.568798E-1,-5.5222616E-2,4.3243077E-1,9.499005E-1,-4.0927578E-2,-1.8299125E-1,-5.0628312E-2,4.692892E-2,-3.2845367E-2,1.3919657E-1,1.0359221E-1,2.2781844E-1],"categories":[],"categories_nodes":[],"categories_segments":[],"categories_sizes":[],"default_left":[0,0,0,0,0,0,0,0,0,0,0,0,0,0,0],"id":3,"left_children":[1,3,5,7,9,11,13,-1,-1,-1,-1,-1,-1,-1,-1],"loss_changes":[1.3502223E2,4.264635E1,1.3144882E1,2.1211914E1,1.9058397E1,1.6149347E1,7.7083206E0,0E0,0E0,0E0,0E0,0E0,0E0,0E0,0E0],"parents":[2147483647,0,0,1,1,2,2,3,3,4,4,5,5,6,6],"right_children":[2,4,6,8,10,12,14,-1,-1,-1,-1,-1,-1,-1,-1],"split_conditions":[1.3333334E-1,-2E-1,1.1398089E0,7E0,4.556866E-3,7E0,6.666667E-1,-4.0927578E-2,-1.8299125E-1,-5.0628312E-2,4.692892E-2,-3.2845367E-2,1.3919657E-1,1.0359221E-1,2.2781844E-1],"split_indices":[2,2,4,8,1,8,5,0,0,0,0,0,0,0,0],"split_type":[0,0,0,0,0,0,0,0,0,0,0,0,0,0,0],"sum_hessian":[7.140315E2,5.1251324E2,2.0151823E2,1.8234837E2,3.3016486E2,1.0097145E2,1.00546776E2,6.690316E1,1.1544521E2,1.9627596E2,1.3388892E2,3.1051222E1,6.9920235E1,3.1764248E1,6.878253E1],"tree_param":{"num_deleted":"0","num_feature":"9","num_nodes":"15","size_leaf_vector":"1"}},{"base_weights":[3.6651571E-3,-2.1780206E-1,5.9103256E-1,-5.5098814E-1,-4.9701314E-2,3.1326392E-1,8.2035697E-1,-2.00513E-1,-7.588519E-2,-4.800205E-2,4.066792E-2,4.056869E-3,1.23769306E-1,1.2082877E-1,2.0938087E-1],"categories":[],"categories_nodes":[],"categories_segments":[],"categories_sizes":[],"default_left":[0,0,0,0,0,0,0,0,0,0,0,0,0,0,0],"id":4,"left_children":[1,3,5,7,9,11,13,-1,-1,-1,-1,-1,-1,-1,-1],"loss_changes":[9.1508354E1,2.8585283E1,1.2012344E1,1.2883987E1,1.6453033E1,7.930873E0,4.5052795E0,0E0,0E0,0E0,0E0,0E0,0E0,0E0,0E0],"parents":[2147483647,0,0,1,1,2,2,3,3,4,4,5,5,6,6],"right_children":[2,4,6,8,10,12,14,-1,-1,-1,-1,-1,-1,-1,-1],"split_conditions":[1.3333334E-1,-2.2222222E-1,3.3333333E0,-5E-1,9.35853E-5,8.446602E-1,1.4363656E0,-2.00513E-1,-7.588519E-2,-4.800205E-2,4.066792E-2,4.056869E-3,1.23769306E-1,1.2082877E-1,2.0938087E-1],"split_indices":[2,2,5,3,0,4,4,0,0,0,0,0,0,0,0],"split_type":[0,0,0,0,0,0,0,0,0,0,0,0,0,0,0],"sum_hessian":[7.014737E2,5.0985992E2,1.916138E2,1.7021184E2,3.3964807E2,8.772415E1,1.0388964E2,4.5529022E1,1.2468282E2,1.9388277E2,1.4576532E2,4.5330032E1,4.239412E1,5.5033398E1,4.8856243E1],"tree_param":{"num_deleted":"0","num_feature":"9","num_nodes":"15","size_leaf_vector":"1"}},{"base_weights":[4.172458E-3,-1.7606033E-1,5.043381E-1,-8.106109E-1,-1.06741585E-1,1.7934261E-1,6.7782974E-1,-1.7393385E-1,6.541395E-2,-6.2285055E-4,-9.090208E-2,-2.1081693E-3,1.4061369E-1,5.2999247E-2,1.6969994E-1],"categories":[],"categories_nodes":[],"categories_segments":[],"categories_sizes":[],"default_left":[0,0,0,0,0,0,0,0,0,0,0,0,0,0,0],"id":5,"left_children":[1,3,5,7,9,11,13,-1,-1,-1,-1,-1,-1,-1,-1],"loss_changes":[6.229774E1,2.2259838E1,1.0200012E1,3.6358871E0,1.6545599E1,6.4785013E0,8.158821E0,0E0,0E0,0E0,0E0,0E0,0E0,0E0,0E0],"parents":[2147483647,0,0,1,1,2,2,3,3,4,4,5,5,6,6],"right_children":[2,4,6,8,10,12,14,-1,-1,-1,-1,-1,-1,-1,-1],"split_conditions":[1.3333334E-1,-2.0876865E-1,8E0,1.8E1,7.6666665E0,1.2044535E-1,0E0,-1.7393385E-1,6.541395E-2,-6.2285055E-4,-9.090208E-2,-2.1081693E-3,1.4061369E-1,5.2999247E-2,1.6969994E-1],"split_indices":[2,1,8,8,6,1,5,0,0,0,0,0,0,0,0],"split_type":[0,0,0,0,0,0,0,0,0,0,0,0,0,0,0],"sum_hessian":[6.890892E2,5.0703058E2,1.8205856E2,4.888043E1,4.5815015E2,6.407082E1,1.1798774E2,4.669216E1,2.1882696E0,3.5374963E2,1.0440053E2,4.7741432E1,1.632939E1,3.5257072E1,8.273067E1],"tree_param":{"num_deleted":"0","num_feature":"9","num_nodes":"15","size_leaf_vector":"1"}},{"base_weights":[4.3528983E-3,-1.1485709E-1,5.499721E-1,-2.697236E-1,1.6039006E-1,6.550335E-2,7.839675E-1,-8.8840134E-2,-1.4113538E-2,-3.6858067E-2,5.8363445E-2,-5.3354573E-2,1.1615058E-1,7.484303E-2,1.751471E-1],"categories":[],"categories_nodes":[],"categories_segments":[],"categories_sizes":[],"default_left":[0,0,0,0,0,0,0,0,0,0,0,0,0,0,0],"id":6,"left_children":[1,3,5,7,9,11,13,-1,-1,-1,-1,-1,-1,-1,-1],"loss_changes":[4.42652E1,2.3852392E1,1.37821045E1,1.2401976E1,9.192623E0,7.1459403E0,2.7629356E0,0E0,0E0,0E0,0E0,0E0,0E0,0E0,0E0],"parents":[2147483647,0,0,1,1,2,2,3,3,4,4,5,5,6,6],"right_children":[2,4,6,8,10,12,14,-1,-1,-1,-1,-1,-1,-1,-1],"split_conditions":[2.3076923E-1,4.556866E-3,6E0,-4.8785412E-4,-2.3988279E-2,1.5257232E0,-1E0,-8.8840134E-2,-1.4113538E-2,-3.6858067E-2,5.8363445E-2,-5.3354573E-2,1.1615058E-1,7.484303E-2,1.751471E-1],"split_indices":[2,1,8,0,0,4,5,0,0,0,0,0,0,0,0],"split_type":[0,0,0,0,0,0,0,0,0,0,0,0,0,0,0],"sum_hessian":[6.78579E2,5.5755145E2,1.2102753E2,3.568126E2,2.0073886E2,3.9834114E1,8.119341E1,1.8953438E2,1.6727821E2,5.530195E1,1.454369E2,2.4510153E1,1.532396E1,1.5785873E1,6.540754E1],"tree_param":{"num_deleted":"0","num_feature":"9","num_nodes":"15","size_leaf_vector":"1"}},{"base_weights":[4.782718E-3,-1.6042322E-1,3.1840014E-1,-6.2932533E-1,-9.2684194E-2,1.972489E-1,6.5013814E-1,-1.4592405E-1,-1.8913344E-2,-4.68126E-2,2.2928199E-2,-8.411317E-2,4.7516834E-2,8.6790435E-2,1.9179332E-1],"categories":[],"categories_nodes":[],"categories_segments":[],"categories_sizes":[],"default_left":[0,0,0,0,0,0,0,0,0,0,0,0,0,0,0],"id":7,"left_children":[1,3,5,7,9,11,13,-1,-1,-1,-1,-1,-1,-1,-1],"loss_changes":[3.4689262E1,1.3871133E1,9.155716E0,2.8907032E0,1.1292965E1,4.352236E0,3.6804104E0,0E0,0E0,0E0,0E0,0E0,0E0,0E0,0E0],"parents":[2147483647,0,0,1,1,2,2,3,3,4,4,5,5,6,6],"right_children":[2,4,6,8,10,12,14,-1,-1,-1,-1,-1,-1,-1,-1],"split_conditions":[2E-1,-5E-1,3.4934216E0,1.6E1,3.8347358E-1,2E0,9.8170996E-2,-1.4592405E-1,-1.8913344E-2,-4.68126E-2,2.2928199E-2,-8.411317E-2,4.7516834E-2,8.6790435E-2,1.9179332E-1],"split_indices":[3,3,4,8,4,8,1,0,0,0,0,0,0,0,0],"split_type":[0,0,0,0,0,0,0,0,0,0,0,0,0,0,0],"sum_hessian":[6.675429E2,4.3754398E2,2.2999893E2,5.418373E1,3.8336023E2,1.6964053E2,6.0358395E1,4.5319576E1,8.864155E0,2.278537E2,1.5550655E2,9.818836E0,1.598217E2,3.691931E1,2.3439081E1],"tree_param":{"num_deleted":"0","num_feature":"9","num_nodes":"15","size_leaf_vector":"1"}},{"base_weights":[4.3091583E-3,-2.841263E-1,1.4665924E-1,4.7144126E-2,-4.4974843E-1,4.2143567E-3,3.9204615E-1,8.519345E-2,-4.920819E-2,-1.5723605E-1,-5.6167282E-2,-2.6184428E-2,4.1257914E-2,5.2713897E-2,1.4445384E-1],"categories":[],"categories_nodes":[],"categories_segments":[],"categories_sizes":[],"default_left":[0,0,0,0,0,0,0,0,0,0,0,0,0,0,0],"id":8,"left_children":[1,3,5,7,9,11,13,-1,-1,-1,-1,-1,-1,-1,-1],"loss_changes":[2.7117947E1,1.199572E1,1.5455039E1,8.28496E0,8.053259E0,7.69494E0,6.6997128E0,0E0,0E0,0E0,0E0,0E0,0E0,0E0,0E0],"parents":[2147483647,0,0,1,1,2,2,3,3,4,4,5,5,6,6],"right_children":[2,4,6,8,10,12,14,-1,-1,-1,-1,-1,-1,-1,-1],"split_conditions":[-1.3333334E-1,7E0,3.6666667E0,3.3333333E0,-3.6363637E-1,9.646235E-1,3.3633864E0,8.519345E-2,-4.920819E-2,-1.5723605E-1,-5.6167282E-2,-2.6184428E-2,4.1257914E-2,5.2713897E-2,1.4445384E-1],"split_indices":[2,8,5,6,2,4,4,0,0,0,0,0,0,0,0],"split_type":[0,0,0,0,0,0,0,0,0,0,0,0,0,0,0],"sum_hessian":[6.58451E2,2.1725143E2,4.411996E2,7.2651764E1,1.4459967E2,2.797971E2,1.614025E2,3.1499065E1,4.1152695E1,4.7111195E1,9.748848E1,1.6788033E2,1.1191676E2,1.1748996E2,4.3912533E1],"tree_param":{"num_deleted":"0","num_feature":"9","num_nodes":"15","size_leaf_vector":"1"}},{"base_weights":[3.7587278E-3,-9.843931E-2,2.4972807E-1,-6.225127E-2,-7.454934E-1,-1.829689E-1,3.2622558E-1,-3.2001894E-2,2.1608124E-2,-1.8320301E-1,-7.098707E-2,4.060704E-2,-1.5717472E-1,1.4281772E-1,4.172155E-2],"categories":[],"categories_nodes":[],"categories_segments":[],"categories_sizes":[],"default_left":[0,0,0,0,0,0,0,0,0,0,0,0,0,0,0],"id":9,"left_children":[1,3,5,7,9,11,13,-1,-1,-1,-1,-1,-1,-1,-1],"loss_changes":[1.6349262E1,1.0713243E1,6.3787184E0,7.279904E0,1.2896767E0,6.983231E0,7.268097E0,0E0,0E0,0E0,0E0,0E0,0E0,0E0,0E0],"parents":[2147483647,0,0,1,1,2,2,3,3,4,4,5,5,6,6],"right_children":[2,4,6,8,10,12,14,-1,-1,-1,-1,-1,-1,-1,-1],"split_conditions":[3.6666667E0,1.4333333E1,-4.3968584E-2,9.646235E-1,-2.3333333E0,3.3333333E0,-6.3333335E0,-3.2001894E-2,2.1608124E-2,-1.8320301E-1,-7.098707E-2,4.060704E-2,-1.5717472E-1,1.4281772E-1,4.172155E-2],"split_indices":[5,6,0,4,5,6,6,0,0,0,0,0,0,0,0],"split_type":[0,0,0,0,0,0,0,0,0,0,0,0,0,0,0],"sum_hessian":[6.4841315E2,4.5850732E2,1.8990585E2,4.3526053E2,2.3246775E1,2.8320915E1,1.6158495E2,2.7655884E2,1.587017E2,1.5245177E1,8.001596E0,1.7670671E1,1.0650244E1,3.6418396E1,1.2516654E2],"tree_param":{"num_deleted":"0","num_feature":"9","num_nodes":"15","size_leaf_vector":"1"}},{"base_weights":[2.9826665E-3,-6.944087E-2,3.7257844E-1,-6.33908E-1,-4.110711E-2,-6.0354035E-2,6.04549E-1,-1.7486583E-1,9.109514E-2,-1.6044253E-2,5.4999333E-2,-1.7057715E-1,2.200838E-2,1.3380772E-1,-1.7071941E-1],"categories":[],"categories_nodes":[],"categories_segments":[],"categories_sizes":[],"default_left":[0,0,0,0,0,0,0,0,0,0,0,0,0,0,0],"id":10,"left_children":[1,3,5,7,9,11,13,-1,-1,-1,-1,-1,-1,-1,-1],"loss_changes":[1.7221916E1,8.578555E0,1.0623194E1,7.1150713E0,6.3693385E0,5.18323E0,7.0340996E0,0E0,0E0,0E0,0E0,0E0,0E0,0E0,0E0],"parents":[2147483647,0,0,1,1,2,2,3,3,4,4,5,5,6,6],"right_children":[2,4,6,8,10,12,14,-1,-1,-1,-1,-1,-1,-1,-1],"split_conditions":[2.3076923E-1,-1.6E1,6E0,-7.777778E-2,8.333333E0,-3.697115E0,1.1E1,-1.7486583E-1,9.109514E-2,-1.6044253E-2,5.4999333E-2,-1.7057715E-1,2.200838E-2,1.3380772E-1,-1.7071941E-1],"split_indices":[2,5,8,2,5,4,6,0,0,0,0,0,0,0,0],"split_type":[0,0,0,0,0,0,0,0,0,0,0,0,0,0,0],"sum_hessian":[6.41424E2,5.370077E2,1.0441634E2,2.46455E1,5.123622E2,3.668675E1,6.77296E1,2.0351454E1,4.294048E0,4.5660843E2,5.5753746E1,5.783179E0,3.090357E1,6.5379234E1,2.3503654E0],"tree_param":{"num_deleted":"0","num_feature":"9","num_nodes":"15","size_leaf_vector":"1"}},{"base_weights":[2.507133E-3,-1.9230615E-1,9.9386066E-2,-6.5271103E-1,-1.1874215E-1,4.1018575E-2,4.832987E-1,-1.720144E-1,-4.8336193E-2,-2.9870162E-2,1.9693674E-1,1.1918281E-2,-2.0094466E-1,6.0882833E-2,2.0269667E-1],"categories":[],"categories_nodes":[],"categories_segments":[],"categories_sizes":[],"default_left":[0,0,0,0,0,0,0,0,0,0,0,0,0,0,0],"id":11,"left_children":[1,3,5,7,9,11,13,-1,-1,-1,-1,-1,-1,-1,-1],"loss_changes":[1.2011259E1,7.08161E0,9.504196E0,2.2551966E0,6.343881E0,7.246726E0,5.002427E0,0E0,0E0,0E0,0E0,0E0,0E0,0E0,0E0],"parents":[2147483647,0,0,1,1,2,2,3,3,4,4,5,5,6,6],"right_children":[2,4,6,8,10,12,14,-1,-1,-1,-1,-1,-1,-1,-1],"split_conditions":[-1.3333334E-1,-2.0876865E-1,1.4954306E-1,-7.8994566E-1,6.93026E0,1.4201339E-1,5.3147312E-2,-1.720144E-1,-4.8336193E-2,-2.9870162E-2,1.9693674E-1,1.1918281E-2,-2.0094466E-1,6.0882833E-2,2.0269667E-1],"split_indices":[2,1,1,4,4,1,0,0,0,0,0,0,0,0,0],"split_type":[0,0,0,0,0,0,0,0,0,0,0,0,0,0,0],"sum_hessian":[6.3440265E2,2.1037526E2,4.2402737E2,2.7898436E1,1.8247684E2,3.6902948E2,5.4997913E1,1.7817295E1,1.008114E1,1.7839291E2,4.0839114E0,3.6351627E2,5.513191E0,4.2300026E1,1.2697885E1],"tree_param":{"num_deleted":"0","num_feature":"9","num_nodes":"15","size_leaf_vector":"1"}},{"base_weights":[2.2482532E-3,-5.198188E-2,2.9344267E-1,7.2361166E-3,-2.603076E-1,-7.735662E-2,5.079623E-1,-1.7816617E-1,4.122682E-3,-1.0149907E-1,-7.488248E-4,-4.075561E-2,1.813182E-1,1.14035964E-1,-1.39062E-1],"categories":[],"categories_nodes":[],"categories_segments":[],"categories_sizes":[],"default_left":[0,0,0,0,0,0,0,0,0,0,0,0,0,0,0],"id":12,"left_children":[1,3,5,7,9,11,13,-1,-1,-1,-1,-1,-1,-1,-1],"loss_changes":[9.957433E0,6.5599976E0,7.913595E0,5.002925E0,7.4619493E0,4.8057775E0,5.1012726E0,0E0,0E0,0E0,0E0,0E0,0E0,0E0,0E0],"parents":[2147483647,0,0,1,1,2,2,3,3,4,4,5,5,6,6],"right_children":[2,4,6,8,10,12,14,-1,-1,-1,-1,-1,-1,-1,-1],"split_conditions":[2.3076923E-1,7.6666665E0,6E0,-2.1333334E1,-1.6666667E-1,1E0,1.1E1,-1.7816617E-1,4.122682E-3,-1.0149907E-1,-7.488248E-4,-4.075561E-2,1.813182E-1,1.14035964E-1,-1.39062E-1],"split_indices":[2,6,8,5,2,7,6,0,0,0,0,0,0,0,0],"split_type":[0,0,0,0,0,0,0,0,0,0,0,0,0,0,0],"sum_hessian":[6.285901E2,5.3059674E2,9.799336E1,4.1390634E2,1.1669041E2,3.6148945E1,6.1844414E1,5.112209E0,4.0879413E2,5.893299E1,5.7757416E1,3.2735817E1,3.4131284E0,5.9304123E1,2.5402908E0],"tree_param":{"num_deleted":"0","num_feature":"9","num_nodes":"15","size_leaf_vector":"1"}},{"base_weights":[1.8050693E-3,-2.913504E-2,3.891168E-1,-2.8033546E-1,1.5287325E-2,-6.1538193E-2,6.605331E-1,-1.0069095E-1,3.7936162E-2,7.7606025E-3,-9.196758E-2,7.613775E-2,-1.0954491E-1,1.4331639E-1,-4.3892782E-2],"categories":[],"categories_nodes":[],"categories_segments":[],"categories_sizes":[],"default_left":[0,0,0,0,0,0,0,0,0,0,0,0,0,0,0],"id":13,"left_children":[1,3,5,7,9,11,13,-1,-1,-1,-1,-1,-1,-1,-1],"loss_changes":[7.4838786E0,6.4582987E0,5.6913877E0,9.215183E0,5.519496E0,4.138804E0,1.5835924E0,0E0,0E0,0E0,0E0,0E0,0E0,0E0,0E0],"parents":[2147483647,0,0,1,1,2,2,3,3,4,4,5,5,6,6],"right_children":[2,4,6,8,10,12,14,-1,-1,-1,-1,-1,-1,-1,-1],"split_conditions":[1.7225273E-1,-3.5555556E-1,-1.4038943E-1,-3E-1,1.3666667E1,2.3633945E-1,1.2666667E1,-1.0069095E-1,3.7936162E-2,7.7606025E-3,-9.196758E-2,7.613775E-2,-1.0954491E-1,1.4331639E-1,-4.3892782E-2],"split_indices":[1,2,4,3,6,1,6,0,0,0,0,0,0,0,0],"split_type":[0,0,0,0,0,0,0,0,0,0,0,0,0,0,0],"sum_hessian":[6.225709E2,5.7737274E2,4.5198215E1,8.596208E1,4.9141064E2,1.7280024E1,2.791819E1,5.824277E1,2.7719309E1,4.6911096E2,2.2299688E1,9.16274E0,8.117285E0,2.6421076E1,1.4971156E0],"tree_param":{"num_deleted":"0","num_feature":"9","num_nodes":"15","size_leaf_vector":"1"}},{"base_weights":[1.4364677E-3,-4.0251937E-2,2.3407796E-1,8.2303995E-1,-5.151489E-2,-7.1132176E-2,4.2500237E-1,-6.6494457E-3,2.125855E-1,-8.971209E-2,-6.6733467E-3,-3.5444178E-2,1.6320615E-1,1.5318224E-1,4.278246E-2],"categories":[],"categories_nodes":[],"categories_segments":[],"categories_sizes":[],"default_left":[0,0,0,0,0,0,0,0,0,0,0,0,0,0,0],"id":14,"left_children":[1,3,5,7,9,11,13,-1,-1,-1,-1,-1,-1,-1,-1],"loss_changes":[6.0083137E0,5.1509576E0,5.5161386E0,1.4373288E0,3.7288902E0,3.6349926E0,4.0141525E0,0E0,0E0,0E0,0E0,0E0,0E0,0E0,0E0],"parents":[2147483647,0,0,1,1,2,2,3,3,4,4,5,5,6,6],"right_children":[2,4,6,8,10,12,14,-1,-1,-1,-1,-1,-1,-1,-1],"split_conditions":[2.3076923E-1,-8E0,6E0,-5.6666665E0,-1.6E1,1E0,-6.3333335E0,-6.6494457E-3,2.125855E-1,-8.971209E-2,-6.6733467E-3,-3.5444178E-2,1.6320615E-1,1.5318224E-1,4.278246E-2],"split_indices":[2,7,8,5,5,7,6,0,0,0,0,0,0,0,0],"split_type":[0,0,0,0,0,0,0,0,0,0,0,0,0,0,0],"sum_hessian":[6.1754114E2,5.243981E2,9.314302E1,5.8252416E0,5.185729E2,3.6085106E1,5.7057915E1,1.4633094E0,4.3619323E0,2.163021E1,4.9694266E2,3.294564E1,3.1394665E0,2.0814423E1,3.6243492E1],"tree_param":{"num_deleted":"0","num_feature":"9","num_nodes":"15","size_leaf_vector":"1"}},{"base_weights":[2.1905114E-3,-1.5132973E-2,5.410613E-1,-1.4699423E-1,5.610583E-2,8.302717E-1,-1.6002469E-1,-9.959113E-2,-1.3016698E-2,1.8917974E-2,-3.9918713E-2,8.935877E-2,2.3388973E-1,-1.5426835E-1,7.432453E-2],"categories":[],"categories_nodes":[],"categories_segments":[],"categories_sizes":[],"default_left":[0,0,0,0,0,0,0,0,0,0,0,0,0,0,0],"id":15,"left_children":[1,3,5,7,9,11,13,-1,-1,-1,-1,-1,-1,-1,-1],"loss_changes":[5.747916E0,5.613201E0,4.021364E0,5.9920473E0,3.8380258E0,1.2644281E0,2.3794045E0,0E0,0E0,0E0,0E0,0E0,0E0,0E0,0E0],"parents":[2147483647,0,0,1,1,2,2,3,3,4,4,5,5,6,6],"right_children":[2,4,6,8,10,12,14,-1,-1,-1,-1,-1,-1,-1,-1],"split_conditions":[7.7283893E0,-5.2379627E-2,1.5E1,-3.809524E-1,1E1,-1.6666666E0,-2.6666667E0,-9.959113E-2,-1.3016698E-2,1.8917974E-2,-3.9918713E-2,8.935877E-2,2.3388973E-1,-1.5426835E-1,7.432453E-2],"split_indices":[4,1,8,2,6,6,6,0,0,0,0,0,0,0,0],"split_type":[0,0,0,0,0,0,0,0,0,0,0,0,0,0,0],"sum_hessian":[6.138532E2,5.9567554E2,1.8177711E1,2.0856445E2,3.8711105E2,1.2738563E1,5.4391494E0,3.850473E1,1.7005972E2,3.370182E2,5.009285E1,7.06644E0,5.6721225E0,2.3202953E0,3.118854E0],"tree_param":{"num_deleted":"0","num_feature":"9","num_nodes":"15","size_leaf_vector":"1"}},{"base_weights":[1.9755969E-3,2.156925E-1,-4.601724E-3,-2.7848676E-2,3.0293187E-1,-1.4384227E-1,-3.882081E-3,-1.6586763E-1,8.032146E-2],"categories":[],"categories_nodes":[],"categories_segments":[],"categories_sizes":[],"default_left":[0,0,0,0,0,0,0,0,0],"id":16,"left_children":[1,-1,3,5,7,-1,-1,-1,-1],"loss_changes":[4.326709E0,0E0,4.352806E0,3.2873285E0,5.1139565E0,0E0,0E0,0E0,0E0],"parents":[2147483647,0,0,2,2,3,3,4,4],"right_children":[2,-1,4,6,8,-1,-1,-1,-1],"split_conditions":[-2.1E1,2.156925E-1,1.7225273E-1,-3.0990642E-1,2E0,-1.4384227E-1,-3.882081E-3,-1.6586763E-1,8.032146E-2],"split_indices":[6,0,1,1,8,0,0,0,0],"split_type":[0,0,0,0,0,0,0,0,0],"sum_hessian":[6.093816E2,2.711024E0,6.066706E2,5.648799E2,4.1790718E1,5.7957E0,5.5908417E2,2.7564619E0,3.9034256E1],"tree_param":{"num_deleted":"0","num_feature":"9","num_nodes":"9","size_leaf_vector":"1"}},{"base_weights":[1.686154E-3,-5.6149293E-2,1.1996482E-1,-2.523255E-2,-4.7214964E-1,1.3778129E-1,-2.807655E-1,-1.2499462E-2,6.408875E-2,-1.3508283E-1,6.469845E-2,-1.4823466E-2,4.5596372E-2],"categories":[],"categories_nodes":[],"categories_segments":[],"categories_sizes":[],"default_left":[0,0,0,0,0,0,0,0,0,0,0,0,0],"id":17,"left_children":[1,3,5,7,9,11,-1,-1,-1,-1,-1,-1,-1],"loss_changes":[4.168947E0,5.252459E0,5.6267166E0,4.941514E0,4.788723E0,3.8152869E0,0E0,0E0,0E0,0E0,0E0,0E0,0E0],"parents":[2147483647,0,0,1,1,2,2,3,3,4,4,5,5],"right_children":[2,4,6,8,10,12,-1,-1,-1,-1,-1,-1,-1],"split_conditions":[1.490173E0,2.945968E-2,1.3E1,1.0758935E-2,1E0,-9.356725E-2,-2.807655E-1,-1.2499462E-2,6.408875E-2,-1.3508283E-1,6.469845E-2,-1.4823466E-2,4.5596372E-2],"split_indices":[4,0,7,0,7,2,0,0,0,0,0,0,0],"split_type":[0,0,0,0,0,0,0,0,0,0,0,0,0],"sum_hessian":[6.074481E2,4.083164E2,1.991317E2,3.8105725E2,2.7259153E1,1.9772939E2,1.4023094E0,3.447153E2,3.6341957E1,2.1832628E1,5.426525E0,5.9091145E1,1.3863824E2],"tree_param":{"num_deleted":"0","num_feature":"9","num_nodes":"13","size_leaf_vector":"1"}},{"base_weights":[1.1018383E-3,-1.2250284E-2,4.3981645E-1,-3.323825E-2,3.152985E-1,7.17369E-1,-1.7771043E-1,1.9684117E-1,-7.76345E-3,1.0884981E-2,1.5070584E-1,7.0852876E-2,2.098118E-1,-1.3380268E-1,5.911724E-2],"categories":[],"categories_nodes":[],"categories_segments":[],"categories_sizes":[],"default_left":[0,0,0,0,0,0,0,0,0,0,0,0,0,0,0],"id":18,"left_children":[1,3,5,7,9,11,13,-1,-1,-1,-1,-1,-1,-1,-1],"loss_changes":[3.5531838E0,4.057827E0,3.1981494E0,3.18398E0,4.022912E0,1.1409097E0,1.6759238E0,0E0,0E0,0E0,0E0,0E0,0E0,0E0,0E0],"parents":[2147483647,0,0,1,1,2,2,3,3,4,4,5,5,6,6],"right_children":[2,4,6,8,10,12,14,-1,-1,-1,-1,-1,-1,-1,-1],"split_conditions":[7.7283893E0,1.2E1,1.5E1,-2.1666666E1,1.6719086E0,-1.6666666E0,-2.6666667E0,1.9684117E-1,-7.76345E-3,1.0884981E-2,1.5070584E-1,7.0852876E-2,2.098118E-1,-1.3380268E-1,5.911724E-2],"split_indices":[4,5,8,6,4,6,6,0,0,0,0,0,0,0,0],"split_type":[0,0,0,0,0,0,0,0,0,0,0,0,0,0,0],"sum_hessian":[6.046564E2,5.877408E2,1.6915604E1,5.53193E2,3.454779E1,1.1558747E1,5.356856E0,2.0602033E0,5.5113275E2,2.2360836E1,1.2186953E1,6.5053406E0,5.0534067E0,2.4255297E0,2.931326E0],"tree_param":{"num_deleted":"0","num_feature":"9","num_nodes":"15","size_leaf_vector":"1"}},{"base_weights":[2.0985736E-3,7.184069E-1,-5.5878875E-3,4.7381755E-2,1.5744549E-1,-3.0299202E-1,1.3076331E-2,-1.8596776E-2,-2.1783304E-1,-3.4168672E-3,8.8018276E-2],"categories":[],"categories_nodes":[],"categories_segments":[],"categories_sizes":[],"default_left":[0,0,0,0,0,0,0,0,0,0,0],"id":19,"left_children":[1,3,5,-1,-1,7,9,-1,-1,-1,-1],"loss_changes":[3.3287268E0,2.6192188E-2,3.3257332E0,0E0,0E0,5.739954E0,7.271952E0,0E0,0E0,0E0,0E0],"parents":[2147483647,0,0,1,1,2,2,5,5,6,6],"right_children":[2,4,6,-1,-1,8,10,-1,-1,-1,-1],"split_conditions":[-8E0,-2.8862424E-2,2E0,4.7381755E-2,1.5744549E-1,7.2729684E-2,4E0,-1.8596776E-2,-2.1783304E-1,-3.4168672E-3,8.8018276E-2],"split_indices":[7,1,8,0,0,1,7,0,0,0,0],"split_type":[0,0,0,0,0,0,0,0,0,0,0],"sum_hessian":[6.0284796E2,5.418612E0,5.974293E2,1.2331786E0,4.1854334E0,3.437935E1,5.6305E2,2.8014256E1,6.365092E0,5.268013E2,3.6248714E1],"tree_param":{"num_deleted":"0","num_feature":"9","num_nodes":"11","size_leaf_vector":"1"}},{"base_weights":[1.9229467E-3,-2.6986414E-1,2.1077987E-2,-1.465557E-1,-8.805002E-1,2.6820186E-1,1.2310562E-2,-8.0631845E-2,8.962189E-2,1.9369984E-2,-2.4846648E-1,1.6587834E-1,1.3151519E-3],"categories":[],"categories_nodes":[],"categories_segments":[],"categories_sizes":[],"default_left":[0,0,0,0,0,0,0,0,0,0,0,0,0],"id":20,"left_children":[1,3,5,7,9,-1,11,-1,-1,-1,-1,-1,-1],"loss_changes":[3.1471546E0,2.8677976E0,6.517508E0,5.416644E0,2.4144E0,0E0,2.6275167E0,0E0,0E0,0E0,0E0,0E0,0E0],"parents":[2147483647,0,0,1,1,2,2,3,3,4,4,6,6],"right_children":[2,4,6,8,10,-1,12,-1,-1,-1,-1,-1,-1],"split_conditions":[-2.0876865E-1,2.5956823E-2,-2.0447548E-1,-1.2161283E-2,-1.5333333E1,2.6820186E-1,-1.4E1,-8.0631845E-2,8.962189E-2,1.9369984E-2,-2.4846648E-1,1.6587834E-1,1.3151519E-3],"split_indices":[1,0,1,0,5,0,7,0,0,0,0,0,0],"split_type":[0,0,0,0,0,0,0,0,0,0,0,0,0],"sum_hessian":[6.024212E2,3.880048E1,5.636207E2,3.331337E1,5.48711E0,2.7163877E0,5.6090436E2,2.3496468E1,9.816902E0,1.6804248E0,3.8066852E0,2.9083278E0,5.5799603E2],"tree_param":{"num_deleted":"0","num_feature":"9","num_nodes":"13","size_leaf_vector":"1"}},{"base_weights":[1.7880761E-3,1.8265247E-2,-3.0341125E-1,-7.711788E-2,7.699854E-2,-8.0547357E-1,-9.822824E-2,-5.104683E-3,-8.5664354E-2,1.5125808E-1,1.2046817E-2,-1.05481E-2,-2.7270836E-1,-7.4685454E-2,8.602463E-2],"categories":[],"categories_nodes":[],"categories_segments":[],"categories_sizes":[],"default_left":[0,0,0,0,0,0,0,0,0,0,0,0,0,0,0],"id":21,"left_children":[1,3,5,7,9,11,13,-1,-1,-1,-1,-1,-1,-1,-1],"loss_changes":[3.0350077E0,3.2132127E0,3.1055222E0,3.9515882E0,3.9951918E0,3.637312E0,3.5171583E0,0E0,0E0,0E0,0E0,0E0,0E0,0E0,0E0],"parents":[2147483647,0,0,1,1,2,2,3,3,4,4,5,5,6,6],"right_children":[2,4,6,8,10,12,14,-1,-1,-1,-1,-1,-1,-1,-1],"split_conditions":[1.4333333E1,-1.6278695E0,1.5666667E1,-2.1374955E0,-1.5119512E0,1.4354257E-5,4.556866E-3,-5.104683E-3,-8.5664354E-2,1.5125808E-1,1.2046817E-2,-1.05481E-2,-2.7270836E-1,-7.4685454E-2,8.602463E-2],"split_indices":[6,4,6,4,4,1,1,0,0,0,0,0,0,0,0],"split_type":[0,0,0,0,0,0,0,0,0,0,0,0,0,0,0],"sum_hessian":[6.014207E2,5.715062E2,2.9914455E1,2.1767998E2,3.5382626E2,7.8298817E0,2.2084574E1,1.9073262E2,2.6947367E1,7.459423E0,3.4636682E2,3.7995205E0,4.030361E0,1.4713873E1,7.3707004E0],"tree_param":{"num_deleted":"0","num_feature":"9","num_nodes":"15","size_leaf_vector":"1"}},{"base_weights":[1.0869517E-3,1.8478644E-1,-3.909649E-3,-6.215808E-1,2.5357925E-3,-1.9692557E-1,1.01851426E-1,-1.5156321E-1,1.5602239E-3],"categories":[],"categories_nodes":[],"categories_segments":[],"categories_sizes":[],"default_left":[0,0,0,0,0,0,0,0,0],"id":22,"left_children":[1,-1,3,5,7,-1,-1,-1,-1],"loss_changes":[2.7742586E0,0E0,2.3848035E0,3.04118E0,2.381748E0,0E0,0E0,0E0,0E0],"parents":[2147483647,0,0,2,2,3,3,4,4],"right_children":[2,-1,4,6,8,-1,-1,-1,-1],"split_conditions":[-2.1E1,1.8478644E-1,-3.0990642E-1,-1.25E-1,-1.9E1,-1.9692557E-1,1.01851426E-1,-1.5156321E-1,1.5602239E-3],"split_indices":[6,0,1,2,6,0,0,0,0],"split_type":[0,0,0,0,0,0,0,0,0],"sum_hessian":[5.998659E2,2.2399883E0,5.976259E2,5.186255E0,5.924397E2,4.0237527E0,1.1625022E0,3.0914116E0,5.8934827E2],"tree_param":{"num_deleted":"0","num_feature":"9","num_nodes":"9","size_leaf_vector":"1"}},{"base_weights":[7.373787E-4,-2.6138298E-2,1.5780407E-1,-1.1165459E-1,2.6052143E-2,1.9561186E-1,-5.6918913E-1,-1.4393653E-2,-1.5174833E-1,-4.0178597E-2,1.3235124E-2,-3.8902264E-2,5.590412E-2,-1.741194E-1,3.980046E-2],"categories":[],"categories_nodes":[],"categories_segments":[],"categories_sizes":[],"default_left":[0,0,0,0,0,0,0,0,0,0,0,0,0,0,0],"id":23,"left_children":[1,3,5,7,9,11,13,-1,-1,-1,-1,-1,-1,-1,-1],"loss_changes":[2.5377884E0,2.2941666E0,2.5256772E0,4.9468403E0,2.9236782E0,2.8119674E0,1.2378808E0,0E0,0E0,0E0,0E0,0E0,0E0,0E0,0E0],"parents":[2147483647,0,0,1,1,2,2,3,3,4,4,5,5,6,6],"right_children":[2,4,6,8,10,12,14,-1,-1,-1,-1,-1,-1,-1,-1],"split_conditions":[2.3076923E-1,-5.0619848E-2,1.1E1,2.6666667E0,-5.3333335E0,-3.2888203E0,3.120092E0,-1.4393653E-2,-1.5174833E-1,-4.0178597E-2,1.3235124E-2,-3.8902264E-2,5.590412E-2,-1.741194E-1,3.980046E-2],"split_indices":[2,1,6,5,5,4,4,0,0,0,0,0,0,0,0],"split_type":[0,0,0,0,0,0,0,0,0,0,0,0,0,0,0],"sum_hessian":[5.99213E2,5.1237427E2,8.683876E1,1.937565E2,3.1861777E2,8.32407E1,3.5980613E0,1.8360698E2,1.0149531E1,4.7266064E1,2.7135168E2,1.4501175E1,6.8739525E1,2.4884033E0,1.1096581E0],"tree_param":{"num_deleted":"0","num_feature":"9","num_nodes":"15","size_leaf_vector":"1"}},{"base_weights":[1.9595209E-4,1.7150061E-1,-4.1109147E-3,5.877493E-1,-1.0022601E-2,-1.706392E-2,1.6441004E-1,-5.6715913E-2,8.782927E-4],"categories":[],"categories_nodes":[],"categories_segments":[],"categories_sizes":[],"default_left":[0,0,0,0,0,0,0,0,0],"id":24,"left_children":[1,-1,3,5,7,-1,-1,-1,-1],"loss_changes":[2.2072322E0,0E0,2.0872042E0,1.0004997E0,2.327457E0,0E0,0E0,0E0,0E0],"parents":[2147483647,0,0,2,2,3,3,4,4],"right_children":[2,-1,4,6,8,-1,-1,-1,-1],"split_conditions":[-2.1E1,1.7150061E-1,-8E0,-5.6666665E0,-6E0,-1.706392E-2,1.6441004E-1,-5.6715913E-2,8.782927E-4],"split_indices":[6,0,7,5,7,0,0,0,0],"split_type":[0,0,0,0,0,0,0,0,0],"sum_hessian":[5.958374E2,1.9881246E0,5.938493E2,4.89955E0,5.889497E2,1.4293513E0,3.4701986E0,2.8544518E1,5.604052E2],"tree_param":{"num_deleted":"0","num_feature":"9","num_nodes":"9","size_leaf_vector":"1"}},{"base_weights":[6.753415E-4,3.25767E-2,-1.0283333E-1,-2.1302313E-2,1.6618209E-1,-7.923475E-1,-5.2243315E-2,-1.3063739E-1,7.533411E-4,8.100589E-2,6.2616365E-3,-6.682162E-2,-2.059965E-1,-2.2831619E-2,6.617134E-2],"categories":[],"categories_nodes":[],"categories_segments":[],"categories_sizes":[],"default_left":[0,0,0,0,0,0,0,0,0,0,0,0,0,0,0],"id":25,"left_children":[1,3,5,7,9,11,13,-1,-1,-1,-1,-1,-1,-1,-1],"loss_changes":[1.973007E0,3.291276E0,4.868971E0,5.172198E0,4.2191863E0,6.9599247E-1,3.173897E0,0E0,0E0,0E0,0E0,0E0,0E0,0E0,0E0],"parents":[2147483647,0,0,1,1,2,2,3,3,4,4,5,5,6,6],"right_children":[2,4,6,8,10,12,14,-1,-1,-1,-1,-1,-1,-1,-1],"split_conditions":[6.6666665E0,1.6666666E0,-1.3E1,-5E-1,3.3333333E0,-2.3374881E-1,1.1764706E-1,-1.3063739E-1,7.533411E-4,8.100589E-2,6.2616365E-3,-6.682162E-2,-2.059965E-1,-2.2831619E-2,6.617134E-2],"split_indices":[6,6,5,3,6,1,2,0,0,0,0,0,0,0,0],"split_type":[0,0,0,0,0,0,0,0,0,0,0,0,0,0,0],"sum_hessian":[5.954921E2,4.5572348E2,1.3976863E2,3.2535727E2,1.303662E2,8.551688E0,1.3121695E2,1.1459361E1,3.1389792E2,4.6325546E1,8.404065E1,3.7419443E0,4.809744E0,1.1356511E2,1.765183E1],"tree_param":{"num_deleted":"0","num_feature":"9","num_nodes":"15","size_leaf_vector":"1"}},{"base_weights":[-3.529697E-6,1.6022559E-1,-3.7810926E-3,-5.542045E-1,1.4852831E-3,-1.8373789E-1,8.736288E-2,1.2419334E-3,-1.2377397E-1],"categories":[],"categories_nodes":[],"categories_segments":[],"categories_sizes":[],"default_left":[0,0,0,0,0,0,0,0,0],"id":26,"left_children":[1,-1,3,5,7,-1,-1,-1,-1],"loss_changes":[1.8004537E0,0E0,1.7172742E0,2.4293087E0,1.7257533E0,0E0,0E0,0E0,0E0],"parents":[2147483647,0,0,2,2,3,3,4,4],"right_children":[2,-1,4,6,8,-1,-1,-1,-1],"split_conditions":[-2.1E1,1.6022559E-1,-3.0990642E-1,-1.25E-1,3.2369614E-1,-1.8373789E-1,8.736288E-2,1.2419334E-3,-1.2377397E-1],"split_indices":[6,0,1,2,1,0,0,0,0],"split_type":[0,0,0,0,0,0,0,0,0],"sum_hessian":[5.9292975E2,1.7921021E0,5.911377E2,4.614472E0,5.865232E2,3.4270346E0,1.1874375E0,5.8307275E2,3.4504652E0],"tree_param":{"num_deleted":"0","num_feature":"9","num_nodes":"9","size_leaf_vector":"1"}},{"base_weights":[-1.1575019E-4,-1.0627751E-2,3.6018288E-1,-2.6436651E-2,2.4649829E-1,8.619275E-1,1.4386463E-3,-2.7117226E-3,-6.813287E-2,1.9945846E-1,2.2675574E-2,2.2176944E-1,-1.7424831E-2,-8.675729E-2,1.081471E-1],"categories":[],"categories_nodes":[],"categories_segments":[],"categories_sizes":[],"default_left":[0,0,0,0,0,0,0,0,0,0,0,0,0,0,0],"id":27,"left_children":[1,3,5,7,9,11,13,-1,-1,-1,-1,-1,-1,-1,-1],"loss_changes":[2.251896E0,2.3547995E0,3.0326605E0,2.2013729E0,3.2409523E0,1.7429318E0,2.7764883E0,0E0,0E0,0E0,0E0,0E0,0E0,0E0,0E0],"parents":[2147483647,0,0,1,1,2,2,3,3,4,4,5,5,6,6],"right_children":[2,4,6,8,10,12,14,-1,-1,-1,-1,-1,-1,-1,-1],"split_conditions":[7.7283893E0,1.2E1,7.934775E-2,9.666667E0,-1E0,9.943026E0,-2.6666667E0,-2.7117226E-3,-6.813287E-2,1.9945846E-1,2.2675574E-2,2.2176944E-1,-1.7424831E-2,-8.675729E-2,1.081471E-1],"split_indices":[4,5,0,5,7,4,6,0,0,0,0,0,0,0,0],"split_type":[0,0,0,0,0,0,0,0,0,0,0,0,0,0,0],"sum_hessian":[5.925556E2,5.7670044E2,1.5855195E1,5.441421E2,3.2558346E1,6.0253844E0,9.82981E0,5.237215E2,2.0420605E1,3.9257293E0,2.8632616E1,4.647775E0,1.377609E0,5.54805E0,4.2817607E0],"tree_param":{"num_deleted":"0","num_feature":"9","num_nodes":"15","size_leaf_vector":"1"}},{"base_weights":[8.0250343E-4,-1.3366565E-2,2.0120426E-1,1.7268448E-1,-1.9282673E-2,3.8466774E-2,7.912858E-1,-1.0741286E-3,-6.846184E-2,-9.961521E-2,4.3106653E-2,1.9556096E-1,6.22271E-2],"categories":[],"categories_nodes":[],"categories_segments":[],"categories_sizes":[],"default_left":[0,0,0,0,0,0,0,0,0,0,0,0,0],"id":28,"left_children":[1,3,5,-1,7,9,11,-1,-1,-1,-1,-1,-1],"loss_changes":[1.686137E0,2.89374E0,3.735017E0,0E0,2.4784431E0,3.1271913E0,4.5032215E-1,0E0,0E0,0E0,0E0,0E0,0E0],"parents":[2147483647,0,0,1,1,2,2,4,4,5,5,6,6],"right_children":[2,4,6,-1,8,10,12,-1,-1,-1,-1,-1,-1],"split_conditions":[1.7225273E-1,-1.4E1,5.3147312E-2,1.7268448E-1,1.4201339E-1,7.3333335E0,1.2E1,-1.0741286E-3,-6.846184E-2,-9.961521E-2,4.3106653E-2,1.9556096E-1,6.22271E-2],"split_indices":[1,7,0,0,1,5,8,0,0,0,0,0,0],"split_type":[0,0,0,0,0,0,0,0,0,0,0,0,0],"sum_hessian":[5.918663E2,5.5365436E2,3.82119E1,2.7392762E0,5.509151E2,3.078653E1,7.4253697E0,5.2914276E2,2.1772367E1,7.1891627E0,2.3597366E1,4.601441E0,2.823929E0],"tree_param":{"num_deleted":"0","num_feature":"9","num_nodes":"13","size_leaf_vector":"1"}},{"base_weights":[1.3644684E-3,-2.7227488E-3,6.5603125E-1,1.8363508E-3,-5.994086E-1,1.6640587E-1,2.4159903E-2,-2.771561E-3,5.1064737E-2,-2.3404682E-1,2.1543847E-2],"categories":[],"categories_nodes":[],"categories_segments":[],"categories_sizes":[],"default_left":[0,0,0,0,0,0,0,0,0,0,0],"id":29,"left_children":[1,3,5,7,9,-1,-1,-1,-1,-1,-1],"loss_changes":[1.5865747E0,1.6050081E0,2.4604094E-1,2.33529E0,1.9318993E0,0E0,0E0,0E0,0E0,0E0,0E0],"parents":[2147483647,0,0,1,1,2,2,3,3,4,4],"right_children":[2,4,6,8,10,-1,-1,-1,-1,-1,-1],"split_conditions":[1.0210176E1,3.2369614E-1,5E-1,1.7225273E-1,1.9E1,1.6640587E-1,2.4159903E-2,-2.771561E-3,5.1064737E-2,-2.3404682E-1,2.1543847E-2],"split_indices":[4,1,3,1,5,0,0,0,0,0,0],"split_type":[0,0,0,0,0,0,0,0,0,0,0],"sum_hessian":[5.912748E2,5.8859595E2,2.6788824E0,5.851221E2,3.473822E0,1.5986749E0,1.0802076E0,5.5189777E2,3.3224304E1,1.5597832E0,1.9140389E0],"tree_param":{"num_deleted":"0","num_feature":"9","num_nodes":"11","size_leaf_vector":"1"}},{"base_weights":[1.2378531E-3,1.2350073E-1,-2.1335894E-2,-1.6539411E-1,3.143842E-1,-1.660531E-1,2.0805515E-2,1.641778E-1,-5.5149674E-2,-3.191698E-2,8.151374E-2,-2.3758916E-2,-3.0166355E-1,1.4332699E-3,1.5265515E-1],"categories":[],"categories_nodes":[],"categories_segments":[],"categories_sizes":[],"default_left":[0,0,0,0,0,0,0,0,0,0,0,0,0,0,0],"id":30,"left_children":[1,3,5,7,9,11,13,-1,-1,-1,-1,-1,-1,-1,-1],"loss_changes":[1.6352421E0,5.1442523E0,3.0539463E0,4.2963934E0,2.5360785E0,6.9836264E0,3.926495E0,0E0,0E0,0E0,0E0,0E0,0E0,0E0,0E0],"parents":[2147483647,0,0,1,1,2,2,3,3,4,4,5,5,6,6],"right_children":[2,4,6,8,10,12,14,-1,-1,-1,-1,-1,-1,-1,-1],"split_conditions":[-7.6666665E0,-8.821717E-1,-2.6666667E0,-6.803375E0,0E0,9.814019E-2,9.814019E-2,1.641778E-1,-5.5149674E-2,-3.191698E-2,8.151374E-2,-2.3758916E-2,-3.0166355E-1,1.4332699E-3,1.5265515E-1],"split_indices":[6,4,6,4,3,0,0,0,0,0,0,0,0,0,0],"split_type":[0,0,0,0,0,0,0,0,0,0,0,0,0,0,0],"sum_hessian":[5.90539E2,9.134258E1,4.9919644E2,3.6394474E1,5.4948112E1,1.11918465E2,3.8727795E2,3.014443E0,3.338003E1,8.911011E0,4.60371E1,1.09163536E2,2.7549322E0,3.8128345E2,5.9945183E0],"tree_param":{"num_deleted":"0","num_feature":"9","num_nodes":"15","size_leaf_vector":"1"}},{"base_weights":[1.229181E-3,-7.043761E-3,3.020039E-1,1.7265456E-2,-1.1304601E-1,4.4070107E-1,-1.553018E-1,-8.3719334E-4,6.434311E-2,-1.5023671E-2,-2.218372E-1,1.4463595E-1,-2.9556025E-2],"categories":[],"categories_nodes":[],"categories_segments":[],"categories_sizes":[],"default_left":[0,0,0,0,0,0,0,0,0,0,0,0,0],"id":31,"left_children":[1,3,5,7,9,11,-1,-1,-1,-1,-1,-1,-1],"loss_changes":[1.4716036E0,1.4854981E0,2.7103872E0,3.0655909E0,3.979384E0,2.5447628E0,0E0,0E0,0E0,0E0,0E0,0E0,0E0],"parents":[2147483647,0,0,1,1,2,2,3,3,4,4,5,5],"right_children":[2,4,6,8,10,12,-1,-1,-1,-1,-1,-1,-1],"split_conditions":[7.7283893E0,3.2630414E-2,1.4E1,2.3718813E-2,5.5E-1,1.5E1,-1.553018E-1,-8.3719334E-4,6.434311E-2,-1.5023671E-2,-2.218372E-1,1.4463595E-1,-2.9556025E-2],"split_indices":[4,0,5,0,2,8,0,0,0,0,0,0,0],"split_type":[0,0,0,0,0,0,0,0,0,0,0,0,0],"sum_hessian":[5.8955634E2,5.7472485E2,1.4831482E1,4.6819263E2,1.0653225E2,1.3665477E1,1.1660051E0,4.382967E2,2.9895945E1,1.0366081E2,2.8714378E0,9.078694E0,4.586783E0],"tree_param":{"num_deleted":"0","num_feature":"9","num_nodes":"13","size_leaf_vector":"1"}},{"base_weights":[8.290612E-4,-8.026059E-3,2.6528543E-1,-4.3569714E-2,1.0591331E-1,6.979104E-1,-4.4149163E-1,2.4965106E-2,-1.7091613E-2,5.178641E-2,-2.0326803E-2,-2.706845E-2,1.7852917E-1,1.569399E-1,-1.5548705E-1],"categories":[],"categories_nodes":[],"categories_segments":[],"categories_sizes":[],"default_left":[0,0,0,0,0,0,0,0,0,0,0,0,0,0,0],"id":32,"left_children":[1,3,5,7,9,11,13,-1,-1,-1,-1,-1,-1,-1,-1],"loss_changes":[1.3848629E0,2.3223257E0,6.1666274E0,3.0926719E0,4.3572807E0,2.112187E0,3.8591294E0,0E0,0E0,0E0,0E0,0E0,0E0,0E0,0E0],"parents":[2147483647,0,0,1,1,2,2,3,3,4,4,5,5,6,6],"right_children":[2,4,6,8,10,12,14,-1,-1,-1,-1,-1,-1,-1,-1],"split_conditions":[1.9E1,6.227974E-2,4.901939E-2,4E0,1.42417485E-2,-4.708716E-2,-1E-1,2.4965106E-2,-1.7091613E-2,5.178641E-2,-2.0326803E-2,-2.706845E-2,1.7852917E-1,1.569399E-1,-1.5548705E-1],"split_indices":[8,1,1,8,0,0,3,0,0,0,0,0,0,0,0],"split_type":[0,0,0,0,0,0,0,0,0,0,0,0,0,0,0],"sum_hessian":[5.894594E2,5.7129956E2,1.815988E1,4.359283E2,1.3537125E2,1.127245E1,6.8874297E0,8.644222E1,3.4948608E2,7.777924E1,5.7592007E1,2.1931567E0,9.079294E0,1.1938995E0,5.69353E0],"tree_param":{"num_deleted":"0","num_feature":"9","num_nodes":"15","size_leaf_vector":"1"}},{"base_weights":[1.1772165E-3,-1.8024647E-1,1.41204065E-2,3.9796498E-1,-3.800153E-1,3.4095666E-1,-1.0879734E-2,1.4825524E-1,-1.5616556E-1,6.4345606E-2,-1.2340125E-1,3.6160316E-2,2.1965812E-1,-6.9498667E-3,6.359558E-2],"categories":[],"categories_nodes":[],"categories_segments":[],"categories_sizes":[],"default_left":[0,0,0,0,0,0,0,0,0,0,0,0,0,0,0],"id":33,"left_children":[1,3,5,7,9,11,13,-1,-1,-1,-1,-1,-1,-1,-1],"loss_changes":[1.3871295E0,4.6950455E0,4.5083447E0,4.864296E0,5.1457944E0,4.556526E0,4.0386887E0,0E0,0E0,0E0,0E0,0E0,0E0,0E0,0E0],"parents":[2147483647,0,0,1,1,2,2,3,3,4,4,5,5,6,6],"right_children":[2,4,6,8,10,12,14,-1,-1,-1,-1,-1,-1,-1,-1],"split_conditions":[2E0,0E0,3E0,1.2837492E-1,-3E-1,1E0,4E0,1.4825524E-1,-1.5616556E-1,6.4345606E-2,-1.2340125E-1,3.6160316E-2,2.1965812E-1,-6.9498667E-3,6.359558E-2],"split_indices":[8,7,8,1,3,7,7,0,0,0,0,0,0,0,0],"split_type":[0,0,0,0,0,0,0,0,0,0,0,0,0,0,0],"sum_hessian":[5.886361E2,3.833743E1,5.502987E2,9.589481E0,2.8747946E1,3.820409E1,5.120946E2,7.7140117E0,1.8754698E0,7.16738E0,2.1580566E1,3.2557762E1,5.646327E0,4.782742E2,3.3820427E1],"tree_param":{"num_deleted":"0","num_feature":"9","num_nodes":"15","size_leaf_vector":"1"}},{"base_weights":[1.5202308E-3,1.3308674E-2,-2.2160357E-1,-9.934289E-2,3.881041E-2,4.574952E-1,-3.794788E-1,-1.1541753E-1,-5.7966052E-5,9.124038E-2,4.419967E-3,-7.5181924E-2,2.3634195E-1,-1.7768367E-1,-3.3334013E-2],"categories":[],"categories_nodes":[],"categories_segments":[],"categories_sizes":[],"default_left":[0,0,0,0,0,0,0,0,0,0,0,0,0,0,0],"id":34,"left_children":[1,3,5,7,9,11,13,-1,-1,-1,-1,-1,-1,-1,-1],"loss_changes":[1.5520055E0,1.6135515E0,3.3482492E0,4.907636E0,3.181682E0,4.0889764E0,2.5132291E0,0E0,0E0,0E0,0E0,0E0,0E0,0E0,0E0],"parents":[2147483647,0,0,1,1,2,2,3,3,4,4,5,5,6,6],"right_children":[2,4,6,8,10,12,14,-1,-1,-1,-1,-1,-1,-1,-1],"split_conditions":[1.4333333E1,-4.270554E0,-5.143592E0,-9.666667E0,-3.7716334E0,-4E0,1.5666667E1,-1.1541753E-1,-5.7966052E-5,9.124038E-2,4.419967E-3,-7.5181924E-2,2.3634195E-1,-1.7768367E-1,-3.3334013E-2],"split_indices":[6,4,4,5,4,5,6,0,0,0,0,0,0,0,0],"split_type":[0,0,0,0,0,0,0,0,0,0,0,0,0,0,0],"sum_hessian":[5.879316E2,5.59321E2,2.8610613E1,1.0271065E2,4.5661035E2,5.0387316E0,2.357188E1,1.680965E1,8.5901E1,1.6564608E1,4.4004572E2,2.56637E0,2.4723613E0,6.0141373E0,1.7557743E1],"tree_param":{"num_deleted":"0","num_feature":"9","num_nodes":"15","size_leaf_vector":"1"}},{"base_weights":[9.783459E-4,1.4819379E-1,-2.2674787E-3,-6.373491E-1,2.2880582E-3,9.8009616E-2,-2.479826E-1,-1.6527641E-1,1.2879921E-3],"categories":[],"categories_nodes":[],"categories_segments":[],"categories_sizes":[],"default_left":[0,0,0,0,0,0,0,0,0],"id":35,"left_children":[1,-1,3,5,7,-1,-1,-1,-1],"loss_changes":[1.4126927E0,0E0,1.6965283E0,3.4447298E0,2.0101929E0,0E0,0E0,0E0,0E0],"parents":[2147483647,0,0,2,2,3,3,4,4],"right_children":[2,-1,4,6,8,-1,-1,-1,-1],"split_conditions":[-2.1E1,1.4819379E-1,-1.9E1,-3E0,-2.3333334E1,9.8009616E-2,-2.479826E-1,-1.6527641E-1,1.2879921E-3],"split_indices":[6,0,6,5,5,0,0,0,0],"split_type":[0,0,0,0,0,0,0,0,0],"sum_hessian":[5.864618E2,1.5685844E0,5.8489325E2,3.1763463E0,5.8171686E2,1.1713948E0,2.0049515E0,1.9127756E0,5.7980414E2],"tree_param":{"num_deleted":"0","num_feature":"9","num_nodes":"9","size_leaf_vector":"1"}},{"base_weights":[5.2456977E-4,1.2493266E-1,-2.7837246E-3,-1.712514E-1,9.5320167E-4,-1.0017336E-2,9.941544E-3],"categories":[],"categories_nodes":[],"categories_segments":[],"categories_sizes":[],"default_left":[0,0,0,0,0,0,0],"id":36,"left_children":[1,-1,3,-1,5,-1,-1],"loss_changes":[1.2141283E0,0E0,1.8667877E0,0E0,1.454507E0,0E0,0E0],"parents":[2147483647,0,0,2,2,4,4],"right_children":[2,-1,4,-1,6,-1,-1],"split_conditions":[-2.0333334E1,1.2493266E-1,-1.9333334E1,-1.712514E-1,-4.8785412E-4,-1.0017336E-2,9.941544E-3],"split_indices":[6,0,6,0,0,0,0],"split_type":[0,0,0,0,0,0,0],"sum_hessian":[5.861605E2,2.1003153E0,5.840602E2,1.5516262E0,5.8250854E2,2.8457098E2,2.9793756E2],"tree_param":{"num_deleted":"0","num_feature":"9","num_nodes":"7","size_leaf_vector":"1"}},{"base_weights":[3.6638926E-4,-3.0661568E-3,5.856229E-1,1.0968454E-3,-5.252472E-1,1.4363109E-1,4.0896658E-2,-2.242051E-3,4.5713115E-2,5.3406805E-2,-1.8316035E-1],"categories":[],"categories_nodes":[],"categories_segments":[],"categories_sizes":[],"default_left":[0,0,0,0,0,0,0,0,0,0,0],"id":37,"left_children":[1,3,5,7,9,-1,-1,-1,-1,-1,-1],"loss_changes":[1.1796447E0,1.2698506E0,2.6100874E-2,1.6270041E0,1.6741741E0,0E0,0E0,0E0,0E0,0E0,0E0],"parents":[2147483647,0,0,1,1,2,2,3,3,4,4],"right_children":[2,4,6,8,10,-1,-1,-1,-1,-1,-1],"split_conditions":[1.0210176E1,3.2369614E-1,3.3333333E0,1.2E1,-5.3333335E0,1.4363109E-1,4.0896658E-2,-2.242051E-3,4.5713115E-2,5.3406805E-2,-1.8316035E-1],"split_indices":[4,1,5,5,6,0,0,0,0,0,0],"split_type":[0,0,0,0,0,0,0,0,0,0,0],"sum_hessian":[5.853096E2,5.828857E2,2.42388E0,5.7926544E2,3.620199E0,1.1424037E0,1.2814763E0,5.504351E2,2.8830345E1,1.2997625E0,2.3204362E0],"tree_param":{"num_deleted":"0","num_feature":"9","num_nodes":"11","size_leaf_vector":"1"}},{"base_weights":[5.434356E-4,2.254826E-2,-8.9843415E-2,-1.3138915E-2,2.2775662E-1,-5.871227E-3,-5.548309E-1,1.5123659E-3,-7.22939E-2,1.4514199E-1,9.515387E-3,-2.729787E-2,1.2990414E-1,-1.4081348E-1,1.367795E-1],"categories":[],"categories_nodes":[],"categories_segments":[],"categories_sizes":[],"default_left":[0,0,0,0,0,0,0,0,0,0,0,0,0,0,0],"id":38,"left_children":[1,3,5,7,9,11,13,-1,-1,-1,-1,-1,-1,-1,-1],"loss_changes":[1.1671084E0,3.4587896E0,4.482679E0,2.908128E0,6.242551E0,8.5058775E0,3.7283297E0,0E0,0E0,0E0,0E0,0E0,0E0,0E0,0E0],"parents":[2147483647,0,0,1,1,2,2,3,3,4,4,5,5,6,6],"right_children":[2,4,6,8,10,12,14,-1,-1,-1,-1,-1,-1,-1,-1],"split_conditions":[7.6666665E0,1.083366E-1,1.083366E-1,8.605011E-2,1.3618013E-1,4.7170244E-2,3E-1,1.5123659E-3,-7.22939E-2,1.4514199E-1,9.515387E-3,-2.729787E-2,1.2990414E-1,-1.4081348E-1,1.367795E-1],"split_indices":[6,1,1,1,1,1,3,0,0,0,0,0,0,0,0],"split_type":[0,0,0,0,0,0,0,0,0,0,0,0,0,0,0],"sum_hessian":[5.847787E2,4.7089026E2,1.1388845E2,4.019281E2,6.896214E1,9.732511E1,1.6563337E1,3.8030542E2,2.162267E1,1.7518759E1,5.144339E1,8.181192E1,1.5513189E1,1.5167628E1,1.3957081E0],"tree_param":{"num_deleted":"0","num_feature":"9","num_nodes":"15","size_leaf_vector":"1"}},{"base_weights":[9.98599E-4,2.1028174E-1,-8.113052E-3,4.9360815E-1,-2.757239E-1,-3.723978E-1,1.3076597E-2,4.260385E-2,2.4513166E-1,-1.9384356E-1,6.93204E-2,-1.8159623E-1,2.6341802E-3,-3.2911055E-2,5.1665893E-3],"categories":[],"categories_nodes":[],"categories_segments":[],"categories_sizes":[],"default_left":[0,0,0,0,0,0,0,0,0,0,0,0,0,0,0],"id":39,"left_children":[1,3,5,7,9,11,13,-1,-1,-1,-1,-1,-1,-1,-1],"loss_changes":[1.1158721E0,3.4978328E0,4.334209E0,2.9804432E0,4.493166E0,6.385657E0,1.207458E0,0E0,0E0,0E0,0E0,0E0,0E0,0E0,0E0],"parents":[2147483647,0,0,1,1,2,2,3,3,4,4,5,5,6,6],"right_children":[2,4,6,8,10,12,14,-1,-1,-1,-1,-1,-1,-1,-1],"split_conditions":[-8.7858565E-2,-5.9949765E0,-6.646755E-2,1E0,-1.0131127E-1,-1E-1,2E0,4.260385E-2,2.4513166E-1,-1.9384356E-1,6.93204E-2,-1.8159623E-1,2.6341802E-3,-3.2911055E-2,5.1665893E-3],"split_indices":[0,4,0,7,0,3,8,0,0,0,0,0,0,0,0],"split_type":[0,0,0,0,0,0,0,0,0,0,0,0,0,0,0],"sum_hessian":[5.8327686E2,2.3413767E1,5.598631E2,1.4781159E1,8.6326065E0,2.986474E1,5.2999835E2,1.161877E1,3.1623902E0,3.8192182E0,4.8133883E0,1.1933423E1,1.7931318E1,3.4713516E1,4.9528482E2],"tree_param":{"num_deleted":"0","num_feature":"9","num_nodes":"15","size_leaf_vector":"1"}},{"base_weights":[5.629415E-4,-2.17751E-3,1.323673E-1,6.2184734E-3,-4.981343E-1,-2.3692632E-4,1.2525591E-1,4.3746654E-2,-1.6055344E-1],"categories":[],"categories_nodes":[],"categories_segments":[],"categories_sizes":[],"default_left":[0,0,0,0,0,0,0,0,0],"id":40,"left_children":[1,3,-1,5,7,-1,-1,-1,-1],"loss_changes":[1.0586523E0,2.4264817E0,0E0,2.6323032E0,2.2940118E0,0E0,0E0,0E0,0E0],"parents":[2147483647,0,0,1,1,3,3,4,4],"right_children":[2,4,-1,6,8,-1,-1,-1,-1],"split_conditions":[2.3E1,1.6666666E1,1.323673E-1,1.5E1,7.1428575E-2,-2.3692632E-4,1.2525591E-1,4.3746654E-2,-1.6055344E-1],"split_indices":[5,5,0,5,2,0,0,0,0],"split_type":[0,0,0,0,0,0,0,0,0],"sum_hessian":[5.8238934E2,5.8097833E2,1.410985E0,5.7227783E2,8.700549E0,5.6651215E2,5.7656775E0,2.6787784E0,6.021771E0],"tree_param":{"num_deleted":"0","num_feature":"9","num_nodes":"9","size_leaf_vector":"1"}},{"base_weights":[8.362366E-4,1.781559E-1,-9.0928245E-3,-1.9584438E-1,5.0742346E-1,1.2200477E-2,-1.633658E-1,5.434778E-2,-1.3588543E-1,2.3986892E-1,5.2996673E-2,-1.2385066E-3,9.875501E-2,-5.1950593E-2,9.056891E-2],"categories":[],"categories_nodes":[],"categories_segments":[],"categories_sizes":[],"default_left":[0,0,0,0,0,0,0,0,0,0,0,0,0,0,0],"id":41,"left_children":[1,3,5,7,9,11,13,-1,-1,-1,-1,-1,-1,-1,-1],"loss_changes":[1.028939E0,3.9155793E0,1.8202628E0,3.6284893E0,2.4934487E0,4.3194466E0,4.1090245E0,0E0,0E0,0E0,0E0,0E0,0E0,0E0,0E0],"parents":[2147483647,0,0,1,1,2,2,3,3,4,4,5,5,6,6],"right_children":[2,4,6,8,10,12,14,-1,-1,-1,-1,-1,-1,-1,-1],"split_conditions":[-1.2666667E1,-1.4038943E-1,4.9779598E-2,-1.5244353E-2,0E0,4.3321148E-2,1.4954306E-1,5.434778E-2,-1.3588543E-1,2.3986892E-1,5.2996673E-2,-1.2385066E-3,9.875501E-2,-5.1950593E-2,9.056891E-2],"split_indices":[6,4,0,1,0,0,1,0,0,0,0,0,0,0,0],"split_type":[0,0,0,0,0,0,0,0,0,0,0,0,0,0,0],"sum_hessian":[5.824992E2,2.998922E1,5.5251E2,1.4230567E1,1.5758654E1,4.8630884E2,6.620115E1,7.457689E0,6.7728777E0,3.0647933E0,1.269386E1,4.6936914E2,1.6939701E1,5.774689E1,8.45426E0],"tree_param":{"num_deleted":"0","num_feature":"9","num_nodes":"15","size_leaf_vector":"1"}},{"base_weights":[1.4814326E-3,-1.5914822E-2,1.0574431E-1,-9.602884E-3,-8.3706546E-1,-1.4680576E-1,3.1397435E-1,-3.2940288E-3,9.7736396E-2,3.7493084E-2,-2.7387878E-1,1.4598058E-1,-4.8925668E-2,-7.8082435E-2,7.9945184E-2],"categories":[],"categories_nodes":[],"categories_segments":[],"categories_sizes":[],"default_left":[0,0,0,0,0,0,0,0,0,0,0,0,0,0,0],"id":42,"left_children":[1,3,5,7,9,11,13,-1,-1,-1,-1,-1,-1,-1,-1],"loss_changes":[1.058903E0,2.5855765E0,4.436078E0,1.7107537E0,2.332185E0,3.4723046E0,2.9389272E0,0E0,0E0,0E0,0E0,0E0,0E0,0E0,0E0],"parents":[2147483647,0,0,1,1,2,2,3,3,4,4,5,5,6,6],"right_children":[2,4,6,8,10,12,14,-1,-1,-1,-1,-1,-1,-1,-1],"split_conditions":[2.3076923E-1,1.8666666E1,7E0,1.5E1,-2E0,-6E0,-4E0,-3.2940288E-3,9.7736396E-2,3.7493084E-2,-2.7387878E-1,1.4598058E-1,-4.8925668E-2,-7.8082435E-2,7.9945184E-2],"split_indices":[2,5,8,5,6,5,7,0,0,0,0,0,0,0,0],"split_type":[0,0,0,0,0,0,0,0,0,0,0,0,0,0,0],"sum_hessian":[5.818811E2,4.9940308E2,8.247801E1,4.9659756E2,2.8055017E0,3.7405746E1,4.5072266E1,4.908004E2,5.797165E0,1.1807821E0,1.6247196E0,3.1061563E0,3.429959E1,4.505994E0,4.0566273E1],"tree_param":{"num_deleted":"0","num_feature":"9","num_nodes":"15","size_leaf_vector":"1"}},{"base_weights":[1.3853721E-3,4.1832784E-3,-1.2598227E-1,-2.2703E-3,5.254809E-1,4.109084E-3,-1.7344465E-2,-1.4845629E-1,1.9636747E-1],"categories":[],"categories_nodes":[],"categories_segments":[],"categories_sizes":[],"default_left":[0,0,0,0,0,0,0,0,0],"id":43,"left_children":[1,3,-1,5,7,-1,-1,-1,-1],"loss_changes":[1.0296383E0,1.9520059E0,0E0,1.1073469E0,4.833732E0,0E0,0E0,0E0,0E0],"parents":[2147483647,0,0,1,1,3,3,4,4],"right_children":[2,4,-1,6,8,-1,-1,-1,-1],"split_conditions":[1.179412E-1,1.03157416E-1,-1.2598227E-1,2.945968E-2,-1.0666667E1,4.109084E-3,-1.7344465E-2,-1.4845629E-1,1.9636747E-1],"split_indices":[0,0,0,0,5,0,0,0,0],"split_type":[0,0,0,0,0,0,0,0,0],"sum_hessian":[5.8044037E2,5.788682E2,1.5721698E0,5.72773E2,6.09519E0,4.5154065E2,1.2123235E2,1.4474955E0,4.6476946E0],"tree_param":{"num_deleted":"0","num_feature":"9","num_nodes":"9","size_leaf_vector":"1"}},{"base_weights":[1.0419025E-3,-4.504477E-1,4.888451E-3,-1.6872393E-1,8.7634884E-2,3.2223064E-1,-1.1294448E-3,1.6317189E-1,-7.444326E-2,-5.7967033E-2,2.139653E-3],"categories":[],"categories_nodes":[],"categories_segments":[],"categories_sizes":[],"default_left":[0,0,0,0,0,0,0,0,0,0,0],"id":44,"left_children":[1,3,5,-1,-1,7,9,-1,-1,-1,-1],"loss_changes":[1.0122014E0,2.0898917E0,1.1035141E0,0E0,0E0,3.990064E0,1.9422996E0,0E0,0E0,0E0,0E0],"parents":[2147483647,0,0,1,1,2,2,5,5,6,6],"right_children":[2,4,6,-1,-1,8,10,-1,-1,-1,-1],"split_conditions":[-3.0990642E-1,-1.25E-1,-2.505816E-1,-1.6872393E-1,8.7634884E-2,-1.3E1,-2.0876865E-1,1.6317189E-1,-7.444326E-2,-5.7967033E-2,2.139653E-3],"split_indices":[1,2,1,0,0,5,1,0,0,0,0],"split_type":[0,0,0,0,0,0,0,0,0,0,0],"sum_hessian":[5.805701E2,3.923673E0,5.766465E2,2.7552516E0,1.1684214E0,9.753788E0,5.668927E2,5.5990334E0,4.1547546E0,2.1385426E1,5.4550726E2],"tree_param":{"num_deleted":"0","num_feature":"9","num_nodes":"11","size_leaf_vector":"1"}},{"base_weights":[6.164468E-4,-2.433E-3,5.4604876E-1,-1.1308803E-1,4.755976E-4,1.3722423E-1,3.3058383E-2,3.6715444E-2,-1.6971066E-3],"categories":[],"categories_nodes":[],"categories_segments":[],"categories_sizes":[],"default_left":[0,0,0,0,0,0,0,0,0],"id":45,"left_children":[1,3,5,-1,7,-1,-1,-1,-1],"loss_changes":[9.674269E-1,9.477782E-1,5.9060097E-2,0E0,9.476998E-1,0E0,0E0,0E0,0E0],"parents":[2147483647,0,0,1,1,2,2,4,4],"right_children":[2,4,6,-1,8,-1,-1,-1,-1],"split_conditions":[1.0210176E1,-2.3333334E1,3.3333333E0,-1.1308803E-1,-7.5957794E0,1.3722423E-1,3.3058383E-2,3.6715444E-2,-1.6971066E-3],"split_indices":[4,5,5,0,4,0,0,0,0],"split_type":[0,0,0,0,0,0,0,0,0],"sum_hessian":[5.7984393E2,5.776101E2,2.2338092E0,1.9746823E0,5.7563544E2,1.0467422E0,1.187067E0,2.5948435E1,5.4968695E2],"tree_param":{"num_deleted":"0","num_feature":"9","num_nodes":"9","size_leaf_vector":"1"}},{"base_weights":[6.4517796E-4,1.2979513E-1,-1.9018075E-3,-4.8510277E-1,1.6419252E-3,8.70989E-2,-1.9223373E-1,1.6336071E-1,-3.751645E-4],"categories":[],"categories_nodes":[],"categories_segments":[],"categories_sizes":[],"default_left":[0,0,0,0,0,0,0,0,0],"id":46,"left_children":[1,-1,3,5,7,-1,-1,-1,-1],"loss_changes":[9.604169E-1,0E0,9.932546E-1,2.269415E0,1.6542931E0,0E0,0E0,0E0,0E0],"parents":[2147483647,0,0,2,2,3,3,4,4],"right_children":[2,-1,4,6,8,-1,-1,-1,-1],"split_conditions":[-2.1E1,1.2979513E-1,-1.9E1,9.248891E-3,-1.7666666E1,8.70989E-2,-1.9223373E-1,1.6336071E-1,-3.751645E-4],"split_indices":[6,0,6,0,6,0,0,0,0],"split_type":[0,0,0,0,0,0,0,0,0],"sum_hessian":[5.798693E2,1.2759547E0,5.785934E2,3.2230885E0,5.753703E2,1.127669E0,2.0954196E0,1.4788716E0,5.738914E2],"tree_param":{"num_deleted":"0","num_feature":"9","num_nodes":"9","size_leaf_vector":"1"}},{"base_weights":[8.812606E-4,4.864964E-1,-2.1965634E-3,1.4986977E-1,1.6429365E-2,-1.7393303E-1,7.5373114E-3,8.605387E-2,-8.059622E-2,2.5024319E-3,-1.491585E-1],"categories":[],"categories_nodes":[],"categories_segments":[],"categories_sizes":[],"default_left":[0,0,0,0,0,0,0,0,0,0,0],"id":47,"left_children":[1,3,5,-1,-1,7,9,-1,-1,-1,-1],"loss_changes":[8.68966E-1,3.276162E-1,9.675518E-1,0E0,0E0,4.46982E0,2.0629478E0,0E0,0E0,0E0,0E0],"parents":[2147483647,0,0,1,1,2,2,5,5,6,6],"right_children":[2,4,6,-1,-1,8,10,-1,-1,-1,-1],"split_conditions":[-1.4E1,8.446602E-1,-6E0,1.4986977E-1,1.6429365E-2,-2.5882022E-2,2.1666666E1,8.605387E-2,-8.059622E-2,2.5024319E-3,-1.491585E-1],"split_indices":[7,4,7,0,0,0,6,0,0,0,0],"split_type":[0,0,0,0,0,0,0,0,0,0,0],"sum_hessian":[5.7967395E2,2.6616218E0,5.770123E2,1.0959594E0,1.5656624E0,3.0045498E1,5.4696686E2,8.017568E0,2.202793E1,5.443554E2,2.6114302E0],"tree_param":{"num_deleted":"0","num_feature":"9","num_nodes":"11","size_leaf_vector":"1"}},{"base_weights":[7.638826E-4,-2.2681602E-3,5.2709734E-1,4.8533985E-3,-4.8929465E-1,1.2604265E-1,3.528781E-2,1.6724455E-4,1.2698834E-1,3.520391E-2,-1.9516625E-1],"categories":[],"categories_nodes":[],"categories_segments":[],"categories_sizes":[],"default_left":[0,0,0,0,0,0,0,0,0,0,0],"id":48,"left_children":[1,3,5,7,9,-1,-1,-1,-1,-1,-1],"loss_changes":[9.2793417E-1,2.0084271E0,9.228766E-3,1.4448624E0,2.8731499E0,0E0,0E0,0E0,0E0,0E0,0E0],"parents":[2147483647,0,0,1,1,2,2,3,3,4,4],"right_children":[2,4,6,8,10,-1,-1,-1,-1,-1,-1],"split_conditions":[2.2E1,1.7E1,5E-1,2.9004872E-1,9E0,1.2604265E-1,3.528781E-2,1.6724455E-4,1.2698834E-1,3.520391E-2,-1.9516625E-1],"split_indices":[5,5,3,1,8,0,0,0,0,0,0],"split_type":[0,0,0,0,0,0,0,0,0,0,0],"sum_hessian":[5.797122E2,5.773818E2,2.3304257E0,5.7003644E2,7.34534E0,1.1847923E0,1.1456335E0,5.6742017E2,2.6163032E0,3.3722196E0,3.9731202E0],"tree_param":{"num_deleted":"0","num_feature":"9","num_nodes":"11","size_leaf_vector":"1"}},{"base_weights":[9.459431E-4,-2.5962204E-2,5.8570802E-2,-1.9457487E-3,-3.3952895E-1,7.335518E-2,-2.2628605E-1,-5.479678E-3,4.680654E-2,-1.6667962E-1,-3.0318499E-2,8.782004E-2,5.947763E-3],"categories":[],"categories_nodes":[],"categories_segments":[],"categories_sizes":[],"default_left":[0,0,0,0,0,0,0,0,0,0,0,0,0],"id":49,"left_children":[1,3,5,7,9,11,-1,-1,-1,-1,-1,-1,-1],"loss_changes":[9.020497E-1,2.986E0,3.3408594E0,2.2250452E0,2.4919026E0,2.9196718E0,0E0,0E0,0E0,0E0,0E0,0E0,0E0],"parents":[2147483647,0,0,1,1,2,2,3,3,4,4,5,5],"right_children":[2,4,6,8,10,12,-1,-1,-1,-1,-1,-1,-1],"split_conditions":[1.5257232E0,2.945968E-2,1.3E1,1.0758935E-2,0E0,1.8786128E0,-2.2628605E-1,-5.479678E-3,4.680654E-2,-1.6667962E-1,-3.0318499E-2,8.782004E-2,5.947763E-3],"split_indices":[4,0,7,0,7,4,0,0,0,0,0,0,0],"split_type":[0,0,0,0,0,0,0,0,0,0,0,0,0],"sum_hessian":[5.7976984E2,3.955948E2,1.8417503E2,3.683859E2,2.7208916E1,1.828418E2,1.3332392E0,3.3331808E2,3.50678E1,6.553313E0,2.0655603E1,1.8515207E1,1.6432658E2],"tree_param":{"num_deleted":"0","num_feature":"9","num_nodes":"13","size_leaf_vector":"1"}},{"base_weights":[3.1024127E-4,1.0980135E-1,-2.3750693E-3,-5.43494E-1,1.0078766E-3,1.02736175E-1,-2.4584277E-1,-1.4941873E-1,8.8078686E-4],"categories":[],"categories_nodes":[],"categories_segments":[],"categories_sizes":[],"default_left":[0,0,0,0,0,0,0,0,0],"id":50,"left_children":[1,-1,3,5,7,-1,-1,-1,-1],"loss_changes":[8.556278E-1,0E0,1.058612E0,3.236002E0,1.4651551E0,0E0,0E0,0E0,0E0],"parents":[2147483647,0,0,2,2,3,3,4,4],"right_children":[2,-1,4,6,8,-1,-1,-1,-1],"split_conditions":[-2.0333334E1,1.0980135E-1,-1.9E1,5.5211247E-3,-2.3333334E1,1.02736175E-1,-2.4584277E-1,-1.4941873E-1,8.8078686E-4],"split_indices":[6,0,6,1,5,0,0,0,0],"split_type":[0,0,0,0,0,0,0,0,0],"sum_hessian":[5.788234E2,1.8281327E0,5.769953E2,2.592889E0,5.744024E2,1.1188482E0,1.4740409E0,1.6061348E0,5.7279626E2],"tree_param":{"num_deleted":"0","num_feature":"9","num_nodes":"9","size_leaf_vector":"1"}},{"base_weights":[-6.0658964E-5,-2.890451E-3,5.1604414E-1,5.3062703E-4,-4.35435E-1,1.2818608E-1,2.9911479E-2,-9.768434E-4,1.7314957E-1,-2.028236E-1,7.7871025E-2],"categories":[],"categories_nodes":[],"categories_segments":[],"categories_sizes":[],"default_left":[0,0,0,0,0,0,0,0,0,0,0],"id":51,"left_children":[1,3,5,7,9,-1,-1,-1,-1,-1,-1],"loss_changes":[8.4791625E-1,8.5463566E-1,4.9046397E-2,2.6927648E0,2.5579748E0,0E0,0E0,0E0,0E0,0E0,0E0],"parents":[2147483647,0,0,1,1,2,2,3,3,4,4],"right_children":[2,4,6,8,10,-1,-1,-1,-1,-1,-1],"split_conditions":[1.0210176E1,1.06866844E-1,-6.6666665E0,1.03157416E-1,-1.3333334E0,1.2818608E-1,2.9911479E-2,-9.768434E-4,1.7314957E-1,-2.028236E-1,7.7871025E-2],"split_indices":[4,0,6,0,5,0,0,0,0,0,0],"split_type":[0,0,0,0,0,0,0,0,0,0,0],"sum_hessian":[5.785566E2,5.763906E2,2.1659384E0,5.728585E2,3.5320754E0,1.0569248E0,1.1090137E0,5.702839E2,2.574689E0,1.9408233E0,1.5912521E0],"tree_param":{"num_deleted":"0","num_feature":"9","num_nodes":"11","size_leaf_vector":"1"}},{"base_weights":[3.4657275E-4,8.805992E-2,-1.5453538E-2,-4.43208E-3,6.1795104E-1,-1.5322904E-1,2.4850598E-2,-1.38950795E-2,1.26561E-1,4.8532557E-2,2.0529842E-1,-2.3107387E-3,-9.3367636E-2,8.010577E-3,-7.085674E-2],"categories":[],"categories_nodes":[],"categories_segments":[],"categories_sizes":[],"default_left":[0,0,0,0,0,0,0,0,0,0,0,0,0,0,0],"id":52,"left_children":[1,3,5,7,9,11,13,-1,-1,-1,-1,-1,-1,-1,-1],"loss_changes":[8.041422E-1,4.3434234E0,2.7341306E0,3.210477E0,1.769969E0,4.9451737E0,2.211713E0,0E0,0E0,0E0,0E0,0E0,0E0,0E0,0E0],"parents":[2147483647,0,0,1,1,2,2,3,3,4,4,5,5,6,6],"right_children":[2,4,6,8,10,12,14,-1,-1,-1,-1,-1,-1,-1,-1],"split_conditions":[-7.6666665E0,8.333333E0,-2.6666667E0,1.7E1,-1.0666667E1,2.2604766E0,1.4E1,-1.38950795E-2,1.26561E-1,4.8532557E-2,2.0529842E-1,-2.3107387E-3,-9.3367636E-2,8.010577E-3,-7.085674E-2],"split_indices":[6,5,6,8,6,4,5,0,0,0,0,0,0,0,0],"split_type":[0,0,0,0,0,0,0,0,0,0,0,0,0,0,0],"sum_hessian":[5.782572E2,8.7566086E1,4.906911E2,7.539721E1,1.2168876E1,1.1042226E2,3.8026886E2,6.922258E1,6.1746316E0,7.1733594E0,4.995517E0,7.6775276E1,3.3646984E1,3.6646878E2,1.3800079E1],"tree_param":{"num_deleted":"0","num_feature":"9","num_nodes":"15","size_leaf_vector":"1"}},{"base_weights":[9.075888E-4,-1.8262004E-3,4.9646285E-1,3.9104065E-3,-3.440108E-1,1.1946144E-1,3.2071095E-2,-3.4236733E-4,1.03228524E-1,-1.1177287E-1,1.3424024E-1],"categories":[],"categories_nodes":[],"categories_segments":[],"categories_sizes":[],"default_left":[0,0,0,0,0,0,0,0,0,0,0],"id":53,"left_children":[1,3,5,7,9,-1,-1,-1,-1,-1,-1],"loss_changes":[7.865145E-1,1.1353755E0,1.2178302E-2,1.6400396E0,2.4552608E0,0E0,0E0,0E0,0E0,0E0,0E0],"parents":[2147483647,0,0,1,1,2,2,3,3,4,4],"right_children":[2,4,6,8,10,-1,-1,-1,-1,-1,-1],"split_conditions":[2.2E1,1.6666666E1,5E-1,1.5E1,2E0,1.1946144E-1,3.2071095E-2,-3.4236733E-4,1.03228524E-1,-1.1177287E-1,1.3424024E-1],"split_indices":[5,5,3,5,7,0,0,0,0,0,0],"split_type":[0,0,0,0,0,0,0,0,0,0,0],"sum_hessian":[5.7889417E2,5.76709E2,2.1851685E0,5.6817236E2,8.536641E0,1.083075E0,1.1020933E0,5.629896E2,5.1826973E0,7.4165545E0,1.1200868E0],"tree_param":{"num_deleted":"0","num_feature":"9","num_nodes":"11","size_leaf_vector":"1"}},{"base_weights":[1.2902905E-3,-6.4871954E-3,2.1322459E-1,1.3713074E-2,-8.909103E-2,8.1141907E-1,-2.7285075E-1,6.531953E-2,-2.7993263E-4,-9.6011244E-2,5.3473674E-3,1.9635151E-1,-3.7067264E-2,-9.857463E-2,1.3709916E-1],"categories":[],"categories_nodes":[],"categories_segments":[],"categories_sizes":[],"default_left":[0,0,0,0,0,0,0,0,0,0,0,0,0,0,0],"id":54,"left_children":[1,3,5,7,9,11,13,-1,-1,-1,-1,-1,-1,-1,-1],"loss_changes":[9.5715654E-1,9.361378E-1,6.1982217E0,2.1333425E0,5.004426E0,1.7892408E0,2.886876E0,0E0,0E0,0E0,0E0,0E0,0E0,0E0,0E0],"parents":[2147483647,0,0,1,1,2,2,3,3,4,4,5,5,6,6],"right_children":[2,4,6,8,10,12,14,-1,-1,-1,-1,-1,-1,-1,-1],"split_conditions":[7.039074E0,7.6666665E0,7.934775E-2,-7.5957794E0,9E0,9.943026E0,2.7272728E-1,6.531953E-2,-2.7993263E-4,-9.6011244E-2,5.3473674E-3,1.9635151E-1,-3.7067264E-2,-9.857463E-2,1.3709916E-1],"split_indices":[4,6,0,4,6,4,2,0,0,0,0,0,0,0,0],"split_type":[0,0,0,0,0,0,0,0,0,0,0,0,0,0,0],"sum_hessian":[5.788483E2,5.59293E2,1.9555336E1,4.5006607E2,1.09226944E2,8.466549E0,1.1088788E1,1.9787495E1,4.3027856E2,2.4245195E1,8.498175E1,7.2436976E0,1.2228506E0,9.41333E0,1.6754584E0],"tree_param":{"num_deleted":"0","num_feature":"9","num_nodes":"15","size_leaf_vector":"1"}},{"base_weights":[1.4769252E-3,1.0165817E-2,-1.6533224E-1,-8.8404424E-2,3.2415297E-2,6.2007796E-2,-5.540002E-1,-1.8347475E-1,-8.435705E-3,7.9279386E-2,3.5246864E-3,-6.780736E-2,8.4928535E-2,-1.9243108E-1,8.111525E-2],"categories":[],"categories_nodes":[],"categories_segments":[],"categories_sizes":[],"default_left":[0,0,0,0,0,0,0,0,0,0,0,0,0,0,0],"id":55,"left_children":[1,3,5,7,9,11,13,-1,-1,-1,-1,-1,-1,-1,-1],"loss_changes":[8.4135616E-1,1.21258E0,2.5738626E0,3.864036E0,2.4198089E0,2.912005E0,4.5838757E0,0E0,0E0,0E0,0E0,0E0,0E0,0E0,0E0],"parents":[2147483647,0,0,1,1,2,2,3,3,4,4,5,5,6,6],"right_children":[2,4,6,8,10,12,14,-1,-1,-1,-1,-1,-1,-1,-1],"split_conditions":[1.4333333E1,-4.270554E0,8.521001E-3,-1.5666667E1,-3.7716334E0,-2.3333333E0,3.921637E0,-1.8347475E-1,-8.435705E-3,7.9279386E-2,3.5246864E-3,-6.780736E-2,8.4928535E-2,-1.9243108E-1,8.111525E-2],"split_indices":[6,4,0,5,4,5,4,0,0,0,0,0,0,0,0],"split_type":[0,0,0,0,0,0,0,0,0,0,0,0,0,0,0],"sum_hessian":[5.783315E2,5.505909E2,2.774057E1,1.0084617E2,4.4974472E2,1.8033094E1,9.707476E0,4.3310995E0,9.651507E1,1.655596E1,4.3318875E2,8.593955E0,9.43914E0,6.808708E0,2.8987672E0],"tree_param":{"num_deleted":"0","num_feature":"9","num_nodes":"15","size_leaf_vector":"1"}},{"base_weights":[7.2844E-4,-3.844763E-2,3.8167525E-2,1.03719905E-1,-1.2654674E-1,-2.590565E-1,6.309563E-2,4.856249E-2,-3.790038E-2,-1.4148542E-1,-1.7302737E-2,-8.689224E-2,1.7569923E-1,7.8602176E-4,4.9094565E-2],"categories":[],"categories_nodes":[],"categories_segments":[],"categories_sizes":[],"default_left":[0,0,0,0,0,0,0,0,0,0,0,0,0,0,0],"id":56,"left_children":[1,3,5,7,9,11,13,-1,-1,-1,-1,-1,-1,-1,-1],"loss_changes":[8.4972376E-1,3.5590413E0,2.2111545E0,4.4861355E0,4.013999E0,4.9944186E0,2.9567862E0,0E0,0E0,0E0,0E0,0E0,0E0,0E0,0E0],"parents":[2147483647,0,0,1,1,2,2,3,3,4,4,5,5,6,6],"right_children":[2,4,6,8,10,12,14,-1,-1,-1,-1,-1,-1,-1,-1],"split_conditions":[-4.8785412E-4,-4E0,-4E0,1.3E1,-3.3333333E0,9E0,1.3333334E-1,4.856249E-2,-3.790038E-2,-1.4148542E-1,-1.7302737E-2,-8.689224E-2,1.7569923E-1,7.8602176E-4,4.9094565E-2],"split_indices":[0,5,7,8,5,5,2,0,0,0,0,0,0,0,0],"split_type":[0,0,0,0,0,0,0,0,0,0,0,0,0,0,0],"sum_hessian":[5.773371E2,2.8211084E2,2.952263E2,1.0786665E2,1.7424417E2,2.211782E1,2.7310846E2,7.327831E1,3.4588345E1,1.0159441E1,1.6408473E2,1.969849E1,2.4193301E0,2.0698228E2,6.612618E1],"tree_param":{"num_deleted":"0","num_feature":"9","num_nodes":"15","size_leaf_vector":"1"}},{"base_weights":[6.4401433E-4,4.6627414E-1,-2.2670126E-3,1.4004302E-1,1.9565992E-2,-1.1746061E-2,1.4160134E-1,5.0398983E-2,-4.766982E-3,-3.292683E-2,7.8358866E-2],"categories":[],"categories_nodes":[],"categories_segments":[],"categories_sizes":[],"default_left":[0,0,0,0,0,0,0,0,0,0,0],"id":57,"left_children":[1,3,5,-1,-1,7,9,-1,-1,-1,-1],"loss_changes":[7.83358E-1,2.4098945E-1,7.8520596E-1,0E0,0E0,1.7275873E0,2.7915168E0,0E0,0E0,0E0,0E0],"parents":[2147483647,0,0,1,1,2,2,5,5,6,6],"right_children":[2,4,6,-1,-1,8,10,-1,-1,-1,-1],"split_conditions":[-1.4E1,8.446602E-1,1.7225273E-1,1.4004302E-1,1.9565992E-2,-1.3333333E1,-1.4038943E-1,5.0398983E-2,-4.766982E-3,-3.292683E-2,7.8358866E-2],"split_indices":[7,4,1,0,0,6,4,0,0,0,0],"split_type":[0,0,0,0,0,0,0,0,0,0,0],"sum_hessian":[5.7614703E2,2.5906296E0,5.7355646E2,1.0337763E0,1.5568533E0,5.3896405E2,3.4592354E1,2.2751524E1,5.162125E2,1.5707899E1,1.8884453E1],"tree_param":{"num_deleted":"0","num_feature":"9","num_nodes":"11","size_leaf_vector":"1"}},{"base_weights":[1.0417784E-3,-5.766004E-3,2.0246026E-1,-4.684865E-2,3.7966598E-2,2.208695E-1,-3.710436E-2,-4.106465E-2,2.2993786E-3,5.081262E-2,-5.0048362E-3,5.1629093E-2,-7.123322E-2],"categories":[],"categories_nodes":[],"categories_segments":[],"categories_sizes":[],"default_left":[0,0,0,0,0,0,0,0,0,0,0,0,0],"id":58,"left_children":[1,3,5,7,9,-1,11,-1,-1,-1,-1,-1,-1],"loss_changes":[7.912471E-1,1.004893E0,4.117114E0,2.6683612E0,3.6951313E0,0E0,1.5872965E0,0E0,0E0,0E0,0E0,0E0,0E0],"parents":[2147483647,0,0,1,1,2,2,3,3,4,4,6,6],"right_children":[2,4,6,8,10,-1,12,-1,-1,-1,-1,-1,-1],"split_conditions":[1.9E1,1E0,-5.6666665E0,-2.4149692E0,3.3333333E0,2.208695E-1,4.901939E-2,-4.106465E-2,2.2993786E-3,5.081262E-2,-5.0048362E-3,5.1629093E-2,-7.123322E-2],"split_indices":[8,6,5,4,6,0,1,0,0,0,0,0,0],"split_type":[0,0,0,0,0,0,0,0,0,0,0,0,0],"sum_hessian":[5.751903E2,5.573246E2,1.7865747E1,2.8733203E2,2.6999255E2,2.991995E0,1.4873753E1,7.6642166E1,2.1068985E2,6.025344E1,2.097391E2,7.824306E0,7.0494466E0],"tree_param":{"num_deleted":"0","num_feature":"9","num_nodes":"13","size_leaf_vector":"1"}},{"base_weights":[1.253938E-3,1.7606783E-1,-6.4525246E-3,5.106527E-1,-1.5891102E-1,-2.8939995E-1,9.725477E-3,2.0623651E-1,-7.288303E-2,-1.5163474E-1,1.24151446E-1,-1.10774614E-1,7.120669E-2,1.1989451E-2,-6.1860546E-3],"categories":[],"categories_nodes":[],"categories_segments":[],"categories_sizes":[],"default_left":[0,0,0,0,0,0,0,0,0,0,0,0,0,0,0],"id":59,"left_children":[1,3,5,7,9,11,13,-1,-1,-1,-1,-1,-1,-1,-1],"loss_changes":[7.765746E-1,2.8089652E0,2.5307784E0,6.030195E0,6.5093937E0,5.3012743E0,1.0704423E0,0E0,0E0,0E0,0E0,0E0,0E0,0E0,0E0],"parents":[2147483647,0,0,1,1,2,2,3,3,4,4,5,5,6,6],"right_children":[2,4,6,8,10,12,14,-1,-1,-1,-1,-1,-1,-1,-1],"split_conditions":[-8.7858565E-2,-9.356725E-2,-6.646755E-2,-1.6666666E0,0E0,1.1764706E-1,-4.1160747E-1,2.0623651E-1,-7.288303E-2,-1.5163474E-1,1.24151446E-1,-1.10774614E-1,7.120669E-2,1.1989451E-2,-6.1860546E-3],"split_indices":[0,2,0,5,5,2,4,0,0,0,0,0,0,0,0],"split_type":[0,0,0,0,0,0,0,0,0,0,0,0,0,0,0],"sum_hessian":[5.745942E2,2.3338367E1,5.512558E2,1.1413679E1,1.1924689E1,2.8900904E1,5.223549E2,7.0447445E0,4.3689346E0,6.757986E0,5.166703E0,2.0601204E1,8.2997E0,2.3347289E2,2.8888202E2],"tree_param":{"num_deleted":"0","num_feature":"9","num_nodes":"15","size_leaf_vector":"1"}},{"base_weights":[9.7314426E-4,-1.2247284E-1,3.198396E-3,8.788605E-2,-1.257987E-2,5.3478427E-2,-3.2689404E-2,-4.4939686E-2,3.2054798E-3],"categories":[],"categories_nodes":[],"categories_segments":[],"categories_sizes":[],"default_left":[0,0,0,0,0,0,0,0,0],"id":60,"left_children":[1,-1,3,5,7,-1,-1,-1,-1],"loss_changes":[7.873876E-1,0E0,7.686222E-1,4.1191974E0,2.9469976E0,0E0,0E0,0E0,0E0],"parents":[2147483647,0,0,2,2,3,3,4,4],"right_children":[2,-1,4,6,8,-1,-1,-1,-1],"split_conditions":[-8E-1,-1.2247284E-1,-1.3054958E-1,1.1E1,-8.613396E-2,5.3478427E-2,-3.2689404E-2,-4.4939686E-2,3.2054798E-3],"split_indices":[3,0,1,8,1,0,0,0,0],"split_type":[0,0,0,0,0,0,0,0,0],"sum_hessian":[5.744776E2,1.0855409E0,5.73392E2,8.933402E1,4.84058E2,5.207636E1,3.7257664E1,5.6709694E1,4.2734833E2],"tree_param":{"num_deleted":"0","num_feature":"9","num_nodes":"9","size_leaf_vector":"1"}},{"base_weights":[4.6819318E-4,4.6345198E-1,-2.3610794E-3,1.7162879E-1,-3.852321E-2,-3.156424E-1,3.3254756E-3,1.5072781E-2,-1.8126713E-1,8.019267E-2,-1.1663635E-3],"categories":[],"categories_nodes":[],"categories_segments":[],"categories_sizes":[],"default_left":[0,0,0,0,0,0,0,0,0,0,0],"id":61,"left_children":[1,3,5,-1,-1,7,9,-1,-1,-1,-1],"loss_changes":[7.544924E-1,1.0711998E0,1.0212302E0,0E0,0E0,2.4286995E0,2.0539687E0,0E0,0E0,0E0,0E0],"parents":[2147483647,0,0,1,1,2,2,5,5,6,6],"right_children":[2,4,6,-1,-1,8,10,-1,-1,-1,-1],"split_conditions":[-1.2371677E-1,-9.054103E0,-1.0131127E-1,1.7162879E-1,-3.852321E-2,-5.9949765E0,-8.7858565E-2,1.5072781E-2,-1.8126713E-1,8.019267E-2,-1.1663635E-3],"split_indices":[0,4,0,0,0,4,0,0,0,0,0],"split_type":[0,0,0,0,0,0,0,0,0,0,0],"sum_hessian":[5.741538E2,2.4984589E0,5.7165533E2,1.3676608E0,1.1307981E0,9.219717E0,5.624356E2,6.072483E0,3.147234E0,1.1697734E1,5.5073785E2],"tree_param":{"num_deleted":"0","num_feature":"9","num_nodes":"11","size_leaf_vector":"1"}},{"base_weights":[4.0554907E-4,-1.06833056E-1,1.3499017E-2,2.0487842E-1,-3.8058615E-1,1.7191845E-1,-1.6335307E-2,-6.375263E-2,1.0173585E-1,-1.01886645E-1,1.2663412E-1,4.833022E-2,-9.950506E-2,-5.2760024E-2,5.171942E-4],"categories":[],"categories_nodes":[],"categories_segments":[],"categories_sizes":[],"default_left":[0,0,0,0,0,0,0,0,0,0,0,0,0,0,0],"id":62,"left_children":[1,3,5,7,9,11,13,-1,-1,-1,-1,-1,-1,-1,-1],"loss_changes":[8.0919904E-1,5.4290066E0,2.4300926E0,4.930084E0,4.729268E0,3.9237115E0,2.0285583E0,0E0,0E0,0E0,0E0,0E0,0E0,0E0,0E0],"parents":[2147483647,0,0,1,1,2,2,3,3,4,4,5,5,6,6],"right_children":[2,4,6,8,10,12,14,-1,-1,-1,-1,-1,-1,-1,-1],"split_conditions":[-4.1666666E-1,5E0,-3E-1,-5.6666665E0,2.3079603E0,4.4206005E-2,2E0,-6.375263E-2,1.0173585E-1,-1.01886645E-1,1.2663412E-1,4.833022E-2,-9.950506E-2,-5.2760024E-2,5.171942E-4],"split_indices":[2,8,3,5,4,0,8,0,0,0,0,0,0,0,0],"split_type":[0,0,0,0,0,0,0,0,0,0,0,0,0,0,0],"sum_hessian":[5.742741E2,6.1708405E1,5.1256573E2,2.8971422E1,3.273698E1,8.047631E1,4.3208942E2,1.0618963E1,1.8352459E1,2.9486738E1,3.2502427E0,7.346305E1,7.013256E0,2.9771845E1,4.0231757E2],"tree_param":{"num_deleted":"0","num_feature":"9","num_nodes":"15","size_leaf_vector":"1"}},{"base_weights":[6.7162924E-5,-2.568705E-3,9.954504E-2,9.3610995E-2,-1.7129997E-2,4.0111728E-2,-7.831419E-2,-6.937228E-3,4.5696188E-2],"categories":[],"categories_nodes":[],"categories_segments":[],"categories_sizes":[],"default_left":[0,0,0,0,0,0,0,0,0],"id":63,"left_children":[1,3,-1,5,7,-1,-1,-1,-1],"loss_changes":[7.5512934E-1,8.036048E-1,0E0,3.9937E0,2.1561565E0,0E0,0E0,0E0,0E0],"parents":[2147483647,0,0,1,1,3,3,4,4],"right_children":[2,4,-1,6,8,-1,-1,-1,-1],"split_conditions":[1.0210176E1,3E0,9.954504E-2,8.926784E-2,4E0,4.0111728E-2,-7.831419E-2,-6.937228E-3,4.5696188E-2],"split_indices":[4,8,0,1,7,0,0,0,0],"split_type":[0,0,0,0,0,0,0,0,0],"sum_hessian":[5.7368616E2,5.716532E2,2.0329483E0,7.4452644E1,4.972006E2,6.148604E1,1.2966606E1,4.648333E2,3.2367275E1],"tree_param":{"num_deleted":"0","num_feature":"9","num_nodes":"9","size_leaf_vector":"1"}},{"base_weights":[2.7904697E-4,2.6850216E-3,-1.06520414E-1,-2.5893718E-3,4.7445455E-1,1.5152655E-4,-8.184783E-2,-1.181556E-1,1.7729887E-1],"categories":[],"categories_nodes":[],"categories_segments":[],"categories_sizes":[],"default_left":[0,0,0,0,0,0,0,0,0],"id":64,"left_children":[1,3,-1,5,7,-1,-1,-1,-1],"loss_changes":[7.3815E-1,1.4271046E0,0E0,7.7297163E-1,3.306951E0,0E0,0E0,0E0,0E0],"parents":[2147483647,0,0,1,1,3,3,4,4],"right_children":[2,4,-1,6,8,-1,-1,-1,-1],"split_conditions":[1.179412E-1,1.03157416E-1,-1.06520414E-1,3.2369614E-1,-1.0666667E1,1.5152655E-4,-8.184783E-2,-1.181556E-1,1.7729887E-1],"split_indices":[0,0,0,1,5,0,0,0,0],"split_type":[0,0,0,0,0,0,0,0,0],"sum_hessian":[5.736204E2,5.7203265E2,1.5877838E0,5.666915E2,5.341112E0,5.6305536E2,3.636192E0,1.3687474E0,3.972365E0],"tree_param":{"num_deleted":"0","num_feature":"9","num_nodes":"9","size_leaf_vector":"1"}},{"base_weights":[6.7566434E-5,-3.9850873E-1,3.2117432E-3,-1.5923683E-1,8.0346495E-2,2.7804592E-1,-2.0096633E-3,-1.1959864E-1,1.1932837E-1,-1.458855E-1,1.2097781E-3],"categories":[],"categories_nodes":[],"categories_segments":[],"categories_sizes":[],"default_left":[0,0,0,0,0,0,0,0,0,0,0],"id":65,"left_children":[1,3,5,-1,-1,7,9,-1,-1,-1,-1],"loss_changes":[7.211394E-1,1.7531415E0,8.198349E-1,0E0,0E0,3.3296285E0,3.294507E0,0E0,0E0,0E0,0E0],"parents":[2147483647,0,0,1,1,2,2,5,5,6,6],"right_children":[2,4,6,-1,-1,8,10,-1,-1,-1,-1],"split_conditions":[-3.0990642E-1,-1.25E-1,-1.7E1,-1.5923683E-1,8.0346495E-2,-4.0861635E0,-1.6E1,-1.1959864E-1,1.1932837E-1,-1.458855E-1,1.2097781E-3],"split_indices":[1,2,5,0,0,4,5,0,0,0,0],"split_type":[0,0,0,0,0,0,0,0,0,0,0],"sum_hessian":[5.734196E2,3.5038495E0,5.699158E2,2.3440545E0,1.1597952E0,9.651431E0,5.6026434E2,2.3400526E0,7.3113785E0,5.1579514E0,5.551064E2],"tree_param":{"num_deleted":"0","num_feature":"9","num_nodes":"11","size_leaf_vector":"1"}},{"base_weights":[-4.626869E-4,-2.865068E-3,9.4009906E-2,4.2155308E-1,-5.5017667E-3,-4.276546E-2,1.7099641E-1,-3.956158E-2,3.063172E-4],"categories":[],"categories_nodes":[],"categories_segments":[],"categories_sizes":[],"default_left":[0,0,0,0,0,0,0,0,0],"id":66,"left_children":[1,3,-1,5,7,-1,-1,-1,-1],"loss_changes":[6.500017E-1,6.4234746E-1,0E0,1.1588295E0,7.7043283E-1,0E0,0E0,0E0,0E0],"parents":[2147483647,0,0,1,1,3,3,4,4],"right_children":[2,4,-1,6,8,-1,-1,-1,-1],"split_conditions":[1.0210176E1,-1.2371677E-1,9.4009906E-2,-2.6666667E0,-8.186411E0,-4.276546E-2,1.7099641E-1,-3.956158E-2,3.063172E-4],"split_indices":[4,0,0,6,4,0,0,0,0],"split_type":[0,0,0,0,0,0,0,0,0],"sum_hessian":[5.7285345E2,5.7093225E2,1.9212033E0,2.544076E0,5.683881E2,1.2371503E0,1.3069258E0,1.909757E1,5.492906E2],"tree_param":{"num_deleted":"0","num_feature":"9","num_nodes":"9","size_leaf_vector":"1"}},{"base_weights":[-5.632872E-5,1.1238217E-1,-2.0211893E-3,-3.9951104E-1,9.3419314E-4,8.190455E-2,-1.637287E-1,1.4919795E-1,-4.1137938E-4],"categories":[],"categories_nodes":[],"categories_segments":[],"categories_sizes":[],"default_left":[0,0,0,0,0,0,0,0,0],"id":67,"left_children":[1,-1,3,5,7,-1,-1,-1,-1],"loss_changes":[6.345378E-1,0E0,6.730666E-1,1.7691094E0,1.2704712E0,0E0,0E0,0E0,0E0],"parents":[2147483647,0,0,2,2,3,3,4,4],"right_children":[2,-1,4,6,8,-1,-1,-1,-1],"split_conditions":[-2.1E1,1.1238217E-1,-1.9E1,9.248891E-3,-1.7666666E1,8.190455E-2,-1.637287E-1,1.4919795E-1,-4.1137938E-4],"split_indices":[6,0,6,0,6,0,0,0,0],"split_type":[0,0,0,0,0,0,0,0,0],"sum_hessian":[5.726366E2,1.0022575E0,5.7163434E2,3.2285125E0,5.684058E2,1.1096088E0,2.1189036E0,1.2795384E0,5.671263E2],"tree_param":{"num_deleted":"0","num_feature":"9","num_nodes":"9","size_leaf_vector":"1"}},{"base_weights":[2.9645613E-4,9.864287E-3,-1.3620101E-1,-5.8734356E-3,8.256445E-1,-3.920096E-1,1.8355139E-1,2.6203811E-2,-4.8249336E-3,-4.16543E-2,2.1551993E-1,-2.2142457E-2,-1.8018176E-1,-2.8715601E-2,1.18245184E-1],"categories":[],"categories_nodes":[],"categories_segments":[],"categories_sizes":[],"default_left":[0,0,0,0,0,0,0,0,0,0,0,0,0,0,0],"id":68,"left_children":[1,3,5,7,9,11,13,-1,-1,-1,-1,-1,-1,-1,-1],"loss_changes":[7.502906E-1,6.8970933E0,3.150095E0,1.3215296E0,2.873094E0,2.9387226E0,2.4062922E0,0E0,0E0,0E0,0E0,0E0,0E0,0E0,0E0],"parents":[2147483647,0,0,1,1,2,2,3,3,4,4,5,5,6,6],"right_children":[2,4,6,8,10,12,14,-1,-1,-1,-1,-1,-1,-1,-1],"split_conditions":[7E0,4E0,9E0,3E0,2E0,4E0,-9.775767E-1,2.6203811E-2,-4.8249336E-3,-4.16543E-2,2.1551993E-1,-2.2142457E-2,-1.8018176E-1,-2.8715601E-2,1.18245184E-1],"split_indices":[7,7,8,8,8,6,4,0,0,0,0,0,0,0,0],"split_type":[0,0,0,0,0,0,0,0,0,0,0,0,0,0,0],"sum_hessian":[5.724731E2,5.358409E2,3.6632202E1,5.2667334E2,9.1675825E0,2.0225445E1,1.6406755E1,6.1231407E1,4.654419E2,1.8302795E0,7.337303E0,1.3809633E1,6.415811E0,9.461998E0,6.944758E0],"tree_param":{"num_deleted":"0","num_feature":"9","num_nodes":"15","size_leaf_vector":"1"}},{"base_weights":[4.958742E-4,-3.0133707E-2,3.7436508E-2,-5.566934E-1,-1.0372852E-2,4.861229E-1,6.6128164E-3,1.2451225E-1,-1.5320891E-1,-6.307268E-2,2.232026E-3,4.0261332E-2,2.3351765E-1,-1.9303774E-2,1.9660754E-2],"categories":[],"categories_nodes":[],"categories_segments":[],"categories_sizes":[],"default_left":[0,0,0,0,0,0,0,0,0,0,0,0,0,0,0],"id":69,"left_children":[1,3,5,7,9,11,13,-1,-1,-1,-1,-1,-1,-1,-1],"loss_changes":[6.4881235E-1,3.2562594E0,3.5916042E0,3.271696E0,1.9945959E0,3.0052645E0,2.3189971E0,0E0,0E0,0E0,0E0,0E0,0E0,0E0,0E0],"parents":[2147483647,0,0,1,1,2,2,3,3,4,4,5,5,6,6],"right_children":[2,4,6,8,10,12,14,-1,-1,-1,-1,-1,-1,-1,-1],"split_conditions":[1.6666666E0,-5E-1,2.3333333E0,-6.2856565E0,2E0,1.5710793E0,-5.215567E-3,1.2451225E-1,-1.5320891E-1,-6.307268E-2,2.232026E-3,4.0261332E-2,2.3351765E-1,-1.9303774E-2,1.9660754E-2],"split_indices":[6,3,6,4,8,4,1,0,0,0,0,0,0,0,0],"split_type":[0,0,0,0,0,0,0,0,0,0,0,0,0,0,0],"sum_hessian":[5.7142413E2,3.124983E2,2.5892584E2,1.03205E1,3.021778E2,1.5694667E1,2.4323117E2,1.2583841E0,9.062117E0,1.9027597E1,2.8315018E2,1.1982162E1,3.7125037E0,1.14449066E2,1.287821E2],"tree_param":{"num_deleted":"0","num_feature":"9","num_nodes":"15","size_leaf_vector":"1"}},{"base_weights":[7.128954E-4,3.8105202E-1,-2.7442395E-3,-3.9658155E-2,6.5388E-1,8.1353046E-2,-2.061783E-2,1.5672065E-1,4.4766266E-2,8.929066E-2,-7.27631E-3,-4.409876E-2,2.8649814E-4],"categories":[],"categories_nodes":[],"categories_segments":[],"categories_sizes":[],"default_left":[0,0,0,0,0,0,0,0,0,0,0,0,0],"id":70,"left_children":[1,3,5,-1,7,9,11,-1,-1,-1,-1,-1,-1],"loss_changes":[7.5147253E-1,9.433592E-1,8.5329914E-1,0E0,3.283322E-2,4.293724E0,2.063202E0,0E0,0E0,0E0,0E0,0E0,0E0],"parents":[2147483647,0,0,1,1,2,2,4,4,5,5,6,6],"right_children":[2,4,6,-1,8,10,12,-1,-1,-1,-1,-1,-1],"split_conditions":[-8E0,-5.6666665E0,-1.1923204E-1,-3.9658155E-2,8.446602E-1,0E0,-8.613396E-2,1.5672065E-1,4.4766266E-2,8.929066E-2,-7.27631E-3,-4.409876E-2,2.8649814E-4],"split_indices":[7,5,1,0,4,7,1,0,0,0,0,0,0],"split_type":[0,0,0,0,0,0,0,0,0,0,0,0,0],"sum_hessian":[5.697172E2,4.14802E0,5.655692E2,1.4154829E0,2.732537E0,9.851119E1,4.6705804E2,1.4676859E0,1.2648511E0,2.334019E1,7.5171005E1,4.5512115E1,4.2154593E2],"tree_param":{"num_deleted":"0","num_feature":"9","num_nodes":"13","size_leaf_vector":"1"}},{"base_weights":[8.995581E-4,2.0580114E-1,-4.5919456E-3,4.4808984E-1,-1.6016607E-1,-5.871677E-1,3.7978112E-3,-3.593637E-2,1.262637E-1,-1.6376339E-1,4.047242E-2,1.835334E-1,-1.237633E-3],"categories":[],"categories_nodes":[],"categories_segments":[],"categories_sizes":[],"default_left":[0,0,0,0,0,0,0,0,0,0,0,0,0],"id":71,"left_children":[1,3,5,7,-1,9,11,-1,-1,-1,-1,-1,-1],"loss_changes":[6.4282966E-1,3.9956489E0,2.722425E0,1.5696359E0,0E0,1.6119297E0,5.0215783E0,0E0,0E0,0E0,0E0,0E0,0E0],"parents":[2147483647,0,0,1,1,2,2,3,3,5,5,6,6],"right_children":[2,4,6,8,-1,10,12,-1,-1,-1,-1,-1,-1],"split_conditions":[-9.054103E0,-4.6508323E-2,-8.186411E0,-8E0,-1.6016607E-1,5E0,-7.5957794E0,-3.593637E-2,1.262637E-1,-1.6376339E-1,4.047242E-2,1.835334E-1,-1.237633E-3],"split_indices":[4,0,4,5,0,5,4,0,0,0,0,0,0],"split_type":[0,0,0,0,0,0,0,0,0,0,0,0,0],"sum_hessian":[5.694537E2,1.3911328E1,5.5554236E2,1.1659771E1,2.251558E0,6.9074883E0,5.486348E2,2.6386552E0,9.021115E0,5.31188E0,1.595608E0,4.947717E0,5.4368713E2],"tree_param":{"num_deleted":"0","num_feature":"9","num_nodes":"13","size_leaf_vector":"1"}},{"base_weights":[6.502006E-4,-3.742443E-1,3.4324455E-3,-1.5867482E-1,6.7001E-2,2.7285752E-1,-1.6786074E-3,2.2208881E-1,-9.72125E-3,-4.913543E-2,1.6217448E-3],"categories":[],"categories_nodes":[],"categories_segments":[],"categories_sizes":[],"default_left":[0,0,0,0,0,0,0,0,0,0,0],"id":72,"left_children":[1,3,5,-1,-1,7,9,-1,-1,-1,-1],"loss_changes":[5.959608E-1,1.5170155E0,7.811382E-1,0E0,0E0,2.8974466E0,1.3330287E0,0E0,0E0,0E0,0E0],"parents":[2147483647,0,0,1,1,2,2,5,5,6,6],"right_children":[2,4,6,-1,-1,8,10,-1,-1,-1,-1],"split_conditions":[-3.0990642E-1,1.5E1,-2.505816E-1,-1.5867482E-1,6.7001E-2,-5.143592E0,-2.0876865E-1,2.2208881E-1,-9.72125E-3,-4.913543E-2,1.6217448E-3],"split_indices":[1,8,1,0,0,4,1,0,0,0,0],"split_type":[0,0,0,0,0,0,0,0,0,0,0],"sum_hessian":[5.69133E2,3.2091079E0,5.659239E2,1.9425497E0,1.266558E0,9.560566E0,5.5636334E2,1.9709196E0,7.5896463E0,2.052684E1,5.358365E2],"tree_param":{"num_deleted":"0","num_feature":"9","num_nodes":"11","size_leaf_vector":"1"}},{"base_weights":[5.58747E-4,2.6066415E-2,-4.4600442E-2,-4.9853716E-3,4.1723028E-1,5.424255E-2,-2.583788E-1,3.455481E-3,-5.2831214E-2,-4.4342175E-2,1.3755809E-1,-7.024893E-3,6.594778E-2,-7.634073E-2,1.493128E-1],"categories":[],"categories_nodes":[],"categories_segments":[],"categories_sizes":[],"default_left":[0,0,0,0,0,0,0,0,0,0,0,0,0,0,0],"id":73,"left_children":[1,3,5,7,9,11,13,-1,-1,-1,-1,-1,-1,-1,-1],"loss_changes":[6.573235E-1,4.431241E0,4.3664923E0,1.9595076E0,4.7906356E0,3.4998186E0,8.377817E0,0E0,0E0,0E0,0E0,0E0,0E0,0E0,0E0],"parents":[2147483647,0,0,1,1,2,2,3,3,4,4,5,5,6,6],"right_children":[2,4,6,8,10,12,14,-1,-1,-1,-1,-1,-1,-1,-1],"split_conditions":[1.6666666E0,6.666667E-1,5.3333335E0,4E-1,-2.6666667E0,2E0,4E-1,3.455481E-3,-5.2831214E-2,-4.4342175E-2,1.3755809E-1,-7.024893E-3,6.594778E-2,-7.634073E-2,1.493128E-1],"split_indices":[5,5,6,3,6,6,3,0,0,0,0,0,0,0,0],"split_type":[0,0,0,0,0,0,0,0,0,0,0,0,0,0,0],"sum_hessian":[5.686308E2,3.6364993E2,2.0498085E2,3.3782E2,2.5829931E1,1.406814E2,6.429946E1,3.1195627E2,2.5863724E1,7.737647E0,1.8092285E1,1.068827E2,3.3798695E1,5.782362E1,6.4758415E0],"tree_param":{"num_deleted":"0","num_feature":"9","num_nodes":"15","size_leaf_vector":"1"}},{"base_weights":[9.630964E-4,8.602869E-2,-1.6773033E-3,-9.283361E-3,1.6399367E-1,-2.3727908E-3,1.3195972E-1,-6.7419517E-3,1.4060353E-1],"categories":[],"categories_nodes":[],"categories_segments":[],"categories_sizes":[],"default_left":[0,0,0,0,0,0,0,0,0],"id":74,"left_children":[1,-1,3,5,7,-1,-1,-1,-1],"loss_changes":[6.458947E-1,0E0,7.1581006E-1,9.45237E-1,2.6810079E0,0E0,0E0,0E0,0E0],"parents":[2147483647,0,0,2,2,3,3,4,4],"right_children":[2,-1,4,6,8,-1,-1,-1,-1],"split_conditions":[-1.4E1,8.602869E-2,6E-1,1.0210176E1,3.446682E0,-2.3727908E-3,1.3195972E-1,-6.7419517E-3,1.4060353E-1],"split_indices":[7,0,3,4,4,0,0,0,0],"split_type":[0,0,0,0,0,0,0,0,0],"sum_hessian":[5.6833374E2,2.4851177E0,5.6584863E2,5.41913E2,2.3935598E1,5.4080945E2,1.1035893E0,1.8198286E1,5.7373133E0],"tree_param":{"num_deleted":"0","num_feature":"9","num_nodes":"9","size_leaf_vector":"1"}},{"base_weights":[1.4753568E-3,3.7394122E-3,-1.0002696E-1,-3.554954E-4,3.976937E-1,-4.0885936E-2,1.3193649E-3,-1.1217155E-1,1.6057214E-1],"categories":[],"categories_nodes":[],"categories_segments":[],"categories_sizes":[],"default_left":[0,0,0,0,0,0,0,0,0],"id":75,"left_children":[1,3,-1,5,7,-1,-1,-1,-1],"loss_changes":[6.477659E-1,9.15105E-1,0E0,7.9918355E-1,2.716694E0,0E0,0E0,0E0,0E0],"parents":[2147483647,0,0,1,1,3,3,4,4],"right_children":[2,4,-1,6,8,-1,-1,-1,-1],"split_conditions":[1.179412E-1,1.03157416E-1,-1.0002696E-1,-6.666667E-1,-1.0666667E1,-4.0885936E-2,1.3193649E-3,-1.1217155E-1,1.6057214E-1],"split_indices":[0,0,0,2,5,0,0,0,0],"split_type":[0,0,0,0,0,0,0,0,0],"sum_hessian":[5.6773376E2,5.6617084E2,1.56291E0,5.613352E2,4.8356295E0,1.7557531E1,5.437777E2,1.3225212E0,3.5131083E0],"tree_param":{"num_deleted":"0","num_feature":"9","num_nodes":"9","size_leaf_vector":"1"}},{"base_weights":[1.0618905E-3,9.699721E-2,-1.1303383E-3,-4.5653486E-1,1.7532653E-3,9.149491E-2,-2.0897499E-1,-1.4095616E-1,9.592591E-4],"categories":[],"categories_nodes":[],"categories_segments":[],"categories_sizes":[],"default_left":[0,0,0,0,0,0,0,0,0],"id":76,"left_children":[1,-1,3,5,7,-1,-1,-1,-1],"loss_changes":[6.0338587E-1,0E0,7.449709E-1,2.3974736E0,1.2162251E0,0E0,0E0,0E0,0E0],"parents":[2147483647,0,0,2,2,3,3,4,4],"right_children":[2,-1,4,6,8,-1,-1,-1,-1],"split_conditions":[-2.0333334E1,9.699721E-2,-1.9E1,5.5211247E-3,-2.3333334E1,9.149491E-2,-2.0897499E-1,-1.4095616E-1,9.592591E-4],"split_indices":[6,0,6,1,5,0,0,0,0],"split_type":[0,0,0,0,0,0,0,0,0],"sum_hessian":[5.672471E2,1.5649371E0,5.656821E2,2.5694573E0,5.631127E2,1.093341E0,1.4761164E0,1.4259634E0,5.616867E2],"tree_param":{"num_deleted":"0","num_feature":"9","num_nodes":"9","size_leaf_vector":"1"}},{"base_weights":[5.651342E-4,5.41205E-2,-1.8743385E-2,-2.1351352E-1,1.4253299E-1,-3.347823E-1,2.0423854E-2,-7.289336E-2,5.8053758E-2,-5.896355E-2,4.148106E-2,-2.758517E-2,-1.5574619E-1,2.401747E-3,1.1763423E-1],"categories":[],"categories_nodes":[],"categories_segments":[],"categories_sizes":[],"default_left":[0,0,0,0,0,0,0,0,0,0,0,0,0,0,0],"id":77,"left_children":[1,3,5,7,9,11,13,-1,-1,-1,-1,-1,-1,-1,-1],"loss_changes":[5.8836466E-1,3.5980513E0,5.1837573E0,2.9834223E0,3.2936525E0,3.927874E0,1.7752413E0,0E0,0E0,0E0,0E0,0E0,0E0,0E0,0E0],"parents":[2147483647,0,0,1,1,2,2,3,3,4,4,5,5,6,6],"right_children":[2,4,6,8,10,12,14,-1,-1,-1,-1,-1,-1,-1,-1],"split_conditions":[-4.6666665E0,-2.6683505E0,-2.6666667E0,-2.2017207E-2,-1.923077E-1,2.1789138E0,9.814019E-2,-7.289336E-2,5.8053758E-2,-5.896355E-2,4.148106E-2,-2.758517E-2,-1.5574619E-1,2.401747E-3,1.1763423E-1],"split_indices":[6,4,6,0,2,4,0,0,0,0,0,0,0,0,0],"split_type":[0,0,0,0,0,0,0,0,0,0,0,0,0,0,0],"sum_hessian":[5.66996E2,1.4977296E2,4.17223E2,3.6839844E1,1.1293311E2,4.5173363E1,3.7204962E2,2.8558975E1,8.2808695E0,1.4129753E1,9.880336E1,3.2204063E1,1.29693E1,3.676219E2,4.4277196E0],"tree_param":{"num_deleted":"0","num_feature":"9","num_nodes":"15","size_leaf_vector":"1"}},{"base_weights":[4.346785E-4,7.587693E-2,-1.5619126E-2,2.3516728E-1,-1.3674812E-1,-1.770262E-1,1.9656578E-3,8.640405E-2,-1.9098891E-2,7.464131E-2,-5.253128E-2,7.1390434E-3,-1.2853472E-1,5.1950584E-3,-3.584468E-2],"categories":[],"categories_nodes":[],"categories_segments":[],"categories_sizes":[],"default_left":[0,0,0,0,0,0,0,0,0,0,0,0,0,0,0],"id":78,"left_children":[1,3,5,7,9,11,13,-1,-1,-1,-1,-1,-1,-1,-1],"loss_changes":[6.875089E-1,3.405505E0,1.3288995E0,3.7715962E0,2.8776E0,4.579054E0,1.8451813E0,0E0,0E0,0E0,0E0,0E0,0E0,0E0,0E0],"parents":[2147483647,0,0,1,1,2,2,3,3,4,4,5,5,6,6],"right_children":[2,4,6,8,10,12,14,-1,-1,-1,-1,-1,-1,-1,-1],"split_conditions":[-1.1923204E-1,1.1E1,-8.613396E-2,-1E-1,0E0,-2.3333333E0,5.3147312E-2,8.640405E-2,-1.9098891E-2,7.464131E-2,-5.253128E-2,7.1390434E-3,-1.2853472E-1,5.1950584E-3,-3.584468E-2],"split_indices":[1,8,1,3,7,5,0,0,0,0,0,0,0,0,0],"split_type":[0,0,0,0,0,0,0,0,0,0,0,0,0,0,0],"sum_hessian":[5.6567804E2,9.8599464E1,4.6707858E2,5.6308968E1,4.2290493E1,4.499665E1,4.2208194E2,3.5103977E1,2.1204992E1,7.9850926E0,3.43054E1,3.1520502E1,1.34761505E1,3.734519E2,4.863004E1],"tree_param":{"num_deleted":"0","num_feature":"9","num_nodes":"15","size_leaf_vector":"1"}},{"base_weights":[1.3367458E-4,3.158057E-2,-3.0465687E-2,-9.587098E-3,3.6649215E-1,-6.0712254E-1,-8.696124E-3,-7.472319E-3,5.3474315E-2,1.1587087E-1,-4.084316E-2,3.5392027E-2,-2.0504008E-1,1.19337335E-1,-4.3245237E-3],"categories":[],"categories_nodes":[],"categories_segments":[],"categories_sizes":[],"default_left":[0,0,0,0,0,0,0,0,0,0,0,0,0,0,0],"id":79,"left_children":[1,3,5,7,9,11,13,-1,-1,-1,-1,-1,-1,-1,-1],"loss_changes":[5.4699564E-1,3.868729E0,3.6115365E0,1.9379187E0,3.8494167E0,3.6123714E0,2.1934261E0,0E0,0E0,0E0,0E0,0E0,0E0,0E0,0E0],"parents":[2147483647,0,0,1,1,2,2,3,3,4,4,5,5,6,6],"right_children":[2,4,6,8,10,12,14,-1,-1,-1,-1,-1,-1,-1,-1],"split_conditions":[-4.1160747E-1,2.8895568E-3,-2.4741772E-1,8.666667E0,2.5956823E-2,-6.7971176E-3,-4.771549E-2,-7.472319E-3,5.3474315E-2,1.1587087E-1,-4.084316E-2,3.5392027E-2,-2.0504008E-1,1.19337335E-1,-4.3245237E-3],"split_indices":[4,0,4,5,0,0,0,0,0,0,0,0,0,0,0],"split_type":[0,0,0,0,0,0,0,0,0,0,0,0,0,0,0],"sum_hessian":[5.66452E2,2.793414E2,2.8711063E2,2.4962822E2,2.9713179E1,9.466359E0,2.7764426E2,2.2766243E2,2.1965776E1,2.1630354E1,8.082824E0,3.4927053E0,5.9736533E0,4.8603616E0,2.727839E2],"tree_param":{"num_deleted":"0","num_feature":"9","num_nodes":"15","size_leaf_vector":"1"}},{"base_weights":[2.4991474E-4,6.2334645E-3,-1.6380121E-1,-3.8744216E-3,4.5493123E-1,-8.288568E-1,4.8517175E-2,1.981927E-3,-6.811221E-2,1.7933825E-1,2.1765469E-2,-6.2232353E-3,-2.3964813E-1,1.3440962E-1,-2.1900242E-2],"categories":[],"categories_nodes":[],"categories_segments":[],"categories_sizes":[],"default_left":[0,0,0,0,0,0,0,0,0,0,0,0,0,0,0],"id":80,"left_children":[1,3,5,7,9,11,13,-1,-1,-1,-1,-1,-1,-1,-1],"loss_changes":[5.573815E-1,2.4862592E0,2.8617299E0,2.4942691E0,1.7489283E0,1.4038944E0,1.6590385E0,0E0,0E0,0E0,0E0,0E0,0E0,0E0,0E0],"parents":[2147483647,0,0,1,1,2,2,3,3,4,4,5,5,6,6],"right_children":[2,4,6,8,10,12,14,-1,-1,-1,-1,-1,-1,-1,-1],"split_conditions":[1.4333333E1,1.2E1,1.5E1,9.666667E0,9E0,1.5E-1,1.5666667E1,1.981927E-3,-6.811221E-2,1.7933825E-1,2.1765469E-2,-6.2232353E-3,-2.3964813E-1,1.3440962E-1,-2.1900242E-2],"split_indices":[5,5,5,5,8,3,5,0,0,0,0,0,0,0,0],"split_type":[0,0,0,0,0,0,0,0,0,0,0,0,0,0,0],"sum_hessian":[5.6578467E2,5.4680273E2,1.898191E1,5.357257E2,1.1077014E1,3.8907812E0,1.509113E1,5.1558795E2,2.0137768E1,4.1672306E0,6.9097834E0,1.5745465E0,2.3162348E0,2.3935103E0,1.2697619E1],"tree_param":{"num_deleted":"0","num_feature":"9","num_nodes":"15","size_leaf_vector":"1"}},{"base_weights":[3.8863166E-4,1.4717612E-1,-6.019097E-3,4.949056E-3,6.7187774E-1,-2.1878053E-1,5.8492604E-3,-2.5691703E-2,1.6102873E-1,3.2973703E-2,2.0798849E-1,-8.827179E-2,6.200679E-2,1.9294033E-2,-2.4059422E-3],"categories":[],"categories_nodes":[],"categories_segments":[],"categories_sizes":[],"default_left":[0,0,0,0,0,0,0,0,0,0,0,0,0,0,0],"id":81,"left_children":[1,3,5,7,9,11,13,-1,-1,-1,-1,-1,-1,-1,-1],"loss_changes":[5.34298E-1,1.7698109E0,1.3758415E0,2.2064936E0,7.7272415E-1,3.525149E0,8.381053E-1,0E0,0E0,0E0,0E0,0E0,0E0,0E0,0E0],"parents":[2147483647,0,0,1,1,2,2,3,3,4,4,5,5,6,6],"right_children":[2,4,6,8,10,12,14,-1,-1,-1,-1,-1,-1,-1,-1],"split_conditions":[-8.7858565E-2,1E0,-6.646755E-2,1.03754595E-1,-4.9012225E-2,1.1764706E-1,-1.1923204E-1,-2.5691703E-2,1.6102873E-1,3.2973703E-2,2.0798849E-1,-8.827179E-2,6.200679E-2,1.9294033E-2,-2.4059422E-3],"split_indices":[0,7,0,1,1,2,1,0,0,0,0,0,0,0,0],"split_type":[0,0,0,0,0,0,0,0,0,0,0,0,0,0,0],"sum_hessian":[5.661132E2,2.2760054E1,5.4335315E2,1.8700481E1,4.0595717E0,2.7787043E1,5.155661E2,1.6747776E1,1.9527054E0,2.3165104E0,1.7430613E0,1.9672325E1,8.114717E0,8.423236E1,4.3133374E2],"tree_param":{"num_deleted":"0","num_feature":"9","num_nodes":"15","size_leaf_vector":"1"}},{"base_weights":[9.5114193E-4,1.4755423E-1,-6.0601216E-3,3.325629E-1,-4.993959E-1,-2.1230818E-1,1.0403691E-2,-6.560997E-2,1.1629695E-1,-2.1700704E-1,5.9538234E-2,-1.1806109E-1,-7.7468106E-3,9.4650656E-2,1.0188705E-3],"categories":[],"categories_nodes":[],"categories_segments":[],"categories_sizes":[],"default_left":[0,0,0,0,0,0,0,0,0,0,0,0,0,0,0],"id":82,"left_children":[1,3,5,7,9,11,13,-1,-1,-1,-1,-1,-1,-1,-1],"loss_changes":[5.8342606E-1,3.26685E0,1.8420591E0,3.6021903E0,3.1988635E0,2.6081848E0,1.2330053E0,0E0,0E0,0E0,0E0,0E0,0E0,0E0,0E0],"parents":[2147483647,0,0,1,1,2,2,3,3,4,4,5,5,6,6],"right_children":[2,4,6,8,10,12,14,-1,-1,-1,-1,-1,-1,-1,-1],"split_conditions":[-7.5957794E0,-4.6508323E-2,-6.1581723E-2,-8E0,-9.356725E-2,6E0,-5.8413476E-2,-6.560997E-2,1.1629695E-1,-2.1700704E-1,5.9538234E-2,-1.1806109E-1,-7.7468106E-3,9.4650656E-2,1.0188705E-3],"split_indices":[4,0,0,5,2,8,0,0,0,0,0,0,0,0,0],"split_type":[0,0,0,0,0,0,0,0,0,0,0,0,0,0,0],"sum_hessian":[5.657353E2,2.4906372E1,5.408289E2,1.9745651E1,5.1607203E0,3.910102E1,5.017279E2,5.317001E0,1.4428651E1,2.7667048E0,2.3940158E0,1.1549174E1,2.7551847E1,4.6904993E0,4.970374E2],"tree_param":{"num_deleted":"0","num_feature":"9","num_nodes":"15","size_leaf_vector":"1"}},{"base_weights":[4.3176807E-4,3.2178706E-1,-2.328639E-3,-3.265368E-2,5.7029337E-1,-1.067321E-2,1.2628333E-1,1.4214517E-1,3.0443935E-2,3.8808418E-4,-5.8859345E-2,-1.0487714E-1,4.8223622E-2],"categories":[],"categories_nodes":[],"categories_segments":[],"categories_sizes":[],"default_left":[0,0,0,0,0,0,0,0,0,0,0,0,0],"id":83,"left_children":[1,3,5,-1,7,9,11,-1,-1,-1,-1,-1,-1],"loss_changes":[5.028613E-1,6.750674E-1,6.0471326E-1,0E0,9.230983E-2,1.8926259E0,2.69173E0,0E0,0E0,0E0,0E0,0E0,0E0],"parents":[2147483647,0,0,1,1,2,2,4,4,5,5,6,6],"right_children":[2,4,6,-1,8,10,12,-1,-1,-1,-1,-1,-1],"split_conditions":[-8E0,-5.6666665E0,1.7225273E-1,-3.265368E-2,8.446602E-1,1.4201339E-1,-1.1333333E1,1.4214517E-1,3.0443935E-2,3.8808418E-4,-5.8859345E-2,-1.0487714E-1,4.8223622E-2],"split_indices":[7,5,1,0,4,1,6,0,0,0,0,0,0],"split_type":[0,0,0,0,0,0,0,0,0,0,0,0,0],"sum_hessian":[5.6503326E2,3.827939E0,5.612053E2,1.4129757E0,2.4149635E0,5.2787305E2,3.333232E1,1.283747E0,1.1312165E0,5.0634732E2,2.1525703E1,4.4652405E0,2.886708E1],"tree_param":{"num_deleted":"0","num_feature":"9","num_nodes":"13","size_leaf_vector":"1"}},{"base_weights":[4.7867265E-4,3.320747E-3,-3.3100027E-1,5.0877785E-5,1.18952684E-1,-1.6816899E-1,1.2965697E-1,8.528169E-4,-7.312737E-2,1.3352552E-1,-7.648349E-2],"categories":[],"categories_nodes":[],"categories_segments":[],"categories_sizes":[],"default_left":[0,0,0,0,0,0,0,0,0,0,0],"id":84,"left_children":[1,3,5,7,-1,-1,9,-1,-1,-1,-1],"loss_changes":[5.342038E-1,1.086951E0,1.2411726E0,8.643072E-1,0E0,0E0,1.1916143E0,0E0,0E0,0E0,0E0],"parents":[2147483647,0,0,1,1,2,2,3,3,6,6],"right_children":[2,4,6,8,-1,-1,10,-1,-1,-1,-1],"split_conditions":[3.2369614E-1,2.9004872E-1,3.5078943E-1,2.4997635E-1,1.18952684E-1,-1.6816899E-1,-4.6666665E0,8.528169E-4,-7.312737E-2,1.3352552E-1,-7.648349E-2],"split_indices":[1,1,1,1,0,0,6,0,0,0,0],"split_type":[0,0,0,0,0,0,0,0,0,0,0],"sum_hessian":[5.6487573E2,5.610553E2,3.820462E0,5.58965E2,2.0902264E0,1.4216725E0,2.3987896E0,5.535755E2,5.389583E0,1.0216758E0,1.3771137E0],"tree_param":{"num_deleted":"0","num_feature":"9","num_nodes":"11","size_leaf_vector":"1"}},{"base_weights":[3.268178E-4,-1.9815383E-3,8.836851E-2,5.5010067E-3,-2.2723424E-1,-6.681692E-4,8.2332306E-2,-7.0580915E-2,1.5105583E-1],"categories":[],"categories_nodes":[],"categories_segments":[],"categories_sizes":[],"default_left":[0,0,0,0,0,0,0,0,0],"id":85,"left_children":[1,3,-1,5,7,-1,-1,-1,-1],"loss_changes":[5.777068E-1,9.5190233E-1,0E0,1.9653108E0,2.5084937E0,0E0,0E0,0E0,0E0],"parents":[2147483647,0,0,1,1,3,3,4,4],"right_children":[2,4,-1,6,8,-1,-1,-1,-1],"split_conditions":[2.2E1,1.4333333E1,8.836851E-2,1.2E1,6.666667E-1,-6.681692E-4,8.2332306E-2,-7.0580915E-2,1.5105583E-1],"split_indices":[5,5,0,5,2,0,0,0,0],"split_type":[0,0,0,0,0,0,0,0,0],"sum_hessian":[5.6497833E2,5.6303015E2,1.9481523E0,5.458727E2,1.7157465E1,5.352132E2,1.0659472E1,1.5779918E1,1.3775469E0],"tree_param":{"num_deleted":"0","num_feature":"9","num_nodes":"9","size_leaf_vector":"1"}},{"base_weights":[7.992132E-4,-4.7499696E-3,1.6176899E-1,3.787619E-3,-1.384333E-1,6.402531E-1,-2.5540617E-1,-1.4406483E-3,9.905542E-2,-4.561527E-2,8.352673E-2,4.4557992E-2,1.9179724E-1,1.1932836E-1,-1.1812847E-1],"categories":[],"categories_nodes":[],"categories_segments":[],"categories_sizes":[],"default_left":[0,0,0,0,0,0,0,0,0,0,0,0,0,0,0],"id":86,"left_children":[1,3,5,7,9,11,13,-1,-1,-1,-1,-1,-1,-1,-1],"loss_changes":[5.0614154E-1,6.258449E-1,3.9327033E0,2.790779E0,1.736058E0,9.945488E-1,3.4379656E0,0E0,0E0,0E0,0E0,0E0,0E0,0E0,0E0],"parents":[2147483647,0,0,1,1,2,2,3,3,4,4,5,5,6,6],"right_children":[2,4,6,8,10,12,14,-1,-1,-1,-1,-1,-1,-1,-1],"split_conditions":[7.039074E0,4.6153846E-1,2.9658596E-3,3.6363637E-1,1E0,-1E-1,-6.3333335E0,-1.4406483E-3,9.905542E-2,-4.561527E-2,8.352673E-2,4.4557992E-2,1.9179724E-1,1.1932836E-1,-1.1812847E-1],"split_indices":[4,2,1,2,7,3,6,0,0,0,0,0,0,0,0],"split_type":[0,0,0,0,0,0,0,0,0,0,0,0,0,0,0],"sum_hessian":[5.6476855E2,5.46886E2,1.7882553E1,5.149695E2,3.1916483E1,8.080169E0,9.802383E0,5.0466925E2,1.0300247E1,2.7993513E1,3.9229684E0,4.2338443E0,3.846325E0,2.5475857E0,7.254798E0],"tree_param":{"num_deleted":"0","num_feature":"9","num_nodes":"15","size_leaf_vector":"1"}},{"base_weights":[1.5232089E-3,-7.6380605E-3,9.633986E-2,4.8253043E-3,-8.4135723E-1,-1.2484896E-2,6.7277837E-1,-1.7167578E-3,1.11108236E-1,-4.002737E-2,-2.4899574E-1,-2.5237614E-2,1.138806E-1,1.7333382E-1,7.632514E-2],"categories":[],"categories_nodes":[],"categories_segments":[],"categories_sizes":[],"default_left":[0,0,0,0,0,0,0,0,0,0,0,0,0,0,0],"id":87,"left_children":[1,3,5,7,9,11,13,-1,-1,-1,-1,-1,-1,-1,-1],"loss_changes":[4.9185994E-1,5.3710318E0,3.13798E0,3.770113E0,1.7212248E0,2.9134061E0,1.1753845E-1,0E0,0E0,0E0,0E0,0E0,0E0,0E0,0E0],"parents":[2147483647,0,0,1,1,2,2,3,3,4,4,5,5,6,6],"right_children":[2,4,6,8,10,12,14,-1,-1,-1,-1,-1,-1,-1,-1],"split_conditions":[1.4954306E-1,1.4201339E-1,5.3898253E-2,1.2638085E-1,1.8136153E-2,2E0,7.178341E-2,-1.7167578E-3,1.11108236E-1,-4.002737E-2,-2.4899574E-1,-2.5237614E-2,1.138806E-1,1.7333382E-1,7.632514E-2],"split_indices":[1,1,0,1,0,7,0,0,0,0,0,0,0,0,0],"split_type":[0,0,0,0,0,0,0,0,0,0,0,0,0,0,0],"sum_hessian":[5.6439374E2,5.1550464E2,4.8889076E1,5.088914E2,6.6132646E0,4.194811E1,6.9409647E0,4.977562E2,1.1135192E1,3.1325445E0,3.4807198E0,3.5746284E1,6.201824E0,2.9798648E0,3.9611E0],"tree_param":{"num_deleted":"0","num_feature":"9","num_nodes":"15","size_leaf_vector":"1"}}]},"name":"gbtree"},"learner_model_param":{"base_score":"5.823995E-1","boost_from_average":"1","num_class":"0","num_feature":"9","num_target":"1"},"objective":{"name":"binary:logistic","reg_loss_param":{"scale_pos_weight":"1"}}},"version":[3,0,5]}