{"learner":{"attributes":{"best_iteration":"12","best_score":"0.5822666292198193"},"feature_names":[],"feature_types":[],"gradient_booster":{"model":{"gbtree_model_param":{"num_parallel_tree":"1","num_trees":"63"},"iteration_indptr":[0,1,2,3,4,5,6,7,8,9,10,11,12,13,14,15,16,17,18,19,20,21,22,23,24,25,26,27,28,29,30,31,32,33,34,35,36,37,38,39,40,41,42,43,44,45,46,47,48,49,50,51,52,53,54,55,56,57,58,59,60,61,62,63],"tree_info":[0,0,0,0,0,0,0,0,0,0,0,0,0,0,0,0,0,0,0,0,0,0,0,0,0,0,0,0,0,0,0,0,0,0,0,0,0,0,0,0,0,0,0,0,0,0,0,0,0,0,0,0,0,0,0,0,0,0,0,0,0,0,0],"trees":[{"base_weights":[9.239401E-3,-5.1480407E-1,8.2375896E-1,-1.0027053E0,-5.1676583E-2,4.0076736E-1,1.1870894E0,-2.5468075E-1,-5.4154374E-2,-1.2855813E-1,4.354434E-2,-1.4118671E-2,1.764578E-1,2.4764161E-1,-3.4065403E-2],"categories":[],"categories_nodes":[],"categories_segments":[],"categories_sizes":[],"default_left":[0,0,0,0,0,0,0,0,0,0,0,0,0,0,0],"id":0,"left_children":[1,3,5,7,9,11,13,-1,-1,-1,-1,-1,-1,-1,-1],"loss_changes":[2.3892577E2,7.691495E1,3.3202347E1,3.250952E1,2.8135406E1,2.3386759E1,8.355255E0,0E0,0E0,0E0,0E0,0E0,0E0,0E0,0E0],"parents":[2147483647,0,0,1,1,2,2,3,3,4,4,5,5,6,6],"right_children":[2,4,6,8,10,12,14,-1,-1,-1,-1,-1,-1,-1,-1],"split_conditions":[3.5714287E-2,-2.858819E-2,3.3333333E0,1.0227618E-2,-2.2222222E-1,7.995601E-1,1.0333333E1,-2.5468075E-1,-5.4154374E-2,-1.2855813E-1,4.354434E-2,-1.4118671E-2,1.764578E-1,2.4764161E-1,-3.4065403E-2],"split_indices":[2,1,5,0,2,4,6,0,0,0,0,0,0,0,0],"split_type":[0,0,0,0,0,0,0,0,0,0,0,0,0,0,0],"sum_hessian":[5.5775653E2,3.3962042E2,2.1813612E2,1.6481937E2,1.7480106E2,1.017644E2,1.1637173E2,1.19780106E2,4.503927E1,5.4290577E1,1.20510475E2,5.185602E1,4.990838E1,1.1223299E2,4.1387434E0],"tree_param":{"num_deleted":"0","num_feature":"9","num_nodes":"15","size_leaf_vector":"1"}},{"base_weights":[-5.094234E-3,-6.278794E-1,4.227213E-1,-1.0295514E0,-3.154901E-1,6.1451342E-2,8.011657E-1,-1.1370783E-1,-2.919638E-1,-1.05514966E-1,3.396162E-2,-6.047802E-3,2.0205155E-1,3.4333207E-2,2.0021701E-1],"categories":[],"categories_nodes":[],"categories_segments":[],"categories_sizes":[],"default_left":[0,0,0,0,0,0,0,0,0,0,0,0,0,0,0],"id":1,"left_children":[1,3,5,7,9,11,13,-1,-1,-1,-1,-1,-1,-1,-1],"loss_changes":[1.4475021E2,2.7434242E1,4.3982784E1,1.828006E1,1.3046272E1,1.4458985E1,1.9612564E1,0E0,0E0,0E0,0E0,0E0,0E0,0E0,0E0],"parents":[2147483647,0,0,1,1,2,2,3,3,4,4,5,5,6,6],"right_children":[2,4,6,8,10,12,14,-1,-1,-1,-1,-1,-1,-1,-1],"split_conditions":[0E0,-2.6363635E-1,1.1764706E-1,9E0,1.5837097E0,1.1666667E1,-6.666667E-1,-1.1370783E-1,-2.919638E-1,-1.05514966E-1,3.396162E-2,-6.047802E-3,2.0205155E-1,3.4333207E-2,2.0021701E-1],"split_indices":[3,2,2,8,4,5,5,0,0,0,0,0,0,0,0],"split_type":[0,0,0,0,0,0,0,0,0,0,0,0,0,0,0],"sum_hessian":[5.4128467E2,2.2022633E2,3.2105835E2,9.534082E1,1.24885506E2,1.6485098E2,1.5620738E2,4.7146664E1,4.819416E1,8.684531E1,3.8040203E1,1.5120685E2,1.3644134E1,3.809952E1,1.18107864E2],"tree_param":{"num_deleted":"0","num_feature":"9","num_nodes":"15","size_leaf_vector":"1"}},{"base_weights":[1.5356091E-2,-6.0982895E-1,3.491548E-1,-9.4611186E-1,-1.7073217E-1,-1.6629262E-1,5.700514E-1,-1.4413999E-1,-2.5814375E-1,2.17348E-2,-1.1997998E-1,-1.3216043E-1,3.3868585E-2,6.6496484E-2,1.8571372E-1],"categories":[],"categories_nodes":[],"categories_segments":[],"categories_sizes":[],"default_left":[0,0,0,0,0,0,0,0,0,0,0,0,0,0,0],"id":2,"left_children":[1,3,5,7,9,11,13,-1,-1,-1,-1,-1,-1,-1,-1],"loss_changes":[1.13368675E2,2.7761253E1,4.0416103E1,7.371086E0,1.0045893E1,1.787282E1,2.0824211E1,0E0,0E0,0E0,0E0,0E0,0E0,0E0,0E0],"parents":[2147483647,0,0,1,1,2,2,3,3,4,4,5,5,6,6],"right_children":[2,4,6,8,10,12,14,-1,-1,-1,-1,-1,-1,-1,-1],"split_conditions":[-1.1904762E-1,-2.858819E-2,-1.5977653E0,6.3333335E0,6.6666665E0,-2.6666667E0,1.6911764E-1,-1.4413999E-1,-2.5814375E-1,2.17348E-2,-1.1997998E-1,-1.3216043E-1,3.3868585E-2,6.6496484E-2,1.8571372E-1],"split_indices":[2,1,4,6,6,5,2,0,0,0,0,0,0,0,0],"split_type":[0,0,0,0,0,0,0,0,0,0,0,0,0,0,0],"sum_hessian":[5.412298E2,1.8810095E2,3.531288E2,1.0586751E2,8.223345E1,1.0600963E2,2.4711919E2,6.587149E1,3.9996017E1,5.0259315E1,3.1974136E1,4.2469E1,6.3540623E1,1.4978957E2,9.732962E1],"tree_param":{"num_deleted":"0","num_feature":"9","num_nodes":"15","size_leaf_vector":"1"}},{"base_weights":[-1.5834315E-2,-2.7923715E-1,5.368449E-1,-4.8835674E-1,1.377206E-1,3.4553307E-1,9.862167E-1,-1.2519658E-1,-2.8785646E-2,-6.6671066E-2,7.981289E-2,6.586542E-3,1.2577932E-1,5.7378717E-2,2.0614412E-1],"categories":[],"categories_nodes":[],"categories_segments":[],"categories_sizes":[],"default_left":[0,0,0,0,0,0,0,0,0,0,0,0,0,0,0],"id":3,"left_children":[1,3,5,7,9,11,13,-1,-1,-1,-1,-1,-1,-1,-1],"loss_changes":[7.725423E1,3.140062E1,1.4385334E1,1.1264805E1,1.5006196E1,1.0757944E1,1.2794037E0,0E0,0E0,0E0,0E0,0E0,0E0,0E0,0E0],"parents":[2147483647,0,0,1,1,2,2,3,3,4,4,5,5,6,6],"right_children":[2,4,6,8,10,12,14,-1,-1,-1,-1,-1,-1,-1,-1],"split_conditions":[8.3333336E-2,4.864241E-3,3.41656E0,9.789897E-1,-1.2040364E0,3E0,1.1111111E-1,-1.2519658E-1,-2.8785646E-2,-6.6671066E-2,7.981289E-2,6.586542E-3,1.2577932E-1,5.7378717E-2,2.0614412E-1],"split_indices":[2,1,4,4,4,5,2,0,0,0,0,0,0,0,0],"split_type":[0,0,0,0,0,0,0,0,0,0,0,0,0,0,0],"sum_hessian":[5.286454E2,3.5835214E2,1.7029321E2,2.385429E2,1.1980925E2,1.2068339E2,4.960983E1,1.6985506E2,6.8687836E1,4.2652313E1,7.715694E1,5.7912174E1,6.2771217E1,3.4137359E0,4.619609E1],"tree_param":{"num_deleted":"0","num_feature":"9","num_nodes":"15","size_leaf_vector":"1"}},{"base_weights":[-1.835676E-2,-4.0731415E-1,2.610035E-1,-8.145506E-1,-2.2093512E-1,6.603221E-2,5.505057E-1,-8.013029E-2,-2.2398546E-1,-5.3251095E-2,1.8423578E-1,-5.3849246E-2,4.6506505E-2,3.477421E-2,1.5723348E-1],"categories":[],"categories_nodes":[],"categories_segments":[],"categories_sizes":[],"default_left":[0,0,0,0,0,0,0,0,0,0,0,0,0,0,0],"id":4,"left_children":[1,3,5,7,9,11,13,-1,-1,-1,-1,-1,-1,-1,-1],"loss_changes":[5.6298996E1,1.625703E1,1.6986538E1,8.098373E0,8.006233E0,1.0186394E1,1.0623814E1,0E0,0E0,0E0,0E0,0E0,0E0,0E0,0E0],"parents":[2147483647,0,0,1,1,2,2,3,3,4,4,5,5,6,6],"right_children":[2,4,6,8,10,12,14,-1,-1,-1,-1,-1,-1,-1,-1],"split_conditions":[0E0,-3.5714287E-1,1.5579059E0,7E0,1.9E1,7E0,6.666667E-1,-8.013029E-2,-2.2398546E-1,-5.3251095E-2,1.8423578E-1,-5.3849246E-2,4.6506505E-2,3.477421E-2,1.5723348E-1],"split_indices":[3,2,4,8,8,8,5,0,0,0,0,0,0,0,0],"split_type":[0,0,0,0,0,0,0,0,0,0,0,0,0,0,0],"sum_hessian":[5.1614594E2,2.1556024E2,3.0058572E2,6.662182E1,1.4893843E2,1.8035199E2,1.2023372E2,2.9266626E1,3.7355186E1,1.4399155E2,4.9468718E0,5.9639664E1,1.2071233E2,4.6944607E1,7.328911E1],"tree_param":{"num_deleted":"0","num_feature":"9","num_nodes":"15","size_leaf_vector":"1"}},{"base_weights":[-2.1107407E-2,-3.510817E-1,2.0581785E-1,-1.9125235E-1,-6.8275166E-1,-4.1072E-2,5.388033E-1,-5.7476427E-2,5.9966236E-2,-3.0290282E-3,-1.547791E-1,-1.1526791E-1,1.3531096E-2,1.0137729E-2,1.3244502E-1],"categories":[],"categories_nodes":[],"categories_segments":[],"categories_sizes":[],"default_left":[0,0,0,0,0,0,0,0,0,0,0,0,0,0,0],"id":5,"left_children":[1,3,5,7,9,11,13,-1,-1,-1,-1,-1,-1,-1,-1],"loss_changes":[3.7973377E1,1.0822474E1,2.4729855E1,6.7339115E0,4.053009E0,1.01370325E1,7.6795006E0,0E0,0E0,0E0,0E0,0E0,0E0,0E0,0E0],"parents":[2147483647,0,0,1,1,2,2,3,3,4,4,5,5,6,6],"right_children":[2,4,6,8,10,12,14,-1,-1,-1,-1,-1,-1,-1,-1],"split_conditions":[-2.786915E-2,5.6666665E0,6.5789476E-2,1E0,3E0,-4.6666665E0,6E0,-5.7476427E-2,5.9966236E-2,-3.0290282E-3,-1.547791E-1,-1.1526791E-1,1.3531096E-2,1.0137729E-2,1.3244502E-1],"split_indices":[1,6,2,7,8,5,8,0,0,0,0,0,0,0,0],"split_type":[0,0,0,0,0,0,0,0,0,0,0,0,0,0,0],"sum_hessian":[5.051614E2,2.0562007E2,2.9954135E2,1.3981897E2,6.580111E1,1.7251093E2,1.27030426E2,1.17276794E2,2.254217E1,8.044352E0,5.775676E1,2.839939E1,1.4411153E2,2.5922316E1,1.0110811E2],"tree_param":{"num_deleted":"0","num_feature":"9","num_nodes":"15","size_leaf_vector":"1"}},{"base_weights":[5.7742954E-4,-1.5379742E-1,4.2002797E-1,-5.744809E-1,-4.401393E-2,-2.0311704E-1,5.29046E-1,-2.0212443E-1,-6.9428615E-2,-2.096401E-2,1.7629604E-1,-1.4817151E-1,5.211125E-2,4.2282056E-2,1.3229619E-1],"categories":[],"categories_nodes":[],"categories_segments":[],"categories_sizes":[],"default_left":[0,0,0,0,0,0,0,0,0,0,0,0,0,0,0],"id":6,"left_children":[1,3,5,7,9,11,13,-1,-1,-1,-1,-1,-1,-1,-1],"loss_changes":[3.2139942E1,1.6731258E1,9.178785E0,7.086027E0,1.6345697E1,5.3306546E0,4.6525803E0,0E0,0E0,0E0,0E0,0E0,0E0,0E0,0E0],"parents":[2147483647,0,0,1,1,2,2,3,3,4,4,5,5,6,6],"right_children":[2,4,6,8,10,12,14,-1,-1,-1,-1,-1,-1,-1,-1],"split_conditions":[1.1764706E-1,-4.170772E0,-3.2888203E0,-2.6666668E-1,1.6990615E-1,1E1,0E0,-2.0212443E-1,-6.9428615E-2,-2.096401E-2,1.7629604E-1,-1.4817151E-1,5.211125E-2,4.2282056E-2,1.3229619E-1],"split_indices":[2,4,4,2,1,8,5,0,0,0,0,0,0,0,0],"split_type":[0,0,0,0,0,0,0,0,0,0,0,0,0,0,0],"sum_hessian":[4.9435205E2,3.6182068E2,1.3253139E2,7.4005066E1,2.878156E2,1.9605213E1,1.1292617E2,2.4176897E1,4.9828167E1,2.7090366E2,1.6911966E1,8.800787E0,1.0804426E1,3.3992912E1,7.893325E1],"tree_param":{"num_deleted":"0","num_feature":"9","num_nodes":"15","size_leaf_vector":"1"}},{"base_weights":[2.4869094E-2,-3.9019826E-1,1.6240846E-1,-7.9252236E-2,-6.9211584E-1,-6.613271E-3,3.6701402E-1,-7.1206726E-2,4.710626E-2,-1.1428702E-1,-2.593171E-1,-3.5294786E-2,4.091577E-2,9.164083E-2,-1.20808175E-2],"categories":[],"categories_nodes":[],"categories_segments":[],"categories_sizes":[],"default_left":[0,0,0,0,0,0,0,0,0,0,0,0,0,0,0],"id":7,"left_children":[1,3,5,7,9,11,13,-1,-1,-1,-1,-1,-1,-1,-1],"loss_changes":[2.8297878E1,1.1529041E1,1.2873708E1,5.4783306E0,3.8164825E0,7.3829193E0,6.590826E0,0E0,0E0,0E0,0E0,0E0,0E0,0E0,0E0],"parents":[2147483647,0,0,1,1,2,2,3,3,4,4,5,5,6,6],"right_children":[2,4,6,8,10,12,14,-1,-1,-1,-1,-1,-1,-1,-1],"split_conditions":[-2.2222222E-1,9E0,7.905348E-4,-4.3333335E0,2.8492773E-2,6.666667E-1,6.3333335E0,-7.1206726E-2,4.710626E-2,-1.1428702E-1,-2.593171E-1,-3.5294786E-2,4.091577E-2,9.164083E-2,-1.20808175E-2],"split_indices":[2,8,0,5,0,5,6,0,0,0,0,0,0,0,0],"split_type":[0,0,0,0,0,0,0,0,0,0,0,0,0,0,0],"sum_hessian":[4.9357782E2,1.22390335E2,3.7118747E2,6.0915615E1,6.147472E1,2.037994E2,1.6738809E2,3.234469E1,2.8570927E1,5.2865593E1,8.609126E0,1.1304351E2,9.075588E1,1.3789583E2,2.949226E1],"tree_param":{"num_deleted":"0","num_feature":"9","num_nodes":"15","size_leaf_vector":"1"}},{"base_weights":[5.6345522E-2,-1.7651714E-1,2.1564536E-1,-6.7236096E-1,-9.455345E-2,-1.9448315E-1,3.2141283E-1,-1.9868165E-1,-1.8730842E-2,1.2432046E-2,-7.2450995E-2,-1.488276E-1,1.6131367E-3,-3.0244458E-2,8.153173E-2],"categories":[],"categories_nodes":[],"categories_segments":[],"categories_sizes":[],"default_left":[0,0,0,0,0,0,0,0,0,0,0,0,0,0,0],"id":8,"left_children":[1,3,5,7,9,11,13,-1,-1,-1,-1,-1,-1,-1,-1],"loss_changes":[1.7793121E1,7.8605094E0,1.2410605E1,5.0152016E0,7.0907707E0,6.5727363E0,9.301664E0,0E0,0E0,0E0,0E0,0E0,0E0,0E0,0E0],"parents":[2147483647,0,0,1,1,2,2,3,3,4,4,5,5,6,6],"right_children":[2,4,6,8,10,12,14,-1,-1,-1,-1,-1,-1,-1,-1],"split_conditions":[-2.858819E-2,-5E-1,-3.143294E0,-3.75E-1,3.3333333E0,-3.3333333E0,-3.3333333E0,-1.9868165E-1,-1.8730842E-2,1.2432046E-2,-7.2450995E-2,-1.488276E-1,1.6131367E-3,-3.0244458E-2,8.153173E-2],"split_indices":[1,3,4,2,6,6,5,0,0,0,0,0,0,0,0],"split_type":[0,0,0,0,0,0,0,0,0,0,0,0,0,0,0],"sum_hessian":[4.7763766E2,1.9397668E2,2.8366098E2,2.6494375E1,1.6748232E2,5.798337E1,2.256776E2,1.6579834E1,9.914541E0,1.0612441E2,6.1357906E1,1.4893406E1,4.3089966E1,3.471003E1,1.9096756E2],"tree_param":{"num_deleted":"0","num_feature":"9","num_nodes":"15","size_leaf_vector":"1"}},{"base_weights":[4.6965352E-4,-6.580251E-2,5.9581316E-1,-1.7544974E-1,1.7817019E-1,-6.1319244E-1,6.90367E-1,-5.8069427E-2,8.8304095E-3,9.825144E-2,4.842545E-3,-1.8062092E-1,-7.1343826E-3,-3.6576018E-2,1.6013862E-1],"categories":[],"categories_nodes":[],"categories_segments":[],"categories_sizes":[],"default_left":[0,0,0,0,0,0,0,0,0,0,0,0,0,0,0],"id":9,"left_children":[1,3,5,7,9,11,13,-1,-1,-1,-1,-1,-1,-1,-1],"loss_changes":[1.8758482E1,1.1476006E1,5.867489E0,7.473159E0,6.4063354E0,6.348258E-1,4.447113E0,0E0,0E0,0E0,0E0,0E0,0E0,0E0,0E0],"parents":[2147483647,0,0,1,1,2,2,3,3,4,4,5,5,6,6],"right_children":[2,4,6,8,10,12,14,-1,-1,-1,-1,-1,-1,-1,-1],"split_conditions":[1.548448E-1,2E-1,2E0,1.8298788E-3,-6.3333335E0,2.8685627E0,-4.434177E-2,-5.8069427E-2,8.8304095E-3,9.825144E-2,4.842545E-3,-1.8062092E-1,-7.1343826E-3,-3.6576018E-2,1.6013862E-1],"split_indices":[1,3,8,0,6,4,0,0,0,0,0,0,0,0,0],"split_type":[0,0,0,0,0,0,0,0,0,0,0,0,0,0,0],"sum_hessian":[4.7344983E2,4.2682608E2,4.662375E1,2.9467352E2,1.3215254E2,2.9839952E0,4.3639755E1,1.9324438E2,1.0142913E2,4.2840828E1,8.931172E1,1.6113461E0,1.3726491E0,4.821249E0,3.8818504E1],"tree_param":{"num_deleted":"0","num_feature":"9","num_nodes":"15","size_leaf_vector":"1"}},{"base_weights":[-7.7611264E-3,-6.777591E-1,2.6184995E-2,-1.0421098E0,-2.2211397E-1,-6.78633E-3,6.1571443E-1,-2.4414936E-1,-1.5183282E-2,-1.2530856E-1,1.0138917E-1,1.2851453E-2,-6.1577417E-2,-1.4166105E-1,1.4581436E-1],"categories":[],"categories_nodes":[],"categories_segments":[],"categories_sizes":[],"default_left":[0,0,0,0,0,0,0,0,0,0,0,0,0,0,0],"id":10,"left_children":[1,3,5,7,9,11,13,-1,-1,-1,-1,-1,-1,-1,-1],"loss_changes":[1.0692291E1,3.5320797E0,8.705753E0,2.0347824E0,3.6623955E0,9.109921E0,4.076786E0,0E0,0E0,0E0,0E0,0E0,0E0,0E0,0E0],"parents":[2147483647,0,0,1,1,2,2,3,3,4,4,5,5,6,6],"right_children":[2,4,6,8,10,12,14,-1,-1,-1,-1,-1,-1,-1,-1],"split_conditions":[-1.5666667E1,-1.2491773E0,6.789435E0,1E0,-1.3333334E-1,8E0,-1.5248667E-1,-2.4414936E-1,-1.5183282E-2,-1.2530856E-1,1.0138917E-1,1.2851453E-2,-6.1577417E-2,-1.4166105E-1,1.4581436E-1],"split_indices":[5,4,4,7,2,6,1,0,0,0,0,0,0,0,0],"split_type":[0,0,0,0,0,0,0,0,0,0,0,0,0,0,0],"sum_hessian":[4.6833798E2,2.1669966E1,4.46668E2,1.1326093E1,1.0343872E1,4.2394595E2,2.272205E1,9.336443E0,1.98965E0,6.743622E0,3.6002507E0,3.436497E2,8.0296265E1,1.3780406E0,2.1344007E1],"tree_param":{"num_deleted":"0","num_feature":"9","num_nodes":"15","size_leaf_vector":"1"}},{"base_weights":[-3.147751E-2,-9.686134E-2,3.078223E-1,-2.681581E-1,4.1981773E-3,3.8041326E-1,-1.356037E0,-1.13580845E-1,-3.3910315E-2,-6.816409E-3,8.7648995E-2,-1.700755E-2,1.3560979E-1,-3.3582824E-1,-1.0173122E-1],"categories":[],"categories_nodes":[],"categories_segments":[],"categories_sizes":[],"default_left":[0,0,0,0,0,0,0,0,0,0,0,0,0,0,0],"id":11,"left_children":[1,3,5,7,9,11,13,-1,-1,-1,-1,-1,-1,-1,-1],"loss_changes":[1.0514034E1,6.873541E0,9.766998E0,4.2581024E0,4.1799355E0,1.0333229E1,8.254862E-2,0E0,0E0,0E0,0E0,0E0,0E0,0E0,0E0],"parents":[2147483647,0,0,1,1,2,2,3,3,4,4,5,5,6,6],"right_children":[2,4,6,8,10,12,14,-1,-1,-1,-1,-1,-1,-1,-1],"split_conditions":[2.2619048E-1,-5.250301E-2,1.1E1,-3.392857E-1,1.1666667E1,7E0,4.3333335E0,-1.13580845E-1,-3.3910315E-2,-6.816409E-3,8.7648995E-2,-1.700755E-2,1.3560979E-1,-3.3582824E-1,-1.0173122E-1],"split_indices":[2,1,6,2,5,8,5,0,0,0,0,0,0,0,0],"split_type":[0,0,0,0,0,0,0,0,0,0,0,0,0,0,0],"sum_hessian":[4.7158737E2,3.9599313E2,7.559424E1,1.4632222E2,2.4967091E2,7.3173195E1,2.4210393E0,3.5041885E1,1.1128033E2,2.3028287E2,1.9388035E1,2.8819206E1,4.4353992E1,1.0421169E0,1.3789225E0],"tree_param":{"num_deleted":"0","num_feature":"9","num_nodes":"15","size_leaf_vector":"1"}},{"base_weights":[-2.045736E-2,-6.493846E-2,3.9172882E-1,-3.1334765E-2,-5.625272E-1,1.1361705E-1,6.651951E-1,-3.2243144E-2,1.8680621E-2,8.4144704E-2,-1.5089855E-1,6.546209E-2,-1.9733766E-1,-9.3008846E-2,1.6000108E-1],"categories":[],"categories_nodes":[],"categories_segments":[],"categories_sizes":[],"default_left":[0,0,0,0,0,0,0,0,0,0,0,0,0,0,0],"id":12,"left_children":[1,3,5,7,9,11,13,-1,-1,-1,-1,-1,-1,-1,-1],"loss_changes":[8.622803E0,7.0736885E0,3.4089594E0,6.468445E0,5.3702774E0,5.947521E0,3.8605318E0,0E0,0E0,0E0,0E0,0E0,0E0,0E0,0E0],"parents":[2147483647,0,0,1,1,2,2,3,3,4,4,5,5,6,6],"right_children":[2,4,6,8,10,12,14,-1,-1,-1,-1,-1,-1,-1,-1],"split_conditions":[3.5714287E-1,1.4333333E1,1.1085039E0,-4.92774E-4,3E0,1.4333333E1,-4E0,-3.2243144E-2,1.8680621E-2,8.4144704E-2,-1.5089855E-1,6.546209E-2,-1.9733766E-1,-9.3008846E-2,1.6000108E-1],"split_indices":[2,6,4,0,8,5,7,0,0,0,0,0,0,0,0],"split_type":[0,0,0,0,0,0,0,0,0,0,0,0,0,0,0],"sum_hessian":[4.679174E2,4.231009E2,4.481651E1,3.9733087E2,2.5770002E1,2.2921303E1,2.1895208E1,1.9450931E2,2.0282156E2,4.014745E0,2.1755257E1,1.9781927E1,3.1393762E0,2.072223E0,1.9822985E1],"tree_param":{"num_deleted":"0","num_feature":"9","num_nodes":"15","size_leaf_vector":"1"}},{"base_weights":[6.301553E-3,-3.1280227E-2,6.560749E-1,-6.398786E-2,4.2420498E-1,-1.5479751E-1,7.591655E-1,-6.980089E-3,-1.0343399E-1,1.8823178E-1,1.8599808E-2,2.3739639E-1,9.778915E-2],"categories":[],"categories_nodes":[],"categories_segments":[],"categories_sizes":[],"default_left":[0,0,0,0,0,0,0,0,0,0,0,0,0],"id":13,"left_children":[1,3,5,7,9,-1,11,-1,-1,-1,-1,-1,-1],"loss_changes":[1.1071085E1,6.414443E0,4.2419643E0,5.266365E0,4.8530607E0,0E0,2.150895E0,0E0,0E0,0E0,0E0,0E0,0E0],"parents":[2147483647,0,0,1,1,2,2,3,3,4,4,6,6],"right_children":[2,4,6,8,10,-1,12,-1,-1,-1,-1,-1,-1],"split_conditions":[6.3747687E0,1.1666667E1,-1.7652464E-1,1.3666667E1,1.4E1,-1.5479751E-1,4.723329E-2,-6.980089E-3,-1.0343399E-1,1.8823178E-1,1.8599808E-2,2.3739639E-1,9.778915E-2],"split_indices":[4,5,1,6,5,0,0,0,0,0,0,0,0],"split_type":[0,0,0,0,0,0,0,0,0,0,0,0,0],"sum_hessian":[4.515277E2,4.2773984E2,2.3787882E1,3.998843E2,2.7855509E1,1.1619267E0,2.2625956E1,3.767779E2,2.3106417E1,1.0158412E1,1.7697096E1,7.4454856E0,1.51804695E1],"tree_param":{"num_deleted":"0","num_feature":"9","num_nodes":"13","size_leaf_vector":"1"}},{"base_weights":[-5.060784E-3,5.0266415E-2,-4.2575556E-1,1.2717974E-2,5.303616E-1,-5.4875404E-1,6.4046666E-2,-1.1221202E-1,7.847886E-3,-4.435112E-2,1.3606891E-1,-5.5844825E-2,-1.7622663E-1,-1.1542952E-1,1.6114925E-1],"categories":[],"categories_nodes":[],"categories_segments":[],"categories_sizes":[],"default_left":[0,0,0,0,0,0,0,0,0,0,0,0,0,0,0],"id":14,"left_children":[1,3,5,7,9,11,13,-1,-1,-1,-1,-1,-1,-1,-1],"loss_changes":[1.0602475E1,7.25179E0,3.2246485E0,5.720474E0,3.4428158E0,3.5542517E0,5.944502E0,0E0,0E0,0E0,0E0,0E0,0E0,0E0,0E0],"parents":[2147483647,0,0,1,1,2,2,3,3,4,4,5,5,6,6],"right_children":[2,4,6,8,10,12,14,-1,-1,-1,-1,-1,-1,-1,-1],"split_conditions":[1.0333333E1,1.72042E-1,1.7333334E1,-1.5666667E1,-2.6934202E0,1.6666666E0,-3.3333334E-1,-1.1221202E-1,7.847886E-3,-4.435112E-2,1.3606891E-1,-5.5844825E-2,-1.7622663E-1,-1.1542952E-1,1.6114925E-1],"split_indices":[6,1,6,5,4,5,5,0,0,0,0,0,0,0,0],"split_type":[0,0,0,0,0,0,0,0,0,0,0,0,0,0,0],"sum_hessian":[4.5359418E2,4.016519E2,5.194228E1,3.734692E2,2.8182692E1,4.142047E1,1.0521809E1,1.5609556E1,3.5785965E2,4.6060843E0,2.3576607E1,2.3888832E1,1.7531641E1,5.762245E0,4.7595634E0],"tree_param":{"num_deleted":"0","num_feature":"9","num_nodes":"15","size_leaf_vector":"1"}},{"base_weights":[-2.412643E-2,-1.6634104E-1,8.2424805E-2,-2.997993E-2,-3.791924E-1,2.2714028E-2,4.8337302E-1,-8.034258E-2,2.629385E-2,-1.7915608E-1,-5.9267756E-2,7.094995E-2,-1.3144243E-2,-3.019073E-1,1.2295828E-1],"categories":[],"categories_nodes":[],"categories_segments":[],"categories_sizes":[],"default_left":[0,0,0,0,0,0,0,0,0,0,0,0,0,0,0],"id":15,"left_children":[1,3,5,7,9,11,13,-1,-1,-1,-1,-1,-1,-1,-1],"loss_changes":[6.8133645E0,5.576766E0,6.146587E0,7.160913E0,2.9486523E0,6.6274796E0,9.646557E0,0E0,0E0,0E0,0E0,0E0,0E0,0E0,0E0],"parents":[2147483647,0,0,1,1,2,2,3,3,4,4,5,5,6,6],"right_children":[2,4,6,8,10,12,14,-1,-1,-1,-1,-1,-1,-1,-1],"split_conditions":[0E0,6.3333335E0,4.71895E0,-2.6666667E0,-6.087546E0,-5E0,-1.640958E-1,-8.034258E-2,2.629385E-2,-1.7915608E-1,-5.9267756E-2,7.094995E-2,-1.3144243E-2,-3.019073E-1,1.2295828E-1],"split_indices":[3,6,4,6,4,5,1,0,0,0,0,0,0,0,0],"split_type":[0,0,0,0,0,0,0,0,0,0,0,0,0,0,0],"sum_hessian":[4.4772894E2,1.9153064E2,2.561983E2,1.1743678E2,7.409385E1,2.2390947E2,3.2288826E1,3.5109592E1,8.2327194E1,8.88497E0,6.5208885E1,4.646022E1,1.7744925E2,1.3487682E0,3.0940058E1],"tree_param":{"num_deleted":"0","num_feature":"9","num_nodes":"15","size_leaf_vector":"1"}},{"base_weights":[1.0463409E-2,2.2338776E-1,1.7265056E-5,-1.4606947E-2,7.230096E-1,-7.803247E-2,2.4946043E-3,2.0360222E-1,1.5717864E-2],"categories":[],"categories_nodes":[],"categories_segments":[],"categories_sizes":[],"default_left":[0,0,0,0,0,0,0,0,0],"id":16,"left_children":[1,-1,3,5,7,-1,-1,-1,-1],"loss_changes":[5.278981E0,0E0,4.8050027E0,4.5350294E0,1.6328583E0,0E0,0E0,0E0,0E0],"parents":[2147483647,0,0,2,2,3,3,4,4],"right_children":[2,-1,4,6,8,-1,-1,-1,-1],"split_conditions":[-2E1,2.2338776E-1,9.005593E0,-2.1054278E-1,3.3333333E0,-7.803247E-2,2.4946043E-3,2.0360222E-1,1.5717864E-2],"split_indices":[6,0,4,1,5,0,0,0,0],"split_type":[0,0,0,0,0,0,0,0,0],"sum_hessian":[4.557241E2,3.2715518E0,4.5245255E2,4.4444247E2,8.010092E0,2.8990015E1,4.1545245E2,5.097045E0,2.9130473E0],"tree_param":{"num_deleted":"0","num_feature":"9","num_nodes":"9","size_leaf_vector":"1"}},{"base_weights":[-3.3281554E-2,-1.6112795E-1,5.687474E-2,-8.03666E-2,-5.103474E-1,2.5657862E-1,4.2819016E-2,-3.1295322E-2,1.3855626E-1,-1.2734741E-1,1.1381946E-1,-1.11530244E-4,6.53723E-2],"categories":[],"categories_nodes":[],"categories_segments":[],"categories_sizes":[],"default_left":[0,0,0,0,0,0,0,0,0,0,0,0,0],"id":17,"left_children":[1,3,5,7,9,-1,11,-1,-1,-1,-1,-1,-1],"loss_changes":[5.1381564E0,5.1565385E0,4.4548197E0,8.985704E0,5.05927E0,0E0,3.2007296E0,0E0,0E0,0E0,0E0,0E0,0E0],"parents":[2147483647,0,0,1,1,2,2,3,3,4,4,6,6],"right_children":[2,4,6,8,10,-1,12,-1,-1,-1,-1,-1,-1],"split_conditions":[-2.786915E-2,3.2244317E-2,-2.6836503E-2,2.1582827E-2,1E0,2.5657862E-1,3E0,-3.1295322E-2,1.3855626E-1,-1.2734741E-1,1.1381946E-1,-1.11530244E-4,6.53723E-2],"split_indices":[1,0,1,0,7,0,7,0,0,0,0,0,0],"split_type":[0,0,0,0,0,0,0,0,0,0,0,0,0],"sum_hessian":[4.4398712E2,1.8328793E2,2.606992E2,1.4986087E2,3.3427063E1,1.9317228E0,2.587675E2,1.3715656E2,1.2704314E1,3.029054E1,3.1365223E0,2.2535164E2,3.3415836E1],"tree_param":{"num_deleted":"0","num_feature":"9","num_nodes":"13","size_leaf_vector":"1"}},{"base_weights":[5.4057818E-2,2.6274694E-2,5.570215E-1,2.1861748E-1,1.8142797E-2,-1.960788E-1,7.132928E-1,-5.718987E-3,3.386576E-2,8.886643E-2,-1.3249327E-1,1.5663496E-1,-1.7071724E-2],"categories":[],"categories_nodes":[],"categories_segments":[],"categories_sizes":[],"default_left":[0,0,0,0,0,0,0,0,0,0,0,0,0],"id":18,"left_children":[1,3,5,-1,7,9,11,-1,-1,-1,-1,-1,-1],"loss_changes":[6.182566E0,3.6351933E0,2.8661785E0,0E0,2.9665802E0,1.7176502E0,1.1496115E0,0E0,0E0,0E0,0E0,0E0,0E0],"parents":[2147483647,0,0,1,1,2,2,4,4,5,5,6,6],"right_children":[2,4,6,-1,8,10,12,-1,-1,-1,-1,-1,-1],"split_conditions":[6E-1,-1.3E1,-1.3E1,2.1861748E-1,4.3333335E0,1E1,3.240659E-1,-5.718987E-3,3.386576E-2,8.886643E-2,-1.3249327E-1,1.5663496E-1,-1.7071724E-2],"split_indices":[3,7,6,0,5,8,1,0,0,0,0,0,0],"split_type":[0,0,0,0,0,0,0,0,0,0,0,0,0],"sum_hessian":[4.4248398E2,4.2031833E2,2.2165651E1,2.170372E0,4.1814798E2,3.7652888E0,1.8400362E1,3.2002585E2,9.8122116E1,1.606561E0,2.158728E0,1.6937693E1,1.4626697E0],"tree_param":{"num_deleted":"0","num_feature":"9","num_nodes":"13","size_leaf_vector":"1"}},{"base_weights":[-1.8706189E-4,-3.9804935E-2,2.226274E-1,-6.936405E-1,-2.9071877E-2,-1.571358E-1,5.466467E-1,-2.1145299E-1,8.758789E-2,1.0571995E-1,-8.545193E-3,-2.0081134E-1,1.2369057E-2,1.2803616E-1,-1.694984E-1],"categories":[],"categories_nodes":[],"categories_segments":[],"categories_sizes":[],"default_left":[0,0,0,0,0,0,0,0,0,0,0,0,0,0,0],"id":19,"left_children":[1,3,5,7,9,11,13,-1,-1,-1,-1,-1,-1,-1,-1],"loss_changes":[3.983477E0,2.6685286E0,8.468642E0,2.991094E0,2.9007778E0,6.022949E0,5.365159E0,0E0,0E0,0E0,0E0,0E0,0E0,0E0,0E0],"parents":[2147483647,0,0,1,1,2,2,3,3,4,4,5,5,6,6],"right_children":[2,4,6,8,10,12,14,-1,-1,-1,-1,-1,-1,-1,-1],"split_conditions":[2.2619048E-1,-3.1069675E-1,8E0,-1.25E-1,-2.5015995E-1,-3.2888203E0,1.1666667E1,-2.1145299E-1,8.758789E-2,1.0571995E-1,-8.545193E-3,-2.0081134E-1,1.2369057E-2,1.2803616E-1,-1.694984E-1],"split_indices":[2,1,8,2,1,4,6,0,0,0,0,0,0,0,0],"split_type":[0,0,0,0,0,0,0,0,0,0,0,0,0,0,0],"sum_hessian":[4.4925708E2,3.8213272E2,6.712435E1,5.144007E0,3.769887E2,3.1140972E1,3.5983383E1,3.942719E0,1.2012883E0,8.108316E0,3.688804E2,5.661129E0,2.5479843E1,3.4227814E1,1.7555695E0],"tree_param":{"num_deleted":"0","num_feature":"9","num_nodes":"15","size_leaf_vector":"1"}},{"base_weights":[2.7005317E-2,3.78016E-3,4.922117E-1,2.0574871E-2,-6.8321085E-1,7.1564317E-1,-1.13559864E-1,-7.791832E-3,3.6297232E-2,-2.5930065E-1,8.564113E-2,1.7109965E-1,-7.828534E-2,-1.234168E-1,1.4942066E-1],"categories":[],"categories_nodes":[],"categories_segments":[],"categories_sizes":[],"default_left":[0,0,0,0,0,0,0,0,0,0,0,0,0,0,0],"id":20,"left_children":[1,3,5,7,9,11,13,-1,-1,-1,-1,-1,-1,-1,-1],"loss_changes":[4.8111343E0,4.9209538E0,2.9471655E0,3.9932797E0,7.4927664E0,2.7510853E0,3.307586E0,0E0,0E0,0E0,0E0,0E0,0E0,0E0,0E0],"parents":[2147483647,0,0,1,1,2,2,3,3,4,4,5,5,6,6],"right_children":[2,4,6,8,10,12,14,-1,-1,-1,-1,-1,-1,-1,-1],"split_conditions":[6.3747687E0,5.678447E0,1.5E1,1.5579059E0,1.1E1,1.1163819E-1,4E0,-7.791832E-3,3.6297232E-2,-2.5930065E-1,8.564113E-2,1.7109965E-1,-7.828534E-2,-1.234168E-1,1.4942066E-1],"split_indices":[4,4,8,4,8,0,5,0,0,0,0,0,0,0,0],"split_type":[0,0,0,0,0,0,0,0,0,0,0,0,0,0,0],"sum_hessian":[4.4446243E2,4.242882E2,2.0174215E1,4.1511014E2,9.178052E0,1.4605704E1,5.5685115E0,3.0355765E2,1.1155252E2,5.807097E0,3.3709552E0,1.3169282E1,1.4364216E0,3.691716E0,1.8767954E0],"tree_param":{"num_deleted":"0","num_feature":"9","num_nodes":"15","size_leaf_vector":"1"}},{"base_weights":[-1.7634096E-2,-5.720116E-1,6.5650106E-3,-8.069719E-1,1.4869267E-1,5.725694E-2,-1.7423663E-1,-1.02479815E-1,-2.3035856E-1,-8.009294E-2,1.5594184E-1,-2.1006942E-2,2.1825789E-2,-2.2265844E-1,-2.5095737E-2],"categories":[],"categories_nodes":[],"categories_segments":[],"categories_sizes":[],"default_left":[0,0,0,0,0,0,0,0,0,0,0,0,0,0,0],"id":21,"left_children":[1,3,5,7,9,11,13,-1,-1,-1,-1,-1,-1,-1,-1],"loss_changes":[5.751861E0,3.15657E0,3.7817907E0,7.9926014E-1,2.1326327E0,2.7236366E0,3.997787E0,0E0,0E0,0E0,0E0,0E0,0E0,0E0,0E0],"parents":[2147483647,0,0,1,1,2,2,3,3,4,4,5,5,6,6],"right_children":[2,4,6,8,10,12,14,-1,-1,-1,-1,-1,-1,-1,-1],"split_conditions":[-1.5666667E1,-7.692308E-2,7E0,-1.7E1,7E0,-3.0303996E0,-1.3E1,-1.02479815E-1,-2.3035856E-1,-8.009294E-2,1.5594184E-1,-2.1006942E-2,2.1825789E-2,-2.2265844E-1,-2.5095737E-2],"split_indices":[5,2,6,5,8,4,5,0,0,0,0,0,0,0,0],"split_type":[0,0,0,0,0,0,0,0,0,0,0,0,0,0,0],"sum_hessian":[4.2746942E2,1.6932184E1,4.1053723E2,1.2678957E1,4.2532268E0,3.2117242E2,8.9364815E1,8.178355E0,4.5006013E0,2.4694736E0,1.7837533E0,7.7542076E1,2.4363034E2,3.3333323E0,8.603148E1],"tree_param":{"num_deleted":"0","num_feature":"9","num_nodes":"15","size_leaf_vector":"1"}},{"base_weights":[3.635971E-3,9.244183E-1,-4.991485E-3,5.5173624E-2,2.1197791E-1,2.7436614E-1,-2.5863426E-2,-1.6170245E-1,6.935134E-2,-9.409307E-3,5.95451E-2],"categories":[],"categories_nodes":[],"categories_segments":[],"categories_sizes":[],"default_left":[0,0,0,0,0,0,0,0,0,0,0],"id":22,"left_children":[1,3,5,-1,-1,7,9,-1,-1,-1,-1],"loss_changes":[3.4909027E0,6.6005945E-2,2.5480056E0,0E0,0E0,2.661963E0,2.7997034E0,0E0,0E0,0E0,0E0],"parents":[2147483647,0,0,1,1,2,2,5,5,6,6],"right_children":[2,4,6,-1,-1,8,10,-1,-1,-1,-1],"split_conditions":[-1.3E1,-2.8E1,-1.1666667E1,5.5173624E-2,2.1197791E-1,2E0,1.72042E-1,-1.6170245E-1,6.935134E-2,-9.409307E-3,5.95451E-2],"split_indices":[7,7,6,0,0,8,1,0,0,0,0],"split_type":[0,0,0,0,0,0,0,0,0,0,0],"sum_hessian":[4.3785764E2,3.079166E0,4.3477847E2,1.0567031E0,2.0224626E0,2.9381437E1,4.0539703E2,1.20389E0,2.8177547E1,3.8129117E2,2.4105858E1],"tree_param":{"num_deleted":"0","num_feature":"9","num_nodes":"11","size_leaf_vector":"1"}},{"base_weights":[5.128958E-3,1.9678202E-1,-2.8051545E-3,-2.9391778E-1,5.829494E-3,-8.072085E-2,4.5640836E-3],"categories":[],"categories_nodes":[],"categories_segments":[],"categories_sizes":[],"default_left":[0,0,0,0,0,0,0],"id":23,"left_children":[1,-1,3,-1,5,-1,-1],"loss_changes":[3.4098957E0,0E0,5.533206E0,0E0,3.0329268E0,0E0,0E0],"parents":[2147483647,0,0,2,2,4,4],"right_children":[2,-1,4,-1,6,-1,-1],"split_conditions":[-2.0333334E1,1.9678202E-1,-1.9E1,-2.9391778E-1,-1.5666667E1,-8.072085E-2,4.5640836E-3],"split_indices":[6,0,6,0,5,0,0],"split_type":[0,0,0,0,0,0,0],"sum_hessian":[4.3773825E2,2.5307086E0,4.3520755E2,1.5567856E0,4.3365076E2,1.637221E1,4.1727856E2],"tree_param":{"num_deleted":"0","num_feature":"9","num_nodes":"7","size_leaf_vector":"1"}},{"base_weights":[2.5095383E-2,-2.7873686E-1,5.9839923E-2,1.1999278E-1,-6.2868196E-1,4.5051828E-1,3.4539286E-2,7.8065835E-2,-1.0919513E-1,-1.8622106E-1,5.3044755E-2,2.5183645E-1,3.0019376E-2,-8.832392E-2,1.0886855E-2],"categories":[],"categories_nodes":[],"categories_segments":[],"categories_sizes":[],"default_left":[0,0,0,0,0,0,0,0,0,0,0,0,0,0,0],"id":24,"left_children":[1,3,5,7,9,11,13,-1,-1,-1,-1,-1,-1,-1,-1],"loss_changes":[4.4943275E0,6.173575E0,3.754908E0,4.0420527E0,6.5826044E0,5.42725E0,3.4281137E0,0E0,0E0,0E0,0E0,0E0,0E0,0E0,0E0],"parents":[2147483647,0,0,1,1,2,2,3,3,4,4,5,5,6,6],"right_children":[2,4,6,8,10,12,14,-1,-1,-1,-1,-1,-1,-1,-1],"split_conditions":[-6.34525E-2,-8.722456E-2,-4.9787376E-2,4.6666665E0,2E-1,4E0,-4.434177E-2,7.8065835E-2,-1.0919513E-1,-1.8622106E-1,5.3044755E-2,2.5183645E-1,3.0019376E-2,-8.832392E-2,1.0886855E-2],"split_indices":[0,0,0,6,3,8,0,0,0,0,0,0,0,0,0],"split_type":[0,0,0,0,0,0,0,0,0,0,0,0,0,0,0],"sum_hessian":[4.231598E2,4.2703754E1,3.8045602E2,2.0267708E1,2.2436045E1,2.2117853E1,3.5833817E2,1.4710265E1,5.557443E0,1.673328E1,5.702765E0,5.1266713E0,1.6991182E1,1.3521536E1,3.4481665E2],"tree_param":{"num_deleted":"0","num_feature":"9","num_nodes":"15","size_leaf_vector":"1"}},{"base_weights":[2.6075726E-2,6.705456E-2,-1.388957E-1,5.037212E-2,6.418218E-1,-8.424665E-1,3.1496808E-2,6.1350495E-2,1.6517027E-3,-1.0964523E-2,2.200785E-1,-2.1450058E-1,1.14809826E-1,2.7422845E-2,-1.7882948E-1],"categories":[],"categories_nodes":[],"categories_segments":[],"categories_sizes":[],"default_left":[0,0,0,0,0,0,0,0,0,0,0,0,0,0,0],"id":25,"left_children":[1,3,5,7,9,11,13,-1,-1,-1,-1,-1,-1,-1,-1],"loss_changes":[2.8805802E0,3.23628E0,1.0196762E1,3.5859697E0,3.104762E0,6.016902E0,6.8936143E0,0E0,0E0,0E0,0E0,0E0,0E0,0E0,0E0],"parents":[2147483647,0,0,1,1,2,2,3,3,4,4,5,5,6,6],"right_children":[2,4,6,8,10,12,14,-1,-1,-1,-1,-1,-1,-1,-1],"split_conditions":[8.371894E-2,1.9E1,4E0,3E0,1E0,7.091475E-2,1.1E1,6.1350495E-2,1.6517027E-3,-1.0964523E-2,2.200785E-1,-2.1450058E-1,1.14809826E-1,2.7422845E-2,-1.7882948E-1],"split_indices":[1,8,8,8,7,0,6,0,0,0,0,0,0,0,0],"split_type":[0,0,0,0,0,0,0,0,0,0,0,0,0,0,0],"sum_hessian":[4.2372238E2,3.398879E2,8.3834465E1,3.3135797E2,8.5299225E0,1.5575817E1,6.825865E1,4.5863712E1,2.8549426E2,3.7355123E0,4.79441E0,1.3608681E1,1.9671366E0,6.2032516E1,6.226134E0],"tree_param":{"num_deleted":"0","num_feature":"9","num_nodes":"15","size_leaf_vector":"1"}},{"base_weights":[2.2570733E-2,1.869012E-1,1.6953016E-2,-2.380159E-1,3.672273E-2,-9.472376E-2,1.4193527E-1,6.4528614E-2,4.6192194E-4],"categories":[],"categories_nodes":[],"categories_segments":[],"categories_sizes":[],"default_left":[0,0,0,0,0,0,0,0,0],"id":26,"left_children":[1,-1,3,5,7,-1,-1,-1,-1],"loss_changes":[2.21279E0,0E0,2.1932657E0,7.328986E0,3.9651434E0,0E0,0E0,0E0,0E0],"parents":[2147483647,0,0,2,2,3,3,4,4],"right_children":[2,-1,4,6,8,-1,-1,-1,-1],"split_conditions":[-1.4E1,1.869012E-1,-5E-1,1.6E1,-1.0666667E1,-9.472376E-2,1.4193527E-1,6.4528614E-2,4.6192194E-4],"split_indices":[7,0,3,8,5,0,0,0,0],"split_type":[0,0,0,0,0,0,0,0,0],"sum_hessian":[4.3402545E2,1.6449661E0,4.323805E2,3.0318974E1,4.0206152E2,2.4682878E1,5.6360955E0,4.229331E1,3.5976822E2],"tree_param":{"num_deleted":"0","num_feature":"9","num_nodes":"9","size_leaf_vector":"1"}},{"base_weights":[-2.3085073E-2,-3.677937E-2,3.6671236E-1,1.5990147E-1,-6.770049E-2,5.9838176E-1,-2.556774E-1,6.360746E-2,-9.9374525E-2,-1.0577833E-1,-9.291277E-3,9.266379E-3,2.104738E-1],"categories":[],"categories_nodes":[],"categories_segments":[],"categories_sizes":[],"default_left":[0,0,0,0,0,0,0,0,0,0,0,0,0],"id":27,"left_children":[1,3,5,7,9,11,-1,-1,-1,-1,-1,-1,-1],"loss_changes":[2.3161836E0,2.550778E0,6.3795705E0,6.081882E0,3.5183258E0,3.3583555E0,0E0,0E0,0E0,0E0,0E0,0E0,0E0],"parents":[2147483647,0,0,1,1,2,2,3,3,4,4,5,5],"right_children":[2,4,6,8,10,12,-1,-1,-1,-1,-1,-1,-1],"split_conditions":[7.1960683E0,3E0,1.4333333E1,8.161472E-2,-5E-1,-2.6666667E0,-2.556774E-1,6.360746E-2,-9.9374525E-2,-1.0577833E-1,-9.291277E-3,9.266379E-3,2.104738E-1],"split_indices":[4,8,5,1,2,6,0,0,0,0,0,0,0],"split_type":[0,0,0,0,0,0,0,0,0,0,0,0,0],"sum_hessian":[4.3037796E2,4.1664606E2,1.3731894E1,5.6037224E1,3.6060883E2,1.2594543E1,1.1373495E0,4.5578697E1,1.0458526E1,1.4827197E1,3.4578165E2,6.1807675E0,6.413776E0],"tree_param":{"num_deleted":"0","num_feature":"9","num_nodes":"13","size_leaf_vector":"1"}},{"base_weights":[-1.8403934E-2,-2.6612747E-1,1.411792E-2,-9.343885E-2,-1.1219835E0,3.3844402E-1,-4.6302453E-3,2.133665E-1,-3.064449E-2,-2.5726852E-1,-3.6556263E-2,-1.3773793E-1,1.14572875E-1,-5.258369E-2,5.8100047E-3],"categories":[],"categories_nodes":[],"categories_segments":[],"categories_sizes":[],"default_left":[0,0,0,0,0,0,0,0,0,0,0,0,0,0,0],"id":28,"left_children":[1,3,5,7,9,11,13,-1,-1,-1,-1,-1,-1,-1,-1],"loss_changes":[3.492904E0,7.3307123E0,2.3351436E0,3.1429355E0,1.0547485E0,5.4475765E0,3.1723523E0,0E0,0E0,0E0,0E0,0E0,0E0,0E0,0E0],"parents":[2147483647,0,0,1,1,2,2,3,3,4,4,5,5,6,6],"right_children":[2,4,6,8,10,12,14,-1,-1,-1,-1,-1,-1,-1,-1],"split_conditions":[-1.613563E-1,2.6869508E-2,-1.3165498E-1,-1.3666667E1,4.3333335E0,-4.6503963E0,-8.4809385E-2,2.133665E-1,-3.064449E-2,-2.5726852E-1,-3.6556263E-2,-1.3773793E-1,1.14572875E-1,-5.258369E-2,5.8100047E-3],"split_indices":[1,0,1,6,6,4,1,0,0,0,0,0,0,0,0],"split_type":[0,0,0,0,0,0,0,0,0,0,0,0,0,0,0],"sum_hessian":[4.320885E2,4.9309334E1,3.8277917E2,4.1953438E1,7.355894E0,1.9986084E1,3.627931E2,1.2303368E0,4.0723103E1,5.94578E0,1.4101142E0,3.3537014E0,1.6632383E1,4.1065155E1,3.2172794E2],"tree_param":{"num_deleted":"0","num_feature":"9","num_nodes":"15","size_leaf_vector":"1"}},{"base_weights":[-2.5958258E-3,-1.22962646E-1,6.2453955E-2,-2.209136E-3,-4.7714218E-1,-2.1626E-2,3.2274577E-1,-6.1762717E-2,2.4147768E-2,-6.0541388E-3,-1.9344904E-1,6.241645E-4,-2.5310546E-1,4.0628944E-2,1.8166587E-1],"categories":[],"categories_nodes":[],"categories_segments":[],"categories_sizes":[],"default_left":[0,0,0,0,0,0,0,0,0,0,0,0,0,0,0],"id":29,"left_children":[1,3,5,7,9,11,13,-1,-1,-1,-1,-1,-1,-1,-1],"loss_changes":[3.3631716E0,6.4435453E0,6.110056E0,4.311232E0,8.360631E0,6.5211463E0,4.5884066E0,0E0,0E0,0E0,0E0,0E0,0E0,0E0,0E0],"parents":[2147483647,0,0,1,1,2,2,3,3,4,4,5,5,6,6],"right_children":[2,4,6,8,10,12,14,-1,-1,-1,-1,-1,-1,-1,-1],"split_conditions":[-2.6666667E0,-4.6666665E0,2.3137255E0,-2.954889E-2,-1.8678106E-1,2.1472282E0,1E0,-6.1762717E-2,2.4147768E-2,-6.0541388E-3,-1.9344904E-1,6.241645E-4,-2.5310546E-1,4.0628944E-2,1.8166587E-1],"split_indices":[6,6,4,0,4,4,7,0,0,0,0,0,0,0,0],"split_type":[0,0,0,0,0,0,0,0,0,0,0,0,0,0,0],"sum_hessian":[4.275521E2,1.4968594E2,2.7786618E2,1.1237812E2,3.7307816E1,2.107169E2,6.714926E1,3.1732557E1,8.064557E1,2.0069965E1,1.723785E1,2.075846E2,3.1323051E0,5.687905E1,1.027021E1],"tree_param":{"num_deleted":"0","num_feature":"9","num_nodes":"15","size_leaf_vector":"1"}},{"base_weights":[2.0333022E-2,-2.2184558E-2,3.1170803E-1,3.3146147E-2,-2.318296E-1,2.1555315E-1,1.2549813E0,3.513066E-2,-1.4718595E-2,-1.4187376E-1,-1.1060187E-2,-3.0320307E-2,9.4427906E-2,2.8516287E-1,7.804993E-2],"categories":[],"categories_nodes":[],"categories_segments":[],"categories_sizes":[],"default_left":[0,0,0,0,0,0,0,0,0,0,0,0,0,0,0],"id":30,"left_children":[1,3,5,7,9,11,13,-1,-1,-1,-1,-1,-1,-1,-1],"loss_changes":[5.2014275E0,4.262952E0,4.57829E0,4.4410744E0,6.428757E0,4.755692E0,1.4350176E-1,0E0,0E0,0E0,0E0,0E0,0E0,0E0,0E0],"parents":[2147483647,0,0,1,1,2,2,3,3,4,4,5,5,6,6],"right_children":[2,4,6,8,10,12,14,-1,-1,-1,-1,-1,-1,-1,-1],"split_conditions":[8.333333E0,2.970046E-2,1.3333333E1,-4E0,-2.0833333E-1,-4.92774E-4,4.808398E-2,3.513066E-2,-1.4718595E-2,-1.4187376E-1,-1.1060187E-2,-3.0320307E-2,9.4427906E-2,2.8516287E-1,7.804993E-2],"split_indices":[5,0,6,5,2,0,0,0,0,0,0,0,0,0,0],"split_type":[0,0,0,0,0,0,0,0,0,0,0,0,0,0,0],"sum_hessian":[4.1829913E2,3.6583954E2,5.245961E1,2.9011313E2,7.57264E1,4.8721573E1,3.7380385E0,1.2396376E2,1.6614937E2,1.9623407E1,5.6102993E1,2.0210752E1,2.851082E1,2.579576E0,1.1584625E0],"tree_param":{"num_deleted":"0","num_feature":"9","num_nodes":"15","size_leaf_vector":"1"}},{"base_weights":[3.0148923E-2,1.4051576E-1,-2.443469E-2,1.6864043E-1,-2.5703403E-1,-5.525205E-1,2.2829205E-2,4.2464802E-4,6.3197955E-2,2.9806528E-2,-1.9027968E-1,-2.8558804E-3,9.393022E-2],"categories":[],"categories_nodes":[],"categories_segments":[],"categories_sizes":[],"default_left":[0,0,0,0,0,0,0,0,0,0,0,0,0],"id":31,"left_children":[1,3,5,7,-1,9,11,-1,-1,-1,-1,-1,-1],"loss_changes":[2.57384E0,5.884034E0,7.159453E0,3.421877E0,0E0,6.7351985E0,4.380373E0,0E0,0E0,0E0,0E0,0E0,0E0],"parents":[2147483647,0,0,1,1,2,2,3,3,5,5,6,6],"right_children":[2,4,6,8,-1,10,12,-1,-1,-1,-1,-1,-1],"split_conditions":[-2.1439736E0,2.4159853E-1,-1.634375E0,1.3333334E0,-2.5703403E-1,-7.692308E-2,1.72042E-1,4.2464802E-4,6.3197955E-2,2.9806528E-2,-1.9027968E-1,-2.8558804E-3,9.393022E-2],"split_indices":[4,1,4,6,0,2,1,0,0,0,0,0,0],"split_type":[0,0,0,0,0,0,0,0,0,0,0,0,0],"sum_hessian":[4.2567868E2,1.4034001E2,2.8533865E2,1.3848972E2,1.8502896E0,2.2561861E1,2.627768E2,6.54923E1,7.299742E1,8.405135E0,1.4156725E1,2.4352045E2,1.9256357E1],"tree_param":{"num_deleted":"0","num_feature":"9","num_nodes":"13","size_leaf_vector":"1"}},{"base_weights":[-3.5577334E-2,1.0730255E-1,-7.709468E-2,9.7479374E-4,6.1454594E-1,-2.2500692E-1,-2.3226235E-2,-1.8488083E-2,1.0339885E-1,2.2300708E-1,-1.6474459E-1,1.0209779E-1,-5.3141564E-2,2.3525575E-1,-8.625754E-3],"categories":[],"categories_nodes":[],"categories_segments":[],"categories_sizes":[],"default_left":[0,0,0,0,0,0,0,0,0,0,0,0,0,0,0],"id":32,"left_children":[1,3,5,7,9,11,13,-1,-1,-1,-1,-1,-1,-1,-1],"loss_changes":[2.5415416E0,5.207787E0,2.6359596E0,3.9444277E0,1.2963725E1,2.7813005E0,5.8782506E0,0E0,0E0,0E0,0E0,0E0,0E0,0E0,0E0],"parents":[2147483647,0,0,1,1,2,2,3,3,4,4,5,5,6,6],"right_children":[2,4,6,8,10,12,14,-1,-1,-1,-1,-1,-1,-1,-1],"split_conditions":[-3.5336854E0,-4.0702596E0,-7.686752E-2,9.666667E0,-1.8700086E-2,-6E-1,-7.340713E-2,-1.8488083E-2,1.0339885E-1,2.2300708E-1,-1.6474459E-1,1.0209779E-1,-5.3141564E-2,2.3525575E-1,-8.625754E-3],"split_indices":[4,4,1,6,0,2,1,0,0,0,0,0,0,0,0],"split_type":[0,0,0,0,0,0,0,0,0,0,0,0,0,0,0],"sum_hessian":[4.2605182E2,9.5569534E1,3.304823E2,7.983627E1,1.5733263E1,8.737917E1,2.4310312E2,6.829387E1,1.1542407E1,1.1838451E1,3.8948119E0,3.9765964E0,8.340257E1,3.0194929E0,2.4008363E2],"tree_param":{"num_deleted":"0","num_feature":"9","num_nodes":"15","size_leaf_vector":"1"}},{"base_weights":[5.2346487E-2,9.117281E-2,-1.4712727E-1,7.152125E-2,5.0172025E-1,-5.5551454E-2,-1.0322981E0,1.9251565E-2,-6.417308E-2,-2.7573043E-2,1.5503176E-1,-2.5348032E-2,1.5488064E-1,-3.096716E-1,-1.4783866E-2],"categories":[],"categories_nodes":[],"categories_segments":[],"categories_sizes":[],"default_left":[0,0,0,0,0,0,0,0,0,0,0,0,0,0,0],"id":33,"left_children":[1,3,5,7,9,11,13,-1,-1,-1,-1,-1,-1,-1,-1],"loss_changes":[3.3221085E0,2.854235E0,5.6159472E0,3.360409E0,2.9396057E0,3.90806E0,3.1027813E0,0E0,0E0,0E0,0E0,0E0,0E0,0E0,0E0],"parents":[2147483647,0,0,1,1,2,2,3,3,4,4,5,5,6,6],"right_children":[2,4,6,8,10,12,14,-1,-1,-1,-1,-1,-1,-1,-1],"split_conditions":[1.6E1,1.9506927E-1,6.622945E-2,1.4066854E-1,-1.5119512E0,4E0,1.1111111E-1,1.9251565E-2,-6.417308E-2,-2.7573043E-2,1.5503176E-1,-2.5348032E-2,1.5488064E-1,-3.096716E-1,-1.4783866E-2],"split_indices":[8,1,0,1,4,7,2,0,0,0,0,0,0,0,0],"split_type":[0,0,0,0,0,0,0,0,0,0,0,0,0,0,0],"sum_hessian":[4.262132E2,3.5722458E2,6.89886E1,3.420271E2,1.5197503E1,6.3483627E1,5.5049744E0,3.2245386E2,1.9573229E1,4.6999383E0,1.0497564E1,5.9248894E1,4.234734E0,3.1780713E0,2.326903E0],"tree_param":{"num_deleted":"0","num_feature":"9","num_nodes":"15","size_leaf_vector":"1"}},{"base_weights":[3.0826633E-3,-8.343095E-3,7.085125E-1,-1.1109249E-1,5.630179E-2,1.5182243E-1,1.9957729E-1,-1.5823459E-3,-7.6191105E-2,-3.197655E-2,2.1347357E-2,1.007821E-1,-6.095186E-2],"categories":[],"categories_nodes":[],"categories_segments":[],"categories_sizes":[],"default_left":[0,0,0,0,0,0,0,0,0,0,0,0,0],"id":34,"left_children":[1,3,5,7,9,11,-1,-1,-1,-1,-1,-1,-1],"loss_changes":[3.4386322E0,2.7966018E0,9.438915E-1,4.5236673E0,2.835814E0,7.170476E-1,0E0,0E0,0E0,0E0,0E0,0E0,0E0],"parents":[2147483647,0,0,1,1,2,2,3,3,4,4,5,5],"right_children":[2,4,6,8,10,12,-1,-1,-1,-1,-1,-1,-1],"split_conditions":[9.005593E0,-3.3333333E0,8.852191E-2,-2.5108358E-2,0E0,-3.0977318E-2,1.9957729E-1,-1.5823459E-3,-7.6191105E-2,-3.197655E-2,2.1347357E-2,1.007821E-1,-6.095186E-2],"split_indices":[4,5,0,1,7,1,0,0,0,0,0,0,0],"split_type":[0,0,0,0,0,0,0,0,0,0,0,0,0],"sum_hessian":[4.2489218E2,4.1909235E2,5.7998133E0,1.6156903E2,2.5752335E2,2.505143E0,3.2946703E0,1.17625015E2,4.394401E1,4.8303814E1,2.0921953E2,1.355898E0,1.1492449E0],"tree_param":{"num_deleted":"0","num_feature":"9","num_nodes":"13","size_leaf_vector":"1"}},{"base_weights":[-6.812242E-2,-2.0097223E-1,-2.578121E-3,-1.5243702E-1,-9.0095073E-1,2.0726846E-1,-9.881723E-2,-4.16362E-2,7.704841E-2,-2.416218E-1,-6.89186E-2,-2.0226805E-1,5.2793305E-2,1.508354E-1,-2.3480337E-2],"categories":[],"categories_nodes":[],"categories_segments":[],"categories_sizes":[],"default_left":[0,0,0,0,0,0,0,0,0,0,0,0,0,0,0],"id":35,"left_children":[1,3,5,7,9,11,13,-1,-1,-1,-1,-1,-1,-1,-1],"loss_changes":[3.708847E0,4.6435795E0,5.801827E0,4.060629E0,1.1082406E0,6.5082073E0,3.2104921E0,0E0,0E0,0E0,0E0,0E0,0E0,0E0,0E0],"parents":[2147483647,0,0,1,1,2,2,3,3,4,4,5,5,6,6],"right_children":[2,4,6,8,10,12,14,-1,-1,-1,-1,-1,-1,-1,-1],"split_conditions":[-2.2080947E-2,-2.479136E-2,-4.273243E-1,8.2193755E-2,1E0,-1.4333333E1,-2.5667498E-1,-4.16362E-2,7.704841E-2,-2.416218E-1,-6.89186E-2,-2.0226805E-1,5.2793305E-2,1.508354E-1,-2.3480337E-2],"split_indices":[0,0,4,4,5,6,1,0,0,0,0,0,0,0,0],"split_type":[0,0,0,0,0,0,0,0,0,0,0,0,0,0,0],"sum_hessian":[4.2499423E2,1.397245E2,2.852697E2,1.3180328E2,7.921221E0,8.9331436E1,1.959383E2,1.19977425E2,1.1825866E1,4.3488264E0,3.5723946E0,3.2229707E0,8.610847E1,3.3339653E0,1.9260432E2],"tree_param":{"num_deleted":"0","num_feature":"9","num_nodes":"15","size_leaf_vector":"1"}},{"base_weights":[-2.8164893E-2,3.687892E-1,-5.62912E-2,2.31642E-1,2.540708E-1,3.40808E-1,-7.426359E-2,-6.0944866E-2,1.1286811E-1,-4.9613763E-2,1.4672576E-1,-9.442621E-2,-8.6204205E-3],"categories":[],"categories_nodes":[],"categories_segments":[],"categories_sizes":[],"default_left":[0,0,0,0,0,0,0,0,0,0,0,0,0],"id":36,"left_children":[1,3,5,-1,7,9,11,-1,-1,-1,-1,-1,-1],"loss_changes":[4.813422E0,2.2899394E0,2.8923683E0,0E0,4.7137394E0,4.2471514E0,4.7548475E0,0E0,0E0,0E0,0E0,0E0,0E0],"parents":[2147483647,0,0,1,1,2,2,4,4,5,5,6,6],"right_children":[2,4,6,-1,8,10,12,-1,-1,-1,-1,-1,-1],"split_conditions":[-1.1666667E1,-5.908328E0,-8.722456E-2,2.31642E-1,-9.892124E-1,-1.3333334E0,-5.6850157E0,-6.0944866E-2,1.1286811E-1,-4.9613763E-2,1.4672576E-1,-9.442621E-2,-8.6204205E-3],"split_indices":[6,4,0,0,4,6,4,0,0,0,0,0,0],"split_type":[0,0,0,0,0,0,0,0,0,0,0,0,0],"sum_hessian":[4.2826337E2,2.7535505E1,4.0072784E2,2.3396163E0,2.5195889E1,1.6573524E1,3.8415433E2,9.001707E0,1.6194181E1,6.7792535E0,9.794271E0,2.6874296E1,3.5728003E2],"tree_param":{"num_deleted":"0","num_feature":"9","num_nodes":"13","size_leaf_vector":"1"}},{"base_weights":[2.7197547E-2,-3.4831003E-3,2.5467172E-1,6.1341304E-1,-1.55290365E-2,-1.7325416E-2,8.972127E-1,-1.5085787E-2,1.9737606E-1,7.48661E-3,-3.7899178E-2,9.708151E-2,-4.9955312E-2,1.992583E-1,-8.820799E-3],"categories":[],"categories_nodes":[],"categories_segments":[],"categories_sizes":[],"default_left":[0,0,0,0,0,0,0,0,0,0,0,0,0,0,0],"id":37,"left_children":[1,3,5,7,9,11,13,-1,-1,-1,-1,-1,-1,-1,-1],"loss_changes":[2.9499223E0,2.7837198E0,8.794633E0,1.9202344E0,3.3898637E0,4.36021E0,1.4390669E0,0E0,0E0,0E0,0E0,0E0,0E0,0E0,0E0],"parents":[2147483647,0,0,1,1,2,2,3,3,4,4,5,5,6,6],"right_children":[2,4,6,8,10,12,14,-1,-1,-1,-1,-1,-1,-1,-1],"split_conditions":[3E0,-7E0,7.692308E-2,-2.6984128E-1,2.8492773E-2,-3.143294E0,7E0,-1.5085787E-2,1.9737606E-1,7.48661E-3,-3.7899178E-2,9.708151E-2,-4.9955312E-2,1.992583E-1,-8.820799E-3],"split_indices":[7,7,2,4,0,4,6,0,0,0,0,0,0,0,0],"split_type":[0,0,0,0,0,0,0,0,0,0,0,0,0,0,0],"sum_hessian":[4.2155502E2,3.723226E2,4.9232433E1,6.1748247E0,3.6614777E2,3.527362E1,1.3958813E1,2.4513893E0,3.7234356E0,2.812956E2,8.485219E1,1.0808772E1,2.446485E1,1.2576649E1,1.3821642E0],"tree_param":{"num_deleted":"0","num_feature":"9","num_nodes":"15","size_leaf_vector":"1"}},{"base_weights":[3.9482668E-2,5.3558376E-2,-4.4597033E-1,4.3756485E-2,9.6942675E-1,-5.6174655E-2,-8.808299E-1,1.1412494E-2,-1.1605749E-1,5.5764746E-2,2.4259153E-1,-1.2845854E-1,2.2322749E-1,5.34741E-2,-2.7926937E-1],"categories":[],"categories_nodes":[],"categories_segments":[],"categories_sizes":[],"default_left":[0,0,0,0,0,0,0,0,0,0,0,0,0,0,0],"id":38,"left_children":[1,3,5,7,9,11,13,-1,-1,-1,-1,-1,-1,-1,-1],"loss_changes":[2.899352E0,3.6369019E0,1.9786508E0,3.408967E0,3.8374472E-1,5.786064E0,3.6806326E0,0E0,0E0,0E0,0E0,0E0,0E0,0E0,0E0],"parents":[2147483647,0,0,1,1,2,2,3,3,4,4,5,5,6,6],"right_children":[2,4,6,8,10,12,14,-1,-1,-1,-1,-1,-1,-1,-1],"split_conditions":[1.7E1,1.6E1,1.1E1,1.4333333E1,-1.3657408E0,2.3049481E-2,-5E-1,1.1412494E-2,-1.1605749E-1,5.5764746E-2,2.4259153E-1,-1.2845854E-1,2.2322749E-1,5.34741E-2,-2.7926937E-1],"split_indices":[6,6,8,6,4,1,3,0,0,0,0,0,0,0,0],"split_type":[0,0,0,0,0,0,0,0,0,0,0,0,0,0,0],"sum_hessian":[4.198147E2,4.0884976E2,1.0964926E1,4.0555713E2,3.292615E0,6.3774977E0,4.5874276E0,3.979799E2,7.5772424E0,1.4175785E0,1.8750366E0,4.553173E0,1.8243246E0,1.570605E0,3.0168226E0],"tree_param":{"num_deleted":"0","num_feature":"9","num_nodes":"15","size_leaf_vector":"1"}},{"base_weights":[-1.6182609E-2,-3.373511E-1,6.5616253E-3,-8.176577E-1,7.195501E-2,1.5456519E-2,-7.31007E-1,-1.1723864E-2,-2.0427473E-1,5.9514392E-2,-1.558988E-1,-5.7518255E-2,7.392052E-3,-2.264481E-1,4.87871E-2],"categories":[],"categories_nodes":[],"categories_segments":[],"categories_sizes":[],"default_left":[0,0,0,0,0,0,0,0,0,0,0,0,0,0,0],"id":39,"left_children":[1,3,5,7,9,11,13,-1,-1,-1,-1,-1,-1,-1,-1],"loss_changes":[3.0294056E0,5.4505606E0,2.5567396E0,1.9038134E0,3.2530386E0,2.5152779E0,2.0928335E0,0E0,0E0,0E0,0E0,0E0,0E0,0E0,0E0],"parents":[2147483647,0,0,1,1,2,2,3,3,4,4,5,5,6,6],"right_children":[2,4,6,8,10,12,14,-1,-1,-1,-1,-1,-1,-1,-1],"split_conditions":[-2.1054278E-1,1E0,2.8912622E-1,-2.7278277E-1,1E0,2E0,5E-1,-1.1723864E-2,-2.0427473E-1,5.9514392E-2,-1.558988E-1,-5.7518255E-2,7.392052E-3,-2.264481E-1,4.87871E-2],"split_indices":[1,6,1,1,7,8,2,0,0,0,0,0,0,0,0],"split_type":[0,0,0,0,0,0,0,0,0,0,0,0,0,0,0],"sum_hessian":[4.1341522E2,2.6425907E1,3.8698932E2,1.1699398E1,1.4726508E1,3.833453E2,3.6440048E0,2.7480416E0,8.951357E0,1.2155939E1,2.5705695E0,2.4579365E1,3.5876596E2,2.4672694E0,1.1767354E0],"tree_param":{"num_deleted":"0","num_feature":"9","num_nodes":"15","size_leaf_vector":"1"}},{"base_weights":[-1.1842842E-3,-1.586776E-2,5.764651E-1,-4.6881836E-2,1.7308609E-1,9.0135014E-1,-9.251074E-2,-1.9701382E-2,1.0114969E-2,7.571499E-2,-3.9411467E-2,2.0563427E-1,1.2555626E-2,-1.8267173E-1,1.5904707E-1],"categories":[],"categories_nodes":[],"categories_segments":[],"categories_sizes":[],"default_left":[0,0,0,0,0,0,0,0,0,0,0,0,0,0,0],"id":40,"left_children":[1,3,5,7,9,11,13,-1,-1,-1,-1,-1,-1,-1,-1],"loss_changes":[3.6525562E0,2.468684E0,2.4034982E0,1.8235779E0,4.5935717E0,7.095156E-1,3.9300828E0,0E0,0E0,0E0,0E0,0E0,0E0,0E0,0E0],"parents":[2147483647,0,0,1,1,2,2,3,3,4,4,5,5,6,6],"right_children":[2,4,6,8,10,12,14,-1,-1,-1,-1,-1,-1,-1,-1],"split_conditions":[9.114821E-2,2.2619048E-1,1.0827267E-1,9.789897E-1,1.6125739E-2,1.4588664E-1,7.956853E-3,-1.9701382E-2,1.0114969E-2,7.571499E-2,-3.9411467E-2,2.0563427E-1,1.2555626E-2,-1.8267173E-1,1.5904707E-1],"split_indices":[0,2,0,4,0,1,1,0,0,0,0,0,0,0,0],"split_type":[0,0,0,0,0,0,0,0,0,0,0,0,0,0,0],"sum_hessian":[4.2855103E2,4.1887598E2,9.675029E0,3.60463E2,5.8412968E1,6.2785306E0,3.396498E0,2.3563231E2,1.248307E2,3.7546097E1,2.0866873E1,5.2573404E0,1.0211903E0,1.7497518E0,1.6467463E0],"tree_param":{"num_deleted":"0","num_feature":"9","num_nodes":"15","size_leaf_vector":"1"}},{"base_weights":[1.9303649E-3,1.9833994E-1,-4.6189195E-3,1.8710113E-1,-1.0824028E-2,-7.80488E-2,4.3817438E-4],"categories":[],"categories_nodes":[],"categories_segments":[],"categories_sizes":[],"default_left":[0,0,0,0,0,0,0],"id":41,"left_children":[1,-1,3,-1,5,-1,-1],"loss_changes":[2.7843492E0,0E0,2.5010757E0,0E0,2.1004958E0,0E0,0E0],"parents":[2147483647,0,0,2,2,4,4],"right_children":[2,-1,4,-1,6,-1,-1],"split_conditions":[-1.270348E-1,1.9833994E-1,-1.4E1,1.8710113E-1,-1.6E1,-7.80488E-2,4.3817438E-4],"split_indices":[0,0,7,0,5,0,0],"split_type":[0,0,0,0,0,0,0],"sum_hessian":[4.2782574E2,1.8235149E0,4.2600223E2,1.811303E0,4.2419092E2,1.310682E1,4.110841E2],"tree_param":{"num_deleted":"0","num_feature":"9","num_nodes":"7","size_leaf_vector":"1"}},{"base_weights":[-3.744817E-2,1.5805192E-1,-6.679935E-2,6.226438E-1,1.3505724E-2,1.7152393E-1,-7.4685864E-2,-1.403714E-1,1.9744572E-1,1.3520204E-1,-3.9798416E-2,-1.3544312E-1,-1.2641989E-2],"categories":[],"categories_nodes":[],"categories_segments":[],"categories_sizes":[],"default_left":[0,0,0,0,0,0,0,0,0,0,0,0,0],"id":42,"left_children":[1,3,5,7,9,-1,11,-1,-1,-1,-1,-1,-1],"loss_changes":[2.3907273E0,3.6477087E0,2.698483E0,6.920733E0,6.1241827E0,0E0,2.441029E0,0E0,0E0,0E0,0E0,0E0,0E0],"parents":[2147483647,0,0,1,1,2,2,3,3,4,4,6,6],"right_children":[2,4,6,8,10,-1,12,-1,-1,-1,-1,-1,-1],"split_conditions":[-1E0,-2.6666668E-1,-2E1,-4.062902E-2,-3.4454435E-2,1.7152393E-1,-1.8666666E1,-1.403714E-1,1.9744572E-1,1.3520204E-1,-3.9798416E-2,-1.3544312E-1,-1.2641989E-2],"split_indices":[7,3,6,0,0,0,5,0,0,0,0,0,0],"split_type":[0,0,0,0,0,0,0,0,0,0,0,0,0],"sum_hessian":[4.1379678E2,5.3442978E1,3.6035382E2,1.1896944E1,4.1546036E1,2.136857E0,3.5821695E2,2.368247E0,9.528697E0,9.559894E0,3.1986141E1,5.6109104E0,3.5260605E2],"tree_param":{"num_deleted":"0","num_feature":"9","num_nodes":"13","size_leaf_vector":"1"}},{"base_weights":[-1.2350838E-2,-2.0762772E-4,-6.082748E-1,1.3662924E-1,-3.753039E-2,3.0878854E-1,-1.1308712E0,5.6923617E-2,-7.11368E-2,-1.1865578E-2,6.1573055E-2,-5.930605E-2,1.4616024E-1,-3.6706135E-1,7.739102E-2],"categories":[],"categories_nodes":[],"categories_segments":[],"categories_sizes":[],"default_left":[0,0,0,0,0,0,0,0,0,0,0,0,0,0,0],"id":43,"left_children":[1,3,5,7,9,11,13,-1,-1,-1,-1,-1,-1,-1,-1],"loss_changes":[3.0574243E0,2.125018E0,4.3929033E0,6.597803E0,2.4795334E0,1.1997674E0,6.686184E0,0E0,0E0,0E0,0E0,0E0,0E0,0E0,0E0],"parents":[2147483647,0,0,1,1,2,2,3,3,4,4,5,5,6,6],"right_children":[2,4,6,8,10,12,14,-1,-1,-1,-1,-1,-1,-1,-1],"split_conditions":[1.6666666E1,-7.3333335E0,7.1428575E-2,6.3333335E0,1.72042E-1,9.248891E-3,2.1E1,5.6923617E-2,-7.11368E-2,-1.1865578E-2,6.1573055E-2,-5.930605E-2,1.4616024E-1,-3.6706135E-1,7.739102E-2],"split_indices":[5,5,2,6,1,0,5,0,0,0,0,0,0,0,0],"split_type":[0,0,0,0,0,0,0,0,0,0,0,0,0,0,0],"sum_hessian":[4.215219E2,4.140844E2,7.4374967E0,8.816893E1,3.259155E2,2.8483233E0,4.5891733E0,6.8115395E1,2.005354E1,3.073474E2,1.8568087E1,1.2921935E0,1.5561298E0,2.9915862E0,1.5975872E0],"tree_param":{"num_deleted":"0","num_feature":"9","num_nodes":"15","size_leaf_vector":"1"}},{"base_weights":[1.8936167E-2,1.0582191E-2,7.436305E-1,5.2845515E-2,-1.1383242E-1,1.7022678E-1,4.3859284E-2,1.2213084E-2,-1.8481408E-1,-2.5282428E-1,-1.36136515E-2],"categories":[],"categories_nodes":[],"categories_segments":[],"categories_sizes":[],"default_left":[0,0,0,0,0,0,0,0,0,0,0],"id":44,"left_children":[1,3,5,7,9,-1,-1,-1,-1,-1,-1],"loss_changes":[2.5643563E0,2.2199552E0,8.546591E-2,2.5856717E0,5.550805E0,0E0,0E0,0E0,0E0,0E0,0E0],"parents":[2147483647,0,0,1,1,2,2,3,3,4,4],"right_children":[2,4,6,8,10,-1,-1,-1,-1,-1,-1],"split_conditions":[1.9666666E1,2.2692578E0,3.240659E-1,1.7E1,2.3719783E0,1.7022678E-1,4.3859284E-2,1.2213084E-2,-1.8481408E-1,-2.5282428E-1,-1.36136515E-2],"split_indices":[5,4,1,5,4,0,0,0,0,0,0],"split_type":[0,0,0,0,0,0,0,0,0,0,0],"sum_hessian":[4.2387473E2,4.200472E2,3.8275278E0,3.1396826E2,1.0607896E2,2.6590755E0,1.1684523E0,3.122782E2,1.6900591E0,3.0402136E0,1.0303875E2],"tree_param":{"num_deleted":"0","num_feature":"9","num_nodes":"11","size_leaf_vector":"1"}},{"base_weights":[2.5085516E-2,3.1799946E-2,-6.0065985E-1,4.1096326E-2,-4.666545E-1,-2.1564011E-1,1.8643646E-2,5.6313495E-3,9.933132E-2,-1.6156171E-1,1.3299549E-1],"categories":[],"categories_nodes":[],"categories_segments":[],"categories_sizes":[],"default_left":[0,0,0,0,0,0,0,0,0,0,0],"id":45,"left_children":[1,3,5,7,9,-1,-1,-1,-1,-1,-1],"loss_changes":[1.8119073E0,1.9798565E0,1.618223E0,2.4399776E0,3.5592122E0,0E0,0E0,0E0,0E0,0E0,0E0],"parents":[2147483647,0,0,1,1,2,2,3,3,4,4],"right_children":[2,4,6,8,10,-1,-1,-1,-1,-1,-1],"split_conditions":[1.0827267E-1,1.7E1,-2.6666667E0,7.1960683E0,2.2E1,-2.1564011E-1,1.8643646E-2,5.6313495E-3,9.933132E-2,-1.6156171E-1,1.3299549E-1],"split_indices":[0,5,6,4,5,0,0,0,0,0,0],"split_type":[0,0,0,0,0,0,0,0,0,0,0],"sum_hessian":[4.2570377E2,4.2212344E2,3.5803277E0,4.1529556E2,6.8278804E0,1.792688E0,1.7876397E0,4.048579E2,1.0437641E1,5.4661517E0,1.361729E0],"tree_param":{"num_deleted":"0","num_feature":"9","num_nodes":"11","size_leaf_vector":"1"}},{"base_weights":[2.639456E-3,-1.0442926E-1,7.397131E-2,-1.4146361E-1,3.2784826E-1,1.9185849E-1,-1.2012393E-1,-6.367083E-2,-6.5586204E-3,-1.6041367E-1,1.20700836E-1,1.1707784E-1,2.3096345E-2,-3.369207E-1,-1.6584763E-2],"categories":[],"categories_nodes":[],"categories_segments":[],"categories_sizes":[],"default_left":[0,0,0,0,0,0,0,0,0,0,0,0,0,0,0],"id":46,"left_children":[1,3,5,7,9,11,13,-1,-1,-1,-1,-1,-1,-1,-1],"loss_changes":[3.2956772E0,2.80873E0,5.9483433E0,3.058114E0,4.8189383E0,4.7862883E0,5.590907E0,0E0,0E0,0E0,0E0,0E0,0E0,0E0,0E0],"parents":[2147483647,0,0,1,1,2,2,3,3,4,4,5,5,6,6],"right_children":[2,4,6,8,10,12,14,-1,-1,-1,-1,-1,-1,-1,-1],"split_conditions":[-1.4333135E0,2.7924215E-3,2.7705733E-2,-1.3333334E0,-1.2323532E-1,-7.3656714E-1,-8.671916E-1,-6.367083E-2,-6.5586204E-3,-1.6041367E-1,1.20700836E-1,1.1707784E-1,2.3096345E-2,-3.369207E-1,-1.6584763E-2],"split_indices":[4,0,0,6,1,4,4,0,0,0,0,0,0,0,0],"split_type":[0,0,0,0,0,0,0,0,0,0,0,0,0,0,0],"sum_hessian":[4.2950623E2,1.7154866E2,2.5795758E2,1.5863107E2,1.2917591E1,1.6049165E2,9.746593E1,5.9632904E1,9.899816E1,2.1588342E0,1.0758757E1,2.500241E1,1.3548924E2,1.2351661E0,9.623076E1],"tree_param":{"num_deleted":"0","num_feature":"9","num_nodes":"15","size_leaf_vector":"1"}},{"base_weights":[-2.1307655E-2,1.8178084E-1,-2.8466973E-2,8.871272E-2,-7.05388E-2,9.02263E-3,1.9081342E-1,-2.185086E-2,3.6613334E-2],"categories":[],"categories_nodes":[],"categories_segments":[],"categories_sizes":[],"default_left":[0,0,0,0,0,0,0,0,0],"id":47,"left_children":[1,-1,3,5,7,-1,-1,-1,-1],"loss_changes":[2.8147063E0,0E0,2.0597587E0,4.1254587E0,3.0347564E0,0E0,0E0,0E0,0E0],"parents":[2147483647,0,0,2,2,3,3,4,4],"right_children":[2,-1,4,6,8,-1,-1,-1,-1],"split_conditions":[-1.3E1,1.8178084E-1,-6E0,1.8E1,2E0,9.02263E-3,1.9081342E-1,-2.185086E-2,3.6613334E-2],"split_indices":[7,0,5,8,7,0,0,0,0],"split_type":[0,0,0,0,0,0,0,0,0],"sum_hessian":[4.177635E2,2.228741E0,4.1553473E2,1.0948506E2,3.0604968E2,1.05235085E2,4.249978E0,2.6600974E2,4.0039944E1],"tree_param":{"num_deleted":"0","num_feature":"9","num_nodes":"9","size_leaf_vector":"1"}},{"base_weights":[-2.5090743E-2,5.987123E-2,-7.2533704E-2,-2.8589943E-2,5.6285685E-1,-7.863702E-1,-3.071176E-2,6.272912E-2,-2.5397984E-2,2.648049E-1,6.404562E-2,8.503141E-2,-2.183158E-1,-3.3341856E-3,-1.5056722E-1],"categories":[],"categories_nodes":[],"categories_segments":[],"categories_sizes":[],"default_left":[0,0,0,0,0,0,0,0,0,0,0,0,0,0,0],"id":48,"left_children":[1,3,5,7,9,11,13,-1,-1,-1,-1,-1,-1,-1,-1],"loss_changes":[1.7067846E0,6.7741365E0,8.080294E0,4.4217134E0,3.7803278E0,6.0046406E0,2.5981503E0,0E0,0E0,0E0,0E0,0E0,0E0,0E0,0E0],"parents":[2147483647,0,0,1,1,2,2,3,3,4,4,5,5,6,6],"right_children":[2,4,6,8,10,12,14,-1,-1,-1,-1,-1,-1,-1,-1],"split_conditions":[-4E0,2E-1,-3.3333333E0,0E0,-3.8290384E0,-3E-1,2E1,6.272912E-2,-2.5397984E-2,2.648049E-1,6.404562E-2,8.503141E-2,-2.183158E-1,-3.3341856E-3,-1.5056722E-1],"split_indices":[5,3,5,7,4,3,8,0,0,0,0,0,0,0,0],"split_type":[0,0,0,0,0,0,0,0,0,0,0,0,0,0,0],"sum_hessian":[4.213533E2,1.5088426E2,2.7046902E2,1.2911899E2,2.1765278E1,1.3983823E1,2.5648523E2,2.8345558E1,1.0077344E2,4.1836042E0,1.7581673E1,2.7348442E0,1.1248979E1,2.5259686E2,3.8883543E0],"tree_param":{"num_deleted":"0","num_feature":"9","num_nodes":"15","size_leaf_vector":"1"}},{"base_weights":[-3.9669583E-3,-2.0964698E-1,2.4782417E-2,-3.0650017E-1,1.0102174E0,2.6326483E-1,-2.1539625E-2,4.8510786E-2,-8.5558854E-2,-3.773079E-3,2.8753766E-1,-2.9120857E-2,9.129328E-2,-6.163118E-2,-8.4339234E-4],"categories":[],"categories_nodes":[],"categories_segments":[],"categories_sizes":[],"default_left":[0,0,0,0,0,0,0,0,0,0,0,0,0,0,0],"id":49,"left_children":[1,3,5,7,9,11,13,-1,-1,-1,-1,-1,-1,-1,-1],"loss_changes":[2.5031059E0,6.4427786E0,4.109856E0,3.3576717E0,1.8092384E0,4.84574E0,1.5478617E0,0E0,0E0,0E0,0E0,0E0,0E0,0E0,0E0],"parents":[2147483647,0,0,1,1,2,2,3,3,4,4,5,5,6,6],"right_children":[2,4,6,8,10,12,14,-1,-1,-1,-1,-1,-1,-1,-1],"split_conditions":[-5.0869613E0,3.977647E-5,-3.568812E-2,0E0,-1.5555556E-1,-6.200062E-2,-2.954889E-2,4.8510786E-2,-8.5558854E-2,-3.773079E-3,2.8753766E-1,-2.9120857E-2,9.129328E-2,-6.163118E-2,-8.4339234E-4],"split_indices":[4,0,0,7,2,0,0,0,0,0,0,0,0,0,0],"split_type":[0,0,0,0,0,0,0,0,0,0,0,0,0,0,0],"sum_hessian":[4.2143146E2,5.091082E1,3.7052066E2,4.7859665E1,3.0511558E0,5.9501633E1,3.11019E2,8.47893E0,3.9380733E1,1.1759852E0,1.8751706E0,1.9172844E1,4.032879E1,1.6769302E1,2.942497E2],"tree_param":{"num_deleted":"0","num_feature":"9","num_nodes":"15","size_leaf_vector":"1"}},{"base_weights":[5.743664E-3,3.0675797E-2,-4.0497112E-1,4.9070916E-1,7.800639E-3,3.4757227E-1,-5.544442E-1,2.1760082E-1,1.895803E-2,-8.5661545E-2,6.0256165E-3,-2.2551976E-2,1.7529182E-1,7.372179E-2,-1.409318E-1],"categories":[],"categories_nodes":[],"categories_segments":[],"categories_sizes":[],"default_left":[0,0,0,0,0,0,0,0,0,0,0,0,0,0,0],"id":50,"left_children":[1,3,5,7,9,11,13,-1,-1,-1,-1,-1,-1,-1,-1],"loss_changes":[4.4085493E0,4.26517E0,2.964323E0,4.4373474E0,3.785765E0,1.2425585E0,3.163498E0,0E0,0E0,0E0,0E0,0E0,0E0,0E0,0E0],"parents":[2147483647,0,0,1,1,2,2,3,3,4,4,5,5,6,6],"right_children":[2,4,6,8,10,12,14,-1,-1,-1,-1,-1,-1,-1,-1],"split_conditions":[1.3666667E1,-8.722456E-2,3E0,-2.0833333E-1,-6.762787E-2,3.3333333E0,-2E0,2.1760082E-1,1.895803E-2,-8.5661545E-2,6.0256165E-3,-2.2551976E-2,1.7529182E-1,7.372179E-2,-1.409318E-1],"split_indices":[6,0,8,2,0,5,7,0,0,0,0,0,0,0,0],"split_type":[0,0,0,0,0,0,0,0,0,0,0,0,0,0,0],"sum_hessian":[4.2830948E2,4.0466962E2,2.3639854E1,1.8200233E1,3.864694E2,3.6977406E0,1.9942114E1,6.5582376E0,1.1641995E1,1.7936848E1,3.6853253E2,2.3976624E0,1.300078E0,2.5876167E0,1.7354496E1],"tree_param":{"num_deleted":"0","num_feature":"9","num_nodes":"15","size_leaf_vector":"1"}},{"base_weights":[1.03528015E-2,1.782345E-2,-9.2068833E-1,7.735015E-3,3.960397E-1,-2.436889E-1,-2.9394079E-2,-1.9783273E-3,4.068129E-2,1.11617066E-1,-8.006842E-2],"categories":[],"categories_nodes":[],"categories_segments":[],"categories_sizes":[],"default_left":[0,0,0,0,0,0,0,0,0,0,0],"id":51,"left_children":[1,3,5,7,9,-1,-1,-1,-1,-1,-1],"loss_changes":[3.004573E0,1.6268659E0,6.131418E-1,1.4405882E0,1.65309E0,0E0,0E0,0E0,0E0,0E0,0E0],"parents":[2147483647,0,0,1,1,2,2,3,3,4,4],"right_children":[2,4,6,8,10,-1,-1,-1,-1,-1,-1],"split_conditions":[2.1E1,1.9E1,3.3333334E-1,3.4615386E-1,1.2986124E-1,-2.436889E-1,-2.9394079E-2,-1.9783273E-3,4.068129E-2,1.11617066E-1,-8.006842E-2],"split_indices":[7,8,6,2,1,0,0,0,0,0,0],"split_type":[0,0,0,0,0,0,0,0,0,0,0],"sum_hessian":[4.286127E2,4.2617395E2,2.4387515E0,4.1609558E2,1.0078366E1,1.3459768E0,1.0927747E0,3.8258102E2,3.351456E1,8.623005E0,1.4553618E0],"tree_param":{"num_deleted":"0","num_feature":"9","num_nodes":"11","size_leaf_vector":"1"}},{"base_weights":[1.5211038E-2,-8.1045836E-2,7.7770546E-2,-4.0798077E-1,2.6538344E-2,3.0968374E-1,4.44278E-2,1.6196634E-1,-9.1728374E-2,2.026427E-2,-1.4314948E-1,3.1460736E-2,1.7270678E-1,2.0661278E-2,-2.0825619E-2],"categories":[],"categories_nodes":[],"categories_segments":[],"categories_sizes":[],"default_left":[0,0,0,0,0,0,0,0,0,0,0,0,0,0,0],"id":52,"left_children":[1,3,5,7,9,11,13,-1,-1,-1,-1,-1,-1,-1,-1],"loss_changes":[2.5378592E0,5.852706E0,1.9604576E0,2.9122896E0,7.061602E0,2.558501E0,1.9733988E0,0E0,0E0,0E0,0E0,0E0,0E0,0E0,0E0],"parents":[2147483647,0,0,1,1,2,2,3,3,4,4,5,5,6,6],"right_children":[2,4,6,8,10,12,14,-1,-1,-1,-1,-1,-1,-1,-1],"split_conditions":[-3.3333333E0,-3E-1,-3.2142857E-1,-1.1364503E-1,-4E0,2.6051946E0,2.213234E0,1.6196634E-1,-9.1728374E-2,2.026427E-2,-1.4314948E-1,3.1460736E-2,1.7270678E-1,2.0661278E-2,-2.0825619E-2],"split_indices":[5,2,2,0,5,4,4,0,0,0,0,0,0,0,0],"split_type":[0,0,0,0,0,0,0,0,0,0,0,0,0,0,0],"sum_hessian":[4.1939978E2,1.6508975E2,2.5431001E2,4.018385E1,1.24905914E2,3.0925049E1,2.2338496E2,1.0063965E0,3.9177452E1,1.1425825E2,1.0647666E1,2.5259464E1,5.6655846E0,1.6019711E2,6.318786E1],"tree_param":{"num_deleted":"0","num_feature":"9","num_nodes":"15","size_leaf_vector":"1"}},{"base_weights":[-3.0250695E-2,-6.25245E-3,-3.721405E-1,-2.9930552E-2,3.1851643E-1,9.1874146E-1,-5.379277E-1,-1.25604225E-2,3.753524E-2,-1.3613599E-2,1.55344E-1,2.5537965E-1,1.4842294E-2,-1.9982626E-1,-6.1558843E-2],"categories":[],"categories_nodes":[],"categories_segments":[],"categories_sizes":[],"default_left":[0,0,0,0,0,0,0,0,0,0,0,0,0,0,0],"id":53,"left_children":[1,3,5,7,9,11,13,-1,-1,-1,-1,-1,-1,-1,-1],"loss_changes":[3.4547877E0,3.0450168E0,6.405044E0,2.6500285E0,4.8194613E0,9.677386E-1,2.3572345E0,0E0,0E0,0E0,0E0,0E0,0E0,0E0,0E0],"parents":[2147483647,0,0,1,1,2,2,3,3,4,4,5,5,6,6],"right_children":[2,4,6,8,10,12,14,-1,-1,-1,-1,-1,-1,-1,-1],"split_conditions":[7E0,2E0,-6.9041953E0,9.666667E0,6.1492794E-3,3.3333333E0,2E0,-1.25604225E-2,3.753524E-2,-1.3613599E-2,1.55344E-1,2.5537965E-1,1.4842294E-2,-1.9982626E-1,-6.1558843E-2],"split_indices":[7,7,4,6,1,6,8,0,0,0,0,0,0,0,0],"split_type":[0,0,0,0,0,0,0,0,0,0,0,0,0,0,0],"sum_hessian":[4.20355E2,3.9373584E2,2.661918E1,3.6782635E2,2.5909477E1,2.5126948E0,2.4106485E1,3.2017264E2,4.7653713E1,1.4514824E1,1.1394652E1,1.4049193E0,1.1077756E0,6.912275E0,1.7194212E1],"tree_param":{"num_deleted":"0","num_feature":"9","num_nodes":"15","size_leaf_vector":"1"}},{"base_weights":[-2.8389774E-3,1.2817469E-1,-3.698613E-2,-4.8671484E-1,1.9434747E-1,2.4780715E-1,-5.4036837E-2,-3.164348E-2,-1.7074805E-1,4.659721E-2,-1.9783498E-1,1.6208999E-1,-3.7678823E-2,-8.410827E-2,-6.1122812E-3],"categories":[],"categories_nodes":[],"categories_segments":[],"categories_sizes":[],"default_left":[0,0,0,0,0,0,0,0,0,0,0,0,0,0,0],"id":54,"left_children":[1,3,5,7,9,11,13,-1,-1,-1,-1,-1,-1,-1,-1],"loss_changes":[1.8905212E0,3.649746E0,1.6408436E0,9.228635E-1,3.870508E0,4.843014E0,2.7148848E0,0E0,0E0,0E0,0E0,0E0,0E0,0E0,0E0],"parents":[2147483647,0,0,1,1,2,2,3,3,4,4,5,5,6,6],"right_children":[2,4,6,8,10,12,14,-1,-1,-1,-1,-1,-1,-1,-1],"split_conditions":[-7.3333335E0,-6.277202E0,-6.6897874E0,-1.1E1,7.767569E-2,-1.3333334E0,-6.960598E-2,-3.164348E-2,-1.7074805E-1,4.659721E-2,-1.9783498E-1,1.6208999E-1,-3.7678823E-2,-8.410827E-2,-6.1122812E-3],"split_indices":[5,4,4,5,0,5,0,0,0,0,0,0,0,0,0],"split_type":[0,0,0,0,0,0,0,0,0,0,0,0,0,0,0],"sum_hessian":[4.2052176E2,8.6373955E1,3.341478E2,7.7747107E0,7.859924E1,1.811101E1,3.160368E2,4.8578696E0,2.916841E0,7.689208E1,1.7071621E0,7.5345063E0,1.0576504E1,1.8006142E1,2.9803064E2],"tree_param":{"num_deleted":"0","num_feature":"9","num_nodes":"15","size_leaf_vector":"1"}},{"base_weights":[1.7544897E-2,1.3783881E-1,-1.8994434E-2,1.7562956E-1,-2.2594488E-1,-7.088975E-1,2.3787024E-3,-6.159261E-2,5.1014632E-2,-1.9734344E-1,5.199582E-2,-5.0709367E-2,4.7520264E-3],"categories":[],"categories_nodes":[],"categories_segments":[],"categories_sizes":[],"default_left":[0,0,0,0,0,0,0,0,0,0,0,0,0],"id":55,"left_children":[1,3,5,7,-1,9,11,-1,-1,-1,-1,-1,-1],"loss_changes":[1.8330053E0,4.85168E0,4.724425E0,3.7357588E0,0E0,2.8480186E0,1.7114341E0,0E0,0E0,0E0,0E0,0E0,0E0],"parents":[2147483647,0,0,1,1,2,2,3,3,5,5,6,6],"right_children":[2,4,6,8,-1,10,12,-1,-1,-1,-1,-1,-1],"split_conditions":[-3.2888203E0,6.888889E-1,-3.0303996E0,-4.1666666E-1,-2.2594488E-1,1.0130719E-1,-1.849956E-1,-6.159261E-2,5.1014632E-2,-1.9734344E-1,5.199582E-2,-5.0709367E-2,4.7520264E-3],"split_indices":[4,2,4,2,0,2,1,0,0,0,0,0,0],"split_type":[0,0,0,0,0,0,0,0,0,0,0,0,0],"sum_hessian":[4.1542682E2,9.614108E1,3.192857E2,9.419425E1,1.9468355E0,8.627609E0,3.106581E2,1.2884806E1,8.130944E1,6.690682E0,1.9369273E0,2.3115715E1,2.875424E2],"tree_param":{"num_deleted":"0","num_feature":"9","num_nodes":"13","size_leaf_vector":"1"}},{"base_weights":[-3.4974806E-3,1.8939488E-2,-2.1824896E-1,-3.2572585E-1,4.1409846E-2,-6.7362595E-1,6.313844E-2,1.2461567E-1,-1.3150841E-1,4.6458235E-3,1.4359902E-1,5.4894116E-2,-1.7917529E-1,-4.1095536E-2,8.217231E-2],"categories":[],"categories_nodes":[],"categories_segments":[],"categories_sizes":[],"default_left":[0,0,0,0,0,0,0,0,0,0,0,0,0,0,0],"id":56,"left_children":[1,3,5,7,9,11,13,-1,-1,-1,-1,-1,-1,-1,-1],"loss_changes":[2.0440884E0,2.989343E0,5.184526E0,7.8491287E0,4.431435E0,3.4933887E0,2.4864914E0,0E0,0E0,0E0,0E0,0E0,0E0,0E0,0E0],"parents":[2147483647,0,0,1,1,2,2,3,3,4,4,5,5,6,6],"right_children":[2,4,6,8,10,12,14,-1,-1,-1,-1,-1,-1,-1,-1],"split_conditions":[9.666667E0,-6E0,1.1666667E1,-3.362908E-2,8.666667E0,-6.6666665E0,4E-1,1.2461567E-1,-1.3150841E-1,4.6458235E-3,1.4359902E-1,5.4894116E-2,-1.7917529E-1,-4.1095536E-2,8.217231E-2],"split_indices":[5,7,5,0,5,6,3,0,0,0,0,0,0,0,0],"split_type":[0,0,0,0,0,0,0,0,0,0,0,0,0,0,0],"sum_hessian":[4.2237015E2,3.8324136E2,3.9128777E1,2.2630095E1,3.6061127E2,1.4411807E1,2.4716969E1,5.6361504E0,1.6993944E1,3.5218204E2,8.429257E0,2.6922023E0,1.1719605E1,1.4175484E1,1.0541485E1],"tree_param":{"num_deleted":"0","num_feature":"9","num_nodes":"15","size_leaf_vector":"1"}},{"base_weights":[1.4589369E-2,7.604372E-2,-1.2714367E-1,1.7312655E-1,-7.130279E-2,-1.7920266E-1,4.2331043E-1,5.0562132E-2,-6.386473E-2,-4.9719077E-2,2.8898478E-2,-5.875643E-2,4.194249E-2,1.361519E-1,-1.1492469E-1],"categories":[],"categories_nodes":[],"categories_segments":[],"categories_sizes":[],"default_left":[0,0,0,0,0,0,0,0,0,0,0,0,0,0,0],"id":57,"left_children":[1,3,5,7,9,11,13,-1,-1,-1,-1,-1,-1,-1,-1],"loss_changes":[3.7024848E0,4.2517853E0,3.761155E0,7.102641E0,4.566493E0,5.3285832E0,3.3224075E0,0E0,0E0,0E0,0E0,0E0,0E0,0E0,0E0],"parents":[2147483647,0,0,1,1,2,2,3,3,4,4,5,5,6,6],"right_children":[2,4,6,8,10,12,14,-1,-1,-1,-1,-1,-1,-1,-1],"split_conditions":[5E-2,1.1E1,4E0,8.9468084E-2,-1.1904762E-1,3.2323587E0,3.6742318E0,5.0562132E-2,-6.386473E-2,-4.9719077E-2,2.8898478E-2,-5.875643E-2,4.194249E-2,1.361519E-1,-1.1492469E-1],"split_indices":[2,8,7,1,2,4,4,0,0,0,0,0,0,0,0],"split_type":[0,0,0,0,0,0,0,0,0,0,0,0,0,0,0],"sum_hessian":[4.2296893E2,2.953646E2,1.27604324E2,1.7794574E2,1.17418846E2,1.1719509E2,1.0409236E1,1.5358118E2,2.4364576E1,6.437651E1,5.304233E1,9.071413E1,2.648096E1,8.527203E0,1.8820336E0],"tree_param":{"num_deleted":"0","num_feature":"9","num_nodes":"15","size_leaf_vector":"1"}},{"base_weights":[-1.6141335E-2,1.0361068E-1,-7.737174E-2,5.8042407E-2,7.1556556E-1,-1.0388783E-1,4.863843E-1,-1.877454E-2,3.931962E-2,2.2462061E-1,1.2327175E-4,-1.0869098E-1,-1.5438244E-2,1.5430866E-1,1.6709624E-2],"categories":[],"categories_nodes":[],"categories_segments":[],"categories_sizes":[],"default_left":[0,0,0,0,0,0,0,0,0,0,0,0,0,0,0],"id":58,"left_children":[1,3,5,7,9,11,13,-1,-1,-1,-1,-1,-1,-1,-1],"loss_changes":[3.1147945E0,3.9677453E0,4.2499895E0,2.8579152E0,2.8767982E0,3.1162863E0,1.4054148E0,0E0,0E0,0E0,0E0,0E0,0E0,0E0,0E0],"parents":[2147483647,0,0,1,1,2,2,3,3,4,4,5,5,6,6],"right_children":[2,4,6,8,10,12,14,-1,-1,-1,-1,-1,-1,-1,-1],"split_conditions":[-2.1439736E0,-2.3813891E0,6E-1,1.3333334E0,3.3333333E0,-1.7615937E0,-5.6666665E0,-1.877454E-2,3.931962E-2,2.2462061E-1,1.2327175E-4,-1.0869098E-1,-1.5438244E-2,1.5430866E-1,1.6709624E-2],"split_indices":[4,4,3,6,6,4,6,0,0,0,0,0,0,0,0],"split_type":[0,0,0,0,0,0,0,0,0,0,0,0,0,0,0],"sum_hessian":[4.2270178E2,1.4277531E2,2.7992648E2,1.3389954E2,8.875773E0,2.6813077E2,1.1795728E1,6.402442E1,6.9875114E1,5.2896605E0,3.586113E0,1.4243924E1,2.5388683E2,6.3707414E0,5.424987E0],"tree_param":{"num_deleted":"0","num_feature":"9","num_nodes":"15","size_leaf_vector":"1"}},{"base_weights":[-3.678169E-3,-5.083856E-2,1.2534265E-1,-1.2013447E-1,7.7878535E-2,3.3631723E-2,4.3792814E-1,-1.6729297E-2,-1.2412751E-1,7.1262725E-2,-7.805218E-3,1.5372805E-2,-2.8695688E-1,3.7236694E-2,2.0661543E-1],"categories":[],"categories_nodes":[],"categories_segments":[],"categories_sizes":[],"default_left":[0,0,0,0,0,0,0,0,0,0,0,0,0,0,0],"id":59,"left_children":[1,3,5,7,9,11,13,-1,-1,-1,-1,-1,-1,-1,-1],"loss_changes":[2.594431E0,2.7940135E0,3.2575023E0,3.661454E0,3.5899467E0,5.781528E0,3.674564E0,0E0,0E0,0E0,0E0,0E0,0E0,0E0,0E0],"parents":[2147483647,0,0,1,1,2,2,3,3,4,4,5,5,6,6],"right_children":[2,4,6,8,10,12,14,-1,-1,-1,-1,-1,-1,-1,-1],"split_conditions":[4.5374453E-2,9.789897E-1,4.2436827E-2,5.4015195E-1,2.1472282E0,4.0597033E-2,1.72042E-1,-1.6729297E-2,-1.2412751E-1,7.1262725E-2,-7.805218E-3,1.5372805E-2,-2.8695688E-1,3.7236694E-2,2.0661543E-1],"split_indices":[1,4,0,4,4,0,1,0,0,0,0,0,0,0,0],"split_type":[0,0,0,0,0,0,0,0,0,0,0,0,0,0,0],"sum_hessian":[4.2434067E2,3.1119644E2,1.1314423E2,2.023346E2,1.0886184E2,8.833485E1,2.4809387E1,1.8967398E2,1.2660608E1,3.1585604E1,7.727623E1,8.672907E1,1.6057745E0,1.8357222E1,6.4521666E0],"tree_param":{"num_deleted":"0","num_feature":"9","num_nodes":"15","size_leaf_vector":"1"}},{"base_weights":[-6.204119E-3,-1.5720977E-3,-1.8865621E-1,1.514206E-1,-6.2104124E-3,-2.085096E-1,1.7664886E-4],"categories":[],"categories_nodes":[],"categories_segments":[],"categories_sizes":[],"default_left":[0,0,0,0,0,0,0],"id":60,"left_children":[1,3,-1,-1,5,-1,-1],"loss_changes":[1.821949E0,1.4792461E0,0E0,0E0,3.0699365E0,0E0,0E0],"parents":[2147483647,0,0,1,1,4,4],"right_children":[2,4,-1,-1,6,-1,-1],"split_conditions":[1.2170671E-1,-2.0333334E1,-1.8865621E-1,1.514206E-1,-1.9E1,-2.085096E-1,1.7664886E-4],"split_indices":[0,6,0,0,6,0,0],"split_type":[0,0,0,0,0,0,0],"sum_hessian":[4.1909143E2,4.1802676E2,1.0646509E0,1.5543747E0,4.1647238E2,1.8389884E0,4.1463342E2],"tree_param":{"num_deleted":"0","num_feature":"9","num_nodes":"7","size_leaf_vector":"1"}},{"base_weights":[5.7343678E-3,-3.6830294E-3,5.603971E-1,1.1799587E-2,-3.1859776E-1,-1.1542267E-2,1.8650714E-1,-7.7788115E-2,5.3345934E-3,-2.828974E-1,-3.2714352E-2,8.1194945E-2,-6.375881E-2],"categories":[],"categories_nodes":[],"categories_segments":[],"categories_sizes":[],"default_left":[0,0,0,0,0,0,0,0,0,0,0,0,0],"id":61,"left_children":[1,3,5,7,9,11,-1,-1,-1,-1,-1,-1,-1],"loss_changes":[2.1683567E0,1.9969072E0,1.4858291E0,2.3384902E0,3.029174E0,6.0658354E-1,0E0,0E0,0E0,0E0,0E0,0E0,0E0],"parents":[2147483647,0,0,1,1,2,2,3,3,4,4,5,5],"right_children":[2,4,6,8,10,12,-1,-1,-1,-1,-1,-1,-1],"split_conditions":[9.005593E0,5.678447E0,8.852191E-2,-1.4E1,5.813614E0,-1E0,1.8650714E-1,-7.7788115E-2,5.3345934E-3,-2.828974E-1,-3.2714352E-2,8.1194945E-2,-6.375881E-2],"split_indices":[4,4,0,6,4,5,0,0,0,0,0,0,0],"split_type":[0,0,0,0,0,0,0,0,0,0,0,0,0],"sum_hessian":[4.137222E2,4.077918E2,5.930375E0,3.8959988E2,1.819194E1,2.7196035E0,3.2107713E0,1.3042403E1,3.7655746E2,1.2476965E0,1.6944244E1,1.0167106E0,1.702893E0],"tree_param":{"num_deleted":"0","num_feature":"9","num_nodes":"13","size_leaf_vector":"1"}},{"base_weights":[-8.044442E-3,-1.8057078E-2,6.7171687E-1,3.32316E-3,-3.5013077E-1,1.8331595E-1,-9.073516E-3,2.2519017E-3,-2.3434284E-1,1.15362346E-1,-8.986802E-2],"categories":[],"categories_nodes":[],"categories_segments":[],"categories_sizes":[],"default_left":[0,0,0,0,0,0,0,0,0,0,0],"id":62,"left_children":[1,3,5,7,9,-1,-1,-1,-1,-1,-1],"loss_changes":[2.8524487E0,2.927917E0,1.1098258E0,3.6341434E0,2.5531547E0,0E0,0E0,0E0,0E0,0E0,0E0],"parents":[2147483647,0,0,1,1,2,2,3,3,4,4],"right_children":[2,4,6,8,10,-1,-1,-1,-1,-1,-1],"split_conditions":[9.005593E0,4.4444445E-1,1.0827267E-1,8.149476E0,-6E0,1.8331595E-1,-9.073516E-3,2.2519017E-3,-2.3434284E-1,1.15362346E-1,-8.986802E-2],"split_indices":[4,2,0,4,5,0,0,0,0,0,0],"split_type":[0,0,0,0,0,0,0,0,0,0,0],"sum_hessian":[4.163134E2,4.1122955E2,5.083825E0,3.872846E2,2.3944946E1,3.582355E0,1.50147E0,3.8567017E2,1.6144465E0,1.8495891E0,2.2095358E1],"tree_param":{"num_deleted":"0","num_feature":"9","num_nodes":"11","size_leaf_vector":"1"}}]},"name":"gbtree"},"learner_model_param":{"base_score":"5.8089805E-1","boost_from_average":"1","num_class":"0","num_feature":"9","num_target":"1"},"objective":{"name":"binary:logistic","reg_loss_param":{"scale_pos_weight":"1"}}},"version":[3,0,5]}