{"learner":{"attributes":{"best_iteration":"14","best_score":"0.5794419710559965"},"feature_names":[],"feature_types":[],"gradient_booster":{"model":{"gbtree_model_param":{"num_parallel_tree":"1","num_trees":"65"},"iteration_indptr":[0,1,2,3,4,5,6,7,8,9,10,11,12,13,14,15,16,17,18,19,20,21,22,23,24,25,26,27,28,29,30,31,32,33,34,35,36,37,38,39,40,41,42,43,44,45,46,47,48,49,50,51,52,53,54,55,56,57,58,59,60,61,62,63,64,65],"tree_info":[0,0,0,0,0,0,0,0,0,0,0,0,0,0,0,0,0,0,0,0,0,0,0,0,0,0,0,0,0,0,0,0,0,0,0,0,0,0,0,0,0,0,0,0,0,0,0,0,0,0,0,0,0,0,0,0,0,0,0,0,0,0,0,0,0],"trees":[{"base_weights":[-1.0247116E-2,-5.0180614E-1,7.764626E-1,-1.0025645E0,4.266858E-3,1.1793668E-1,9.989465E-1,-2.710764E-1,-1.2061719E-1,-1.0687903E-1,4.5138936E-2,-7.221257E-2,1.1414351E-1,4.4905037E-2,2.1767615E-1],"categories":[],"categories_nodes":[],"categories_segments":[],"categories_sizes":[],"default_left":[0,0,0,0,0,0,0,0,0,0,0,0,0,0,0],"id":0,"left_children":[1,3,5,7,9,11,13,-1,-1,-1,-1,-1,-1,-1,-1],"loss_changes":[2.3383945E2,9.431184E1,3.39514E1,2.554683E1,2.2315624E1,1.3187939E1,1.1784622E1,0E0,0E0,0E0,0E0,0E0,0E0,0E0,0E0],"parents":[2147483647,0,0,1,1,2,2,3,3,4,4,5,5,6,6],"right_children":[2,4,6,8,10,12,14,-1,-1,-1,-1,-1,-1,-1,-1],"split_conditions":[3.3333335E-2,-2.293825E-2,-1E0,-1.6666667E-1,-2.2222222E-1,1.6911764E-1,-2.293825E-2,-2.710764E-1,-1.2061719E-1,-1.0687903E-1,4.5138936E-2,-7.221257E-2,1.1414351E-1,4.4905037E-2,2.1767615E-1],"split_indices":[2,1,5,2,2,2,1,0,0,0,0,0,0,0,0],"split_type":[0,0,0,0,0,0,0,0,0,0,0,0,0,0,0],"sum_hessian":[6.026752E2,3.7113898E2,2.3153624E2,1.8605591E2,1.8508307E2,5.88569E1,1.7267934E2,9.752734E1,8.852856E1,5.350627E1,1.3157678E2,2.8698818E1,3.0158081E1,1.8240774E1,1.5443855E2],"tree_param":{"num_deleted":"0","num_feature":"9","num_nodes":"15","size_leaf_vector":"1"}},{"base_weights":[-8.791357E-3,-6.373466E-1,4.1898265E-1,-8.9900774E-1,3.147732E-2,1.461641E-1,9.629692E-1,-2.0076256E-1,-1.4837752E-3,-7.8408055E-2,7.011955E-2,-4.0238224E-2,8.957352E-2,8.395331E-2,2.403255E-1],"categories":[],"categories_nodes":[],"categories_segments":[],"categories_sizes":[],"default_left":[0,0,0,0,0,0,0,0,0,0,0,0,0,0,0],"id":1,"left_children":[1,3,5,7,9,11,13,-1,-1,-1,-1,-1,-1,-1,-1],"loss_changes":[1.5746982E2,4.15328E1,5.157955E1,1.59249115E1,9.281668E0,2.453698E1,1.4562523E1,0E0,0E0,0E0,0E0,0E0,0E0,0E0,0E0],"parents":[2147483647,0,0,1,1,2,2,3,3,4,4,5,5,6,6],"right_children":[2,4,6,8,10,12,14,-1,-1,-1,-1,-1,-1,-1,-1],"split_conditions":[0E0,1.2185534E0,2.3076923E-1,7.4859284E-2,-4.0373605E-2,0E0,6E0,-2.0076256E-1,-1.4837752E-3,-7.8408055E-2,7.011955E-2,-4.0238224E-2,8.957352E-2,8.395331E-2,2.403255E-1],"split_indices":[3,4,2,1,1,5,8,0,0,0,0,0,0,0,0],"split_type":[0,0,0,0,0,0,0,0,0,0,0,0,0,0,0],"sum_hessian":[5.836585E2,2.3616158E2,3.4749698E2,1.6950336E2,6.665822E1,2.3227551E2,1.1522146E2,1.5156161E2,1.794173E1,2.8545643E1,3.8112576E1,1.0812402E2,1.2415149E2,3.6012775E1,7.920868E1],"tree_param":{"num_deleted":"0","num_feature":"9","num_nodes":"15","size_leaf_vector":"1"}},{"base_weights":[1.0394298E-2,-2.5946575E-1,6.875956E-1,-7.092991E-1,-3.0507034E-2,2.8283644E-1,9.6404564E-1,-8.627818E-2,-2.3359393E-1,-8.144184E-2,4.0013537E-2,-4.5026354E-2,1.1072197E-1,5.106042E-2,2.0785657E-1],"categories":[],"categories_nodes":[],"categories_segments":[],"categories_sizes":[],"default_left":[0,0,0,0,0,0,0,0,0,0,0,0,0,0,0],"id":2,"left_children":[1,3,5,7,9,11,13,-1,-1,-1,-1,-1,-1,-1,-1],"loss_changes":[1.0688577E2,4.3054924E1,1.8375076E1,1.7473122E1,2.4246712E1,9.621616E0,4.992729E0,0E0,0E0,0E0,0E0,0E0,0E0,0E0,0E0],"parents":[2147483647,0,0,1,1,2,2,3,3,4,4,5,5,6,6],"right_children":[2,4,6,8,10,12,14,-1,-1,-1,-1,-1,-1,-1,-1],"split_conditions":[1.3333334E-1,-2.1428572E-1,2.3333333E0,7.6666665E0,-1.4261229E0,-5.449927E-1,-3.7716334E0,-8.627818E-2,-2.3359393E-1,-8.144184E-2,4.0013537E-2,-4.5026354E-2,1.1072197E-1,5.106042E-2,2.0785657E-1],"split_indices":[2,2,5,6,4,4,4,0,0,0,0,0,0,0,0],"split_type":[0,0,0,0,0,0,0,0,0,0,0,0,0,0,0],"sum_hessian":[5.8289935E2,4.172464E2,1.6565295E2,1.400309E2,2.7721548E2,6.8046715E1,9.760624E1,8.840617E1,5.162473E1,1.0496406E2,1.7225143E2,2.3718887E1,4.432783E1,9.788698E0,8.781754E1],"tree_param":{"num_deleted":"0","num_feature":"9","num_nodes":"15","size_leaf_vector":"1"}},{"base_weights":[3.270692E-2,-4.1465312E-1,3.440404E-1,-8.815756E-1,-1.8766682E-1,-5.9149172E-2,5.054202E-1,-9.1692515E-2,-2.3206738E-1,-9.322369E-2,2.2238735E-2,2.2298088E-2,-9.355982E-2,5.0174892E-2,1.5356691E-1],"categories":[],"categories_nodes":[],"categories_segments":[],"categories_sizes":[],"default_left":[0,0,0,0,0,0,0,0,0,0,0,0,0,0,0],"id":3,"left_children":[1,3,5,7,9,11,13,-1,-1,-1,-1,-1,-1,-1,-1],"loss_changes":[7.983402E1,2.4767292E1,2.2017628E1,8.512489E0,1.3330601E1,6.8503184E0,1.5934456E1,0E0,0E0,0E0,0E0,0E0,0E0,0E0,0E0],"parents":[2147483647,0,0,1,1,2,2,3,3,4,4,5,5,6,6],"right_children":[2,4,6,8,10,12,14,-1,-1,-1,-1,-1,-1,-1,-1],"split_conditions":[-1E-1,-3.5555556E-1,-2.8057335E-2,7E0,-2.8862424E-2,2.3333333E0,1.3333334E-1,-9.1692515E-2,-2.3206738E-1,-9.322369E-2,2.2238735E-2,2.2298088E-2,-9.355982E-2,5.0174892E-2,1.5356691E-1],"split_indices":[3,2,1,8,1,6,2,0,0,0,0,0,0,0,0],"split_type":[0,0,0,0,0,0,0,0,0,0,0,0,0,0,0],"sum_hessian":[5.7117413E2,2.3424783E2,3.369263E2,7.568208E1,1.5856575E2,9.649006E1,2.4043625E2,3.1108782E1,4.4573296E1,8.179593E1,7.676983E1,6.858024E1,2.790982E1,1.23040855E2,1.1739539E2],"tree_param":{"num_deleted":"0","num_feature":"9","num_nodes":"15","size_leaf_vector":"1"}},{"base_weights":[-5.0350847E-3,-2.7451792E-1,3.7684628E-1,-3.844539E-1,5.296255E-1,1.3202082E-1,6.891E-1,-1.826093E-1,-5.7430375E-2,-8.109568E-2,1.2737693E-1,5.3678382E-2,-8.782538E-2,3.745922E-2,1.6024685E-1],"categories":[],"categories_nodes":[],"categories_segments":[],"categories_sizes":[],"default_left":[0,0,0,0,0,0,0,0,0,0,0,0,0,0,0],"id":4,"left_children":[1,3,5,7,9,11,13,-1,-1,-1,-1,-1,-1,-1,-1],"loss_changes":[5.7782436E1,2.930408E1,1.766801E1,1.46618805E1,4.2712193E0,1.035601E1,5.581276E0,0E0,0E0,0E0,0E0,0E0,0E0,0E0,0E0],"parents":[2147483647,0,0,1,1,2,2,3,3,4,4,5,5,6,6],"right_children":[2,4,6,8,10,12,14,-1,-1,-1,-1,-1,-1,-1,-1],"split_conditions":[4.556866E-3,2.0833333E-1,1.6083913E0,-2.0876865E-1,-6.646755E-2,7.3333335E0,-9.356725E-2,-1.826093E-1,-5.7430375E-2,-8.109568E-2,1.2737693E-1,5.3678382E-2,-8.782538E-2,3.745922E-2,1.6024685E-1],"split_indices":[1,2,4,1,0,6,2,0,0,0,0,0,0,0,0],"split_type":[0,0,0,0,0,0,0,0,0,0,0,0,0,0,0],"sum_hessian":[5.594773E2,3.281748E2,2.3130249E2,2.891645E2,3.901032E1,1.3044705E2,1.0085544E2,4.3650387E1,2.455141E2,3.728064E0,3.5282253E1,1.0573187E2,2.4715174E1,1.8908707E1,8.194673E1],"tree_param":{"num_deleted":"0","num_feature":"9","num_nodes":"15","size_leaf_vector":"1"}},{"base_weights":[1.0177892E-2,-1.5015225E-1,4.560739E-1,-5.0538594E-1,2.0947142E-3,2.578042E-1,9.432943E-1,-4.8830654E-2,-1.5902044E-1,-1.446663E-1,1.2191823E-2,6.8077133E-3,1.2391596E-1,1.988504E-1,-3.7632253E-2],"categories":[],"categories_nodes":[],"categories_segments":[],"categories_sizes":[],"default_left":[0,0,0,0,0,0,0,0,0,0,0,0,0,0,0],"id":5,"left_children":[1,3,5,7,9,11,13,-1,-1,-1,-1,-1,-1,-1,-1],"loss_changes":[3.922556E1,2.1830042E1,1.3774166E1,8.970503E0,1.21511755E1,8.43943E0,2.5852356E0,0E0,0E0,0E0,0E0,0E0,0E0,0E0,0E0],"parents":[2147483647,0,0,1,1,2,2,3,3,4,4,5,5,6,6],"right_children":[2,4,6,8,10,12,14,-1,-1,-1,-1,-1,-1,-1,-1],"split_conditions":[1.1764706E-1,-9.0026066E-2,3.446682E0,2.6666667E0,-5E-1,8.312148E-2,1.8E1,-4.8830654E-2,-1.5902044E-1,-1.446663E-1,1.2191823E-2,6.8077133E-3,1.2391596E-1,1.988504E-1,-3.7632253E-2],"split_indices":[2,1,4,6,3,1,8,0,0,0,0,0,0,0,0],"split_type":[0,0,0,0,0,0,0,0,0,0,0,0,0,0,0],"sum_hessian":[5.467237E2,4.026182E2,1.4410555E2,1.20091774E2,2.825264E2,1.03511604E2,4.0593933E1,6.41192E1,5.5972572E1,2.0357607E1,2.621688E2,6.463044E1,3.8881165E1,3.896052E1,1.6334132E0],"tree_param":{"num_deleted":"0","num_feature":"9","num_nodes":"15","size_leaf_vector":"1"}},{"base_weights":[-2.5002584E-2,-2.0126322E-1,2.9926792E-1,-3.3449087E-1,8.702749E-2,-2.2939037E-1,4.349275E-1,-1.7135505E-1,-5.416868E-2,-1.0374171E-2,1.571329E-1,3.6715634E-2,-1.7720006E-1,-7.867057E-4,1.141425E-1],"categories":[],"categories_nodes":[],"categories_segments":[],"categories_sizes":[],"default_left":[0,0,0,0,0,0,0,0,0,0,0,0,0,0,0],"id":6,"left_children":[1,3,5,7,9,11,13,-1,-1,-1,-1,-1,-1,-1,-1],"loss_changes":[3.0721912E1,1.3400637E1,1.3676846E1,7.689945E0,1.0795575E1,1.0823035E1,9.000393E0,0E0,0E0,0E0,0E0,0E0,0E0,0E0,0E0],"parents":[2147483647,0,0,1,1,2,2,3,3,4,4,5,5,6,6],"right_children":[2,4,6,8,10,12,14,-1,-1,-1,-1,-1,-1,-1,-1],"split_conditions":[8.928572E-3,1.3840901E0,-3E0,-1.4E1,1.0556112E-1,-5E0,-1.7693853E0,-1.7135505E-1,-5.416868E-2,-1.0374171E-2,1.571329E-1,3.6715634E-2,-1.7720006E-1,-7.867057E-4,1.141425E-1],"split_indices":[2,4,5,5,1,5,4,0,0,0,0,0,0,0,0],"split_type":[0,0,0,0,0,0,0,0,0,0,0,0,0,0,0],"sum_hessian":[5.3545483E2,3.471417E2,1.8831316E2,2.3731238E2,1.09829315E2,3.8314114E1,1.4999905E2,2.4424696E1,2.1288768E2,9.238725E1,1.7442064E1,2.3963142E1,1.4350972E1,3.567322E1,1.1432583E2],"tree_param":{"num_deleted":"0","num_feature":"9","num_nodes":"15","size_leaf_vector":"1"}},{"base_weights":[-5.793735E-3,-1.7847429E-1,2.6787412E-1,-2.7505988E-1,1.6710538E-1,-1.10016525E-1,4.117977E-1,-7.4306585E-2,5.999577E-3,4.9163043E-2,-1.2033637E-1,6.687587E-2,-8.357462E-2,8.748753E-2,-2.6204297E-1],"categories":[],"categories_nodes":[],"categories_segments":[],"categories_sizes":[],"default_left":[0,0,0,0,0,0,0,0,0,0,0,0,0,0,0],"id":7,"left_children":[1,3,5,7,9,11,13,-1,-1,-1,-1,-1,-1,-1,-1],"loss_changes":[2.5339815E1,1.1018828E1,1.1328221E1,7.5838203E0,4.5308714E0,8.075821E0,7.2157135E0,0E0,0E0,0E0,0E0,0E0,0E0,0E0,0E0],"parents":[2147483647,0,0,1,1,2,2,3,3,4,4,5,5,6,6],"right_children":[2,4,6,8,10,12,14,-1,-1,-1,-1,-1,-1,-1,-1],"split_conditions":[9.9426025E-1,6.227974E-2,-9.356725E-2,2E-1,2.4997635E-1,8E0,1.3E1,-7.4306585E-2,5.999577E-3,4.9163043E-2,-1.2033637E-1,6.687587E-2,-8.357462E-2,8.748753E-2,-2.6204297E-1],"split_indices":[4,1,2,3,1,8,7,0,0,0,0,0,0,0,0],"split_type":[0,0,0,0,0,0,0,0,0,0,0,0,0,0,0],"sum_hessian":[5.3419995E2,3.277452E2,2.0645476E2,2.5631274E2,7.143245E1,5.7008053E1,1.494467E2,1.9456471E2,6.174804E1,6.541536E1,6.017089E0,2.3295082E1,3.371297E1,1.4798918E2,1.4575167E0],"tree_param":{"num_deleted":"0","num_feature":"9","num_nodes":"15","size_leaf_vector":"1"}},{"base_weights":[1.6981963E-2,6.1361764E-2,-7.6654506E-1,-7.9359226E-2,3.0714244E-1,-9.3028986E-1,-1.0676473E-1,-3.27218E-2,5.5299055E-2,3.8492803E-2,1.2731428E-1,-1.390276E-1,-3.0397773E-1,2.428725E-1,-1.2537916E-1],"categories":[],"categories_nodes":[],"categories_segments":[],"categories_sizes":[],"default_left":[0,0,0,0,0,0,0,0,0,0,0,0,0,0,0],"id":8,"left_children":[1,3,5,7,9,11,13,-1,-1,-1,-1,-1,-1,-1,-1],"loss_changes":[1.8180359E1,1.7125753E1,2.9286976E0,9.495813E0,6.686283E0,2.0387821E0,5.367006E0,0E0,0E0,0E0,0E0,0E0,0E0,0E0,0E0],"parents":[2147483647,0,0,1,1,2,2,3,3,4,4,5,5,6,6],"right_children":[2,4,6,8,10,12,14,-1,-1,-1,-1,-1,-1,-1,-1],"split_conditions":[1.4333333E1,9.038801E-3,6.6666665E0,6.56455E-2,6.6666665E0,8.754464E-3,-2E-1,-3.27218E-2,5.5299055E-2,3.8492803E-2,1.2731428E-1,-1.390276E-1,-3.0397773E-1,2.428725E-1,-1.2537916E-1],"split_indices":[6,0,5,1,5,1,3,0,0,0,0,0,0,0,0],"split_type":[0,0,0,0,0,0,0,0,0,0,0,0,0,0,0],"sum_hessian":[5.2048047E2,4.9345245E2,2.7027987E1,3.1422244E2,1.7923001E2,2.1325426E1,5.702561E0,2.5450723E2,5.9715218E1,1.3412398E2,4.510603E1,1.6802876E1,4.5225515E0,1.2338561E0,4.4687047E0],"tree_param":{"num_deleted":"0","num_feature":"9","num_nodes":"15","size_leaf_vector":"1"}},{"base_weights":[1.42350225E-2,-2.3885942E-1,1.8373601E-1,-6.5738845E-1,-1.3604298E-1,2.5842312E-1,-3.6662093E-1,-2.0154479E-1,-5.427874E-2,-3.307362E-2,1.22921824E-1,-6.2423464E-2,6.506572E-2,-2.7998744E-2,-2.1577732E-1],"categories":[],"categories_nodes":[],"categories_segments":[],"categories_sizes":[],"default_left":[0,0,0,0,0,0,0,0,0,0,0,0,0,0,0],"id":9,"left_children":[1,3,5,7,9,11,13,-1,-1,-1,-1,-1,-1,-1,-1],"loss_changes":[2.2210312E1,8.847457E0,1.2838017E1,5.2298336E0,3.7994833E0,1.0544056E1,5.895412E0,0E0,0E0,0E0,0E0,0E0,0E0,0E0,0E0],"parents":[2147483647,0,0,1,1,2,2,3,3,4,4,5,5,6,6],"right_children":[2,4,6,8,10,12,14,-1,-1,-1,-1,-1,-1,-1,-1],"split_conditions":[-2.8862424E-2,-3.809524E-1,1E1,-8.666667E0,7.039074E0,-5.0509195E0,1.083366E-1,-2.0154479E-1,-5.427874E-2,-3.307362E-2,1.22921824E-1,-6.2423464E-2,6.506572E-2,-2.7998744E-2,-2.1577732E-1],"split_indices":[1,2,6,5,4,4,1,0,0,0,0,0,0,0,0],"split_type":[0,0,0,0,0,0,0,0,0,0,0,0,0,0,0],"sum_hessian":[5.157027E2,2.0668175E2,3.0902097E2,3.9696724E1,1.6698503E2,2.7256284E2,3.645814E1,1.9965227E1,1.9731499E1,1.6145721E2,5.527815E0,2.8223156E1,2.4433968E2,2.856571E1,7.8924313E0],"tree_param":{"num_deleted":"0","num_feature":"9","num_nodes":"15","size_leaf_vector":"1"}},{"base_weights":[-1.237346E-2,-6.4505816E-2,5.987746E-1,2.8794823E-2,-3.5616317E-1,3.8258713E-1,1.0785117E0,-1.23414315E-1,1.30027E-2,-1.140899E-1,1.6221177E-3,-1.1555212E-1,1.008304E-1,2.2773123E-1,4.2860985E-2],"categories":[],"categories_nodes":[],"categories_segments":[],"categories_sizes":[],"default_left":[0,0,0,0,0,0,0,0,0,0,0,0,0,0,0],"id":10,"left_children":[1,3,5,7,9,11,13,-1,-1,-1,-1,-1,-1,-1,-1],"loss_changes":[1.628636E1,1.282115E1,3.7544928E0,8.405423E0,8.917137E0,3.7057528E0,3.7616348E-1,0E0,0E0,0E0,0E0,0E0,0E0,0E0,0E0],"parents":[2147483647,0,0,1,1,2,2,3,3,4,4,5,5,6,6],"right_children":[2,4,6,8,10,12,14,-1,-1,-1,-1,-1,-1,-1,-1],"split_conditions":[1.7225273E-1,6.6666665E0,5.3147312E-2,-5E-1,-6.25E-2,-1.3333333E1,1.1666667E1,-1.23414315E-1,1.30027E-2,-1.140899E-1,1.6221177E-3,-1.1555212E-1,1.008304E-1,2.2773123E-1,4.2860985E-2],"split_indices":[1,6,0,3,2,6,6,0,0,0,0,0,0,0,0],"split_type":[0,0,0,0,0,0,0,0,0,0,0,0,0,0,0],"sum_hessian":[5.0896344E2,4.697842E2,3.9179237E1,3.5660742E2,1.1317678E2,2.8247398E1,1.0931839E1,1.808425E1,3.3852316E2,7.090215E1,4.2274624E1,2.752251E0,2.5495148E1,9.923632E0,1.0082078E0],"tree_param":{"num_deleted":"0","num_feature":"9","num_nodes":"15","size_leaf_vector":"1"}},{"base_weights":[-9.4508445E-3,-1.9441529E-1,1.11064516E-1,-4.345186E-1,-1.1610282E-1,6.75659E-2,6.583792E-1,1.3036577E-1,-1.217248E-1,-6.1270386E-2,1.1521057E-2,-8.463402E-2,2.0818286E-2,1.661859E-1,2.4126854E-2],"categories":[],"categories_nodes":[],"categories_segments":[],"categories_sizes":[],"default_left":[0,0,0,0,0,0,0,0,0,0,0,0,0,0,0],"id":11,"left_children":[1,3,5,7,9,11,13,-1,-1,-1,-1,-1,-1,-1,-1],"loss_changes":[1.1417686E1,3.7487884E0,7.3402624E0,9.726818E0,5.09791E0,5.2145815E0,2.0081959E0,0E0,0E0,0E0,0E0,0E0,0E0,0E0,0E0],"parents":[2147483647,0,0,1,1,2,2,3,3,4,4,5,5,6,6],"right_children":[2,4,6,8,10,12,14,-1,-1,-1,-1,-1,-1,-1,-1],"split_conditions":[-1.1551892E-2,-2.5555557E-1,6E-1,4E0,1E1,-5E-1,1.3666667E1,1.3036577E-1,-1.217248E-1,-6.1270386E-2,1.1521057E-2,-8.463402E-2,2.0818286E-2,1.661859E-1,2.4126854E-2],"split_indices":[0,2,3,8,8,3,5,0,0,0,0,0,0,0,0],"split_type":[0,0,0,0,0,0,0,0,0,0,0,0,0,0,0],"sum_hessian":[5.102406E2,2.0105397E2,3.091866E2,4.832935E1,1.5272462E2,2.874635E2,2.1723122E1,6.296685E0,4.203266E1,7.2527374E1,8.019725E1,1.9180447E1,2.6828305E2,1.6033213E1,5.689909E0],"tree_param":{"num_deleted":"0","num_feature":"9","num_nodes":"15","size_leaf_vector":"1"}},{"base_weights":[-1.6019134E-2,-1.0917243E-1,1.7680556E-1,2.1958867E-1,-1.2039491E-1,-1.1413608E-1,3.897067E-1,-1.6827607E-1,-2.1203853E-2,-9.4709955E-2,2.7273977E-2,9.398229E-2,-5.1837385E-2],"categories":[],"categories_nodes":[],"categories_segments":[],"categories_sizes":[],"default_left":[0,0,0,0,0,0,0,0,0,0,0,0,0],"id":12,"left_children":[1,3,5,-1,7,9,11,-1,-1,-1,-1,-1,-1],"loss_changes":[9.166353E0,4.7920074E0,1.034284E1,0E0,3.4525104E0,6.4595E0,5.1301136E0,0E0,0E0,0E0,0E0,0E0,0E0],"parents":[2147483647,0,0,1,1,2,2,4,4,5,5,6,6],"right_children":[2,4,6,-1,8,10,12,-1,-1,-1,-1,-1,-1],"split_conditions":[1.5710793E0,-2E1,-1.6666666E0,2.1958867E-1,-2.9411578E-1,-9.356725E-2,1.1333333E1,-1.6827607E-1,-2.1203853E-2,-9.4709955E-2,2.7273977E-2,9.398229E-2,-5.1837385E-2],"split_indices":[4,6,5,0,1,2,6,0,0,0,0,0,0],"split_type":[0,0,0,0,0,0,0,0,0,0,0,0,0],"sum_hessian":[5.0823734E2,3.429787E2,1.6525864E2,2.2673092E0,3.407114E2,7.002684E1,9.52318E1,5.535975E0,3.351754E2,2.8395702E1,4.1631138E1,8.5001274E1,1.0230525E1],"tree_param":{"num_deleted":"0","num_feature":"9","num_nodes":"13","size_leaf_vector":"1"}},{"base_weights":[7.7365474E-3,-5.1103693E-1,4.6557665E-2,-7.7296716E-1,-1.860448E-1,-1.8333279E-2,2.3081228E-1,-1.8474801E-1,-2.4059951E-2,-9.64139E-2,1.1842813E-1,2.621661E-1,-6.048599E-3,-3.2272946E-2,6.303125E-2],"categories":[],"categories_nodes":[],"categories_segments":[],"categories_sizes":[],"default_left":[0,0,0,0,0,0,0,0,0,0,0,0,0,0,0],"id":13,"left_children":[1,3,5,7,9,11,13,-1,-1,-1,-1,-1,-1,-1,-1],"loss_changes":[9.910364E0,2.7727318E0,5.4760575E0,1.7245617E0,4.1111274E0,5.411965E0,3.996016E0,0E0,0E0,0E0,0E0,0E0,0E0,0E0,0E0],"parents":[2147483647,0,0,1,1,2,2,3,3,4,4,5,5,6,6],"right_children":[2,4,6,8,10,12,14,-1,-1,-1,-1,-1,-1,-1,-1],"split_conditions":[-2.0876865E-1,-2E-1,4.6666665E0,1.1E1,1.5E1,-2.0447548E-1,-1.1904762E-1,-1.8474801E-1,-2.4059951E-2,-9.64139E-2,1.1842813E-1,2.621661E-1,-6.048599E-3,-3.2272946E-2,6.303125E-2],"split_indices":[1,2,5,6,8,1,2,0,0,0,0,0,0,0,0],"split_type":[0,0,0,0,0,0,0,0,0,0,0,0,0,0,0],"sum_hessian":[4.899078E2,3.3261715E1,4.566461E2,1.76545E1,1.5607217E1,3.3837677E2,1.1826931E2,1.4004083E1,3.6504173E0,1.1581928E1,4.0252886E0,2.0364652E0,3.363403E2,2.077197E1,9.7497345E1],"tree_param":{"num_deleted":"0","num_feature":"9","num_nodes":"15","size_leaf_vector":"1"}},{"base_weights":[6.0407426E-3,-5.301593E-2,2.0489901E-1,-3.9648473E-1,-1.0878405E-2,-1.8976624E-1,4.205051E-1,4.3055903E-2,-1.3674437E-1,2.6294995E-2,-1.8178558E-2,-7.754716E-2,1.4090946E-1,-9.822143E-3,1.2721731E-1],"categories":[],"categories_nodes":[],"categories_segments":[],"categories_sizes":[],"default_left":[0,0,0,0,0,0,0,0,0,0,0,0,0,0,0],"id":14,"left_children":[1,3,5,7,9,11,13,-1,-1,-1,-1,-1,-1,-1,-1],"loss_changes":[5.815236E0,5.5224476E0,9.7272625E0,7.474931E0,3.8979626E0,7.4868584E0,7.4857845E0,0E0,0E0,0E0,0E0,0E0,0E0,0E0,0E0],"parents":[2147483647,0,0,1,1,2,2,3,3,4,4,5,5,6,6],"right_children":[2,4,6,8,10,12,14,-1,-1,-1,-1,-1,-1,-1,-1],"split_conditions":[1.3333334E-1,-6.1581723E-2,8E0,-7.5957794E0,7E0,6E-1,-1.75404E-3,4.3055903E-2,-1.3674437E-1,2.6294995E-2,-1.8178558E-2,-7.754716E-2,1.4090946E-1,-9.822143E-3,1.2721731E-1],"split_indices":[2,0,8,4,8,3,1,0,0,0,0,0,0,0,0],"split_type":[0,0,0,0,0,0,0,0,0,0,0,0,0,0,0],"sum_hessian":[4.9324548E2,3.8086893E2,1.12376564E2,4.0700905E1,3.40168E2,3.9744473E1,7.2632095E1,1.308426E1,2.7616644E1,1.2217092E2,2.1799709E2,3.300481E1,6.739662E0,2.309496E1,4.9537136E1],"tree_param":{"num_deleted":"0","num_feature":"9","num_nodes":"15","size_leaf_vector":"1"}},{"base_weights":[-3.694415E-2,-1.20535456E-1,1.3991378E-1,-8.449646E-2,-6.79568E-1,6.9187276E-2,6.4340967E-1,-7.5952015E-3,-6.455864E-2,-1.8513194E-1,4.2591523E-2,-2.237681E-1,1.8738447E-2,2.6627665E-2,1.7851156E-1],"categories":[],"categories_nodes":[],"categories_segments":[],"categories_sizes":[],"default_left":[0,0,0,0,0,0,0,0,0,0,0,0,0,0,0],"id":15,"left_children":[1,3,5,7,9,11,13,-1,-1,-1,-1,-1,-1,-1,-1],"loss_changes":[7.16704E0,6.5701146E0,5.4996986E0,3.4262822E0,4.5417986E0,4.111725E0,2.3037863E0,0E0,0E0,0E0,0E0,0E0,0E0,0E0,0E0],"parents":[2147483647,0,0,1,1,2,2,3,3,4,4,5,5,6,6],"right_children":[2,4,6,8,10,12,14,-1,-1,-1,-1,-1,-1,-1,-1],"split_conditions":[1.5257232E0,3.2630414E-2,3.3636364E-1,1.6E1,1E0,-4.5644432E-2,2.3333333E0,-7.5952015E-3,-6.455864E-2,-1.8513194E-1,4.2591523E-2,-2.237681E-1,1.8738447E-2,2.6627665E-2,1.7851156E-1],"split_indices":[4,0,2,8,7,0,5,0,0,0,0,0,0,0,0],"split_type":[0,0,0,0,0,0,0,0,0,0,0,0,0,0,0],"sum_hessian":[4.8264984E2,3.2795938E2,1.5469044E2,3.091788E2,1.8780596E1,1.3663467E2,1.8055777E1,2.5964926E2,4.952955E1,1.4692407E1,4.0881886E0,1.8588288E0,1.3477585E2,6.42708E0,1.1628696E1],"tree_param":{"num_deleted":"0","num_feature":"9","num_nodes":"15","size_leaf_vector":"1"}},{"base_weights":[-5.197575E-3,2.992832E-2,-4.5509836E-1,-8.94535E-2,1.17116585E-1,-5.685853E-1,5.1655394E-1,-1.5576904E-1,-9.621688E-3,1.8462215E-1,1.9217191E-2,-3.3911794E-2,-1.7359392E-1,2.2805162E-1,-2.2598987E-2],"categories":[],"categories_nodes":[],"categories_segments":[],"categories_sizes":[],"default_left":[0,0,0,0,0,0,0,0,0,0,0,0,0,0,0],"id":16,"left_children":[1,3,5,7,9,11,13,-1,-1,-1,-1,-1,-1,-1,-1],"loss_changes":[7.829352E0,4.7952375E0,4.250028E0,5.508934E0,4.421818E0,3.747571E0,1.8079239E0,0E0,0E0,0E0,0E0,0E0,0E0,0E0,0E0],"parents":[2147483647,0,0,1,1,2,2,3,3,4,4,5,5,6,6],"right_children":[2,4,6,8,10,12,14,-1,-1,-1,-1,-1,-1,-1,-1],"split_conditions":[1.3E1,-1.2040364E0,1.1E1,-1.5333333E1,-7E0,-1.8200498E0,-1.6244287E-2,-1.5576904E-1,-9.621688E-3,1.8462215E-1,1.9217191E-2,-3.3911794E-2,-1.7359392E-1,2.2805162E-1,-2.2598987E-2],"split_indices":[6,4,5,5,7,4,0,0,0,0,0,0,0,0,0],"split_type":[0,0,0,0,0,0,0,0,0,0,0,0,0,0,0],"sum_hessian":[4.935674E2,4.5868887E2,3.4878544E1,1.9359056E2,2.650983E2,3.160229E1,3.2762544E0,9.944095E0,1.8364647E2,5.650499E0,2.5944778E2,1.4218244E1,1.7384045E1,1.2382603E0,2.0379944E0],"tree_param":{"num_deleted":"0","num_feature":"9","num_nodes":"15","size_leaf_vector":"1"}},{"base_weights":[4.009404E-4,-2.8978659E-2,3.7337065E-1,3.463567E-1,-5.8071695E-2,-8.3331704E-1,5.0084007E-1,-1.5896568E-1,8.405967E-2,2.2857444E-1,-1.3601804E-2,-2.5111756E-1,-1.20674195E-2,1.2393625E-1,-7.97702E-2],"categories":[],"categories_nodes":[],"categories_segments":[],"categories_sizes":[],"default_left":[0,0,0,0,0,0,0,0,0,0,0,0,0,0,0],"id":17,"left_children":[1,3,5,7,9,11,13,-1,-1,-1,-1,-1,-1,-1,-1],"loss_changes":[5.285245E0,4.902552E0,5.8347254E0,3.0602505E0,5.0401454E0,1.1451364E0,3.7198706E0,0E0,0E0,0E0,0E0,0E0,0E0,0E0,0E0],"parents":[2147483647,0,0,1,1,2,2,3,3,4,4,5,5,6,6],"right_children":[2,4,6,8,10,12,14,-1,-1,-1,-1,-1,-1,-1,-1],"split_conditions":[1.7225273E-1,-1.1333333E1,2E0,2E0,-1.4E1,1E1,3.2369614E-1,-1.5896568E-1,8.405967E-2,2.2857444E-1,-1.3601804E-2,-2.5111756E-1,-1.20674195E-2,1.2393625E-1,-7.97702E-2],"split_indices":[1,6,8,8,7,5,1,0,0,0,0,0,0,0,0],"split_type":[0,0,0,0,0,0,0,0,0,0,0,0,0,0,0],"sum_hessian":[4.8034412E2,4.4612427E2,3.4219833E1,3.1308008E1,4.1481628E2,2.7404082E0,3.1479425E1,1.3118623E0,2.9996145E1,2.468638E0,4.1234763E2,1.3684766E0,1.3719314E0,2.8081358E1,3.398068E0],"tree_param":{"num_deleted":"0","num_feature":"9","num_nodes":"15","size_leaf_vector":"1"}},{"base_weights":[1.28438035E-2,-1.8535183E-1,2.4719926E-2,7.176605E-2,-1.7172915E-1,4.4707097E-3,6.797933E-2,-1.00368224E-1,1.5067627E-2],"categories":[],"categories_nodes":[],"categories_segments":[],"categories_sizes":[],"default_left":[0,0,0,0,0,0,0,0,0],"id":18,"left_children":[1,-1,3,5,7,-1,-1,-1,-1],"loss_changes":[5.366524E0,0E0,4.391866E0,5.0669584E0,7.529168E0,0E0,0E0,0E0,0E0],"parents":[2147483647,0,0,2,2,3,3,4,4],"right_children":[2,-1,4,6,8,-1,-1,-1,-1],"split_conditions":[-3.0990642E-1,-1.8535183E-1,7.6666665E0,1.0556112E-1,-3.8140102E-3,4.4707097E-3,6.797933E-2,-1.00368224E-1,1.5067627E-2],"split_indices":[1,0,6,1,0,0,0,0,0],"split_type":[0,0,0,0,0,0,0,0,0],"sum_hessian":[4.7786832E2,5.0030947E0,4.7286523E2,3.820142E2,9.085104E1,3.234842E2,5.8529984E1,3.8448273E1,5.240277E1],"tree_param":{"num_deleted":"0","num_feature":"9","num_nodes":"9","size_leaf_vector":"1"}},{"base_weights":[1.1606138E-2,-3.7893677E-1,3.8298454E-2,-4.5865202E-1,1.0383397E-1,3.3279184E-1,4.737281E-3,-6.087785E-2,-2.1541719E-1,-7.837958E-2,9.785464E-2,2.2198437E-1,-1.3609705E-3],"categories":[],"categories_nodes":[],"categories_segments":[],"categories_sizes":[],"default_left":[0,0,0,0,0,0,0,0,0,0,0,0,0],"id":19,"left_children":[1,3,5,7,-1,9,11,-1,-1,-1,-1,-1,-1],"loss_changes":[5.0860443E0,2.4729133E0,4.508147E0,2.458012E0,0E0,5.4836082E0,5.24551E0,0E0,0E0,0E0,0E0,0E0,0E0],"parents":[2147483647,0,0,1,1,2,2,3,3,5,5,6,6],"right_children":[2,4,6,8,-1,10,12,-1,-1,-1,-1,-1,-1],"split_conditions":[-2.0876865E-1,1.8E1,-1.3054958E-1,2.5956823E-2,1.0383397E-1,-4.4730783E0,-8E0,-6.087785E-2,-2.1541719E-1,-7.837958E-2,9.785464E-2,2.2198437E-1,-1.3609705E-3],"split_indices":[1,8,1,0,0,4,7,0,0,0,0,0,0],"split_type":[0,0,0,0,0,0,0,0,0,0,0,0,0],"sum_hessian":[4.8550153E2,3.0215366E1,4.5528613E2,2.8201532E1,2.0138338E0,4.566529E1,4.0962085E2,2.3765608E1,4.4359236E0,7.842233E0,3.7823055E1,3.250141E0,4.0637073E2],"tree_param":{"num_deleted":"0","num_feature":"9","num_nodes":"13","size_leaf_vector":"1"}},{"base_weights":[-6.3713253E-3,-2.6356839E-2,6.550742E-1,-3.1966377E-2,1.5940067E-1,3.062259E-1,3.314684E-1,-4.4028535E-3,-1.4070466E-1,-9.637532E-2,1.0765401E-1],"categories":[],"categories_nodes":[],"categories_segments":[],"categories_sizes":[],"default_left":[0,0,0,0,0,0,0,0,0,0,0],"id":20,"left_children":[1,3,5,7,-1,-1,9,-1,-1,-1,-1],"loss_changes":[6.3952217E0,2.1929412E0,3.5150042E0,3.1061242E0,0E0,0E0,2.2168765E0,0E0,0E0,0E0,0E0],"parents":[2147483647,0,0,1,1,2,2,3,3,6,6],"right_children":[2,4,6,8,-1,-1,10,-1,-1,-1,-1],"split_conditions":[1.9E1,2.1333334E1,-5.6666665E0,1.6666666E1,1.5940067E-1,3.062259E-1,-2.6666667E0,-4.4028535E-3,-1.4070466E-1,-9.637532E-2,1.0765401E-1],"split_indices":[8,5,5,5,0,0,5,0,0,0,0],"split_type":[0,0,0,0,0,0,0,0,0,0,0],"sum_hessian":[4.8147202E2,4.6828305E2,1.3188975E1,4.660689E2,2.2141435E0,2.5511408E0,1.0637835E1,4.6028058E2,5.7883277E0,1.8868335E0,8.751E0],"tree_param":{"num_deleted":"0","num_feature":"9","num_nodes":"11","size_leaf_vector":"1"}},{"base_weights":[5.377598E-3,-1.5564517E-2,3.229105E-1,8.6889934E-4,-4.261814E-1,2.9755319E-2,8.736235E-1,-3.174834E-3,9.95005E-2,1.5879242E-1,-1.3850513E-1,1.1039781E-1,-7.461006E-2,2.1074949E-1,-1.6952945E-2],"categories":[],"categories_nodes":[],"categories_segments":[],"categories_sizes":[],"default_left":[0,0,0,0,0,0,0,0,0,0,0,0,0,0,0],"id":21,"left_children":[1,3,5,7,9,11,13,-1,-1,-1,-1,-1,-1,-1,-1],"loss_changes":[3.1348977E0,2.9863124E0,4.682904E0,3.554097E0,6.0842533E0,4.427821E0,1.8324056E0,0E0,0E0,0E0,0E0,0E0,0E0,0E0,0E0],"parents":[2147483647,0,0,1,1,2,2,3,3,4,4,5,5,6,6],"right_children":[2,4,6,8,10,12,14,-1,-1,-1,-1,-1,-1,-1,-1],"split_conditions":[1.2E1,9.666667E0,2.2604766E0,8.333333E0,-3.4603085E-2,9E0,8.382687E0,-3.174834E-3,9.95005E-2,1.5879242E-1,-1.3850513E-1,1.1039781E-1,-7.461006E-2,2.1074949E-1,-1.6952945E-2],"split_indices":[5,5,4,5,0,8,4,0,0,0,0,0,0,0,0],"split_type":[0,0,0,0,0,0,0,0,0,0,0,0,0,0,0],"sum_hessian":[4.6967084E2,4.4150354E2,2.8167316E1,4.2547342E2,1.6030111E1,1.9070011E1,9.097305E0,4.1253366E2,1.2939761E1,2.5172827E0,1.3512828E1,8.142707E0,1.0927304E1,7.5742636E0,1.5230414E0],"tree_param":{"num_deleted":"0","num_feature":"9","num_nodes":"15","size_leaf_vector":"1"}},{"base_weights":[4.2092838E-4,-4.285549E-2,3.147378E-1,-5.940959E-2,3.5173535E-1,1.2874988E-1,8.133923E-1,-7.6086684E-3,-7.3762394E-2,2.275908E-1,-3.8895037E-2,2.563226E-1,1.0612916E-2,1.8305558E-1,-6.339745E-2],"categories":[],"categories_nodes":[],"categories_segments":[],"categories_sizes":[],"default_left":[0,0,0,0,0,0,0,0,0,0,0,0,0,0,0],"id":22,"left_children":[1,3,5,7,9,11,13,-1,-1,-1,-1,-1,-1,-1,-1],"loss_changes":[6.521045E0,2.7734635E0,5.276034E0,2.665181E0,7.569529E0,3.7227488E0,2.083642E0,0E0,0E0,0E0,0E0,0E0,0E0,0E0,0E0],"parents":[2147483647,0,0,1,1,2,2,3,3,4,4,5,5,6,6],"right_children":[2,4,6,8,10,12,14,-1,-1,-1,-1,-1,-1,-1,-1],"split_conditions":[3E0,7.039074E0,1.0130719E-1,4.6153846E-1,7.7458635E-2,-8.888889E-1,7E0,-7.6086684E-3,-7.3762394E-2,2.275908E-1,-3.8895037E-2,2.563226E-1,1.0612916E-2,1.8305558E-1,-6.339745E-2],"split_indices":[7,4,2,2,0,2,6,0,0,0,0,0,0,0,0],"split_type":[0,0,0,0,0,0,0,0,0,0,0,0,0,0,0],"sum_hessian":[4.7740866E2,4.2039114E2,5.70175E1,4.0428E2,1.6111145E1,4.2444695E1,1.4572807E1,3.7921564E2,2.506435E1,6.160427E0,9.950717E0,1.6332378E0,4.0811455E1,1.3542462E1,1.0303446E0],"tree_param":{"num_deleted":"0","num_feature":"9","num_nodes":"15","size_leaf_vector":"1"}},{"base_weights":[-3.6107056E-5,-1.8963529E-2,4.0733418E-1,2.111885E-2,-2.0649071E-1,4.070293E-2,8.9250064E-1,-1.16760805E-2,4.9315896E-2,-1.969963E-1,-2.542744E-2,1.632919E-1,-6.674271E-2,2.0899804E-2,2.2738397E-1],"categories":[],"categories_nodes":[],"categories_segments":[],"categories_sizes":[],"default_left":[0,0,0,0,0,0,0,0,0,0,0,0,0,0,0],"id":23,"left_children":[1,3,5,7,9,11,13,-1,-1,-1,-1,-1,-1,-1,-1],"loss_changes":[3.7162352E0,3.4662626E0,3.7701323E0,6.8321533E0,4.8909874E0,4.1170626E0,1.6460004E0,0E0,0E0,0E0,0E0,0E0,0E0,0E0,0E0],"parents":[2147483647,0,0,1,1,2,2,3,3,4,4,5,5,6,6],"right_children":[2,4,6,8,10,12,14,-1,-1,-1,-1,-1,-1,-1,-1],"split_conditions":[6.6150184E0,3.2630414E-2,-1.6666667E-1,1.5054342E-4,-1.585191E-1,4.8126943E-2,-3E-1,-1.16760805E-2,4.9315896E-2,-1.969963E-1,-2.542744E-2,1.632919E-1,-6.674271E-2,2.0899804E-2,2.2738397E-1],"split_indices":[4,0,6,0,1,0,3,0,0,0,0,0,0,0,0],"split_type":[0,0,0,0,0,0,0,0,0,0,0,0,0,0,0],"sum_hessian":[4.799708E2,4.5957144E2,2.0399364E1,3.7937134E2,8.020009E1,1.22364235E1,8.162942E0,2.8102182E2,9.8349525E1,6.363079E0,7.383701E1,3.5990024E0,8.637421E0,2.270487E0,5.892455E0],"tree_param":{"num_deleted":"0","num_feature":"9","num_nodes":"15","size_leaf_vector":"1"}},{"base_weights":[-2.7622073E-3,-4.0105724E-1,2.305826E-2,-4.8563763E-1,1.1840849E-1,7.408931E-1,9.709469E-3,-1.4627975E-1,-2.3488564E-2,2.4539302E-1,-8.532804E-3,9.526744E-2,-2.14742E-3],"categories":[],"categories_nodes":[],"categories_segments":[],"categories_sizes":[],"default_left":[0,0,0,0,0,0,0,0,0,0,0,0,0],"id":24,"left_children":[1,3,5,7,-1,9,11,-1,-1,-1,-1,-1,-1],"loss_changes":[4.8086915E0,2.6786013E0,4.2014785E0,2.3375134E0,0E0,3.1012635E0,4.1288147E0,0E0,0E0,0E0,0E0,0E0,0E0],"parents":[2147483647,0,0,1,1,2,2,3,3,5,5,6,6],"right_children":[2,4,6,8,-1,10,12,-1,-1,-1,-1,-1,-1],"split_conditions":[-2.0876865E-1,5.5555556E-2,-1.9566813E-1,-1.2161283E-2,1.1840849E-1,1.2E1,-8.6291E-2,-1.4627975E-1,-2.3488564E-2,2.4539302E-1,-8.532804E-3,9.526744E-2,-2.14742E-3],"split_indices":[1,2,1,0,0,8,0,0,0,0,0,0,0],"split_type":[0,0,0,0,0,0,0,0,0,0,0,0,0],"sum_hessian":[4.656829E2,2.746637E1,4.3821652E2,2.578159E1,1.6847807E0,7.005239E0,4.3121127E2,1.4869867E1,1.0911721E1,3.974072E0,3.0311673E0,1.7165556E1,4.1404572E2],"tree_param":{"num_deleted":"0","num_feature":"9","num_nodes":"13","size_leaf_vector":"1"}},{"base_weights":[2.0443672E-2,6.2824264E-2,-1.5044643E-1,3.6299925E-2,4.3259817E-1,3.9018172E-1,-2.34547E-1,1.3068435E-2,-1.0933051E-1,-8.059554E-2,1.3187219E-1,-1.9693598E-2,1.811977E-1,-7.000983E-2,2.7130172E-2],"categories":[],"categories_nodes":[],"categories_segments":[],"categories_sizes":[],"default_left":[0,0,0,0,0,0,0,0,0,0,0,0,0,0,0],"id":25,"left_children":[1,3,5,7,9,11,13,-1,-1,-1,-1,-1,-1,-1,-1],"loss_changes":[3.4056096E0,3.6764956E0,4.3417034E0,6.000978E0,5.0223727E0,3.3556156E0,3.5331187E0,0E0,0E0,0E0,0E0,0E0,0E0,0E0,0E0],"parents":[2147483647,0,0,1,1,2,2,3,3,4,4,5,5,6,6],"right_children":[2,4,6,8,10,12,14,-1,-1,-1,-1,-1,-1,-1,-1],"split_conditions":[7.6666665E0,1.7225273E-1,3E0,1.3618013E-1,-1.1333333E1,1.1333333E1,8.928572E-3,1.3068435E-2,-1.0933051E-1,-8.059554E-2,1.3187219E-1,-1.9693598E-2,1.811977E-1,-7.000983E-2,2.7130172E-2],"split_indices":[6,1,8,1,6,6,2,0,0,0,0,0,0,0,0],"split_type":[0,0,0,0,0,0,0,0,0,0,0,0,0,0,0],"sum_hessian":[4.6792557E2,3.7544733E2,9.247823E1,3.513432E2,2.4104116E1,1.1959417E1,8.051882E1,3.3551596E2,1.5827235E1,4.9792986E0,1.9124817E1,6.5568666E0,5.4025507E0,6.1412483E1,1.9106337E1],"tree_param":{"num_deleted":"0","num_feature":"9","num_nodes":"15","size_leaf_vector":"1"}},{"base_weights":[-2.781257E-2,1.371112E-1,-7.239048E-2,3.575266E-2,7.514672E-1,-4.1833246E-1,3.3704268E-3,-1.3258657E-1,2.484412E-2,1.8226935E-1,-8.790245E-6,-6.765785E-2,-4.295655E-1,-3.32581E-3,1.8266848E-1],"categories":[],"categories_nodes":[],"categories_segments":[],"categories_sizes":[],"default_left":[0,0,0,0,0,0,0,0,0,0,0,0,0,0,0],"id":26,"left_children":[1,3,5,7,9,11,13,-1,-1,-1,-1,-1,-1,-1,-1],"loss_changes":[3.4969769E0,6.279111E0,9.804436E0,5.5202847E0,1.7171793E0,8.576895E0,5.6173654E0,0E0,0E0,0E0,0E0,0E0,0E0,0E0,0E0],"parents":[2147483647,0,0,1,1,2,2,3,3,4,4,5,5,6,6],"right_children":[2,4,6,8,10,12,14,-1,-1,-1,-1,-1,-1,-1,-1],"split_conditions":[-6.3333335E0,9E0,-2.6666667E0,-2.3529412E-1,1.7E1,9.814019E-2,9.814019E-2,-1.3258657E-1,2.484412E-2,1.8226935E-1,-8.790245E-6,-6.765785E-2,-4.295655E-1,-3.32581E-3,1.8266848E-1],"split_indices":[6,5,6,2,5,0,0,0,0,0,0,0,0,0,0],"split_type":[0,0,0,0,0,0,0,0,0,0,0,0,0,0,0],"sum_hessian":[4.7330243E2,1.0026793E2,3.730345E2,8.6976456E1,1.3291475E1,6.620505E1,3.0682944E2,9.045457E0,7.7931E1,1.078446E1,2.5070152E0,6.441925E1,1.7858031E0,3.0119153E2,5.6378994E0],"tree_param":{"num_deleted":"0","num_feature":"9","num_nodes":"15","size_leaf_vector":"1"}},{"base_weights":[4.066781E-2,-2.9370987E-1,6.4105816E-2,4.451664E-1,-5.4553246E-1,4.3805322E-1,3.56261E-2,1.3982247E-1,-1.255699E-1,-1.9319926E-1,-5.9590614E-3,-2.0351599E-1,1.0680661E-1,1.4446313E-3,8.152172E-2],"categories":[],"categories_nodes":[],"categories_segments":[],"categories_sizes":[],"default_left":[0,0,0,0,0,0,0,0,0,0,0,0,0,0,0],"id":27,"left_children":[1,3,5,7,9,11,13,-1,-1,-1,-1,-1,-1,-1,-1],"loss_changes":[3.728055E0,6.0445576E0,4.7034464E0,2.7486653E0,5.1115127E0,4.912211E0,4.358842E0,0E0,0E0,0E0,0E0,0E0,0E0,0E0,0E0],"parents":[2147483647,0,0,1,1,2,2,3,3,4,4,5,5,6,6],"right_children":[2,4,6,8,10,12,14,-1,-1,-1,-1,-1,-1,-1,-1],"split_conditions":[2E0,0E0,3E0,1.7718244E-1,1.6666666E0,-5E-1,4E0,1.3982247E-1,-1.255699E-1,-1.9319926E-1,-5.9590614E-3,-2.0351599E-1,1.0680661E-1,1.4446313E-3,8.152172E-2],"split_indices":[8,7,8,1,6,3,7,0,0,0,0,0,0,0,0],"split_type":[0,0,0,0,0,0,0,0,0,0,0,0,0,0,0],"sum_hessian":[4.722879E2,3.0180943E1,4.4210696E2,7.4764395E0,2.2704504E1,3.0270096E1,4.1183685E2,6.327418E0,1.1490215E0,1.2026581E1,1.0677923E1,1.2784884E0,2.8991608E1,3.8356866E2,2.826819E1],"tree_param":{"num_deleted":"0","num_feature":"9","num_nodes":"15","size_leaf_vector":"1"}},{"base_weights":[2.0316307E-2,-3.4596333E-1,4.5985002E-2,-1.21141374E-1,-1.3775107E0,6.247674E-2,-5.726028E-1,-6.559458E-2,1.031728E-1,-3.2100478E-1,-4.2738415E-2,-8.871894E-2,1.5723253E-2,8.817487E-2,-1.6051768E-1],"categories":[],"categories_nodes":[],"categories_segments":[],"categories_sizes":[],"default_left":[0,0,0,0,0,0,0,0,0,0,0,0,0,0,0],"id":28,"left_children":[1,3,5,7,9,11,13,-1,-1,-1,-1,-1,-1,-1,-1],"loss_changes":[4.426545E0,6.985379E0,4.517135E0,3.6498039E0,1.0927515E0,3.5370035E0,3.0356286E0,0E0,0E0,0E0,0E0,0E0,0E0,0E0,0E0],"parents":[2147483647,0,0,1,1,2,2,3,3,4,4,5,5,6,6],"right_children":[2,4,6,8,10,12,14,-1,-1,-1,-1,-1,-1,-1,-1],"split_conditions":[2E0,8.134764E-2,1.7E1,2.403872E0,1.9549169E-1,-1.6E1,-6.2856565E0,-6.559458E-2,1.031728E-1,-3.2100478E-1,-4.2738415E-2,-8.871894E-2,1.5723253E-2,8.817487E-2,-1.6051768E-1],"split_indices":[8,1,6,4,1,5,4,0,0,0,0,0,0,0,0],"split_type":[0,0,0,0,0,0,0,0,0,0,0,0,0,0,0],"sum_hessian":[4.681208E2,2.9840042E1,4.3828073E2,2.5417768E1,4.4222727E0,4.2777512E2,1.0505612E1,1.9553885E1,5.8638854E0,3.3820243E0,1.0402485E0,1.2402328E1,4.153728E2,1.7734758E0,8.732137E0],"tree_param":{"num_deleted":"0","num_feature":"9","num_nodes":"15","size_leaf_vector":"1"}},{"base_weights":[1.2723128E-2,1.8666407E-1,6.205212E-3,-1.0861197E0,1.4827917E-2,8.172389E-2,-3.894007E-1,-1.4997256E-2,1.4734778E-2],"categories":[],"categories_nodes":[],"categories_segments":[],"categories_sizes":[],"default_left":[0,0,0,0,0,0,0,0,0],"id":29,"left_children":[1,-1,3,5,7,-1,-1,-1,-1],"loss_changes":[2.7917395E0,0E0,4.386001E0,5.488786E0,2.4436295E0,0E0,0E0,0E0,0E0],"parents":[2147483647,0,0,2,2,3,3,4,4],"right_children":[2,-1,4,6,8,-1,-1,-1,-1],"split_conditions":[-2.1E1,1.8666407E-1,-1.9E1,-3E0,-1.3333334E0,8.172389E-2,-3.894007E-1,-1.4997256E-2,1.4734778E-2],"split_indices":[6,0,6,5,6,0,0,0,0],"split_type":[0,0,0,0,0,0,0,0,0],"sum_hessian":[4.652259E2,2.2710247E0,4.6295486E2,2.6471982E0,4.6030768E2,1.1594361E0,1.4877621E0,1.8210063E2,2.7820703E2],"tree_param":{"num_deleted":"0","num_feature":"9","num_nodes":"9","size_leaf_vector":"1"}},{"base_weights":[-2.2789832E-2,2.1870308E-2,-2.2425993E-1,-3.9607417E-2,1.4349309E-1,-4.7154564E-1,-2.8804919E-2,2.7699543E-2,-2.2116337E-2,9.233845E-2,1.4026914E-3,-1.0997515E-1,1.9345106E-1,-2.2334376E-1,9.423702E-3],"categories":[],"categories_nodes":[],"categories_segments":[],"categories_sizes":[],"default_left":[0,0,0,0,0,0,0,0,0,0,0,0,0,0,0],"id":30,"left_children":[1,3,5,7,9,11,13,-1,-1,-1,-1,-1,-1,-1,-1],"loss_changes":[4.1609545E0,2.8395128E0,4.0416055E0,3.2075405E0,5.5324774E0,4.6989183E0,4.0112514E0,0E0,0E0,0E0,0E0,0E0,0E0,0E0,0E0],"parents":[2147483647,0,0,1,1,2,2,3,3,4,4,5,5,6,6],"right_children":[2,4,6,8,10,12,14,-1,-1,-1,-1,-1,-1,-1,-1],"split_conditions":[8E0,1.6666666E0,-1.923077E-1,-7.6666665E0,3.3333333E0,7.7458635E-2,-1.3E1,2.7699543E-2,-2.2116337E-2,9.233845E-2,1.4026914E-3,-1.0997515E-1,1.9345106E-1,-2.2334376E-1,9.423702E-3],"split_indices":[6,6,2,6,6,0,5,0,0,0,0,0,0,0,0],"split_type":[0,0,0,0,0,0,0,0,0,0,0,0,0,0,0],"sum_hessian":[4.6090222E2,3.7800156E2,8.290066E1,2.5153189E2,1.2646967E2,3.5974236E1,4.6926422E1,7.140201E1,1.801299E2,3.724678E1,8.922289E1,3.4702793E1,1.2714393E0,2.1669862E0,4.4759434E1],"tree_param":{"num_deleted":"0","num_feature":"9","num_nodes":"15","size_leaf_vector":"1"}},{"base_weights":[2.8158033E-2,7.587052E-2,-1.3413742E-1,6.715045E-2,2.0202902E-1,-5.078381E-1,-2.8327897E-2,1.7655108E-2,-1.16856195E-1,-1.4571458E-1,5.2409012E-2,-5.909102E-2,1.6429028E-2],"categories":[],"categories_nodes":[],"categories_segments":[],"categories_sizes":[],"default_left":[0,0,0,0,0,0,0,0,0,0,0,0,0],"id":31,"left_children":[1,3,5,7,-1,9,11,-1,-1,-1,-1,-1,-1],"loss_changes":[3.6193242E0,2.871852E0,4.1869774E0,4.9860206E0,0E0,4.165291E0,2.499191E0,0E0,0E0,0E0,0E0,0E0,0E0],"parents":[2147483647,0,0,1,1,2,2,3,3,5,5,6,6],"right_children":[2,4,6,8,-1,10,12,-1,-1,-1,-1,-1,-1],"split_conditions":[2.945968E-2,6.6150184E0,-2E-1,4.4929E0,2.0202902E-1,6.56455E-2,2.403872E0,1.7655108E-2,-1.16856195E-1,-1.4571458E-1,5.2409012E-2,-5.909102E-2,1.6429028E-2],"split_indices":[0,4,2,4,0,1,4,0,0,0,0,0,0],"split_type":[0,0,0,0,0,0,0,0,0,0,0,0,0],"sum_hessian":[4.6508612E2,3.59833E2,1.0525311E2,3.575675E2,2.265488E0,2.2386917E1,8.2866196E1,3.471736E2,1.0393906E1,1.7440245E1,4.9466724E0,2.375395E1,5.9112244E1],"tree_param":{"num_deleted":"0","num_feature":"9","num_nodes":"13","size_leaf_vector":"1"}},{"base_weights":[1.5146327E-2,1.8505068E-1,8.621725E-3,-2.8550246E-1,1.6493665E-2,-2.7353847E-3,3.931473E-2],"categories":[],"categories_nodes":[],"categories_segments":[],"categories_sizes":[],"default_left":[0,0,0,0,0,0,0],"id":32,"left_children":[1,-1,3,-1,5,-1,-1],"loss_changes":[2.7476213E0,0E0,5.2438297E0,0E0,2.5031867E0,0E0,0E0],"parents":[2147483647,0,0,2,2,4,4],"right_children":[2,-1,4,-1,6,-1,-1],"split_conditions":[-2.0333334E1,1.8505068E-1,-1.9E1,-2.8550246E-1,2.3076923E-1,-2.7353847E-3,3.931473E-2],"split_indices":[6,0,6,0,2,0,0],"split_type":[0,0,0,0,0,0,0],"sum_hessian":[4.6305502E2,2.293747E0,4.607613E2,1.5286949E0,4.5923257E2,3.9412497E2,6.510763E1],"tree_param":{"num_deleted":"0","num_feature":"9","num_nodes":"7","size_leaf_vector":"1"}},{"base_weights":[-2.7755437E-2,2.9410803E-1,-4.4099823E-2,1.2102972E0,-6.257974E-3,-1.5072281E-2,-2.3305453E-1,5.562231E-2,3.0194575E-1,-8.524345E-2,9.3189344E-2,-5.1542525E-3,1.4103316E-1,-1.22382306E-1,-1.4745523E-2],"categories":[],"categories_nodes":[],"categories_segments":[],"categories_sizes":[],"default_left":[0,0,0,0,0,0,0,0,0,0,0,0,0,0,0],"id":33,"left_children":[1,3,5,7,9,11,13,-1,-1,-1,-1,-1,-1,-1,-1],"loss_changes":[2.447684E0,6.1984625E0,2.417072E0,1.1319351E0,3.7556386E0,2.9742756E0,3.4980764E0,0E0,0E0,0E0,0E0,0E0,0E0,0E0,0E0],"parents":[2147483647,0,0,1,1,2,2,3,3,4,4,5,5,6,6],"right_children":[2,4,6,8,10,12,14,-1,-1,-1,-1,-1,-1,-1,-1],"split_conditions":[-1.3333333E1,-1E-1,4.8126943E-2,-2.4545455E-1,-2E0,6.6150184E0,-9.356725E-2,5.562231E-2,3.0194575E-1,-8.524345E-2,9.3189344E-2,-5.1542525E-3,1.4103316E-1,-1.22382306E-1,-1.4745523E-2],"split_indices":[6,2,0,2,5,4,2,0,0,0,0,0,0,0,0],"split_type":[0,0,0,0,0,0,0,0,0,0,0,0,0,0,0],"sum_hessian":[4.6181528E2,2.1496613E1,4.4031866E2,4.5595307E0,1.6937082E1,3.8261975E2,5.7698925E1,1.5774466E0,2.982084E0,9.016007E0,7.9210744E0,3.779693E2,4.6504345E0,1.6240559E1,4.1458366E1],"tree_param":{"num_deleted":"0","num_feature":"9","num_nodes":"15","size_leaf_vector":"1"}},{"base_weights":[6.408425E-2,5.7531077E-2,1.9322012E-1,-6.3842916E-1,6.4483084E-2,7.4371914E-3,-1.7720209E-1,1.7593749E-1,1.1596439E-2],"categories":[],"categories_nodes":[],"categories_segments":[],"categories_sizes":[],"default_left":[0,0,0,0,0,0,0,0,0],"id":34,"left_children":[1,3,-1,5,7,-1,-1,-1,-1],"loss_changes":[2.6758294E0,2.2658973E0,0E0,8.089838E-1,2.366518E0,0E0,0E0,0E0,0E0],"parents":[2147483647,0,0,1,1,3,3,4,4],"right_children":[2,4,-1,6,8,-1,-1,-1,-1],"split_conditions":[1.0210176E1,-2.1333334E1,1.9322012E-1,9E0,-2E1,7.4371914E-3,-1.7720209E-1,1.7593749E-1,1.1596439E-2],"split_indices":[4,5,0,8,5,0,0,0,0],"split_type":[0,0,0,0,0,0,0,0,0],"sum_hessian":[4.610842E2,4.588147E2,2.269518E0,3.639436E0,4.5517526E2,1.2039167E0,2.4355192E0,2.5384483E0,4.526368E2],"tree_param":{"num_deleted":"0","num_feature":"9","num_nodes":"9","size_leaf_vector":"1"}},{"base_weights":[-1.22869685E-2,-5.2471855E-3,-8.184844E-1,-1.8604016E-2,4.7323963E-1,3.4798916E-2,-2.563858E-1,-7.3022926E-3,6.634481E-2,1.5139365E-1,-6.411168E-2],"categories":[],"categories_nodes":[],"categories_segments":[],"categories_sizes":[],"default_left":[0,0,0,0,0,0,0,0,0,0,0],"id":35,"left_children":[1,3,5,7,9,-1,-1,-1,-1,-1,-1],"loss_changes":[2.6236777E0,2.9489493E0,2.063743E0,2.825824E0,3.0649176E0,0E0,0E0,0E0,0E0,0E0,0E0],"parents":[2147483647,0,0,1,1,2,2,3,3,4,4],"right_children":[2,4,6,8,10,-1,-1,-1,-1,-1,-1],"split_conditions":[3.2369614E-1,7.7283893E0,-5.3333335E0,1.2E1,1.5E1,3.4798916E-2,-2.563858E-1,-7.3022926E-3,6.634481E-2,1.5139365E-1,-6.411168E-2],"split_indices":[1,4,6,5,8,0,0,0,0,0,0],"split_type":[0,0,0,0,0,0,0,0,0,0,0],"sum_hessian":[4.620417E2,4.5903983E2,3.0018654E0,4.4750885E2,1.153097E1,1.1543521E0,1.8475133E0,4.2659854E2,2.0910328E1,8.528875E0,3.0020943E0],"tree_param":{"num_deleted":"0","num_feature":"9","num_nodes":"11","size_leaf_vector":"1"}},{"base_weights":[-1.4326539E-2,8.700026E-2,-5.4134276E-2,3.8069242E-1,-1.1468171E-1,5.378366E-1,-7.100103E-2,9.1520526E-2,-2.2719358E-1,-1.1770417E-1,1.3654965E-2,-1.0218884E-1,2.0053254E-1,-4.3791465E-2,8.8457577E-4],"categories":[],"categories_nodes":[],"categories_segments":[],"categories_sizes":[],"default_left":[0,0,0,0,0,0,0,0,0,0,0,0,0,0,0],"id":36,"left_children":[1,3,5,7,9,11,13,-1,-1,-1,-1,-1,-1,-1,-1],"loss_changes":[1.870077E0,7.7925816E0,3.3594322E0,6.7596345E0,6.8306813E0,5.061512E0,3.6200228E0,0E0,0E0,0E0,0E0,0E0,0E0,0E0,0E0],"parents":[2147483647,0,0,1,1,2,2,3,3,4,4,5,5,6,6],"right_children":[2,4,6,8,10,12,14,-1,-1,-1,-1,-1,-1,-1,-1],"split_conditions":[-1.8181819E-1,7E0,-1.5333333E1,1.5238617E-1,-4.1666666E-1,-5.0643522E-2,7E0,9.1520526E-2,-2.2719358E-1,-1.1770417E-1,1.3654965E-2,-1.0218884E-1,2.0053254E-1,-4.3791465E-2,8.8457577E-4],"split_indices":[2,8,5,1,2,0,8,0,0,0,0,0,0,0,0],"split_type":[0,0,0,0,0,0,0,0,0,0,0,0,0,0,0],"sum_hessian":[4.6145828E2,1.2982236E2,3.3163593E2,5.249329E1,7.732906E1,8.3316965E0,3.2330423E2,5.0624397E1,1.8688922E0,2.092324E1,5.6405823E1,2.5281804E0,5.8035164E0,1.08520515E2,2.147837E2],"tree_param":{"num_deleted":"0","num_feature":"9","num_nodes":"15","size_leaf_vector":"1"}},{"base_weights":[-1.4496362E-2,-1.28784895E-5,-4.7086862E-1,-2.8382948E-1,1.7758785E-2,-6.8238974E-1,1.514953E-1,-5.749756E-3,-1.9294335E-1,1.5626149E-1,6.041626E-4,-2.3332325E-1,4.8981262E-3],"categories":[],"categories_nodes":[],"categories_segments":[],"categories_sizes":[],"default_left":[0,0,0,0,0,0,0,0,0,0,0,0,0],"id":37,"left_children":[1,3,5,7,9,11,-1,-1,-1,-1,-1,-1,-1],"loss_changes":[3.0297341E0,2.2509222E0,4.1801863E0,4.5395813E0,4.7236333E0,4.325731E0,0E0,0E0,0E0,0E0,0E0,0E0,0E0],"parents":[2147483647,0,0,1,1,2,2,3,3,4,4,5,5],"right_children":[2,4,6,8,10,12,-1,-1,-1,-1,-1,-1,-1],"split_conditions":[6E-1,-2.0876865E-1,1E0,-2.1909562E-1,-1.9566813E-1,4.68849E-1,1.514953E-1,-5.749756E-3,-1.9294335E-1,1.5626149E-1,6.041626E-4,-2.3332325E-1,4.8981262E-3],"split_indices":[2,1,7,1,1,4,0,0,0,0,0,0,0],"split_type":[0,0,0,0,0,0,0,0,0,0,0,0,0],"sum_hessian":[4.573668E2,4.4426752E2,1.3099298E1,2.5297121E1,4.189704E2,1.1554138E1,1.5451596E0,1.9161045E1,6.136077E0,6.94886E0,4.120215E2,6.471004E0,5.083134E0],"tree_param":{"num_deleted":"0","num_feature":"9","num_nodes":"13","size_leaf_vector":"1"}},{"base_weights":[1.108176E-2,-9.465503E-3,3.1298867E-1,1.5911914E-1,-4.251678E-2,7.016933E-1,-5.848389E-3,7.867866E-2,-2.8406281E-2,3.371266E-2,-1.6869979E-2,1.751844E-1,-8.07563E-2,-1.8592864E-1,5.7812866E-2],"categories":[],"categories_nodes":[],"categories_segments":[],"categories_sizes":[],"default_left":[0,0,0,0,0,0,0,0,0,0,0,0,0,0,0],"id":38,"left_children":[1,3,5,7,9,11,13,-1,-1,-1,-1,-1,-1,-1,-1],"loss_changes":[2.8443797E0,2.4017408E0,3.6250238E0,5.0415154E0,3.1944957E0,2.891076E0,4.91179E0,0E0,0E0,0E0,0E0,0E0,0E0,0E0,0E0],"parents":[2147483647,0,0,1,1,2,2,3,3,4,4,5,5,6,6],"right_children":[2,4,6,8,10,12,14,-1,-1,-1,-1,-1,-1,-1,-1],"split_conditions":[1.1666667E1,-1.3054958E-1,1.4333333E1,1.1E1,-7.3333335E0,1.7E1,1.5E1,7.867866E-2,-2.8406281E-2,3.371266E-2,-1.6869979E-2,1.751844E-1,-8.07563E-2,-1.8592864E-1,5.7812866E-2],"split_indices":[5,1,5,8,6,8,5,0,0,0,0,0,0,0,0],"split_type":[0,0,0,0,0,0,0,0,0,0,0,0,0,0,0],"sum_hessian":[4.570448E2,4.2882812E2,2.8216654E1,6.9666405E1,3.5916174E2,1.2174065E1,1.604259E1,3.901171E1,3.0654696E1,5.8906075E1,3.0025565E2,1.0695974E1,1.4780909E0,3.3612926E0,1.2681296E1],"tree_param":{"num_deleted":"0","num_feature":"9","num_nodes":"15","size_leaf_vector":"1"}},{"base_weights":[-2.47586E-2,-6.342885E-1,-1.7013201E-2,-1.8077551E-1,1.8351845E-2,6.211756E-1,-2.9123954E-2,2.0914197E-1,-4.7284402E-2,-1.0034938E-1,-3.725264E-3],"categories":[],"categories_nodes":[],"categories_segments":[],"categories_sizes":[],"default_left":[0,0,0,0,0,0,0,0,0,0,0],"id":39,"left_children":[1,3,5,-1,-1,7,9,-1,-1,-1,-1],"loss_changes":[2.1284976E0,1.1904616E0,3.4843693E0,0E0,0E0,3.3043978E0,2.1790538E0,0E0,0E0,0E0,0E0],"parents":[2147483647,0,0,1,1,2,2,5,5,6,6],"right_children":[2,4,6,-1,-1,8,10,-1,-1,-1,-1],"split_conditions":[-2.9411578E-1,-1.25E-1,-2.4347028E-1,-1.8077551E-1,1.8351845E-2,1.5E1,-1.0131127E-1,2.0914197E-1,-4.7284402E-2,-1.0034938E-1,-3.725264E-3],"split_indices":[1,2,1,0,0,8,0,0,0,0,0],"split_type":[0,0,0,0,0,0,0,0,0,0,0],"sum_hessian":[4.5213828E2,4.6582904E0,4.4747998E2,3.2183537E0,1.4399366E0,7.396982E0,4.40083E2,4.801006E0,2.5959766E0,8.545655E0,4.3153735E2],"tree_param":{"num_deleted":"0","num_feature":"9","num_nodes":"11","size_leaf_vector":"1"}},{"base_weights":[1.7279819E-2,4.1850188E-1,-4.004382E-4,2.0139264E-1,1.669671E-1,-4.0174995E-2,2.3576537E-1,-1.0645105E-1,1.1664251E-1,-1.9667263E-3,-1.14690915E-1,1.4502895E-1,1.5679976E-2],"categories":[],"categories_nodes":[],"categories_segments":[],"categories_sizes":[],"default_left":[0,0,0,0,0,0,0,0,0,0,0,0,0],"id":40,"left_children":[1,3,5,-1,7,9,11,-1,-1,-1,-1,-1,-1],"loss_changes":[3.30844E0,2.7455428E0,4.2147293E0,0E0,4.6728826E0,6.2077622E0,4.923892E0,0E0,0E0,0E0,0E0,0E0,0E0],"parents":[2147483647,0,0,1,1,2,2,4,4,5,5,6,6],"right_children":[2,4,6,-1,8,10,12,-1,-1,-1,-1,-1,-1],"split_conditions":[-8.7858565E-2,4E0,9E0,2.0139264E-1,9E0,7.6666665E0,-3.5580454E0,-1.0645105E-1,1.1664251E-1,-1.9667263E-3,-1.14690915E-1,1.4502895E-1,1.5679976E-2],"split_indices":[0,8,6,0,8,6,4,0,0,0,0,0,0],"split_type":[0,0,0,0,0,0,0,0,0,0,0,0,0],"sum_hessian":[4.6536713E2,1.8684519E1,4.4668262E2,4.69571E0,1.3988809E1,3.830072E2,6.3675396E1,5.1160316E0,8.872777E0,3.6335242E2,1.9654785E1,1.4615549E1,4.9059845E1],"tree_param":{"num_deleted":"0","num_feature":"9","num_nodes":"13","size_leaf_vector":"1"}},{"base_weights":[-3.952489E-3,-1.5477616E-2,4.1246852E-1,-1.2761621E-1,-1.0198429E-2,5.9739035E-1,-1.6063903E-1,7.9501286E-2,-5.1800995E-3,-6.9470726E-2,1.4688282E-1],"categories":[],"categories_nodes":[],"categories_segments":[],"categories_sizes":[],"default_left":[0,0,0,0,0,0,0,0,0,0,0],"id":41,"left_children":[1,3,5,-1,7,9,-1,-1,-1,-1,-1],"loss_changes":[2.2342072E0,1.4813117E0,3.2983024E0,0E0,2.8902757E0,1.7380672E0,0E0,0E0,0E0,0E0,0E0],"parents":[2147483647,0,0,1,1,2,2,4,4,5,5],"right_children":[2,4,6,-1,8,10,-1,-1,-1,-1,-1],"split_conditions":[7.7283893E0,-3.0990642E-1,1.4E1,-1.2761621E-1,-2.1909562E-1,-3E-1,-1.6063903E-1,7.9501286E-2,-5.1800995E-3,-6.9470726E-2,1.4688282E-1],"split_indices":[4,1,5,0,1,3,0,0,0,0,0],"split_type":[0,0,0,0,0,0,0,0,0,0,0],"sum_hessian":[4.6319696E2,4.516594E2,1.1537575E1,2.7896814E0,4.4886972E2,1.04556875E1,1.0818877E0,1.5744616E1,4.331251E2,1.1299535E0,9.325734E0],"tree_param":{"num_deleted":"0","num_feature":"9","num_nodes":"11","size_leaf_vector":"1"}},{"base_weights":[-2.9131513E-2,3.9623234E-1,-4.7269773E-2,5.602768E-1,-1.5685603E-1,-1.4012666E-1,3.256691E-2,1.9735305E-1,1.3232345E-2,-1.715462E-2,-1.1364873E-1,-1.1832493E-1,1.5843596E-2],"categories":[],"categories_nodes":[],"categories_segments":[],"categories_sizes":[],"default_left":[0,0,0,0,0,0,0,0,0,0,0,0,0],"id":42,"left_children":[1,3,5,7,-1,9,11,-1,-1,-1,-1,-1,-1],"loss_changes":[3.5214267E0,4.0557137E0,3.2391438E0,3.512721E0,0E0,4.6493793E0,6.902037E0,0E0,0E0,0E0,0E0,0E0,0E0],"parents":[2147483647,0,0,1,1,2,2,3,3,5,5,6,6],"right_children":[2,4,6,8,-1,10,12,-1,-1,-1,-1,-1,-1],"split_conditions":[-8.7858565E-2,1.1666667E1,-4.8785412E-4,-9.356725E-2,-1.5685603E-1,1.7E1,-6E0,1.9735305E-1,1.3232345E-2,-1.715462E-2,-1.1364873E-1,-1.1832493E-1,1.5843596E-2],"split_indices":[0,6,0,2,0,8,7,0,0,0,0,0,0],"split_type":[0,0,0,0,0,0,0,0,0,0,0,0,0],"sum_hessian":[4.5299E2,1.7673775E1,4.3531622E2,1.5978756E1,1.695019E0,2.008987E2,2.3441753E2,8.041133E0,7.9376235E0,1.7933124E2,2.156747E1,1.5489259E1,2.1892827E2],"tree_param":{"num_deleted":"0","num_feature":"9","num_nodes":"13","size_leaf_vector":"1"}},{"base_weights":[5.291506E-3,-4.3229118E-1,1.9136406E-2,-7.3574734E-1,6.1523384E-1,2.9401278E-2,-4.82538E-1,-1.6963519E-1,-4.8356466E-2,-5.170824E-2,2.1912149E-1,4.333287E-3,1.1214539E-1,-1.7115173E-1,9.371156E-2],"categories":[],"categories_nodes":[],"categories_segments":[],"categories_sizes":[],"default_left":[0,0,0,0,0,0,0,0,0,0,0,0,0,0,0],"id":43,"left_children":[1,3,5,7,9,11,13,-1,-1,-1,-1,-1,-1,-1,-1],"loss_changes":[2.7919695E0,4.9456787E0,2.3127282E0,4.2886543E-1,1.8444613E0,1.7893224E0,3.5982451E0,0E0,0E0,0E0,0E0,0E0,0E0,0E0,0E0],"parents":[2147483647,0,0,1,1,2,2,3,3,4,4,5,5,6,6],"right_children":[2,4,6,8,10,12,14,-1,-1,-1,-1,-1,-1,-1,-1],"split_conditions":[-1.6E1,-7.777778E-2,1.6666666E1,1.329831E-2,-2.2017207E-2,9.51566E0,2.2E1,-1.6963519E-1,-4.8356466E-2,-5.170824E-2,2.1912149E-1,4.333287E-3,1.1214539E-1,-1.7115173E-1,9.371156E-2],"split_indices":[5,2,5,0,0,4,5,0,0,0,0,0,0,0,0],"split_type":[0,0,0,0,0,0,0,0,0,0,0,0,0,0,0],"sum_hessian":[4.5848566E2,1.3134426E1,4.4535126E2,1.0414962E1,2.7194638E0,4.3734406E2,8.0072E0,7.899845E0,2.5151167E0,1.1285251E0,1.5909387E0,4.3209454E2,5.2494946E0,5.8225904E0,2.18461E0],"tree_param":{"num_deleted":"0","num_feature":"9","num_nodes":"15","size_leaf_vector":"1"}},{"base_weights":[4.6063337E-2,2.3095839E-2,2.970054E-1,1.81546E-1,1.6651707E-2,9.5140505E-1,8.793894E-2,1.5379201E-1,2.1151972E-3,-4.7579203E-2,2.4542387E-1,6.562971E-2,-8.741866E-2],"categories":[],"categories_nodes":[],"categories_segments":[],"categories_sizes":[],"default_left":[0,0,0,0,0,0,0,0,0,0,0,0,0],"id":44,"left_children":[1,3,5,-1,7,9,11,-1,-1,-1,-1,-1,-1],"loss_changes":[2.672055E0,2.4186041E0,5.236989E0,0E0,1.9337659E0,3.346177E0,3.9995582E0,0E0,0E0,0E0,0E0,0E0,0E0],"parents":[2147483647,0,0,1,1,2,2,4,4,5,5,6,6],"right_children":[2,4,6,-1,8,10,12,-1,-1,-1,-1,-1,-1],"split_conditions":[4E0,-2E1,7E0,1.81546E-1,-1.4E1,2E0,5E0,1.5379201E-1,2.1151972E-3,-4.7579203E-2,2.4542387E-1,6.562971E-2,-8.741866E-2],"split_indices":[7,6,7,0,7,8,6,0,0,0,0,0,0],"split_type":[0,0,0,0,0,0,0,0,0,0,0,0,0],"sum_hessian":[4.6380597E2,4.25916E2,3.7889973E1,2.0686994E0,4.238473E2,8.314378E0,2.9575596E1,2.389678E0,4.214576E2,1.5905707E0,6.723807E0,2.0549091E1,9.026505E0],"tree_param":{"num_deleted":"0","num_feature":"9","num_nodes":"13","size_leaf_vector":"1"}},{"base_weights":[3.667835E-2,2.681522E-2,4.3320274E-1,3.473975E-2,-5.960173E-1,1.9955549E-1,-1.0281263E-1,5.7054687E-2,3.6583885E-3,7.909807E-2,-2.0024924E-1,-1.4056507E-1,1.2103539E-1],"categories":[],"categories_nodes":[],"categories_segments":[],"categories_sizes":[],"default_left":[0,0,0,0,0,0,0,0,0,0,0,0,0],"id":45,"left_children":[1,3,5,7,9,-1,11,-1,-1,-1,-1,-1,-1],"loss_changes":[1.7856339E0,2.2390523E0,3.4577963E0,1.8274829E0,2.6868927E0,0E0,3.2264948E0,0E0,0E0,0E0,0E0,0E0,0E0],"parents":[2147483647,0,0,1,1,2,2,3,3,4,4,6,6],"right_children":[2,4,6,8,10,-1,12,-1,-1,-1,-1,-1,-1],"split_conditions":[7.7283893E0,6.93026E0,9E0,-1.3666667E1,4.2756032E-2,1.9955549E-1,6.666667E-1,5.7054687E-2,3.6583885E-3,7.909807E-2,-2.0024924E-1,-1.4056507E-1,1.2103539E-1],"split_indices":[4,4,8,5,0,0,5,0,0,0,0,0,0],"split_type":[0,0,0,0,0,0,0,0,0,0,0,0,0],"sum_hessian":[4.5854062E2,4.4845343E2,1.0087186E1,4.4375165E2,4.701793E0,4.493158E0,5.594028E0,2.6331099E1,4.1742053E2,1.3710827E0,3.3307106E0,3.0318584E0,2.5621698E0],"tree_param":{"num_deleted":"0","num_feature":"9","num_nodes":"13","size_leaf_vector":"1"}},{"base_weights":[-2.5207093E-3,1.8905047E-2,-3.2257175E-1,6.5660398E-3,5.656701E-1,-5.0303715E-1,4.5078093E-1,4.3310854E-3,-6.9819055E-2,1.774544E-2,1.9506559E-1,-1.755901E-1,-2.4196653E-2,1.7516607E-1,-9.085699E-2],"categories":[],"categories_nodes":[],"categories_segments":[],"categories_sizes":[],"default_left":[0,0,0,0,0,0,0,0,0,0,0,0,0,0,0],"id":46,"left_children":[1,3,5,7,9,11,13,-1,-1,-1,-1,-1,-1,-1,-1],"loss_changes":[3.19521E0,2.9433763E0,4.306984E0,2.3055925E0,1.7947633E0,3.356793E0,2.7287085E0,0E0,0E0,0E0,0E0,0E0,0E0,0E0,0E0],"parents":[2147483647,0,0,1,1,2,2,3,3,4,4,5,5,6,6],"right_children":[2,4,6,8,10,12,14,-1,-1,-1,-1,-1,-1,-1,-1],"split_conditions":[4.6153846E-1,3.846154E-1,3.6721005E0,7.934775E-2,1.2E1,4E0,1.3E1,4.3310854E-3,-6.9819055E-2,1.774544E-2,1.9506559E-1,-1.755901E-1,-2.4196653E-2,1.7516607E-1,-9.085699E-2],"split_indices":[2,2,4,0,8,8,8,0,0,0,0,0,0,0,0],"split_type":[0,0,0,0,0,0,0,0,0,0,0,0,0,0,0],"sum_hessian":[4.6406567E2,4.3583005E2,2.8235628E1,4.2720126E2,8.628769E0,2.3176762E1,5.0588665E0,4.1071527E2,1.6486012E1,4.549092E0,4.079677E0,1.1042585E1,1.2134176E1,3.4642432E0,1.5946232E0],"tree_param":{"num_deleted":"0","num_feature":"9","num_nodes":"15","size_leaf_vector":"1"}},{"base_weights":[-1.0838352E-2,-1.851893E-1,1.0955145E-2,3.1836734E-3,-7.7135617E-1,2.2999962E-1,-2.6673127E-2,1.9613451E-1,-1.6626747E-2,-2.2337094E-1,-2.7623225E-2,2.9954577E-2,2.3691571E-1,9.3108706E-2,-9.400521E-3],"categories":[],"categories_nodes":[],"categories_segments":[],"categories_sizes":[],"default_left":[0,0,0,0,0,0,0,0,0,0,0,0,0,0,0],"id":47,"left_children":[1,3,5,7,9,11,13,-1,-1,-1,-1,-1,-1,-1,-1],"loss_changes":[1.7248756E0,5.57133E0,3.3358452E0,3.3859944E0,2.530239E0,4.366043E0,3.4806578E0,0E0,0E0,0E0,0E0,0E0,0E0,0E0,0E0],"parents":[2147483647,0,0,1,1,2,2,3,3,4,4,5,5,6,6],"right_children":[2,4,6,8,10,12,14,-1,-1,-1,-1,-1,-1,-1,-1],"split_conditions":[-4.1666666E-1,1.1E1,-3E-1,-8.6291E-2,0E0,8.134764E-2,-7.5957794E0,1.9613451E-1,-1.6626747E-2,-2.2337094E-1,-2.7623225E-2,2.9954577E-2,2.3691571E-1,9.3108706E-2,-9.400521E-3],"split_indices":[2,8,3,0,0,1,4,0,0,0,0,0,0,0,0],"split_type":[0,0,0,0,0,0,0,0,0,0,0,0,0,0,0],"sum_hessian":[4.5241455E2,4.943448E1,4.0298007E2,3.8164383E1,1.1270094E1,5.832747E1,3.446526E2,2.2559516E0,3.5908432E1,6.7975864E0,4.4725075E0,5.4872646E1,3.454823E0,1.2801567E1,3.31851E2],"tree_param":{"num_deleted":"0","num_feature":"9","num_nodes":"15","size_leaf_vector":"1"}},{"base_weights":[2.6123067E-2,9.814776E-3,3.7616295E-1,-1.9240983E-2,1.6874237E-1,1.0074958E0,1.4564073E-1,-3.3327956E-2,2.9751319E-3,5.9885096E-2,-1.03190415E-1,2.3540378E-1,2.9742528E-2,-2.0083158E-1,6.149177E-2],"categories":[],"categories_nodes":[],"categories_segments":[],"categories_sizes":[],"default_left":[0,0,0,0,0,0,0,0,0,0,0,0,0,0,0],"id":48,"left_children":[1,3,5,7,9,11,13,-1,-1,-1,-1,-1,-1,-1,-1],"loss_changes":[2.6113238E0,2.0291607E0,2.8171637E0,1.8722109E0,6.2312694E0,5.9337854E-1,3.3018878E0,0E0,0E0,0E0,0E0,0E0,0E0,0E0,0E0],"parents":[2147483647,0,0,1,1,2,2,3,3,4,4,5,5,6,6],"right_children":[2,4,6,8,10,12,14,-1,-1,-1,-1,-1,-1,-1,-1],"split_conditions":[5E-1,9E0,-3.3841126E-2,-4.270554E0,1.083366E-1,6E0,-2.341043E-2,-3.3327956E-2,2.9751319E-3,5.9885096E-2,-1.03190415E-1,2.3540378E-1,2.9742528E-2,-2.0083158E-1,6.149177E-2],"split_indices":[3,6,0,4,1,5,0,0,0,0,0,0,0,0,0],"split_type":[0,0,0,0,0,0,0,0,0,0,0,0,0,0,0],"sum_hessian":[4.570874E2,4.3772205E2,1.9365347E1,3.7080835E2,6.691369E1,4.278178E0,1.5087169E1,6.8965004E1,3.0184335E2,5.6661724E1,1.0251962E1,3.263416E0,1.014762E0,1.2191348E0,1.3868033E1],"tree_param":{"num_deleted":"0","num_feature":"9","num_nodes":"15","size_leaf_vector":"1"}},{"base_weights":[-4.8645355E-2,-7.757949E-2,2.5607434E-1,-5.645277E-2,-1.415598E0,-1.1979049E-1,4.841685E-1,-1.5060275E-2,1.316537E-1,-1.20669596E-1,-3.6249766E-1,4.933966E-2,-1.960153E-1,-4.2090463E-3,1.4790478E-1],"categories":[],"categories_nodes":[],"categories_segments":[],"categories_sizes":[],"default_left":[0,0,0,0,0,0,0,0,0,0,0,0,0,0,0],"id":49,"left_children":[1,3,5,7,9,11,13,-1,-1,-1,-1,-1,-1,-1,-1],"loss_changes":[4.0849843E0,1.18449E1,3.5057876E0,5.658205E0,1.0069456E0,5.2830954E0,3.269938E0,0E0,0E0,0E0,0E0,0E0,0E0,0E0,0E0],"parents":[2147483647,0,0,1,1,2,2,3,3,4,4,5,5,6,6],"right_children":[2,4,6,8,10,12,14,-1,-1,-1,-1,-1,-1,-1,-1],"split_conditions":[1.4954306E-1,1.4201339E-1,-8.821717E-1,1.2638085E-1,1.8136153E-2,2.4997635E-1,6E0,-1.5060275E-2,1.316537E-1,-1.20669596E-1,-3.6249766E-1,4.933966E-2,-1.960153E-1,-4.2090463E-3,1.4790478E-1],"split_indices":[1,1,4,1,0,1,8,0,0,0,0,0,0,0,0],"split_type":[0,0,0,0,0,0,0,0,0,0,0,0,0,0,0],"sum_hessian":[4.6006503E2,4.2084943E2,3.9215626E1,4.1533368E2,5.5157433E0,1.4989691E1,2.4225933E1,4.055336E2,9.800074E0,2.637728E0,2.8780153E0,1.1011808E1,3.9778821E0,8.441748E0,1.5784185E1],"tree_param":{"num_deleted":"0","num_feature":"9","num_nodes":"15","size_leaf_vector":"1"}},{"base_weights":[-9.172312E-3,-2.698967E-2,2.758552E-1,-8.212868E-3,-4.1207802E-1,2.7892105E-2,9.1051847E-1,-4.7090687E-3,1.2502883E-1,-2.1366043E-1,-1.0237306E-2,6.981596E-2,-1.6229664E-1,2.0342539E-1,4.0279135E-2],"categories":[],"categories_nodes":[],"categories_segments":[],"categories_sizes":[],"default_left":[0,0,0,0,0,0,0,0,0,0,0,0,0,0,0],"id":50,"left_children":[1,3,5,7,9,11,13,-1,-1,-1,-1,-1,-1,-1,-1],"loss_changes":[2.3686972E0,3.167379E0,4.2935543E0,4.0850077E0,4.76882E0,5.8816075E0,3.7563467E-1,0E0,0E0,0E0,0E0,0E0,0E0,0E0,0E0],"parents":[2147483647,0,0,1,1,2,2,3,3,4,4,5,5,6,6],"right_children":[2,4,6,8,10,12,14,-1,-1,-1,-1,-1,-1,-1,-1],"split_conditions":[1.7718244E-1,1.4201339E-1,4.2756032E-2,1.2638085E-1,1.4954306E-1,1.599802E-2,1.8333334E1,-4.7090687E-3,1.2502883E-1,-2.1366043E-1,-1.0237306E-2,6.981596E-2,-1.6229664E-1,2.0342539E-1,4.0279135E-2],"split_indices":[1,1,0,1,1,0,5,0,0,0,0,0,0,0,0],"split_type":[0,0,0,0,0,0,0,0,0,0,0,0,0,0,0],"sum_hessian":[4.6395636E2,4.3751233E2,2.6444029E1,4.1814502E2,1.936731E1,1.9765564E1,6.678464E0,4.0920178E2,8.943241E0,6.176374E0,1.3190936E1,1.47178755E1,5.047689E0,5.428071E0,1.2503927E0],"tree_param":{"num_deleted":"0","num_feature":"9","num_nodes":"15","size_leaf_vector":"1"}},{"base_weights":[-1.3336285E-2,1.8630698E-1,-1.8467605E-2,-4.9123186E-1,-8.634554E-3,-1.6960083E-1,6.354345E-2,1.3997032E-1,-2.7779948E-3],"categories":[],"categories_nodes":[],"categories_segments":[],"categories_sizes":[],"default_left":[0,0,0,0,0,0,0,0,0],"id":51,"left_children":[1,-1,3,5,7,-1,-1,-1,-1],"loss_changes":[2.288499E0,0E0,2.1662889E0,3.0099328E0,1.7165768E0,0E0,0E0,0E0,0E0],"parents":[2147483647,0,0,2,2,3,3,4,4],"right_children":[2,-1,4,6,8,-1,-1,-1,-1],"split_conditions":[-1.0598196E1,1.8630698E-1,-1.0131127E-1,-1.404931E-2,-1.4E1,-1.6960083E-1,6.354345E-2,1.3997032E-1,-2.7779948E-3],"split_indices":[4,0,0,1,7,0,0,0,0],"split_type":[0,0,0,0,0,0,0,0,0],"sum_hessian":[4.6745953E2,1.5497649E0,4.6590976E2,8.495521E0,4.5741425E2,5.8619404E0,2.6335807E0,2.3948555E0,4.5501938E2],"tree_param":{"num_deleted":"0","num_feature":"9","num_nodes":"9","size_leaf_vector":"1"}},{"base_weights":[6.688231E-3,2.9643923E-2,-1.7800197E-1,-5.647092E-1,4.0989302E-2,-1.0755601E-1,-9.1552866E-1,-1.7242408E-1,7.2623804E-2,1.07040934E-1,4.5312527E-3,-7.845884E-2,1.4182383E-2,-4.7024406E-2,-2.5189608E-1],"categories":[],"categories_nodes":[],"categories_segments":[],"categories_sizes":[],"default_left":[0,0,0,0,0,0,0,0,0,0,0,0,0,0,0],"id":52,"left_children":[1,3,5,7,9,11,13,-1,-1,-1,-1,-1,-1,-1,-1],"loss_changes":[1.9454025E0,2.773532E0,2.5373778E0,2.4399536E0,3.6226625E0,2.438679E0,7.0788527E-1,0E0,0E0,0E0,0E0,0E0,0E0,0E0,0E0],"parents":[2147483647,0,0,1,1,2,2,3,3,4,4,5,5,6,6],"right_children":[2,4,6,8,10,12,14,-1,-1,-1,-1,-1,-1,-1,-1],"split_conditions":[1.0666667E1,-1.0389506E-1,7E0,2E0,-8.457336E-2,-3.8140102E-3,-3E-1,-1.7242408E-1,7.2623804E-2,1.07040934E-1,4.5312527E-3,-7.845884E-2,1.4182383E-2,-4.7024406E-2,-2.5189608E-1],"split_indices":[6,0,7,7,0,0,3,0,0,0,0,0,0,0,0],"split_type":[0,0,0,0,0,0,0,0,0,0,0,0,0,0,0],"sum_hessian":[4.566102E2,4.0687766E2,4.9732533E1,6.707658E0,4.0017E2,4.6442356E1,3.2901776E0,5.1330876E0,1.5745698E0,1.3305008E1,3.86865E2,1.7432077E1,2.9010277E1,1.6700559E0,1.6201216E0],"tree_param":{"num_deleted":"0","num_feature":"9","num_nodes":"15","size_leaf_vector":"1"}},{"base_weights":[-1.2097381E-2,1.581837E-2,-2.3551044E-1,-1.9270937E-1,4.1159377E-2,2.8882667E-1,-3.3449504E-1,-7.831674E-2,5.9117176E-2,4.0343404E-2,8.2526385E-4,-9.250271E-2,2.072136E-1,-9.130355E-2,6.899266E-2],"categories":[],"categories_nodes":[],"categories_segments":[],"categories_sizes":[],"default_left":[0,0,0,0,0,0,0,0,0,0,0,0,0,0,0],"id":53,"left_children":[1,3,5,7,9,11,13,-1,-1,-1,-1,-1,-1,-1,-1],"loss_changes":[2.8872628E0,2.1846929E0,2.7652202E0,4.4673066E0,2.18798E0,5.3646374E0,3.781886E0,0E0,0E0,0E0,0E0,0E0,0E0,0E0,0E0],"parents":[2147483647,0,0,1,1,2,2,3,3,4,4,5,5,6,6],"right_children":[2,4,6,8,10,12,14,-1,-1,-1,-1,-1,-1,-1,-1],"split_conditions":[5.2122794E-2,-6.646755E-2,-9.638263E-2,2E-1,-3.597299E-2,-7.3333335E0,1.4954306E-1,-7.831674E-2,5.9117176E-2,4.0343404E-2,8.2526385E-4,-9.250271E-2,2.072136E-1,-9.130355E-2,6.899266E-2],"split_indices":[0,0,1,3,0,5,1,0,0,0,0,0,0,0,0],"split_type":[0,0,0,0,0,0,0,0,0,0,0,0,0,0,0],"sum_hessian":[4.6134668E2,4.109297E2,5.0417E1,4.381091E1,3.6711877E2,7.7017446E0,4.2715256E1,3.1272297E1,1.2538612E1,6.797307E1,2.991457E2,4.030338E0,3.671407E0,3.6490166E1,6.2250886E0],"tree_param":{"num_deleted":"0","num_feature":"9","num_nodes":"15","size_leaf_vector":"1"}},{"base_weights":[-2.6028622E-3,-1.7535579E-1,1.7786501E-2,-5.053836E-1,1.4790504E-1,1.811296E-1,-1.45466495E-2,-1.5456846E-1,-4.690081E-2,8.052901E-2,-8.6975984E-2,-5.1218975E-2,7.389728E-2,-5.8060765E-2,1.1987182E-3],"categories":[],"categories_nodes":[],"categories_segments":[],"categories_sizes":[],"default_left":[0,0,0,0,0,0,0,0,0,0,0,0,0,0,0],"id":54,"left_children":[1,3,5,7,9,11,13,-1,-1,-1,-1,-1,-1,-1,-1],"loss_changes":[1.6165464E0,5.243392E0,2.1712306E0,1.5719848E0,3.9234385E0,5.6883454E0,1.9484265E0,0E0,0E0,0E0,0E0,0E0,0E0,0E0,0E0],"parents":[2147483647,0,0,1,1,2,2,3,3,4,4,5,5,6,6],"right_children":[2,4,6,8,10,12,14,-1,-1,-1,-1,-1,-1,-1,-1],"split_conditions":[-4.1666666E-1,-5.3333335E0,-2E-1,-5E-1,8E0,-1.6666667E-1,2E0,-1.5456846E-1,-4.690081E-2,8.052901E-2,-8.6975984E-2,-5.1218975E-2,7.389728E-2,-5.8060765E-2,1.1987182E-3],"split_indices":[2,5,3,3,8,6,8,0,0,0,0,0,0,0,0],"split_type":[0,0,0,0,0,0,0,0,0,0,0,0,0,0,0],"sum_hessian":[4.5705786E2,4.7447674E1,4.0961017E2,2.319932E1,2.4248354E1,6.6922745E1,3.4268744E2,1.0740939E1,1.2458381E1,1.7088108E1,7.1602473E0,2.0041544E1,4.68812E1,2.284569E1,3.1984174E2],"tree_param":{"num_deleted":"0","num_feature":"9","num_nodes":"15","size_leaf_vector":"1"}},{"base_weights":[-1.9067956E-2,3.2145996E-2,-1.87249E-1,-1.4992802E-1,4.055664E-2,-2.590685E-1,2.7467155E-1,3.1721286E-2,-5.1731407E-3,8.458973E-2,-5.9716027E-2,1.9452895E-1,-2.3408098E-2],"categories":[],"categories_nodes":[],"categories_segments":[],"categories_sizes":[],"default_left":[0,0,0,0,0,0,0,0,0,0,0,0,0],"id":55,"left_children":[1,3,5,-1,7,9,11,-1,-1,-1,-1,-1,-1],"loss_changes":[3.914192E0,2.3230653E0,3.5898407E0,0E0,2.716466E0,2.6137443E0,4.148556E0,0E0,0E0,0E0,0E0,0E0,0E0],"parents":[2147483647,0,0,1,1,2,2,4,4,5,5,6,6],"right_children":[2,4,6,-1,8,10,12,-1,-1,-1,-1,-1,-1],"split_conditions":[6.6666665E0,-2.1E1,1.1764706E-1,-1.4992802E-1,0E0,-2.3374881E-1,-2.1661751E0,3.1721286E-2,-5.1731407E-3,8.458973E-2,-5.9716027E-2,1.9452895E-1,-2.3408098E-2],"split_indices":[6,5,2,0,3,1,4,0,0,0,0,0,0],"split_type":[0,0,0,0,0,0,0,0,0,0,0,0,0],"sum_hessian":[4.5274136E2,3.476768E2,1.0506456E2,2.7625473E0,3.4491425E2,9.130724E1,1.3757318E1,1.2369255E2,2.212217E2,4.4686537E0,8.683859E1,4.4122596E0,9.3450575E0],"tree_param":{"num_deleted":"0","num_feature":"9","num_nodes":"13","size_leaf_vector":"1"}},{"base_weights":[3.2757513E-2,2.1530194E-2,4.6242127E-1,-2.1479067E-1,3.932059E-2,1.9949831E-1,1.02702394E-1,-1.6940244E-3,-1.9107877E-1,6.000507E-2,3.687537E-3,1.5804043E-1,-5.3018976E-2],"categories":[],"categories_nodes":[],"categories_segments":[],"categories_sizes":[],"default_left":[0,0,0,0,0,0,0,0,0,0,0,0,0],"id":56,"left_children":[1,3,5,7,9,-1,11,-1,-1,-1,-1,-1,-1],"loss_changes":[2.2187927E0,1.9058154E0,2.1526706E0,4.843405E0,2.284049E0,0E0,2.262963E0,0E0,0E0,0E0,0E0,0E0,0E0],"parents":[2147483647,0,0,1,1,2,2,3,3,4,4,6,6],"right_children":[2,4,6,8,10,-1,12,-1,-1,-1,-1,-1,-1],"split_conditions":[7.7283893E0,2E0,7.934775E-2,7.2729684E-2,3E0,1.9949831E-1,7E0,-1.6940244E-3,-1.9107877E-1,6.000507E-2,3.687537E-3,1.5804043E-1,-5.3018976E-2],"split_indices":[4,8,0,1,8,0,8,0,0,0,0,0,0],"split_type":[0,0,0,0,0,0,0,0,0,0,0,0,0],"sum_hessian":[4.6101523E2,4.5029883E2,1.07164135E1,3.075029E1,4.1954855E2,3.5953984E0,7.1210155E0,2.484132E1,5.9089694E0,3.0122948E1,3.894256E2,2.08158E0,5.0394354E0],"tree_param":{"num_deleted":"0","num_feature":"9","num_nodes":"13","size_leaf_vector":"1"}},{"base_weights":[6.3062613E-3,-2.8573968E-2,2.0059836E-1,-4.360176E-3,-3.9047664E-1,-2.1766764E-1,3.6141813E-1,-5.7316455E-3,6.930455E-2,-1.0086093E-1,1.3705043E-1,1.103098E-1,-1.4712529E-1,-9.992384E-2,8.3173156E-2],"categories":[],"categories_nodes":[],"categories_segments":[],"categories_sizes":[],"default_left":[0,0,0,0,0,0,0,0,0,0,0,0,0,0,0],"id":57,"left_children":[1,3,5,7,9,11,13,-1,-1,-1,-1,-1,-1,-1,-1],"loss_changes":[3.1173723E0,3.417131E0,4.7877727E0,3.1362255E0,3.3400419E0,8.40056E0,2.5959907E0,0E0,0E0,0E0,0E0,0E0,0E0,0E0,0E0],"parents":[2147483647,0,0,1,1,2,2,3,3,4,4,5,5,6,6],"right_children":[2,4,6,8,10,12,14,-1,-1,-1,-1,-1,-1,-1,-1],"split_conditions":[4.3321148E-2,3.2630414E-2,-7.777778E-2,2.3718813E-2,1.7E1,7E0,-1.0666667E1,-5.7316455E-3,6.930455E-2,-1.0086093E-1,1.3705043E-1,1.103098E-1,-1.4712529E-1,-9.992384E-2,8.3173156E-2],"split_indices":[0,0,2,0,8,8,5,0,0,0,0,0,0,0,0],"split_type":[0,0,0,0,0,0,0,0,0,0,0,0,0,0,0],"sum_hessian":[4.581504E2,3.891426E2,6.9007774E1,3.6568762E2,2.3454983E1,1.9066202E1,4.9941574E1,3.4286325E2,2.2824377E1,2.1690956E1,1.7640268E0,7.6461344E0,1.1420068E1,2.4839628E0,4.745761E1],"tree_param":{"num_deleted":"0","num_feature":"9","num_nodes":"15","size_leaf_vector":"1"}},{"base_weights":[-7.880774E-3,9.702219E-3,-2.756203E-1,1.1677314E-1,-6.263498E-2,7.104354E-1,-4.799755E-1,7.905543E-3,7.613359E-2,9.794905E-2,-1.7137833E-2,-4.6878785E-2,2.3678048E-1,1.0896445E-2,-1.5425204E-1],"categories":[],"categories_nodes":[],"categories_segments":[],"categories_sizes":[],"default_left":[0,0,0,0,0,0,0,0,0,0,0,0,0,0,0],"id":58,"left_children":[1,3,5,7,9,11,13,-1,-1,-1,-1,-1,-1,-1,-1],"loss_changes":[2.1499457E0,3.3298557E0,6.0118723E0,3.5178912E0,3.3105314E0,2.6190712E0,3.764029E0,0E0,0E0,0E0,0E0,0E0,0E0,0E0,0E0],"parents":[2147483647,0,0,1,1,2,2,3,3,4,4,5,5,6,6],"right_children":[2,4,6,8,10,12,14,-1,-1,-1,-1,-1,-1,-1,-1],"split_conditions":[1.3E1,-1E-1,3E0,2.3546653E0,-3.5555556E-1,-1.3333334E0,-9.6291965E-3,7.905543E-3,7.613359E-2,9.794905E-2,-1.7137833E-2,-4.6878785E-2,2.3678048E-1,1.0896445E-2,-1.5425204E-1],"split_indices":[6,3,8,4,2,5,0,0,0,0,0,0,0,0,0],"split_type":[0,0,0,0,0,0,0,0,0,0,0,0,0,0,0],"sum_hessian":[4.5512265E2,4.279801E2,2.714255E1,1.7231352E2,2.5566658E2,4.2343698E0,2.290818E1,1.3418547E2,3.8128048E1,9.431991E0,2.4623459E2,1.5821145E0,2.6522553E0,8.367747E0,1.4540432E1],"tree_param":{"num_deleted":"0","num_feature":"9","num_nodes":"15","size_leaf_vector":"1"}},{"base_weights":[1.9375514E-2,-1.8144693E-2,1.5054144E-1,6.0869575E-2,-1.4053698E-1,-1.7430654E-1,3.6218238E-1,6.5387494E-4,7.9308175E-2,-2.0815998E-2,-1.9384162E-1,-6.3507736E-2,1.1863992E-1,-9.42943E-3,9.321951E-2],"categories":[],"categories_nodes":[],"categories_segments":[],"categories_sizes":[],"default_left":[0,0,0,0,0,0,0,0,0,0,0,0,0,0,0],"id":59,"left_children":[1,3,5,7,9,11,13,-1,-1,-1,-1,-1,-1,-1,-1],"loss_changes":[2.2686403E0,3.4794264E0,7.1113224E0,4.2291374E0,4.1620235E0,4.7084727E0,2.6761923E0,0E0,0E0,0E0,0E0,0E0,0E0,0E0,0E0],"parents":[2147483647,0,0,1,1,2,2,3,3,4,4,5,5,6,6],"right_children":[2,4,6,8,10,12,14,-1,-1,-1,-1,-1,-1,-1,-1],"split_conditions":[1.4285715E-1,1.2E1,8E0,6E0,2.0165865E-1,1.5625711E-1,0E0,6.5387494E-4,7.9308175E-2,-2.0815998E-2,-1.9384162E-1,-6.3507736E-2,1.1863992E-1,-9.42943E-3,9.321951E-2],"split_indices":[2,8,8,5,1,1,7,0,0,0,0,0,0,0,0],"split_type":[0,0,0,0,0,0,0,0,0,0,0,0,0,0,0],"sum_hessian":[4.5942206E2,3.579046E2,1.0151747E2,2.1779968E2,1.401049E2,4.0117485E1,6.1399982E1,1.8676167E2,3.1038013E1,1.3527898E2,4.8259344E0,3.430226E1,5.8152223E0,1.2542084E1,4.88579E1],"tree_param":{"num_deleted":"0","num_feature":"9","num_nodes":"15","size_leaf_vector":"1"}},{"base_weights":[1.6009906E-2,-3.275133E-1,2.9109512E-2,-9.408714E-1,2.3550886E-1,8.2467943E-1,2.0181395E-2,7.737375E-2,-2.3939939E-1,1.7277527E-1,-4.286401E-2,2.1034983E-1,7.484916E-2,-9.3269703E-4,4.2818733E-2],"categories":[],"categories_nodes":[],"categories_segments":[],"categories_sizes":[],"default_left":[0,0,0,0,0,0,0,0,0,0,0,0,0,0,0],"id":60,"left_children":[1,3,5,7,9,11,13,-1,-1,-1,-1,-1,-1,-1,-1],"loss_changes":[2.0537972E0,6.0122757E0,3.098071E0,3.2603574E0,2.8824759E0,1.0156393E-1,2.0951154E0,0E0,0E0,0E0,0E0,0E0,0E0,0E0,0E0],"parents":[2147483647,0,0,1,1,2,2,3,3,4,4,5,5,6,6],"right_children":[2,4,6,8,10,12,14,-1,-1,-1,-1,-1,-1,-1,-1],"split_conditions":[-1.4E1,-1.4038943E-1,-1.3333333E1,-6E0,9.248891E-3,-1.3666667E1,2.7272728E-1,7.737375E-2,-2.3939939E-1,1.7277527E-1,-4.286401E-2,2.1034983E-1,7.484916E-2,-9.3269703E-4,4.2818733E-2],"split_indices":[6,4,6,7,0,6,2,0,0,0,0,0,0,0,0],"split_type":[0,0,0,0,0,0,0,0,0,0,0,0,0,0,0],"sum_hessian":[4.5327887E2,1.5768371E1,4.375105E2,7.225634E0,8.542737E0,3.8413932E0,4.336691E2,1.085904E0,6.13973E0,3.1800542E0,5.362683E0,1.6663793E0,2.175014E0,3.8528116E2,4.8387943E1],"tree_param":{"num_deleted":"0","num_feature":"9","num_nodes":"15","size_leaf_vector":"1"}},{"base_weights":[-1.573681E-2,-2.3361094E-2,6.658399E-1,-1.307233E-1,1.048955E-2,-7.560262E-2,1.2258615E0,-3.630572E-2,1.2257959E-1,7.831934E-3,-5.6143433E-2,3.1210563E-1,5.3878088E-2],"categories":[],"categories_nodes":[],"categories_segments":[],"categories_sizes":[],"default_left":[0,0,0,0,0,0,0,0,0,0,0,0,0],"id":61,"left_children":[1,3,5,7,9,-1,11,-1,-1,-1,-1,-1,-1],"loss_changes":[2.3472726E0,1.6175671E0,3.3849547E0,4.1415052E0,2.8415446E0,0E0,6.96228E-1,0E0,0E0,0E0,0E0,0E0,0E0],"parents":[2147483647,0,0,1,1,2,2,3,3,4,4,6,6],"right_children":[2,4,6,8,10,-1,12,-1,-1,-1,-1,-1,-1],"split_conditions":[1.9666666E1,-9.0026066E-2,-3E-1,5.5783357E-2,6.0975976E-2,-7.560262E-2,3.0331248E-2,-3.630572E-2,1.2257959E-1,7.831934E-3,-5.6143433E-2,3.1210563E-1,5.3878088E-2],"split_indices":[6,1,3,0,0,0,1,0,0,0,0,0,0],"split_type":[0,0,0,0,0,0,0,0,0,0,0,0,0],"sum_hessian":[4.477064E2,4.437087E2,3.997709E0,1.0567701E2,3.3803168E2,1.5093526E0,2.4883564E0,9.962628E1,6.0507293E0,3.085223E2,2.950936E1,1.3755188E0,1.1128377E0],"tree_param":{"num_deleted":"0","num_feature":"9","num_nodes":"13","size_leaf_vector":"1"}},{"base_weights":[2.6852192E-2,5.1474296E-2,-1.8949746E-1,2.145554E-2,3.075682E-1,-9.2509043E-1,4.839457E-3,2.2240437E-3,1.4222044E-1,1.13196984E-1,1.1881936E-2,-2.2607303E-1,1.3232998E-2,5.4374527E-2,-9.678617E-2],"categories":[],"categories_nodes":[],"categories_segments":[],"categories_sizes":[],"default_left":[0,0,0,0,0,0,0,0,0,0,0,0,0,0,0],"id":62,"left_children":[1,3,5,7,9,11,13,-1,-1,-1,-1,-1,-1,-1,-1],"loss_changes":[2.4112043E0,3.1109786E0,6.619836E0,2.5870028E0,2.6901088E0,2.0436754E0,5.039097E0,0E0,0E0,0E0,0E0,0E0,0E0,0E0,0E0],"parents":[2147483647,0,0,1,1,2,2,3,3,4,4,5,5,6,6],"right_children":[2,4,6,8,10,12,14,-1,-1,-1,-1,-1,-1,-1,-1],"split_conditions":[1.3618013E-1,1.7E1,-1.1111111E-1,1.2638085E-1,-2.3333333E0,2.116113E0,1.4E1,2.2240437E-3,1.4222044E-1,1.13196984E-1,1.1881936E-2,-2.2607303E-1,1.3232998E-2,5.4374527E-2,-9.678617E-2],"split_indices":[1,8,2,1,5,4,8,0,0,0,0,0,0,0,0],"split_type":[0,0,0,0,0,0,0,0,0,0,0,0,0,0,0],"sum_hessian":[4.4980865E2,4.0453217E2,4.527651E1,3.6305896E2,4.1473183E1,8.676077E0,3.6600433E1,3.586995E2,4.3594904E0,1.968927E1,2.1783913E1,7.071363E0,1.604714E0,2.3956097E1,1.2644335E1],"tree_param":{"num_deleted":"0","num_feature":"9","num_nodes":"15","size_leaf_vector":"1"}},{"base_weights":[-3.483878E-2,-4.3403514E-2,4.277341E-1,-2.8359696E-2,-2.5599954E-1,-2.0751514E-1,1.1441994E0,-7.765345E-3,1.3317512E-1,-8.087524E-2,8.147033E-2,1.4135012E-1,-1.6085872E-1,7.300729E-2,3.1454223E-1],"categories":[],"categories_nodes":[],"categories_segments":[],"categories_sizes":[],"default_left":[0,0,0,0,0,0,0,0,0,0,0,0,0,0,0],"id":63,"left_children":[1,3,5,7,9,11,13,-1,-1,-1,-1,-1,-1,-1,-1],"loss_changes":[1.7938471E0,1.4027238E0,3.986846E0,3.025863E0,3.0200706E0,3.4127104E0,7.6978827E-1,0E0,0E0,0E0,0E0,0E0,0E0,0E0,0E0],"parents":[2147483647,0,0,1,1,2,2,3,3,4,4,5,5,6,6],"right_children":[2,4,6,8,10,12,14,-1,-1,-1,-1,-1,-1,-1,-1],"split_conditions":[1.7666666E1,4.2857143E-1,-1.1436401E-1,3.6363637E-1,3.6721005E0,-5.8458514E0,7E0,-7.765345E-3,1.3317512E-1,-8.087524E-2,8.147033E-2,1.4135012E-1,-1.6085872E-1,7.300729E-2,3.1454223E-1],"split_indices":[6,2,4,2,4,4,8,0,0,0,0,0,0,0,0],"split_type":[0,0,0,0,0,0,0,0,0,0,0,0,0,0,0],"sum_hessian":[4.470984E2,4.3986035E2,7.23803E0,4.1185022E2,2.8010138E1,4.2129807E0,3.0250492E0,4.06663E2,5.18721E0,2.3209173E1,4.8009634E0,1.5911142E0,2.6218662E0,1.7304474E0,1.2946018E0],"tree_param":{"num_deleted":"0","num_feature":"9","num_nodes":"15","size_leaf_vector":"1"}},{"base_weights":[3.181003E-2,7.964121E-1,2.4700973E-2,1.9076897E-1,4.0414486E-2,-2.6350716E-1,4.389926E-2,-1.1636169E-2,-1.9939522E-1,-1.09713495E-1,1.0561268E-2],"categories":[],"categories_nodes":[],"categories_segments":[],"categories_sizes":[],"default_left":[0,0,0,0,0,0,0,0,0,0,0],"id":64,"left_children":[1,3,5,-1,-1,7,9,-1,-1,-1,-1],"loss_changes":[2.4207664E0,1.9125581E-1,2.478608E0,0E0,0E0,4.1570673E0,2.2394629E0,0E0,0E0,0E0,0E0],"parents":[2147483647,0,0,1,1,2,2,5,5,6,6],"right_children":[2,4,6,-1,-1,8,10,-1,-1,-1,-1],"split_conditions":[-1.3E1,2.5132432E0,2E0,1.9076897E-1,4.0414486E-2,7.904477E-2,-1.8333334E1,-1.1636169E-2,-1.9939522E-1,-1.09713495E-1,1.0561268E-2],"split_indices":[7,4,8,0,0,1,5,0,0,0,0],"split_type":[0,0,0,0,0,0,0,0,0,0,0],"sum_hessian":[4.479732E2,3.1039639E0,4.4486923E2,1.9757361E0,1.1282278E0,2.6988436E1,4.178808E2,2.1928986E1,5.0594487E0,5.2919416E0,4.1258887E2],"tree_param":{"num_deleted":"0","num_feature":"9","num_nodes":"11","size_leaf_vector":"1"}}]},"name":"gbtree"},"learner_model_param":{"base_score":"5.823995E-1","boost_from_average":"1","num_class":"0","num_feature":"9","num_target":"1"},"objective":{"name":"binary:logistic","reg_loss_param":{"scale_pos_weight":"1"}}},"version":[3,0,5]}