{"learner":{"attributes":{"best_iteration":"15","best_score":"0.5961966224303541"},"feature_names":[],"feature_types":[],"gradient_booster":{"model":{"gbtree_model_param":{"num_parallel_tree":"1","num_trees":"66"},"iteration_indptr":[0,1,2,3,4,5,6,7,8,9,10,11,12,13,14,15,16,17,18,19,20,21,22,23,24,25,26,27,28,29,30,31,32,33,34,35,36,37,38,39,40,41,42,43,44,45,46,47,48,49,50,51,52,53,54,55,56,57,58,59,60,61,62,63,64,65,66],"tree_info":[0,0,0,0,0,0,0,0,0,0,0,0,0,0,0,0,0,0,0,0,0,0,0,0,0,0,0,0,0,0,0,0,0,0,0,0,0,0,0,0,0,0,0,0,0,0,0,0,0,0,0,0,0,0,0,0,0,0,0,0,0,0,0,0,0,0],"trees":[{"base_weights":[1.1397542E-7,-5.3779125E-1,8.116126E-1,-1.1217436E0,-1.5641564E-1,1.4983362E-1,1.0137818E0,-1.4933658E0,-6.684826E-1,-4.75652E-1,3.8767895E-1,-9.7685915E-1,3.0117235E-1,6.642157E-1,1.2656419E0,-1.5395172E0,6.1137408E-2,-7.4222855E-2,-1.0827128E0,-6.513145E-1,-1.794248E-2,-1.3278894E-2,8.856742E-1,-1.5298042E-1,-2.631611E-1,-4.269982E-1,5.3115404E-1,1.4352132E-1,8.952268E-1,1.3073876E0,-3.609763E-2,-1.654452E0,-9.601144E-1,1.8181446E-1,-1.1352128E0,-1.3555968E0,-4.269982E-1,-1.6897978E-1,-7.523007E-1,1.9129884E-1,-7.156793E-1,8.721562E-1,-9.962111E-2,6.815945E-1,1.5149188E-1,-7.041498E-2,4.9016714E-2,-7.5657076E-1,4.1802928E-1,7.3872787E-1,-6.680492E-1,4.9627995E-1,-3.1252697E-1,4.8301077E-1,1.0770457E0,1.1009489E0,1.4728733E0,9.414849E-2,-7.041498E-2,-1.3460597E0,-2.0221272E0,-3.58148E-1,-1.5512524E0,-9.281582E-1,3.5966915E-1,-1.6450839E-1,-3.8388348E-1,-1.419784E0,3.8849437E-3,-9.6464974E-1,-7.766151E-3,-4.5400953E-1,5.704173E-1,-1.0669369E0,-5.587417E-1,8.4400034E-1,-9.31243E-2,5.121782E-1,-1.3147224E0,3.4067456E-2,1.08085945E-1,-7.037029E-1,1.7278863E-2,7.8564125E-1,-5.644053E-2,-2.9066038E-1,-1.3401382E-1,-7.68605E-3,9.414849E-2,2.1178779E-1,1.0756996E0,-1.0211041E0,4.9016714E-2,1.24894075E-1,2.388412E-1,-6.131497E-1,6.330119E-1,-2.631611E-1,6.600686E-1,1.6497132E-1,1.1958852E0,1.1775932E0,-5.644053E-2,7.6714975E-1,1.5428255E-1,-2.7084857E-1,-1.4592757E0,-2.0744316E-1,-7.696028E-2,-2.081231E-2,-1.1396952E-1,-1.8405358E-1,-2.0200409E-2,-1.4220713E-1,3.8849437E-3,1.9037868E-1,1.2158527E-1,4.9016714E-2,-1.0153823E-1,-7.8681445E-1,-1.5659676E-1,3.8849437E-3,-1.2355305E0,2.945179E-1,-7.696028E-2,-1.9795397E-1,-1.5097877E-1,1.1314851E-1,-8.63786E-2,-1.1446567E0,4.9016714E-2,-6.879251E-1,3.8892207E-1,1.1467165E-2,1.0059626E0,-4.5400953E-1,4.4385758E-1,1.0180632E-1,-2.0200409E-2,-1.5403399E-1,-3.9951034E-2,2.5693038E-1,-1.3984784E0,-2.5739217E-1,3.6333376E-1,1.0006061E0,3.99839E-1,-8.843017E-1,7.937486E-2,4.9895367E-1,-1.0177945E-1,2.3678418E-2,1.1588266E0,2.0468501E-2,-1.5298042E-1,-4.9022454E-1,5.5954987E-1,4.9016714E-2,-8.276734E-1,9.414849E-2,3.8849437E-3,4.9016714E-2,-7.041498E-2,6.0802393E-2,1.0273232E0,-5.0881296E-1,1.08085945E-1,6.674598E-1,1.3393306E0,1.3579229E0,8.598497E-1,1.1777182E-1,3.426046E-1,-1.2434822E-1,7.937486E-2,-1.6675901E-1,-9.097348E-1,4.8593542E-1,-6.560208E-1,6.4392895E-1,-2.602926E-1,-1.472433E-1,-3.609763E-2,3.8849437E-3,-1.6983518E-1,9.768033E-2,-3.7880957E-1,-4.5646366E-1,5.121782E-1,-1.4027693E0,-6.9460845E-1,-8.932332E-1,-2.640194E-1,-3.9951034E-2,6.9879913E-1,4.1802928E-1,1.3466685E-1,-9.1223556E-1,2.4209298E-1,7.6714975E-1,-2.535652E-1,-8.63786E-2,1.08085945E-1,-4.1246828E-2,-1.6450839E-1,-7.572391E-1,6.587875E-2,6.561959E-1,-5.899808E-1,5.0170954E-2,1.1479299E0,1.2779216E-1,-2.5695467E-2,-1.4069313E-1,2.0468501E-2,7.9941636E-1,-2.631611E-1,5.704173E-1,1.3182203E-1,-1.0177945E-1,4.9016714E-2,8.2813776E-1,-3.9951034E-2,-1.2585696E0,1.6826025E-3,7.6742595E-1,-6.191417E-1,1.2399988E0,1.1467165E-2,-2.94179E-3,-8.63786E-2,5.556893E-2,1.05468445E-1,4.542101E-2,1.3924624E-1,1.4071822E0,3.4067456E-2,5.038304E-1,1.4734972E-1,-4.1246828E-2,7.0466596E-1,-1.2971295E-2,-1.4931618E0,-7.68605E-3,1.0180632E-1,-1.0153823E-1,3.8849437E-3,9.3523455E-1,-1.11746125E-1,-1.0177945E-1,6.22685E-2,4.542101E-2,-6.0869318E-2,2.0468501E-2,-7.696028E-2,-8.091525E-1,5.504289E-2,1.0180632E-1,-2.0200409E-2,-1.6407315E-1,-7.8681445E-1,9.483391E-2,-1.0988976E0,1.3812022E-1,-1.0365404E0,-7.196764E-1,4.3157274E-1,1.2158527E-1,-7.68605E-3,1.1332871E-1,-6.0869318E-2,1.6826025E-3,-1.3492224E0,-3.8388348E-1,7.6742595E-1,2.3678418E-2,9.560578E-2,-8.63786E-2,3.4067456E-2,1.6826025E-3,-1.1352128E0,-9.039437E-2,2.9040724E-1,8.364499E-1,-3.9951034E-2,-1.1396952E-1,1.1467165E-2,4.9016714E-2,-4.1246828E-2,3.8849437E-3,1.2406054E0,-2.9396856E-1,7.10767E-2,1.6826025E-3,1.1522352E-1,3.4067456E-2,-7.696028E-2,-2.412495E-1,1.2158527E-1,3.426046E-1,1.24894075E-1,-1.785052E-1,-2.94179E-3,6.1137408E-2,-6.0869318E-2,3.8849437E-3,1.08085945E-1,-1.0153823E-1,-2.94179E-3,3.8849437E-3,1.4556159E-1,-7.041498E-2,1.0180632E-1,4.542101E-2,1.4604205E-1,-1.767466E-1,7.8905284E-1,3.8849437E-3,1.0180632E-1,-6.1914172E-2,1.0180632E-1,-1.7351389E-1,-5.644053E-2,1.6039124E-2,1.3466685E-1,4.9016714E-2,-6.0869318E-2,-2.8239775E-2,6.330119E-2,-1.2585697E-1,2.3678418E-2,-1.4069313E-1,-1.5961431E-2,-8.63786E-2,5.8251895E-2,-2.2486681E-2,-1.3147224E-1,-8.63786E-2,7.04666E-2,-1.1445496E-1,-2.7084857E-2,-4.1558065E-2,-1.3314393E-1,-7.696028E-2,9.115433E-2,-6.0869318E-2,6.1137408E-2,-4.1246828E-2,-1.4977549E-1,3.8849437E-3,-6.0869318E-2,3.8849437E-3,1.08085945E-1,-3.9951034E-2,4.9016714E-2,-2.2486681E-2,-1.5298042E-1,-5.644053E-2,5.028677E-2,9.798429E-2,-2.94179E-3,6.5815106E-2,1.5204842E-1,4.3252863E-2,-8.0516405E-2,-3.9951034E-2,4.9016714E-2,4.9016714E-2,-8.63786E-2,-2.2486681E-2,7.937486E-2,-6.560209E-2,6.1137408E-2,9.911894E-2,-4.1246828E-2],"categories":[],"categories_nodes":[],"categories_segments":[],"categories_sizes":[],"default_left":[0,0,0,0,0,0,0,0,0,0,0,0,0,0,0,0,0,0,0,0,0,0,0,0,0,0,0,0,0,0,0,0,0,0,0,0,0,0,0,0,0,0,0,0,0,0,0,0,0,0,0,0,0,0,0,0,0,0,0,0,0,0,0,0,0,0,0,0,0,0,0,0,0,0,0,0,0,0,0,0,0,0,0,0,0,0,0,0,0,0,0,0,0,0,0,0,0,0,0,0,0,0,0,0,0,0,0,0,0,0,0,0,0,0,0,0,0,0,0,0,0,0,0,0,0,0,0,0,0,0,0,0,0,0,0,0,0,0,0,0,0,0,0,0,0,0,0,0,0,0,0,0,0,0,0,0,0,0,0,0,0,0,0,0,0,0,0,0,0,0,0,0,0,0,0,0,0,0,0,0,0,0,0,0,0,0,0,0,0,0,0,0,0,0,0,0,0,0,0,0,0,0,0,0,0,0,0,0,0,0,0,0,0,0,0,0,0,0,0,0,0,0,0,0,0,0,0,0,0,0,0,0,0,0,0,0,0,0,0,0,0,0,0,0,0,0,0,0,0,0,0,0,0,0,0,0,0,0,0,0,0,0,0,0,0,0,0,0,0,0,0,0,0,0,0,0,0,0,0,0,0,0,0,0,0,0,0,0,0,0,0,0,0,0,0,0,0,0,0,0,0,0,0,0,0,0,0,0,0,0,0,0,0,0,0,0,0,0,0,0,0,0,0,0,0,0,0,0,0,0,0,0,0,0,0,0,0,0,0,0,0,0,0,0,0,0,0,0,0,0,0,0,0,0,0,0,0,0,0,0,0,0,0,0,0,0,0,0,0,0,0,0,0,0,0],"id":0,"left_children":[1,3,5,7,9,11,13,15,17,19,21,23,25,27,29,31,-1,33,35,37,39,41,43,-1,45,47,49,51,53,55,57,59,61,63,65,67,69,71,73,75,77,79,81,83,-1,-1,-1,85,87,89,91,93,95,97,99,101,103,-1,-1,105,107,109,111,113,115,-1,117,119,-1,121,123,125,127,129,131,133,135,137,139,-1,-1,141,143,145,-1,147,-1,-1,-1,149,151,153,-1,-1,155,157,159,161,163,165,167,169,-1,171,-1,173,175,-1,-1,177,-1,-1,-1,-1,-1,179,-1,-1,-1,181,-1,-1,183,185,-1,187,-1,-1,-1,189,-1,191,193,-1,195,197,199,-1,-1,-1,-1,201,203,205,207,209,211,213,-1,215,-1,-1,217,-1,-1,219,221,-1,223,-1,-1,-1,-1,225,227,229,-1,231,233,235,237,-1,239,-1,-1,-1,241,243,245,247,249,-1,251,-1,-1,-1,253,255,257,259,261,263,265,-1,267,269,-1,271,273,275,277,-1,-1,-1,-1,279,281,283,285,287,289,-1,291,-1,-1,293,295,297,-1,-1,-1,299,-1,301,303,305,307,309,-1,-1,-1,311,-1,-1,-1,313,-1,315,-1,-1,317,319,321,-1,-1,-1,-1,323,325,-1,327,-1,-1,-1,-1,329,-1,-1,-1,-1,331,333,335,337,339,341,343,-1,-1,-1,-1,345,347,349,351,-1,-1,-1,-1,353,355,-1,357,359,-1,-1,-1,-1,-1,-1,361,363,-1,365,-1,-1,-1,367,-1,369,-1,-1,-1,-1,-1,-1,-1,-1,-1,-1,-1,-1,-1,-1,-1,371,373,-1,-1,-1,-1,-1,-1,-1,-1,-1,-1,-1,-1,-1,-1,-1,-1,-1,-1,-1,-1,-1,-1,-1,-1,-1,-1,-1,-1,-1,-1,-1,-1,-1,-1,-1,-1,-1,-1,-1,-1,-1,-1,-1,-1,-1,-1,-1,-1,-1,-1,-1,-1,-1,-1,-1,-1,-1,-1],"loss_changes":[2.745778E2,8.4088135E1,3.339116E1,2.4153366E1,4.0141895E1,1.0497917E1,1.6051926E1,8.8324585E0,1.6924662E1,1.1681171E1,1.710696E1,2.486866E0,9.189526E0,9.789616E0,6.0474243E0,3.7243347E0,0E0,8.206085E0,6.6917725E0,4.990589E0,6.1756234E0,3.7881277E0,3.8731213E0,0E0,1.8082193E0,4.0482755E0,1.0729036E1,4.42318E0,3.7461357E0,2.034256E0,3.5391297E0,4.6699524E0,4.991624E0,5.187297E0,1.6144595E0,2.5821152E0,3.0129886E0,4.364211E0,4.677101E0,6.132259E0,7.8473005E0,1.20285034E-1,3.1906068E0,4.4187584E0,0E0,0E0,0E0,2.3284054E0,1.2132459E0,6.0804634E0,3.1962261E0,2.6751387E0,3.851653E0,2.7150807E0,3.9960976E0,7.247612E0,1.6025696E0,0E0,0E0,4.284668E0,2.2123718E-1,2.3553605E0,2.580925E0,1.8103082E0,2.944336E0,0E0,2.5259547E0,1.2677231E0,0E0,1.6417136E0,2.1927836E0,3.6524494E0,5.6951795E0,4.419075E0,7.0874615E0,1.0654597E0,4.7773848E0,1.6211171E0,7.9607105E-1,0E0,0E0,5.246071E0,3.7708392E0,1.9816742E0,0E0,5.102281E0,0E0,0E0,0E0,5.8404408E0,1.2196674E0,3.665781E0,0E0,0E0,3.2370203E0,2.7141798E0,5.923538E-1,1.8082193E0,3.4218855E0,4.017989E0,1.6884117E0,1.6760864E0,0E0,8.303547E-1,0E0,6.0507874E0,2.4386063E0,0E0,0E0,2.6756072E0,0E0,0E0,0E0,0E0,0E0,4.1491904E0,0E0,0E0,0E0,3.5902781E0,0E0,0E0,2.8069472E0,3.510272E0,0E0,2.604527E0,0E0,0E0,0E0,2.587635E0,0E0,4.062317E0,2.0680227E0,0E0,1.049819E0,4.8830156E0,2.448431E0,0E0,0E0,0E0,0E0,4.551256E0,3.923254E-1,3.6296248E0,5.28245E0,2.4315948E0,4.49487E0,3.0712552E0,0E0,3.167558E0,0E0,0E0,1.0521889E0,0E0,0E0,2.776778E0,2.7179518E0,0E0,3.0531511E0,0E0,0E0,0E0,0E0,3.876195E0,1.750907E0,6.4128375E-1,0E0,2.1371055E0,5.808983E-1,1.0205917E0,3.7788277E0,0E0,1.6275892E0,0E0,0E0,0E0,6.10122E0,1.4699897E0,9.570335E-1,2.3050475E0,2.6247325E0,0E0,1.5129044E0,0E0,0E0,0E0,1.1063204E0,3.9953105E0,1.6211171E0,1.4216309E0,4.303549E0,4.9987354E0,5.8680134E0,0E0,2.3473105E0,3.9240355E0,0E0,3.6061268E0,2.462479E0,4.8283482E-1,1.7149186E0,0E0,0E0,0E0,0E0,2.5206752E0,3.3922887E0,2.9767604E0,1.9308197E0,9.0068626E-1,1.5291004E0,0E0,1.9918118E0,0E0,0E0,2.6747417E0,1.6089776E0,3.3647904E0,0E0,0E0,0E0,1.117734E0,0E0,3.5842028E0,1.8300985E0,8.526702E-1,9.424195E-1,1.9656591E0,0E0,0E0,0E0,4.1150193E0,0E0,0E0,0E0,7.690201E-1,0E0,2.9767025E0,0E0,0E0,7.272123E-1,4.142596E0,6.115236E-1,0E0,0E0,0E0,0E0,2.1181784E0,1.3975085E0,0E0,1.810403E0,0E0,0E0,0E0,0E0,3.9683037E0,0E0,0E0,0E0,0E0,2.528593E0,3.0167766E0,1.360733E0,3.3845682E0,2.0852032E0,1.4872952E0,5.062947E0,0E0,0E0,0E0,0E0,1.8300985E0,2.3181343E-1,3.728624E-1,8.526702E-1,0E0,0E0,0E0,0E0,9.6361625E-1,1.7620502E0,0E0,2.5409002E0,1.5416765E0,0E0,0E0,0E0,0E0,0E0,0E0,1.3027039E0,3.0674481E0,0E0,9.6361625E-1,0E0,0E0,0E0,1.9858619E0,0E0,1.4304724E0,0E0,0E0,0E0,0E0,0E0,0E0,0E0,0E0,0E0,0E0,0E0,0E0,0E0,0E0,0E0,2.340129E0,2.9547882E0,0E0,0E0,0E0,0E0,0E0,0E0,0E0,0E0,0E0,0E0,0E0,0E0,0E0,0E0,0E0,0E0,0E0,0E0,0E0,0E0,0E0,0E0,0E0,0E0,0E0,0E0,0E0,0E0,0E0,0E0,0E0,0E0,0E0,0E0,0E0,0E0,0E0,0E0,0E0,0E0,0E0,0E0,0E0,0E0,0E0,0E0,0E0,0E0,0E0,0E0,0E0,0E0,0E0,0E0,0E0,0E0,0E0,0E0],"parents":[2147483647,0,0,1,1,2,2,3,3,4,4,5,5,6,6,7,7,8,8,9,9,10,10,11,11,12,12,13,13,14,14,15,15,17,17,18,18,19,19,20,20,21,21,22,22,24,24,25,25,26,26,27,27,28,28,29,29,30,30,31,31,32,32,33,33,34,34,35,35,36,36,37,37,38,38,39,39,40,40,41,41,42,42,43,43,47,47,48,48,49,49,50,50,51,51,52,52,53,53,54,54,55,55,56,56,59,59,60,60,61,61,62,62,63,63,64,64,66,66,67,67,69,69,70,70,71,71,72,72,73,73,74,74,75,75,76,76,77,77,78,78,81,81,82,82,83,83,85,85,89,89,90,90,91,91,94,94,95,95,96,96,97,97,98,98,99,99,100,100,101,101,103,103,105,105,106,106,109,109,115,115,119,119,122,122,123,123,125,125,129,129,131,131,132,132,134,134,135,135,136,136,141,141,142,142,143,143,144,144,145,145,146,146,147,147,149,149,152,152,155,155,156,156,158,158,163,163,164,164,165,165,167,167,168,168,169,169,170,170,172,172,176,176,177,177,178,178,179,179,180,180,182,182,186,186,187,187,188,188,189,189,190,190,191,191,192,192,194,194,195,195,197,197,198,198,199,199,200,200,205,205,206,206,207,207,208,208,209,209,210,210,212,212,215,215,216,216,217,217,221,221,223,223,224,224,225,225,226,226,227,227,231,231,235,235,237,237,240,240,241,241,242,242,247,247,248,248,250,250,255,255,260,260,261,261,262,262,263,263,264,264,265,265,266,266,271,271,272,272,273,273,274,274,279,279,280,280,282,282,283,283,290,290,291,291,293,293,297,297,299,299,315,315,316,316],"right_children":[2,4,6,8,10,12,14,16,18,20,22,24,26,28,30,32,-1,34,36,38,40,42,44,-1,46,48,50,52,54,56,58,60,62,64,66,68,70,72,74,76,78,80,82,84,-1,-1,-1,86,88,90,92,94,96,98,100,102,104,-1,-1,106,108,110,112,114,116,-1,118,120,-1,122,124,126,128,130,132,134,136,138,140,-1,-1,142,144,146,-1,148,-1,-1,-1,150,152,154,-1,-1,156,158,160,162,164,166,168,170,-1,172,-1,174,176,-1,-1,178,-1,-1,-1,-1,-1,180,-1,-1,-1,182,-1,-1,184,186,-1,188,-1,-1,-1,190,-1,192,194,-1,196,198,200,-1,-1,-1,-1,202,204,206,208,210,212,214,-1,216,-1,-1,218,-1,-1,220,222,-1,224,-1,-1,-1,-1,226,228,230,-1,232,234,236,238,-1,240,-1,-1,-1,242,244,246,248,250,-1,252,-1,-1,-1,254,256,258,260,262,264,266,-1,268,270,-1,272,274,276,278,-1,-1,-1,-1,280,282,284,286,288,290,-1,292,-1,-1,294,296,298,-1,-1,-1,300,-1,302,304,306,308,310,-1,-1,-1,312,-1,-1,-1,314,-1,316,-1,-1,318,320,322,-1,-1,-1,-1,324,326,-1,328,-1,-1,-1,-1,330,-1,-1,-1,-1,332,334,336,338,340,342,344,-1,-1,-1,-1,346,348,350,352,-1,-1,-1,-1,354,356,-1,358,360,-1,-1,-1,-1,-1,-1,362,364,-1,366,-1,-1,-1,368,-1,370,-1,-1,-1,-1,-1,-1,-1,-1,-1,-1,-1,-1,-1,-1,-1,372,374,-1,-1,-1,-1,-1,-1,-1,-1,-1,-1,-1,-1,-1,-1,-1,-1,-1,-1,-1,-1,-1,-1,-1,-1,-1,-1,-1,-1,-1,-1,-1,-1,-1,-1,-1,-1,-1,-1,-1,-1,-1,-1,-1,-1,-1,-1,-1,-1,-1,-1,-1,-1,-1,-1,-1,-1,-1,-1],"split_conditions":[2.7272727E-2,-2.1428572E-1,-1.6803126E0,-4.37858E-2,4.5950734E-3,0E0,3.3333333E0,6.8523407E0,7E0,1.4419909E0,1.6789776E0,-1.3333334E0,7E0,8.3153677E-1,1.1666667E1,-2.777778E-1,6.1137408E-2,1.3333333E1,5.126721E-2,-6.3333335E0,6E0,-6.8065023E0,1.1333333E1,-1.5298042E-1,6.3333335E0,-2.9879513E0,-2.1203434E0,-4.3333335E0,-3.9973997E-2,2.389804E0,1.1E1,1E1,-2.2244058E0,-4.4475384E-2,1.6E1,7.3333335E0,-1.4632769E0,-7.6666665E0,-7E0,0E0,2.1404405E0,4.6666665E0,-2E0,1.0333333E1,1.5149188E-1,-7.041498E-2,4.9016714E-2,-3.0865788E-2,3E-1,1.5E-1,1.0193986E-1,-7.3333335E0,3.767349E-2,-1E-1,-2E0,2.2287037E0,1.0130719E-1,9.414849E-2,-7.041498E-2,-8.3486035E-2,2.2944016E0,1.5E1,2.908717E0,-3.888889E-1,4.4739965E-2,-1.6450839E-1,-3E-1,-6.6666665E0,3.8849437E-3,-7.659898E-2,4.3359518E-2,7.1978025E-2,2E0,1.8E1,1.2562924E-2,-5.055414E-3,-3.3333334E-1,-3E-1,4.3359518E-2,3.4067456E-2,1.08085945E-1,2E0,-1.2596685E0,1.3333334E0,-5.644053E-2,4.2879015E-2,-1.3401382E-1,-7.68605E-3,9.414849E-2,-2.841598E0,-1.0333333E1,-9.333333E0,4.9016714E-2,1.24894075E-1,-3E0,-1.0564123E0,1.3636364E-1,-1.4562185E-1,1.1E1,6.327321E-2,-3.3333333E0,1.5236404E-2,-5.644053E-2,1.5E-1,1.5428255E-1,-1.3E1,-9.197641E-2,-2.0744316E-1,-7.696028E-2,4.6666665E0,-1.1396952E-1,-1.8405358E-1,-2.0200409E-2,-1.4220713E-1,3.8849437E-3,3.6666667E0,1.2158527E-1,4.9016714E-2,-1.0153823E-1,-4.4444445E-1,-1.5659676E-1,3.8849437E-3,3E0,4E0,-7.696028E-2,6.666667E-2,-1.5097877E-1,1.1314851E-1,-8.63786E-2,-1.8200498E0,4.9016714E-2,-2.9566824E-2,-1.0714286E-1,1.1467165E-2,-9.083827E-2,-2.0034378E-2,2.8168926E-2,1.0180632E-1,-2.0200409E-2,-1.5403399E-1,-3.9951034E-2,-3.6666667E0,-2.8971577E0,-1E-1,8.9737153E-1,2E0,3.2279928E0,-4.0702596E0,7.937486E-2,1E0,-1.0177945E-1,2.3678418E-2,1.8055555E-1,2.0468501E-2,-1.5298042E-1,-9.333333E0,7.893217E-2,4.9016714E-2,-7.397447E-3,9.414849E-2,3.8849437E-3,4.9016714E-2,-7.041498E-2,-4E0,-5.9270184E-2,2.6923078E-1,1.08085945E-1,1.5E-1,0E0,8.5714287E-1,1.563135E0,1.1777182E-1,7E0,-1.2434822E-1,7.937486E-2,-1.6675901E-1,-1.6803126E0,-9.666667E0,-5.4012515E-2,1.5236404E-2,-6.214055E-4,-1.472433E-1,-5E-1,3.8849437E-3,-1.6983518E-1,9.768033E-2,1.2E1,1E0,-1.1165677E-1,0E0,-7.645482E-1,-6E0,5.6666665E0,-3.9951034E-2,-2.9566824E-2,-1.619289E-1,1.3466685E-1,-9.666667E0,4E0,-4.0877026E-2,-1E-1,-8.63786E-2,1.08085945E-1,-4.1246828E-2,-1.6450839E-1,-3.4800665E0,2E0,1.7E1,1E1,1.4035492E-1,8.504187E-3,1.2779216E-1,1.15078025E-1,-1.4069313E-1,2.0468501E-2,-4E0,-5.299769E-3,-3.7538075E0,1.3182203E-1,-1.0177945E-1,4.9016714E-2,2.6923078E-1,-3.9951034E-2,3.3333333E0,3.0990131E-3,3.5700683E-2,2.9746304E0,-1.6493265E-1,1.1467165E-2,-2.94179E-3,-8.63786E-2,1.6E1,1.05468445E-1,4.542101E-2,1.3924624E-1,-6.6995025E-3,3.4067456E-2,1.8181819E-1,1.4734972E-1,-4.1246828E-2,1.4842424E-1,-3.0114269E-2,4.6666665E0,-7.68605E-3,1.0180632E-1,-1.0153823E-1,3.8849437E-3,-3E-1,-2E0,-1.0177945E-1,-4.8214287E-1,4.542101E-2,-6.0869318E-2,2.0468501E-2,-7.696028E-2,-5E0,5.504289E-2,1.0180632E-1,-2.0200409E-2,-1.6407315E-1,-2.6666667E0,-1.3636364E-1,-1.7777778E-1,0E0,7.1978025E-2,-7.202991E-1,-1.0714286E-1,1.2158527E-1,-7.68605E-3,1.1332871E-1,-6.0869318E-2,-1.6860893E-1,2.1739335E0,-4E0,-9.52381E-2,2.3678418E-2,9.560578E-2,-8.63786E-2,3.4067456E-2,-5.2310918E-2,-3E-1,-9.039437E-2,-5.6274183E-2,2.4409607E-2,-3.9951034E-2,-1.1396952E-1,1.1467165E-2,4.9016714E-2,-4.1246828E-2,3.8849437E-3,3.3333334E-1,2.3333333E0,7.10767E-2,-4.5337515E0,1.1522352E-1,3.4067456E-2,-7.696028E-2,-7.659898E-2,1.2158527E-1,3.977647E-5,1.24894075E-1,-1.785052E-1,-2.94179E-3,6.1137408E-2,-6.0869318E-2,3.8849437E-3,1.08085945E-1,-1.0153823E-1,-2.94179E-3,3.8849437E-3,1.4556159E-1,-7.041498E-2,1.0180632E-1,4.542101E-2,1.4604205E-1,1E1,7E-1,3.8849437E-3,1.0180632E-1,-6.1914172E-2,1.0180632E-1,-1.7351389E-1,-5.644053E-2,1.6039124E-2,1.3466685E-1,4.9016714E-2,-6.0869318E-2,-2.8239775E-2,6.330119E-2,-1.2585697E-1,2.3678418E-2,-1.4069313E-1,-1.5961431E-2,-8.63786E-2,5.8251895E-2,-2.2486681E-2,-1.3147224E-1,-8.63786E-2,7.04666E-2,-1.1445496E-1,-2.7084857E-2,-4.1558065E-2,-1.3314393E-1,-7.696028E-2,9.115433E-2,-6.0869318E-2,6.1137408E-2,-4.1246828E-2,-1.4977549E-1,3.8849437E-3,-6.0869318E-2,3.8849437E-3,1.08085945E-1,-3.9951034E-2,4.9016714E-2,-2.2486681E-2,-1.5298042E-1,-5.644053E-2,5.028677E-2,9.798429E-2,-2.94179E-3,6.5815106E-2,1.5204842E-1,4.3252863E-2,-8.0516405E-2,-3.9951034E-2,4.9016714E-2,4.9016714E-2,-8.63786E-2,-2.2486681E-2,7.937486E-2,-6.560209E-2,6.1137408E-2,9.911894E-2,-4.1246828E-2],"split_indices":[2,2,4,1,1,3,5,4,8,4,4,5,8,4,6,2,0,6,1,6,6,4,5,0,6,4,4,6,1,4,8,8,4,0,6,5,4,6,5,7,4,5,7,5,0,0,0,0,3,2,1,5,1,3,7,4,2,0,0,0,4,8,4,2,0,0,3,5,0,0,0,4,5,8,0,0,6,3,0,0,0,8,4,6,0,1,0,0,0,4,6,6,0,0,5,4,2,1,8,1,5,0,0,3,0,5,1,0,0,6,0,0,0,0,0,6,0,0,0,2,0,0,6,5,0,3,0,0,0,4,0,1,2,0,1,1,0,0,0,0,0,6,4,3,4,8,4,4,0,7,0,0,2,0,0,6,1,0,0,0,0,0,0,6,1,2,0,2,7,2,4,0,5,0,0,0,4,5,0,0,0,0,3,0,0,0,8,7,1,3,4,5,6,0,1,1,0,5,8,1,3,0,0,0,0,4,8,8,8,1,1,0,1,0,0,6,1,4,0,0,0,2,0,6,0,0,4,1,0,0,0,8,0,0,0,1,0,2,0,0,1,0,6,0,0,0,0,3,6,0,2,0,0,0,0,5,0,0,0,0,6,2,2,7,4,4,2,0,0,0,0,1,4,5,2,0,0,0,0,0,3,0,0,0,0,0,0,0,0,0,5,5,0,4,0,0,0,0,0,0,0,0,0,0,0,0,0,0,0,0,0,0,0,0,0,5,3,0,0,0,0,0,0,0,0,0,0,0,0,0,0,0,0,0,0,0,0,0,0,0,0,0,0,0,0,0,0,0,0,0,0,0,0,0,0,0,0,0,0,0,0,0,0,0,0,0,0,0,0,0,0,0,0,0,0],"split_type":[0,0,0,0,0,0,0,0,0,0,0,0,0,0,0,0,0,0,0,0,0,0,0,0,0,0,0,0,0,0,0,0,0,0,0,0,0,0,0,0,0,0,0,0,0,0,0,0,0,0,0,0,0,0,0,0,0,0,0,0,0,0,0,0,0,0,0,0,0,0,0,0,0,0,0,0,0,0,0,0,0,0,0,0,0,0,0,0,0,0,0,0,0,0,0,0,0,0,0,0,0,0,0,0,0,0,0,0,0,0,0,0,0,0,0,0,0,0,0,0,0,0,0,0,0,0,0,0,0,0,0,0,0,0,0,0,0,0,0,0,0,0,0,0,0,0,0,0,0,0,0,0,0,0,0,0,0,0,0,0,0,0,0,0,0,0,0,0,0,0,0,0,0,0,0,0,0,0,0,0,0,0,0,0,0,0,0,0,0,0,0,0,0,0,0,0,0,0,0,0,0,0,0,0,0,0,0,0,0,0,0,0,0,0,0,0,0,0,0,0,0,0,0,0,0,0,0,0,0,0,0,0,0,0,0,0,0,0,0,0,0,0,0,0,0,0,0,0,0,0,0,0,0,0,0,0,0,0,0,0,0,0,0,0,0,0,0,0,0,0,0,0,0,0,0,0,0,0,0,0,0,0,0,0,0,0,0,0,0,0,0,0,0,0,0,0,0,0,0,0,0,0,0,0,0,0,0,0,0,0,0,0,0,0,0,0,0,0,0,0,0,0,0,0,0,0,0,0,0,0,0,0,0,0,0,0,0,0,0,0,0,0,0,0,0,0,0,0,0,0,0,0,0,0,0,0,0,0,0,0,0,0,0,0,0,0,0,0,0,0,0,0,0,0,0],"sum_hessian":[6.270756E2,3.7736383E2,2.4971178E2,1.4831955E2,2.290443E2,5.8841526E1,1.9087024E2,8.023845E1,6.808111E1,1.444292E2,8.461509E1,6.321817E0,5.251971E1,8.145418E1,1.0941606E2,7.8779564E1,1.4588809E0,2.8448177E1,3.963293E1,1.0406683E2,4.036237E1,4.7413628E1,3.720146E1,2.9177618E0,3.4040554E0,1.2400487E1,4.0119225E1,2.5530415E1,5.5923767E1,1.0601201E2,3.4040554E0,6.419076E1,1.4588808E1,2.358524E1,4.862936E0,2.7232443E1,1.2400487E1,1.8479156E1,8.558768E1,3.1609085E1,8.753285E0,3.4040554E0,4.400957E1,2.966391E1,7.537551E0,2.1883214E0,1.215734E0,8.996432E0,3.4040554E0,3.4526848E1,5.5923767E0,1.4345661E1,1.1184753E1,1.823601E1,3.7687756E1,5.0574535E1,5.5437473E1,1.215734E0,2.1883214E0,3.7444607E1,2.674615E1,8.023845E0,6.564964E0,2.674615E0,2.0910625E1,2.1883214E0,2.674615E0,2.6016708E1,1.215734E0,4.862936E0,7.537551E0,1.3616221E1,4.862936E0,3.0879644E1,5.470803E1,8.996432E0,2.2612654E1,2.9177618E0,5.8355236E0,1.7020277E0,1.7020277E0,6.321817E0,3.7687756E1,2.7718737E1,1.9451745E0,5.8355236E0,3.1609085E0,2.1883214E0,1.215734E0,1.4102515E1,2.0424332E1,4.3766427E0,1.215734E0,2.674615E0,1.1671047E1,8.753285E0,2.431468E0,3.4040554E0,1.4831955E1,4.619789E0,3.3067966E1,4.862936E1,1.9451745E0,6.07867E0,4.9358803E1,3.890349E0,3.355426E1,2.504412E1,1.7020277E0,6.321817E0,1.7020277E0,5.106083E0,1.4588809E0,1.4588809E0,1.215734E0,1.8479156E1,2.431468E0,1.215734E0,1.4588809E0,6.07867E0,1.9938038E1,1.215734E0,3.647202E0,5.8355236E0,1.7020277E0,1.1914193E1,1.7020277E0,3.647202E0,1.215734E0,2.966391E1,1.215734E0,4.8386215E1,6.321817E0,1.9451745E0,7.0512576E0,1.3616221E1,8.996432E0,1.4588809E0,1.4588809E0,4.133496E0,1.7020277E0,2.9177618E0,3.4040554E0,2.1153772E1,1.6533983E1,1.677713E1,1.09416065E1,3.890349E0,1.9451745E0,1.1914193E1,2.1883214E0,2.1883214E0,1.823601E1,1.4588809E0,2.9177618E0,3.4040554E0,8.266992E0,1.215734E0,7.537551E0,1.215734E0,1.215734E0,1.215734E0,2.1883214E0,6.07867E0,8.753285E0,2.9177618E0,1.7020277E0,8.266992E0,2.4800974E1,2.893447E1,1.9694891E1,2.1883214E0,3.890349E0,1.9451745E0,1.9451745E0,2.28558E1,1.069846E1,3.647202E0,2.674615E0,8.996432E0,9.482725E0,2.674615E0,3.4040554E0,1.215734E0,2.431468E0,2.674615E0,3.1609085E0,8.996432E0,2.9177618E0,1.750657E1,1.215734E1,3.1852232E1,1.6533983E1,1.7020277E0,4.619789E0,3.4040554E0,3.647202E0,8.023845E0,5.5923767E0,6.07867E0,2.9177618E0,1.215734E0,1.7020277E0,1.215734E0,2.1883214E0,7.780698E0,1.3373075E1,1.2886781E1,3.647202E0,2.431468E0,1.4345661E1,2.9177618E0,8.023845E0,2.431468E0,1.4588809E0,8.5101385E0,3.4040554E0,4.862936E0,1.3373075E1,2.1883214E0,1.215734E0,6.564964E0,1.7020277E0,4.619789E0,2.9177618E0,2.9177618E0,3.1609085E0,6.8081107E0,1.9451745E0,1.7020277E0,1.215734E0,3.647202E0,4.619789E0,1.9451745E0,2.28558E1,2.7232443E1,1.7020277E0,1.3616221E1,6.07867E0,1.215734E0,2.674615E0,4.619789E0,6.07867E0,2.1883214E0,1.4588809E0,1.4588809E0,1.215734E0,6.321817E0,2.674615E0,2.1883214E0,7.294404E0,1.9451745E0,1.4588809E0,1.4588809E0,1.7020277E0,6.8081107E0,2.1883214E0,1.4588809E0,1.4588809E0,1.14279E1,6.07867E0,4.3766427E0,7.780698E0,3.890349E0,2.7961884E1,9.969019E0,6.564964E0,2.431468E0,2.1883214E0,1.9451745E0,1.4588809E0,2.9177618E0,5.106083E0,2.674615E0,2.9177618E0,2.1883214E0,3.890349E0,1.215734E0,1.7020277E0,2.9177618E0,4.862936E0,1.9451745E0,1.14279E1,1.1184753E1,1.7020277E0,1.7020277E0,1.9451745E0,1.215734E0,1.215734E0,1.215734E0,1.3129928E1,6.321817E0,1.7020277E0,2.9177618E0,5.5923767E0,1.7020277E0,1.7020277E0,2.431468E0,2.431468E0,3.890349E0,2.674615E0,2.9177618E0,1.7020277E0,1.4588809E0,1.4588809E0,1.215734E0,1.7020277E0,1.4588809E0,1.7020277E0,1.215734E0,5.5923767E0,2.1883214E0,1.4588809E0,1.9451745E0,2.5287268E1,4.133496E0,9.482725E0,1.215734E0,1.4588809E0,3.1609085E0,1.4588809E0,4.133496E0,1.9451745E0,2.674615E0,3.647202E0,1.215734E0,1.4588809E0,4.862936E0,2.431468E0,4.619789E0,2.1883214E0,2.431468E0,3.647202E0,1.215734E0,3.1609085E0,1.9451745E0,5.8355236E0,1.215734E0,2.674615E0,2.4071533E1,3.890349E0,7.780698E0,2.1883214E0,1.7020277E0,4.862936E0,1.4588809E0,1.4588809E0,1.215734E0,3.890349E0,1.215734E0,1.4588809E0,1.215734E0,1.7020277E0,1.7020277E0,1.215734E0,1.9451745E0,2.9177618E0,1.9451745E0,9.482725E0,9.482725E0,1.7020277E0,5.34923E0,7.780698E0,2.674615E0,3.647202E0,1.7020277E0,1.215734E0,1.215734E0,1.215734E0,1.9451745E0,1.9451745E0,2.674615E0,1.4588809E0,8.266992E0,1.215734E0],"tree_param":{"num_deleted":"0","num_feature":"9","num_nodes":"375","size_leaf_vector":"1"}},{"base_weights":[-3.992798E-4,-4.8669338E-1,7.4872226E-1,-1.0070076E0,-1.427506E-1,1.3440222E-1,9.3900216E-1,-1.3319029E0,-6.0658276E-1,-4.3062305E-1,3.5426012E-1,-8.936131E-1,2.749141E-1,6.1447006E-1,1.1755271E0,-1.8025714E0,-1.1973084E0,-7.17064E-2,-9.742705E-1,-5.8875024E-1,-1.5002236E-2,-1.8698005E-2,8.235752E-1,-1.394092E-1,-2.4077484E-1,-3.887226E-1,4.8761028E-1,1.3714446E-1,8.2887346E-1,1.2208309E0,8.101196E-2,-1.8906608E-1,-3.9030608E-2,-1.2496158E0,9.136169E-2,-5.058143E-1,4.717624E-1,-1.1870658E0,-3.222144E-1,-7.798677E-1,-3.7066707E-1,1.7762166E-1,-6.501162E-1,8.2609856E-1,-1.0025065E-1,6.326103E-1,1.4208953E-1,-6.508649E-2,4.6559907E-2,7.099887E-2,-6.078086E-1,6.813722E-1,-6.092371E-1,4.649124E-1,-2.8268692E-1,1.3881153E-1,6.879672E-1,9.6990836E-1,1.3363981E0,-3.828595E-1,9.192772E-2,3.5938866E-2,-1.2978181E0,4.671172E-1,-9.93683E-1,1.9176582E-1,1.1888269E-1,-1.2546996E0,-2.4531947E-3,-5.864468E-1,5.5110402E-2,-9.43773E-1,-4.6691766E-1,-8.064523E-1,-1.1273528E-1,7.9050416E-1,-8.6202085E-2,4.8502758E-1,-1.1943636E0,1.0425226E-1,3.0186802E-2,-6.5452397E-1,8.0501605E-3,7.3115176E-1,-5.239855E-2,-8.9068353E-1,3.4012437E-1,4.374676E-2,9.226783E-1,-9.335879E-1,4.6559907E-2,1.1798165E-1,2.2350931E-1,-5.616248E-1,6.0245156E-1,9.0326294E-2,8.363086E-1,7.8201395E-1,1.371253E-1,1.0154523E0,1.4312721E0,5.6258466E-2,-1.08790115E-1,-1.3999399E0,-8.212033E-1,7.2132295E-1,-2.2817155E-2,-1.239469E0,-5.166406E-1,5.542939E-1,-4.7139224E-1,-1.601701E0,-1.0205908E0,4.42281E-2,-9.171437E-1,-7.668533E-1,-1.5361354E-1,-6.230963E-1,5.949797E-2,4.523426E-2,-9.7696865E-1,7.0705116E-2,-1.025016E0,1.0724181E-2,9.4432193E-1,-4.1559657E-1,4.0958685E-1,-2.0203283E-2,9.7915985E-2,-1.5046118E-1,-4.5050392E-1,2.3861134E-1,-1.2887524E0,1.1146099E-1,-7.665477E-1,9.303822E-1,3.7625977E-1,-1.2377968E-1,-2.2587456E-1,9.174698E-2,-3.858954E-2,3.7701103E-1,-1.065416E-1,-4.2437274E-2,1.0077093E0,1.929608E-2,-1.394092E-1,-4.50588E-1,5.2371716E-1,4.6559907E-2,-7.597207E-1,1.7152468E-3,9.15326E-2,-6.685726E-1,7.463183E-1,4.2120647E-1,1.0603071E0,8.573225E-1,-4.600147E-2,2.3876546E-1,1.2399515E0,1.7459592E-2,1.4648699E0,-6.232791E-1,-1.487029E0,-2.7364045E-1,-1.4003342E0,1.921185E-2,8.903673E-2,-1.3746022E-1,-3.4283966E-2,2.4532085E-2,-1.0710776E-1,4.0737145E-2,1.02062546E-1,-1.1178531E-1,3.5024103E-2,-1.4923736E-2,-1.838475E-1,6.4178996E-2,-1.1865585E0,-1.00070335E-1,-1.3618741E0,-8.7156236E-1,1.9515322E-1,-3.236629E-2,-9.951586E-1,-1.1257712E0,1.1547768E-2,-5.8580697E-1,2.2963753E-1,-4.412571E-1,-1.4992929E-1,3.9129478E-1,1.2685013E-1,-8.338523E-1,2.2735737E-1,7.156801E-1,-2.4102084E-1,-1.2307703E-1,5.341066E-2,-8.1049584E-2,1.0267053E-1,-3.8839117E-2,-1.5093088E-1,-1.3934547E-1,4.2773113E-1,-1.08687155E-1,7.3052044E-3,4.757734E-2,1.0697266E0,1.2061359E-1,-1.9044772E-2,-6.509821E-2,4.912172E-2,-2.5770102E-2,5.8808166E-1,7.58909E-1,1.4253078E-1,-9.38119E-2,4.6559907E-2,7.788586E-1,-3.7279826E-2,-1.1505638E0,1.8133164E-3,8.419263E-3,-1.11619905E-1,3.5750505E-2,1.209293E-1,2.0975389E-1,1.13157846E-1,3.2563558E-1,1.2210873E0,5.3688467E-1,1.1733243E0,9.50525E-2,-2.415646E-1,5.072306E-1,1.3941285E-1,7.4559456E-1,1.4971495E-1,-1.0777013E0,6.351872E-2,-1.2400212E0,-1.7326488E-1,9.2279576E-2,-1.0567714E-1,-3.251284E-2,-1.5935792E-1,6.0755277E-1,-8.485844E-2,-4.422545E-1,-1.5028199E0,4.7628064E-2,-5.7544388E-2,-3.7779495E-2,-1.6001609E-1,-3.0353665E-1,-1.0444785E0,9.576113E-2,-5.6880232E-2,-8.823682E-1,7.4701715E-1,-1.3093834E-1,2.38269E-2,-1.3897246E0,2.8055906E-2,-1.2556982E-1,1.613635E-1,-6.418375E-2,3.4841058E-1,-7.006739E-2,7.4332366E-3,1.0862712E-1,-5.881232E-2,1.8133164E-3,-1.2277226E0,-3.596484E-1,7.263415E-1,2.2117957E-2,8.933614E-2,2.1996705E-2,-6.0484417E-2,-6.968368E-1,1.8327105E-1,6.493936E-1,-1.0353527E-1,-4.2005863E-2,4.92971E-2,3.6731535E-3,1.1578126E0,2.2206965E-1,-8.601095E-2,1.07058935E-1,-1.5178323E-1,8.749577E-1,-4.3007012E-2,1.0083836E0,7.6229493E-3,-1.6238974E-1,-2.7555886E-3,-5.9564956E-2,6.0092784E-2,9.223921E-2,-8.6424954E-2,-3.6781937E-1,5.901858E-1,9.9026725E-2,-7.4768946E-2,1.3805674E-1,5.028561E-1,1.0594189E0,1.3455918E-1,1.4318924E-1,5.244719E-1,5.4247893E-2,-8.647778E-2,9.577262E-2,-9.153436E-3,1.0711099E-1,-2.6551888E-3,6.893266E-3,-1.4259546E-1,-1.6669525E-1,-1.0626363E-1,5.594475E-2,-4.9538564E-2,9.142622E-2,2.7041577E-3,-1.2802662E-1,3.0854369E-2,-1.7510395E-1,-6.50818E-2,-1.4121974E-1,2.6260838E-2,-3.6473945E-2,-1.2426374E-1,-2.614109E-4,-1.4334027E-1,1.2132682E-1,-2.0930348E-2,-1.471048E-1,-3.4612376E-2,6.1171073E-2,-4.1103035E-2,-3.5780605E-2,5.357782E-2,6.1179508E-2,-6.0890626E-2,-3.8839117E-2,-1.3563083E-1,3.6731535E-3,-5.6929406E-2,1.4148682E-3,1.0417389E-1,2.477131E-2,-1.1243933E-1,-8.366193E-2,4.2804144E-2,9.6788816E-2,-3.492859E-2,4.9975563E-2,1.3610747E-1,8.370952E-2,-1.6314544E-2,1.6016038E-2,-4.272632E-2,3.4858156E-2,1.1177724E-1,1.940598E-2,1.24947466E-1,4.7631316E-2,-7.073652E-2,-2.8285852E-2,1.01802565E-1,-1.7446816E-2,1.0616902E-1,1.4087143E-3,1.3072996E-1,-3.6267698E-2,6.8677716E-2,4.4382173E-3,8.012297E-2],"categories":[],"categories_nodes":[],"categories_segments":[],"categories_sizes":[],"default_left":[0,0,0,0,0,0,0,0,0,0,0,0,0,0,0,0,0,0,0,0,0,0,0,0,0,0,0,0,0,0,0,0,0,0,0,0,0,0,0,0,0,0,0,0,0,0,0,0,0,0,0,0,0,0,0,0,0,0,0,0,0,0,0,0,0,0,0,0,0,0,0,0,0,0,0,0,0,0,0,0,0,0,0,0,0,0,0,0,0,0,0,0,0,0,0,0,0,0,0,0,0,0,0,0,0,0,0,0,0,0,0,0,0,0,0,0,0,0,0,0,0,0,0,0,0,0,0,0,0,0,0,0,0,0,0,0,0,0,0,0,0,0,0,0,0,0,0,0,0,0,0,0,0,0,0,0,0,0,0,0,0,0,0,0,0,0,0,0,0,0,0,0,0,0,0,0,0,0,0,0,0,0,0,0,0,0,0,0,0,0,0,0,0,0,0,0,0,0,0,0,0,0,0,0,0,0,0,0,0,0,0,0,0,0,0,0,0,0,0,0,0,0,0,0,0,0,0,0,0,0,0,0,0,0,0,0,0,0,0,0,0,0,0,0,0,0,0,0,0,0,0,0,0,0,0,0,0,0,0,0,0,0,0,0,0,0,0,0,0,0,0,0,0,0,0,0,0,0,0,0,0,0,0,0,0,0,0,0,0,0,0,0,0,0,0,0,0,0,0,0,0,0,0,0,0,0,0,0,0,0,0,0,0,0,0,0,0,0,0,0,0,0,0,0,0,0,0,0,0,0,0,0,0,0,0,0,0,0,0,0,0,0,0,0,0,0,0,0,0,0,0,0,0,0,0,0,0,0,0,0,0,0,0,0,0,0,0,0,0,0,0,0,0,0,0,0,0,0,0,0,0,0,0],"id":1,"left_children":[1,3,5,7,9,11,13,15,17,19,21,23,25,27,29,31,33,35,37,39,41,43,45,-1,47,49,51,53,55,57,59,-1,-1,61,-1,63,65,67,69,71,73,75,77,79,81,83,-1,-1,-1,-1,85,87,89,91,93,-1,95,97,99,101,-1,-1,103,105,107,109,-1,111,-1,113,-1,115,117,119,121,123,125,127,129,-1,-1,131,133,135,-1,137,139,141,143,145,-1,-1,147,149,151,153,155,157,-1,159,161,-1,-1,163,165,167,-1,169,171,173,175,177,179,-1,181,183,-1,185,-1,-1,187,189,191,-1,193,195,197,-1,-1,-1,199,201,203,205,207,209,211,-1,213,-1,-1,215,-1,-1,217,-1,-1,219,221,-1,223,-1,-1,225,227,229,231,233,-1,235,237,-1,239,241,243,245,247,-1,-1,-1,-1,-1,-1,249,-1,-1,-1,-1,-1,-1,251,253,255,257,259,261,263,265,-1,267,269,271,-1,273,-1,275,277,279,281,-1,-1,-1,-1,-1,-1,283,285,-1,-1,287,289,-1,291,-1,-1,-1,293,295,-1,-1,-1,297,-1,299,301,-1,-1,303,-1,305,-1,307,309,311,313,-1,315,317,-1,319,-1,321,-1,323,-1,325,-1,-1,-1,327,-1,329,331,-1,-1,-1,-1,333,335,-1,-1,337,339,-1,-1,341,-1,-1,343,-1,345,-1,-1,-1,-1,347,349,351,353,-1,-1,-1,-1,355,357,359,-1,-1,-1,-1,361,363,-1,-1,365,367,-1,369,-1,-1,-1,-1,-1,-1,-1,371,373,-1,-1,-1,375,377,379,-1,381,-1,-1,-1,-1,-1,-1,-1,-1,-1,-1,-1,-1,-1,-1,-1,-1,-1,-1,-1,-1,-1,-1,-1,-1,-1,-1,-1,-1,-1,-1,-1,-1,-1,-1,-1,-1,-1,-1,-1,-1,-1,-1,-1,-1,-1,-1,-1,-1,-1,-1,-1,-1,-1,-1,-1,-1,-1,-1,-1,-1,-1,-1,-1,-1,-1,-1,-1,-1],"loss_changes":[2.2834578E2,6.787557E1,2.8715149E1,1.8848938E1,3.3058533E1,8.842807E0,1.3725143E1,3.0730286E0,1.360181E1,9.592188E0,1.48762665E1,2.0795426E0,7.688303E0,8.221075E0,5.2451935E0,1.3004494E0,8.560913E0,7.174614E0,5.3227425E0,4.1205864E0,5.1666303E0,3.40946E0,3.3919811E0,0E0,1.5824034E0,3.6692338E0,9.0595665E0,3.7699432E0,3.4578857E0,1.7028351E0,2.434135E0,0E0,0E0,5.5844955E0,0E0,8.451147E0,2.4970706E0,2.3773918E0,2.9744868E0,2.4051247E0,5.677534E0,5.3176017E0,6.647865E0,1.7986274E-1,2.7021172E0,3.8372335E0,0E0,0E0,0E0,0E0,3.454493E0,5.351E0,2.7476246E0,2.3641505E0,3.354088E0,0E0,4.0657673E0,1.6619263E0,6.220856E-1,3.3804383E0,0E0,0E0,1.9794388E0,1.2780674E0,7.111578E-1,2.8946455E0,0E0,7.1500397E-1,0E0,3.57121E0,0E0,2.5352E0,3.8615704E0,4.502717E0,5.662068E0,9.358425E-1,4.023939E0,1.5200105E0,9.2109966E-1,0E0,0E0,4.474084E0,3.175027E0,1.6540527E0,0E0,1.8730345E0,1.7896237E0,4.345717E0,3.3335762E0,3.0856175E0,0E0,0E0,2.789238E0,2.3489647E0,6.0863125E-1,5.6814365E0,3.0218735E0,2.9220524E0,0E0,3.0158195E0,1.862381E0,0E0,0E0,2.5582504E0,3.981204E0,2.6313734E-1,0E0,3.6385918E-1,2.6429944E0,1.7645309E0,2.7349155E0,3.1290016E0,6.2872524E0,0E0,2.5406737E0,3.1194286E0,0E0,4.1082463E0,0E0,0E0,2.889944E0,3.133751E0,9.044571E-1,0E0,9.2473125E-1,4.1357803E0,2.1486735E0,0E0,0E0,0E0,3.3205705E0,4.055093E0,2.989583E-1,2.828039E0,1.3353028E0,2.0987177E0,3.917011E0,0E0,1.6680915E0,0E0,0E0,1.3496695E0,0E0,0E0,1.4285297E0,0E0,0E0,2.4133396E0,2.392858E0,0E0,2.561778E0,0E0,0E0,1.8980289E0,1.9490848E0,1.9757304E0,2.3863964E0,1.9853783E0,0E0,2.1091094E0,9.304867E-1,0E0,1.5052795E-2,4.6400256E0,6.185303E-1,2.4809158E0,8.2118225E-1,0E0,0E0,0E0,0E0,0E0,0E0,2.8497674E0,0E0,0E0,0E0,0E0,0E0,0E0,3.704506E0,1.2811781E0,4.9549103E-1,2.294489E0,2.6947157E0,6.1666737E0,4.7787085E0,5.9712696E0,0E0,3.1476946E0,2.693367E0,5.807489E-1,0E0,3.6170962E0,0E0,2.999061E0,2.1854331E0,4.174738E-1,7.910005E-1,0E0,0E0,0E0,0E0,0E0,0E0,3.7642646E0,5.7581034E0,0E0,0E0,9.2122674E-1,1.3265228E0,0E0,2.0211458E0,0E0,0E0,0E0,2.667178E0,2.7604103E0,0E0,0E0,0E0,1.1292892E0,0E0,2.9770188E0,1.7593857E0,0E0,0E0,3.525999E0,0E0,2.981519E0,0E0,4.732109E0,1.4790974E0,2.940991E0,1.2891998E0,0E0,2.462606E0,1.1914275E0,0E0,1.0551546E0,0E0,2.2756023E0,0E0,2.171135E-1,0E0,2.085863E0,0E0,0E0,0E0,5.825759E-1,0E0,4.768981E0,1.5269928E0,0E0,0E0,0E0,0E0,5.1502976E0,2.2371368E0,0E0,0E0,2.1462665E0,2.4291754E0,0E0,0E0,5.795078E-1,0E0,0E0,1.1968716E0,0E0,3.0560484E0,0E0,0E0,0E0,0E0,1.8310494E0,1.4125443E-1,3.273211E-1,8.5726714E-1,0E0,0E0,0E0,0E0,3.3558133E0,3.753037E0,4.8652234E0,0E0,0E0,0E0,0E0,1.1697807E0,1.9865924E0,0E0,0E0,3.8168636E-1,1.6645355E0,0E0,8.482604E-1,0E0,0E0,0E0,0E0,0E0,0E0,0E0,1.9454956E0,3.264583E0,0E0,0E0,0E0,2.085531E0,1.5972023E0,2.8390758E0,0E0,6.34506E-1,0E0,0E0,0E0,0E0,0E0,0E0,0E0,0E0,0E0,0E0,0E0,0E0,0E0,0E0,0E0,0E0,0E0,0E0,0E0,0E0,0E0,0E0,0E0,0E0,0E0,0E0,0E0,0E0,0E0,0E0,0E0,0E0,0E0,0E0,0E0,0E0,0E0,0E0,0E0,0E0,0E0,0E0,0E0,0E0,0E0,0E0,0E0,0E0,0E0,0E0,0E0,0E0,0E0,0E0,0E0,0E0,0E0,0E0,0E0,0E0,0E0,0E0,0E0,0E0,0E0,0E0,0E0,0E0],"parents":[2147483647,0,0,1,1,2,2,3,3,4,4,5,5,6,6,7,7,8,8,9,9,10,10,11,11,12,12,13,13,14,14,15,15,16,16,17,17,18,18,19,19,20,20,21,21,22,22,24,24,25,25,26,26,27,27,28,28,29,29,30,30,33,33,35,35,36,36,37,37,38,38,39,39,40,40,41,41,42,42,43,43,44,44,45,45,50,50,51,51,52,52,53,53,54,54,56,56,57,57,58,58,59,59,62,62,63,63,64,64,65,65,67,67,69,69,71,71,72,72,73,73,74,74,75,75,76,76,77,77,78,78,81,81,82,82,83,83,85,85,86,86,87,87,88,88,89,89,92,92,93,93,94,94,95,95,96,96,97,97,99,99,100,100,103,103,104,104,105,105,107,107,108,108,109,109,110,110,111,111,112,112,114,114,115,115,117,117,120,120,121,121,122,122,124,124,125,125,126,126,130,130,131,131,132,132,133,133,134,134,135,135,136,136,138,138,141,141,144,144,147,147,148,148,150,150,153,153,154,154,155,155,156,156,157,157,159,159,160,160,162,162,163,163,164,164,165,165,166,166,173,173,180,180,181,181,182,182,183,183,184,184,185,185,186,186,187,187,189,189,190,190,191,191,193,193,195,195,196,196,197,197,198,198,205,205,206,206,209,209,210,210,212,212,216,216,217,217,221,221,223,223,224,224,227,227,229,229,231,231,232,232,233,233,234,234,236,236,237,237,239,239,241,241,243,243,245,245,249,249,251,251,252,252,257,257,258,258,261,261,262,262,265,265,268,268,270,270,275,275,276,276,277,277,278,278,283,283,284,284,285,285,290,290,291,291,294,294,295,295,297,297,305,305,306,306,310,310,311,311,312,312,314,314],"right_children":[2,4,6,8,10,12,14,16,18,20,22,24,26,28,30,32,34,36,38,40,42,44,46,-1,48,50,52,54,56,58,60,-1,-1,62,-1,64,66,68,70,72,74,76,78,80,82,84,-1,-1,-1,-1,86,88,90,92,94,-1,96,98,100,102,-1,-1,104,106,108,110,-1,112,-1,114,-1,116,118,120,122,124,126,128,130,-1,-1,132,134,136,-1,138,140,142,144,146,-1,-1,148,150,152,154,156,158,-1,160,162,-1,-1,164,166,168,-1,170,172,174,176,178,180,-1,182,184,-1,186,-1,-1,188,190,192,-1,194,196,198,-1,-1,-1,200,202,204,206,208,210,212,-1,214,-1,-1,216,-1,-1,218,-1,-1,220,222,-1,224,-1,-1,226,228,230,232,234,-1,236,238,-1,240,242,244,246,248,-1,-1,-1,-1,-1,-1,250,-1,-1,-1,-1,-1,-1,252,254,256,258,260,262,264,266,-1,268,270,272,-1,274,-1,276,278,280,282,-1,-1,-1,-1,-1,-1,284,286,-1,-1,288,290,-1,292,-1,-1,-1,294,296,-1,-1,-1,298,-1,300,302,-1,-1,304,-1,306,-1,308,310,312,314,-1,316,318,-1,320,-1,322,-1,324,-1,326,-1,-1,-1,328,-1,330,332,-1,-1,-1,-1,334,336,-1,-1,338,340,-1,-1,342,-1,-1,344,-1,346,-1,-1,-1,-1,348,350,352,354,-1,-1,-1,-1,356,358,360,-1,-1,-1,-1,362,364,-1,-1,366,368,-1,370,-1,-1,-1,-1,-1,-1,-1,372,374,-1,-1,-1,376,378,380,-1,382,-1,-1,-1,-1,-1,-1,-1,-1,-1,-1,-1,-1,-1,-1,-1,-1,-1,-1,-1,-1,-1,-1,-1,-1,-1,-1,-1,-1,-1,-1,-1,-1,-1,-1,-1,-1,-1,-1,-1,-1,-1,-1,-1,-1,-1,-1,-1,-1,-1,-1,-1,-1,-1,-1,-1,-1,-1,-1,-1,-1,-1,-1,-1,-1,-1,-1,-1,-1],"split_conditions":[2.7272727E-2,-2.1428572E-1,-1.6803126E0,-4.37858E-2,4.5950734E-3,0E0,3.3333333E0,-1.6E1,7E0,1.4419909E0,1.6789776E0,-1.3333334E0,7E0,8.3153677E-1,1.1E1,2.908717E0,6.8523407E0,4.6657413E-1,6.51987E-2,-4.6666665E0,6E0,-6.8065023E0,1.1333333E1,-1.394092E-1,6.3333335E0,-1.2666667E1,-2.1203434E0,-4.3333335E0,-9.333333E0,2.1691176E-1,3E-1,-1.8906608E-1,-3.9030608E-2,-1.081072E-1,9.136169E-2,3E0,4.4739965E-2,7.3333335E0,1.4419909E0,0E0,-2.8147278E-2,0E0,2.1404405E0,3.3333333E0,-2E0,1.0333333E1,1.4208953E-1,-6.508649E-2,4.6559907E-2,7.099887E-2,8.666667E0,1.1764706E-1,1.0193986E-1,-7.3333335E0,3.767349E-2,1.3881153E-1,0E0,4.6628203E0,6E0,1.1E1,9.192772E-2,3.5938866E-2,-2.777778E-1,-3.928866E-1,-2.275851E0,2.9843792E-2,1.1888269E-1,1.6666666E0,-2.4531947E-3,3E0,5.5110402E-2,-3.7920646E-2,-5.6666665E0,-2E0,2E0,-5.055414E-3,-3.3333334E-1,1.4E1,1.1666667E1,1.0425226E-1,3.0186802E-2,2E0,1.7E1,1.3333334E0,-5.239855E-2,-2.3333333E0,9.508151E-2,-2.841598E0,-3E0,-9.333333E0,4.6559907E-2,1.1798165E-1,-3E0,-1.0564123E0,1.6666666E0,-1E0,-3.3333333E0,1.8E1,1.371253E-1,3.492647E-1,-1.9E1,5.6258466E-2,-1.08790115E-1,3E0,-2.2244058E0,-3.0114269E-2,-2.2817155E-2,3.6666667E0,-9.3954897E-1,-4.6666665E0,3.6666667E0,-1.1666667E1,-5.4012515E-2,4.42281E-2,9.895788E-2,-6.474365E-2,-1.5361354E-1,-2.8742371E-2,5.949797E-2,4.523426E-2,-1.4563406E-2,-1.0339441E-1,3.3333333E0,1.0724181E-2,-9.083827E-2,-2.0034378E-2,2.8168926E-2,-2.0203283E-2,9.7915985E-2,-1.5046118E-1,-8.3333336E-2,-3.6666667E0,-2.8971577E0,-1.2596685E0,-3.0303031E-2,2E0,3.2279928E0,-1.2377968E-1,-3.258478E0,9.174698E-2,-3.858954E-2,-3.9973997E-2,-1.065416E-1,-4.2437274E-2,-1.3006913E-2,1.929608E-2,-1.394092E-1,-9.333333E0,7.893217E-2,4.6559907E-2,-7.397447E-3,1.7152468E-3,9.15326E-2,-5.3333335E0,2.6235383E0,2.6190478E-1,-3.9973997E-2,8E0,-4.600147E-2,7E0,-4.173399E-3,1.7459592E-2,-1.3834091E-2,5.6666665E0,8E0,1.5E1,-1.2666667E1,1.921185E-2,8.903673E-2,-1.3746022E-1,-3.4283966E-2,2.4532085E-2,-1.0710776E-1,4E0,1.02062546E-1,-1.1178531E-1,3.5024103E-2,-1.4923736E-2,-1.838475E-1,6.4178996E-2,6.3333335E0,1.1E1,-4.2857143E-1,-1.5384616E-1,-7E0,-5.9912324E0,1E0,-1.4917933E0,1.1547768E-2,-1E-1,-5E-1,2E0,-1.4992929E-1,-1E-1,1.2685013E-1,-9.666667E0,4E0,-4.0877026E-2,4.1635175E0,-1.2307703E-1,5.341066E-2,-8.1049584E-2,1.0267053E-1,-3.8839117E-2,-1.5093088E-1,-1E-1,4E0,-1.08687155E-1,7.3052044E-3,1.6666666E0,8.504187E-3,1.2061359E-1,1E0,-6.509821E-2,4.912172E-2,-2.5770102E-2,4E0,-2.0975968E-2,1.4253078E-1,-9.38119E-2,4.6559907E-2,1.2408088E-1,-3.7279826E-2,3.3333333E0,-2.8422294E-2,8.419263E-3,-1.11619905E-1,1.7259724E0,1.209293E-1,1.3E1,1.13157846E-1,-5.9270184E-2,1.6666666E0,1.05654625E-2,1.6666667E-1,9.50525E-2,3.3073444E-2,9E0,1.3941285E-1,3E0,1.4971495E-1,-5.0586738E-2,6.351872E-2,-5.7146564E0,-1.7326488E-1,4.6666665E0,-1.0567714E-1,-3.251284E-2,-1.5935792E-1,4E0,-8.485844E-2,-4.4444445E-1,3.045756E-1,4.7628064E-2,-5.7544388E-2,-3.7779495E-2,-1.6001609E-1,-5.6274183E-2,2E0,9.576113E-2,-5.6880232E-2,-7.3683996E0,-3.3963532E0,-1.3093834E-1,2.38269E-2,1.4E1,2.8055906E-2,-1.2556982E-1,1E0,-6.418375E-2,-3.5336854E0,-7.006739E-2,7.4332366E-3,1.0862712E-1,-5.881232E-2,-5.357143E-2,2.1739335E0,-4E0,3.033144E0,2.2117957E-2,8.933614E-2,2.1996705E-2,-6.0484417E-2,-3E-1,2E0,8.9737153E-1,-1.0353527E-1,-4.2005863E-2,4.92971E-2,3.6731535E-3,-3.3333334E-1,2.3333333E0,-8.601095E-2,1.07058935E-1,-3.9631805E0,-4.696899E0,-4.3007012E-2,6.666667E-2,7.6229493E-3,-1.6238974E-1,-2.7555886E-3,-5.9564956E-2,6.0092784E-2,9.223921E-2,-8.6424954E-2,-1.342899E-1,-2.6666667E0,9.9026725E-2,-7.4768946E-2,1.3805674E-1,1E1,-6.6995025E-3,2.344312E0,1.4318924E-1,1.875E-1,5.4247893E-2,-8.647778E-2,9.577262E-2,-9.153436E-3,1.0711099E-1,-2.6551888E-3,6.893266E-3,-1.4259546E-1,-1.6669525E-1,-1.0626363E-1,5.594475E-2,-4.9538564E-2,9.142622E-2,2.7041577E-3,-1.2802662E-1,3.0854369E-2,-1.7510395E-1,-6.50818E-2,-1.4121974E-1,2.6260838E-2,-3.6473945E-2,-1.2426374E-1,-2.614109E-4,-1.4334027E-1,1.2132682E-1,-2.0930348E-2,-1.471048E-1,-3.4612376E-2,6.1171073E-2,-4.1103035E-2,-3.5780605E-2,5.357782E-2,6.1179508E-2,-6.0890626E-2,-3.8839117E-2,-1.3563083E-1,3.6731535E-3,-5.6929406E-2,1.4148682E-3,1.0417389E-1,2.477131E-2,-1.1243933E-1,-8.366193E-2,4.2804144E-2,9.6788816E-2,-3.492859E-2,4.9975563E-2,1.3610747E-1,8.370952E-2,-1.6314544E-2,1.6016038E-2,-4.272632E-2,3.4858156E-2,1.1177724E-1,1.940598E-2,1.24947466E-1,4.7631316E-2,-7.073652E-2,-2.8285852E-2,1.01802565E-1,-1.7446816E-2,1.0616902E-1,1.4087143E-3,1.3072996E-1,-3.6267698E-2,6.8677716E-2,4.4382173E-3,8.012297E-2],"split_indices":[2,2,4,1,1,3,5,5,8,4,4,5,8,4,6,4,4,4,1,5,6,4,5,0,6,6,4,6,6,2,3,0,0,0,0,6,0,5,4,3,0,7,4,6,7,5,0,0,0,0,5,2,1,5,1,0,7,4,8,8,0,0,2,4,4,1,0,6,0,6,0,1,5,7,7,0,6,8,6,0,0,8,8,6,0,6,1,4,7,6,0,0,5,4,6,6,5,5,0,2,6,0,0,8,4,0,0,5,4,5,5,5,0,0,1,1,0,0,0,0,1,1,6,0,1,1,0,0,0,0,2,6,4,4,2,8,4,0,4,0,0,1,0,0,0,0,0,6,1,0,0,0,0,6,4,2,1,5,0,5,0,0,1,6,6,8,5,0,0,0,0,0,0,6,0,0,0,0,0,0,6,8,2,2,5,4,7,4,0,3,3,8,0,3,0,5,8,1,4,0,0,0,0,0,0,3,7,0,0,5,1,0,7,0,0,0,5,0,0,0,0,4,0,6,1,0,0,4,0,8,0,1,5,0,2,0,0,5,0,6,0,0,0,4,0,6,0,0,0,8,0,2,4,0,0,0,0,0,8,0,0,4,4,0,0,6,0,0,6,0,4,0,0,0,0,2,4,5,4,0,0,0,0,3,8,4,0,0,0,0,5,5,0,0,4,4,0,3,0,0,0,0,0,0,0,1,6,0,0,0,8,1,4,0,2,0,0,0,0,0,0,0,0,0,0,0,0,0,0,0,0,0,0,0,0,0,0,0,0,0,0,0,0,0,0,0,0,0,0,0,0,0,0,0,0,0,0,0,0,0,0,0,0,0,0,0,0,0,0,0,0,0,0,0,0,0,0,0,0,0,0,0,0],"split_type":[0,0,0,0,0,0,0,0,0,0,0,0,0,0,0,0,0,0,0,0,0,0,0,0,0,0,0,0,0,0,0,0,0,0,0,0,0,0,0,0,0,0,0,0,0,0,0,0,0,0,0,0,0,0,0,0,0,0,0,0,0,0,0,0,0,0,0,0,0,0,0,0,0,0,0,0,0,0,0,0,0,0,0,0,0,0,0,0,0,0,0,0,0,0,0,0,0,0,0,0,0,0,0,0,0,0,0,0,0,0,0,0,0,0,0,0,0,0,0,0,0,0,0,0,0,0,0,0,0,0,0,0,0,0,0,0,0,0,0,0,0,0,0,0,0,0,0,0,0,0,0,0,0,0,0,0,0,0,0,0,0,0,0,0,0,0,0,0,0,0,0,0,0,0,0,0,0,0,0,0,0,0,0,0,0,0,0,0,0,0,0,0,0,0,0,0,0,0,0,0,0,0,0,0,0,0,0,0,0,0,0,0,0,0,0,0,0,0,0,0,0,0,0,0,0,0,0,0,0,0,0,0,0,0,0,0,0,0,0,0,0,0,0,0,0,0,0,0,0,0,0,0,0,0,0,0,0,0,0,0,0,0,0,0,0,0,0,0,0,0,0,0,0,0,0,0,0,0,0,0,0,0,0,0,0,0,0,0,0,0,0,0,0,0,0,0,0,0,0,0,0,0,0,0,0,0,0,0,0,0,0,0,0,0,0,0,0,0,0,0,0,0,0,0,0,0,0,0,0,0,0,0,0,0,0,0,0,0,0,0,0,0,0,0,0,0,0,0,0,0,0,0,0,0,0,0,0,0,0,0,0,0,0,0,0,0,0,0,0,0,0,0,0,0,0,0,0,0,0,0,0,0,0],"sum_hessian":[6.2481805E2,3.7908466E2,2.4573341E2,1.5009465E2,2.2899E2,5.8517044E1,1.8721637E2,8.157798E1,6.851667E1,1.4508768E2,8.390232E1,6.392011E0,5.2125034E1,8.0441605E1,1.06774765E2,1.5385003E1,6.619298E1,2.839924E1,4.011743E1,1.04799194E2,4.028848E1,4.728542E1,3.6616905E1,2.9755003E0,3.4165108E0,1.2450485E1,3.967455E1,2.5441322E1,5.5000282E1,1.0242001E2,4.3547516E0,1.4162859E1,1.2221444E0,6.499058E1,1.2024006E0,1.582664E1,1.2572599E1,2.9627987E1,1.0489446E1,5.4479767E1,5.0319427E1,3.14656E1,8.82288E0,3.3591058E0,4.3926315E1,2.930659E1,7.3103156E0,2.2113056E0,1.2052052E0,1.6973963E0,1.0753089E1,3.4040047E1,5.634503E0,1.4226852E1,1.1214471E1,9.287573E0,4.5712708E1,3.525848E1,6.716153E1,3.153158E0,1.2015938E0,1.7025685E0,6.3288006E1,5.299885E0,1.0526755E1,9.953447E0,2.6191523E0,2.792414E1,1.7038465E0,8.305121E0,2.1843245E0,3.4431034E1,2.0048733E1,1.7918633E1,3.2400795E1,8.86807E0,2.259753E1,2.8945303E0,5.9283495E0,1.6777779E0,1.6813279E0,6.3555636E0,3.757075E1,2.7344677E1,1.9619122E0,8.328235E0,2.4248545E0,9.669834E0,2.437021E1,4.4292974E0,1.2052052E0,2.6100323E0,1.1616819E1,8.805156E0,2.4093153E0,9.410084E0,3.6302628E1,2.6023666E1,9.234816E0,1.7993874E1,4.916766E1,1.4332535E0,1.7199044E0,5.0525013E1,1.2762995E1,3.8535411E0,1.4463437E0,5.8925204E0,4.634235E0,6.5415463E0,3.4119012E0,8.896237E0,1.9027903E1,1.9382418E0,6.3668795E0,2.8279438E1,6.151598E0,1.7838375E1,2.2103567E0,1.9405113E0,1.5978122E1,2.7744465E1,4.65633E0,1.9414228E0,6.9266467E0,1.367429E1,8.92324E0,1.4581704E0,1.43636E0,3.4617968E0,2.4665527E0,2.8981285E0,3.4574354E0,3.3900986E1,3.669765E0,1.647455E1,1.0870128E1,4.9052157E0,3.4230187E0,1.2038393E0,1.2210152E0,7.943259E0,1.7265753E0,1.2100434E0,2.3160168E1,1.4537972E0,2.9755003E0,3.4250877E0,8.191732E0,1.2052052E0,7.5999503E0,1.2067157E0,1.2025996E0,4.353946E0,5.056137E0,1.3733266E1,2.256936E1,2.4827997E1,1.1956688E0,4.49754E0,1.3496333E1,1.4416405E0,4.772602E1,5.916693E0,4.460832E1,7.3171763E0,5.4458184E0,1.4501741E0,2.403367E0,4.6575007E0,1.2350197E0,2.1866536E0,2.4475813E0,3.6306162E0,2.91093E0,1.7077323E0,1.7041688E0,1.4754634E0,7.4207735E0,1.4670047E0,1.7560898E1,2.6758087E0,3.691071E0,2.5588308E1,2.6911302E0,7.313535E0,1.052484E1,1.4035796E1,1.9423257E0,4.8839874E0,2.2860477E1,2.952569E0,1.7037612E0,3.3754306E0,3.5512161E0,8.104939E0,5.5693502E0,6.000262E0,2.9229784E0,1.2365929E0,1.2299597E0,1.2310005E0,1.667128E0,1.2235575E0,2.2338777E0,1.9219263E1,1.4681723E1,2.4431453E0,1.2266195E0,2.4287627E0,1.4045787E1,2.8454413E0,8.024687E0,2.2069073E0,1.2161113E0,1.9271597E0,6.0160995E0,1.627878E1,6.881387E0,2.2198825E0,1.2052052E0,6.479075E0,1.7126571E0,4.684743E0,2.9152071E0,1.9263506E0,2.4275956E0,2.419673E0,2.636464E0,1.1581221E1,2.1520457E0,4.5955825E0,1.7973778E1,1.3667563E1,1.1160434E1,1.4177699E0,3.07977E0,3.091936E0,1.0404397E1,3.0848727E0,4.4641148E1,4.4525514E0,1.4641418E0,2.5257076E1,1.9351242E1,5.5882277E0,1.7289486E0,1.2383213E0,4.207497E0,2.4108677E0,1.2197486E0,5.9518723E0,1.1609026E1,1.2085879E0,1.4672207E0,1.2235411E0,2.4675298E0,6.614668E0,1.897364E1,1.2200154E0,1.4711148E0,3.4350765E0,3.8784587E0,8.33887E0,2.1859698E0,1.1827674E1,2.2081223E0,2.2163064E0,2.6676807E0,2.213732E0,2.0646746E1,1.7254428E0,1.2271261E0,1.9106038E0,1.4648268E0,2.9152071E0,5.1897326E0,2.6872745E0,2.8820758E0,2.1794624E0,3.8207994E0,1.4637337E0,1.4592447E0,6.6199055E0,1.2599357E1,1.3233019E1,1.448703E0,1.2125461E0,1.2162166E0,1.2149478E0,1.2830839E1,6.808739E0,1.2159472E0,3.3708022E0,2.645297E0,1.5071826E1,1.206955E0,4.555719E0,1.9233563E0,2.9818897E0,1.7028533E0,1.4625113E0,1.452696E0,1.2063493E0,1.2133237E0,4.6121655E0,6.9690547E0,2.8859243E0,1.709658E0,1.3953327E1,4.02045E0,5.2350807E0,8.432483E0,7.117357E0,4.0430775E0,1.4212668E0,1.6585032E0,1.4223175E0,1.6696185E0,1.8976791E0,1.1871936E0,1.2241298E0,3.2284214E0,4.948832E0,2.0308245E1,3.1400464E0,2.4481814E0,1.2012622E0,1.2096053E0,2.479332E0,3.4725404E0,8.172786E0,3.43624E0,1.7308332E0,4.883835E0,4.923913E0,1.40497265E1,1.709892E0,1.7251846E0,2.4266634E0,1.4517955E0,1.0592645E1,1.235029E0,1.4545687E0,1.2131121E0,4.1384954E0,1.6508251E1,1.4576036E0,1.4576036E0,1.2235575E0,3.9661748E0,1.2149478E0,1.4723265E0,1.205291E0,1.6767848E0,2.1938722E0,4.426033E0,1.9705684E0,1.0628788E1,1.0056633E1,3.176386E0,3.844151E0,8.986688E0,2.1704266E0,4.638313E0,1.4368608E0,1.2084363E0,5.52666E0,9.545165E0,1.4529772E0,3.1027417E0,1.2074853E0,3.40468E0,2.4034584E0,4.5655966E0,2.1284738E0,1.8919766E0,1.2060221E0,4.0290585E0,4.617743E0,3.8147395E0,1.902752E0,2.1403253E0],"tree_param":{"num_deleted":"0","num_feature":"9","num_nodes":"383","size_leaf_vector":"1"}},{"base_weights":[-4.2762395E-4,-4.440534E-1,6.958348E-1,-8.6344874E-1,-9.529915E-2,1.21203616E-1,8.7643504E-1,-1.1526972E0,-5.2336234E-1,-3.5947272E-1,3.4511757E-1,-3.8252634E-1,3.8999054E-1,5.7199657E-1,1.1011955E0,-1.6612692E0,-1.0203611E0,-1.02896E-1,-7.814829E-1,-5.086632E-1,4.0126745E-2,1.4174843E-2,7.672822E-1,-1.1704413E-1,-1.4133137E-1,-1.3096065E-2,8.025615E-1,1.3098468E-1,7.724145E-1,1.1444203E0,8.109311E-2,-1.7365468E-1,-3.676955E-2,-1.0619848E0,8.735738E-2,6.336595E-1,-4.9034435E-1,-1.0101447E0,-2.11709E-1,-7.608783E-1,-3.0633977E-1,7.620646E-1,-7.917734E-2,8.962064E-2,-8.531891E-1,-4.7186416E-2,8.4397125E-1,-1.1730927E-1,1.3177288E-1,4.2815164E-1,-4.5061025E-1,-4.9467415E-2,1.0203156E0,4.8579004E-1,-2.0929821E-1,5.3119003E-3,8.456318E-1,7.726148E-1,1.2138426E0,-3.566778E-1,8.788019E-2,-1.2172983E0,-6.436361E-1,4.5666266E-2,9.008525E-1,-9.832619E-1,1.584009E-1,-1.3359451E0,-7.366431E-1,-4.9757767E-1,4.333518E-1,-3.6546192E-1,-1.0230325E0,2.3332511E-1,-4.0725502E-1,9.931979E-2,-1.7630542E-3,9.422035E-2,-7.2698253E-1,8.828674E-1,-1.122999E-2,-1.2416899E-1,-1.5668724E-2,5.6089324E-1,1.1876122E0,-4.949509E-1,4.9396056E-1,-8.41116E-2,6.763481E-1,-9.3671906E-1,4.262918E-1,4.3051165E-2,-5.0571468E-2,1.2190473E0,2.9574296E-1,-2.984211E-1,7.3352206E-1,-6.7910737E-1,4.007637E-1,-9.408647E-2,7.191489E-1,1.3960235E-1,6.9965535E-1,8.758113E-1,-2.7856251E-2,9.4233644E-1,1.3487965E0,5.335797E-2,-1.0113857E-1,-9.5482796E-1,-1.5989253E-1,-2.8812775E-1,-1.1967577E0,-8.421666E-2,6.1075073E-1,2.801916E-1,1.1210724E-1,-1.3831107E-1,-6.8993235E-1,-8.196462E-2,3.8475233E-1,-6.3683145E-2,-1.4241423E-1,-9.080801E-1,-1.897669E-1,7.125684E-2,-7.864864E-1,-2.237852E-2,8.766674E-2,-6.8097484E-1,2.905674E-1,-1.1187704E0,-4.502855E-1,9.590046E-1,-5.305404E-1,-1.0592226E0,-2.94597E-1,-7.335634E-1,2.2936253E-1,3.0139966E-2,-1.2687674E0,1.1411538E-1,1.635435E-2,-5.1176596E-1,2.0037615E-1,9.87047E-1,-5.5979647E-2,4.219334E-1,1.3437699E-1,-1.3956486E-1,1.7995378E-1,7.9310626E-1,-3.5448458E-2,1.0534017E0,3.9769705E-2,-1.2801814E0,4.5072656E-2,-3.7904616E-2,1.0369833E-1,1.331948E-1,5.3716433E-1,-1.1926859E-1,1.1889329E-1,6.097647E-2,-1.2350961E-1,7.574823E-2,1.0087867E0,-1.4236824E-1,1.4219321E-1,-8.502942E-2,8.2781744E-1,2.9588628E-3,1.020922E-1,1.2061812E0,5.4427284E-1,4.919305E-1,1.2416655E0,1.107476E0,-2.5150603E-1,4.0091947E-2,1.3623341E0,4.6028376E-2,-1.0902945E0,3.9978138E-1,-5.2363443E-1,-3.2686368E-2,-1.3706732E-1,8.986851E-2,5.012499E-3,8.662522E-2,-4.2237233E-2,-8.91195E-1,-3.7845222E-3,7.2035265E-1,-5.4045428E-2,-1.1642187E0,-1.8837425E-1,9.380978E-2,-6.3312715E-1,2.4101553E-2,-1.1219434E0,-8.245843E-1,2.4511246E-2,8.161857E-1,-9.119597E-2,-1.2241136E0,-3.7647954E-1,-9.871917E-2,3.997316E-2,1.19324826E-1,3.0349541E-2,5.090182E-2,-9.822927E-1,1.5211502E-2,-1.619724E-1,1.2076324E-1,-4.1113386E-1,-1.097582E-1,4.482526E-3,-6.1371062E-2,6.5368634E-1,-1.4929514E-1,-3.4946516E-2,-1.0090299E0,6.705645E-2,4.9014226E-1,-5.7307863E-1,1.2589644E-2,1.0915E0,6.477515E-1,-6.728023E-1,-2.217646E-2,9.066168E-2,-5.8417153E-2,7.621722E-2,1.9432948E-3,9.3063384E-1,3.5329033E-2,1.24756694E-1,-9.210045E-2,7.887729E-2,-4.2680603E-2,-1.4023201E-1,8.4761634E-2,-1.4658141E-3,-5.616743E-2,8.943014E-2,1.2058065E-1,1.9001784E-3,1.0047574E-1,-5.169505E-2,1.1460606E-1,2.8667852E-1,2.118969E-3,1.3866766E-1,-2.969122E-1,6.6274613E-1,1.0376384E0,-2.5324413E-1,1.3331623E-1,3.666256E-2,1.3984014E-2,1.1554362E0,-7.5427316E-2,5.1507737E-2,1.3915204E0,6.1823016E-1,-1.2523197E0,-7.197547E-1,8.994391E-2,-7.1364543E-3,-1.0092378E0,-1.0944652E-1,-5.464659E-1,-1.2857084E-1,-2.2539759E-2,1.0070743E-1,-1.6086696E-1,-7.791073E-1,5.930754E-2,-9.057447E-2,-1.0833136E-1,4.6789017E-2,-1.5669726E-1,-5.2633625E-1,-3.5632253E-1,-1.3344051E-1,3.9087976E-3,1.19592026E-1,-9.546738E-1,-1.7032376E-1,-5.003495E-2,-1.0107248E-2,-1.2462628E-1,-3.9961778E-2,-7.070532E-1,1.2520313E-2,-4.683146E-1,5.7572156E-1,-2.3228958E-2,8.390282E-1,-1.3140777E-1,-2.0661512E-2,9.470969E-2,-3.2413203E-1,6.2963516E-1,-5.7215817E-2,-1.1451052E0,1.6816391E-1,3.2944556E-2,1.2015324E0,-5.0191123E-2,1.166814E-1,-1.19762555E-1,2.999034E-2,1.11644626E-1,1.4484644E-2,-4.1584067E-2,8.698758E-2,-8.6987846E-2,3.9006617E-2,2.4943976E-1,9.384593E-1,1.2309364E-1,4.666589E-2,-7.757771E-2,2.4351709E-1,1.2462116E0,6.547707E-1,1.4073608E0,4.881613E-2,9.486796E-2,-6.4490843E-3,-1.619804E-1,-9.658875E-2,6.673764E-3,-1.2359933E-1,-1.2524226E-1,-4.097841E-2,1.6408073E-2,-8.124624E-2,-8.9145765E-2,2.315275E-2,-9.589835E-3,-1.261411E-1,4.4559177E-2,-1.3753687E-1,-5.972759E-2,4.6246298E-2,-1.2417473E-1,-4.518151E-2,-8.383591E-2,2.034364E-2,-4.067068E-2,4.718296E-2,2.5633708E-2,-1.2696587E-1,1.0809012E-1,5.4465267E-3,4.0428337E-2,1.2192432E-1,3.744601E-2,-7.797605E-2,8.088164E-2,-1.7381434E-3,-3.4187336E-2,-1.4906293E-1,7.129632E-2,-4.42677E-2,1.3576308E-1,5.9382327E-2,-2.8835936E-2,7.9692505E-2,4.245552E-2,1.0467996E-1,3.9586887E-2,-1.8780649E-3,8.802371E-3,1.3249598E-1,1.4917316E-3,1.1141125E-1,9.4423674E-2,1.4773093E-1],"categories":[],"categories_nodes":[],"categories_segments":[],"categories_sizes":[],"default_left":[0,0,0,0,0,0,0,0,0,0,0,0,0,0,0,0,0,0,0,0,0,0,0,0,0,0,0,0,0,0,0,0,0,0,0,0,0,0,0,0,0,0,0,0,0,0,0,0,0,0,0,0,0,0,0,0,0,0,0,0,0,0,0,0,0,0,0,0,0,0,0,0,0,0,0,0,0,0,0,0,0,0,0,0,0,0,0,0,0,0,0,0,0,0,0,0,0,0,0,0,0,0,0,0,0,0,0,0,0,0,0,0,0,0,0,0,0,0,0,0,0,0,0,0,0,0,0,0,0,0,0,0,0,0,0,0,0,0,0,0,0,0,0,0,0,0,0,0,0,0,0,0,0,0,0,0,0,0,0,0,0,0,0,0,0,0,0,0,0,0,0,0,0,0,0,0,0,0,0,0,0,0,0,0,0,0,0,0,0,0,0,0,0,0,0,0,0,0,0,0,0,0,0,0,0,0,0,0,0,0,0,0,0,0,0,0,0,0,0,0,0,0,0,0,0,0,0,0,0,0,0,0,0,0,0,0,0,0,0,0,0,0,0,0,0,0,0,0,0,0,0,0,0,0,0,0,0,0,0,0,0,0,0,0,0,0,0,0,0,0,0,0,0,0,0,0,0,0,0,0,0,0,0,0,0,0,0,0,0,0,0,0,0,0,0,0,0,0,0,0,0,0,0,0,0,0,0,0,0,0,0,0,0,0,0,0,0,0,0,0,0,0,0,0,0,0,0,0,0,0,0,0,0,0,0,0,0,0,0,0,0,0,0,0,0,0,0,0,0,0,0,0,0,0,0,0,0,0,0,0,0,0,0,0,0,0,0,0,0,0,0,0,0,0,0,0,0,0,0,0,0,0,0],"id":2,"left_children":[1,3,5,7,9,11,13,15,17,19,21,23,25,27,29,31,33,35,37,39,41,43,45,47,-1,49,51,53,55,57,59,-1,-1,61,-1,63,65,67,69,71,73,75,77,79,81,-1,83,-1,85,87,89,91,93,95,97,99,101,103,105,107,-1,109,111,113,115,117,119,121,123,125,127,129,131,133,135,-1,-1,137,139,141,143,-1,-1,145,147,149,151,-1,153,155,157,-1,-1,159,161,163,165,167,169,-1,171,-1,173,175,-1,177,179,-1,-1,181,-1,183,185,-1,187,189,-1,-1,191,-1,193,-1,-1,195,197,-1,199,-1,-1,201,203,205,207,209,211,213,215,217,219,-1,221,-1,-1,223,225,227,229,231,-1,-1,233,235,-1,237,239,241,-1,-1,-1,-1,243,-1,-1,-1,-1,245,247,-1,249,-1,251,-1,-1,253,255,257,259,261,263,-1,265,-1,267,269,271,-1,-1,-1,-1,-1,-1,273,-1,275,-1,277,279,-1,281,-1,283,285,-1,287,-1,289,291,-1,-1,-1,-1,-1,293,-1,-1,-1,295,-1,-1,297,299,-1,-1,301,303,305,307,-1,309,311,313,-1,-1,-1,-1,-1,315,-1,-1,-1,-1,-1,-1,-1,-1,-1,-1,-1,-1,-1,-1,-1,317,-1,-1,319,321,323,325,-1,-1,-1,327,-1,-1,329,331,333,335,-1,-1,337,339,341,-1,-1,-1,-1,343,-1,-1,-1,-1,-1,345,347,-1,-1,-1,349,-1,-1,-1,-1,-1,351,353,355,357,-1,359,-1,-1,-1,361,363,-1,365,367,-1,369,-1,-1,-1,-1,-1,-1,-1,-1,-1,-1,371,373,-1,-1,-1,375,377,379,381,-1,-1,-1,-1,-1,-1,-1,-1,-1,-1,-1,-1,-1,-1,-1,-1,-1,-1,-1,-1,-1,-1,-1,-1,-1,-1,-1,-1,-1,-1,-1,-1,-1,-1,-1,-1,-1,-1,-1,-1,-1,-1,-1,-1,-1,-1,-1,-1,-1,-1,-1,-1,-1],"loss_changes":[1.9201186E2,5.545588E1,2.5001137E1,1.6342834E1,2.437495E1,8.139473E0,1.1954803E1,4.5143204E0,8.711527E0,7.8168697E0,1.0978876E1,5.5917606E0,6.4923215E0,6.9869156E0,4.524872E0,1.0615196E0,6.9034805E0,9.43297E0,6.306015E0,4.6298733E0,3.2022846E0,3.028591E0,3.681219E0,4.8369226E0,0E0,4.188846E0,3.6270885E0,3.272305E0,3.080822E0,1.6534119E0,2.1759226E0,0E0,0E0,4.0652237E0,0E0,1.7585173E0,7.0343966E0,2.1743813E0,3.0917206E0,3.9533978E0,3.0660033E0,9.667938E-1,3.68675E0,3.4025E0,8.080056E-1,0E0,2.5335484E0,0E0,3.7221653E0,3.9768984E0,5.0373497E0,1.2858793E0,1.8569851E0,2.7750416E0,4.314503E0,4.5890574E0,3.0517387E0,2.2558384E0,1.7644501E0,2.9613533E0,0E0,3.8119888E0,4.0453053E0,2.838409E0,7.5508785E-1,4.9566936E-1,2.562079E0,1.4707565E-2,1.843296E0,4.501664E0,1.7471519E0,3.964646E0,8.422146E-1,5.62512E0,3.090362E0,0E0,0E0,3.1098678E0,4.2358637E0,7.044232E-1,4.192155E0,0E0,0E0,5.2946124E0,1.1024017E0,3.9657562E0,2.8725402E0,0E0,2.263061E0,4.061823E0,2.6395216E0,0E0,0E0,1.9024467E-1,7.579977E0,4.044744E0,1.786345E0,5.3018684E0,4.3181677E0,0E0,7.74786E-1,0E0,2.6203423E0,1.7949591E0,0E0,6.3555965E0,1.3415527E-1,0E0,0E0,7.0314903E0,0E0,2.6245012E0,8.2552433E-1,0E0,5.0546026E-1,1.7583525E0,0E0,0E0,1.1640029E0,0E0,3.1595435E0,0E0,0E0,2.7493038E0,3.7918727E0,0E0,3.5709577E0,0E0,0E0,1.8761706E0,4.9228745E0,1.1310158E0,2.7627952E0,4.1933155E-1,2.914084E0,4.618763E0,7.6537333E0,1.1623647E0,2.922752E0,0E0,4.5138264E-1,0E0,0E0,3.4509144E0,6.5242715E0,9.276819E-1,4.3813014E0,1.3937421E0,0E0,0E0,2.393397E0,8.1795883E-1,0E0,3.737316E-1,4.044924E0,3.959179E-2,0E0,0E0,0E0,0E0,5.8582884E-1,0E0,0E0,0E0,0E0,2.6500628E0,1.3756084E0,0E0,3.2907498E0,0E0,6.272416E-1,0E0,0E0,1.8851776E0,3.5535488E0,4.3353786E0,1.6091537E-1,1.1036797E0,2.1462348E0,0E0,2.659073E-1,0E0,9.8275757E-1,1.0927279E0,2.2103193E0,0E0,0E0,0E0,0E0,0E0,0E0,2.3980951E-1,0E0,2.118568E0,0E0,7.464943E-1,3.575508E0,0E0,3.0782251E0,0E0,1.1355591E0,2.1807752E0,0E0,1.4664459E0,0E0,6.180763E-1,8.500612E-2,0E0,0E0,0E0,0E0,0E0,1.0561252E-1,0E0,0E0,0E0,4.858826E0,0E0,0E0,4.1015563E0,1.7690711E0,0E0,0E0,1.2913752E0,2.4997458E0,3.4430728E0,3.6071596E0,0E0,4.7870255E-1,3.4232147E0,3.0823233E0,0E0,0E0,0E0,0E0,0E0,8.092756E-1,0E0,0E0,0E0,0E0,0E0,0E0,0E0,0E0,0E0,0E0,0E0,0E0,0E0,0E0,0E0,1.7501686E0,0E0,0E0,2.247906E0,3.1656199E0,8.53014E-2,1.4965433E0,0E0,0E0,0E0,3.583374E-1,0E0,0E0,1.5579224E-2,9.087045E-1,5.9153366E-1,4.913791E0,0E0,0E0,2.4333286E-1,1.5464504E0,1.6657684E0,0E0,0E0,0E0,0E0,2.5806904E0,0E0,0E0,0E0,0E0,0E0,4.4653316E0,1.6895978E0,0E0,0E0,0E0,1.3735971E0,0E0,0E0,0E0,0E0,0E0,2.895647E0,3.4445264E0,5.8830934E0,1.5762889E0,0E0,8.5338306E-1,0E0,0E0,0E0,1.9326415E0,2.2011905E0,0E0,7.8743553E-1,1.773104E0,0E0,2.2530556E-2,0E0,0E0,0E0,0E0,0E0,0E0,0E0,0E0,0E0,0E0,4.145872E0,5.3179836E-1,0E0,0E0,0E0,1.4104895E-1,1.7773209E0,1.7682574E0,1.5102386E-1,0E0,0E0,0E0,0E0,0E0,0E0,0E0,0E0,0E0,0E0,0E0,0E0,0E0,0E0,0E0,0E0,0E0,0E0,0E0,0E0,0E0,0E0,0E0,0E0,0E0,0E0,0E0,0E0,0E0,0E0,0E0,0E0,0E0,0E0,0E0,0E0,0E0,0E0,0E0,0E0,0E0,0E0,0E0,0E0,0E0,0E0,0E0,0E0,0E0,0E0,0E0,0E0,0E0],"parents":[2147483647,0,0,1,1,2,2,3,3,4,4,5,5,6,6,7,7,8,8,9,9,10,10,11,11,12,12,13,13,14,14,15,15,16,16,17,17,18,18,19,19,20,20,21,21,22,22,23,23,25,25,26,26,27,27,28,28,29,29,30,30,33,33,35,35,36,36,37,37,38,38,39,39,40,40,41,41,42,42,43,43,44,44,46,46,48,48,49,49,50,50,51,51,52,52,53,53,54,54,55,55,56,56,57,57,58,58,59,59,61,61,62,62,63,63,64,64,65,65,66,66,67,67,68,68,69,69,70,70,71,71,72,72,73,73,74,74,77,77,78,78,79,79,80,80,83,83,84,84,85,85,86,86,88,88,89,89,90,90,93,93,94,94,95,95,96,96,97,97,98,98,100,100,102,102,103,103,105,105,106,106,109,109,111,111,112,112,114,114,115,115,118,118,120,120,123,123,124,124,126,126,129,129,130,130,131,131,132,132,133,133,134,134,135,135,136,136,137,137,138,138,140,140,143,143,144,144,145,145,146,146,147,147,150,150,151,151,153,153,154,154,155,155,160,160,165,165,166,166,168,168,170,170,173,173,174,174,175,175,176,176,177,177,178,178,180,180,182,182,183,183,184,184,191,191,193,193,195,195,196,196,198,198,200,200,201,201,203,203,205,205,206,206,212,212,216,216,219,219,220,220,223,223,224,224,225,225,226,226,228,228,229,229,230,230,236,236,252,252,255,255,256,256,257,257,258,258,262,262,265,265,266,266,267,267,268,268,271,271,272,272,273,273,278,278,284,284,285,285,289,289,295,295,296,296,297,297,298,298,300,300,304,304,305,305,307,307,308,308,310,310,321,321,322,322,326,326,327,327,328,328,329,329],"right_children":[2,4,6,8,10,12,14,16,18,20,22,24,26,28,30,32,34,36,38,40,42,44,46,48,-1,50,52,54,56,58,60,-1,-1,62,-1,64,66,68,70,72,74,76,78,80,82,-1,84,-1,86,88,90,92,94,96,98,100,102,104,106,108,-1,110,112,114,116,118,120,122,124,126,128,130,132,134,136,-1,-1,138,140,142,144,-1,-1,146,148,150,152,-1,154,156,158,-1,-1,160,162,164,166,168,170,-1,172,-1,174,176,-1,178,180,-1,-1,182,-1,184,186,-1,188,190,-1,-1,192,-1,194,-1,-1,196,198,-1,200,-1,-1,202,204,206,208,210,212,214,216,218,220,-1,222,-1,-1,224,226,228,230,232,-1,-1,234,236,-1,238,240,242,-1,-1,-1,-1,244,-1,-1,-1,-1,246,248,-1,250,-1,252,-1,-1,254,256,258,260,262,264,-1,266,-1,268,270,272,-1,-1,-1,-1,-1,-1,274,-1,276,-1,278,280,-1,282,-1,284,286,-1,288,-1,290,292,-1,-1,-1,-1,-1,294,-1,-1,-1,296,-1,-1,298,300,-1,-1,302,304,306,308,-1,310,312,314,-1,-1,-1,-1,-1,316,-1,-1,-1,-1,-1,-1,-1,-1,-1,-1,-1,-1,-1,-1,-1,318,-1,-1,320,322,324,326,-1,-1,-1,328,-1,-1,330,332,334,336,-1,-1,338,340,342,-1,-1,-1,-1,344,-1,-1,-1,-1,-1,346,348,-1,-1,-1,350,-1,-1,-1,-1,-1,352,354,356,358,-1,360,-1,-1,-1,362,364,-1,366,368,-1,370,-1,-1,-1,-1,-1,-1,-1,-1,-1,-1,372,374,-1,-1,-1,376,378,380,382,-1,-1,-1,-1,-1,-1,-1,-1,-1,-1,-1,-1,-1,-1,-1,-1,-1,-1,-1,-1,-1,-1,-1,-1,-1,-1,-1,-1,-1,-1,-1,-1,-1,-1,-1,-1,-1,-1,-1,-1,-1,-1,-1,-1,-1,-1,-1,-1,-1,-1,-1,-1,-1],"split_conditions":[2.7272727E-2,-1.7777778E-1,-1.6803126E0,-4.37858E-2,3.1342357E-3,-1E0,3.3333333E0,-1.6E1,7E0,1.4419909E0,1.6789776E0,-2.1203434E0,1.2E1,8.3153677E-1,1.1E1,2.908717E0,6.8523407E0,3E0,5.126721E-2,-9.665822E-2,1.7546251E0,1.8E1,-1.5384616E-1,0E0,-1.4133137E-1,-3.628426E-2,9.375E-2,-5.3333335E0,-1.5865698E-1,1.3095239E-1,3E-1,-1.7365468E-1,-3.676955E-2,-2.777778E-1,8.735738E-2,-3E-1,3.045756E-1,-3.5714287E-1,1.4419909E0,-6.666667E-1,-2E0,1.6666666E0,6E0,-6.3629966E0,2.3333333E0,-4.7186416E-2,1.1738106E-1,-1.1730927E-1,1E1,-7.4469306E-2,-2.7052915E0,4E0,-2.1784122E0,5E0,-7.397447E-3,-3.3333333E0,-9.333333E0,1.7333334E1,1.4419909E0,1.1E1,8.788019E-2,1E1,-5.3333335E0,-7.1428573E-1,-1.8859817E-2,-2.4474273E-2,-5.6666665E0,-4.5337515E0,1.6E1,-2.6666667E0,-2.777778E-1,-1.2252071E0,1.5E1,8E0,-9.666667E0,9.931979E-2,-1.7630542E-3,2.1404405E0,-3E-1,-5.318997E-2,-3.0544329E0,-1.2416899E-1,-1.5668724E-2,5.256189E-2,2E0,-6.21729E-2,4.5950734E-3,-8.41116E-2,6E0,6.3333335E0,3E-1,4.3051165E-2,-5.0571468E-2,2E0,-2.5088754E-2,-1.4326845E-3,-8.563206E-1,-3.3333334E-1,-9.083827E-2,-9.408647E-2,1.9117361E-2,1.3960235E-1,1.7546251E0,8E0,-2.7856251E-2,3.814662E-2,-8.2868405E-2,5.335797E-2,-1.0113857E-1,-8.3486035E-2,-1.5989253E-1,0E0,-1.3170022E-1,-8.421666E-2,-8E0,4E0,1.1210724E-1,-1.3831107E-1,5E0,-8.196462E-2,1.3333333E1,-6.3683145E-2,-1.4241423E-1,3E0,0E0,7.125684E-2,9E0,-2.237852E-2,8.766674E-2,-1.4392614E-2,1.1E1,1.5E1,-1.9393621E-2,-1E0,-2.8971577E0,-4.2914417E-2,-9E0,-9.083827E-2,-3.3333334E-1,3.0139966E-2,3.814662E-2,1.1411538E-1,1.635435E-2,1.3333334E0,1.4397298E-2,-4.724524E-3,4.2866044E0,6.666667E-2,1.3437699E-1,-1.3956486E-1,-5.0317802E0,-1.0333333E1,-3.5448458E-2,-5.358852E0,-4.6666665E0,1.6911764E-1,4.5072656E-2,-3.7904616E-2,1.0369833E-1,1.331948E-1,-1.6666667E-1,-1.1926859E-1,1.1889329E-1,6.097647E-2,-1.2350961E-1,-9.333333E0,1.6666666E0,-1.4236824E-1,-5.055966E-2,-8.502942E-2,2.629208E-2,2.9588628E-3,1.020922E-1,-8.2868405E-2,-1E-1,6.666226E-2,1.4E1,-8.419791E-3,1.9671784E-1,4.0091947E-2,8E0,4.6028376E-2,-9.197641E-2,-2.7878225E0,-1.6666667E-1,-3.2686368E-2,-1.3706732E-1,8.986851E-2,5.012499E-3,8.662522E-2,-4.2237233E-2,-1.5304401E0,-3.7845222E-3,-8.888889E-1,-5.4045428E-2,-3.6666667E0,5.3333335E0,9.380978E-2,-1E-1,2.4101553E-2,-2.028534E-2,-9E0,2.4511246E-2,-1E1,-9.119597E-2,-9.3954897E-1,-3.2771368E-2,-9.871917E-2,3.997316E-2,1.19324826E-1,3.0349541E-2,5.090182E-2,-6E0,1.5211502E-2,-1.619724E-1,1.2076324E-1,3E0,-1.097582E-1,4.482526E-3,-2.0034378E-2,-5.5555556E-2,-1.4929514E-1,-3.4946516E-2,-2.0975968E-2,3.3333333E0,4E0,3.4489375E-2,1.2589644E-2,8.504187E-3,-6.6666665E0,6.5323114E-2,-2.217646E-2,9.066168E-2,-5.8417153E-2,7.621722E-2,1.9432948E-3,5E0,3.5329033E-2,1.24756694E-1,-9.210045E-2,7.887729E-2,-4.2680603E-2,-1.4023201E-1,8.4761634E-2,-1.4658141E-3,-5.616743E-2,8.943014E-2,1.2058065E-1,1.9001784E-3,1.0047574E-1,-5.169505E-2,1.1460606E-1,2E0,2.118969E-3,1.3866766E-1,-3.9973997E-2,1.1E1,1.6666666E0,1.0130719E-1,1.3331623E-1,3.666256E-2,1.3984014E-2,1.4666667E1,-7.5427316E-2,5.1507737E-2,1E0,1.5E1,-2.9879513E0,-1.6803126E0,8.994391E-2,-7.1364543E-3,-1.849956E-1,1.1333333E1,-2.9879513E0,-1.2857084E-1,-2.2539759E-2,1.0070743E-1,-1.6086696E-1,-2.3333333E-1,5.930754E-2,-9.057447E-2,-1.0833136E-1,4.6789017E-2,-1.5669726E-1,8.888724E-3,6.666667E-2,-1.3344051E-1,3.9087976E-3,1.19592026E-1,-4.696899E0,-1.7032376E-1,-5.003495E-2,-1.0107248E-2,-1.2462628E-1,-3.9961778E-2,1.7E1,-2.8422294E-2,-7E0,-6.25E-2,-2.3228958E-2,6.666667E-2,-1.3140777E-1,-2.0661512E-2,9.470969E-2,7.4340485E-2,1.4E1,-5.7215817E-2,6.51987E-2,2E0,3.2944556E-2,1E1,-5.0191123E-2,1.166814E-1,-1.19762555E-1,2.999034E-2,1.11644626E-1,1.4484644E-2,-4.1584067E-2,8.698758E-2,-8.6987846E-2,3.9006617E-2,4.1635175E0,1.5821623E-2,1.2309364E-1,4.666589E-2,-7.757771E-2,5.6666665E0,-2.954889E-2,1.7333334E1,5E0,4.881613E-2,9.486796E-2,-6.4490843E-3,-1.619804E-1,-9.658875E-2,6.673764E-3,-1.2359933E-1,-1.2524226E-1,-4.097841E-2,1.6408073E-2,-8.124624E-2,-8.9145765E-2,2.315275E-2,-9.589835E-3,-1.261411E-1,4.4559177E-2,-1.3753687E-1,-5.972759E-2,4.6246298E-2,-1.2417473E-1,-4.518151E-2,-8.383591E-2,2.034364E-2,-4.067068E-2,4.718296E-2,2.5633708E-2,-1.2696587E-1,1.0809012E-1,5.4465267E-3,4.0428337E-2,1.2192432E-1,3.744601E-2,-7.797605E-2,8.088164E-2,-1.7381434E-3,-3.4187336E-2,-1.4906293E-1,7.129632E-2,-4.42677E-2,1.3576308E-1,5.9382327E-2,-2.8835936E-2,7.9692505E-2,4.245552E-2,1.0467996E-1,3.9586887E-2,-1.8780649E-3,8.802371E-3,1.3249598E-1,1.4917316E-3,1.1141125E-1,9.4423674E-2,1.4773093E-1],"split_indices":[2,2,4,1,1,5,5,5,8,4,4,4,8,4,6,4,4,6,1,1,4,8,2,3,0,0,2,6,1,2,3,0,0,2,0,3,4,2,4,6,7,5,6,4,6,0,1,0,8,1,4,5,4,8,0,6,6,5,4,8,0,8,5,2,1,0,5,4,8,5,2,4,8,8,5,0,0,4,3,0,4,0,0,1,8,0,1,0,5,6,3,0,0,7,0,0,4,6,1,0,0,0,4,5,0,0,1,0,0,0,0,7,1,0,5,8,0,0,5,0,6,0,0,5,7,0,8,0,0,0,8,6,0,5,4,0,5,1,6,0,0,0,0,6,0,0,4,3,0,0,4,6,0,4,6,2,0,0,0,0,6,0,0,0,0,6,5,0,1,0,1,0,0,1,3,1,5,1,1,0,6,0,1,4,6,0,0,0,0,0,0,4,0,2,0,6,6,0,3,0,0,5,0,6,0,4,0,0,0,0,0,0,7,0,0,0,6,0,0,1,2,0,0,0,6,7,0,0,1,6,0,0,0,0,0,0,6,0,0,0,0,0,0,0,0,0,0,0,0,0,0,0,5,0,0,1,8,6,2,0,0,0,5,0,0,3,8,4,4,0,0,1,6,4,0,0,0,0,2,0,0,0,0,0,0,3,0,0,0,4,0,0,0,0,0,8,1,5,2,0,3,0,0,0,1,8,0,1,6,0,8,0,0,0,0,0,0,0,0,0,0,4,0,0,0,0,5,0,5,8,0,0,0,0,0,0,0,0,0,0,0,0,0,0,0,0,0,0,0,0,0,0,0,0,0,0,0,0,0,0,0,0,0,0,0,0,0,0,0,0,0,0,0,0,0,0,0,0,0,0,0,0,0],"split_type":[0,0,0,0,0,0,0,0,0,0,0,0,0,0,0,0,0,0,0,0,0,0,0,0,0,0,0,0,0,0,0,0,0,0,0,0,0,0,0,0,0,0,0,0,0,0,0,0,0,0,0,0,0,0,0,0,0,0,0,0,0,0,0,0,0,0,0,0,0,0,0,0,0,0,0,0,0,0,0,0,0,0,0,0,0,0,0,0,0,0,0,0,0,0,0,0,0,0,0,0,0,0,0,0,0,0,0,0,0,0,0,0,0,0,0,0,0,0,0,0,0,0,0,0,0,0,0,0,0,0,0,0,0,0,0,0,0,0,0,0,0,0,0,0,0,0,0,0,0,0,0,0,0,0,0,0,0,0,0,0,0,0,0,0,0,0,0,0,0,0,0,0,0,0,0,0,0,0,0,0,0,0,0,0,0,0,0,0,0,0,0,0,0,0,0,0,0,0,0,0,0,0,0,0,0,0,0,0,0,0,0,0,0,0,0,0,0,0,0,0,0,0,0,0,0,0,0,0,0,0,0,0,0,0,0,0,0,0,0,0,0,0,0,0,0,0,0,0,0,0,0,0,0,0,0,0,0,0,0,0,0,0,0,0,0,0,0,0,0,0,0,0,0,0,0,0,0,0,0,0,0,0,0,0,0,0,0,0,0,0,0,0,0,0,0,0,0,0,0,0,0,0,0,0,0,0,0,0,0,0,0,0,0,0,0,0,0,0,0,0,0,0,0,0,0,0,0,0,0,0,0,0,0,0,0,0,0,0,0,0,0,0,0,0,0,0,0,0,0,0,0,0,0,0,0,0,0,0,0,0,0,0,0,0,0,0,0,0,0,0,0,0,0,0,0,0,0,0,0,0,0,0,0],"sum_hessian":[6.196387E2,3.7870676E2,2.4093195E2,1.7126988E2,2.0743686E2,5.801423E1,1.8291772E2,9.1261345E1,8.0008545E1,1.2977698E2,7.7659874E1,2.0038042E1,3.7976185E1,7.919407E1,1.03723656E2,1.6458282E1,7.480306E1,3.0965618E1,4.9042923E1,9.429792E1,3.5479065E1,4.4112686E1,3.3547184E1,1.6819645E1,3.2183983E0,1.9698643E1,1.8277542E1,2.5261246E1,5.3932823E1,9.939032E1,4.333336E0,1.5229579E1,1.2287042E0,7.362427E1,1.1788E0,1.0454917E1,2.0510702E1,3.444611E1,1.4596813E1,4.0744892E1,5.355303E1,4.2675443E0,3.1211521E1,4.140761E1,2.7050776E0,1.654862E0,3.189232E1,2.498907E0,1.4320737E1,9.81813E0,9.880513E0,3.8776991E0,1.4399843E1,1.2157395E1,1.310385E1,4.792632E0,4.9140194E1,1.754638E1,8.184394E1,3.1548643E0,1.1784714E0,5.2298496E1,2.132577E1,3.6323552E0,6.8225617E0,1.1362115E1,9.148587E0,1.3947268E1,2.0498842E1,1.0272867E1,4.3239455E0,1.7198246E1,2.3546644E1,8.229896E0,4.532313E1,3.080523E0,1.187021E0,2.5295298E1,5.9162245E0,3.79597E0,3.761164E1,1.2340095E0,1.4710681E0,1.89304E1,1.2961921E1,5.1107016E0,9.210035E0,1.2151229E0,8.603006E0,6.312807E0,3.5677056E0,1.9171915E0,1.9605078E0,1.0764877E1,3.6349657E0,2.8694286E0,9.287967E0,7.338945E0,5.7649055E0,1.9241592E0,2.868473E0,8.5059395E0,4.0634254E1,1.6129717E1,1.4166629E0,2.9824455E1,5.2019485E1,1.4153342E0,1.73953E0,3.3061733E1,1.9236761E1,1.3907744E1,7.418026E0,1.2220278E0,2.4103274E0,2.381878E0,4.440684E0,3.2359095E0,8.1262045E0,1.2267543E0,7.9218326E0,2.4833112E0,1.1463957E1,1.5103612E1,5.39523E0,1.6972436E0,8.575624E0,1.9413855E0,2.3825603E0,1.1587359E1,5.6108875E0,1.9357576E1,4.189068E0,4.089433E0,4.1404624E0,5.439852E0,3.9883278E1,2.9286163E0,2.236668E1,2.1944838E0,3.721741E0,2.3615768E0,1.4343932E0,1.0754446E1,2.6857195E1,1.0841024E1,8.089376E0,2.8228397E0,1.0139081E1,1.731714E0,3.3789878E0,6.8574514E0,2.352584E0,4.9916186E0,3.6113877E0,5.1221333E0,1.190674E0,1.7022336E0,1.8654721E0,8.417789E0,2.3470876E0,1.2374856E0,2.39748E0,1.6340703E0,1.2353584E0,3.1163359E0,6.171631E0,3.4645782E0,3.874367E0,1.2148678E0,4.5500374E0,1.2074544E0,1.6610186E0,7.951332E0,3.2682922E1,9.015065E0,7.1146517E0,2.6263824E1,3.5606296E0,1.1635755E0,5.0855907E1,2.6789618E0,3.0382772E1,3.3691125E0,1.0538631E1,1.7157238E0,5.702302E0,1.1940606E0,1.2162669E0,1.1715851E0,1.2102929E0,5.9294395E0,2.1967654E0,5.9756856E0,1.9461468E0,1.0683717E1,4.419895E0,1.2075247E0,4.187705E0,2.1799588E0,6.395665E0,1.01266165E1,1.4607425E0,4.127885E0,1.4830024E0,1.63834E1,2.9741757E0,2.468489E0,1.7205789E0,2.4084458E0,1.6809874E0,1.2158413E0,2.924621E0,1.9513235E0,3.488529E0,2.1972146E0,3.7686066E1,1.7160329E0,1.2125835E0,1.3780247E1,8.586433E0,2.490415E0,1.2313259E0,5.384984E0,5.3694625E0,1.9804106E1,7.053089E0,1.4112697E0,9.429754E0,3.7550778E0,4.334299E0,1.445524E0,1.3773156E0,1.4597726E0,1.9192152E0,1.207252E0,5.6501994E0,1.6959566E0,3.2956622E0,1.4814441E0,2.1299436E0,1.2040379E0,3.9180954E0,1.1590067E0,1.1880809E0,1.9284425E0,1.1878934E0,4.965067E0,1.2065638E0,1.4511003E0,2.4232666E0,2.1611814E0,2.3888562E0,1.1987402E0,6.7525916E0,3.848885E0,2.8834036E1,4.977474E0,4.037591E0,5.9671626E0,1.1474891E0,1.4251878E0,2.4838636E1,2.1600256E0,1.4006039E0,4.8099236E1,2.7566733E0,1.9483526E1,1.0899246E1,1.1939085E0,2.175204E0,4.189776E0,6.348856E0,4.437276E0,1.4921638E0,1.4399374E0,4.5357485E0,3.4848053E0,7.1989117E0,2.1983943E0,2.2215009E0,2.983773E0,1.2039322E0,2.7271175E0,3.6685479E0,6.164002E0,3.9626148E0,1.7170362E0,2.4108489E0,1.2401719E1,3.981682E0,1.4881058E0,1.48607E0,1.2289869E0,1.6956342E0,2.1794104E1,1.5891961E1,8.570653E0,5.209594E0,1.4416618E0,7.1447716E0,3.4396896E0,1.9452943E0,1.2150161E0,4.1544466E0,1.7865446E1,1.9386581E0,3.6734185E0,3.3796706E0,1.6937035E0,7.736051E0,1.1783074E0,2.5767703E0,2.665109E0,1.6691902E0,4.22931E0,1.4208894E0,1.2137443E0,1.175112E0,1.9534198E0,1.8954653E0,1.2300196E1,1.653384E1,2.8550873E0,2.122387E0,1.694018E0,2.343573E0,1.9765797E1,5.072841E0,4.6722042E1,1.3771921E0,1.5950725E0,1.1616008E0,6.4952297E0,1.2988296E1,4.6641345E0,6.2351117E0,2.2057002E0,1.9840757E0,5.1224384E0,1.2264178E0,2.9730644E0,1.4642113E0,3.4750922E0,3.7238197E0,1.9320335E0,1.7365144E0,4.9715123E0,1.1924896E0,6.9593616E0,5.442357E0,1.9116453E1,2.6776488E0,8.3683815E0,7.52358E0,4.8578434E0,3.7128093E0,2.1003637E0,3.10923E0,4.2959757E0,2.848796E0,1.7102903E0,2.4441562E0,1.379505E1,4.0703974E0,1.7032793E0,1.9701394E0,1.6980361E0,1.6816344E0,5.1732244E0,2.5628264E0,6.4437504E0,5.856445E0,3.7351499E0,1.2798691E1,1.1603602E0,1.1832128E0,1.393195E0,1.83726E1,2.551346E0,2.5214953E0,8.033284E0,3.868876E1],"tree_param":{"num_deleted":"0","num_feature":"9","num_nodes":"383","size_leaf_vector":"1"}},{"base_weights":[-8.964973E-4,-4.069858E-1,6.4795184E-1,-7.8997153E-1,-8.794369E-2,1.0965228E-1,8.1971496E-1,-1.0513141E0,-4.8250604E-1,-3.2826272E-1,3.1693098E-1,-3.591566E-1,3.6211663E-1,5.3142804E-1,1.0358304E0,-1.519525E0,-9.3014854E-1,-9.9776484E-2,-7.161551E-1,-4.6344355E-1,3.6507152E-2,7.954185E-3,7.1717155E-1,-1.13767296E-1,-1.3001558E-1,-1.15459515E-2,7.4972874E-1,1.2255004E-1,7.193622E-1,1.0772511E0,8.144691E-2,-1.5879594E-1,-3.465441E-2,-9.687374E-1,8.369624E-2,5.9446776E-1,-4.6011978E-1,-9.236371E-1,-1.9674598E-1,-6.9702417E-1,-2.7612862E-1,-7.1303946E-1,1.429304E-1,7.924514E-2,-8.021319E-1,-4.3970328E-2,7.908846E-1,-1.090072E-1,1.18213356E-1,-4.0295988E-1,4.2897302E-1,-4.5980316E-2,9.580731E-1,4.0902302E-1,-2.3950225E-1,1.2366372E-1,5.933274E-1,9.25861E-1,1.2572893E0,-3.330242E-1,8.4180884E-2,-1.1088382E0,-5.925406E-1,2.2132738E-1,1.0377375E-1,-1.1706434E0,-5.8604E-2,-1.0490075E0,-4.1102168E-1,-4.623215E-1,4.0570244E-1,-8.259339E-1,-5.1910147E-2,2.1579014E-1,-3.6740473E-1,3.496856E-2,-1.435757E-1,6.1428493E-1,-8.7103315E-2,8.353903E-1,-1.5717294E-2,-1.1663971E-1,-1.4717898E-2,5.239326E-1,1.1203926E0,-4.6543667E-1,4.5923406E-1,-7.657802E-1,2.0160203E-1,8.971171E-1,-2.7419224E-1,4.045417E-2,-4.7037657E-2,1.1497597E0,2.7020964E-1,1.0848688E-1,1.8709613E-1,-4.957276E-1,5.711112E-1,4.0799093E-2,7.342453E-1,9.6235174E-1,-3.0068368E-2,8.079138E-1,1.31608E-1,5.064412E-2,-9.4379835E-2,2.2929989E-2,-1.150851E0,8.2129136E-2,-8.099978E-1,5.1663375E-1,-5.8111575E-2,-5.005279E-1,-1.4350481E-1,-5.7957554E-1,3.558693E-1,-1.2333934E0,-1.5734918E-1,6.275346E-2,-7.090148E-1,6.7345075E-2,-7.3151934E-1,-3.805216E-2,7.364427E-1,9.825549E-3,-8.775807E-1,7.1367495E-2,-4.019356E-1,9.058889E-1,-4.9809495E-1,-2.9685876E-1,-1.3863902E-1,2.7964628E-1,1.05176345E-1,6.331768E-1,-2.6187956E-1,1.0842921E-1,1.5422477E-2,-4.670149E-1,1.77341E-1,9.285481E-1,-5.2292645E-2,4.014069E-1,1.269962E-1,-1.3004927E-1,1.6710126E-1,7.430715E-1,-3.2764073E-2,-1.2269539E0,-1.1413344E-1,-4.7323525E-2,6.123171E-1,1.5963785E-2,1.07655525E-1,-7.822526E-2,2.4414234E-2,1.2555824E-1,5.128914E-1,-1.1237972E-1,1.12649694E-1,-4.2022514E-1,4.641821E-1,4.479342E-2,-6.797444E-1,8.62563E-2,2.638431E-3,-6.4083636E-1,6.5465206E-1,3.5255924E-1,9.461356E-1,3.6153764E-1,1.0264266E0,2.0428199E-1,1.0410126E-1,-5.010527E-1,-1.2240187E0,-5.149348E-1,8.4693305E-2,6.811837E-3,-9.129724E-1,8.473989E-2,-4.2842284E-2,-8.093994E-2,7.3388866E-3,-8.7087065E-2,-1.418166E-1,6.086314E-1,-5.4123577E-2,-9.6314067E-1,-1.4750566E0,6.73858E-2,-9.379392E-2,-1.2518947E-1,5.014212E-2,2.2514869E-2,-1.0426563E0,1.9721353E-2,9.6138604E-2,-9.48963E-1,1.7351909E-2,-7.634213E-1,3.491627E-2,1.13011636E-1,2.8562361E-2,4.9960684E-2,-9.320335E-1,-5.951407E-1,1.0026437E-2,9.249404E-2,-2.5591943E-1,-1.1483979E-2,1.0703994E-1,-6.8890065E-1,1.4864731E-1,-9.249618E-1,6.926283E-2,4.4763535E-1,-5.335429E-1,1.1874209E-2,1.0286734E0,6.0629845E-1,-6.1811334E-1,-2.081555E-2,8.683185E-2,7.463684E-2,-5.8392435E-2,1.0222422E-1,2.3537584E-1,-1.4219898E-1,-4.0768143E-2,4.5999557E-2,-8.230368E-2,9.325457E-2,-2.0034653E-3,-3.7948177E-3,8.319721E-2,-8.601486E-2,4.2481482E-2,6.980762E-1,-3.3227324E-2,-1.0089468E0,-2.2839325E-2,1.7932158E-2,-9.855772E-1,-1.4584802E-2,1.1103262E-1,1.5156148E-1,1.0493412E-1,1.1120661E0,2.824298E-1,7.5713027E-1,-2.0573239E-1,1.2301958E0,7.244841E-1,-4.7466684E-2,8.057349E-2,-9.207159E-1,6.356958E-2,-1.0086465E0,-1.4426306E0,-8.916517E-2,2.1415777E-3,-3.3117864E-1,-1.0670817E0,2.5779307E-2,-4.817545E-2,8.897697E-1,-4.655315E-2,-6.065457E-1,-1.386587E-1,-1.5972511E-1,-6.448042E-2,-1.5850183E-2,-1.2332188E0,-1.024599E0,-2.7107227E-1,2.938939E-2,-1.3828605E-1,-1.2639312E-1,-2.1409832E-2,-1.5569803E-1,-9.9922E-1,3.0919656E-1,-5.486855E-1,-7.834611E-1,5.9375446E-2,-1.0634052E0,6.749689E-2,-7.0780236E-1,4.9680966E-1,-1.20103255E-1,-1.925636E-2,9.040952E-2,-2.9861334E-1,6.524848E-1,-2.2306739E-1,-1.0632769E0,1.5804808E-1,3.0995954E-2,1.1344192E0,-4.7170836E-2,1.10839E-1,-1.0141851E0,4.280564E-2,7.077815E-2,-4.9651023E-2,9.198547E-1,4.477698E-3,-1.404728E-1,-4.7871214E-3,5.284192E-2,-5.5013206E-2,-1.366121E-1,-2.0014094E-2,8.351063E-2,-8.305742E-2,-8.710878E-2,9.9202275E-2,1.2404501E0,1.65212E-2,9.431557E-2,-1.850476E-1,-1.0083717E-3,1.0584476E-1,5.33481E-2,-9.255462E-2,3.4694176E-2,1.2543516E0,1.6729903E-1,9.672576E-1,9.309198E-3,-1.23431556E-1,-1.5152879E-1,-8.6523324E-2,-1.5679811E-1,-7.790433E-2,1.324671E-2,-7.142552E-2,-6.5676145E-2,-1.4862181E-1,3.250822E-2,1.16376065E-1,-1.08918525E-1,4.9830753E-2,-1.3968031E-1,-3.3178534E-2,1.4301515E-2,-1.08500205E-1,7.175177E-2,-1.0006183E-1,-9.593436E-2,1.5228778E-2,6.604761E-3,-1.1300223E-1,-1.2157313E-2,6.857212E-2,-9.739576E-2,1.17211845E-2,1.9597835E-3,-1.2237181E-1,-3.8738158E-2,-1.6275105E-1,1.312809E-2,-1.22891046E-1,8.128907E-2,2.287989E-2,3.5211183E-2,-7.194708E-2,8.367786E-3,9.176195E-2,-1.005301E-1,2.99633E-2,-1.3921094E-1,-3.0751357E-2,6.738113E-2,-4.1266724E-2,1.2843077E-1,5.576548E-2,1.7100172E-3,-1.4358848E-1,1.4164031E-2,1.1620196E-1,2.3686938E-2,-8.308889E-2,3.69036E-2,1.283751E-1,-6.848448E-2,4.963295E-2,4.367324E-2,1.2800953E-1,-3.251932E-2,8.7250166E-2,-2.8882047E-2,1.11557975E-1],"categories":[],"categories_nodes":[],"categories_segments":[],"categories_sizes":[],"default_left":[0,0,0,0,0,0,0,0,0,0,0,0,0,0,0,0,0,0,0,0,0,0,0,0,0,0,0,0,0,0,0,0,0,0,0,0,0,0,0,0,0,0,0,0,0,0,0,0,0,0,0,0,0,0,0,0,0,0,0,0,0,0,0,0,0,0,0,0,0,0,0,0,0,0,0,0,0,0,0,0,0,0,0,0,0,0,0,0,0,0,0,0,0,0,0,0,0,0,0,0,0,0,0,0,0,0,0,0,0,0,0,0,0,0,0,0,0,0,0,0,0,0,0,0,0,0,0,0,0,0,0,0,0,0,0,0,0,0,0,0,0,0,0,0,0,0,0,0,0,0,0,0,0,0,0,0,0,0,0,0,0,0,0,0,0,0,0,0,0,0,0,0,0,0,0,0,0,0,0,0,0,0,0,0,0,0,0,0,0,0,0,0,0,0,0,0,0,0,0,0,0,0,0,0,0,0,0,0,0,0,0,0,0,0,0,0,0,0,0,0,0,0,0,0,0,0,0,0,0,0,0,0,0,0,0,0,0,0,0,0,0,0,0,0,0,0,0,0,0,0,0,0,0,0,0,0,0,0,0,0,0,0,0,0,0,0,0,0,0,0,0,0,0,0,0,0,0,0,0,0,0,0,0,0,0,0,0,0,0,0,0,0,0,0,0,0,0,0,0,0,0,0,0,0,0,0,0,0,0,0,0,0,0,0,0,0,0,0,0,0,0,0,0,0,0,0,0,0,0,0,0,0,0,0,0,0,0,0,0,0,0,0,0,0,0,0,0,0,0,0,0,0,0,0,0,0,0,0,0,0,0,0,0,0,0,0,0,0,0,0,0,0,0,0,0,0,0,0,0,0,0,0,0,0,0,0,0,0,0,0,0,0,0,0,0],"id":3,"left_children":[1,3,5,7,9,11,13,15,17,19,21,23,25,27,29,31,33,35,37,39,41,43,45,47,-1,49,51,53,55,57,59,-1,-1,61,-1,63,65,67,69,71,73,75,77,79,81,-1,83,-1,85,87,89,91,93,95,97,-1,99,101,103,105,-1,107,109,111,-1,113,115,117,119,121,123,125,127,129,131,-1,-1,133,135,137,139,-1,-1,141,143,145,147,149,151,153,155,-1,-1,157,159,-1,161,163,165,167,169,171,-1,173,-1,-1,-1,-1,175,177,179,181,-1,183,-1,185,187,189,191,-1,193,-1,195,-1,197,-1,199,-1,201,203,205,207,-1,209,-1,211,213,-1,-1,215,217,219,221,223,-1,-1,225,227,-1,229,231,-1,233,-1,-1,-1,-1,-1,235,-1,-1,237,239,-1,241,-1,-1,243,245,247,249,251,253,255,-1,257,259,261,-1,-1,263,-1,-1,-1,-1,-1,265,267,-1,269,271,-1,-1,-1,-1,-1,273,-1,-1,275,-1,277,-1,-1,-1,-1,279,281,283,-1,285,-1,-1,287,289,291,293,295,297,-1,299,301,303,-1,-1,-1,-1,-1,305,-1,-1,-1,-1,-1,-1,-1,-1,-1,-1,307,-1,309,311,-1,313,315,-1,317,-1,319,321,323,325,327,329,-1,-1,331,-1,333,335,-1,-1,337,339,-1,-1,341,-1,343,-1,-1,-1,-1,345,347,349,-1,-1,-1,-1,351,353,355,357,359,-1,361,-1,363,365,-1,-1,-1,367,369,371,373,375,-1,377,-1,-1,379,-1,-1,-1,381,-1,-1,-1,-1,-1,-1,-1,-1,-1,383,-1,385,-1,-1,387,-1,-1,-1,-1,-1,389,391,393,-1,-1,-1,-1,-1,-1,-1,-1,-1,-1,-1,-1,-1,-1,-1,-1,-1,-1,-1,-1,-1,-1,-1,-1,-1,-1,-1,-1,-1,-1,-1,-1,-1,-1,-1,-1,-1,-1,-1,-1,-1,-1,-1,-1,-1,-1,-1,-1,-1,-1,-1,-1,-1,-1,-1,-1,-1,-1,-1,-1,-1,-1,-1,-1],"loss_changes":[1.6192798E2,4.611571E1,2.1783043E1,1.3285629E1,2.0277132E1,7.0397053E0,1.0613449E1,3.8022995E0,7.1464252E0,6.456607E0,9.607336E0,4.6865273E0,5.5766044E0,5.9691296E0,3.9191132E0,8.402138E-1,5.9670258E0,8.218372E0,5.2020054E0,3.9797287E0,2.9926462E0,2.6554654E0,3.2347565E0,4.1380434E0,0E0,3.7176788E0,3.1747513E0,2.7975302E0,2.7737255E0,1.48143E0,1.9499502E0,0E0,0E0,3.26754E0,0E0,1.637347E0,6.056623E0,1.845581E0,2.672322E0,3.4317589E0,2.529759E0,4.090823E0,3.584568E0,3.0404396E0,7.15852E-1,0E0,2.2439747E0,0E0,3.2401788E0,2.6553082E0,3.5894647E0,1.1219655E0,1.6686792E0,2.0318382E0,2.8020988E0,0E0,3.4879522E0,2.8190117E0,3.4225464E-2,2.6033974E0,0E0,3.2496033E0,3.3460436E0,2.0537338E0,0E0,6.459236E-1,3.395731E0,4.379883E0,3.108307E0,3.9310884E0,1.6542965E0,1.7451916E0,2.4375093E0,4.9696536E0,2.9242144E0,0E0,0E0,1.2876816E0,3.0311823E0,6.334374E-1,3.4317508E0,0E0,0E0,4.6318254E0,9.447727E-1,3.4417048E0,2.4994574E0,2.0639434E0,1.6944017E0,6.660056E-1,1.4617234E0,0E0,0E0,1.2654305E-1,6.731554E0,0E0,2.2859585E0,1.9976549E0,5.1345646E-1,4.704357E0,2.5732098E0,1.7510223E0,0E0,8.279934E-1,0E0,0E0,0E0,0E0,1.8427505E0,3.338788E0,1.5991096E0,2.21939E0,0E0,7.177717E-1,0E0,7.595632E-1,2.3352525E0,7.538605E-2,4.4688616E0,0E0,5.3305264E0,0E0,3.0834827E0,0E0,3.0288053E-1,0E0,2.6419506E0,0E0,1.9356127E0,3.7516022E-1,2.6967566E0,4.095166E0,0E0,2.8232236E0,0E0,1.6722049E0,3.4374008E0,0E0,0E0,2.9599345E0,5.550918E0,8.1857204E-1,3.7494328E0,1.2598139E0,0E0,0E0,2.3324175E0,8.548894E-1,0E0,9.010887E-2,2.0643294E0,0E0,7.449144E-1,0E0,0E0,0E0,0E0,0E0,6.150333E-1,0E0,0E0,2.007678E0,1.9099144E0,0E0,1.827368E0,0E0,0E0,1.6915641E0,1.8101683E0,1.8610704E0,2.1657352E0,1.6943145E0,2.140049E0,1.7318786E0,0E0,3.887021E0,6.9833374E-1,8.660339E-1,0E0,0E0,1.0168152E0,0E0,0E0,0E0,0E0,0E0,6.623272E-1,2.6404984E0,0E0,1.2269545E0,6.0920715E-3,0E0,0E0,0E0,0E0,0E0,1.0512362E0,0E0,0E0,1.315424E0,0E0,3.329958E0,0E0,0E0,0E0,0E0,6.683004E-1,3.8699455E0,4.014416E0,0E0,2.6494904E0,0E0,0E0,5.5712605E0,3.4891024E0,1.0688286E0,2.223731E0,2.972238E0,3.1253278E0,0E0,4.231987E-1,3.0612047E0,2.6576807E0,0E0,0E0,0E0,0E0,0E0,1.7487187E0,0E0,0E0,0E0,0E0,0E0,0E0,0E0,0E0,0E0,0E0,1.0143478E0,0E0,2.0921164E0,1.4184332E0,0E0,9.000466E-1,3.0301714E0,0E0,2.5664592E0,0E0,1.9434547E0,1.9795871E0,9.938364E-1,2.4109774E0,1.6186142E-1,2.852603E0,0E0,0E0,1.8518734E0,0E0,6.044636E-1,4.7317123E-1,0E0,0E0,9.2057735E-1,1.0243711E0,0E0,0E0,5.7882786E-1,0E0,5.4550753E0,0E0,0E0,0E0,0E0,4.1246414E-1,2.101286E0,3.9480593E0,0E0,0E0,0E0,0E0,3.1272287E0,1.6945486E0,2.6168566E0,2.4878073E0,1.2393475E0,0E0,2.3605986E0,0E0,1.6713911E0,4.9751008E-1,0E0,0E0,0E0,1.6685202E0,2.3384385E0,2.5740619E0,7.4002934E-1,1.5649021E0,0E0,1.9608498E-2,0E0,0E0,1.8464766E0,0E0,0E0,0E0,8.5075235E-1,0E0,0E0,0E0,0E0,0E0,0E0,0E0,0E0,0E0,2.7386453E0,0E0,1.0769653E-1,0E0,0E0,1.7901351E0,0E0,0E0,0E0,0E0,0E0,6.2294006E-3,3.0524974E0,3.1749678E0,0E0,0E0,0E0,0E0,0E0,0E0,0E0,0E0,0E0,0E0,0E0,0E0,0E0,0E0,0E0,0E0,0E0,0E0,0E0,0E0,0E0,0E0,0E0,0E0,0E0,0E0,0E0,0E0,0E0,0E0,0E0,0E0,0E0,0E0,0E0,0E0,0E0,0E0,0E0,0E0,0E0,0E0,0E0,0E0,0E0,0E0,0E0,0E0,0E0,0E0,0E0,0E0,0E0,0E0,0E0,0E0,0E0,0E0,0E0,0E0,0E0,0E0,0E0,0E0],"parents":[2147483647,0,0,1,1,2,2,3,3,4,4,5,5,6,6,7,7,8,8,9,9,10,10,11,11,12,12,13,13,14,14,15,15,16,16,17,17,18,18,19,19,20,20,21,21,22,22,23,23,25,25,26,26,27,27,28,28,29,29,30,30,33,33,35,35,36,36,37,37,38,38,39,39,40,40,41,41,42,42,43,43,44,44,46,46,48,48,49,49,50,50,51,51,52,52,53,53,54,54,56,56,57,57,58,58,59,59,61,61,62,62,63,63,65,65,66,66,67,67,68,68,69,69,70,70,71,71,72,72,73,73,74,74,77,77,78,78,79,79,80,80,83,83,84,84,85,85,86,86,87,87,88,88,89,89,90,90,93,93,94,94,96,96,97,97,98,98,99,99,100,100,101,101,103,103,108,108,109,109,110,110,111,111,113,113,115,115,116,116,117,117,118,118,120,120,122,122,124,124,126,126,128,128,129,129,130,130,131,131,133,133,135,135,136,136,139,139,140,140,141,141,142,142,143,143,146,146,147,147,149,149,150,150,152,152,158,158,161,161,162,162,164,164,167,167,168,168,169,169,170,170,171,171,172,172,173,173,175,175,176,176,177,177,180,180,186,186,187,187,189,189,190,190,196,196,199,199,201,201,206,206,207,207,208,208,210,210,213,213,214,214,215,215,216,216,217,217,218,218,220,220,221,221,222,222,228,228,239,239,241,241,242,242,244,244,245,245,247,247,249,249,250,250,251,251,252,252,253,253,254,254,257,257,259,259,260,260,263,263,264,264,267,267,269,269,274,274,275,275,276,276,281,281,282,282,283,283,284,284,285,285,287,287,289,289,290,290,294,294,295,295,296,296,297,297,298,298,300,300,303,303,307,307,317,317,319,319,322,322,328,328,329,329,330,330],"right_children":[2,4,6,8,10,12,14,16,18,20,22,24,26,28,30,32,34,36,38,40,42,44,46,48,-1,50,52,54,56,58,60,-1,-1,62,-1,64,66,68,70,72,74,76,78,80,82,-1,84,-1,86,88,90,92,94,96,98,-1,100,102,104,106,-1,108,110,112,-1,114,116,118,120,122,124,126,128,130,132,-1,-1,134,136,138,140,-1,-1,142,144,146,148,150,152,154,156,-1,-1,158,160,-1,162,164,166,168,170,172,-1,174,-1,-1,-1,-1,176,178,180,182,-1,184,-1,186,188,190,192,-1,194,-1,196,-1,198,-1,200,-1,202,204,206,208,-1,210,-1,212,214,-1,-1,216,218,220,222,224,-1,-1,226,228,-1,230,232,-1,234,-1,-1,-1,-1,-1,236,-1,-1,238,240,-1,242,-1,-1,244,246,248,250,252,254,256,-1,258,260,262,-1,-1,264,-1,-1,-1,-1,-1,266,268,-1,270,272,-1,-1,-1,-1,-1,274,-1,-1,276,-1,278,-1,-1,-1,-1,280,282,284,-1,286,-1,-1,288,290,292,294,296,298,-1,300,302,304,-1,-1,-1,-1,-1,306,-1,-1,-1,-1,-1,-1,-1,-1,-1,-1,308,-1,310,312,-1,314,316,-1,318,-1,320,322,324,326,328,330,-1,-1,332,-1,334,336,-1,-1,338,340,-1,-1,342,-1,344,-1,-1,-1,-1,346,348,350,-1,-1,-1,-1,352,354,356,358,360,-1,362,-1,364,366,-1,-1,-1,368,370,372,374,376,-1,378,-1,-1,380,-1,-1,-1,382,-1,-1,-1,-1,-1,-1,-1,-1,-1,384,-1,386,-1,-1,388,-1,-1,-1,-1,-1,390,392,394,-1,-1,-1,-1,-1,-1,-1,-1,-1,-1,-1,-1,-1,-1,-1,-1,-1,-1,-1,-1,-1,-1,-1,-1,-1,-1,-1,-1,-1,-1,-1,-1,-1,-1,-1,-1,-1,-1,-1,-1,-1,-1,-1,-1,-1,-1,-1,-1,-1,-1,-1,-1,-1,-1,-1,-1,-1,-1,-1,-1,-1,-1,-1,-1],"split_conditions":[2.7272727E-2,-1.7777778E-1,-1.6803126E0,-4.37858E-2,3.1342357E-3,-1E0,3.3333333E0,-1.6E1,7E0,1.4419909E0,1.6789776E0,-2.1203434E0,1.2E1,8.3153677E-1,1.1E1,2.908717E0,6.8523407E0,3E0,5.126721E-2,-9.665822E-2,-1.3E1,1.8E1,-1.5384616E-1,0E0,-1.3001558E-1,4E-1,9.375E-2,-4.3333335E0,-9.333333E0,3.5024211E0,3E-1,-1.5879594E-1,-3.465441E-2,-2.777778E-1,8.369624E-2,-6.666667E-1,-6.214055E-4,1.6E1,1.4419909E0,6.666667E-2,-2E0,4.1635175E0,-7E0,-6.3629966E0,2.3333333E0,-4.3970328E-2,1.1738106E-1,-1.090072E-1,1E1,5E0,6.3333335E0,4E0,-2.1784122E0,-7.3333335E0,3.767349E-2,1.2366372E-1,0E0,6.967325E-2,1.3333334E-1,1.1E1,8.4180884E-2,-1.081072E-1,-1.0666667E1,7.6365755E-3,1.0377375E-1,6E0,6.484303E-1,3E0,-5.1073155E0,-2.6666667E0,6.828224E-2,-2E1,-9E0,8E0,3E-1,3.496856E-2,-1.435757E-1,-1.3333334E0,1.8036278E0,-5.318997E-2,-3.0544329E0,-1.1663971E-1,-1.4717898E-2,5.256189E-2,2E0,-6.21729E-2,4.5950734E-3,-3.7538075E0,-5.3333335E0,-1.1333333E1,4.4642857E-1,4.045417E-2,-4.7037657E-2,2E0,-2.5088754E-2,1.0848688E-1,-3E0,-1.0564123E0,1.3636364E-1,-1E0,-3.3333333E0,-6.6995025E-3,-3.0068368E-2,2.1226116E-2,1.31608E-1,5.064412E-2,-9.4379835E-2,2.2929989E-2,3E0,-2.1150073E-1,-5.8547664E0,1.1981301E-2,-5.8111575E-2,-3.6301994E0,-1.4350481E-1,5E0,1.3333333E1,-1.1166078E0,1.4354257E-5,6.275346E-2,1.563135E0,6.7345075E-2,9E0,-3.805216E-2,-2.777778E-1,9.825549E-3,6.281063E-1,7.1367495E-2,1E0,-1E0,-3.3764984E-2,-3.3333333E0,-1.3863902E-1,-5.357143E-2,1.05176345E-1,-1E-1,-1E0,1.0842921E-1,1.5422477E-2,1.3333334E0,1.4397298E-2,-4.724524E-3,4.2866044E0,6.666667E-2,1.269962E-1,-1.3004927E-1,-5E0,-4.019731E0,-3.2764073E-2,8E0,9E0,-4.7323525E-2,9E0,1.5963785E-2,1.07655525E-1,-7.822526E-2,2.4414234E-2,1.2555824E-1,-3.0114269E-2,-1.1237972E-1,1.12649694E-1,-9.333333E0,7.893217E-2,4.479342E-2,-7.397447E-3,8.62563E-2,2.638431E-3,-2.3333333E0,2.6235383E0,2.6190478E-1,1.6666666E0,-6.666667E-1,1.5821623E-2,6.666667E-1,1.0410126E-1,5.6666665E0,8E0,-1.4E1,8.4693305E-2,6.811837E-3,-1.5580076E-1,8.473989E-2,-4.2842284E-2,-8.093994E-2,7.3388866E-3,-8.7087065E-2,-3E-1,1.5E-1,-5.4123577E-2,6.3333335E0,3.4489375E-2,6.73858E-2,-9.379392E-2,-1.2518947E-1,5.014212E-2,2.2514869E-2,0E0,1.9721353E-2,9.6138604E-2,7.7258516E-4,1.7351909E-2,-5.0317802E0,3.491627E-2,1.13011636E-1,2.8562361E-2,4.9960684E-2,-6E0,-3.6320135E-2,2.3333333E0,9.249404E-2,4.072147E0,-1.1483979E-2,1.0703994E-1,5.0509667E0,-4.0877026E-2,-2.0975968E-2,3.3333333E0,1.4E1,3.4489375E-2,1.1874209E-2,8.504187E-3,-6.6666665E0,6.967325E-2,-2.081555E-2,8.683185E-2,7.463684E-2,-5.8392435E-2,1.0222422E-1,-7.4469306E-2,-1.4219898E-1,-4.0768143E-2,4.5999557E-2,-8.230368E-2,9.325457E-2,-2.0034653E-3,-3.7948177E-3,8.319721E-2,-8.601486E-2,4.2481482E-2,1.2408088E-1,-3.3227324E-2,3.3333333E0,3.0990131E-3,1.7932158E-2,-6.666667E-1,1.7259724E0,1.1103262E-1,1.7E1,1.0493412E-1,7.8717664E-2,2.0484533E0,-8.2868405E-2,-2.6110435E-2,-1E-1,1.8181819E-1,-4.7466684E-2,8.057349E-2,-2.8971577E0,6.356958E-2,-6E0,-4E0,-8.916517E-2,2.1415777E-3,-8.449884E-3,6.3333335E0,2.5779307E-2,-4.817545E-2,2.1226116E-2,-4.655315E-2,2.3333333E0,-1.386587E-1,-1.5972511E-1,-6.448042E-2,-1.5850183E-2,-1E-1,-4E0,-1.8582596E0,2.938939E-2,-1.3828605E-1,-1.2639312E-1,-2.1409832E-2,-1.0714286E-1,-4.5985237E-2,-7.0516504E-3,-2.477513E-2,-1.0333333E1,5.9375446E-2,-4E0,6.749689E-2,2E0,3E0,-1.20103255E-1,-1.925636E-2,9.040952E-2,7.4340485E-2,-2.4474273E-2,-1.2596685E0,3.3333334E-1,2E0,3.0995954E-2,1E1,-4.7170836E-2,1.10839E-1,3.6666667E0,4.280564E-2,7.077815E-2,-4.9651023E-2,-2E0,4.477698E-3,-1.404728E-1,-4.7871214E-3,5.284192E-2,-5.5013206E-2,-1.366121E-1,-2.0014094E-2,8.351063E-2,-8.305742E-2,5.518649E0,9.9202275E-2,-3E0,1.65212E-2,9.431557E-2,2.624744E-2,-1.0083717E-3,1.0584476E-1,5.33481E-2,-9.255462E-2,3.4694176E-2,-4.194356E-2,4.278078E-2,-1.4333333E1,9.309198E-3,-1.23431556E-1,-1.5152879E-1,-8.6523324E-2,-1.5679811E-1,-7.790433E-2,1.324671E-2,-7.142552E-2,-6.5676145E-2,-1.4862181E-1,3.250822E-2,1.16376065E-1,-1.08918525E-1,4.9830753E-2,-1.3968031E-1,-3.3178534E-2,1.4301515E-2,-1.08500205E-1,7.175177E-2,-1.0006183E-1,-9.593436E-2,1.5228778E-2,6.604761E-3,-1.1300223E-1,-1.2157313E-2,6.857212E-2,-9.739576E-2,1.17211845E-2,1.9597835E-3,-1.2237181E-1,-3.8738158E-2,-1.6275105E-1,1.312809E-2,-1.22891046E-1,8.128907E-2,2.287989E-2,3.5211183E-2,-7.194708E-2,8.367786E-3,9.176195E-2,-1.005301E-1,2.99633E-2,-1.3921094E-1,-3.0751357E-2,6.738113E-2,-4.1266724E-2,1.2843077E-1,5.576548E-2,1.7100172E-3,-1.4358848E-1,1.4164031E-2,1.1620196E-1,2.3686938E-2,-8.308889E-2,3.69036E-2,1.283751E-1,-6.848448E-2,4.963295E-2,4.367324E-2,1.2800953E-1,-3.251932E-2,8.7250166E-2,-2.8882047E-2,1.11557975E-1],"split_indices":[2,2,4,1,1,5,5,5,8,4,4,4,8,4,6,4,4,6,1,1,5,8,2,3,0,3,2,6,6,4,3,0,0,2,0,5,0,8,4,3,7,4,5,4,6,0,1,0,8,5,5,5,4,5,1,0,7,0,2,8,0,0,5,1,0,6,4,5,4,5,1,5,6,8,3,0,0,6,4,0,4,0,0,1,8,0,1,4,6,6,2,0,0,7,0,0,5,4,2,6,5,1,0,0,0,0,0,0,8,1,4,0,0,4,0,8,6,4,1,0,4,0,8,0,2,0,4,0,7,5,0,5,0,2,0,3,5,0,0,6,0,0,4,3,0,0,5,4,0,8,8,0,8,0,0,0,0,0,0,0,0,6,1,0,0,0,0,5,4,2,5,6,0,6,0,6,6,5,0,0,1,0,0,0,0,0,3,3,0,6,0,0,0,0,0,0,7,0,0,0,0,4,0,0,0,0,7,1,5,0,4,0,0,4,1,0,6,8,0,0,1,6,0,0,0,0,0,0,1,0,0,0,0,0,0,0,0,0,0,4,0,6,0,0,5,4,0,8,0,0,4,1,1,3,2,0,0,4,0,6,5,0,0,0,6,0,0,0,0,6,0,0,0,0,3,7,4,0,0,0,0,2,0,0,1,5,0,5,0,5,8,0,0,0,1,0,4,6,6,0,8,0,0,6,0,0,0,5,0,0,0,0,0,0,0,0,0,4,0,5,0,0,0,0,0,0,0,0,0,0,6,0,0,0,0,0,0,0,0,0,0,0,0,0,0,0,0,0,0,0,0,0,0,0,0,0,0,0,0,0,0,0,0,0,0,0,0,0,0,0,0,0,0,0,0,0,0,0,0,0,0,0,0,0,0,0,0,0,0,0,0,0,0,0,0],"split_type":[0,0,0,0,0,0,0,0,0,0,0,0,0,0,0,0,0,0,0,0,0,0,0,0,0,0,0,0,0,0,0,0,0,0,0,0,0,0,0,0,0,0,0,0,0,0,0,0,0,0,0,0,0,0,0,0,0,0,0,0,0,0,0,0,0,0,0,0,0,0,0,0,0,0,0,0,0,0,0,0,0,0,0,0,0,0,0,0,0,0,0,0,0,0,0,0,0,0,0,0,0,0,0,0,0,0,0,0,0,0,0,0,0,0,0,0,0,0,0,0,0,0,0,0,0,0,0,0,0,0,0,0,0,0,0,0,0,0,0,0,0,0,0,0,0,0,0,0,0,0,0,0,0,0,0,0,0,0,0,0,0,0,0,0,0,0,0,0,0,0,0,0,0,0,0,0,0,0,0,0,0,0,0,0,0,0,0,0,0,0,0,0,0,0,0,0,0,0,0,0,0,0,0,0,0,0,0,0,0,0,0,0,0,0,0,0,0,0,0,0,0,0,0,0,0,0,0,0,0,0,0,0,0,0,0,0,0,0,0,0,0,0,0,0,0,0,0,0,0,0,0,0,0,0,0,0,0,0,0,0,0,0,0,0,0,0,0,0,0,0,0,0,0,0,0,0,0,0,0,0,0,0,0,0,0,0,0,0,0,0,0,0,0,0,0,0,0,0,0,0,0,0,0,0,0,0,0,0,0,0,0,0,0,0,0,0,0,0,0,0,0,0,0,0,0,0,0,0,0,0,0,0,0,0,0,0,0,0,0,0,0,0,0,0,0,0,0,0,0,0,0,0,0,0,0,0,0,0,0,0,0,0,0,0,0,0,0,0,0,0,0,0,0,0,0,0,0,0,0,0,0,0,0,0,0,0,0,0,0,0,0,0,0,0,0],"sum_hessian":[6.125491E2,3.7698276E2,2.3556628E2,1.7065198E2,2.0633078E2,5.737946E1,1.7818683E2,9.093708E1,7.97149E1,1.295963E2,7.6734474E1,1.9936377E1,3.744308E1,7.7827675E1,1.0035915E2,1.6322472E1,7.461461E1,3.0758265E1,4.8956635E1,9.435761E1,3.5238693E1,4.3879986E1,3.2854492E1,1.6701849E1,3.2345285E0,1.9558588E1,1.7884495E1,2.5027914E1,5.279976E1,9.60613E1,4.2978516E0,1.50884E1,1.2340721E0,7.346219E1,1.1524175E0,1.0287823E1,2.0470442E1,3.4426468E1,1.4530167E1,4.0781803E1,5.3575806E1,3.6725597E0,3.1566135E1,4.1159916E1,2.7200677E0,1.670596E0,3.1183897E1,2.4964418E0,1.4205407E1,1.0401666E1,9.156921E0,3.8727994E0,1.4011695E1,1.389991E1,1.1128004E1,8.617942E0,4.4181816E1,5.551911E1,4.0542194E1,3.1453495E0,1.1525023E0,5.2108704E1,2.1353489E1,6.39982E0,3.8880033E0,6.6994724E0,1.3770969E1,2.6820574E1,7.605896E0,1.0246034E1,4.2841325E0,3.375619E1,7.0256124E0,8.171671E0,4.5404137E1,1.6955209E0,1.977039E0,9.804876E0,2.176126E1,3.7224646E0,3.743745E1,1.246124E0,1.4739436E0,1.8658056E1,1.2525842E1,5.1044354E0,9.100971E0,6.333828E0,4.067838E0,5.331536E0,3.8253858E0,1.9012703E0,1.9715291E0,1.0432876E1,3.5788186E0,2.4748154E0,1.1425095E1,8.750521E0,2.3774827E0,9.24041E0,3.4941406E1,5.4124268E1,1.3948451E0,6.395948E0,3.4146244E1,1.3966184E0,1.7487311E0,1.4505267E0,5.0658176E1,5.356633E0,1.5996856E1,4.938559E0,1.4612608E0,2.7140172E0,3.9854553E0,5.925092E0,7.845877E0,2.1907143E1,4.9134316E0,1.4492269E0,6.156669E0,1.6754501E0,8.570583E0,1.2239906E0,3.0601418E0,1.7388083E0,3.2017384E1,1.8783381E0,5.1472745E0,4.0183015E0,4.15337E0,4.367198E1,1.7321528E0,6.484181E0,3.320695E0,3.7371397E0,1.8024118E1,2.2928324E0,1.4296324E0,1.07916355E1,2.6645817E1,1.0602048E1,8.056008E0,2.7913704E0,9.734471E0,1.744893E0,3.3595424E0,6.7292852E0,2.371686E0,3.1919897E0,3.1418383E0,1.4814599E0,2.586378E0,1.4131671E0,3.9183688E0,1.674708E0,2.150678E0,8.113271E0,2.3196058E0,1.2429428E0,2.3358757E0,3.41765E0,8.007445E0,1.1938912E0,7.5566297E0,1.1687007E0,1.208782E0,4.357638E0,4.882772E0,1.3424043E1,2.1517366E1,5.856036E0,4.826823E1,2.304528E0,4.0914197E0,5.921109E0,4.4737064E1,3.1916778E0,2.1649556E0,1.7145472E0,1.4282309E1,3.73475E0,1.203809E0,1.4976835E0,1.2163336E0,2.9636354E0,2.9614565E0,6.3720837E0,1.4737935E0,1.2695354E1,9.211787E0,2.445784E0,2.4676478E0,4.226732E0,1.9299375E0,2.1711652E0,6.3994184E0,1.4532259E0,1.606916E0,3.0072287E1,1.9450971E0,3.463816E0,1.6834586E0,2.3476362E0,1.6706651E0,1.2130413E0,2.9403284E0,2.1670094E1,2.200189E1,2.6110892E0,3.8730917E0,1.6505908E0,2.086549E0,8.5022135E0,9.521906E0,5.42999E0,5.361645E0,1.9573742E1,7.0720744E0,1.4071405E0,9.194907E0,3.6897542E0,4.3662543E0,1.4511073E0,1.340263E0,1.9001528E0,1.4593894E0,3.687898E0,3.0413876E0,1.9840041E0,1.2079854E0,1.9299337E0,1.2119045E0,1.4017787E0,1.1845995E0,1.1739856E0,1.1456201E0,2.2358162E0,1.1818337E0,6.2851996E0,1.7222456E0,4.676921E0,2.879709E0,1.431605E0,2.9260328E0,2.3700027E0,2.512769E0,1.1363561E1,2.060482E0,1.6673378E1,4.843988E0,3.2528977E0,2.6031387E0,2.69837E1,2.1284529E1,1.1815441E0,1.1229839E0,4.463372E0,1.4577372E0,2.5363407E1,1.9373657E1,1.4857137E0,1.7059641E0,3.6503787E0,1.063193E1,1.4723275E0,1.4891291E0,5.1863375E0,1.1857463E0,8.21212E0,4.483234E0,7.224666E0,1.9871215E0,1.4595033E0,4.939915E0,2.659364E1,3.4786472E0,1.4737809E0,1.9900349E0,1.4906842E0,1.4496443E0,1.1044423E1,1.062567E1,1.4619997E1,7.381892E0,2.4375834E0,1.4355084E0,6.843392E0,1.6588216E0,2.4535112E0,7.0683947E0,3.478819E0,1.9511709E0,1.1941402E0,4.1675053E0,1.501496E1,4.558782E0,3.7003229E0,3.3717515E0,1.6835601E0,7.511347E0,1.1916838E0,2.4980705E0,3.1893604E0,1.1768942E0,1.8683628E0,1.1730248E0,4.387679E0,1.8975204E0,2.9857404E0,1.6911805E0,1.406816E0,1.472893E0,1.4730334E0,1.4529994E0,1.1495484E0,1.2204545E0,9.548405E0,1.8151553E0,1.4409515E1,2.2638621E0,1.5855091E0,3.2584786E0,1.1898464E0,2.0630512E0,1.4119737E0,1.191165E0,1.1272854E0,2.5856415E1,6.972103E0,1.4312426E1,1.2205892E0,3.2427828E0,3.4852076E0,2.18782E1,1.5149134E1,4.224525E0,1.9474908E0,1.7028879E0,6.669578E0,3.9623523E0,2.40865E0,2.7776875E0,5.725289E0,2.4868312E0,3.7160275E0,1.2238878E0,1.2408044E0,2.5352835E1,1.4840858E0,1.9945616E0,2.4739926E0,8.570431E0,1.2161629E0,9.409508E0,7.1346226E0,7.4853745E0,4.222554E0,3.1593382E0,1.2014824E0,1.236101E0,3.8801455E0,2.9632463E0,1.2265714E0,1.2269399E0,2.3104694E0,4.757925E0,1.7009155E0,2.46659E0,5.19197E0,9.82299E0,1.4562242E0,3.1025577E0,1.9917302E0,1.7085927E0,1.6762543E0,1.6954972E0,4.9882617E0,2.523085E0,1.2041087E0,1.9852517E0,1.4174601E0,2.970219E0,7.1259804E0,2.4224248E0,1.1328995E0,1.3276616E1,1.8767638E0,1.3817148E0,1.3376391E0,2.4518776E1,4.4224577E0,2.5496452E0,1.4115278E0,1.2900898E1],"tree_param":{"num_deleted":"0","num_feature":"9","num_nodes":"395","size_leaf_vector":"1"}},{"base_weights":[-1.2154282E-3,-3.739044E-1,6.0462147E-1,-7.6909935E-1,-1.1081856E-1,9.778637E-2,7.689691E-1,-1.0085918E0,-4.7342873E-1,-3.26782E-1,2.7500254E-1,-7.742324E-1,2.2027792E-1,4.9718055E-1,9.761069E-1,-1.266365E0,-8.6828595E-1,-5.8369465E-2,-7.5448465E-1,-7.0343167E-1,-2.173535E-1,-2.6459696E-2,6.725954E-1,-1.0571558E0,-1.3338375E-1,-1.401015E-1,4.7982237E-1,1.0875099E-1,6.70252E-1,1.0158861E0,8.1986524E-2,-1.35082E0,-3.8249403E-1,-2.384941E-1,-9.466056E-1,1.4608173E-1,-8.7092215E-1,-8.2400423E-1,3.2916427E-2,9.081813E-2,-7.937779E-1,-1.3273272E-1,-4.9655017E-1,7.0765084E-1,-9.5370136E-2,4.9810866E-1,1.2483902E-1,-4.889941E-2,-1.3379398E-1,1.4012103E-2,-3.450955E-2,-8.2350385E-1,1.1315579E-1,6.790874E-1,-4.6481505E-1,2.4356484E-1,-6.8542624E-1,1.1746544E-1,5.519613E-1,8.3971393E-1,1.1619189E0,-3.1153858E-1,8.078155E-2,-2.103561E-2,-1.4034386E-1,3.467347E-2,-1.02353714E-1,4.5146567E-1,-1.0804143E-1,-1.3320785E0,-7.7725595E-1,-7.3356223E-1,2.9206932E-1,-1.3220362E-1,-2.4352145E-1,-1.239726E0,-6.236483E-1,-9.5727736E-1,3.378916E-1,-2.79138E-1,1.3642007E-1,-7.7556765E-1,2.020371E-1,2.1785902E-2,9.3168154E-2,-5.7844144E-1,-6.763282E-4,5.895249E-1,-5.0014686E-2,-1.2193483E-1,-1.5038228E-1,2.9609072E-1,-8.776071E-2,2.0710969E-1,9.6584463E-1,9.410372E-3,-7.6018184E-1,9.462439E-2,7.8584686E-2,2.1293659E-2,-1.2910312E-1,3.512352E-2,6.8279064E-1,9.160992E-1,-6.0399782E-2,7.2512645E-1,1.2339911E0,4.8098747E-2,-8.835454E-2,9.643443E-2,-5.832668E-2,-1.418669E0,-3.6121327E-2,-5.464567E-1,-1.0385543E0,-1.14554085E-1,6.442198E-3,1.1041316E-1,1.4579484E-1,5.1667888E-2,-8.237967E-2,-1.5223028E-1,-4.4179595E-1,-6.773762E-3,-7.947618E-1,-1.0902482E0,2.0222984E-1,9.562134E-2,-1.5436168E-1,-3.4416583E-1,3.2999334E-1,7.121876E-1,-1.0293533E-1,5.2025575E-2,-8.941601E-1,7.7922E-2,-6.646818E-2,2.1538818E-1,-1.1205105E0,-3.4010398E-1,1.7959438E-1,9.852671E-1,4.264269E-1,-6.567259E-2,4.4224724E-2,-9.319368E-2,9.464082E-2,4.1197318E-1,-7.670694E-2,2.637728E-2,1.030798E0,-1.1732667E-1,1.0385233E-2,-7.5941995E-2,8.3060466E-2,-6.0029674E-1,6.200768E-1,3.3081838E-1,8.7518066E-1,1.0943004E0,6.208615E-1,9.208419E-1,-4.9676476E-3,7.972122E-1,1.3086286E0,-1.6047315E-1,-4.731381E-1,-2.7916014E-1,-1.1800988E-1,-3.8343778E-1,-1.1532408E0,-1.1869135E-1,3.2602635E-1,-7.615175E-2,-2.4187579E-3,-9.66688E-2,6.260019E-1,-1.0015168E0,-9.279341E-2,-1.2633977E0,-6.0023826E-1,-5.2430626E-2,9.2426606E-2,1.1197179E-2,-3.515389E-2,-7.199778E-2,-5.73772E-1,-1.597604E-1,1.02580786E-1,9.045175E-3,8.574917E-1,5.907975E-2,-8.19468E-1,-1.3296189E0,-4.5118585E-1,6.0490735E-2,-5.315413E-1,-6.550922E-2,8.9983046E-2,-2.953947E-2,-1.3456398E-1,-6.144193E-1,1.4468274E-1,-7.866462E-1,3.514166E-1,4.168825E-2,1.1567332E-1,7.0602554E-1,4.7168513E-3,-3.4435377E-1,9.013318E-2,6.828943E-1,-2.8548834E-1,8.896074E-3,1.1894015E0,-9.340824E-2,1.3631403E-1,8.005838E-3,-9.992376E-2,-1.2553031E-2,1.0582411E-1,1.4069702E-1,1.0012875E-1,9.848456E-1,4.5124147E-2,6.1478037E-1,1.2215251E0,3.145031E-1,1.211548E-1,2.9373378E-2,1.0690462E-1,-1.4988712E-2,1.0673799E-1,1.3328913E-1,4.855498E-2,2.559488E-2,-9.8543935E-2,-5.8683974E-1,9.4698536E-1,-9.138873E-2,1.8987067E-2,-1.3639404E-1,-5.1882726E-1,-2.8731164E-1,5.7704437E-1,1.01592675E-1,-3.0587384E-2,1.3854641E-2,-1.156197E0,-8.010256E-2,5.20654E-1,-6.417762E-1,-1.3732094E-1,-1.026812E0,2.1926641E-1,7.476168E-1,-3.075168E-1,-6.709152E-1,1.056664E-1,5.143392E-2,-5.7395943E-2,3.5916674E-1,1.15344904E-1,-1.1480028E-1,1.0606312E-1,8.5200864E-4,-1.12606265E-1,-5.5524375E-2,-1.5175708E-1,-6.9159186E-1,3.0250896E-2,-7.605766E-2,4.762035E-3,8.816725E-2,-9.7829866E-1,-3.2240143E-1,7.2041444E-2,-1.6717046E-2,-1.0606445E-1,4.74623E-1,-8.185262E-2,-1.4204039E-1,9.6312505E-1,5.9119083E-2,-1.954701E-1,3.7612507E-1,-6.6423225E-1,-2.6257416E-2,1.0736083E-1,4.0365256E-2,-8.294857E-2,4.524659E-1,1.3168459E-1,-3.2547024E-1,4.6496662E-1,8.0161236E-2,-7.8053124E-2,-8.3907284E-2,9.4834514E-2,1.1165602E0,6.1833773E-2,7.8575954E-2,-5.7516005E-2,9.924951E-2,-1.3842836E-1,1.8998591E-2,1.3021499E-1,-2.1553095E-1,5.576444E-1,-9.529524E-2,-8.473684E-3,1.201929E-1,2.3631893E-2,-1.034012E-2,-9.750735E-2,2.967692E-2,-1.06247425E-1,-4.41099E-3,9.177385E-2,4.9012443E-3,-1.4205383E-1,7.5502746E-2,-4.9715175E-4,-9.901264E-2,3.267277E-3,1.1506591E-2,-1.3643272E-1,5.1980775E-2,-1.3856614E-2,1.04006715E-2,1.150591E-1,2.317055E-2,-5.6659628E-2,4.443155E-2,-7.712768E-2,-5.4897483E-2,7.30291E-2,9.927937E-2,-5.071279E-2,-3.4333836E-2,4.0548112E-2,-1.0730779E-1,-7.036477E-3,-2.8668005E-2,5.0875038E-2,-2.476653E-2,-1.2686671E-1,-6.7918256E-2,1.674193E-2,6.064504E-2,-3.0360822E-2,3.867684E-2,-5.2429896E-2,1.109628E-1,-5.6452625E-3,-5.324754E-2,3.4429997E-2,8.9485146E-2,-3.0211342E-2,-1.03900515E-1,1.6361563E-2,7.89598E-2,-8.993815E-3,-7.3423736E-2,2.8626332E-2,9.17055E-2,-1.9405616E-2,2.1708034E-2,-7.650146E-2,4.9375273E-2,1.22979425E-1,-6.0629006E-2,