{"learner":{"attributes":{"best_iteration":"21","best_score":"0.5763733270246418"},"feature_names":[],"feature_types":[],"gradient_booster":{"model":{"gbtree_model_param":{"num_parallel_tree":"1","num_trees":"72"},"iteration_indptr":[0,1,2,3,4,5,6,7,8,9,10,11,12,13,14,15,16,17,18,19,20,21,22,23,24,25,26,27,28,29,30,31,32,33,34,35,36,37,38,39,40,41,42,43,44,45,46,47,48,49,50,51,52,53,54,55,56,57,58,59,60,61,62,63,64,65,66,67,68,69,70,71,72],"tree_info":[0,0,0,0,0,0,0,0,0,0,0,0,0,0,0,0,0,0,0,0,0,0,0,0,0,0,0,0,0,0,0,0,0,0,0,0,0,0,0,0,0,0,0,0,0,0,0,0,0,0,0,0,0,0,0,0,0,0,0,0,0,0,0,0,0,0,0,0,0,0,0,0],"trees":[{"base_weights":[1.1918557E-7,-5.170883E-1,7.9377395E-1,-1.0880502E0,-1.6165207E-1,3.759304E-1,1.1514735E0,-1.1314261E-1,-2.8293076E-1,-9.6644364E-2,6.778316E-2,-1.0286406E-2,1.6415231E-1,2.3953442E-1,-5.4110408E-2],"categories":[],"categories_nodes":[],"categories_segments":[],"categories_sizes":[],"default_left":[0,0,0,0,0,0,0,0,0,0,0,0,0,0,0],"id":0,"left_children":[1,3,5,7,9,11,13,-1,-1,-1,-1,-1,-1,-1,-1],"loss_changes":[2.81215E2,8.401894E1,3.9961136E1,2.6325134E1,4.1511772E1,2.4021202E1,9.858154E0,0E0,0E0,0E0,0E0,0E0,0E0,0E0,0E0],"parents":[2147483647,0,0,1,1,2,2,3,3,4,4,5,5,6,6],"right_children":[2,4,6,8,10,12,14,-1,-1,-1,-1,-1,-1,-1,-1],"split_conditions":[1.6666668E-2,-2.2222222E-1,3.3333333E0,7E0,4.864241E-3,8.719774E-1,1.2E1,-1.1314261E-1,-2.8293076E-1,-9.6644364E-2,6.778316E-2,-1.0286406E-2,1.6415231E-1,2.3953442E-1,-5.4110408E-2],"split_indices":[2,2,5,8,1,4,6,0,0,0,0,0,0,0,0],"split_type":[0,0,0,0,0,0,0,0,0,0,0,0,0,0,0],"sum_hessian":[6.831361E2,4.1387436E2,2.6926178E2,1.5800262E2,2.5587173E2,1.2513612E2,1.4412566E2,6.1837696E1,9.6164925E1,1.5581152E2,1.0006021E2,6.4272255E1,6.0863876E1,1.3974345E2,4.382199E0],"tree_param":{"num_deleted":"0","num_feature":"9","num_nodes":"15","size_leaf_vector":"1"}},{"base_weights":[2.222611E-3,-6.5027726E-1,4.4426522E-1,-8.5297716E-1,-3.388515E-2,-1.1411177E-1,6.539451E-1,-1.9624215E-1,-6.231578E-3,-8.133639E-2,5.1012214E-2,-7.009687E-2,6.0790833E-2,9.10744E-3,1.5240248E-1],"categories":[],"categories_nodes":[],"categories_segments":[],"categories_sizes":[],"default_left":[0,0,0,0,0,0,0,0,0,0,0,0,0,0,0],"id":1,"left_children":[1,3,5,7,9,11,13,-1,-1,-1,-1,-1,-1,-1,-1],"loss_changes":[1.9628622E2,3.431025E1,4.757248E1,2.1761322E1,7.542275E0,1.1135147E1,1.9366653E1,0E0,0E0,0E0,0E0,0E0,0E0,0E0,0E0],"parents":[2147483647,0,0,1,1,2,2,3,3,4,4,5,5,6,6],"right_children":[2,4,6,8,10,12,14,-1,-1,-1,-1,-1,-1,-1,-1],"split_conditions":[0E0,1.5837097E0,-2.786915E-2,5.1193725E-2,-3.609367E-2,1.3559978E-2,-3.143294E0,-1.9624215E-1,-6.231578E-3,-8.133639E-2,5.1012214E-2,-7.009687E-2,6.0790833E-2,9.10744E-3,1.5240248E-1],"split_indices":[3,4,1,1,1,0,4,0,0,0,0,0,0,0,0],"split_type":[0,0,0,0,0,0,0,0,0,0,0,0,0,0,0],"sum_hessian":[6.785252E2,2.7383936E2,4.0468582E2,2.0578377E2,6.80556E1,1.10603836E2,2.94082E2,1.7784027E2,2.7943487E1,2.9538164E1,3.851744E1,7.075879E1,3.9845047E1,4.4571323E1,2.4951067E2],"tree_param":{"num_deleted":"0","num_feature":"9","num_nodes":"15","size_leaf_vector":"1"}},{"base_weights":[3.0705864E-3,-3.8573843E-1,4.1725144E-1,-5.8859485E-1,1.0478018E-2,6.1281216E-1,-1.1572735E-1,-8.814224E-2,-2.0428716E-1,-1.13153614E-1,2.0668155E-2,1.4888736E-2,1.5832321E-1,-9.7965986E-2,6.1626293E-2],"categories":[],"categories_nodes":[],"categories_segments":[],"categories_sizes":[],"default_left":[0,0,0,0,0,0,0,0,0,0,0,0,0,0,0],"id":2,"left_children":[1,3,5,7,9,11,13,-1,-1,-1,-1,-1,-1,-1,-1],"loss_changes":[1.08262634E2,2.787756E1,3.3999477E1,1.4231384E1,6.3944616E0,2.2880196E1,1.4139556E1,0E0,0E0,0E0,0E0,0E0,0E0,0E0,0E0],"parents":[2147483647,0,0,1,1,2,2,3,3,4,4,5,5,6,6],"right_children":[2,4,6,8,10,12,14,-1,-1,-1,-1,-1,-1,-1,-1],"split_conditions":[0E0,9.08129E-1,5.3333335E0,7E0,-1.849956E-1,-1.7615937E0,6E0,-8.814224E-2,-2.0428716E-1,-1.13153614E-1,2.0668155E-2,1.4888736E-2,1.5832321E-1,-9.7965986E-2,6.1626293E-2],"split_indices":[5,4,6,6,1,4,5,0,0,0,0,0,0,0,0],"split_type":[0,0,0,0,0,0,0,0,0,0,0,0,0,0,0],"sum_hessian":[6.7028375E2,3.4576666E2,3.245171E2,2.2836299E2,1.1740369E2,2.372979E2,8.7219185E1,1.7171375E2,5.6649242E1,1.5587186E1,1.01816505E2,5.951574E1,1.7778217E2,4.624616E1,4.097303E1],"tree_param":{"num_deleted":"0","num_feature":"9","num_nodes":"15","size_leaf_vector":"1"}},{"base_weights":[3.1644783E-3,-2.794367E-1,6.5538806E-1,-6.699528E-1,-7.048916E-2,3.6395746E-1,8.9405906E-1,-7.097041E-2,-1.9463418E-1,-8.0374174E-2,2.8123772E-2,-1.0966396E-1,9.302264E-2,1.4337745E-1,2.2915159E-1],"categories":[],"categories_nodes":[],"categories_segments":[],"categories_sizes":[],"default_left":[0,0,0,0,0,0,0,0,0,0,0,0,0,0,0],"id":3,"left_children":[1,3,5,7,9,11,13,-1,-1,-1,-1,-1,-1,-1,-1],"loss_changes":[1.2222662E2,3.7705235E1,1.3618065E1,1.5051498E1,2.1219927E1,8.739696E0,4.0626144E0,0E0,0E0,0E0,0E0,0E0,0E0,0E0,0E0],"parents":[2147483647,0,0,1,1,2,2,3,3,4,4,5,5,6,6],"right_children":[2,4,6,8,10,12,14,-1,-1,-1,-1,-1,-1,-1,-1],"split_conditions":[1.0130719E-1,-2.2222222E-1,3.3333333E0,9E0,-1.4333135E0,-4.870798E0,2.6636517E0,-7.097041E-2,-1.9463418E-1,-8.0374174E-2,2.8123772E-2,-1.0966396E-1,9.302264E-2,1.4337745E-1,2.2915159E-1],"split_indices":[2,2,5,8,4,4,4,0,0,0,0,0,0,0,0],"split_type":[0,0,0,0,0,0,0,0,0,0,0,0,0,0,0],"sum_hessian":[6.6113135E2,4.616675E2,1.994638E2,1.6014864E2,3.0151886E2,9.094267E1,1.0852113E2,7.959977E1,8.054887E1,1.169834E2,1.8453548E2,8.6362E0,8.230647E1,6.5948166E1,4.2572968E1],"tree_param":{"num_deleted":"0","num_feature":"9","num_nodes":"15","size_leaf_vector":"1"}},{"base_weights":[3.671051E-3,-2.2012469E-1,5.728047E-1,-5.2647305E-1,-1.9629472E-3,4.0578955E-1,9.537971E-1,-1.810188E-1,-6.0936946E-2,-1.2167475E-2,1.3238601E-1,6.7844614E-3,1.1605666E-1,-3.320372E-2,2.0093372E-1],"categories":[],"categories_nodes":[],"categories_segments":[],"categories_sizes":[],"default_left":[0,0,0,0,0,0,0,0,0,0,0,0,0,0,0],"id":4,"left_children":[1,3,5,7,9,11,13,-1,-1,-1,-1,-1,-1,-1,-1],"loss_changes":[8.2910324E1,3.1225765E1,1.1303318E1,1.6043213E1,1.0745951E1,8.381319E0,3.3142776E0,0E0,0E0,0E0,0E0,0E0,0E0,0E0,0E0],"parents":[2147483647,0,0,1,1,2,2,3,3,4,4,5,5,6,6],"right_children":[2,4,6,8,10,12,14,-1,-1,-1,-1,-1,-1,-1,-1],"split_conditions":[1.1764706E-1,-4.786619E-2,3.41656E0,-2.777778E-1,1.1666667E1,0E0,-1.613563E-1,-1.810188E-1,-6.0936946E-2,-1.2167475E-2,1.3238601E-1,6.7844614E-3,1.1605666E-1,-3.320372E-2,2.0093372E-1],"split_indices":[2,1,4,2,5,5,1,0,0,0,0,0,0,0,0],"split_type":[0,0,0,0,0,0,0,0,0,0,0,0,0,0,0],"sum_hessian":[6.489525E2,4.6623282E2,1.8271968E2,1.9333443E2,2.728984E2,1.2846829E2,5.4251377E1,7.027874E1,1.2305568E2,2.5150331E2,2.1395102E1,4.141095E1,8.705735E1,2.2591023E0,5.1992275E1],"tree_param":{"num_deleted":"0","num_feature":"9","num_nodes":"15","size_leaf_vector":"1"}},{"base_weights":[4.1597863E-3,-1.982242E-1,4.4654357E-1,-5.2116597E-1,-4.650187E-2,2.3215838E-1,6.4977E-1,-1.719726E-1,-6.4404935E-2,1.2673664E-2,-7.395958E-2,1.3897954E-1,1.7031133E-2,1.4007722E-1,-1.1966896E-1],"categories":[],"categories_nodes":[],"categories_segments":[],"categories_sizes":[],"default_left":[0,0,0,0,0,0,0,0,0,0,0,0,0,0,0],"id":5,"left_children":[1,3,5,7,9,11,13,-1,-1,-1,-1,-1,-1,-1,-1],"loss_changes":[5.7230434E1,2.1465717E1,8.590794E0,9.172279E0,1.0661797E1,6.688493E0,6.890991E0,0E0,0E0,0E0,0E0,0E0,0E0,0E0,0E0],"parents":[2147483647,0,0,1,1,2,2,3,3,4,4,5,5,6,6],"right_children":[2,4,6,8,10,12,14,-1,-1,-1,-1,-1,-1,-1,-1],"split_conditions":[8.3333336E-2,-8.4809385E-2,3.3333333E0,-3E-1,7.3333335E0,-5.6666665E0,1.2E1,-1.719726E-1,-6.4404935E-2,1.2673664E-2,-7.395958E-2,1.3897954E-1,1.7031133E-2,1.4007722E-1,-1.1966896E-1],"split_indices":[2,1,5,2,6,5,6,0,0,0,0,0,0,0,0],"split_type":[0,0,0,0,0,0,0,0,0,0,0,0,0,0,0],"sum_hessian":[6.372333E2,4.3759293E2,1.9964032E2,1.3909451E2,2.984984E2,9.819548E1,1.0144484E2,5.0272995E1,8.8821526E1,2.2338602E2,7.51124E1,2.2775383E1,7.54201E1,9.7912926E1,3.5319164E0],"tree_param":{"num_deleted":"0","num_feature":"9","num_nodes":"15","size_leaf_vector":"1"}},{"base_weights":[3.7341944E-3,-1.4434376E-1,4.3213832E-1,-3.4930426E-1,2.3011988E-2,9.017958E-2,6.126063E-1,-2.0660548E-1,-5.5507597E-2,-5.2378315E-2,3.7747007E-2,-1.6955309E-1,5.6828257E-2,3.1029565E-2,1.6001298E-1],"categories":[],"categories_nodes":[],"categories_segments":[],"categories_sizes":[],"default_left":[0,0,0,0,0,0,0,0,0,0,0,0,0,0,0],"id":6,"left_children":[1,3,5,7,9,11,13,-1,-1,-1,-1,-1,-1,-1,-1],"loss_changes":[3.9855137E1,1.6023388E1,9.903685E0,1.00143795E1,1.2229419E1,1.0595826E1,8.919319E0,0E0,0E0,0E0,0E0,0E0,0E0,0E0,0E0],"parents":[2147483647,0,0,1,1,2,2,3,3,4,4,5,5,6,6],"right_children":[2,4,6,8,10,12,14,-1,-1,-1,-1,-1,-1,-1,-1],"split_conditions":[1.3333334E-1,-1.3333334E-1,8E0,-1.6E1,-1.4333135E0,-3.258478E0,0E0,-2.0660548E-1,-5.5507597E-2,-5.2378315E-2,3.7747007E-2,-1.6955309E-1,5.6828257E-2,3.1029565E-2,1.6001298E-1],"split_indices":[2,2,8,5,4,4,1,0,0,0,0,0,0,0,0],"split_type":[0,0,0,0,0,0,0,0,0,0,0,0,0,0,0],"sum_hessian":[6.262779E2,4.659019E2,1.6037599E2,2.089337E2,2.5696817E2,5.591861E1,1.0445739E2,1.8574892E1,1.9035881E2,9.428956E1,1.6267862E2,9.00451E0,4.69141E1,3.0893959E1,7.356343E1],"tree_param":{"num_deleted":"0","num_feature":"9","num_nodes":"15","size_leaf_vector":"1"}},{"base_weights":[3.3863424E-3,-2.540571E-1,1.9389765E-1,-4.8493946E-1,-4.7554705E-2,1.1724688E-1,6.1422616E-1,-6.9632106E-2,-1.5810195E-1,-1.07116655E-1,1.2135501E-2,5.0060367E-3,7.120352E-2,-2.2876668E-1,1.3789387E-1],"categories":[],"categories_nodes":[],"categories_segments":[],"categories_sizes":[],"default_left":[0,0,0,0,0,0,0,0,0,0,0,0,0,0,0],"id":7,"left_children":[1,3,5,7,9,11,13,-1,-1,-1,-1,-1,-1,-1,-1],"loss_changes":[3.0292889E1,1.2501137E1,1.1364105E1,4.9037647E0,7.415308E0,6.628503E0,7.9993324E0,0E0,0E0,0E0,0E0,0E0,0E0,0E0,0E0],"parents":[2147483647,0,0,1,1,2,2,3,3,4,4,5,5,6,6],"right_children":[2,4,6,8,10,12,14,-1,-1,-1,-1,-1,-1,-1,-1],"split_conditions":[0E0,-9.971934E-3,4.71895E0,8.333333E0,-5E-1,3E-1,-1.640958E-1,-6.9632106E-2,-1.5810195E-1,-1.07116655E-1,1.2135501E-2,5.0060367E-3,7.120352E-2,-2.2876668E-1,1.3789387E-1],"split_indices":[3,0,4,6,3,3,1,0,0,0,0,0,0,0,0],"split_type":[0,0,0,0,0,0,0,0,0,0,0,0,0,0,0],"sum_hessian":[6.156394E2,2.616843E2,3.539551E2,1.2291237E2,1.3877193E2,3.0044513E2,5.3509995E1,8.638446E1,3.652791E1,2.447292E1,1.1429901E2,2.1753485E2,8.291027E1,1.613303E0,5.189669E1],"tree_param":{"num_deleted":"0","num_feature":"9","num_nodes":"15","size_leaf_vector":"1"}},{"base_weights":[2.4163204E-3,-8.490502E-2,4.2651945E-1,-2.735935E-1,6.929927E-2,-5.1146463E-2,6.6686815E-1,-3.0564174E-2,-1.1472332E-1,-5.5607863E-2,3.0718574E-2,-8.07034E-2,8.692034E-2,1.4616959E-1,-1.7134424E-1],"categories":[],"categories_nodes":[],"categories_segments":[],"categories_sizes":[],"default_left":[0,0,0,0,0,0,0,0,0,0,0,0,0,0,0],"id":8,"left_children":[1,3,5,7,9,11,13,-1,-1,-1,-1,-1,-1,-1,-1],"loss_changes":[2.2542336E1,1.4706825E1,1.1965961E1,8.145464E0,8.1990795E0,6.2890577E0,7.3728104E0,0E0,0E0,0E0,0E0,0E0,0E0,0E0,0E0],"parents":[2147483647,0,0,1,1,2,2,3,3,4,4,5,5,6,6],"right_children":[2,4,6,8,10,12,14,-1,-1,-1,-1,-1,-1,-1,-1],"split_conditions":[2.2619048E-1,-2.858819E-2,6E0,6.3333335E0,-3.6666667E0,1.2329185E0,1.1E1,-3.0564174E-2,-1.1472332E-1,-5.5607863E-2,3.0718574E-2,-8.07034E-2,8.692034E-2,1.4616959E-1,-1.7134424E-1],"split_indices":[2,1,8,6,5,4,6,0,0,0,0,0,0,0,0],"split_type":[0,0,0,0,0,0,0,0,0,0,0,0,0,0,0],"sum_hessian":[6.0672736E2,5.037971E2,1.02930244E2,2.2621733E2,2.7757977E2,3.471845E1,6.82118E1,1.6236682E2,6.3850502E1,5.3759777E1,2.2381998E2,2.0219873E1,1.4498575E1,6.596218E1,2.2496219E0],"tree_param":{"num_deleted":"0","num_feature":"9","num_nodes":"15","size_leaf_vector":"1"}},{"base_weights":[2.235105E-3,-4.570254E-2,5.479464E-1,-1.8472697E-1,8.535247E-2,-5.238732E-1,7.0187026E-1,3.956727E-2,-4.7826886E-2,2.6466457E-2,-1.1834196E-1,-3.2154188E-1,5.8609825E-2,1.0140528E-1,2.1292351E-1],"categories":[],"categories_nodes":[],"categories_segments":[],"categories_sizes":[],"default_left":[0,0,0,0,0,0,0,0,0,0,0,0,0,0,0],"id":9,"left_children":[1,3,5,7,9,11,13,-1,-1,-1,-1,-1,-1,-1,-1],"loss_changes":[1.5697562E1,1.0066656E1,8.361697E0,5.625533E0,9.132374E0,6.3656344E0,2.485094E0,0E0,0E0,0E0,0E0,0E0,0E0,0E0,0E0],"parents":[2147483647,0,0,1,1,2,2,3,3,4,4,5,5,6,6],"right_children":[2,4,6,8,10,12,14,-1,-1,-1,-1,-1,-1,-1,-1],"split_conditions":[1.72042E-1,-4.92774E-4,-3.8290384E0,3E0,1.4E1,7E0,5.384577E-2,3.956727E-2,-4.7826886E-2,2.6466457E-2,-1.1834196E-1,-3.2154188E-1,5.8609825E-2,1.0140528E-1,2.1292351E-1],"split_indices":[1,0,4,8,6,8,0,0,0,0,0,0,0,0,0],"split_type":[0,0,0,0,0,0,0,0,0,0,0,0,0,0,0],"sum_hessian":[5.9809985E2,5.50645E2,4.7454796E1,2.6699966E2,2.8364536E2,5.6573634E0,4.1797432E1,3.291604E1,2.3408363E2,2.6599326E2,1.7652117E1,2.0154269E0,3.6419365E0,2.8751673E1,1.304576E1],"tree_param":{"num_deleted":"0","num_feature":"9","num_nodes":"15","size_leaf_vector":"1"}},{"base_weights":[2.171433E-3,-6.564462E-2,3.4955725E-1,-1.5145084E-1,1.2713437E-1,-5.1757894E-2,5.676448E-1,-1.467784E-1,-2.2250047E-2,8.760312E-4,9.287369E-2,-2.5201732E-1,1.3220419E-2,1.255884E-1,-1.3437508E-1],"categories":[],"categories_nodes":[],"categories_segments":[],"categories_sizes":[],"default_left":[0,0,0,0,0,0,0,0,0,0,0,0,0,0,0],"id":10,"left_children":[1,3,5,7,9,11,13,-1,-1,-1,-1,-1,-1,-1,-1],"loss_changes":[1.4024541E1,8.258716E0,8.539373E0,7.9996576E0,6.37157E0,5.0893397E0,5.13657E0,0E0,0E0,0E0,0E0,0E0,0E0,0E0,0E0],"parents":[2147483647,0,0,1,1,2,2,3,3,4,4,5,5,6,6],"right_children":[2,4,6,8,10,12,14,-1,-1,-1,-1,-1,-1,-1,-1],"split_conditions":[2.2619048E-1,1.5579059E0,6E0,-1.5666667E1,4E0,-6.960598E-2,1.1E1,-1.467784E-1,-2.2250047E-2,8.760312E-4,9.287369E-2,-2.5201732E-1,1.3220419E-2,1.255884E-1,-1.3437508E-1],"split_indices":[2,4,8,5,5,0,6,0,0,0,0,0,0,0,0],"split_type":[0,0,0,0,0,0,0,0,0,0,0,0,0,0,0],"sum_hessian":[5.933371E2,4.971043E2,9.623281E1,3.4414102E2,1.529633E2,3.415146E1,6.2081352E1,2.1105215E1,3.230358E2,1.128856E2,4.0077705E1,2.1737964E0,3.1977661E1,5.9671974E1,2.4093788E0],"tree_param":{"num_deleted":"0","num_feature":"9","num_nodes":"15","size_leaf_vector":"1"}},{"base_weights":[1.6684561E-3,-1.8650758E-1,9.812169E-2,-2.284267E-1,-1.5621234E-1,4.8856076E-2,4.467526E-1,-3.597231E-2,1.3790539E-1,2.4678886E-1,7.3993625E-3,-8.783246E-2,1.2478327E-1],"categories":[],"categories_nodes":[],"categories_segments":[],"categories_sizes":[],"default_left":[0,0,0,0,0,0,0,0,0,0,0,0,0],"id":11,"left_children":[1,3,5,-1,7,9,11,-1,-1,-1,-1,-1,-1],"loss_changes":[1.0676101E1,5.5924063E0,6.6572037E0,0E0,4.011515E0,4.7587204E0,7.811636E0,0E0,0E0,0E0,0E0,0E0,0E0],"parents":[2147483647,0,0,1,1,2,2,4,4,5,5,6,6],"right_children":[2,4,6,-1,8,10,12,-1,-1,-1,-1,-1,-1],"split_conditions":[-1.3333334E-1,-3.1069675E-1,1.51926E-1,-2.284267E-1,6.789435E0,-1.4E1,-2.6934202E0,-3.597231E-2,1.3790539E-1,2.4678886E-1,7.3993625E-3,-8.783246E-2,1.2478327E-1],"split_indices":[2,1,1,0,4,7,4,0,0,0,0,0,0],"split_type":[0,0,0,0,0,0,0,0,0,0,0,0,0],"sum_hessian":[5.8620056E2,1.9833125E2,3.878693E2,4.966578E0,1.9336469E2,3.4084418E2,4.7025116E1,1.8887067E2,4.4940076E0,2.3560567E0,3.3848813E2,7.590356E0,3.943476E1],"tree_param":{"num_deleted":"0","num_feature":"9","num_nodes":"13","size_leaf_vector":"1"}},{"base_weights":[1.8339703E-3,-3.9785606E-1,3.857199E-2,-7.231472E-1,1.1764643E-1,8.546461E-3,5.43133E-1,-1.7844047E-1,-4.222073E-2,1.7390716E-1,-3.5399638E-2,1.8302778E-2,-2.8388396E-2,-1.5406828E-1,1.2461324E-1],"categories":[],"categories_nodes":[],"categories_segments":[],"categories_sizes":[],"default_left":[0,0,0,0,0,0,0,0,0,0,0,0,0,0,0],"id":12,"left_children":[1,3,5,7,9,11,13,-1,-1,-1,-1,-1,-1,-1,-1],"loss_changes":[8.561658E0,8.3156185E0,8.084394E0,2.428731E0,4.5513334E0,6.317821E0,3.6268663E0,0E0,0E0,0E0,0E0,0E0,0E0,0E0,0E0],"parents":[2147483647,0,0,1,1,2,2,3,3,4,4,5,5,6,6],"right_children":[2,4,6,8,10,12,14,-1,-1,-1,-1,-1,-1,-1,-1],"split_conditions":[-5E-1,-3.5714287E-1,6.3747687E0,-5E0,-2.6666668E-1,3.3333333E0,-1.4E1,-1.7844047E-1,-4.222073E-2,1.7390716E-1,-3.5399638E-2,1.8302778E-2,-2.8388396E-2,-1.5406828E-1,1.2461324E-1],"split_indices":[3,2,4,5,2,6,5,0,0,0,0,0,0,0,0],"split_type":[0,0,0,0,0,0,0,0,0,0,0,0,0,0,0],"sum_hessian":[5.8102234E2,4.8082363E1,5.3294E2,2.9233017E1,1.8849348E1,5.0396674E2,2.8973227E1,2.1418951E1,7.814065E0,4.757579E0,1.4091769E1,3.251156E2,1.7885115E2,1.1665734E0,2.7806652E1],"tree_param":{"num_deleted":"0","num_feature":"9","num_nodes":"15","size_leaf_vector":"1"}},{"base_weights":[1.150283E-3,-1.315125E-1,9.485304E-2,-8.9214295E-2,-6.873292E-1,-2.0175147E-1,1.5871008E-1,-8.07783E-2,-1.0680078E-3,-2.304023E-1,4.8833024E-2,-5.538555E-2,6.9343224E-2,4.128548E-2,-3.986304E-2],"categories":[],"categories_nodes":[],"categories_segments":[],"categories_sizes":[],"default_left":[0,0,0,0,0,0,0,0,0,0,0,0,0,0,0],"id":13,"left_children":[1,3,5,7,9,11,13,-1,-1,-1,-1,-1,-1,-1,-1],"loss_changes":[7.192707E0,5.5697784E0,6.454564E0,5.9028025E0,7.5485635E0,2.5910337E0,4.81753E0,0E0,0E0,0E0,0E0,0E0,0E0,0E0,0E0],"parents":[2147483647,0,0,1,1,2,2,3,3,4,4,5,5,6,6],"right_children":[2,4,6,8,10,12,14,-1,-1,-1,-1,-1,-1,-1,-1],"split_conditions":[-2.786915E-2,2.6666667E0,-3.3333333E0,-3.392857E-1,9.803922E-2,4.3228865E0,1.0666667E1,-8.07783E-2,-1.0680078E-3,-2.304023E-1,4.8833024E-2,-5.538555E-2,6.9343224E-2,4.128548E-2,-3.986304E-2],"split_indices":[1,5,5,2,2,4,6,0,0,0,0,0,0,0,0],"split_type":[0,0,0,0,0,0,0,0,0,0,0,0,0,0,0],"sum_hessian":[5.766131E2,2.3851877E2,3.3809433E2,2.2272934E2,1.5789416E1,5.9512062E1,2.7858228E2,4.606994E1,1.7665941E2,1.0376361E1,5.413055E0,5.277367E1,6.7383904E0,2.4619327E2,3.238902E1],"tree_param":{"num_deleted":"0","num_feature":"9","num_nodes":"15","size_leaf_vector":"1"}},{"base_weights":[4.840839E-4,-4.2296167E-2,2.3441932E-1,-1.7291626E-1,2.2675926E-2,-2.1506522E-2,5.187451E-1,3.623081E-2,-5.2099265E-2,-2.216096E-3,1.0875284E-1,1.4466746E-1,-2.3443064E-2,1.17315985E-1,-1.1698353E-1],"categories":[],"categories_nodes":[],"categories_segments":[],"categories_sizes":[],"default_left":[0,0,0,0,0,0,0,0,0,0,0,0,0,0,0],"id":14,"left_children":[1,3,5,7,9,11,13,-1,-1,-1,-1,-1,-1,-1,-1],"loss_changes":[5.733839E0,4.114606E0,6.4564877E0,5.0401745E0,5.7114577E0,3.476403E0,3.4874725E0,0E0,0E0,0E0,0E0,0E0,0E0,0E0,0E0],"parents":[2147483647,0,0,1,1,2,2,3,3,4,4,5,5,6,6],"right_children":[2,4,6,8,10,12,14,-1,-1,-1,-1,-1,-1,-1,-1],"split_conditions":[2.2619048E-1,-2.2726892E-2,9E0,0E0,1.1666667E1,-6E0,1.1666667E1,3.623081E-2,-5.2099265E-2,-2.216096E-3,1.0875284E-1,1.4466746E-1,-2.3443064E-2,1.17315985E-1,-1.1698353E-1],"split_indices":[2,0,8,7,5,5,6,0,0,0,0,0,0,0,0],"split_type":[0,0,0,0,0,0,0,0,0,0,0,0,0,0,0],"sum_hessian":[5.709458E2,4.8337006E2,8.757575E1,1.6001468E2,3.2335538E2,4.6576195E1,4.0999557E1,3.1519323E1,1.2849535E2,3.0460184E2,1.8753551E1,4.556673E0,4.2019524E1,3.906689E1,1.9326668E0],"tree_param":{"num_deleted":"0","num_feature":"9","num_nodes":"15","size_leaf_vector":"1"}},{"base_weights":[1.1552791E-3,-3.5803598E-1,2.7085641E-2,-1.59065E-1,-6.783496E-1,6.498343E-3,5.1100236E-1,-9.191155E-2,5.2098334E-2,-2.3756166E-1,-7.252182E-2,-3.5556767E-3,6.8533175E-2,1.3046521E-1,-1.3048455E-1],"categories":[],"categories_nodes":[],"categories_segments":[],"categories_sizes":[],"default_left":[0,0,0,0,0,0,0,0,0,0,0,0,0,0,0],"id":15,"left_children":[1,3,5,7,9,11,13,-1,-1,-1,-1,-1,-1,-1,-1],"loss_changes":[5.297071E0,2.3326044E0,5.2807107E0,3.2622974E0,1.8801594E0,4.166262E0,3.982109E0,0E0,0E0,0E0,0E0,0E0,0E0,0E0,0E0],"parents":[2147483647,0,0,1,1,2,2,3,3,4,4,5,5,6,6],"right_children":[2,4,6,8,10,12,14,-1,-1,-1,-1,-1,-1,-1,-1],"split_conditions":[-2.1054278E-1,-2.3567334E-1,7.1960683E0,-1.9642857E-1,-1.4666667E1,1.1666667E1,1.4333333E1,-9.191155E-2,5.2098334E-2,-2.3756166E-1,-7.252182E-2,-3.5556767E-3,6.8533175E-2,1.3046521E-1,-1.3048455E-1],"split_indices":[1,1,4,2,5,5,5,0,0,0,0,0,0,0,0],"split_type":[0,0,0,0,0,0,0,0,0,0,0,0,0,0,0],"sum_hessian":[5.666827E2,3.7292583E1,5.293901E2,2.3926575E1,1.336601E1,5.087593E2,2.0630749E1,1.3885926E1,1.0040649E1,4.057352E0,9.308658E0,4.7537656E2,3.338275E1,1.8787855E1,1.8428942E0],"tree_param":{"num_deleted":"0","num_feature":"9","num_nodes":"15","size_leaf_vector":"1"}},{"base_weights":[5.0227E-4,2.14711E-1,-7.013508E-3,-3.045391E-2,3.0866045E-1,-1.9217434E-3,-7.286885E-2,-1.6746007E-1,8.284154E-2],"categories":[],"categories_nodes":[],"categories_segments":[],"categories_sizes":[],"default_left":[0,0,0,0,0,0,0,0,0],"id":16,"left_children":[1,-1,3,5,7,-1,-1,-1,-1],"loss_changes":[4.5602665E0,0E0,4.1648607E0,3.641295E0,5.052841E0,0E0,0E0,0E0,0E0],"parents":[2147483647,0,0,2,2,3,3,4,4],"right_children":[2,-1,4,6,8,-1,-1,-1,-1],"split_conditions":[-2.1E1,2.14711E-1,1.72042E-1,1.4333333E1,2E0,-1.9217434E-3,-7.286885E-2,-1.6746007E-1,8.284154E-2],"split_indices":[6,0,1,6,8,0,0,0,0],"split_type":[0,0,0,0,0,0,0,0,0],"sum_hessian":[5.6351776E2,2.9329336E0,5.6058484E2,5.2267694E2,3.7907898E1,4.9293137E2,2.974555E1,2.6123044E0,3.5295597E1],"tree_param":{"num_deleted":"0","num_feature":"9","num_nodes":"9","size_leaf_vector":"1"}},{"base_weights":[6.625697E-4,-2.4454428E-1,2.8469982E-2,1.1515891E-1,-5.359467E-1,-2.9017016E-1,5.3387888E-2,-1.1307839E-1,5.3155214E-2,-2.317024E-1,-5.047948E-2,-8.805977E-2,7.577762E-2,8.083918E-3,1.2022716E-1],"categories":[],"categories_nodes":[],"categories_segments":[],"categories_sizes":[],"default_left":[0,0,0,0,0,0,0,0,0,0,0,0,0,0,0],"id":17,"left_children":[1,3,5,7,9,11,13,-1,-1,-1,-1,-1,-1,-1,-1],"loss_changes":[3.8421028E0,6.0774813E0,4.033555E0,2.8675141E0,5.3358717E0,3.869183E0,3.3157268E0,0E0,0E0,0E0,0E0,0E0,0E0,0E0,0E0],"parents":[2147483647,0,0,1,1,2,2,3,3,4,4,5,5,6,6],"right_children":[2,4,6,8,10,12,14,-1,-1,-1,-1,-1,-1,-1,-1],"split_conditions":[-6.34525E-2,-8.722456E-2,-5E-1,-1.2666667E1,6E0,1.6E1,9.005593E0,-1.1307839E-1,5.3155214E-2,-2.317024E-1,-5.047948E-2,-8.805977E-2,7.577762E-2,8.083918E-3,1.2022716E-1],"split_indices":[0,0,3,5,8,8,4,0,0,0,0,0,0,0,0],"split_type":[0,0,0,0,0,0,0,0,0,0,0,0,0,0,0],"sum_hessian":[5.6145544E2,5.639224E1,5.050632E2,2.550904E1,3.0883198E1,3.5859634E1,4.6920355E2,4.123503E0,2.1385536E1,8.698621E0,2.2184578E1,2.9567053E1,6.292579E0,4.5940073E2,9.802829E0],"tree_param":{"num_deleted":"0","num_feature":"9","num_nodes":"15","size_leaf_vector":"1"}},{"base_weights":[-4.402982E-6,1.9772403E-1,-6.4306394E-3,-9.617291E-1,5.955533E-5,8.2340255E-2,-3.476543E-1,-3.4170717E-3,6.806091E-2],"categories":[],"categories_nodes":[],"categories_segments":[],"categories_sizes":[],"default_left":[0,0,0,0,0,0,0,0,0],"id":18,"left_children":[1,-1,3,5,7,-1,-1,-1,-1],"loss_changes":[3.5627408E0,0E0,3.454505E0,4.725598E0,3.2399056E0,0E0,0E0,0E0,0E0],"parents":[2147483647,0,0,2,2,3,3,4,4],"right_children":[2,-1,4,6,8,-1,-1,-1,-1],"split_conditions":[-2.1E1,1.9772403E-1,-1.9E1,-4.6666665E0,5E-1,8.2340255E-2,-3.476543E-1,-3.4170717E-3,6.806091E-2],"split_indices":[6,0,6,5,3,0,0,0,0],"split_type":[0,0,0,0,0,0,0,0,0],"sum_hessian":[5.5878406E2,2.6216598E0,5.561624E2,2.7598197E0,5.534026E2,1.1665069E0,1.5933127E0,5.2775867E2,2.5643925E1],"tree_param":{"num_deleted":"0","num_feature":"9","num_nodes":"9","size_leaf_vector":"1"}},{"base_weights":[1.537163E-4,-2.8334373E-1,1.9995239E-2,-1.6465236E-1,-1.0402672E0,-9.432495E-3,2.178667E-1,-6.0735E-2,2.7820045E-1,-5.29111E-2,-2.6107833E-1,-8.235327E-2,9.837804E-4,-5.96039E-3,1.4103523E-1],"categories":[],"categories_nodes":[],"categories_segments":[],"categories_sizes":[],"default_left":[0,0,0,0,0,0,0,0,0,0,0,0,0,0,0],"id":19,"left_children":[1,3,5,7,9,11,13,-1,-1,-1,-1,-1,-1,-1,-1],"loss_changes":[3.1487398E0,3.1182256E0,3.048319E0,7.5247297E0,6.367197E-1,2.637183E0,8.200544E0,0E0,0E0,0E0,0E0,0E0,0E0,0E0,0E0],"parents":[2147483647,0,0,1,1,2,2,3,3,4,4,5,5,6,6],"right_children":[2,4,6,8,10,12,14,-1,-1,-1,-1,-1,-1,-1,-1],"split_conditions":[-2.1054278E-1,2.8492773E-2,3E0,2.9952621E0,-2.5667498E-1,-8.146187E0,7.692308E-2,-6.0735E-2,2.7820045E-1,-5.29111E-2,-2.6107833E-1,-8.235327E-2,9.837804E-4,-5.96039E-3,1.4103523E-1],"split_indices":[1,0,7,4,1,4,2,0,0,0,0,0,0,0,0],"split_type":[0,0,0,0,0,0,0,0,0,0,0,0,0,0,0],"sum_hessian":[5.5776666E2,3.561507E1,5.221516E2,3.1839865E1,3.7752047E0,4.5537927E2,6.677234E1,2.9966656E1,1.8732079E0,1.4705279E0,2.3046768E0,1.4730334E1,4.4064893E2,4.489426E1,2.1878078E1],"tree_param":{"num_deleted":"0","num_feature":"9","num_nodes":"15","size_leaf_vector":"1"}},{"base_weights":[1.245115E-4,7.0991933E-1,-6.975294E-3,2.9575044E-1,1.9025159E-1,-2.4770832E-2,2.4679892E-1,1.8645416E-1,-1.1065515E-1,-1.5145417E-3,-7.890986E-2,1.2416015E-2,1.6304739E-1],"categories":[],"categories_nodes":[],"categories_segments":[],"categories_sizes":[],"default_left":[0,0,0,0,0,0,0,0,0,0,0,0,0],"id":20,"left_children":[1,3,5,7,-1,9,11,-1,-1,-1,-1,-1,-1],"loss_changes":[2.807932E0,2.7023745E-1,2.4975905E0,2.3979971E0,0E0,3.2813818E0,3.7549338E0,0E0,0E0,0E0,0E0,0E0,0E0],"parents":[2147483647,0,0,1,1,2,2,3,3,5,5,6,6],"right_children":[2,4,6,8,-1,10,12,-1,-1,-1,-1,-1,-1],"split_conditions":[-8E0,8.719774E-1,1.72042E-1,3E-1,1.9025159E-1,1.3789254E-1,5.384577E-2,1.8645416E-1,-1.1065515E-1,-1.5145417E-3,-7.890986E-2,1.2416015E-2,1.6304739E-1],"split_indices":[7,4,1,3,0,1,0,0,0,0,0,0,0],"split_type":[0,0,0,0,0,0,0,0,0,0,0,0,0],"sum_hessian":[5.5521234E2,4.5182095E0,5.5069415E2,2.4828203E0,2.0353894E0,5.154513E2,3.5242863E1,1.3629562E0,1.1198641E0,4.935186E2,2.1932707E1,2.7436384E1,7.806478E0],"tree_param":{"num_deleted":"0","num_feature":"9","num_nodes":"13","size_leaf_vector":"1"}},{"base_weights":[9.7512227E-4,1.8221731E-1,-4.4665043E-3,-7.9903746E-1,1.1638858E-3,5.9839644E-2,-3.407596E-1,-1.0822368E-2,1.6884698E-2],"categories":[],"categories_nodes":[],"categories_segments":[],"categories_sizes":[],"default_left":[0,0,0,0,0,0,0,0,0],"id":21,"left_children":[1,-1,3,5,7,-1,-1,-1,-1],"loss_changes":[2.7560759E0,0E0,2.4765844E0,4.3801155E0,2.538002E0,0E0,0E0,0E0,0E0],"parents":[2147483647,0,0,2,2,3,3,4,4],"right_children":[2,-1,4,6,8,-1,-1,-1,-1],"split_conditions":[-2.1E1,1.8221731E-1,-1.9E1,4.864241E-3,2.7924215E-3,5.9839644E-2,-3.407596E-1,-1.0822368E-2,1.6884698E-2],"split_indices":[6,0,6,1,0,0,0,0,0],"split_type":[0,0,0,0,0,0,0,0,0],"sum_hessian":[5.546817E2,2.307595E0,5.523741E2,2.8951144E0,5.49479E2,1.6100618E0,1.2850528E0,3.3044675E2,2.1903223E2],"tree_param":{"num_deleted":"0","num_feature":"9","num_nodes":"9","size_leaf_vector":"1"}},{"base_weights":[7.029409E-4,3.5247125E-2,-1.17502734E-1,1.5521709E-2,3.1108585E-1,-3.3823487E-1,7.576385E-2,7.3344978E-3,-8.025071E-2,-9.091056E-2,9.22788E-2,1.4455529E-1,-8.3449386E-2,-1.9670375E-1,2.6734814E-2],"categories":[],"categories_nodes":[],"categories_segments":[],"categories_sizes":[],"default_left":[0,0,0,0,0,0,0,0,0,0,0,0,0,0,0],"id":22,"left_children":[1,3,5,7,9,11,13,-1,-1,-1,-1,-1,-1,-1,-1],"loss_changes":[2.2684805E0,2.3342502E0,5.385357E0,3.5606692E0,3.5054343E0,5.233822E0,4.29076E0,0E0,0E0,0E0,0E0,0E0,0E0,0E0,0E0],"parents":[2147483647,0,0,1,1,2,2,3,3,4,4,5,5,6,6],"right_children":[2,4,6,8,10,12,14,-1,-1,-1,-1,-1,-1,-1,-1],"split_conditions":[7E0,1.72042E-1,-1.7857143E-1,1.3789254E-1,-1.1333333E1,3E0,-1.3E1,7.3344978E-3,-8.025071E-2,-9.091056E-2,9.22788E-2,1.4455529E-1,-8.3449386E-2,-1.9670375E-1,2.6734814E-2],"split_indices":[6,1,2,1,6,8,5,0,0,0,0,0,0,0,0],"split_type":[0,0,0,0,0,0,0,0,0,0,0,0,0,0,0],"sum_hessian":[5.5353394E2,4.2889606E2,1.24637886E2,4.012581E2,2.763797E1,5.7834408E1,6.680348E1,3.8274625E2,1.8511843E1,4.203265E0,2.3434706E1,3.4436574E0,5.4390747E1,2.6342778E0,6.4169205E1],"tree_param":{"num_deleted":"0","num_feature":"9","num_nodes":"15","size_leaf_vector":"1"}},{"base_weights":[2.6590485E-4,1.7029147E-1,-4.517523E-3,6.3474333E-1,-1.0662388E-2,5.145954E-2,1.7364453E-1,-7.086282E-3,3.2254018E-2],"categories":[],"categories_nodes":[],"categories_segments":[],"categories_sizes":[],"default_left":[0,0,0,0,0,0,0,0,0],"id":23,"left_children":[1,-1,3,5,7,-1,-1,-1,-1],"loss_changes":[2.2510092E0,0E0,2.1665564E0,2.3938489E-1,2.329074E0,0E0,0E0,0E0,0E0],"parents":[2147483647,0,0,2,2,3,3,4,4],"right_children":[2,-1,4,6,8,-1,-1,-1,-1],"split_conditions":[-2.1E1,1.7029147E-1,-8E0,8.719774E-1,3E0,5.145954E-2,1.7364453E-1,-7.086282E-3,3.2254018E-2],"split_indices":[6,0,7,4,7,0,0,0,0],"split_type":[0,0,0,0,0,0,0,0,0],"sum_hessian":[5.509098E2,2.0895047E0,5.4882025E2,4.2513227E0,5.44569E2,2.428077E0,1.8232456E0,4.7668976E2,6.7879196E1],"tree_param":{"num_deleted":"0","num_feature":"9","num_nodes":"9","size_leaf_vector":"1"}},{"base_weights":[1.0476728E-3,-3.169499E-1,1.2804553E-2,-5.4728884E-1,4.470143E-1,2.2767061E-1,-2.8443185E-3,-5.9488583E-2,-1.8711363E-1,-9.886367E-2,1.9600473E-1,1.619284E-1,1.117661E-2,-9.790007E-2,1.2546348E-3],"categories":[],"categories_nodes":[],"categories_segments":[],"categories_sizes":[],"default_left":[0,0,0,0,0,0,0,0,0,0,0,0,0,0,0],"id":24,"left_children":[1,3,5,7,9,11,13,-1,-1,-1,-1,-1,-1,-1,-1],"loss_changes":[2.0657856E0,3.711328E0,1.7920101E0,1.2337356E0,3.0504265E0,3.571835E0,2.2108815E0,0E0,0E0,0E0,0E0,0E0,0E0,0E0,0E0],"parents":[2147483647,0,0,1,1,2,2,3,3,4,4,5,5,6,6],"right_children":[2,4,6,8,10,12,14,-1,-1,-1,-1,-1,-1,-1,-1],"split_conditions":[-1.6E1,-7.692308E-2,-1.1666667E1,-1.7E1,-5.3224687E-2,-8.3333336E-2,-1.0666667E1,-5.9488583E-2,-1.8711363E-1,-9.886367E-2,1.9600473E-1,1.619284E-1,1.117661E-2,-9.790007E-2,1.2546348E-3],"split_indices":[5,2,6,5,0,2,6,0,0,0,0,0,0,0,0],"split_type":[0,0,0,0,0,0,0,0,0,0,0,0,0,0,0],"sum_hessian":[5.504616E2,1.8700333E1,5.317613E2,1.4586156E1,4.1141777E0,3.5179684E1,4.965816E2,9.949809E0,4.636347E0,1.513615E0,2.6005626E0,7.1714935E0,2.800819E1,8.163398E0,4.884182E2],"tree_param":{"num_deleted":"0","num_feature":"9","num_nodes":"15","size_leaf_vector":"1"}},{"base_weights":[6.3305936E-4,-5.518953E-1,6.9210245E-3,-1.9641578E-1,9.96355E-2,1.57517E-1,2.8182997E-3,-1.4405087E-1,1.6254258E-3],"categories":[],"categories_nodes":[],"categories_segments":[],"categories_sizes":[],"default_left":[0,0,0,0,0,0,0,0,0],"id":25,"left_children":[1,3,5,-1,-1,-1,7,-1,-1],"loss_changes":[1.9168743E0,3.2936757E0,1.744695E0,0E0,0E0,0E0,2.0924668E0,0E0,0E0],"parents":[2147483647,0,0,1,1,2,2,6,6],"right_children":[2,4,6,-1,-1,-1,8,-1,-1],"split_conditions":[-3.1069675E-1,-1.25E-1,-2.1E1,-1.9641578E-1,9.96355E-2,1.57517E-1,-1.9E1,-1.4405087E-1,1.6254258E-3],"split_indices":[1,2,6,0,0,0,6,0,0],"split_type":[0,0,0,0,0,0,0,0,0],"sum_hessian":[5.496335E2,5.2082734E0,5.444252E2,3.740609E0,1.4676646E0,1.8478668E0,5.4257733E2,2.9730365E0,5.396043E2],"tree_param":{"num_deleted":"0","num_feature":"9","num_nodes":"9","size_leaf_vector":"1"}},{"base_weights":[3.16268E-4,7.1670103E-1,-4.170659E-3,1.7228076E-1,3.7486527E-2,-2.8158708E-2,1.3432558E-1,-1.1596218E-3,-4.4830196E-2,-7.498447E-3,9.761307E-2],"categories":[],"categories_nodes":[],"categories_segments":[],"categories_sizes":[],"default_left":[0,0,0,0,0,0,0,0,0,0,0],"id":26,"left_children":[1,3,5,-1,-1,7,9,-1,-1,-1,-1],"loss_changes":[1.770882E0,1.0117066E-1,1.8229434E0,0E0,0E0,2.0477655E0,4.942138E0,0E0,0E0,0E0,0E0],"parents":[2147483647,0,0,1,1,2,2,5,5,6,6],"right_children":[2,4,6,-1,-1,8,10,-1,-1,-1,-1],"split_conditions":[-1.4E1,9.665882E-3,2.2619048E-1,1.7228076E-1,3.7486527E-2,5.3012673E-2,1.2E1,-1.1596218E-3,-4.4830196E-2,-7.498447E-3,9.761307E-2],"split_indices":[7,0,2,0,0,0,8,0,0,0,0],"split_type":[0,0,0,0,0,0,0,0,0,0,0],"sum_hessian":[5.489974E2,2.429138E0,5.4656824E2,1.4147946E0,1.0143434E0,4.6655576E2,8.001246E1,4.197019E2,4.6853867E1,5.445614E1,2.5556322E1],"tree_param":{"num_deleted":"0","num_feature":"9","num_nodes":"11","size_leaf_vector":"1"}},{"base_weights":[8.9546724E-4,-1.0505986E-2,3.1060165E-1,-2.4873301E-2,2.2218247E-1,8.5726845E-1,-1.3015762E-1,-1.9984015E-3,-8.8182405E-2,-2.926687E-2,1.6603594E-1,2.1195681E-1,1.2936316E-2,-1.5277691E-1,1.07333265E-1],"categories":[],"categories_nodes":[],"categories_segments":[],"categories_sizes":[],"default_left":[0,0,0,0,0,0,0,0,0,0,0,0,0,0,0],"id":27,"left_children":[1,3,5,7,9,11,13,-1,-1,-1,-1,-1,-1,-1,-1],"loss_changes":[1.9422336E0,1.7793202E0,4.8172665E0,3.0950673E0,7.05745E0,1.3518782E0,5.3459277E0,0E0,0E0,0E0,0E0,0E0,0E0,0E0,0E0],"parents":[2147483647,0,0,1,1,2,2,3,3,4,4,5,5,6,6],"right_children":[2,4,6,8,10,12,14,-1,-1,-1,-1,-1,-1,-1,-1],"split_conditions":[7.1960683E0,1.1666667E1,8.064036E-2,9.666667E0,1.6760796E0,8.161472E-2,-2.6666667E0,-1.9984015E-3,-8.8182405E-2,-2.926687E-2,1.6603594E-1,2.1195681E-1,1.2936316E-2,-1.5277691E-1,1.07333265E-1],"split_indices":[4,5,0,5,4,1,6,0,0,0,0,0,0,0,0],"split_type":[0,0,0,0,0,0,0,0,0,0,0,0,0,0,0],"sum_hessian":[5.481121E2,5.295823E2,1.8529844E1,4.9962607E2,2.9956234E1,7.849389E0,1.0680455E1,4.8336075E2,1.626532E1,1.9124117E1,1.0832117E1,5.9834294E0,1.8659595E0,5.401498E0,5.2789574E0],"tree_param":{"num_deleted":"0","num_feature":"9","num_nodes":"15","size_leaf_vector":"1"}},{"base_weights":[1.564716E-3,-1.1594088E-1,2.868152E-2,-9.38378E-1,-6.103755E-2,6.144133E-1,8.617844E-3,-3.8594406E-2,-2.1358827E-1,-3.4090426E-2,6.717084E-2,1.6600846E-1,-2.1248816E-1,-2.9592142E-3,4.7395438E-2],"categories":[],"categories_nodes":[],"categories_segments":[],"categories_sizes":[],"default_left":[0,0,0,0,0,0,0,0,0,0,0,0,0,0,0],"id":28,"left_children":[1,3,5,7,9,11,13,-1,-1,-1,-1,-1,-1,-1,-1],"loss_changes":[1.7502344E0,4.5933833E0,5.2389917E0,4.0966892E-1,4.2964067E0,6.2206964E0,2.3159034E0,0E0,0E0,0E0,0E0,0E0,0E0,0E0,0E0],"parents":[2147483647,0,0,1,1,2,2,3,3,4,4,5,5,6,6],"right_children":[2,4,6,8,10,12,14,-1,-1,-1,-1,-1,-1,-1,-1],"split_conditions":[-4.170772E0,-1.5666667E1,-3.7538075E0,-2.7278277E-1,-1.8700086E-2,1.3573764E-1,1.51926E-1,-3.8594406E-2,-2.1358827E-1,-3.4090426E-2,6.717084E-2,1.6600846E-1,-2.1248816E-1,-2.9592142E-3,4.7395438E-2],"split_indices":[4,5,4,1,0,1,1,0,0,0,0,0,0,0,0],"split_type":[0,0,0,0,0,0,0,0,0,0,0,0,0,0,0],"sum_hessian":[5.4724316E2,1.01994316E2,4.4524887E2,5.375738E0,9.6618576E1,1.3765339E1,4.3148355E2,1.1646512E0,4.2110868E0,7.61862E1,2.0432377E1,1.2644381E1,1.1209576E0,3.922055E2,3.9278023E1],"tree_param":{"num_deleted":"0","num_feature":"9","num_nodes":"15","size_leaf_vector":"1"}},{"base_weights":[7.705918E-4,8.989588E-3,-4.305409E-1,-6.395954E-3,3.6120695E-1,-8.0146027E-1,1.10681094E-1,-3.9690593E-3,7.911412E-2,1.3652532E-1,-4.8966315E-3,-7.085547E-2,-3.288167E-1],"categories":[],"categories_nodes":[],"categories_segments":[],"categories_sizes":[],"default_left":[0,0,0,0,0,0,0,0,0,0,0,0,0],"id":29,"left_children":[1,3,5,7,9,11,-1,-1,-1,-1,-1,-1,-1],"loss_changes":[1.9422278E0,2.9153187E0,4.1826806E0,2.7976222E0,2.8079624E0,2.3750443E0,0E0,0E0,0E0,0E0,0E0,0E0,0E0],"parents":[2147483647,0,0,1,1,2,2,3,3,4,4,5,5],"right_children":[2,4,6,8,10,12,-1,-1,-1,-1,-1,-1,-1],"split_conditions":[1.6666666E1,1.1666667E1,2.2E1,7.1960683E0,1.3666667E1,3.0087295E-1,1.10681094E-1,-3.9690593E-3,7.911412E-2,1.3652532E-1,-4.8966315E-3,-7.085547E-2,-3.288167E-1],"split_indices":[5,5,5,4,5,1,0,0,0,0,0,0,0],"split_type":[0,0,0,0,0,0,0,0,0,0,0,0,0],"sum_hessian":[5.4579443E2,5.365492E2,9.24523E0,5.150334E2,2.1515823E1,6.848868E0,2.3963623E0,4.992787E2,1.5754664E1,1.1315787E1,1.0200036E1,5.4022965E0,1.4465712E0],"tree_param":{"num_deleted":"0","num_feature":"9","num_nodes":"13","size_leaf_vector":"1"}},{"base_weights":[7.297062E-4,1.486416E-1,-2.9125968E-3,6.583097E-1,-6.9240863E-3,1.5669408E-1,4.174613E-2,-4.309122E-2,1.5345691E-3],"categories":[],"categories_nodes":[],"categories_segments":[],"categories_sizes":[],"default_left":[0,0,0,0,0,0,0,0,0],"id":30,"left_children":[1,-1,3,5,7,-1,-1,-1,-1],"loss_changes":[1.4784548E0,0E0,1.4481201E0,2.1717668E-2,1.6512716E0,0E0,0E0,0E0,0E0],"parents":[2147483647,0,0,2,2,3,3,4,4],"right_children":[2,-1,4,6,8,-1,-1,-1,-1],"split_conditions":[-2.1E1,1.486416E-1,-1.4E1,-2.5426488E-2,2E0,1.5669408E-1,4.174613E-2,-4.309122E-2,1.5345691E-3],"split_indices":[6,0,7,0,8,0,0,0,0],"split_type":[0,0,0,0,0,0,0,0,0],"sum_hessian":[5.448985E2,1.6687917E0,5.4322974E2,2.29222E0,5.409375E2,1.2121011E0,1.0801189E0,3.448754E1,5.0644995E2],"tree_param":{"num_deleted":"0","num_feature":"9","num_nodes":"9","size_leaf_vector":"1"}},{"base_weights":[1.1840382E-3,-1.4760754E-2,1.7478162E-1,1.6576597E-1,-3.933633E-2,-4.2317477E-1,3.8666356E-1,1.7352235E-2,1.8089561E-1,-5.583894E-2,-2.0135408E-3,1.237147E-1,-2.1050854E-1,1.9943815E-1,3.2628182E-2],"categories":[],"categories_nodes":[],"categories_segments":[],"categories_sizes":[],"default_left":[0,0,0,0,0,0,0,0,0,0,0,0,0,0,0],"id":31,"left_children":[1,3,5,7,9,11,13,-1,-1,-1,-1,-1,-1,-1,-1],"loss_changes":[1.5129647E0,2.2278256E0,5.9891796E0,3.4339838E0,3.0966554E0,8.851568E0,4.5417256E0,0E0,0E0,0E0,0E0,0E0,0E0,0E0,0E0],"parents":[2147483647,0,0,1,1,2,2,3,3,4,4,5,5,6,6],"right_children":[2,4,6,8,10,12,14,-1,-1,-1,-1,-1,-1,-1,-1],"split_conditions":[4E0,3E0,2E0,1E0,-4.1666666E-1,-3.2888203E0,7E0,1.7352235E-2,1.8089561E-1,-5.583894E-2,-2.0135408E-3,1.237147E-1,-2.1050854E-1,1.9943815E-1,3.2628182E-2],"split_indices":[7,8,8,7,2,4,7,0,0,0,0,0,0,0,0],"split_type":[0,0,0,0,0,0,0,0,0,0,0,0,0,0,0],"sum_hessian":[5.4466364E2,4.9968317E2,4.4980507E1,5.918418E1,4.40499E2,1.1507561E1,3.3472946E1,5.447551E1,4.7086725E0,4.6977356E1,3.935216E2,4.340383E0,7.167178E0,8.043036E0,2.5429909E1],"tree_param":{"num_deleted":"0","num_feature":"9","num_nodes":"15","size_leaf_vector":"1"}},{"base_weights":[1.5619474E-3,-6.1264753E-1,5.974559E-3,-1.5859173E-1,-2.767179E-2,1.3223641E-2,-3.595955E-1,1.6832545E-4,6.092393E-2,8.274748E-2,-1.5699595E-1],"categories":[],"categories_nodes":[],"categories_segments":[],"categories_sizes":[],"default_left":[0,0,0,0,0,0,0,0,0,0,0],"id":32,"left_children":[1,3,5,-1,-1,7,9,-1,-1,-1,-1],"loss_changes":[1.4776428E0,2.2286654E-1,1.4383307E0,0E0,0E0,1.9171014E0,3.7966309E0,0E0,0E0,0E0,0E0],"parents":[2147483647,0,0,1,1,2,2,5,5,6,6],"right_children":[2,4,6,-1,-1,8,10,-1,-1,-1,-1],"split_conditions":[-2.3E1,-1.4333135E0,1.6666666E1,-1.5859173E-1,-2.767179E-2,1.1666667E1,7.1428575E-2,1.6832545E-4,6.092393E-2,8.274748E-2,-1.5699595E-1],"split_indices":[5,4,5,0,0,5,2,0,0,0,0],"split_type":[0,0,0,0,0,0,0,0,0,0,0],"sum_hessian":[5.428512E2,2.888931E0,5.399622E2,1.6063511E0,1.2825798E0,5.304083E2,9.553918E0,5.0975085E2,2.065747E1,3.400079E0,6.1538396E0],"tree_param":{"num_deleted":"0","num_feature":"9","num_nodes":"11","size_leaf_vector":"1"}},{"base_weights":[1.0111654E-3,6.1826813E-1,-2.7468046E-3,2.3155876E-1,-3.9275467E-2,-1.7322053E-1,1.5538938E-2,-4.602818E-2,1.9041605E-1,6.327491E-2,-6.6347263E-4],"categories":[],"categories_nodes":[],"categories_segments":[],"categories_sizes":[],"default_left":[0,0,0,0,0,0,0,0,0,0,0],"id":33,"left_children":[1,3,5,-1,-1,7,9,-1,-1,-1,-1],"loss_changes":[1.2625285E0,1.674979E0,1.6899086E0,0E0,0E0,3.5828505E0,2.7791626E0,0E0,0E0,0E0,0E0],"parents":[2147483647,0,0,1,1,2,2,5,5,6,6],"right_children":[2,4,6,-1,-1,8,10,-1,-1,-1,-1],"split_conditions":[-1.270348E-1,-1E-1,-6.34525E-2,2.3155876E-1,-3.9275467E-2,5E-1,-4.9787376E-2,-4.602818E-2,1.9041605E-1,6.327491E-2,-6.6347263E-4],"split_indices":[0,3,0,0,0,3,0,0,0,0,0],"split_type":[0,0,0,0,0,0,0,0,0,0,0],"sum_hessian":[5.4254724E2,2.2936103E0,5.4025366E2,1.1263945E0,1.1672158E0,5.1515316E1,4.887383E2,4.97922E1,1.7231208E0,2.7896477E1,4.6084186E2],"tree_param":{"num_deleted":"0","num_feature":"9","num_nodes":"11","size_leaf_vector":"1"}},{"base_weights":[1.5162738E-3,2.9469514E-2,-8.837967E-2,-6.433012E-3,2.8994116E-1,-2.639954E-1,6.3345864E-2,3.572858E-2,-1.2259967E-2,2.8944644E-1,3.6936782E-2,-6.209181E-2,1.6881327E-1,3.935425E-2,-5.008302E-2],"categories":[],"categories_nodes":[],"categories_segments":[],"categories_sizes":[],"default_left":[0,0,0,0,0,0,0,0,0,0,0,0,0,0,0],"id":34,"left_children":[1,3,5,7,9,11,13,-1,-1,-1,-1,-1,-1,-1,-1],"loss_changes":[1.3677547E0,3.8841944E0,3.4568765E0,3.7258723E0,5.861493E0,3.353005E0,2.9827545E0,0E0,0E0,0E0,0E0,0E0,0E0,0E0,0E0],"parents":[2147483647,0,0,1,1,2,2,3,3,4,4,5,5,6,6],"right_children":[2,4,6,8,10,12,14,-1,-1,-1,-1,-1,-1,-1,-1],"split_conditions":[6.6666665E0,3E0,-1.7857143E-1,-7.3333335E0,-6.9041953E0,8.199398E-2,2.1472282E0,3.572858E-2,-1.2259967E-2,2.8944644E-1,3.6936782E-2,-6.209181E-2,1.6881327E-1,3.935425E-2,-5.008302E-2],"split_indices":[6,7,2,5,4,0,4,0,0,0,0,0,0,0,0],"split_type":[0,0,0,0,0,0,0,0,0,0,0,0,0,0,0],"sum_hessian":[5.4226056E2,4.1415176E2,1.2810876E2,3.6483893E2,4.9312855E1,5.9036552E1,6.9072205E1,8.2910515E1,2.819284E2,3.048248E0,4.6264606E1,5.7351486E1,1.6850656E0,4.872499E1,2.0347214E1],"tree_param":{"num_deleted":"0","num_feature":"9","num_nodes":"15","size_leaf_vector":"1"}},{"base_weights":[1.995714E-3,-5.767014E-1,6.008294E-3,-1.4937152E-1,-2.7757827E-2,1.392747E-1,2.792808E-3,-1.4073396E-1,1.5658332E-3],"categories":[],"categories_nodes":[],"categories_segments":[],"categories_sizes":[],"default_left":[0,0,0,0,0,0,0,0,0],"id":35,"left_children":[1,3,5,-1,-1,-1,7,-1,-1],"loss_changes":[1.2642994E0,1.7571807E-1,1.1972893E0,0E0,0E0,0E0,1.9223068E0,0E0,0E0],"parents":[2147483647,0,0,1,1,2,2,6,6],"right_children":[2,4,6,-1,-1,-1,8,-1,-1],"split_conditions":[-2.3E1,-1.4333135E0,-2.1E1,-1.4937152E-1,-2.7757827E-2,1.392747E-1,-1.9E1,-1.4073396E-1,1.5658332E-3],"split_indices":[5,4,6,0,0,0,6,0,0],"split_type":[0,0,0,0,0,0,0,0,0],"sum_hessian":[5.41979E2,2.7493029E0,5.392297E2,1.471887E0,1.277416E0,1.5005143E0,5.377292E2,2.8244078E0,5.349048E2],"tree_param":{"num_deleted":"0","num_feature":"9","num_nodes":"9","size_leaf_vector":"1"}},{"base_weights":[1.2787046E-3,-9.785117E-2,2.3944465E-2,-1.5088798E-1,5.271441E-1,4.8604703E-1,7.884649E-3,4.5547873E-2,-5.1472183E-2,1.9114488E-1,-3.0244906E-2,1.694984E-1,-5.637094E-2,6.8095285E-3,-4.1086275E-2],"categories":[],"categories_nodes":[],"categories_segments":[],"categories_sizes":[],"default_left":[0,0,0,0,0,0,0,0,0,0,0,0,0,0,0],"id":36,"left_children":[1,3,5,7,9,11,13,-1,-1,-1,-1,-1,-1,-1,-1],"loss_changes":[1.2216083E0,3.4335222E0,3.2798753E0,3.849922E0,2.510309E0,4.359051E0,2.3991559E0,0E0,0E0,0E0,0E0,0E0,0E0,0E0,0E0],"parents":[2147483647,0,0,1,1,2,2,3,3,4,4,5,5,6,6],"right_children":[2,4,6,8,10,12,14,-1,-1,-1,-1,-1,-1,-1,-1],"split_conditions":[-4.170772E0,3.977647E-5,-3.7538075E0,-8.722456E-2,-5.0869613E0,-2.6472813E-2,1.0666667E1,4.5547873E-2,-5.1472183E-2,1.9114488E-1,-3.0244906E-2,1.694984E-1,-5.637094E-2,6.8095285E-3,-4.1086275E-2],"split_indices":[4,0,4,0,4,0,6,0,0,0,0,0,0,0,0],"split_type":[0,0,0,0,0,0,0,0,0,0,0,0,0,0,0],"sum_hessian":[5.416545E2,1.00182785E2,4.414717E2,9.3045555E1,7.1372266E0,1.3844601E1,4.276271E2,2.017225E1,7.287331E1,4.123329E0,3.0138974E0,9.343192E0,4.501409E0,3.816576E2,4.596952E1],"tree_param":{"num_deleted":"0","num_feature":"9","num_nodes":"15","size_leaf_vector":"1"}},{"base_weights":[1.4162452E-3,-6.0766067E-2,4.5723345E-2,-2.0656364E-2,-5.9604424E-1,1.0522696E0,2.8142953E-2,7.944359E-3,-5.8919895E-2,-1.6788866E-1,3.1952802E-2,2.432848E-1,3.673048E-2,-3.4567025E-2,1.4595005E-2],"categories":[],"categories_nodes":[],"categories_segments":[],"categories_sizes":[],"default_left":[0,0,0,0,0,0,0,0,0,0,0,0,0,0,0],"id":37,"left_children":[1,3,5,7,9,11,13,-1,-1,-1,-1,-1,-1,-1,-1],"loss_changes":[1.4948425E0,4.8346534E0,5.5763845E0,3.5025976E0,3.022585E0,5.4811954E-1,2.8273573E0,0E0,0E0,0E0,0E0,0E0,0E0,0E0,0E0],"parents":[2147483647,0,0,1,1,2,2,3,3,4,4,5,5,6,6],"right_children":[2,4,6,8,10,12,14,-1,-1,-1,-1,-1,-1,-1,-1],"split_conditions":[-2.786915E-2,2.6666667E0,-2.5108358E-2,3.2244317E-2,1.3055878E-2,4.96971E-3,-3.3333333E0,7.944359E-3,-5.8919895E-2,-1.6788866E-1,3.1952802E-2,2.432848E-1,3.673048E-2,-3.4567025E-2,1.4595005E-2],"split_indices":[1,5,1,0,0,0,5,0,0,0,0,0,0,0,0],"split_type":[0,0,0,0,0,0,0,0,0,0,0,0,0,0,0],"sum_hessian":[5.4056085E2,2.2475685E2,3.1580402E2,2.1005547E2,1.4701381E1,4.4108505E0,3.1139316E2,1.728202E2,3.7235264E1,1.1036539E1,3.6648417E0,3.3729954E0,1.0378554E0,5.6272686E1,2.5512047E2],"tree_param":{"num_deleted":"0","num_feature":"9","num_nodes":"15","size_leaf_vector":"1"}},{"base_weights":[1.2801839E-3,-1.9373919E-1,1.4310423E-2,-4.916863E-1,5.9749343E-2,6.075505E-1,7.3731584E-3,1.0721531E-1,-1.2033651E-1,4.682751E-2,-1.5506318E-1,2.0543519E-1,-8.112063E-2,-1.3445874E-2,9.346678E-3],"categories":[],"categories_nodes":[],"categories_segments":[],"categories_sizes":[],"default_left":[0,0,0,0,0,0,0,0,0,0,0,0,0,0,0],"id":38,"left_children":[1,3,5,7,9,11,13,-1,-1,-1,-1,-1,-1,-1,-1],"loss_changes":[1.3765624E0,2.591823E0,2.084899E0,2.097955E0,2.9809322E0,2.9062505E0,1.4796488E0,0E0,0E0,0E0,0E0,0E0,0E0,0E0,0E0],"parents":[2147483647,0,0,1,1,2,2,3,3,4,4,5,5,6,6],"right_children":[2,4,6,8,10,12,14,-1,-1,-1,-1,-1,-1,-1,-1],"split_conditions":[-2.1054278E-1,1E0,-2.0195067E-1,-8.146187E0,1E0,3.3333334E-1,-2.6666667E0,1.0721531E-1,-1.2033651E-1,4.682751E-2,-1.5506318E-1,2.0543519E-1,-8.112063E-2,-1.3445874E-2,9.346678E-3],"split_indices":[1,6,1,4,7,6,6,0,0,0,0,0,0,0,0],"split_type":[0,0,0,0,0,0,0,0,0,0,0,0,0,0,0],"sum_hessian":[5.3961755E2,3.2927902E1,5.0668964E2,1.4704612E1,1.822329E1,4.8559437E0,5.018337E2,1.0471208E0,1.3657491E1,1.56704235E1,2.5528657E0,3.4239717E0,1.4319718E0,1.7307779E2,3.2875592E2],"tree_param":{"num_deleted":"0","num_feature":"9","num_nodes":"15","size_leaf_vector":"1"}},{"base_weights":[9.259977E-4,-5.5989632E-3,3.7104204E-1,-1.4608814E-3,-1.6970043E-1,6.721651E-1,-2.611876E-1,-9.801048E-3,8.995614E-3,3.95164E-2,2.0519786E-1,-1.6289127E-1,6.183314E-2],"categories":[],"categories_nodes":[],"categories_segments":[],"categories_sizes":[],"default_left":[0,0,0,0,0,0,0,0,0,0,0,0,0],"id":39,"left_children":[1,3,5,7,-1,9,11,-1,-1,-1,-1,-1,-1],"loss_changes":[1.3080667E0,1.855775E0,1.9619728E0,1.1741658E0,0E0,9.1158557E-1,1.434358E0,0E0,0E0,0E0,0E0,0E0,0E0],"parents":[2147483647,0,0,1,1,2,2,3,3,5,5,6,6],"right_children":[2,4,6,8,-1,10,12,-1,-1,-1,-1,-1,-1],"split_conditions":[9.005593E0,1.1163819E-1,1.5E1,0E0,-1.6970043E-1,-1.6666666E0,6.5789476E-2,-9.801048E-3,8.995614E-3,3.95164E-2,2.0519786E-1,-1.6289127E-1,6.183314E-2],"split_indices":[4,0,8,0,0,6,2,0,0,0,0,0,0],"split_type":[0,0,0,0,0,0,0,0,0,0,0,0,0],"sum_hessian":[5.39784E2,5.314005E2,8.383454E0,5.2980133E2,1.5992312E0,5.635954E0,2.7475002E0,2.6175766E2,2.6804364E2,3.072816E0,2.5631378E0,1.1773913E0,1.5701089E0],"tree_param":{"num_deleted":"0","num_feature":"9","num_nodes":"13","size_leaf_vector":"1"}},{"base_weights":[7.637512E-4,4.906294E-1,-3.5709848E-3,1.4530796E-1,1.5140562E-1,-2.1989055E-1,8.178745E-3,1.4834575E-1,-1.1156881E-1,1.0731126E-1,-8.446219E-2,3.8751625E-3,-6.0149938E-2],"categories":[],"categories_nodes":[],"categories_segments":[],"categories_sizes":[],"default_left":[0,0,0,0,0,0,0,0,0,0,0,0,0],"id":40,"left_children":[1,3,5,7,-1,9,11,-1,-1,-1,-1,-1,-1],"loss_changes":[1.1481249E0,3.2627606E-1,1.3644627E0,1.798904E0,0E0,4.4612913E0,1.7681234E0,0E0,0E0,0E0,0E0,0E0,0E0],"parents":[2147483647,0,0,1,1,2,2,3,3,5,5,6,6],"right_children":[2,4,6,8,-1,10,12,-1,-1,-1,-1,-1,-1],"split_conditions":[-8E0,1.6744666E-2,-6E0,3E-1,1.5140562E-1,-3.4454435E-2,1.4333333E1,1.4834575E-1,-1.1156881E-1,1.0731126E-1,-8.446219E-2,3.8751625E-3,-6.0149938E-2],"split_indices":[7,0,7,3,0,0,5,0,0,0,0,0,0],"split_type":[0,0,0,0,0,0,0,0,0,0,0,0,0],"sum_hessian":[5.388664E2,3.7425077E0,5.351239E2,2.3028598E0,1.4396479E0,2.6656025E1,5.0846786E2,1.2163104E0,1.0865495E0,5.2787147E0,2.137731E1,4.9158762E2,1.6880241E1],"tree_param":{"num_deleted":"0","num_feature":"9","num_nodes":"13","size_leaf_vector":"1"}},{"base_weights":[9.803058E-4,-4.5001566E-1,5.5963215E-3,-1.8749706E-1,7.049383E-2,3.8140273E-1,-2.2132744E-3,2.1909675E-2,1.4671923E-1,-7.399007E-2,2.3284098E-3],"categories":[],"categories_nodes":[],"categories_segments":[],"categories_sizes":[],"default_left":[0,0,0,0,0,0,0,0,0,0,0],"id":41,"left_children":[1,3,5,-1,-1,7,9,-1,-1,-1,-1],"loss_changes":[1.1275024E0,2.4769607E0,1.5736597E0,0E0,0E0,9.6475077E-1,2.6842668E0,0E0,0E0,0E0,0E0],"parents":[2147483647,0,0,1,1,2,2,5,5,6,6],"right_children":[2,4,6,-1,-1,8,10,-1,-1,-1,-1],"split_conditions":[-3.1069675E-1,1.5E1,-2.5015995E-1,-1.8749706E-1,7.049383E-2,-2.1873887E-1,-2.1054278E-1,2.1909675E-2,1.4671923E-1,-7.399007E-2,2.3284098E-3],"split_indices":[1,8,1,0,0,4,1,0,0,0,0],"split_type":[0,0,0,0,0,0,0,0,0,0,0],"sum_hessian":[5.3938885E2,4.4872127E0,5.349017E2,2.6868544E0,1.8003584E0,9.915574E0,5.249861E2,6.33596E0,3.5796137E0,1.8128656E1,5.0685742E2],"tree_param":{"num_deleted":"0","num_feature":"9","num_nodes":"11","size_leaf_vector":"1"}},{"base_weights":[6.4884376E-4,-3.0314545E-3,1.1420196E-1,5.4125716E-3,-5.5789614E-1,3.9384905E-2,-1.7392527E-3,-1.7923255E-1,7.8578815E-2],"categories":[],"categories_nodes":[],"categories_segments":[],"categories_sizes":[],"default_left":[0,0,0,0,0,0,0,0,0],"id":42,"left_children":[1,3,-1,5,7,-1,-1,-1,-1],"loss_changes":[1.1344498E0,2.5197554E0,0E0,1.4340348E0,2.944878E0,0E0,0E0,0E0,0E0],"parents":[2147483647,0,0,1,1,3,3,4,4],"right_children":[2,4,-1,6,8,-1,-1,-1,-1],"split_conditions":[2.2E1,1.7E1,1.1420196E-1,-1.1666667E1,4.8521142E-2,3.9384905E-2,-1.7392527E-3,-1.7923255E-1,7.8578815E-2],"split_indices":[5,5,0,6,0,0,0,0,0],"split_type":[0,0,0,0,0,0,0,0,0],"sum_hessian":[5.386216E2,5.361567E2,2.4649074E0,5.2909503E2,7.0616145E0,3.541519E1,4.9367987E2,5.2509255E0,1.8106891E0],"tree_param":{"num_deleted":"0","num_feature":"9","num_nodes":"9","size_leaf_vector":"1"}},{"base_weights":[7.337754E-4,-2.8535306E-2,6.35981E-2,4.6101364E-4,-3.7179315E-1,5.075945E-1,-7.411885E-3,1.7309262E-3,-2.4497895E-1,-1.9417301E-1,-2.957726E-2,-2.093712E-2,1.3780932E-1,-1.099773E-1,9.191307E-3],"categories":[],"categories_nodes":[],"categories_segments":[],"categories_sizes":[],"default_left":[0,0,0,0,0,0,0,0,0,0,0,0,0,0,0],"id":43,"left_children":[1,3,5,7,9,11,13,-1,-1,-1,-1,-1,-1,-1,-1],"loss_changes":[9.94469E-1,3.6708705E0,5.4170313E0,3.4349482E0,3.7099085E0,2.703877E0,4.3392043E0,0E0,0E0,0E0,0E0,0E0,0E0,0E0,0E0],"parents":[2147483647,0,0,1,1,2,2,3,3,4,4,5,5,6,6],"right_children":[2,4,6,8,10,12,14,-1,-1,-1,-1,-1,-1,-1,-1],"split_conditions":[1.5579059E0,2.970046E-2,2.0861895E0,1.5022962E0,0E0,-8.310192E-2,2.3719783E0,1.7309262E-3,-2.4497895E-1,-1.9417301E-1,-2.957726E-2,-2.093712E-2,1.3780932E-1,-1.099773E-1,9.191307E-3],"split_indices":[4,0,4,4,7,1,4,0,0,0,0,0,0,0,0],"split_type":[0,0,0,0,0,0,0,0,0,0,0,0,0,0,0],"sum_hessian":[5.384915E2,3.6779532E2,1.7069621E2,3.4006717E2,2.7728136E1,2.2688166E1,1.4800804E2,3.3879468E2,1.27249E0,6.636333E0,2.1091803E1,5.2833695E0,1.7404797E1,1.242347E1,1.3558458E2],"tree_param":{"num_deleted":"0","num_feature":"9","num_nodes":"15","size_leaf_vector":"1"}},{"base_weights":[-6.931775E-5,-1.3732469E-2,1.4650658E-1,-8.379855E-3,-5.474678E-1,-3.4828945E-3,6.456561E-1,-2.8857158E-3,1.6867684E-1,-2.2470403E-1,3.7990477E-2,-3.3448614E-2,1.04888976E-1,1.8953183E-1,4.017847E-2],"categories":[],"categories_nodes":[],"categories_segments":[],"categories_sizes":[],"default_left":[0,0,0,0,0,0,0,0,0,0,0,0,0,0,0],"id":44,"left_children":[1,3,5,7,9,11,13,-1,-1,-1,-1,-1,-1,-1,-1],"loss_changes":[1.0809653E0,1.405936E0,3.4479113E0,2.535877E0,2.2892482E0,3.2332456E0,1.2387276E0,0E0,0E0,0E0,0E0,0E0,0E0,0E0,0E0],"parents":[2147483647,0,0,1,1,2,2,3,3,4,4,5,5,6,6],"right_children":[2,4,6,8,10,12,14,-1,-1,-1,-1,-1,-1,-1,-1],"split_conditions":[3.5714287E-1,1.0827267E-1,3.6742318E0,1.0333141E-1,7.956853E-3,1.1E1,5.678447E0,-2.8857158E-3,1.6867684E-1,-2.2470403E-1,3.7990477E-2,-3.3448614E-2,1.04888976E-1,1.8953183E-1,4.017847E-2],"split_indices":[2,0,4,0,1,8,4,0,0,0,0,0,0,0,0],"split_type":[0,0,0,0,0,0,0,0,0,0,0,0,0,0,0],"sum_hessian":[5.377525E2,4.9272882E2,4.5023666E1,4.888421E2,3.886697E0,3.5384117E1,9.639552E0,4.8637125E2,2.4708605E0,1.8881469E0,1.9985502E0,2.7528227E1,7.8558893E0,5.0677514E0,4.5718007E0],"tree_param":{"num_deleted":"0","num_feature":"9","num_nodes":"15","size_leaf_vector":"1"}},{"base_weights":[6.867393E-4,4.559188E-1,-3.1948853E-3,1.1030018E-1,1.4462483E-1,1.9260706E-2,-9.067104E-2,1.3535433E-1,-9.8563746E-2,-6.584191E-3,4.010288E-2,-8.894623E-2,1.3728428E-3],"categories":[],"categories_nodes":[],"categories_segments":[],"categories_sizes":[],"default_left":[0,0,0,0,0,0,0,0,0,0,0,0,0],"id":45,"left_children":[1,3,5,7,-1,9,11,-1,-1,-1,-1,-1,-1],"loss_changes":[9.516224E-1,3.407265E-1,1.0510181E0,1.4149351E0,0E0,4.034579E0,3.7771275E0,0E0,0E0,0E0,0E0,0E0,0E0],"parents":[2147483647,0,0,1,1,2,2,3,3,5,5,6,6],"right_children":[2,4,6,8,-1,10,12,-1,-1,-1,-1,-1,-1],"split_conditions":[-8E0,8.719774E-1,3.291974E-2,3E-1,1.4462483E-1,4.96971E-3,-2.0833333E-1,1.3535433E-1,-9.8563746E-2,-6.584191E-3,4.010288E-2,-8.894623E-2,1.3728428E-3],"split_indices":[7,4,0,3,0,0,2,0,0,0,0,0,0],"split_type":[0,0,0,0,0,0,0,0,0,0,0,0,0],"sum_hessian":[5.367161E2,3.5531359E0,5.3316296E2,2.165259E0,1.387877E0,4.248751E2,1.08287865E2,1.0535791E0,1.1116798E0,3.3053482E2,9.434028E1,2.261912E1,8.566875E1],"tree_param":{"num_deleted":"0","num_feature":"9","num_nodes":"13","size_leaf_vector":"1"}},{"base_weights":[8.222455E-4,1.1739623E-1,-2.4644071E-3,-1.653372E-1,1.2813793E-3,1.1988747E-3,-8.357298E-2],"categories":[],"categories_nodes":[],"categories_segments":[],"categories_sizes":[],"default_left":[0,0,0,0,0,0,0],"id":46,"left_children":[1,-1,3,-1,5,-1,-1],"loss_changes":[1.0346359E0,0E0,1.6506629E0,0E0,1.0551944E0,0E0,0E0],"parents":[2147483647,0,0,2,2,4,4],"right_children":[2,-1,4,-1,6,-1,-1],"split_conditions":[-2.0333334E1,1.1739623E-1,-1.9333334E1,-1.653372E-1,2.8912622E-1,1.1988747E-3,-8.357298E-2],"split_indices":[6,0,6,0,1,0,0],"split_type":[0,0,0,0,0,0,0],"sum_hessian":[5.353037E2,1.9945232E0,5.3330914E2,1.4188021E0,5.318904E2,5.2695087E2,4.9394803E0],"tree_param":{"num_deleted":"0","num_feature":"9","num_nodes":"7","size_leaf_vector":"1"}},{"base_weights":[4.479891E-4,-2.4891656E-3,1.2829874E-1,9.466014E-3,-2.2195128E-1,-2.4622086E-2,5.6635044E-3,-1.623489E-1,-9.414278E-3],"categories":[],"categories_nodes":[],"categories_segments":[],"categories_sizes":[],"default_left":[0,0,0,0,0,0,0,0,0],"id":47,"left_children":[1,3,-1,5,7,-1,-1,-1,-1],"loss_changes":[1.0115002E0,1.4055734E0,0E0,1.2737232E0,2.8162935E0,0E0,0E0,0E0,0E0],"parents":[2147483647,0,0,1,1,3,3,4,4],"right_children":[2,4,-1,6,8,-1,-1,-1,-1],"split_conditions":[2.5E1,1.4333333E1,1.2829874E-1,-5.0869613E0,-1.1346756E-1,-2.4622086E-2,5.6635044E-3,-1.623489E-1,-9.414278E-3],"split_indices":[6,6,0,4,1,0,0,0,0],"split_type":[0,0,0,0,0,0,0,0,0],"sum_hessian":[5.3536945E2,5.3391925E2,1.450204E0,5.0724405E2,2.667521E1,6.2459118E1,4.4478494E2,5.2677326E0,2.1407478E1],"tree_param":{"num_deleted":"0","num_feature":"9","num_nodes":"9","size_leaf_vector":"1"}},{"base_weights":[1.6614769E-4,-3.0486486E-3,1.05263844E-1,3.765554E-3,-4.2869583E-1,-2.1939713E-3,5.304562E-2,5.956587E-2,-1.6189814E-1],"categories":[],"categories_nodes":[],"categories_segments":[],"categories_sizes":[],"default_left":[0,0,0,0,0,0,0,0,0],"id":48,"left_children":[1,3,-1,5,7,-1,-1,-1,-1],"loss_changes":[9.0705556E-1,1.5476857E0,0E0,2.0280666E0,2.567168E0,0E0,0E0,0E0,0E0],"parents":[2147483647,0,0,1,1,3,3,4,4],"right_children":[2,4,-1,6,8,-1,-1,-1,-1],"split_conditions":[2.2E1,1.7E1,1.05263844E-1,1.6990615E-1,7.1428575E-2,-2.1939713E-3,5.304562E-2,5.956587E-2,-1.6189814E-1],"split_indices":[5,5,0,1,2,0,0,0,0],"split_type":[0,0,0,0,0,0,0,0,0],"sum_hessian":[5.343027E2,5.320461E2,2.2565973E0,5.246383E2,7.4078026E0,4.975553E2,2.7082994E1,2.6223845E0,4.785418E0],"tree_param":{"num_deleted":"0","num_feature":"9","num_nodes":"9","size_leaf_vector":"1"}},{"base_weights":[3.553917E-4,1.8971011E-1,-8.89089E-3,5.219665E-1,-1.7384069E-1,-3.7042195E-1,9.68984E-3,2.081552E-1,-5.3919096E-2,-8.238638E-2,1.3753788E-1,-1.18743256E-1,3.932559E-2,-5.3676397E-2,5.0548255E-3],"categories":[],"categories_nodes":[],"categories_segments":[],"categories_sizes":[],"default_left":[0,0,0,0,0,0,0,0,0,0,0,0,0,0,0],"id":49,"left_children":[1,3,5,7,9,11,13,-1,-1,-1,-1,-1,-1,-1,-1],"loss_changes":[9.3816453E-1,3.104151E0,3.4357688E0,5.736089E0,2.8806894E0,3.2823336E0,2.1169164E0,0E0,0E0,0E0,0E0,0E0,0E0,0E0,0E0],"parents":[2147483647,0,0,1,1,2,2,3,3,4,4,5,5,6,6],"right_children":[2,4,6,8,10,12,14,-1,-1,-1,-1,-1,-1,-1,-1],"split_conditions":[-8.722456E-2,-9.090909E-2,-6.762787E-2,-1.6666666E0,2E0,2E-1,-5.6850157E0,2.081552E-1,-5.3919096E-2,-8.238638E-2,1.3753788E-1,-1.18743256E-1,3.932559E-2,-5.3676397E-2,5.0548255E-3],"split_indices":[0,2,0,5,5,3,4,0,0,0,0,0,0,0,0],"split_type":[0,0,0,0,0,0,0,0,0,0,0,0,0,0,0],"sum_hessian":[5.338774E2,2.3947096E1,5.099303E2,1.2284394E1,1.1662702E1,2.4000929E1,4.8592938E2,7.2305036E0,5.0538907E0,9.546347E0,2.1163545E0,1.7186256E1,6.8146725E0,2.4927338E1,4.6100204E2],"tree_param":{"num_deleted":"0","num_feature":"9","num_nodes":"15","size_leaf_vector":"1"}},{"base_weights":[2.3986486E-4,-5.0238305E-1,3.5370188E-3,-1.3481532E-1,-2.0342957E-2,9.053804E-2,-2.0053511E-2,3.334668E-2,-9.036266E-2,-2.8127356E-2,6.5134824E-3],"categories":[],"categories_nodes":[],"categories_segments":[],"categories_sizes":[],"default_left":[0,0,0,0,0,0,0,0,0,0,0],"id":50,"left_children":[1,3,5,-1,-1,7,9,-1,-1,-1,-1],"loss_changes":[8.8676715E-1,1.7133343E-1,1.092732E0,0E0,0E0,4.768308E0,2.6630197E0,0E0,0E0,0E0,0E0],"parents":[2147483647,0,0,1,1,2,2,5,5,6,6],"right_children":[2,4,6,-1,-1,8,10,-1,-1,-1,-1],"split_conditions":[-2.3E1,-1.4333135E0,-7.3333335E0,-1.3481532E-1,-2.0342957E-2,4.00087E-2,-2.786915E-2,3.334668E-2,-9.036266E-2,-2.8127356E-2,6.5134824E-3],"split_indices":[5,4,5,0,0,0,1,0,0,0,0],"split_type":[0,0,0,0,0,0,0,0,0,0,0],"sum_hessian":[5.330193E2,2.4872715E0,5.30532E2,1.2634708E0,1.2238009E0,1.1256361E2,4.1796838E2,9.930477E1,1.325883E1,1.26474236E2,2.9149414E2],"tree_param":{"num_deleted":"0","num_feature":"9","num_nodes":"11","size_leaf_vector":"1"}},{"base_weights":[-2.8568946E-4,-5.687512E-3,3.1870848E-1,1.0030563E-2,-1.5731183E-1,6.0901695E-1,-2.6541847E-1,6.167108E-4,1.134421E-1,5.166591E-3,-9.491767E-2,1.7179245E-1,-1.1115976E-2,3.0388942E-2,-1.2762712E-1],"categories":[],"categories_nodes":[],"categories_segments":[],"categories_sizes":[],"default_left":[0,0,0,0,0,0,0,0,0,0,0,0,0,0,0],"id":51,"left_children":[1,3,5,7,9,11,13,-1,-1,-1,-1,-1,-1,-1,-1],"loss_changes":[9.215227E-1,1.254764E0,1.6717782E0,1.8460705E0,2.885685E0,1.0863307E0,6.6521406E-1,0E0,0E0,0E0,0E0,0E0,0E0,0E0,0E0],"parents":[2147483647,0,0,1,1,2,2,3,3,4,4,5,5,6,6],"right_children":[2,4,6,8,10,12,14,-1,-1,-1,-1,-1,-1,-1,-1],"split_conditions":[9.005593E0,5.3012673E-2,1.5E1,6.789435E0,1.2E1,3.3333333E0,-6.666667E-1,6.167108E-4,1.134421E-1,5.166591E-3,-9.491767E-2,1.7179245E-1,-1.1115976E-2,3.0388942E-2,-1.2762712E-1],"split_indices":[4,0,8,4,8,5,6,0,0,0,0,0,0,0,0],"split_type":[0,0,0,0,0,0,0,0,0,0,0,0,0,0,0],"sum_hessian":[5.327376E2,5.2483234E2,7.9052997E0,4.763822E2,4.8450127E1,5.252313E0,2.6529865E0,4.715089E2,4.8733144E0,3.1300688E1,1.7149439E1,3.604323E0,1.64799E0,1.5309658E0,1.1220207E0],"tree_param":{"num_deleted":"0","num_feature":"9","num_nodes":"15","size_leaf_vector":"1"}},{"base_weights":[7.1041606E-5,2.7796475E-3,-1.1786582E-1,-3.8854135E-3,2.8887588E-1,6.214623E-4,-8.002179E-2,-1.884168E-1,1.0903721E-1],"categories":[],"categories_nodes":[],"categories_segments":[],"categories_sizes":[],"default_left":[0,0,0,0,0,0,0,0,0],"id":52,"left_children":[1,3,-1,5,7,-1,-1,-1,-1],"loss_changes":[8.537656E-1,1.0161699E0,0E0,1.44528E0,4.341378E0,0E0,0E0,0E0,0E0],"parents":[2147483647,0,0,1,1,3,3,4,4],"right_children":[2,4,-1,6,8,-1,-1,-1,-1],"split_conditions":[1.2170671E-1,9.114821E-2,-1.1786582E-1,8.064036E-2,-1.0666667E1,6.214623E-4,-8.002179E-2,-1.884168E-1,1.0903721E-1],"split_indices":[0,0,0,0,5,0,0,0,0],"split_type":[0,0,0,0,0,0,0,0,0],"sum_hessian":[5.3276306E2,5.3131665E2,1.4463975E0,5.201846E2,1.1132096E1,5.121383E2,8.046281E0,1.4573653E0,9.674731E0],"tree_param":{"num_deleted":"0","num_feature":"9","num_nodes":"9","size_leaf_vector":"1"}},{"base_weights":[-3.967699E-4,-4.0517867E-1,3.591275E-3,-1.760152E-1,6.275034E-2,3.052767E-1,-2.8333047E-3,1.2818684E-1,-1.18924476E-1,-6.1109927E-2,1.6663888E-3],"categories":[],"categories_nodes":[],"categories_segments":[],"categories_sizes":[],"default_left":[0,0,0,0,0,0,0,0,0,0,0],"id":53,"left_children":[1,3,5,-1,-1,7,9,-1,-1,-1,-1],"loss_changes":[8.626098E-1,2.056044E0,1.0266476E0,0E0,0E0,3.717276E0,1.7573906E0,0E0,0E0,0E0,0E0],"parents":[2147483647,0,0,1,1,2,2,5,5,6,6],"right_children":[2,4,6,-1,-1,8,10,-1,-1,-1,-1],"split_conditions":[-3.1069675E-1,1.5E1,-2.5015995E-1,-1.760152E-1,6.275034E-2,-1.0666667E1,-2.1054278E-1,1.2818684E-1,-1.18924476E-1,-6.1109927E-2,1.6663888E-3],"split_indices":[1,8,1,0,0,5,1,0,0,0,0],"split_type":[0,0,0,0,0,0,0,0,0,0,0],"sum_hessian":[5.3245776E2,4.213311E0,5.2824445E2,2.4022996E0,1.8110117E0,1.0044779E1,5.181997E2,7.5255575E0,2.519221E0,1.7495274E1,5.007044E2],"tree_param":{"num_deleted":"0","num_feature":"9","num_nodes":"11","size_leaf_vector":"1"}},{"base_weights":[-7.3990796E-4,-5.491463E-2,2.7433584E-2,3.8533323E-2,-3.4968424E-1,4.8152795E-1,6.7863846E-3,-1.0181642E-2,8.5923634E-2,-1.0959151E-2,-2.0526126E-1,1.3708912E-1,-1.6759393E-1,-1.0989878E-3,1.3671012E-1],"categories":[],"categories_nodes":[],"categories_segments":[],"categories_sizes":[],"default_left":[0,0,0,0,0,0,0,0,0,0,0,0,0,0,0],"id":54,"left_children":[1,3,5,7,9,11,13,-1,-1,-1,-1,-1,-1,-1,-1],"loss_changes":[8.148462E-1,5.044615E0,3.2898684E0,4.904383E0,8.735849E0,4.6808023E0,2.8045623E0,0E0,0E0,0E0,0E0,0E0,0E0,0E0,0E0],"parents":[2147483647,0,0,1,1,2,2,3,3,4,4,5,5,6,6],"right_children":[2,4,6,8,10,12,14,-1,-1,-1,-1,-1,-1,-1,-1],"split_conditions":[-2.6666667E0,-4.6666665E0,-2E0,1E0,2.213234E0,2.6190478E-1,9.742349E-2,-1.0181642E-2,8.5923634E-2,-1.0959151E-2,-2.0526126E-1,1.3708912E-1,-1.6759393E-1,-1.0989878E-3,1.3671012E-1],"split_indices":[6,6,6,7,4,2,0,0,0,0,0,0,0,0,0],"split_type":[0,0,0,0,0,0,0,0,0,0,0,0,0,0,0],"sum_hessian":[5.3188635E2,1.816476E2,3.5023877E2,1.3858319E2,4.306441E1,1.4261589E1,3.3597717E2,1.1349629E2,2.5086897E1,3.0745674E1,1.2318735E1,1.27688E1,1.4927895E0,3.3096304E2,5.0141463E0],"tree_param":{"num_deleted":"0","num_feature":"9","num_nodes":"15","size_leaf_vector":"1"}},{"base_weights":[-3.5088143E-4,1.059639E-1,-3.1881775E-3,-1.4207616E-1,4.1128642E-5,1.0122776E-1,-6.5862096E-4],"categories":[],"categories_nodes":[],"categories_segments":[],"categories_sizes":[],"default_left":[0,0,0,0,0,0,0],"id":55,"left_children":[1,-1,3,-1,5,-1,-1],"loss_changes":[8.03478E-1,0E0,1.2130893E0,0E0,8.9560515E-1,0E0,0E0],"parents":[2147483647,0,0,2,2,4,4],"right_children":[2,-1,4,-1,6,-1,-1],"split_conditions":[-2.0333334E1,1.059639E-1,-1.9333334E1,-1.4207616E-1,-1.7666666E1,1.0122776E-1,-6.5862096E-4],"split_indices":[6,0,6,0,6,0,0],"split_type":[0,0,0,0,0,0,0],"sum_hessian":[5.3201556E2,1.8433194E0,5.3017224E2,1.4145634E0,5.287576E2,2.4737296E0,5.2628394E2],"tree_param":{"num_deleted":"0","num_feature":"9","num_nodes":"7","size_leaf_vector":"1"}},{"base_weights":[-1.4225056E-4,4.266751E-1,-3.6489584E-3,1.09632716E-1,1.3506822E-1,-1.8730628E-1,8.716464E-3,5.8951724E-2,-2.6353091E-2,-1.3752422E-1,5.967022E-2,-1.9315042E-3,5.4394927E-2],"categories":[],"categories_nodes":[],"categories_segments":[],"categories_sizes":[],"default_left":[0,0,0,0,0,0,0,0,0,0,0,0,0],"id":56,"left_children":[1,3,5,7,-1,9,11,-1,-1,-1,-1,-1,-1],"loss_changes":[7.990323E-1,2.6893407E-1,1.2040446E0,1.776465E-1,0E0,8.331395E0,2.4067616E0,0E0,0E0,0E0,0E0,0E0,0E0],"parents":[2147483647,0,0,1,1,2,2,3,3,5,5,6,6],"right_children":[2,4,6,8,-1,10,12,-1,-1,-1,-1,-1,-1],"split_conditions":[-8E0,8.719774E-1,2E0,-3.362908E-2,1.3506822E-1,2E0,4E0,5.8951724E-2,-2.6353091E-2,-1.3752422E-1,5.967022E-2,-1.9315042E-3,5.4394927E-2],"split_indices":[7,4,8,0,0,6,7,0,0,0,0,0,0],"split_type":[0,0,0,0,0,0,0,0,0,0,0,0,0],"sum_hessian":[5.3181396E2,3.3503768E0,5.284636E2,2.1060736E0,1.2443032E0,3.2443863E1,4.9601974E2,1.066861E0,1.0392127E0,1.577594E1,1.6667921E1,4.6455936E2,3.1460394E1],"tree_param":{"num_deleted":"0","num_feature":"9","num_nodes":"13","size_leaf_vector":"1"}},{"base_weights":[2.1721804E-4,-2.0486881E-1,7.0886007E-3,-4.2038482E-1,4.5320258E-1,4.400765E-1,9.008143E-4,-3.163427E-2,-1.6793865E-1,-2.8257439E-2,1.4941546E-1,-2.322077E-3,1.6434619E-1,-3.8755545E-4,1.1951655E-1],"categories":[],"categories_nodes":[],"categories_segments":[],"categories_sizes":[],"default_left":[0,0,0,0,0,0,0,0,0,0,0,0,0,0,0],"id":57,"left_children":[1,3,5,7,9,11,13,-1,-1,-1,-1,-1,-1,-1,-1],"loss_changes":[7.5179887E-1,2.643366E0,1.3825147E0,1.3566527E0,9.3503773E-1,1.2628706E0,8.647742E-1,0E0,0E0,0E0,0E0,0E0,0E0,0E0,0E0],"parents":[2147483647,0,0,1,1,2,2,3,3,4,4,5,5,6,6],"right_children":[2,4,6,8,10,12,14,-1,-1,-1,-1,-1,-1,-1,-1],"split_conditions":[-1.6E1,-7.692308E-2,-1.5E1,-1.7E1,-3E-1,-3.3333334E-1,2.5E1,-3.163427E-2,-1.6793865E-1,-2.8257439E-2,1.4941546E-1,-2.322077E-3,1.6434619E-1,-3.8755545E-4,1.1951655E-1],"split_indices":[5,2,5,5,3,6,6,0,0,0,0,0,0,0,0],"split_type":[0,0,0,0,0,0,0,0,0,0,0,0,0,0,0],"sum_hessian":[5.314535E2,1.6294891E1,5.151586E2,1.2546986E1,3.7479064E0,6.2703896E0,5.088882E2,8.56691E0,3.9800756E0,1.4115856E0,2.3363209E0,3.3157673E0,2.9546225E0,5.074708E2,1.4174355E0],"tree_param":{"num_deleted":"0","num_feature":"9","num_nodes":"15","size_leaf_vector":"1"}},{"base_weights":[4.8202596E-4,-4.8869523E-1,3.5271568E-3,-1.254507E-1,-2.5761211E-2,8.001765E-2,-1.72156E-2,8.6110994E-2,-7.107928E-3,5.4011136E-2,-6.6502574E-3],"categories":[],"categories_nodes":[],"categories_segments":[],"categories_sizes":[],"default_left":[0,0,0,0,0,0,0,0,0,0,0],"id":58,"left_children":[1,3,5,-1,-1,7,9,-1,-1,-1,-1],"loss_changes":[7.941989E-1,8.368242E-2,8.418183E-1,0E0,0E0,4.5998473E0,1.9323474E0,0E0,0E0,0E0,0E0],"parents":[2147483647,0,0,1,1,2,2,5,5,6,6],"right_children":[2,4,6,-1,-1,8,10,-1,-1,-1,-1],"split_conditions":[-2.3E1,-1.4333135E0,-7.3333335E0,-1.254507E-1,-2.5761211E-2,0E0,-6.6897874E0,8.6110994E-2,-7.107928E-3,5.4011136E-2,-6.6502574E-3],"split_indices":[5,4,5,0,0,7,4,0,0,0,0],"split_type":[0,0,0,0,0,0,0,0,0,0,0],"sum_hessian":[5.3100226E2,2.2983944E0,5.2870386E2,1.1230934E0,1.1753011E0,1.1217872E2,4.1652515E2,2.7136274E1,8.504244E1,2.1183973E1,3.9534116E2],"tree_param":{"num_deleted":"0","num_feature":"9","num_nodes":"11","size_leaf_vector":"1"}},{"base_weights":[2.9264853E-4,2.8788685E-3,-1.0976942E-1,-4.646477E-3,2.4236563E-1,1.4801918E-3,-4.466695E-2,1.407847E-1,-2.8768003E-2],"categories":[],"categories_nodes":[],"categories_segments":[],"categories_sizes":[],"default_left":[0,0,0,0,0,0,0,0,0],"id":59,"left_children":[1,3,-1,5,7,-1,-1,-1,-1],"loss_changes":[7.582415E-1,9.5861685E-1,0E0,1.3613323E0,2.98983E0,0E0,0E0,0E0,0E0],"parents":[2147483647,0,0,1,1,3,3,4,4],"right_children":[2,4,-1,6,8,-1,-1,-1,-1],"split_conditions":[1.2170671E-1,7.1960683E0,-1.0976942E-1,5.181292E0,8.064036E-2,1.4801918E-3,-4.466695E-2,1.407847E-1,-2.8768003E-2],"split_indices":[0,4,0,4,0,0,0,0,0],"split_type":[0,0,0,0,0,0,0,0,0],"sum_hessian":[5.317866E2,5.3028394E2,1.5026596E0,5.150793E2,1.5204638E1,4.891011E2,2.5978197E1,6.551826E0,8.652811E0],"tree_param":{"num_deleted":"0","num_feature":"9","num_nodes":"9","size_leaf_vector":"1"}},{"base_weights":[2.5560643E-4,-3.973635E-1,3.9347997E-3,-1.663242E-1,4.3226995E-2,9.6396215E-2,-1.2878607E-2,-4.1191583E-3,8.38828E-2,-4.652196E-2,3.395412E-3],"categories":[],"categories_nodes":[],"categories_segments":[],"categories_sizes":[],"default_left":[0,0,0,0,0,0,0,0,0,0,0],"id":60,"left_children":[1,3,5,-1,-1,7,9,-1,-1,-1,-1],"loss_changes":[7.809274E-1,1.4836216E0,8.2339036E-1,0E0,0E0,3.088144E0,2.9453108E0,0E0,0E0,0E0,0E0],"parents":[2147483647,0,0,1,1,2,2,5,5,6,6],"right_children":[2,4,6,-1,-1,8,10,-1,-1,-1,-1],"split_conditions":[-3.1069675E-1,1.5E1,-1.3165498E-1,-1.663242E-1,4.3226995E-2,-1.555095E-1,-8.4809385E-2,-4.1191583E-3,8.38828E-2,-4.652196E-2,3.395412E-3],"split_indices":[1,8,1,0,0,1,1,0,0,0,0],"split_type":[0,0,0,0,0,0,0,0,0,0,0],"sum_hessian":[5.317463E2,3.8941426E0,5.278522E2,2.0719788E0,1.8221638E0,8.04889E1,4.4736325E2,5.9775414E1,2.0713484E1,5.2701385E1,3.9466187E2],"tree_param":{"num_deleted":"0","num_feature":"9","num_nodes":"11","size_leaf_vector":"1"}},{"base_weights":[-2.1234555E-5,-2.8323443E-3,9.606909E-2,2.9526255E-3,-3.4790635E-1,-1.787294E-3,4.373802E-2,-3.515087E-3,-1.9252448E-1],"categories":[],"categories_nodes":[],"categories_segments":[],"categories_sizes":[],"default_left":[0,0,0,0,0,0,0,0,0],"id":61,"left_children":[1,3,-1,5,7,-1,-1,-1,-1],"loss_changes":[7.197777E-1,1.0588692E0,0E0,1.3412828E0,1.7589787E0,0E0,0E0,0E0,0E0],"parents":[2147483647,0,0,1,1,3,3,4,4],"right_children":[2,4,-1,6,8,-1,-1,-1,-1],"split_conditions":[2.2E1,1.7E1,9.606909E-2,1.6990615E-1,3.0087295E-1,-1.787294E-3,4.373802E-2,-3.515087E-3,-1.9252448E-1],"split_indices":[5,5,0,1,1,0,0,0,0],"split_type":[0,0,0,0,0,0,0,0,0],"sum_hessian":[5.310177E2,5.2891656E2,2.10112E0,5.211709E2,7.7456903E0,4.9485828E2,2.6312613E1,5.7073264E0,2.038364E0],"tree_param":{"num_deleted":"0","num_feature":"9","num_nodes":"9","size_leaf_vector":"1"}},{"base_weights":[-5.5854325E-5,-1.1081179E-2,1.20832674E-1,8.52582E-2,-3.296966E-2,-1.2028334E-2,5.9403944E-1,8.156785E-2,-1.9894984E-2,-5.9079807E-2,-1.505953E-3,9.558761E-2,-3.6011253E-2,1.8170731E-1,3.389777E-2],"categories":[],"categories_nodes":[],"categories_segments":[],"categories_sizes":[],"default_left":[0,0,0,0,0,0,0,0,0,0,0,0,0,0,0],"id":62,"left_children":[1,3,5,7,9,11,13,-1,-1,-1,-1,-1,-1,-1,-1],"loss_changes":[7.098041E-1,1.0319455E0,2.8055592E0,5.4415226E0,2.6575897E0,3.0279016E0,1.1514881E0,0E0,0E0,0E0,0E0,0E0,0E0,0E0,0E0],"parents":[2147483647,0,0,1,1,2,2,3,3,4,4,5,5,6,6],"right_children":[2,4,6,8,10,12,14,-1,-1,-1,-1,-1,-1,-1,-1],"split_conditions":[3.5714287E-1,4E0,3.6742318E0,-1.608857E-2,-4.1666666E-1,-3.628426E-2,5.678447E0,8.156785E-2,-1.9894984E-2,-5.9079807E-2,-1.505953E-3,9.558761E-2,-3.6011253E-2,1.8170731E-1,3.389777E-2],"split_indices":[2,8,4,0,2,0,4,0,0,0,0,0,0,0,0],"split_type":[0,0,0,0,0,0,0,0,0,0,0,0,0,0,0],"sum_hessian":[5.305475E2,4.870369E2,4.35106E1,8.963309E1,3.974038E2,3.4733227E1,8.777374E0,3.2199165E1,5.743392E1,3.4182014E1,3.6322177E2,8.398616E0,2.633461E1,4.3873396E0,4.3900347E0],"tree_param":{"num_deleted":"0","num_feature":"9","num_nodes":"15","size_leaf_vector":"1"}},{"base_weights":[5.609454E-4,-4.1343413E-2,4.028276E-2,-9.779622E-3,-7.375571E-1,-2.9632285E-1,6.404931E-2,4.502184E-2,-9.022055E-3,-3.6694463E-2,-2.8948566E-1,-1.2670685E-1,9.8753996E-2,2.8807586E-2,-7.467558E-3],"categories":[],"categories_nodes":[],"categories_segments":[],"categories_sizes":[],"default_left":[0,0,0,0,0,0,0,0,0,0,0,0,0,0,0],"id":63,"left_children":[1,3,5,7,9,11,13,-1,-1,-1,-1,-1,-1,-1,-1],"loss_changes":[8.8473785E-1,5.6769795E0,2.2018716E0,2.0720665E0,4.1416388E0,5.1546364E0,2.0789766E0,0E0,0E0,0E0,0E0,0E0,0E0,0E0,0E0],"parents":[2147483647,0,0,1,1,2,2,3,3,4,4,5,5,6,6],"right_children":[2,4,6,8,10,12,14,-1,-1,-1,-1,-1,-1,-1,-1],"split_conditions":[0E0,-2.6856824E-3,-6E0,3E0,2.3333333E0,3.6470742E0,2.8492773E-2,4.502184E-2,-9.022055E-3,-3.6694463E-2,-2.8948566E-1,-1.2670685E-1,9.8753996E-2,2.8807586E-2,-7.467558E-3],"split_indices":[0,0,7,8,5,4,0,0,0,0,0,0,0,0,0],"split_type":[0,0,0,0,0,0,0,0,0,0,0,0,0,0,0],"sum_hessian":[5.295277E2,2.5766464E2,2.7186307E2,2.4745978E2,1.0204878E1,1.7173056E1,2.5469E2,3.1652555E1,2.1580722E2,6.4381137E0,3.7667637E0,1.2174945E1,4.998111E0,1.4213385E2,1.1255615E2],"tree_param":{"num_deleted":"0","num_feature":"9","num_nodes":"15","size_leaf_vector":"1"}},{"base_weights":[3.4994424E-5,4.6946964E-1,-2.8073473E-3,1.4273201E-1,-1.3914625E-3,-1.3822345E-1,9.590147E-4,1.6102299E-1,-5.521079E-4],"categories":[],"categories_nodes":[],"categories_segments":[],"categories_sizes":[],"default_left":[0,0,0,0,0,0,0,0,0],"id":64,"left_children":[1,3,5,-1,-1,-1,7,-1,-1],"loss_changes":[7.088999E-1,3.769608E-1,1.3697402E0,0E0,0E0,0E0,1.5762345E0,0E0,0E0],"parents":[2147483647,0,0,1,1,2,2,6,6],"right_children":[2,4,6,-1,-1,-1,8,-1,-1],"split_conditions":[-2E1,6.361859E-3,-1.9E1,1.4273201E-1,-1.3914625E-3,-1.3822345E-1,-1.7666666E1,1.6102299E-1,-5.521079E-4],"split_indices":[6,0,6,0,0,0,6,0,0],"split_type":[0,0,0,0,0,0,0,0,0],"sum_hessian":[5.293045E2,2.1975174E0,5.27107E2,1.1236526E0,1.0738649E0,1.875407E0,5.2523157E2,1.4262493E0,5.238053E2],"tree_param":{"num_deleted":"0","num_feature":"9","num_nodes":"9","size_leaf_vector":"1"}},{"base_weights":[3.680609E-4,-1.4077574E-1,1.0831419E-2,1.1420813E-1,-1.2198447E0,2.1338017E-1,-4.515742E-3,-1.3801204E-2,1.4614622E-1,-3.193661E-1,-6.187285E-2,1.7887941E-1,-1.6767569E-3,2.5182355E-3,-6.417757E-2],"categories":[],"categories_nodes":[],"categories_segments":[],"categories_sizes":[],"default_left":[0,0,0,0,0,0,0,0,0,0,0,0,0,0,0],"id":65,"left_children":[1,3,5,7,9,11,13,-1,-1,-1,-1,-1,-1,-1,-1],"loss_changes":[7.8445804E-1,1.022609E1,1.5380839E0,3.5031714E0,1.9404402E0,5.2705336E0,2.4970558E0,0E0,0E0,0E0,0E0,0E0,0E0,0E0,0E0],"parents":[2147483647,0,0,1,1,2,2,3,3,4,4,5,5,6,6],"right_children":[2,4,6,8,10,12,14,-1,-1,-1,-1,-1,-1,-1,-1],"split_conditions":[2E0,8.9468084E-2,3E0,2.403872E0,9E0,-3.0913245E-2,1.4333333E1,-1.3801204E-2,1.4614622E-1,-3.193661E-1,-6.187285E-2,1.7887941E-1,-1.6767569E-3,2.5182355E-3,-6.417757E-2],"split_indices":[8,1,8,4,5,0,6,0,0,0,0,0,0,0,0],"split_type":[0,0,0,0,0,0,0,0,0,0,0,0,0,0,0],"sum_hessian":[5.291415E2,3.5659824E1,4.9348166E2,2.956725E1,6.092577E0,3.3848774E1,4.5963287E2,2.3478222E1,6.0890274E0,3.775495E0,2.3170817E0,7.569728E0,2.6279047E1,4.3696542E2,2.2667458E1],"tree_param":{"num_deleted":"0","num_feature":"9","num_nodes":"15","size_leaf_vector":"1"}},{"base_weights":[1.2124843E-4,-2.4635075E-3,1.093444E-1,-4.9654506E-2,2.8874531E-2,1.9985018E-3,-6.319241E-2,7.342024E-2,-1.9717652E-3],"categories":[],"categories_nodes":[],"categories_segments":[],"categories_sizes":[],"default_left":[0,0,0,0,0,0,0,0,0],"id":66,"left_children":[1,3,-1,5,7,-1,-1,-1,-1],"loss_changes":[7.495818E-1,7.824315E-1,0E0,3.3565903E0,4.1694827E0,0E0,0E0,0E0,0E0],"parents":[2147483647,0,0,1,1,3,3,4,4],"right_children":[2,4,-1,6,8,-1,-1,-1,-1],"split_conditions":[2.5E1,-1.4333135E0,1.093444E-1,-2.1439736E0,-7.3656714E-1,1.9985018E-3,-6.319241E-2,7.342024E-2,-1.9717652E-3],"split_indices":[6,4,0,4,4,0,0,0,0],"split_type":[0,0,0,0,0,0,0,0,0],"sum_hessian":[5.286003E2,5.271032E2,1.4970632E0,2.1011418E2,3.16989E2,1.7245135E2,3.7662823E1,3.1700129E1,2.8528888E2],"tree_param":{"num_deleted":"0","num_feature":"9","num_nodes":"9","size_leaf_vector":"1"}},{"base_weights":[3.325058E-4,-2.8576676E-2,4.7435954E-2,-6.85336E-2,1.6273554E-1,7.593859E-2,-3.515318E-1,-6.369286E-3,-1.113096E-1,-1.8620782E-2,1.03747025E-1,1.3924126E-1,1.0640244E-2,1.4321081E-1,-1.2380194E-1],"categories":[],"categories_nodes":[],"categories_segments":[],"categories_sizes":[],"default_left":[0,0,0,0,0,0,0,0,0,0,0,0,0,0,0],"id":67,"left_children":[1,3,5,7,9,11,13,-1,-1,-1,-1,-1,-1,-1,-1],"loss_changes":[7.223991E-1,2.5241954E0,2.3210247E0,4.8638425E0,5.2484527E0,2.6302903E0,4.335489E0,0E0,0E0,0E0,0E0,0E0,0E0,0E0,0E0],"parents":[2147483647,0,0,1,1,2,2,3,3,4,4,5,5,6,6],"right_children":[2,4,6,8,10,12,14,-1,-1,-1,-1,-1,-1,-1,-1],"split_conditions":[4.96971E-3,6.56455E-2,1.3333333E1,3.772094E-2,-1.7615937E0,6.8257367E-3,3E0,-6.369286E-3,-1.113096E-1,-1.8620782E-2,1.03747025E-1,1.3924126E-1,1.0640244E-2,1.4321081E-1,-1.2380194E-1],"split_indices":[0,1,6,1,4,0,8,0,0,0,0,0,0,0,0],"split_type":[0,0,0,0,0,0,0,0,0,0,0,0,0,0,0],"sum_hessian":[5.2850854E2,3.2774948E2,2.0075903E2,2.7165433E2,5.6095177E1,1.8812862E2,1.2630425E1,2.53651E2,1.8003315E1,3.3068756E1,2.302642E1,5.605058E0,1.8252356E2,2.1944892E0,1.0435937E1],"tree_param":{"num_deleted":"0","num_feature":"9","num_nodes":"15","size_leaf_vector":"1"}},{"base_weights":[6.709043E-4,4.2789586E-2,-3.0558966E-2,2.1067344E-1,-1.2923868E-1,-2.8705794E-1,3.760734E-2,-6.6009216E-2,5.2642275E-2,-1.3874184E-1,-1.1186135E-2,-7.451663E-2,1.4761871E-1,-8.0347955E-3,3.6120098E-2],"categories":[],"categories_nodes":[],"categories_segments":[],"categories_sizes":[],"default_left":[0,0,0,0,0,0,0,0,0,0,0,0,0,0,0],"id":68,"left_children":[1,3,5,7,9,11,13,-1,-1,-1,-1,-1,-1,-1,-1],"loss_changes":[6.955615E-1,6.529499E0,5.3202157E0,3.3346138E0,4.5882616E0,5.8751054E0,2.6853728E0,0E0,0E0,0E0,0E0,0E0,0E0,0E0,0E0],"parents":[2147483647,0,0,1,1,2,2,3,3,4,4,5,5,6,6],"right_children":[2,4,6,8,10,12,14,-1,-1,-1,-1,-1,-1,-1,-1],"split_conditions":[-4.1666668E-2,1.1E1,0E0,-4E0,-4.2857143E-1,1.9E1,1.2E1,-6.6009216E-2,5.2642275E-2,-1.3874184E-1,-1.1186135E-2,-7.451663E-2,1.4761871E-1,-8.0347955E-3,3.6120098E-2],"split_indices":[2,8,3,7,2,8,8,0,0,0,0,0,0,0,0],"split_type":[0,0,0,0,0,0,0,0,0,0,0,0,0,0,0],"sum_hessian":[5.268048E2,2.2414194E2,3.0266287E2,1.13323715E2,1.10818214E2,6.28725E1,2.3979037E2,9.568E0,1.03755714E2,1.17649975E1,9.9053215E1,5.8618683E1,4.2538166E0,1.5577525E2,8.4015114E1],"tree_param":{"num_deleted":"0","num_feature":"9","num_nodes":"15","size_leaf_vector":"1"}},{"base_weights":[3.2859514E-4,4.1336802E-1,-3.0119494E-3,1.2175869E-1,8.421766E-3,-5.4941587E-2,2.3938568E-2,-7.602086E-2,9.006884E-3,1.5191215E-3,1.00265495E-1],"categories":[],"categories_nodes":[],"categories_segments":[],"categories_sizes":[],"default_left":[0,0,0,0,0,0,0,0,0,0,0],"id":69,"left_children":[1,3,5,-1,-1,7,9,-1,-1,-1,-1],"loss_changes":[7.2784597E-1,2.8141904E-1,7.3379534E-1,0E0,0E0,5.840104E0,2.6898415E0,0E0,0E0,0E0,0E0],"parents":[2147483647,0,0,1,1,2,2,5,5,6,6],"right_children":[2,4,6,-1,-1,8,10,-1,-1,-1,-1],"split_conditions":[-8E0,1.4146249E-2,-2.6666667E0,1.2175869E-1,8.421766E-3,0E0,6.789435E0,-7.602086E-2,9.006884E-3,1.5191215E-3,1.00265495E-1],"split_indices":[7,1,6,0,0,3,4,0,0,0,0],"split_type":[0,0,0,0,0,0,0,0,0,0,0],"sum_hessian":[5.2560767E2,3.232116E0,5.2237555E2,1.698332E0,1.533784E0,1.7812213E2,3.4425345E2,4.122845E1,1.3689368E2,3.3384064E2,1.0412811E1],"tree_param":{"num_deleted":"0","num_feature":"9","num_nodes":"11","size_leaf_vector":"1"}},{"base_weights":[6.1585347E-4,4.538735E-3,-3.3138257E-1,1.9766707E-3,1.2355449E-1,-6.860951E-1,6.869065E-2,3.0944846E-3,-2.1126771E-2,-7.68148E-4,-2.3635983E-1],"categories":[],"categories_nodes":[],"categories_segments":[],"categories_sizes":[],"default_left":[0,0,0,0,0,0,0,0,0,0,0],"id":70,"left_children":[1,3,5,7,-1,9,-1,-1,-1,-1,-1],"loss_changes":[6.8556243E-1,8.159086E-1,1.7071065E0,7.5526154E-1,0E0,1.4709666E0,0E0,0E0,0E0,0E0,0E0],"parents":[2147483647,0,0,1,1,2,2,3,3,5,5],"right_children":[2,4,6,8,-1,10,-1,-1,-1,-1,-1],"split_conditions":[2.8912622E-1,2.1333334E1,2.3137255E0,4.490502E0,1.2355449E-1,3E-1,6.869065E-2,3.0944846E-3,-2.1126771E-2,-7.68148E-4,-2.3635983E-1],"split_indices":[1,5,4,4,0,3,0,0,0,0,0],"split_type":[0,0,0,0,0,0,0,0,0,0,0],"sum_hessian":[5.24233E2,5.1908575E2,5.1471696E0,5.179251E2,1.1606454E0,3.3628678E0,1.7843019E0,4.609698E2,5.6955357E1,1.8392262E0,1.5236417E0],"tree_param":{"num_deleted":"0","num_feature":"9","num_nodes":"11","size_leaf_vector":"1"}},{"base_weights":[4.4583855E-4,1.5535018E-1,-7.224453E-3,4.2213058E-1,-1.516393E-1,-3.0863944E-1,7.920231E-3,1.680703E-1,-4.9114477E-2,-6.4613305E-2,1.6717456E-1,-1.9406115E-1,-1.0780223E-2,-5.0869834E-2,4.5249294E-3],"categories":[],"categories_nodes":[],"categories_segments":[],"categories_sizes":[],"default_left":[0,0,0,0,0,0,0,0,0,0,0,0,0,0,0],"id":71,"left_children":[1,3,5,7,9,11,13,-1,-1,-1,-1,-1,-1,-1,-1],"loss_changes":[6.256216E-1,2.098572E0,2.292891E0,3.9918263E0,2.3499708E0,3.9979835E0,1.8519821E0,0E0,0E0,0E0,0E0,0E0,0E0,0E0,0E0],"parents":[2147483647,0,0,1,1,2,2,3,3,4,4,5,5,6,6],"right_children":[2,4,6,8,10,12,14,-1,-1,-1,-1,-1,-1,-1,-1],"split_conditions":[-8.722456E-2,-9.090909E-2,-6.762787E-2,-1.6666666E0,1.0467017E-1,6E0,-5.6850157E0,1.680703E-1,-4.9114477E-2,-6.4613305E-2,1.6717456E-1,-1.9406115E-1,-1.0780223E-2,-5.0869834E-2,4.5249294E-3],"split_indices":[0,2,0,5,1,8,4,0,0,0,0,0,0,0,0],"split_type":[0,0,0,0,0,0,0,0,0,0,0,0,0,0,0],"sum_hessian":[5.246013E2,2.3842375E1,5.0075897E2,1.2555935E1,1.1286441E1,2.3029913E1,4.7772903E2,7.561291E0,4.9946437E0,1.0190303E1,1.0961382E0,5.620917E0,1.7408997E1,2.4497198E1,4.5323184E2],"tree_param":{"num_deleted":"0","num_feature":"9","num_nodes":"15","size_leaf_vector":"1"}}]},"name":"gbtree"},"learner_model_param":{"base_score":"5.8089805E-1","boost_from_average":"1","num_class":"0","num_feature":"9","num_target":"1"},"objective":{"name":"binary:logistic","reg_loss_param":{"scale_pos_weight":"1"}}},"version":[3,0,5]}